SVM-light Version V6.02
0 # kernel type
3 # kernel parameter -d 
1 # kernel parameter -g 
1 # kernel parameter -s 
1 # kernel parameter -r 
empty# kernel parameter -u 
19572 # highest feature index 
69010 # number of training documents 
7164 # number of support vectors plus 1 
1.0298913 # threshold b, each following line is a SV (starting with alpha*y)
-0.018201666753690393107945055817254 2:0 3:5 4:0 5:1 7:0 8:1 4684:1 # 20140610052054AAkNfGL peace NN Cars_&_Transportation TOKEN
-0.017937827492439328835871492628939 2:0 3:5 4:0 5:1 7:0 8:1 4570:1 # 20140605190919AAVV44J focus NN Family_&_Relationships TOKEN
-0.008320566072139726210288301899709 2:0 3:3 4:0 5:0 7:0 8:1 11429:1 # 20140623072617AAIXida 4-1 NN Dining_Out TOKEN
-0.0037448952742769048285254029906355 2:0 3:4 4:0 5:1 7:0 43:1 3896:1 # 20140617152905AAraW4N lose VBP Education_&_Reference TOKEN
0.5 2:0 3:7 4:0 5:1 7:0 8:1 13781:1 # 20140616154757AA3uubn britain NN News_&_Events LOCATION
0.5 2:0 3:1 4:1 5:0 7:1 8:1 720:1 # 20140616143448AAdU6Ze D NN Dining_Out ORGANIZATION
0.5 2:1 3:5 4:0 5:0 7:1 73:1 8897:1 # 20140611011232AAoHyfn Spurs NNP Sports ORGANIZATION
0.5 2:1 3:5 4:0 5:1 7:0 12:1 19123:1 # 20140601002604AAq45X7 hicks NNS Pregnancy_&_Parenting PERSON
0.5 2:0 3:6 4:0 5:0 7:1 73:1 4276:1 # 20140604083714AANM1Br Oxford NNP Education_&_Reference LOCATION
0.5 2:0 3:5 4:0 5:1 7:0 88:1 13037:1 # 20140620172230AAfuPAg texas VB Local_Businesses LOCATION
-0.18278292860576517142590091680177 2:0 3:1 4:1 5:0 7:1 73:1 4291:1 # 20140608094114AAxPdPq U NNP Health TOKEN
-0.18202763658615594977163709700108 2:0 3:1 4:1 5:0 7:1 73:1 429:1 # 20140607141649AANF6Tv A NNP Consumer_Electronics TOKEN
0.5 2:0 3:4 4:0 5:0 7:1 73:1 11346:1 # 20140613214814AARwXS4 Lion NNP Local_Businesses ORGANIZATION
0.5 2:1 3:2 4:1 5:0 7:0 16:1 2475:1 # 20140617191218AAiEBHA US PRP News_&_Events LOCATION
0.5 2:0 3:2 4:0 5:1 7:0 8:1 5994:1 # 20140621045509AAck6mP uk NN News_&_Events LOCATION
-0.5 2:1 3:2 4:1 5:0 7:0 16:1 2475:1 # 20140603053113AAVRR5O US PRP Local_Businesses TOKEN
-0.18240299432747697494505700888112 2:0 3:1 4:1 5:0 7:1 73:1 8228:1 # 20140622013948AAZujJH W NNP Science_&_Mathematics TOKEN
-0.18278292860342304493315168656409 2:0 3:1 4:1 5:0 7:1 73:1 3174:1 # 20140603072418AAgZjcN X NNP Science_&_Mathematics TOKEN
-0.18278292860576517142590091680177 2:0 3:1 4:1 5:0 7:1 73:1 10193:1 # 20140603020037AAlyzyA M NNP Travel TOKEN
-0.18161362325027141650934936478734 2:0 3:1 4:1 5:0 7:1 17:1 73:1 # 20140612050152AA6IWUg I NNP Business_&_Finance TOKEN
0.5 2:0 3:2 4:0 5:1 7:0 8:1 13095:1 # 20140620035947AAeYEbM sc NN Local_Businesses LOCATION
-0.24400690378071898667400319027365 2:0 3:1 4:1 5:0 7:1 15:1 720:1 # 20140605214704AAzq0fk D . Health TOKEN
0.5 2:1 3:9 4:0 5:1 7:0 12:1 8260:1 # 20140611151627AAmAEbQ engineers NNS Politics_&_Government ORGANIZATION
0.5 2:1 3:2 4:1 5:0 7:0 16:1 2475:1 # 20140605225754AA2LJWC US PRP Consumer_Electronics LOCATION
-0.18278292860577405321009791805409 2:0 3:1 4:1 5:0 7:1 73:1 446:1 # 20140622013948AAZujJH V NNP Science_&_Mathematics TOKEN
-0.18278292860578204681587521918118 2:0 3:1 4:1 5:0 7:1 73:1 3175:1 # 20140603072418AAgZjcN Y NNP Science_&_Mathematics TOKEN
-0.304196924157327186488686265875 2:0 3:1 4:0 5:0 7:0 630:1 631:1 # 20140614231842AApn3VH # # Cars_&_Transportation TOKEN
-0.5 2:0 3:6 4:0 5:0 7:1 73:1 4276:1 # 20140605115942AAHijoB Oxford NNP Education_&_Reference TOKEN
0.38516004867137976219737538485788 2:0 3:3 4:0 5:0 7:1 73:1 2656:1 # 20140620123248AAQq23H New NNP Business_&_Finance LOCATION
-0.5 2:0 3:6 4:0 5:1 7:0 8:1 1441:1 # 20140614114159AAxmnir google NN Travel TOKEN
0.5 2:0 3:5 4:0 5:1 7:0 8:1 3986:1 # 20140617165924AASLrlc apple NN Consumer_Electronics ORGANIZATION
0.5 2:0 3:7 4:0 5:0 7:1 73:1 9492:1 # 20140618123245AAiwouS England NNP Sports LOCATION
0.5 2:0 3:3 4:0 5:1 7:0 26:1 3981:1 # 20140605040256AAru12G low JJ Entertainment_&_Music PERSON
0.5 2:0 3:3 4:0 5:1 7:0 26:1 9449:1 # 20140623022611AAddTaJ ufc JJ Sports ORGANIZATION
0.5 2:0 3:3 4:0 5:1 7:0 26:1 31:1 # 20140622230045AAAI6WE new JJ Travel LOCATION
0.5 2:1 3:2 4:1 5:0 7:0 16:1 2475:1 # 20140613180332AA3jCxr US PRP News_&_Events LOCATION
-0.014837752023829864356230245903134 2:0 3:8 4:0 5:1 7:0 8:1 18417:1 # 20140617134810AAX61tb masacare NN Travel TOKEN
-0.48681177480041171179436787497252 2:0 3:3 4:0 5:1 7:0 26:1 31:1 # 20140603135120AADmwVl new JJ Games_&_Recreation TOKEN
-0.49833898628234862826502649113536 2:0 3:9 4:0 5:0 7:1 73:1 3852:1 # 20140622124551AAdVqpC Instagram NNP Local_Businesses TOKEN
-0.48180820638262350508185249964299 2:1 3:2 4:1 5:0 7:0 16:1 2475:1 # 20140603053113AAVRR5O US PRP Local_Businesses TOKEN
-0.49944250219992880612807084617089 2:0 3:3 4:0 5:0 7:1 24:1 830:1 # 20140605091638AATCTbo All DT Arts_&_Humanities TOKEN
-0.059420442819594340710942503847036 2:0 3:3 4:0 5:0 7:1 26:1 9931:1 # 20140621092416AArsE0s Due JJ Social_Science TOKEN
-0.059464209239842552578991785594553 2:0 3:3 4:0 5:0 7:1 26:1 8415:1 # 20140613192110AABUd4A Wet JJ Beauty_&_Style TOKEN
-0.060050932731024575517153607506771 2:0 3:3 4:0 5:0 7:1 26:1 1100:1 # 20140611185044AABR6jn Bad JJ Family_&_Relationships TOKEN
-0.059940218688975033245469603571109 2:0 3:3 4:0 5:0 7:1 26:1 884:1 # 20140620231356AA5VO2N Lol JJ Games_&_Recreation TOKEN
-0.01969759713473218099011319281999 2:0 3:4 4:0 5:1 7:0 8:1 12304:1 # 20140615100226AACLhyS camp NN Home_&_Garden TOKEN
-0.24587174527006450119870351045392 2:0 3:4 4:0 5:0 7:1 73:1 2392:1 # 20140616190348AA6nheU June NNP Dining_Out TOKEN
-0.2457896924410212236011830100324 2:0 3:4 4:0 5:0 7:1 73:1 12231:1 # 20140608155422AAGg2Wt Beat NNP Pregnancy_&_Parenting TOKEN
-0.24545794076875496192435832654155 2:0 3:4 4:0 5:0 7:1 73:1 15257:1 # 20140605231104AAm8fzJ Heck NNP Politics_&_Government TOKEN
-0.24478938493231372497405118338065 2:0 3:4 4:0 5:0 7:1 73:1 5063:1 # 20140620035947AAeYEbM Sour NNP Local_Businesses TOKEN
0.5 2:0 3:10 4:0 5:1 7:0 8:1 8927:1 # 20140615190410AAmWDg3 wristwatch NN Sports PERSON
0.5 2:0 3:10 4:0 5:1 7:0 8:1 5172:1 # 20140614004826AAWj9IB wonderland NN Entertainment_&_Music LOCATION
-0.2465876878527776816518723990157 2:0 3:3 4:0 5:0 7:1 73:1 19299:1 # 20140621192007AAsQBSf Ohh NNP Pregnancy_&_Parenting TOKEN
0.5 2:0 3:6 4:0 5:0 7:1 73:1 14253:1 # 20140609053527AAHPrln Maxine NNP News_&_Events PERSON
0.5 2:1 3:8 4:0 5:0 7:1 73:1 15513:1 # 20140617193722AA5emAo Khattala NNP Politics_&_Government PERSON
0.5 2:0 3:7 4:0 5:1 7:0 8:1 13566:1 # 20140617033632AAaS0SQ lindsay NN News_&_Events PERSON
0.5 2:0 3:3 4:0 5:1 7:0 26:1 31:1 # 20140612200636AAqMBhQ new JJ Politics_&_Government LOCATION
0.5 2:0 3:1 4:0 5:0 7:0 630:1 631:1 # 20140605034309AAV7PuK # # Consumer_Electronics PERSON
0.5 2:0 3:2 4:0 5:1 7:0 8:1 18381:1 # 20140617134810AAX61tb nz NN Travel LOCATION
0.5 2:0 3:3 4:0 5:1 7:0 8:1 14450:1 # 20140617191218AAiEBHA fox NN News_&_Events ORGANIZATION
0.5 2:0 3:3 4:0 5:1 7:0 8:1 11396:1 # 20140616143448AAdU6Ze hut NN Dining_Out ORGANIZATION
0.5 2:0 3:1 4:0 5:0 7:0 630:1 631:1 # 20140605034309AAV7PuK # # Consumer_Electronics PERSON
-0.018331288407162027453978225821629 2:0 3:5 4:0 5:1 7:0 8:1 723:1 # 20140619063559AA2eks0 front NN Home_&_Garden TOKEN
-0.49999992550311778138905083324062 2:0 3:4 4:0 5:1 7:0 8:1 194:1 # 20140607071218AAzGtJH time NN Family_&_Relationships TOKEN
0.5 2:0 3:5 4:0 5:1 7:0 20:1 15566:1 # 20140603004555AAv1K5X steve VBG Politics_&_Government PERSON
-0.5 2:0 3:5 4:0 5:1 7:0 8:1 3986:1 # 20140626034154AAGjZE1 apple NN Food_&_Drink TOKEN
0.5 2:0 3:6 4:0 5:0 7:1 73:1 5218:1 # 20140614004826AAWj9IB Ferris NNP Entertainment_&_Music PERSON
0.5 2:1 3:2 4:1 5:0 7:0 16:1 2475:1 # 20140605225754AA2LJWC US PRP Consumer_Electronics LOCATION
-0.5 2:0 3:1 4:0 5:0 7:0 630:1 631:1 # 20140611152558AA4un22 # # Cars_&_Transportation TOKEN
0.5 2:0 3:9 4:0 5:1 7:0 8:1 6620:1 # 20140612080629AAuyjlx brookwood NN Health PERSON
0.5 2:0 3:9 4:0 5:1 7:0 8:1 7298:1 # 20140606094406AAvjkJW wikipedia NN Games_&_Recreation ORGANIZATION
0.5 2:0 3:3 4:0 5:1 7:0 8:1 2189:1 # 20140605040256AAru12G boy NN Entertainment_&_Music PERSON
-0.5 2:0 3:2 4:0 5:1 7:0 8:1 13095:1 # 20140620035947AAeYEbM sc NN Local_Businesses TOKEN
-0.018195225384338709062603811617009 2:0 3:5 4:0 5:1 7:0 8:1 9751:1 # 20140607184915AAytW6g fling NN Social_Science TOKEN
-0.018481911708551734818684053607285 2:0 3:5 4:0 5:1 7:0 8:1 375:1 # 20140608143112AAz8XEx photo NN Yahoo!_Products TOKEN
0.5 2:0 3:7 4:0 5:1 7:0 26:1 7383:1 # 20140614114159AAxmnir western JJ Travel LOCATION
-0.49864368641772349732832481095102 2:1 3:2 4:1 5:0 7:0 16:1 2475:1 # 20140622223032AAkvyyd US PRP Games_&_Recreation TOKEN
-0.5 2:1 3:2 4:1 5:0 7:0 73:1 2475:1 # 20140619105821AAuioIb US NNP Education_&_Reference TOKEN
0.5 2:1 3:2 4:1 5:0 7:0 16:1 2475:1 # 20140613214814AARwXS4 US PRP Local_Businesses LOCATION
-0.021271833140211499069138767481491 2:0 3:3 4:0 5:1 7:0 8:1 2189:1 # 20140615100226AACLhyS boy NN Home_&_Garden TOKEN
-0.010479362938632164059526985511184 2:0 3:12 4:0 5:1 7:0 8:1 13104:1 # 20140620035947AAeYEbM promethazine NN Local_Businesses TOKEN
-0.24706233095915219877269919379614 2:0 3:3 4:0 5:0 7:1 73:1 1896:1 # 20140605091638AATCTbo Too NNP Arts_&_Humanities TOKEN
-0.49907282971365751755854489601916 2:0 3:3 4:0 5:1 7:0 8:1 2189:1 # 20140606231225AAaaTGf boy NN Social_Science TOKEN
0.5 2:0 3:4 4:0 5:0 7:1 73:1 783:1 # 20140617074422AANUT7h Sade NNP Arts_&_Humanities PERSON
0.5 2:0 3:3 4:0 5:1 7:0 32:1 73:1 # 20140616143448AAdU6Ze and NNP Dining_Out ORGANIZATION
0.5 2:0 3:2 4:0 5:1 7:0 8:1 13095:1 # 20140620035947AAeYEbM sc NN Local_Businesses LOCATION
-0.5 2:0 3:3 4:0 5:1 7:0 32:1 73:1 # 20140617164024AABuVO8 and NNP Food_&_Drink TOKEN
0.5 2:0 3:3 4:0 5:1 7:0 8:1 2189:1 # 20140605040256AAru12G boy NN Entertainment_&_Music PERSON
-0.029181350464924094012530986219645 2:0 3:1 4:1 5:0 7:1 8:1 10939:1 # 20140617194830AAHJTRC T NN Dining_Out TOKEN
-0.029756103030907254947123874444515 2:0 3:1 4:1 5:0 7:1 8:1 8037:1 # 20140605031016AAsN8GR E NN Science_&_Mathematics TOKEN
-0.02950613659718870351866826240439 2:0 3:1 4:1 5:0 7:1 8:1 445:1 # 20140623173753AAUMZe3 C NN Food_&_Drink TOKEN
0.5 2:1 3:2 4:1 5:0 7:0 16:1 2475:1 # 20140614170630AA1o9BQ US PRP Politics_&_Government ORGANIZATION
-0.41524061053657168596231485935277 2:1 3:2 4:1 5:0 7:0 16:1 2475:1 # 20140619072135AAeFu7N US PRP Politics_&_Government TOKEN
-0.49999888548438192747980224339699 2:0 3:3 4:0 5:1 7:0 8:1 2189:1 # 20140607064609AA5EKx9 boy NN Pregnancy_&_Parenting TOKEN
-0.1759966710445772797299923695391 2:0 3:1 4:0 5:1 7:0 73:1 7570:1 # 20140608075953AADKMro n NNP Dining_Out TOKEN
-0.5 2:0 3:8 4:0 5:0 7:1 73:1 4686:1 # 20140618123245AAiwouS American NNP Sports TOKEN
-0.17485382430443774381956245633774 2:0 3:2 4:0 5:1 7:0 73:1 154:1 # 20140605231620AALI0MD to NNP Games_&_Recreation TOKEN
-0.10726519024321945483535500898142 2:0 3:5 4:0 5:0 7:1 16:1 13522:1 # 20140605200512AAK0eW7 Yours PRP Family_&_Relationships TOKEN
0.5 2:0 3:7 4:0 5:1 7:0 8:1 5072:1 # 20140616190348AA6nheU walmart NN Dining_Out ORGANIZATION
0.5 2:0 3:2 4:0 5:1 7:0 73:1 149:1 # 20140616143448AAdU6Ze in NNP Dining_Out ORGANIZATION
0.5 2:0 3:3 4:0 5:1 7:0 32:1 73:1 # 20140616143448AAdU6Ze and NNP Dining_Out ORGANIZATION
-0.019729979947633591308431277866475 2:0 3:4 4:0 5:1 7:0 8:1 2735:1 # 20140601212337AAqNOhQ shop NN Business_&_Finance TOKEN
0.5 2:1 3:2 4:1 5:0 7:0 16:1 2475:1 # 20140614170630AA1o9BQ US PRP Politics_&_Government ORGANIZATION
-0.5 2:1 3:2 4:1 5:0 7:0 73:1 2475:1 # 20140619105821AAuioIb US NNP Education_&_Reference TOKEN
-0.090040521845991206006942775275093 2:0 3:6 4:0 5:0 7:1 8:1 6120:1 # 20140604081141AAka3pg Weight NN Health TOKEN
-0.057115676843851659327810921240598 2:0 3:5 4:0 5:0 7:1 26:1 8521:1 # 20140617145102AAT8yhN Short JJ Beauty_&_Style TOKEN
-0.43139486313896213687257841229439 2:1 3:9 4:0 5:1 7:0 12:1 8260:1 # 20140608143112AAz8XEx engineers NNS Yahoo!_Products TOKEN
-0.175996671051484643300000243471 2:0 3:1 4:0 5:1 7:0 73:1 1159:1 # 20140601100338AAUfBLz b NNP News_&_Events TOKEN
-0.17601836214435273575418250402436 2:0 3:1 4:0 5:1 7:0 73:1 2284:1 # 20140601034548AAxsbgI f NNP Science_&_Mathematics TOKEN
-0.17601836214431187954687629826367 2:0 3:1 4:0 5:1 7:0 73:1 3471:1 # 20140622093907AASVTkE t NNP Business_&_Finance TOKEN
-0.24596256208163680412326357327402 2:0 3:3 4:0 5:0 7:1 73:1 8551:1 # 20140610100930AAaZ9T3 Bay NNP Beauty_&_Style TOKEN
-0.24173908834779744836396275786683 2:0 3:7 4:0 5:0 7:1 73:1 3160:1 # 20140601131055AAPxhOP Mention NNP Business_&_Finance TOKEN
-0.0185175131780201951414710492827 2:0 3:5 4:0 5:1 7:0 8:1 9785:1 # 20140608023935AA61Kab widow NN Social_Science TOKEN
0.5 2:0 3:6 4:0 5:0 7:1 73:1 2160:1 # 20140609160711AAprF2f Gloria NNP Arts_&_Humanities PERSON
-0.49847760688503939263682696036994 2:0 3:4 4:0 5:1 7:0 8:1 3365:1 # 20140610194612AA31tgA ebay NN Local_Businesses TOKEN
-0.01091777949649341827864645892987 2:0 3:1 4:0 5:0 7:0 8:1 19465:1 # 20140615171734AAd4Cuo ∇ NN Yahoo!_Products TOKEN
0.5 2:1 3:2 4:1 5:0 7:0 16:1 2475:1 # 20140622210819AARJGLW US PRP Entertainment_&_Music LOCATION
-0.5 2:1 3:2 4:1 5:0 7:0 73:1 2475:1 # 20140619105821AAuioIb US NNP Education_&_Reference TOKEN
-0.5 2:0 3:3 4:0 5:1 7:0 26:1 31:1 # 20140603135339AAL5mDP new JJ Cars_&_Transportation TOKEN
0.5 2:0 3:2 4:0 5:1 7:0 12:1 3151:1 # 20140613111831AABRhzn al NNS News_&_Events ORGANIZATION
0.5 2:0 3:7 4:0 5:1 7:0 26:1 2720:1 # 20140611170153AAHPuYj scarlet JJ Education_&_Reference PERSON
-0.053246645934278913347981188053382 2:0 3:9 4:0 5:0 7:1 26:1 15718:1 # 20140608113007AAoVpt8 Political JJ Politics_&_Government TOKEN
-0.5 2:0 3:3 4:0 5:1 7:0 32:1 73:1 # 20140617213812AAnm3nS and NNP Travel TOKEN
-0.49790389200696794080869267418166 2:0 3:2 4:0 5:1 7:0 12:1 3151:1 # 20140623230739AA9pP9C al NNS News_&_Events TOKEN
-0.057304148010353030129326867836426 2:0 3:5 4:0 5:0 7:1 26:1 3839:1 # 20140603191657AA88Y0T Other JJ Pets TOKEN
-0.034461215547902379618960821971996 2:0 3:7 4:0 5:1 7:0 123:1 12156:1 # 20140623173753AAUMZe3 contain VBZ Food_&_Drink TOKEN
-0.018259502353419332365547234076075 2:0 3:5 4:0 5:1 7:0 8:1 9019:1 # 20140601140351AAMxHZD troll NN Pregnancy_&_Parenting TOKEN
-0.025432086003238651983338058926165 2:1 3:8 4:0 5:0 7:1 20:1 9055:1 # 20140605104442AAFzzy2 Standing VBG Sports TOKEN
0.5 2:0 3:2 4:0 5:1 7:0 8:1 5994:1 # 20140621045509AAck6mP uk NN News_&_Events LOCATION
0.5 2:0 3:2 4:0 5:1 7:0 8:1 18381:1 # 20140617134810AAX61tb nz NN Travel LOCATION
0.5 2:0 3:3 4:0 5:1 7:0 8:1 11396:1 # 20140616143448AAdU6Ze hut NN Dining_Out ORGANIZATION
-0.051866484964666753620932126978005 2:0 3:10 4:0 5:0 7:1 26:1 7930:1 # 20140618024923AAR6gIm Sufficient JJ Science_&_Mathematics TOKEN
-0.022609328565869724059211876010522 2:0 3:2 4:0 5:1 7:0 37:1 73:1 # 20140609091235AAxdu3y on NNP Consumer_Electronics TOKEN
-0.021682623990084248788434706511907 2:0 3:2 4:0 5:1 7:0 8:1 12393:1 # 20140608232829AAA2063 ft NN Home_&_Garden TOKEN
-0.022026599537406876816447720557335 2:0 3:2 4:0 5:1 7:0 8:1 5738:1 # 20140605140138AAyDVJY ta NN Entertainment_&_Music TOKEN
-0.018532181761599986202782019972801 2:0 3:5 4:0 5:1 7:0 8:1 3163:1 # 20140601131055AAPxhOP waaay NN Business_&_Finance TOKEN
0.5 2:0 3:7 4:0 5:0 7:1 73:1 5430:1 # 20140607125905AA2JtXv America NNP Politics_&_Government LOCATION
-0.0034749742096543759228843839537149 2:0 3:5 4:0 5:0 6:1 7:1 1580:1 # 20140613121148AAUGduQ Would MD Social_Science TOKEN
-0.063700927243061311600058616022579 2:0 3:10 4:0 5:0 7:1 8:1 15762:1 # 20140611151627AAmAEbQ Production NN Politics_&_Government TOKEN
-0.051973964303351508076111997525004 2:0 3:10 4:0 5:0 7:1 26:1 5341:1 # 20140613124158AAH0KXB Successful JJ Entertainment_&_Music TOKEN
-0.021975815812623977762996219098568 2:0 3:2 4:0 5:1 7:0 8:1 2753:1 # 20140613073945AAjr9GV ya NN Pets TOKEN
-0.021948754711130114003481139661744 2:0 3:2 4:0 5:1 7:0 8:1 4212:1 # 20140605092633AAPkbBp a. NN Science_&_Mathematics TOKEN
-0.24547149410314483830575227329973 2:0 3:4 4:0 5:0 7:1 73:1 3272:1 # 20140611152642AAd7nNQ Fake NNP Pets TOKEN
-0.24588727681611288744534249417484 2:0 3:4 4:0 5:0 7:1 73:1 2445:1 # 20140608145354AAWyj40 Ring NNP Business_&_Finance TOKEN
0.5 2:0 3:5 4:0 5:0 7:1 73:1 14019:1 # 20140609103348AAf8tZ6 Allah NNP News_&_Events PERSON
0.5 2:0 3:3 4:1 5:0 7:0 73:1 14319:1 # 20140606223938AAjsrL7 AFC NNP News_&_Events ORGANIZATION
0.5 2:0 3:5 4:0 5:0 7:1 73:1 1453:1 # 20140605223141AA4aNVu Scott NNP Arts_&_Humanities PERSON
-0.017937827492432667497723741689697 2:0 3:5 4:0 5:1 7:0 8:1 11819:1 # 20140612135609AAxFMMn autum NN Food_&_Drink TOKEN
-0.018577082780053322252911129908171 2:0 3:5 4:0 5:1 7:0 8:1 7301:1 # 20140615112034AAukyhJ steam NN Science_&_Mathematics TOKEN
-0.017979542850323271263590640955954 2:0 3:5 4:0 5:1 7:0 8:1 355:1 # 20140611123045AAMKOWz style NN Pets TOKEN
0.5 2:1 3:3 4:1 5:0 7:0 73:1 15277:1 # 20140625082631AAcgyMl IRS NNP Politics_&_Government ORGANIZATION
0.5 2:1 3:3 4:1 5:0 7:0 73:1 12376:1 # 20140601134625AAPRFLP CVS NNP Home_&_Garden ORGANIZATION
0.5 2:1 3:3 4:1 5:0 7:0 73:1 9297:1 # 20140626152929AAvb2mt SFS NNP Sports ORGANIZATION
0.5 2:1 3:4 4:1 5:0 7:0 73:1 13003:1 # 20140625100949AAuIkTO USPS NNP Local_Businesses ORGANIZATION
0.5 2:0 3:89 4:0 5:1 7:0 26:1 10552:1 # 20140608182325AAmvy1Q http:##www.cyberdriveillinois.com#departments#drivers#drivers_license#drlicid.html#mcylic JJ Cars_&_Transportation LOCATION
0.5 2:0 3:10 4:0 5:1 7:0 8:1 2204:1 # 20140614170630AA1o9BQ government NN Politics_&_Government ORGANIZATION
-0.00028134120614975444141236948780715 2:0 3:8 4:0 5:1 7:0 8:1 4814:1 # 20140605225313AAAhy4Z hospital NN Health TOKEN
-0.056063264363468423567837817245163 2:0 3:6 4:0 5:0 7:1 26:1 9309:1 # 20140626152929AAvb2mt Afraid JJ Sports TOKEN
-1.6084034104579814083990640938282e-10 2:0 3:8 4:0 5:1 7:0 8:1 12123:1 # 20140601073120AActdQD festival NN Food_&_Drink TOKEN
-0.0083365674245208243320348628913052 2:0 3:4 4:0 5:0 7:1 88:1 3504:1 # 20140612231240AAb6Jgs Save VB Consumer_Electronics TOKEN
0.5 2:0 3:2 4:0 5:0 7:1 22:1 608:1 # 20140605040256AAru12G My PRP$ Entertainment_&_Music PERSON
0.5 2:0 3:3 4:0 5:0 7:1 24:1 729:1 # 20140606223938AAjsrL7 The DT News_&_Events ORGANIZATION
0.5 2:0 3:3 4:0 5:0 7:1 24:1 830:1 # 20140605040256AAru12G All DT Entertainment_&_Music PERSON
0.5 2:0 3:2 4:1 5:0 7:0 73:1 11389:1 # 20140616143448AAdU6Ze DQ NNP Dining_Out ORGANIZATION
-0.018290589219095210182786104269326 2:0 3:5 4:0 5:1 7:0 8:1 7333:1 # 20140625054715AAcJnX8 shelf NN Games_&_Recreation TOKEN
0.5 2:0 3:6 4:0 5:0 7:1 8:1 11347:1 # 20140616143448AAdU6Ze Choice NN Dining_Out ORGANIZATION
-0.017095171496429528712468481899123 2:0 3:5 4:0 5:1 7:0 8:1 1139:1 # 20140616072209AARwehs irony NN Arts_&_Humanities TOKEN
0.5 2:0 3:4 4:0 5:1 7:0 8:1 11101:1 # 20140613111207AAD5YgE gacy NN Dining_Out PERSON
0.5 2:0 3:4 4:0 5:1 7:0 8:1 487:1 # 20140620035947AAeYEbM area NN Local_Businesses LOCATION
0.5 2:0 3:4 4:0 5:1 7:0 8:1 194:1 # 20140605040256AAru12G time NN Entertainment_&_Music PERSON
0.5 2:0 3:4 4:0 5:1 7:0 8:1 13833:1 # 20140607125905AA2JtXv army NN Politics_&_Government ORGANIZATION
0.5 2:0 3:5 4:0 5:1 7:0 8:1 9588:1 # 20140615224306AASdmOX james NN Sports PERSON
0.5 2:0 3:5 4:0 5:1 7:0 8:1 7155:1 # 20140625171643AAxjtac intel NN Computer_&_Internet ORGANIZATION
-0.018504022030551681154975085519254 2:0 3:5 4:0 5:1 7:0 8:1 4324:1 # 20140610102326AA3pmaG paper NN Education_&_Reference TOKEN
0.5 2:0 3:7 4:0 5:1 7:0 8:1 5072:1 # 20140616190348AA6nheU walmart NN Dining_Out ORGANIZATION
-0.017809392917554789370626622257987 2:0 3:5 4:0 5:1 7:0 8:1 2911:1 # 20140610121407AAmfyfy topic NN Food_&_Drink TOKEN
-0.018608610072444520255885436199605 2:0 3:5 4:0 5:1 7:0 8:1 423:1 # 20140625171723AAQIRte click NN Computer_&_Internet TOKEN
0.5 2:0 3:2 4:1 5:0 7:0 73:1 4294:1 # 20140604083714AANM1Br GA NNP Education_&_Reference LOCATION
0.5 2:0 3:2 4:1 5:0 7:0 73:1 3408:1 # 20140610222206AAaaj3T UK NNP News_&_Events LOCATION
0.5 2:0 3:7 4:0 5:1 7:0 8:1 13566:1 # 20140617033632AAaS0SQ lindsay NN News_&_Events PERSON
0.5 2:0 3:7 4:0 5:1 7:0 8:1 13781:1 # 20140616154757AA3uubn britain NN News_&_Events LOCATION
-0.018608610071828568521823399350978 2:0 3:5 4:0 5:1 7:0 8:1 3483:1 # 20140619104923AAP4ZDh model NN Home_&_Garden TOKEN
0.5 2:0 3:3 4:0 5:0 7:0 204:1 2700:1 # 20140605081144AAuazx4 1#2 CD Science_&_Mathematics PERSON
0.5 2:0 3:2 4:1 5:0 7:0 73:1 11527:1 # 20140608112522AAMjxU9 LA NNP Local_Businesses LOCATION
0.5 2:0 3:2 4:1 5:0 7:0 73:1 14378:1 # 20140613180332AA3jCxr AL NNP News_&_Events ORGANIZATION
0.5 2:0 3:7 4:0 5:1 7:0 8:1 12137:1 # 20140623173753AAUMZe3 iceland NN Food_&_Drink LOCATION
0.5 2:0 3:7 4:0 5:1 7:0 8:1 13063:1 # 20140615091428AA1nGW3 niagara NN Local_Businesses LOCATION
0.5 2:0 3:7 4:0 5:1 7:0 8:1 10581:1 # 20140607104849AAvstRC hyundai NN Cars_&_Transportation ORGANIZATION
0.5 2:0 3:4 4:0 5:1 7:0 8:1 1077:1 # 20140616143448AAdU6Ze land NN Dining_Out ORGANIZATION
0.5 2:0 3:4 4:0 5:1 7:0 8:1 4391:1 # 20140619105821AAuioIb kean NN Education_&_Reference ORGANIZATION
0.5 2:0 3:4 4:0 5:1 7:0 8:1 19455:1 # 20140610080957AAEwFfP andy NN Yahoo!_Products PERSON
0.5 2:0 3:4 4:0 5:1 7:0 8:1 8143:1 # 20140612211617AAE6Bis iraq NN News_&_Events LOCATION
0.5 2:1 3:6 4:0 5:1 7:0 8:1 5762:1 # 20140605140138AAyDVJY barros NN Entertainment_&_Music PERSON
0.5 2:1 3:4 4:0 5:0 7:1 12:1 8743:1 # 20140616143448AAdU6Ze Guys NNS Dining_Out ORGANIZATION
0.5 2:0 3:4 4:0 5:1 7:0 26:1 13974:1 # 20140613111831AABRhzn east JJ News_&_Events LOCATION
0.5 2:0 3:5 4:0 5:0 7:1 8:1 5598:1 # 20140605040256AAru12G Panic NN Entertainment_&_Music PERSON
0.5 2:0 3:5 4:0 5:0 7:1 8:1 5440:1 # 20140616143448AAdU6Ze Juice NN Dining_Out ORGANIZATION
-0.018614982115458644784666830673814 2:0 3:5 4:0 5:1 7:0 8:1 6204:1 # 20140609175346AAWw6PO shirt NN Home_&_Garden TOKEN
0.5 2:0 3:2 4:0 5:0 7:1 73:1 11325:1 # 20140616143448AAdU6Ze El NNP Dining_Out ORGANIZATION
0.5 2:0 3:2 4:1 5:0 7:0 73:1 809:1 # 20140617074422AANUT7h J. NNP Arts_&_Humanities PERSON
0.5 2:0 3:2 4:1 5:0 7:0 73:1 3928:1 # 20140615222209AAOSKxY LG NNP Entertainment_&_Music ORGANIZATION
0.5 2:0 3:2 4:1 5:0 7:0 73:1 9505:1 # 20140623125801AASUucg NJ NNP Food_&_Drink LOCATION
0.5 2:0 3:2 4:1 5:0 7:0 73:1 4300:1 # 20140604083714AANM1Br TX NNP Education_&_Reference LOCATION
-0.018540583135392356417536774415566 2:0 3:5 4:0 5:1 7:0 8:1 18129:1 # 20140608120927AA1JZcv wagon NN Travel TOKEN
0.5 2:0 3:7 4:0 5:1 7:0 8:1 11079:1 # 20140616143448AAdU6Ze chicken NN Dining_Out ORGANIZATION
-0.018583398787707317012518615229055 2:0 3:5 4:0 5:1 7:0 8:1 6414:1 # 20140601022509AAalkZo couch NN Health TOKEN
0.5 2:0 3:7 4:0 5:1 7:0 8:1 3810:1 # 20140603131218AA1t3hP mission NN Local_Businesses LOCATION
-0.33453939398333698562737481552176 2:0 3:4 4:0 5:1 7:0 8:1 194:1 # 20140625140958AAG0wQK time NN Beauty_&_Style TOKEN
-0.49975319504746584797771902231034 2:0 3:4 4:0 5:1 7:0 8:1 487:1 # 20140606081156AANGQrl area NN Health TOKEN
0.5 2:0 3:2 4:1 5:0 7:0 73:1 4507:1 # 20140618125641AAGkGpi C. NNP Education_&_Reference PERSON
0.5 2:0 3:6 4:0 5:1 7:0 8:1 2071:1 # 20140625193136AAUePpR stoker NN Arts_&_Humanities PERSON
0.5 2:0 3:6 4:0 5:1 7:0 8:1 1441:1 # 20140607053946AAkMdTv google NN Social_Science ORGANIZATION
0.5 2:0 3:6 4:0 5:1 7:0 8:1 8740:1 # 20140612145554AAjlhJX europe NN Beauty_&_Style LOCATION
0.5 2:0 3:6 4:0 5:1 7:0 8:1 15149:1 # 20140626101740AADAK0e obongo NN Politics_&_Government PERSON
-0.018412832541680579367948666913435 2:0 3:5 4:0 5:1 7:0 8:1 15209:1 # 20140610123048AAZOuhW firey NN Politics_&_Government TOKEN
0.5 2:0 3:6 4:0 5:1 7:0 8:1 359:1 # 20140622080843AAfcL4m tumblr NN Pets ORGANIZATION
0.5 2:0 3:6 4:0 5:1 7:0 8:1 2991:1 # 20140604131630AAZXrpw yorbin NN Business_&_Finance ORGANIZATION
0.5 2:0 3:6 4:0 5:1 7:0 8:1 11397:1 # 20140616143448AAdU6Ze popeye NN Dining_Out ORGANIZATION
0.5 2:0 3:7 4:0 5:1 7:0 8:1 13566:1 # 20140622053126AAxcj34 lindsay NN Family_&_Relationships PERSON
-0.018559383448748079104007047135383 2:0 3:5 4:0 5:1 7:0 8:1 2431:1 # 20140617052323AAeXK8h today NN Cars_&_Transportation TOKEN
-0.019599523782641403713000727293547 2:0 3:4 4:0 5:1 7:0 8:1 892:1 # 20140616141615AA44wGc luck NN Family_&_Relationships TOKEN
-0.019727137908058092752305867634277 2:0 3:4 4:0 5:1 7:0 8:1 293:1 # 20140618114010AAeeGQR head NN Pregnancy_&_Parenting TOKEN
-0.019617344030499861418093132670037 2:0 3:4 4:0 5:1 7:0 8:1 5298:1 # 20140609160644AAyOM0u meat NN Health TOKEN
-0.018515327731484898521330251242034 2:0 3:5 4:0 5:1 7:0 8:1 385:1 # 20140610190716AAGOR0h place NN Dining_Out TOKEN
0.5 2:0 3:6 4:0 5:1 7:0 8:1 11397:1 # 20140616143448AAdU6Ze popeye NN Dining_Out ORGANIZATION
0.5 2:0 3:5 4:0 5:1 7:0 8:1 7374:1 # 20140601160702AAOGVk4 yahoo NN Yahoo!_Products ORGANIZATION
0.5 2:0 3:6 4:0 5:1 7:0 8:1 12812:1 # 20140610174552AAptb2t lsland NN Local_Businesses LOCATION
0.5 2:0 3:6 4:0 5:1 7:0 8:1 5586:1 # 20140605040256AAru12G maiden NN Entertainment_&_Music PERSON
0.5 2:0 3:6 4:0 5:1 7:0 8:1 15567:1 # 20140603004555AAv1K5X balmer NN Politics_&_Government PERSON
0.5 2:0 3:6 4:0 5:1 7:0 8:1 10383:1 # 20140615174740AA8MA6l malibu NN Cars_&_Transportation LOCATION
-0.018243644942542023429377096022108 2:0 3:5 4:0 5:1 7:0 8:1 629:1 # 20140625054715AAcJnX8 money NN Games_&_Recreation TOKEN
0.5 2:0 3:4 4:0 5:1 7:0 8:1 194:1 # 20140605040256AAru12G time NN Entertainment_&_Music PERSON
-0.019754141559531035454710945487022 2:0 3:4 4:0 5:1 7:0 8:1 1202:1 # 20140612050152AA6IWUg room NN Business_&_Finance TOKEN
0.5 2:0 3:4 4:0 5:0 7:0 8:1 3200:1 # 20140617164637AAddgz5 eBay NN Local_Businesses ORGANIZATION
-0.018607964638465368523156939772889 2:0 3:5 4:0 5:1 7:0 8:1 12178:1 # 20140610121407AAmfyfy slush NN Food_&_Drink TOKEN
0.5 2:0 3:6 4:0 5:1 7:0 8:1 9451:1 # 20140623022611AAddTaJ lesnar NN Sports PERSON
0.5 2:0 3:6 4:0 5:1 7:0 8:1 14956:1 # 20140622080843AAfcL4m selena NN Pets PERSON
-0.0073732011514662243456541546038352 2:0 3:4 4:0 5:0 7:0 8:1 3040:1 # 20140611204210AAPJj1y هناك NN Business_&_Finance TOKEN
0.5 2:0 3:5 4:0 5:1 7:0 8:1 14957:1 # 20140622080843AAfcL4m gomez NN Pets PERSON
0.5 2:0 3:5 4:0 5:1 7:0 8:1 11110:1 # 20140613111207AAD5YgE wayne NN Dining_Out PERSON
0.5 2:0 3:5 4:0 5:1 7:0 8:1 13881:1 # 20140617033632AAaS0SQ lohan NN News_&_Events PERSON
0.5 2:0 3:5 4:0 5:1 7:0 8:1 9567:1 # 20140615224306AASdmOX danny NN Sports PERSON
-0.017414879075943145297911129887325 2:0 3:5 4:0 5:1 7:0 8:1 2729:1 # 20140604184751AAZzDj5 frame NN Beauty_&_Style TOKEN
0.5 2:0 3:5 4:0 5:1 7:0 8:1 15519:1 # 20140609182413AATpjOA obama NN Politics_&_Government PERSON
0.5 2:0 3:5 4:0 5:1 7:0 8:1 7155:1 # 20140625171643AAxjtac intel NN Computer_&_Internet ORGANIZATION
0.5 2:0 3:5 4:0 5:1 7:0 8:1 8142:1 # 20140625120602AAXWOm0 syria NN Science_&_Mathematics LOCATION
0.5 2:0 3:5 4:0 5:1 7:0 8:1 15250:1 # 20140605231104AAm8fzJ gucci NN Politics_&_Government ORGANIZATION
-0.5 2:0 3:5 4:0 5:1 7:0 8:1 7155:1 # 20140601072000AABRvpX intel NN Games_&_Recreation TOKEN
-0.016981565330225212306913817883469 2:0 3:5 4:0 5:1 7:0 8:1 1123:1 # 20140613154011AAJ98M9 world NN Politics_&_Government TOKEN
0.5 2:0 3:5 4:0 5:1 7:0 8:1 15447:1 # 20140606032555AA8mCFY mafia NN Politics_&_Government ORGANIZATION
0.5 2:0 3:5 4:0 5:1 7:0 8:1 1291:1 # 20140614122338AAHL8sn canon NN Arts_&_Humanities ORGANIZATION
-0.018515327730867947586546051752521 2:0 3:5 4:0 5:1 7:0 8:1 11806:1 # 20140617213812AAnm3nS hotel NN Travel TOKEN
0.5 2:0 3:7 4:0 5:1 7:0 8:1 7797:1 # 20140605081144AAuazx4 michael NN Science_&_Mathematics PERSON
0.5 2:0 3:7 4:0 5:1 7:0 8:1 2520:1 # 20140626223207AABdv8w khalifa NN Business_&_Finance PERSON
0.5 2:0 3:7 4:0 5:1 7:0 8:1 3646:1 # 20140625171723AAQIRte youtube NN Computer_&_Internet ORGANIZATION
-0.24699649849726945660677301930264 2:0 3:3 4:0 5:0 7:1 73:1 9864:1 # 20140621092416AArsE0s Jan NNP Social_Science TOKEN
-0.0075587701437205279120234990841709 2:0 3:4 4:0 5:0 7:0 8:1 3050:1 # 20140611204210AAPJj1y انها NN Business_&_Finance TOKEN
-0.01857678467476819861303738434799 2:0 3:5 4:0 5:1 7:0 8:1 5941:1 # 20140620170402AA0uGdu judge NN Pregnancy_&_Parenting TOKEN
0.5 2:0 3:4 4:0 5:1 7:0 8:1 194:1 # 20140605040256AAru12G time NN Entertainment_&_Music PERSON
-0.5 2:0 3:4 4:0 5:1 7:0 8:1 194:1 # 20140601131055AAPxhOP time NN Business_&_Finance TOKEN
-0.019718274809060742924771147954743 2:0 3:4 4:0 5:1 7:0 8:1 12334:1 # 20140622163501AAScX6y pool NN Home_&_Garden TOKEN
0.5 2:0 3:4 4:0 5:1 7:0 43:1 8877:1 # 20140620015151AAISFRV nike VBP Beauty_&_Style ORGANIZATION
-0.018062713319640266718124621547759 2:0 3:5 4:0 5:1 7:0 8:1 4936:1 # 20140605185213AAgsKy3 space NN Yahoo!_Products TOKEN
-0.0083528708880269419978503719903529 2:0 3:4 4:0 5:0 7:1 88:1 3154:1 # 20140616073715AA0e9si Keep VB Cars_&_Transportation TOKEN
-0.0084107737521020298210316923359642 2:0 3:3 4:0 5:0 7:0 8:1 3056:1 # 20140611204210AAPJj1y شاء NN Business_&_Finance TOKEN
-0.017414879076564884069489025364419 2:0 3:5 4:0 5:1 7:0 8:1 1056:1 # 20140622163515AA7A77e death NN Travel TOKEN
-0.018583398787078042602161076501943 2:0 3:5 4:0 5:1 7:0 8:1 18700:1 # 20140611200230AA2zvuY pitch NN Computer_&_Internet TOKEN
-0.018062713319022094538013334386051 2:0 3:5 4:0 5:1 7:0 8:1 10482:1 # 20140625154952AAgFb3h mower NN Cars_&_Transportation TOKEN
0.5 2:0 3:8 4:0 5:1 7:0 8:1 8911:1 # 20140615190410AAmWDg3 @rolando NN Sports PERSON
0.5 2:0 3:7 4:0 5:1 7:0 8:1 15221:1 # 20140610123048AAZOuhW taliban NN Politics_&_Government ORGANIZATION
-0.018062713319639156495099996391218 2:0 3:5 4:0 5:1 7:0 8:1 611:1 # 20140619063559AA2eks0 house NN Home_&_Garden TOKEN
-0.018463376538480957833598949946463 2:0 3:5 4:0 5:1 7:0 8:1 7441:1 # 20140603115526AAQmGXN motor NN Cars_&_Transportation TOKEN
-0.018492966826788581613527640001848 2:0 3:5 4:0 5:1 7:0 8:1 12250:1 # 20140608155422AAGg2Wt march NN Pregnancy_&_Parenting TOKEN
0.5 2:1 3:4 4:0 5:1 7:0 45:1 847:1 # 20140601162630AAuDjDG laid VBN Sports ORGANIZATION
-0.0074972871586195810600372624321608 2:0 3:4 4:0 5:0 7:0 8:1 9202:1 # 20140620150504AApqU99 ?!?! NN Sports TOKEN
-0.018357198824114517865524476292194 2:0 3:5 4:0 5:1 7:0 8:1 6403:1 # 20140603003740AAmc4Dt shape NN Science_&_Mathematics TOKEN
0.5 2:0 3:5 4:0 5:1 7:0 26:1 5739:1 # 20140615224306AASdmOX green JJ Sports PERSON
-0.01824364494192308103204247515805 2:0 3:5 4:0 5:1 7:0 8:1 655:1 # 20140613050748AAyyMmZ break NN Health TOKEN
-0.018555563244265993461112884688191 2:0 3:5 4:0 5:1 7:0 8:1 13735:1 # 20140612075720AAmNq58 libel NN News_&_Events TOKEN
-0.018551622112209287251971545629203 2:0 3:5 4:0 5:1 7:0 8:1 3149:1 # 20140613140428AASx2zV value NN Politics_&_Government TOKEN
-0.018615779922128261603120336076245 2:0 3:5 4:0 5:1 7:0 8:1 5022:1 # 20140611114023AAQ6gKU cloth NN Education_&_Reference TOKEN
0.5 2:0 3:4 4:0 5:1 7:0 8:1 11101:1 # 20140613111207AAD5YgE gacy NN Dining_Out PERSON
-0.018621249158144337343401275575161 2:0 3:5 4:0 5:1 7:0 8:1 2492:1 # 20140616153138AASJ97g horse NN Business_&_Finance TOKEN
-0.018041816242824637583908042870462 2:0 3:5 4:0 5:1 7:0 8:1 14901:1 # 20140611152642AAd7nNQ algea NN Pets TOKEN
-0.018041816242827746208376993308775 2:0 3:5 4:0 5:1 7:0 8:1 10293:1 # 20140614164536AAHVllV chick NN Food_&_Drink TOKEN
-0.018106808216100916952839838813816 2:0 3:5 4:0 5:1 7:0 8:1 2505:1 # 20140608182325AAmvy1Q mouth NN Cars_&_Transportation TOKEN
-0.018123316788845045266498345881701 2:0 3:5 4:0 5:1 7:0 8:1 67:1 # 20140612121603AAc09vI month NN Games_&_Recreation TOKEN
-0.018123316789462329268189932918176 2:0 3:5 4:0 5:1 7:0 8:1 4226:1 # 20140608023935AA61Kab limit NN Social_Science TOKEN
0.5 2:0 3:4 4:0 5:1 7:0 8:1 13833:1 # 20140607125905AA2JtXv army NN Politics_&_Government ORGANIZATION
-0.017489202906010525850888370769098 2:0 3:5 4:0 5:1 7:0 8:1 2611:1 # 20140623023853AA1SoFR point NN Science_&_Mathematics TOKEN
-0.0072709930299064140513110032770783 2:0 3:4 4:0 5:0 7:0 8:1 3041:1 # 20140611204210AAPJj1y وكان NN Business_&_Finance TOKEN
0.5 2:0 3:5 4:0 5:1 7:0 8:1 7374:1 # 20140622053311AA7YtqE yahoo NN Cars_&_Transportation ORGANIZATION
-0.017841408008374803895179638857371 2:0 3:5 4:0 5:1 7:0 8:1 554:1 # 20140614004826AAWj9IB story NN Entertainment_&_Music TOKEN
-0.017841408008369752380417594395112 2:0 3:5 4:0 5:1 7:0 8:1 4895:1 # 20140611132742AAU8vAK grass NN Education_&_Reference TOKEN
0.5 2:0 3:4 4:0 5:0 7:0 8:1 3200:1 # 20140605231104AAm8fzJ eBay NN Politics_&_Government ORGANIZATION
-0.017841408007758852161117602008744 2:0 3:5 4:0 5:1 7:0 8:1 5571:1 # 20140622170617AATlgRE devil NN Cars_&_Transportation TOKEN
-0.018612162001482301931787333160173 2:0 3:5 4:0 5:1 7:0 8:1 523:1 # 20140605140138AAyDVJY leave NN Entertainment_&_Music TOKEN
-0.0072356660899747793358471881219884 2:0 3:4 4:0 5:0 7:0 8:1 4093:1 # 20140613212610AAbRLLX iPod NN Consumer_Electronics TOKEN
-0.020834085243609301585365756182 2:0 3:3 4:0 5:1 7:0 8:1 10667:1 # 20140626031053AAyXCcP pan NN Food_&_Drink TOKEN
-0.018495350575850721952519961632788 2:0 3:5 4:0 5:1 7:0 8:1 5754:1 # 20140617195809AA0PD6g glory NN Sports TOKEN
-0.018564483329924108545583294471726 2:0 3:5 4:0 5:1 7:0 8:1 2800:1 # 20140610214206AAA5Std urine NN Business_&_Finance TOKEN
-0.018515327730865505095891876408132 2:0 3:5 4:0 5:1 7:0 8:1 758:1 # 20140613230250AAiwZOf thing NN Family_&_Relationships TOKEN
-0.01851532773086683736352142659598 2:0 3:5 4:0 5:1 7:0 8:1 2553:1 # 20140603053113AAVRR5O entry NN Local_Businesses TOKEN
-0.018515327730867281452731276658596 2:0 3:5 4:0 5:1 7:0 8:1 1003:1 # 20140616072209AARwehs level NN Arts_&_Humanities TOKEN
-0.018515327730868502698058364330791 2:0 3:5 4:0 5:1 7:0 8:1 1911:1 # 20140601105234AA3ANDN essay NN Arts_&_Humanities TOKEN
0.5 2:0 3:7 4:0 5:1 7:0 8:1 3646:1 # 20140615191957AAO9x20 youtube NN Computer_&_Internet ORGANIZATION
-0.018343301901751374316518194973469 2:0 3:5 4:0 5:1 7:0 8:1 64:1 # 20140618215915AAruZzF cheap NN News_&_Events TOKEN
-0.018502620094449806487091336748563 2:0 3:5 4:0 5:1 7:0 8:1 14978:1 # 20140613154011AAJ98M9 proxy NN Politics_&_Government TOKEN
-0.018550025067363140607312743668444 2:0 3:5 4:0 5:1 7:0 8:1 2320:1 # 20140610032428AAcphoD woman NN Pregnancy_&_Parenting TOKEN
-0.018559587123821996712536019913387 2:0 3:5 4:0 5:1 7:0 8:1 1827:1 # 20140616193752AA6M8Z0 store NN Arts_&_Humanities TOKEN
-0.018559587124438114980051750535495 2:0 3:5 4:0 5:1 7:0 8:1 2130:1 # 20140612080629AAuyjlx night NN Health TOKEN
-0.018559587123813947595607487528468 2:0 3:5 4:0 5:1 7:0 8:1 5987:1 # 20140609160644AAyOM0u fruit NN Health TOKEN
-0.018481805977831500253927288213163 2:0 3:5 4:0 5:1 7:0 8:1 10587:1 # 20140617233215AA8UbPc glaze NN Food_&_Drink TOKEN
-0.018513449368355194835089605476242 2:0 3:5 4:0 5:1 7:0 8:1 486:1 # 20140612212350AAeLl07 light NN Family_&_Relationships TOKEN
-0.018582727127129272659544767520856 2:0 3:5 4:0 5:1 7:0 8:1 1653:1 # 20140605091638AATCTbo stage NN Arts_&_Humanities TOKEN
-0.018269449545073035423570217972156 2:0 3:5 4:0 5:1 7:0 8:1 13336:1 # 20140617033632AAaS0SQ crush NN News_&_Events TOKEN
-0.018576847382987038415080860431772 2:0 3:5 4:0 5:1 7:0 8:1 2945:1 # 20140611151627AAmAEbQ group NN Politics_&_Government TOKEN
-0.018546091321081092928579892031848 2:0 3:5 4:0 5:1 7:0 8:1 3205:1 # 20140616141511AAlZZIn dress NN Dining_Out TOKEN
0.5 2:0 3:6 4:0 5:1 7:0 26:1 5214:1 # 20140615171734AAd4Cuo virgin JJ Yahoo!_Products PERSON
-0.018195225384343816088517087337095 2:0 3:5 4:0 5:1 7:0 8:1 5060:1 # 20140616141615AA44wGc patch NN Family_&_Relationships TOKEN
-0.01819522538433981928562843677355 2:0 3:5 4:0 5:1 7:0 8:1 6914:1 # 20140620003333AAaN90M scope NN Dining_Out TOKEN
-0.018448878693521936211752176859591 2:0 3:5 4:0 5:1 7:0 8:1 12450:1 # 20140605130921AAXKqjH sheet NN Home_&_Garden TOKEN
0.5 2:0 3:5 4:0 5:1 7:0 8:1 14957:1 # 20140622080843AAfcL4m gomez NN Pets PERSON
-0.0185657396265517249389631615486 2:0 3:5 4:0 5:1 7:0 8:1 940:1 # 20140616072209AARwehs fight NN Arts_&_Humanities TOKEN
-0.018376817094823749698662140872329 2:0 3:5 4:0 5:1 7:0 8:1 2132:1 # 20140622115408AAY2Wrn owner NN Pets TOKEN
0.5 2:0 3:5 4:0 5:1 7:0 8:1 13881:1 # 20140617033632AAaS0SQ lohan NN News_&_Events PERSON
0.5 2:0 3:5 4:0 5:1 7:0 8:1 15447:1 # 20140606032555AA8mCFY mafia NN Politics_&_Government ORGANIZATION
-0.018376817094202024804872053209692 2:0 3:5 4:0 5:1 7:0 8:1 12110:1 # 20140623173753AAUMZe3 dairy NN Food_&_Drink TOKEN
-0.018441518465459605380374341621064 2:0 3:5 4:0 5:1 7:0 8:1 8425:1 # 20140606151952AAnJYJg trick NN Pregnancy_&_Parenting TOKEN
-0.017458239481815740479220266934135 2:0 3:5 4:0 5:1 7:0 8:1 5900:1 # 20140623072617AAIXida fault NN Dining_Out TOKEN
-0.018595695252113159101625683433667 2:0 3:5 4:0 5:1 7:0 8:1 909:1 # 20140620141720AAh6NZ6 sense NN Pets TOKEN
-0.017124397093913668044251608080231 2:0 3:5 4:0 5:1 7:0 8:1 2051:1 # 20140610102038AAX5RlB blood NN Pets TOKEN
-0.018569086549489632886889012297615 2:0 3:5 4:0 5:1 7:0 8:1 11436:1 # 20140606184121AAh0zjp ounce NN Food_&_Drink TOKEN
-0.018576847383002137448215762560721 2:0 3:5 4:0 5:1 7:0 8:1 6317:1 # 20140608132523AAWfvBH virus NN Computer_&_Internet TOKEN
-0.018518378782824918005189829273149 2:0 3:5 4:0 5:1 7:0 8:1 332:1 # 20140609221937AAH7tge round NN Travel TOKEN
-0.017814633081803005199006406655826 2:0 3:5 4:0 5:1 7:0 8:1 701:1 # 20140605040256AAru12G music NN Entertainment_&_Music TOKEN
-0.018453950239939675981304390006699 2:0 3:5 4:0 5:1 7:0 8:1 9798:1 # 20140626142532AAHm2Mx adult NN Pets TOKEN
0.5 2:1 3:5 4:0 5:1 7:0 123:1 2184:1 # 20140615091428AA1nGW3 falls VBZ Local_Businesses LOCATION
0.5 2:0 3:5 4:0 5:1 7:0 40:1 5659:1 # 20140619063559AA2eks0 south RB Home_&_Garden LOCATION
-0.018359146604158382842797436751425 2:0 3:5 4:0 5:1 7:0 8:1 5237:1 # 20140612080629AAuyjlx heart NN Health TOKEN
-0.018450986547062342424396774731576 2:0 3:5 4:0 5:1 7:0 8:1 13472:1 # 20140607071218AAzGtJH sayin NN Family_&_Relationships TOKEN
-0.018548940361177435054429452065961 2:0 3:5 4:0 5:1 7:0 8:1 8524:1 # 20140617145102AAT8yhN qoute NN Beauty_&_Style TOKEN
-0.018337764626568997528011095710099 2:0 3:5 4:0 5:1 7:0 8:1 2851:1 # 20140622140805AAtjqJa state NN Cars_&_Transportation TOKEN
0.5 2:0 3:8 4:0 5:1 7:0 8:1 5833:1 # 20140613124158AAH0KXB michelle NN Entertainment_&_Music PERSON
0.5 2:0 3:8 4:0 5:1 7:0 8:1 5583:1 # 20140605040256AAru12G chemical NN Entertainment_&_Music PERSON
-0.018507228379592177702761546242982 2:0 3:5 4:0 5:1 7:0 8:1 6136:1 # 20140613063105AA0GFxu chest NN Health TOKEN
-0.018335344593218394493305822834373 2:0 3:5 4:0 5:1 7:0 8:1 3876:1 # 20140613213722AAj4ujF water NN Food_&_Drink TOKEN
-0.018270409943756504844714072532952 2:0 3:5 4:0 5:1 7:0 8:1 2326:1 # 20140614004826AAWj9IB order NN Entertainment_&_Music TOKEN
-0.018270409943762278004442123346962 2:0 3:5 4:0 5:1 7:0 8:1 10427:1 # 20140612032608AA8pVpP panel NN Cars_&_Transportation TOKEN
-0.018560816263789359226166197913699 2:0 3:5 4:0 5:1 7:0 8:1 390:1 # 20140614131802AAL6tJW paint NN Beauty_&_Style TOKEN
-0.018502620094447475018739623919828 2:0 3:5 4:0 5:1 7:0 8:1 6741:1 # 20140603191657AA88Y0T glass NN Pets TOKEN
-0.018579496969385322913126401545014 2:0 3:5 4:0 5:1 7:0 8:1 9575:1 # 20140615224306AASdmOX radar NN Sports TOKEN
-0.018579496969370445924596424447373 2:0 3:5 4:0 5:1 7:0 8:1 374:1 # 20140612201710AACVW6f quote NN Arts_&_Humanities TOKEN
-0.018568593887077072812630262887978 2:0 3:5 4:0 5:1 7:0 8:1 2268:1 # 20140604112329AAS36PD chain NN Dining_Out TOKEN
-0.017414879075931779389696529847242 2:0 3:5 4:0 5:1 7:0 8:1 2096:1 # 20140623010804AATRu9l voice NN Travel TOKEN
-0.018349755743009815711630494661222 2:0 3:5 4:0 5:1 7:0 8:1 1537:1 # 20140614161425AAk1Avb piece NN Business_&_Finance TOKEN
-0.018270608203335925168175890576094 2:0 3:5 4:0 5:1 7:0 8:1 6968:1 # 20140616114406AAi0jDN turbo NN Games_&_Recreation TOKEN
-0.018270608203147631343199464026839 2:0 3:5 4:0 5:1 7:0 8:1 642:1 # 20140611151627AAmAEbQ draft NN Politics_&_Government TOKEN
-0.018270608203153848592137364903465 2:0 3:5 4:0 5:1 7:0 8:1 2894:1 # 20140606094425AAJm5yJ check NN Beauty_&_Style TOKEN
-0.017587759634132282826612936332822 2:0 3:5 4:0 5:1 7:0 8:1 1949:1 # 20140615100226AACLhyS power NN Home_&_Garden TOKEN
-0.017587759634125177399255335330963 2:0 3:5 4:0 5:1 7:0 8:1 10009:1 # 20140604085754AAaequj womsn NN Social_Science TOKEN
-0.018344313459067507210420444607735 2:0 3:5 4:0 5:1 7:0 8:1 3220:1 # 20140606184121AAh0zjp stain NN Food_&_Drink TOKEN
-0.018233404116611229284217188251205 2:0 3:5 4:0 5:1 7:0 8:1 10155:1 # 20140606180112AAwWKv0 wheel NN Pets TOKEN
-0.017912681392221962983768435151433 2:0 3:5 4:0 5:1 7:0 8:1 6377:1 # 20140618215915AAruZzF pound NN News_&_Events TOKEN
-0.017504853771745487733824120368809 2:0 3:5 4:0 5:1 7:0 8:1 2473:1 # 20140605225313AAAhy4Z proof NN Health TOKEN
-0.018540976222812588503074948675931 2:0 3:5 4:0 5:1 7:0 8:1 1938:1 # 20140601105234AA3ANDN class NN Arts_&_Humanities TOKEN
-0.018576784674774415861975285224617 2:0 3:5 4:0 5:1 7:0 8:1 403:1 # 20140612201710AACVW6f color NN Arts_&_Humanities TOKEN
0.5 2:0 3:6 4:0 5:1 7:0 8:1 12812:1 # 20140610174552AAptb2t lsland NN Local_Businesses LOCATION
-0.01693820879878593643752537900582 2:0 3:5 4:0 5:1 7:0 8:1 2419:1 # 20140621115845AAQL7uD child NN Family_&_Relationships TOKEN
-0.020401583968971959137661542627029 2:0 3:3 4:0 5:1 7:0 8:1 10479:1 # 20140625154952AAgFb3h toi NN Cars_&_Transportation TOKEN
-0.018562261624772258272741964901797 2:0 3:5 4:0 5:1 7:0 8:1 584:1 # 20140607104637AASvvKI small NN News_&_Events TOKEN
-0.018562261624767817380643464275636 2:0 3:5 4:0 5:1 7:0 8:1 935:1 # 20140605081144AAuazx4 right NN Science_&_Mathematics TOKEN
0.5 2:0 3:6 4:0 5:1 7:0 8:1 1441:1 # 20140609115257AAXrpdb google NN Cars_&_Transportation ORGANIZATION
-0.018531225481973390145640223636292 2:0 3:5 4:0 5:1 7:0 8:1 2117:1 # 20140610162943AA8McBJ movie NN Games_&_Recreation TOKEN
-0.018531225481976054680899324011989 2:0 3:5 4:0 5:1 7:0 8:1 1085:1 # 20140616072209AARwehs cloud NN Arts_&_Humanities TOKEN
-0.018531225481966728807492472697049 2:0 3:5 4:0 5:1 7:0 8:1 7142:1 # 20140614220006AA90c02 rifle NN Sports TOKEN
0.5 2:0 3:7 4:0 5:1 7:0 8:1 15221:1 # 20140610123048AAZOuhW taliban NN Politics_&_Government ORGANIZATION
-9.6513195600778090010862797498703e-05 2:0 3:2 4:0 5:1 7:0 8:1 2158:1 # 20140621012150AAs9NFo wo NN Home_&_Garden TOKEN
0.5 2:0 3:4 4:0 5:0 7:1 73:1 4734:1 # 20140605040256AAru12G Fall NNP Entertainment_&_Music PERSON
-0.018347387710410334449306901660748 2:0 3:5 4:0 5:1 7:0 8:1 3125:1 # 20140609031322AAZz3r8 guide NN Travel TOKEN
-0.018576784674760205007260083220899 2:0 3:5 4:0 5:1 7:0 8:1 12429:1 # 20140617094029AAZ1FwJ porch NN Family_&_Relationships TOKEN
-0.017791905512813732670451827289071 2:0 3:5 4:0 5:1 7:0 8:1 2569:1 # 20140620003333AAaN90M visit NN Dining_Out TOKEN
-0.018594415292409127715700378757901 2:0 3:5 4:0 5:1 7:0 8:1 2767:1 # 20140616154757AA3uubn abuse NN News_&_Events TOKEN
0.5 2:0 3:6 4:0 5:1 7:0 8:1 8740:1 # 20140612145554AAjlhJX europe NN Beauty_&_Style LOCATION
0.5 2:0 3:6 4:0 5:1 7:0 8:1 359:1 # 20140622080843AAfcL4m tumblr NN Pets ORGANIZATION
0.5 2:0 3:6 4:0 5:1 7:0 8:1 10383:1 # 20140615174740AA8MA6l malibu NN Cars_&_Transportation LOCATION
0.5 2:0 3:6 4:0 5:1 7:0 8:1 9451:1 # 20140623022611AAddTaJ lesnar NN Sports PERSON
-0.17856071393162009641741860832553 2:0 3:2 4:1 5:0 7:0 73:1 4300:1 # 20140617092003AATWcQC TX NNP Cars_&_Transportation TOKEN
-0.018121168769638196921478723311338 2:0 3:5 4:0 5:1 7:0 8:1 2898:1 # 20140626130807AAvZf6J reset NN Computer_&_Internet TOKEN
0.5 2:0 3:6 4:0 5:1 7:0 8:1 14956:1 # 20140622080843AAfcL4m selena NN Pets PERSON
0.5 2:0 3:6 4:0 5:1 7:0 8:1 2071:1 # 20140625193136AAUePpR stoker NN Arts_&_Humanities PERSON
-0.018221111230006692416338864859426 2:0 3:5 4:0 5:1 7:0 8:1 6438:1 # 20140609194638AAhw9UC juice NN Food_&_Drink TOKEN
-0.01747457288695400401401514045574 2:0 3:5 4:0 5:1 7:0 8:1 5359:1 # 20140608222755AASVAKO birth NN Pets TOKEN
0.5 2:0 3:7 4:0 5:1 7:0 8:1 11079:1 # 20140616143448AAdU6Ze chicken NN Dining_Out ORGANIZATION
0.5 2:0 3:7 4:0 5:1 7:0 8:1 10581:1 # 20140607104849AAvstRC hyundai NN Cars_&_Transportation ORGANIZATION
0.5 2:0 3:7 4:0 5:1 7:0 8:1 2520:1 # 20140626223207AABdv8w khalifa NN Business_&_Finance PERSON
0.5 2:0 3:7 4:0 5:1 7:0 8:1 5072:1 # 20140616190348AA6nheU walmart NN Dining_Out ORGANIZATION
-0.24590920698702944946489878930151 2:0 3:4 4:0 5:0 7:1 73:1 15720:1 # 20140608113007AAoVpt8 Word NNP Politics_&_Government TOKEN
-0.49832887012439996965440514031798 2:0 3:4 4:0 5:1 7:0 8:1 8877:1 # 20140618180738AANfMh9 nike NN Sports TOKEN
-0.24701266420503609211323237104807 2:0 3:3 4:0 5:0 7:1 73:1 12996:1 # 20140622225954AAAlKMt Luc NNP Local_Businesses TOKEN
0.5 2:0 3:10 4:0 5:1 7:0 8:1 3309:1 # 20140619105821AAuioIb university NN Education_&_Reference ORGANIZATION
0.5 2:0 3:8 4:0 5:1 7:0 8:1 5833:1 # 20140613124158AAH0KXB michelle NN Entertainment_&_Music PERSON
0.5 2:0 3:7 4:0 5:1 7:0 8:1 3646:1 # 20140625171723AAQIRte youtube NN Computer_&_Internet ORGANIZATION
0.5 2:0 3:10 4:0 5:1 7:0 8:1 2204:1 # 20140614170630AA1o9BQ government NN Politics_&_Government ORGANIZATION
0.5 2:0 3:7 4:0 5:1 7:0 8:1 10581:1 # 20140607104849AAvstRC hyundai NN Cars_&_Transportation ORGANIZATION
0.5 2:0 3:7 4:0 5:1 7:0 8:1 5072:1 # 20140616190348AA6nheU walmart NN Dining_Out ORGANIZATION
-0.17601836214432609040159150026739 2:0 3:1 4:0 5:1 7:0 73:1 251:1 # 20140606131438AAaBd2m i NNP Computer_&_Internet TOKEN
0.5 2:0 3:5 4:0 5:0 7:1 88:1 8800:1 # 20140615215028AAGmoaM Leave VB Sports PERSON
-0.09397634737326446274785496370896 2:0 3:3 4:0 5:0 7:1 8:1 12409:1 # 20140622230045AAAI6WE Bed NN Travel TOKEN
-0.5 2:0 3:8 4:0 5:1 7:0 26:1 7068:1 # 20140606032555AA8mCFY american JJ Politics_&_Government TOKEN
-0.5 2:0 3:6 4:0 5:1 7:0 43:1 1441:1 # 20140616063937AAhSsrT google VBP Business_&_Finance TOKEN
0.5 2:0 3:11 4:0 5:0 7:1 73:1 3281:1 # 20140601093053AA6zdEg Pentonville NNP Business_&_Finance LOCATION
0.5 2:0 3:11 4:0 5:0 7:1 73:1 15695:1 # 20140614170630AA1o9BQ Brotherhood NNP Politics_&_Government ORGANIZATION
-0.16443645477991974956921694683842 2:0 3:1 4:0 5:0 7:0 73:1 8795:1 # 20140613125219AA2D0JF | NNP Beauty_&_Style TOKEN
0.5 2:0 3:3 4:0 5:0 7:1 73:1 5259:1 # 20140614004826AAWj9IB Nim NNP Entertainment_&_Music PERSON
0.5 2:0 3:3 4:0 5:0 7:1 73:1 2656:1 # 20140625120602AAXWOm0 New NNP Science_&_Mathematics LOCATION
0.5 2:0 3:3 4:0 5:0 7:1 73:1 9209:1 # 20140623022611AAddTaJ Big NNP Sports PERSON
0.5 2:0 3:3 4:0 5:0 7:1 73:1 4312:1 # 20140615224306AASdmOX San NNP Sports PERSON
0.5 2:0 3:3 4:0 5:0 7:1 73:1 8845:1 # 20140614131358AALx1CD Sam NNP Beauty_&_Style PERSON
0.5 2:0 3:3 4:0 5:0 7:1 73:1 12474:1 # 20140605130921AAXKqjH Xtx NNP Home_&_Garden PERSON
0.5 2:0 3:3 4:0 5:0 7:1 73:1 5166:1 # 20140614004826AAWj9IB May NNP Entertainment_&_Music PERSON
0.5 2:0 3:11 4:0 5:0 7:1 73:1 775:1 # 20140625193136AAUePpR Shakespeare NNP Arts_&_Humanities PERSON
0.5 2:0 3:11 4:0 5:0 7:1 73:1 9108:1 # 20140614220006AA90c02 Springfield NNP Sports LOCATION
0.5 2:0 3:7 4:0 5:0 7:1 73:1 5219:1 # 20140614004826AAWj9IB Bueller NNP Entertainment_&_Music PERSON
-0.095277204754188660196234650356928 2:1 3:5 4:0 5:0 7:0 73:1 15550:1 # 20140614172231AAsQkBF PUTAs NNP Politics_&_Government TOKEN
-0.5 2:1 3:3 4:1 5:0 7:0 73:1 15277:1 # 20140617193722AA5emAo IRS NNP Politics_&_Government TOKEN
-0.5 2:0 3:2 4:1 5:0 7:0 73:1 11527:1 # 20140608112522AAMjxU9 LA NNP Local_Businesses TOKEN
-0.5 2:0 3:2 4:1 5:0 7:0 73:1 9505:1 # 20140615120927AAPeVv5 NJ NNP Sports TOKEN
0.5 2:0 3:4 4:0 5:0 7:1 710:1 18942:1 # 20140611001634AAefV9p Maya FW Pregnancy_&_Parenting PERSON
0.5 2:0 3:5 4:0 5:1 7:0 88:1 13037:1 # 20140620172230AAfuPAg texas VB Local_Businesses LOCATION
-0.49844182365128020251177076715976 2:0 3:2 4:0 5:0 7:1 22:1 608:1 # 20140614220006AA90c02 My PRP$ Sports TOKEN
0.5 2:0 3:5 4:0 5:0 7:0 73:1 4284:1 # 20140604083714AANM1Br UMass NNP Education_&_Reference ORGANIZATION
-0.5 2:0 3:6 4:0 5:1 7:0 88:1 359:1 # 20140606165846AA1KBRp tumblr VB Social_Science TOKEN
0.5 2:0 3:10 4:0 5:0 7:0 73:1 12866:1 # 20140613214814AARwXS4 Winn-Dixie NNP Local_Businesses ORGANIZATION
-0.47291994074045362594915786758065 2:1 3:5 4:0 5:1 7:0 123:1 2184:1 # 20140612062149AAH8vjl falls VBZ Arts_&_Humanities TOKEN
0.5 2:0 3:10 4:0 5:0 7:1 73:1 2770:1 # 20140613140428AASx2zV California NNP Politics_&_Government LOCATION
-0.5 2:0 3:3 4:0 5:0 7:0 204:1 2700:1 # 20140620123248AAQq23H 1#2 CD Business_&_Finance TOKEN
0.5 2:0 3:8 4:0 5:0 7:0 73:1 9149:1 # 20140615215028AAGmoaM Hyun-Jin NNP Sports PERSON
-0.49942162206629348020214820280671 2:1 3:4 4:0 5:0 7:1 12:1 8743:1 # 20140612145554AAjlhJX Guys NNS Beauty_&_Style TOKEN
0.5 2:0 3:8 4:0 5:0 7:0 73:1 10495:1 # 20140623072617AAIXida McDonald NNP Dining_Out ORGANIZATION
-0.5 2:0 3:2 4:1 5:0 7:0 73:1 3408:1 # 20140608120927AA1JZcv UK NNP Travel TOKEN
0.5 2:1 3:6 4:0 5:0 7:1 61:1 12443:1 # 20140617203723AAnMv8x States NNPS Politics_&_Government LOCATION
0.5 2:1 3:6 4:0 5:0 7:1 61:1 15074:1 # 20140617015321AAEmy38 Masons NNPS Politics_&_Government PERSON
0.5 2:1 3:6 4:0 5:0 7:1 61:1 12380:1 # 20140601134625AAPRFLP Sallys NNPS Home_&_Garden ORGANIZATION
0.5 2:0 3:7 4:0 5:0 7:1 26:1 14010:1 # 20140609103954AAB6LY5 Zionist JJ News_&_Events ORGANIZATION
0.5 2:0 3:7 4:0 5:0 7:1 26:1 8190:1 # 20140625120602AAXWOm0 Kurdish JJ Science_&_Mathematics LOCATION
0.5 2:0 3:8 4:0 5:1 7:0 26:1 7068:1 # 20140606032555AA8mCFY american JJ Politics_&_Government ORGANIZATION
-0.48448674394779800422838889062405 2:0 3:5 4:0 5:1 7:0 26:1 5739:1 # 20140613192110AABUd4A green JJ Beauty_&_Style TOKEN
-0.5 2:0 3:7 4:0 5:1 7:0 8:1 5072:1 # 20140608162419AAwr1N9 walmart NN Entertainment_&_Music TOKEN
-0.49122589137669248060547033674084 2:0 3:3 4:0 5:0 7:0 204:1 2700:1 # 20140618170211AA99yVG 1#2 CD Science_&_Mathematics TOKEN
0.5 2:0 3:6 4:0 5:0 7:1 73:1 4276:1 # 20140604083714AANM1Br Oxford NNP Education_&_Reference LOCATION
0.5 2:0 3:6 4:0 5:0 7:1 73:1 1756:1 # 20140608151316AAZv17m Disney NNP Travel ORGANIZATION
-0.48510752889064034931720925669651 2:0 3:4 4:0 5:1 7:0 26:1 13974:1 # 20140609031322AAZz3r8 east JJ Travel TOKEN
-0.049112878512421520582620360073633 2:1 3:2 4:0 5:0 7:1 123:1 546:1 # 20140613230123AAy6rx7 Is VBZ Games_&_Recreation TOKEN
-0.43031225349405133329128148034215 2:0 3:5 4:0 5:1 7:0 40:1 5659:1 # 20140614114159AAxmnir south RB Travel TOKEN
-0.5 2:0 3:6 4:0 5:1 7:0 43:1 1441:1 # 20140616063937AAhSsrT google VBP Business_&_Finance TOKEN
-0.027774665624414662801200393005274 2:1 3:6 4:0 5:0 7:1 20:1 15578:1 # 20140603004555AAv1K5X Moving VBG Politics_&_Government TOKEN
-0.027774665624397343322016240563244 2:1 3:6 4:0 5:0 7:1 20:1 18089:1 # 20140617213812AAnm3nS Giving VBG Travel TOKEN
-0.5 2:0 3:2 4:1 5:0 7:0 73:1 4507:1 # 20140601094337AAbsB6Z C. NNP Politics_&_Government TOKEN
-0.41748334128535025122630486293929 2:0 3:2 4:1 5:0 7:0 73:1 4300:1 # 20140626150225AAeTpqG TX NNP Sports TOKEN
-0.24586394373696407456009183079004 2:0 3:4 4:0 5:0 7:1 73:1 7017:1 # 20140625193758AANDcbj Head NNP Games_&_Recreation TOKEN
-0.5 2:0 3:7 4:0 5:1 7:0 8:1 5072:1 # 20140608162419AAwr1N9 walmart NN Entertainment_&_Music TOKEN
-0.17487484548282239416039374191314 2:0 3:2 4:0 5:1 7:0 73:1 8301:1 # 20140622225954AAAlKMt va NNP Local_Businesses TOKEN
0.5 2:0 3:4 4:0 5:0 7:1 73:1 15457:1 # 20140617193722AA5emAo Lois NNP Politics_&_Government PERSON
-0.096785493502544284183386480435729 2:1 3:4 4:0 5:0 7:0 73:1 10728:1 # 20140611152558AA4un22 RPMs NNP Cars_&_Transportation TOKEN
-0.0035995123896854774869780158041976 2:0 3:2 4:0 5:1 7:0 16:1 1089:1 # 20140614161425AAk1Avb he PRP Business_&_Finance TOKEN
-0.072703424874400512933902973600198 2:0 3:6 4:0 5:0 7:1 204:1 5271:1 # 20140621032104AA5LQDd Speech CD Entertainment_&_Music TOKEN
-0.073623734320659162122524321603123 2:0 3:5 4:0 5:0 7:1 204:1 5112:1 # 20140611175239AA5u6en Three CD Family_&_Relationships TOKEN
0.5 2:0 3:3 4:0 5:0 7:0 73:1 9571:1 # 20140615224306AASdmOX NbA NNP Sports ORGANIZATION
-0.13329010390625217752358366851695 2:0 3:28 4:0 5:0 7:0 73:1 11457:1 # 20140603215034AABtnxF Www.godiningout.blogspot.com NNP Dining_Out TOKEN
-0.16439583616152919631758777541108 2:0 3:1 4:0 5:0 7:0 73:1 639:1 # 20140618095228AAKVjIw 2 NNP Science_&_Mathematics TOKEN
-0.35993516662342894818493732600473 2:0 3:1 4:0 5:0 7:0 73:1 630:1 # 20140603072418AAgZjcN # NNP Science_&_Mathematics TOKEN
-0.16443645478123514180879283230752 2:0 3:1 4:0 5:0 7:0 73:1 352:1 # 20140614045845AAdu92x : NNP Computer_&_Internet TOKEN
-0.10298217311461144163331482559443 2:0 3:64 4:0 5:1 7:0 73:1 7718:1 # 20140618201815AAmO6f1 http:##www.nysedregents.org#earthscience#114#esci12014-examw.pdf NNP Science_&_Mathematics TOKEN
-0.019641555199942928311429568566382 2:0 3:4 4:0 5:1 7:0 8:1 19272:1 # 20140618114010AAeeGQR dada NN Pregnancy_&_Parenting TOKEN
-0.051973964303348704762974819004739 2:0 3:10 4:0 5:0 7:1 26:1 4689:1 # 20140617152905AAraW4N Australian JJ Education_&_Reference TOKEN
-0.49700618293694631688595109153539 2:0 3:10 4:0 5:1 7:0 8:1 2204:1 # 20140615215502AAWIjLB government NN Local_Businesses TOKEN
-0.5 2:0 3:7 4:0 5:1 7:0 8:1 11079:1 # 20140610190716AAGOR0h chicken NN Dining_Out TOKEN
-0.16439583616153097267442717566155 2:0 3:1 4:0 5:0 7:0 73:1 1052:1 # 20140603091614AAtZw6A ~ NNP Family_&_Relationships TOKEN
0.5 2:1 3:3 4:0 5:0 7:1 73:1 12801:1 # 20140603004555AAv1K5X Los NNP Politics_&_Government LOCATION
-0.097913357854957250303584714856697 2:1 3:3 4:0 5:0 7:0 73:1 3955:1 # 20140606090914AA45noC iOS NNP Yahoo!_Products TOKEN
-0.097780539071562672104320768085017 2:1 3:3 4:0 5:0 7:0 73:1 6498:1 # 20140610191527AA9b8i0 P.s NNP Health TOKEN
-0.092190576563137227594779687933624 2:1 3:8 4:0 5:0 7:0 73:1 18281:1 # 20140603020037AAlyzyA WWOOFing NNP Travel TOKEN
-0.5 2:1 3:9 4:0 5:0 7:0 73:1 7069:1 # 20140610162943AA8McBJ McDonalds NNP Games_&_Recreation TOKEN
-0.16443645477993129588867304846644 2:0 3:1 4:0 5:0 7:0 73:1 7755:1 # 20140620035536AASKdrI _ NNP Computer_&_Internet TOKEN
-0.16359220619290937293044407851994 2:0 3:1 4:0 5:0 7:0 73:1 657:1 # 20140608132523AAWfvBH 4 NNP Computer_&_Internet TOKEN
-0.012509553740121859277678595390171 2:0 3:1 4:0 5:0 7:0 14:1 20:1 # 20140625101557AAZ5Rvq ? VBG Social_Science TOKEN
-0.14721141608482213314346154220402 2:0 3:16 4:0 5:0 7:0 73:1 11489:1 # 20140620003333AAaN90M State-of-the-art NNP Dining_Out TOKEN
-0.16443645477992596681815484771505 2:0 3:1 4:0 5:0 7:0 73:1 259:1 # 20140614154636AAYu9pP ! NNP Social_Science TOKEN
-0.24464010829716187345184152945876 2:0 3:5 4:0 5:0 7:1 73:1 7731:1 # 20140611200656AADQgAb Earth NNP Travel TOKEN
-0.045276080626766912473613047040999 2:0 3:5 4:0 5:0 7:1 24:1 565:1 # 20140617015321AAEmy38 Every DT Politics_&_Government TOKEN
-0.045276080626769577008872147416696 2:0 3:5 4:0 5:0 7:1 24:1 2949:1 # 20140611123045AAMKOWz These DT Pets TOKEN
0.5 2:0 3:6 4:0 5:0 7:1 73:1 2104:1 # 20140615215028AAGmoaM Andrew NNP Sports PERSON
0.5 2:0 3:4 4:0 5:0 7:1 73:1 13473:1 # 20140617193722AA5emAo Mike NNP Politics_&_Government PERSON
0.5 2:0 3:4 4:0 5:0 7:1 73:1 8154:1 # 20140613154011AAJ98M9 Iran NNP Politics_&_Government LOCATION
0.5 2:0 3:4 4:0 5:0 7:1 73:1 11889:1 # 20140626133140AAROz72 Hati NNP Food_&_Drink LOCATION
0.5 2:0 3:4 4:0 5:0 7:1 73:1 5211:1 # 20140626142532AAHm2Mx Club NNP Pets ORGANIZATION
0.5 2:0 3:4 4:0 5:0 7:1 73:1 11327:1 # 20140616143448AAdU6Ze Loco NNP Dining_Out ORGANIZATION
-0.17482144925406672975043420592556 2:0 3:2 4:0 5:1 7:0 73:1 237:1 # 20140608155422AAGg2Wt im NNP Pregnancy_&_Parenting TOKEN
-0.17485382430433471512287724181078 2:0 3:2 4:0 5:1 7:0 73:1 12976:1 # 20140622225954AAAlKMt ti NNP Local_Businesses TOKEN
-0.17487905048259033691238073515706 2:0 3:2 4:0 5:1 7:0 73:1 344:1 # 20140618192549AAzYXYR no NNP Social_Science TOKEN
-0.17400538095547624095615901751444 2:0 3:2 4:0 5:1 7:0 73:1 188:1 # 20140620213457AAI59UA if NNP Computer_&_Internet TOKEN
-0.1554522001484545945526605237319 2:0 3:8 4:0 5:0 7:0 73:1 3994:1 # 20140609091235AAxdu3y OtterBox NNP Consumer_Electronics TOKEN
0.5 2:0 3:4 4:0 5:0 7:1 73:1 13993:1 # 20140617191218AAiEBHA News NNP News_&_Events ORGANIZATION
0.5 2:0 3:4 4:0 5:0 7:1 73:1 5585:1 # 20140605040256AAru12G Iron NNP Entertainment_&_Music PERSON
0.5 2:0 3:4 4:0 5:0 7:1 73:1 10600:1 # 20140609212304AAlJxoJ Ford NNP Cars_&_Transportation ORGANIZATION
0.5 2:0 3:4 4:0 5:0 7:1 73:1 8152:1 # 20140613180332AA3jCxr Iraq NNP News_&_Events LOCATION
0.5 2:0 3:4 4:0 5:0 7:1 73:1 262:1 # 20140603053113AAVRR5O John NNP Local_Businesses PERSON
-0.15583643429495730448053336658631 2:0 3:8 4:0 5:0 7:0 73:1 14831:1 # 20140611123045AAMKOWz SuperPet NNP Pets TOKEN
-0.5 2:0 3:7 4:0 5:0 7:1 73:1 3941:1 # 20140603005221AAThPnj Youtube NNP Consumer_Electronics TOKEN
-0.49929191920290350026334635913372 2:0 3:11 4:0 5:0 7:1 73:1 9108:1 # 20140614220006AA90c02 Springfield NNP Sports TOKEN
-0.5 2:0 3:6 4:0 5:0 7:1 73:1 1756:1 # 20140621104938AAA4IC5 Disney NNP Business_&_Finance TOKEN
0.5 2:1 3:7 4:0 5:1 7:0 43:1 7296:1 # 20140610052054AAkNfGL googled VBP Cars_&_Transportation ORGANIZATION
0.5 2:1 3:6 4:0 5:1 7:0 123:1 13880:1 # 20140617033632AAaS0SQ spears VBZ News_&_Events PERSON
0.5 2:1 3:14 4:0 5:0 7:0 73:1 11306:1 # 20140616143448AAdU6Ze Baskin-Robbins NNP Dining_Out ORGANIZATION
0.5 2:0 3:11 4:0 5:0 7:0 73:1 12865:1 # 20140613214814AARwXS4 Chic-Fill-A NNP Local_Businesses ORGANIZATION
0.5 2:1 3:12 4:0 5:0 7:0 73:1 814:1 # 20140617074422AANUT7h Jean-Jacques NNP Arts_&_Humanities PERSON
-0.1829183698094785093246628093766 2:1 3:3 4:0 5:0 7:1 73:1 3284:1 # 20140601093053AA6zdEg Ids NNP Business_&_Finance TOKEN
-0.182918369809483838395181010128 2:1 3:3 4:0 5:0 7:1 73:1 15595:1 # 20140617203723AAnMv8x Hes NNP Politics_&_Government TOKEN
-0.18217544204518354433730564778671 2:1 3:3 4:0 5:0 7:1 73:1 3523:1 # 20140614134845AAVhWeg Ops NNP Consumer_Electronics TOKEN
0.5 2:0 3:6 4:0 5:1 7:0 20:1 14023:1 # 20140601100338AAUfBLz hitler VBG News_&_Events PERSON
0.5 2:0 3:6 4:0 5:1 7:0 8:1 1441:1 # 20140605223141AA4aNVu google NN Arts_&_Humanities ORGANIZATION
-0.16912279578272659819049295037985 2:1 3:15 4:0 5:0 7:1 73:1 19388:1 # 20140608060520AAMzqLw Troubleshooting NNP Yahoo!_Products TOKEN
-0.2348868598767053228471013426315 2:0 3:13 4:0 5:0 7:1 73:1 10082:1 # 20140622134748AAtNT9p Schizophrenic NNP Social_Science TOKEN
0.5 2:0 3:2 4:1 5:0 7:0 73:1 3408:1 # 20140609103348AAf8tZ6 UK NNP News_&_Events LOCATION
0.5 2:0 3:4 4:0 5:0 7:1 204:1 11332:1 # 20140616143448AAdU6Ze Five CD Dining_Out ORGANIZATION
-0.23544837502723936495385714806616 2:0 3:13 4:0 5:0 7:1 73:1 8297:1 # 20140601034548AAxsbgI Differentiate NNP Science_&_Mathematics TOKEN
0.5 2:1 3:7 4:0 5:0 7:1 123:1 5614:1 # 20140620213457AAI59UA Answers VBZ Computer_&_Internet ORGANIZATION
0.5 2:1 3:9 4:0 5:0 7:0 73:1 7069:1 # 20140616143448AAdU6Ze McDonalds NNP Dining_Out ORGANIZATION
-0.2355261383849196477058285381645 2:0 3:13 4:0 5:0 7:1 73:1 3098:1 # 20140622053126AAxcj34 Communication NNP Family_&_Relationships TOKEN
0.5 2:0 3:6 4:0 5:1 7:0 26:1 5214:1 # 20140615171734AAd4Cuo virgin JJ Yahoo!_Products PERSON
-0.17175813961752428582485663355328 2:1 3:12 4:0 5:0 7:1 73:1 13930:1 # 20140607104637AASvvKI Eurosceptics NNP News_&_Events TOKEN
0.5 2:0 3:8 4:0 5:1 7:0 26:1 7068:1 # 20140606032555AA8mCFY american JJ Politics_&_Government ORGANIZATION
0.5 2:1 3:5 4:0 5:1 7:0 12:1 19123:1 # 20140601002604AAq45X7 hicks NNS Pregnancy_&_Parenting PERSON
-0.5 2:0 3:3 4:0 5:0 7:1 73:1 9209:1 # 20140623072617AAIXida Big NNP Dining_Out TOKEN
-0.5 2:0 3:3 4:0 5:0 7:1 73:1 2656:1 # 20140604083714AANM1Br New NNP Education_&_Reference TOKEN
0.5 2:0 3:7 4:0 5:1 7:0 43:1 8739:1 # 20140612145554AAjlhJX america VBP Beauty_&_Style LOCATION
-0.17175813961755537206954613793641 2:1 3:12 4:0 5:0 7:1 73:1 13915:1 # 20140607104637AASvvKI Thatcherites NNP News_&_Events TOKEN
-0.17241569228955810899606149177998 2:1 3:12 4:0 5:0 7:1 73:1 4733:1 # 20140617102632AAPzLAI Thanksgiving NNP Education_&_Reference TOKEN
-0.1840392307385343428904889151454 2:1 3:2 4:0 5:0 7:1 73:1 2354:1 # 20140609063130AAx8NAT Rs NNP Computer_&_Internet TOKEN
-0.18397974091661239981476683169603 2:1 3:2 4:0 5:0 7:1 73:1 6889:1 # 20140622223032AAkvyyd Us NNP Games_&_Recreation TOKEN
-0.5 2:0 3:4 4:0 5:0 7:1 73:1 8152:1 # 20140625120602AAXWOm0 Iraq NNP Science_&_Mathematics TOKEN
-0.5 2:0 3:4 4:0 5:0 7:1 73:1 262:1 # 20140613111207AAD5YgE John NNP Dining_Out TOKEN
0.5 2:0 3:3 4:0 5:0 7:0 204:1 2700:1 # 20140605081144AAuazx4 1#2 CD Science_&_Mathematics PERSON
0.5 2:0 3:5 4:0 5:1 7:0 26:1 5739:1 # 20140615224306AASdmOX green JJ Sports PERSON
0.5 2:0 3:3 4:1 5:0 7:0 73:1 3769:1 # 20140617191218AAiEBHA ABC NNP News_&_Events ORGANIZATION
0.5 2:0 3:3 4:1 5:0 7:0 73:1 10551:1 # 20140608182325AAmvy1Q DMV NNP Cars_&_Transportation ORGANIZATION
0.5 2:0 3:3 4:1 5:0 7:0 73:1 14311:1 # 20140611214724AASfT7e GOP NNP News_&_Events ORGANIZATION
-0.13773806993898768391559883639275 2:0 3:4 4:0 5:0 7:1 61:1 1394:1 # 20140605223141AA4aNVu Teen NNPS Arts_&_Humanities TOKEN
-0.018164998659167208572284835099708 2:0 3:5 4:0 5:1 7:0 8:1 3915:1 # 20140603005221AAThPnj favor NN Consumer_Electronics TOKEN
0.5 2:0 3:5 4:1 5:0 7:0 73:1 10760:1 # 20140609115257AAXrpdb SKODA NNP Cars_&_Transportation ORGANIZATION
0.5 2:0 3:5 4:1 5:0 7:0 73:1 15683:1 # 20140614170630AA1o9BQ SWIFT NNP Politics_&_Government ORGANIZATION
-0.16964210719447336828125116880983 2:0 3:6 4:0 5:1 7:0 73:1 6842:1 # 20140612121603AAc09vI 8-core NNP Games_&_Recreation TOKEN
-0.063661983928473095395439429466933 2:1 3:12 4:0 5:0 7:1 61:1 15700:1 # 20140614170630AA1o9BQ Palestinians NNPS Politics_&_Government TOKEN
-0.063661983928454249359596417434659 2:1 3:12 4:0 5:0 7:1 61:1 5381:1 # 20140606032555AA8mCFY Untouchables NNPS Politics_&_Government TOKEN
0.5 2:0 3:2 4:1 5:0 7:0 73:1 9505:1 # 20140623125801AASUucg NJ NNP Food_&_Drink LOCATION
0.5 2:0 3:4 4:0 5:1 7:0 73:1 3365:1 # 20140614220309AAJTZNt ebay NNP Computer_&_Internet ORGANIZATION
-0.5 2:0 3:3 4:0 5:0 7:1 73:1 5166:1 # 20140620063230AAXLo9n May NNP Food_&_Drink TOKEN
-0.23841162864290099676622958213557 2:0 3:11 4:0 5:0 7:1 73:1 9108:1 # 20140614220006AA90c02 Springfield NNP Sports TOKEN
-0.056323327725711358482385548995808 2:0 3:6 4:0 5:0 7:1 26:1 2539:1 # 20140612075720AAmNq58 Second JJ News_&_Events TOKEN
-0.24204094497189121426572455675341 2:0 3:7 4:0 5:0 7:1 73:1 11268:1 # 20140610172137AA9hoaq Bahrain NNP Dining_Out TOKEN
-0.24204094497188766155204575625248 2:0 3:7 4:0 5:0 7:1 73:1 19336:1 # 20140614035657AABax4K Manager NNP Yahoo!_Products TOKEN
-0.17947735769098116520581243094057 2:1 3:6 4:0 5:0 7:1 73:1 8874:1 # 20140620015151AAISFRV Chinos NNP Beauty_&_Style TOKEN
-0.24451756358025633630859374534339 2:0 3:5 4:0 5:0 7:1 73:1 433:1 # 20140610121407AAmfyfy Place NNP Food_&_Drink TOKEN
0.5 2:0 3:7 4:0 5:0 7:0 73:1 118:1 # 20140618003957AA2mrn7 TommyMc NNP Arts_&_Humanities PERSON
0.5 2:0 3:4 4:1 5:0 7:0 73:1 1551:1 # 20140625095108AAhxBZ2 W.H. NNP Arts_&_Humanities PERSON
0.5 2:0 3:3 4:1 5:0 7:0 73:1 2568:1 # 20140607125905AA2JtXv USA NNP Politics_&_Government LOCATION
0.5 2:0 3:8 4:0 5:1 7:0 20:1 9289:1 # 20140601130859AAHxybZ martinez VBG Sports PERSON
-0.16966527063766623228957541869022 2:0 3:6 4:0 5:1 7:0 73:1 903:1 # 20140617102632AAPzLAI and#or NNP Education_&_Reference TOKEN
-0.17004343930116050387368886731565 2:0 3:6 4:0 5:1 7:0 73:1 8919:1 # 20140615190410AAmWDg3 mexico NNP Sports TOKEN
-0.1697652136698151181803950748872 2:0 3:6 4:0 5:1 7:0 73:1 2960:1 # 20140614045845AAdu92x search NNP Computer_&_Internet TOKEN
-0.5 2:0 3:3 4:0 5:0 7:1 73:1 4312:1 # 20140617213812AAnm3nS San NNP Travel TOKEN
-0.5 2:0 3:5 4:0 5:0 7:1 8:1 5440:1 # 20140620190356AAdnQme Juice NN Entertainment_&_Music TOKEN
-0.10074412068016702637152093302575 2:0 3:3 4:0 5:0 7:1 710:1 14896:1 # 20140611152642AAd7nNQ Non FW Pets TOKEN
-0.5 2:0 3:3 4:0 5:0 7:1 73:1 4312:1 # 20140617213812AAnm3nS San NNP Travel TOKEN
0.5 2:0 3:6 4:0 5:1 7:0 73:1 5370:1 # 20140621194648AAv7Pxb kuroko NNP Entertainment_&_Music PERSON
-0.15977181128565831613741465844214 2:0 3:5 4:0 5:0 7:0 73:1 14735:1 # 20140626142532AAHm2Mx BYBer NNP Pets TOKEN
-0.15962413136246955680519477027701 2:0 3:5 4:0 5:0 7:0 73:1 4078:1 # 20140606193910AApjpvz M'aiq NNP Consumer_Electronics TOKEN
-0.15978349449430773177027731435373 2:0 3:5 4:0 5:0 7:0 73:1 14826:1 # 20140611123045AAMKOWz PetCo NNP Pets TOKEN
-0.059420442819869571937640984060636 2:0 3:3 4:0 5:0 7:1 26:1 11081:1 # 20140610190716AAGOR0h Few JJ Dining_Out TOKEN
-0.0013757516660670709995883953524753 2:1 3:6 4:0 5:0 7:1 45:1 18885:1 # 20140626111642AAP80Gv Hidden VBN Computer_&_Internet TOKEN
0.5 2:0 3:9 4:0 5:0 7:0 73:1 11391:1 # 20140616143448AAdU6Ze FatBurger NNP Dining_Out ORGANIZATION
0.5 2:0 3:9 4:0 5:0 7:0 73:1 18950:1 # 20140611001634AAefV9p AnnaMaria NNP Pregnancy_&_Parenting PERSON
-0.1589136170407460524334197771168 2:0 3:5 4:0 5:0 7:0 73:1 18786:1 # 20140609063130AAx8NAT Y510p NNP Computer_&_Internet TOKEN
-0.5 2:0 3:3 4:0 5:0 7:1 73:1 9209:1 # 20140618180738AANfMh9 Big NNP Sports TOKEN
0.5 2:0 3:6 4:0 5:0 7:0 73:1 3934:1 # 20140603005221AAThPnj HuaWei NNP Consumer_Electronics ORGANIZATION
0.5 2:0 3:6 4:0 5:1 7:0 8:1 1441:1 # 20140614045845AAdu92x google NN Computer_&_Internet ORGANIZATION
-0.5 2:0 3:3 4:0 5:0 7:1 73:1 5166:1 # 20140617094029AAZ1FwJ May NNP Family_&_Relationships TOKEN
-0.5 2:0 3:5 4:0 5:0 7:1 88:1 8800:1 # 20140613125219AA2D0JF Leave VB Beauty_&_Style TOKEN
0.5 2:0 3:7 4:0 5:0 7:0 73:1 14240:1 # 20140615161422AAiDhFt K-Earth NNP News_&_Events ORGANIZATION
0.5 2:0 3:7 4:0 5:0 7:0 73:1 15019:1 # 20140613154011AAJ98M9 McCaine NNP Politics_&_Government PERSON
0.5 2:0 3:3 4:1 5:0 7:0 73:1 9434:1 # 20140623022611AAddTaJ UFC NNP Sports ORGANIZATION
0.5 2:0 3:3 4:1 5:0 7:0 73:1 11339:1 # 20140616143448AAdU6Ze KFC NNP Dining_Out ORGANIZATION
0.5 2:0 3:3 4:1 5:0 7:0 73:1 18052:1 # 20140617213812AAnm3nS WDW NNP Travel ORGANIZATION
0.5 2:0 3:3 4:1 5:0 7:0 73:1 4270:1 # 20140604083714AANM1Br UNC NNP Education_&_Reference ORGANIZATION
0.5 2:0 3:3 4:1 5:0 7:0 73:1 3539:1 # 20140614134845AAVhWeg AMD NNP Consumer_Electronics ORGANIZATION
0.5 2:1 3:7 4:0 5:0 7:1 123:1 5614:1 # 20140608113007AAoVpt8 Answers VBZ Politics_&_Government ORGANIZATION
0.5 2:0 3:3 4:1 5:0 7:0 73:1 15192:1 # 20140610123048AAZOuhW KGB NNP Politics_&_Government ORGANIZATION
0.5 2:0 3:6 4:0 5:0 7:0 73:1 4145:1 # 20140607141649AANF6Tv NVidia NNP Consumer_Electronics ORGANIZATION
0.5 2:0 3:6 4:0 5:0 7:0 73:1 12297:1 # 20140615100226AACLhyS C-list NNP Home_&_Garden ORGANIZATION
0.5 2:0 3:6 4:0 5:0 7:0 73:1 4282:1 # 20140604083714AANM1Br MIzzou NNP Education_&_Reference LOCATION
0.5 2:0 3:7 4:0 5:0 7:0 73:1 3594:1 # 20140603131617AAsXYRf YouTube NNP Education_&_Reference ORGANIZATION
0.5 2:0 3:7 4:0 5:0 7:0 73:1 2570:1 # 20140620222120AA4p1zz BLS.gov NNP Business_&_Finance ORGANIZATION
0.5 2:1 3:9 4:0 5:0 7:0 73:1 7069:1 # 20140613111207AAD5YgE McDonalds NNP Dining_Out ORGANIZATION
-0.5 2:0 3:2 4:1 5:0 7:0 73:1 3408:1 # 20140612013350AAX11Xr UK NNP Travel TOKEN
0.5 2:0 3:3 4:0 5:0 7:1 73:1 5166:1 # 20140614004826AAWj9IB May NNP Entertainment_&_Music PERSON
0.5 2:0 3:3 4:0 5:0 7:1 73:1 9209:1 # 20140623022611AAddTaJ Big NNP Sports PERSON
-0.5 2:0 3:4 4:0 5:0 7:1 73:1 5211:1 # 20140614004826AAWj9IB Club NNP Entertainment_&_Music TOKEN
-0.49977717073470118158695640886435 2:0 3:2 4:1 5:0 7:0 73:1 9505:1 # 20140610194612AA31tgA NJ NNP Local_Businesses TOKEN
0.5 2:1 3:6 4:0 5:0 7:1 61:1 9343:1 # 20140616154757AA3uubn Forces NNPS News_&_Events ORGANIZATION
0.5 2:0 3:3 4:0 5:0 7:1 73:1 4312:1 # 20140604083714AANM1Br San NNP Education_&_Reference LOCATION
-0.5 2:1 3:7 4:0 5:0 7:1 123:1 5614:1 # 20140605081144AAuazx4 Answers VBZ Science_&_Mathematics TOKEN
-0.5 2:0 3:6 4:0 5:1 7:0 43:1 1441:1 # 20140616063937AAhSsrT google VBP Business_&_Finance TOKEN
0.5 2:1 3:4 4:0 5:0 7:1 73:1 15214:1 # 20140610123048AAZOuhW Rose NNP Politics_&_Government LOCATION
0.5 2:1 3:7 4:0 5:0 7:1 73:1 11348:1 # 20140616143448AAdU6Ze Caesars NNP Dining_Out ORGANIZATION
0.5 2:0 3:3 4:0 5:0 7:1 73:1 2656:1 # 20140622230045AAAI6WE New NNP Travel LOCATION
0.5 2:0 3:13 4:0 5:0 7:1 73:1 8150:1 # 20140625120602AAXWOm0 Mediterranean NNP Science_&_Mathematics LOCATION
0.5 2:0 3:11 4:0 5:0 7:1 73:1 4290:1 # 20140604083714AANM1Br Northampton NNP Education_&_Reference LOCATION
-0.5 2:0 3:4 4:0 5:0 7:1 73:1 13473:1 # 20140607071218AAzGtJH Mike NNP Family_&_Relationships TOKEN
-0.24653754057564353230347364842601 2:0 3:4 4:0 5:0 7:1 73:1 13993:1 # 20140625210906AATgayM News NNP News_&_Events TOKEN
-0.023120051088169613073830532812281 2:0 3:2 4:0 5:1 7:0 20:1 13195:1 # 20140616160832AA467zb y' VBG Family_&_Relationships TOKEN
-0.023058022400904265580834362481255 2:0 3:2 4:0 5:1 7:0 20:1 1773:1 # 20140615120927AAPeVv5 na VBG Sports TOKEN
-0.023117380385460017944154742508545 2:0 3:2 4:0 5:1 7:0 20:1 17536:1 # 20140618114010AAeeGQR bc VBG Pregnancy_&_Parenting TOKEN
0.5 2:1 3:8 4:0 5:0 7:1 73:1 8461:1 # 20140612022126AAsUT1R Aviators NNP Beauty_&_Style ORGANIZATION
-0.5 2:1 3:9 4:0 5:0 7:0 73:1 7069:1 # 20140610162943AA8McBJ McDonalds NNP Games_&_Recreation TOKEN
0.5 2:0 3:9 4:0 5:0 7:0 73:1 791:1 # 20140617074422AANUT7h DuMaurier NNP Arts_&_Humanities PERSON
-0.5 2:0 3:3 4:1 5:0 7:0 73:1 4270:1 # 20140604083714AANM1Br UNC NNP Education_&_Reference TOKEN
-0.5 2:0 3:3 4:1 5:0 7:0 73:1 3539:1 # 20140608132523AAWfvBH AMD NNP Computer_&_Internet TOKEN
-0.5 2:0 3:2 4:1 5:0 7:0 73:1 9505:1 # 20140610194612AA31tgA NJ NNP Local_Businesses TOKEN
0.5 2:1 3:9 4:0 5:0 7:1 73:1 8460:1 # 20140612022126AAsUT1R Wayfarers NNP Beauty_&_Style ORGANIZATION
-0.5 2:1 3:7 4:0 5:0 7:1 123:1 5614:1 # 20140617222051AA6Qnkk Answers VBZ Entertainment_&_Music TOKEN
-0.5 2:0 3:4 4:0 5:0 7:1 73:1 13473:1 # 20140607071218AAzGtJH Mike NNP Family_&_Relationships TOKEN
-0.032707618883774658424812287194072 2:1 3:2 4:1 5:0 7:0 73:1 9777:1 # 20140608132523AAWfvBH AM NNP Computer_&_Internet TOKEN
-0.032532799709690252143445832189173 2:1 3:2 4:1 5:0 7:0 73:1 9433:1 # 20140623022611AAddTaJ VS NNP Sports TOKEN
-0.032746430629101208609199602506123 2:1 3:2 4:1 5:0 7:0 73:1 311:1 # 20140601140351AAMxHZD IS NNP Pregnancy_&_Parenting TOKEN
0.5 2:0 3:10 4:0 5:0 7:1 73:1 4198:1 # 20140622140805AAtjqJa Statistics NNP Cars_&_Transportation ORGANIZATION
-0.49932561526892627057350182440132 2:0 3:4 4:0 5:0 7:1 73:1 13993:1 # 20140625210906AATgayM News NNP News_&_Events TOKEN
0.5 2:1 3:9 4:0 5:0 7:0 73:1 7069:1 # 20140615191331AAdpnmg McDonalds NNP Dining_Out ORGANIZATION
-0.13212538325947775774693582206964 2:0 3:29 4:0 5:0 7:0 73:1 19505:1 # 20140609172302AAjgqUA https:##twitter.com#YahooCare NNP Yahoo!_Products TOKEN
-0.14127678756049633079783234279603 2:0 3:21 4:0 5:0 7:0 73:1 18228:1 # 20140613030213AAZi4zH Manchester#Nottingham NNP Travel TOKEN
-0.14117394883104233960224860311428 2:0 3:21 4:0 5:0 7:0 73:1 15091:1 # 20140617015321AAEmy38 LogosRadionetwork_com NNP Politics_&_Government TOKEN
0.5 2:0 3:4 4:0 5:0 7:1 73:1 13473:1 # 20140620214550AA74tKP Mike NNP News_&_Events PERSON
0.5 2:1 3:4 4:0 5:0 7:1 73:1 11048:1 # 20140610083106AA7AAUT Ribs NNP Dining_Out ORGANIZATION
-0.09113082188402099603763417690061 2:0 3:7 4:1 5:0 7:0 73:1 5811:1 # 20140613023120AA7XyZ8 PERVERT NNP Entertainment_&_Music TOKEN
0.5 2:1 3:5 4:0 5:0 7:1 73:1 11394:1 # 20140616143448AAdU6Ze Johns NNP Dining_Out ORGANIZATION
-0.094184479524657277460519821943308 2:0 3:4 4:1 5:0 7:0 73:1 4776:1 # 20140619114039AAjxNQW HAVE NNP Food_&_Drink TOKEN
0.5 2:0 3:7 4:0 5:0 7:1 73:1 802:1 # 20140617074422AANUT7h Johnson NNP Arts_&_Humanities PERSON
0.5 2:0 3:6 4:0 5:0 7:1 73:1 10918:1 # 20140614131911AAPXlGW Subaru NNP Cars_&_Transportation ORGANIZATION
0.5 2:0 3:3 4:0 5:0 7:1 73:1 2656:1 # 20140620123248AAQq23H New NNP Business_&_Finance LOCATION
0.5 2:0 3:4 4:0 5:0 7:1 73:1 15137:1 # 20140611151627AAmAEbQ Mitt NNP Politics_&_Government PERSON
-0.5 2:0 3:7 4:0 5:0 7:0 73:1 3594:1 # 20140615210245AAjCZ2q YouTube NNP Consumer_Electronics TOKEN
-0.5 2:0 3:4 4:0 5:0 7:1 73:1 13473:1 # 20140607071218AAzGtJH Mike NNP Family_&_Relationships TOKEN
0.5 2:0 3:10 4:0 5:0 7:1 73:1 9439:1 # 20140623022611AAddTaJ Undertaker NNP Sports PERSON
0.5 2:1 3:5 4:0 5:0 7:1 73:1 15298:1 # 20140613140428AASx2zV Sears NNP Politics_&_Government ORGANIZATION
0.5 2:1 3:5 4:0 5:0 7:1 73:1 14314:1 # 20140606223938AAjsrL7 Times NNP News_&_Events ORGANIZATION
0.5 2:0 3:4 4:0 5:0 7:1 73:1 13473:1 # 20140617193722AA5emAo Mike NNP Politics_&_Government PERSON
0.5 2:1 3:5 4:0 5:0 7:1 73:1 819:1 # 20140617074422AANUT7h Jones NNP Arts_&_Humanities PERSON
0.5 2:1 3:5 4:0 5:0 7:1 73:1 14128:1 # 20140605150717AAmRFk6 Soros NNP News_&_Events PERSON
0.5 2:1 3:5 4:0 5:0 7:1 73:1 9139:1 # 20140615215028AAGmoaM Jered NNP Sports PERSON
0.5 2:1 3:5 4:0 5:0 7:1 73:1 1891:1 # 20140605091638AATCTbo Carla NNP Arts_&_Humanities PERSON
0.5 2:1 3:6 4:0 5:0 7:1 73:1 4481:1 # 20140618125641AAGkGpi Hughes NNP Education_&_Reference PERSON
0.5 2:1 3:6 4:0 5:0 7:1 73:1 11049:1 # 20140610083106AA7AAUT Steaks NNP Dining_Out ORGANIZATION
0.5 2:1 3:6 4:0 5:0 7:1 73:1 12442:1 # 20140605150717AAmRFk6 United NNP News_&_Events LOCATION
0.5 2:1 3:6 4:0 5:0 7:1 73:1 11324:1 # 20140623125801AASUucg Donuts NNP Food_&_Drink ORGANIZATION
-0.14977200100791263071009495888575 2:0 3:13 4:0 5:0 7:0 73:1 4489:1 # 20140618125641AAGkGpi Oral-Language NNP Education_&_Reference TOKEN
0.5 2:1 3:7 4:0 5:0 7:1 73:1 19548:1 # 20140619231832AAFqTWm Mikayla NNP Yahoo!_Products PERSON
-0.24596022396172312340922871953808 2:0 3:3 4:0 5:0 7:1 73:1 13302:1 # 20140611185044AABR6jn Act NNP Family_&_Relationships TOKEN
0.5 2:1 3:9 4:0 5:0 7:1 73:1 805:1 # 20140617074422AANUT7h Euripides NNP Arts_&_Humanities PERSON
0.5 2:1 3:9 4:0 5:0 7:1 73:1 10548:1 # 20140608182325AAmvy1Q Illionois NNP Cars_&_Transportation LOCATION
0.5 2:1 3:6 4:0 5:0 7:1 61:1 15074:1 # 20140617015321AAEmy38 Masons NNPS Politics_&_Government PERSON
0.5 2:0 3:3 4:0 5:0 7:1 73:1 9209:1 # 20140623022611AAddTaJ Big NNP Sports PERSON
0.5 2:0 3:3 4:0 5:0 7:1 73:1 15512:1 # 20140617193722AA5emAo Abu NNP Politics_&_Government PERSON
0.5 2:0 3:3 4:0 5:0 7:1 73:1 5559:1 # 20140618141409AA9yzif Ray NNP Entertainment_&_Music PERSON
0.5 2:0 3:3 4:0 5:0 7:1 73:1 5166:1 # 20140614004826AAWj9IB May NNP Entertainment_&_Music PERSON
0.5 2:0 3:3 4:0 5:0 7:1 73:1 769:1 # 20140625193136AAUePpR Poe NNP Arts_&_Humanities PERSON
0.5 2:0 3:3 4:0 5:0 7:1 73:1 11362:1 # 20140616143448AAdU6Ze Hut NNP Dining_Out ORGANIZATION
0.5 2:0 3:5 4:0 5:0 7:1 73:1 263:1 # 20140608034752AAWHbyf Green NNP Arts_&_Humanities PERSON
0.5 2:0 3:5 4:0 5:0 7:1 73:1 5511:1 # 20140613111207AAD5YgE Wayne NNP Dining_Out PERSON
-0.5 2:1 3:7 4:0 5:0 7:1 73:1 12802:1 # 20140608112522AAMjxU9 Angeles NNP Local_Businesses TOKEN
-0.5 2:1 3:5 4:0 5:0 7:1 73:1 14314:1 # 20140625210906AATgayM Times NNP News_&_Events TOKEN
0.5 2:1 3:6 4:0 5:1 7:0 123:1 13880:1 # 20140617033632AAaS0SQ spears VBZ News_&_Events PERSON
0.5 2:0 3:2 4:1 5:0 7:0 73:1 9505:1 # 20140623125801AASUucg NJ NNP Food_&_Drink LOCATION
-0.17514418041282731053343013627455 2:0 3:1 4:0 5:1 7:0 73:1 896:1 # 20140615210245AAjCZ2q u NNP Consumer_Electronics TOKEN
-0.015691049198650830476253759115934 2:0 3:7 4:0 5:1 7:0 8:1 11079:1 # 20140620102728AA6qqJ3 chicken NN Food_&_Drink TOKEN
-0.01538625608928889665349970528041 2:0 3:7 4:0 5:1 7:0 8:1 3810:1 # 20140605094920AAfugK5 mission NN Consumer_Electronics TOKEN
0.5 2:0 3:4 4:0 5:0 7:1 73:1 15168:1 # 20140610123048AAZOuhW Bowe NNP Politics_&_Government PERSON
-0.24721474745661708993793581612408 2:0 3:2 4:0 5:0 7:1 73:1 5832:1 # 20140613124158AAH0KXB Va NNP Entertainment_&_Music TOKEN
-0.2481737370255885366532311309129 2:0 3:2 4:0 5:0 7:1 73:1 1086:1 # 20140605231104AAm8fzJ He NNP Politics_&_Government TOKEN
-0.032563887436210192660723805602174 2:1 3:2 4:1 5:0 7:0 73:1 3695:1 # 20140607125412AAK3UlI PS NNP Games_&_Recreation TOKEN
-0.032721228698876919649407568613242 2:1 3:2 4:1 5:0 7:0 73:1 6108:1 # 20140605225313AAAhy4Z BS NNP Health TOKEN
0.5 2:0 3:7 4:0 5:1 7:0 43:1 8739:1 # 20140612145554AAjlhJX america VBP Beauty_&_Style LOCATION
0.5 2:0 3:8 4:0 5:1 7:0 20:1 9289:1 # 20140601130859AAHxybZ martinez VBG Sports PERSON
-0.5 2:0 3:3 4:0 5:0 7:1 73:1 2656:1 # 20140609221937AAH7tge New NNP Travel TOKEN
-0.5 2:0 3:3 4:0 5:0 7:1 73:1 2656:1 # 20140614220006AA90c02 New NNP Sports TOKEN
-0.5 2:0 3:3 4:0 5:0 7:1 73:1 5559:1 # 20140618215915AAruZzF Ray NNP News_&_Events TOKEN
-0.24470972863102957717273966409266 2:0 3:3 4:0 5:0 7:1 73:1 14684:1 # 20140626142532AAHm2Mx Toy NNP Pets TOKEN
0.5 2:0 3:5 4:0 5:0 7:1 73:1 7488:1 # 20140620120056AAFGiXk Yahoo NNP Yahoo!_Products ORGANIZATION
0.49956569642974357758902215209673 2:0 3:5 4:0 5:0 7:1 73:1 12022:1 # 20140617164024AABuVO8 Egypt NNP Food_&_Drink LOCATION
-0.24814732221946655954525340348482 2:0 3:2 4:0 5:0 7:1 73:1 185:1 # 20140608155422AAGg2Wt So NNP Pregnancy_&_Parenting TOKEN
-0.24813864384918460359585878904909 2:0 3:2 4:0 5:0 7:1 73:1 12930:1 # 20140622225954AAAlKMt Mr NNP Local_Businesses TOKEN
-0.2481737370256489327857707394287 2:0 3:2 4:0 5:0 7:1 73:1 5396:1 # 20140614114159AAxmnir Al NNP Travel TOKEN
0.5 2:0 3:5 4:0 5:0 7:1 73:1 4177:1 # 20140607141649AANF6Tv Carey NNP Consumer_Electronics PERSON
0.5 2:0 3:5 4:0 5:0 7:1 73:1 10857:1 # 20140610123048AAZOuhW Obama NNP Politics_&_Government PERSON
0.5 2:0 3:5 4:0 5:0 7:1 73:1 1692:1 # 20140609112801AAnee0x India NNP Arts_&_Humanities LOCATION
-0.24814732221388169364217901602387 2:0 3:2 4:0 5:0 7:1 73:1 9659:1 # 20140616160015AAkjHsB La NNP Dining_Out TOKEN
-0.24616369123893377945933025330305 2:0 3:2 4:0 5:0 7:1 73:1 7632:1 # 20140618095228AAKVjIw Ri NNP Science_&_Mathematics TOKEN
-0.24813585976402130484075314598158 2:0 3:2 4:0 5:0 7:1 73:1 11461:1 # 20140603215034AABtnxF Le NNP Dining_Out TOKEN
-0.24803168379529005882488945644582 2:0 3:2 4:0 5:0 7:1 73:1 755:1 # 20140619012658AAFU8Pz Do NNP Yahoo!_Products TOKEN
-0.24721614862603757956094341352582 2:0 3:2 4:0 5:0 7:1 73:1 1538:1 # 20140623154545AAikPvj We NNP Pets TOKEN
-0.24813864384918549177427848917432 2:0 3:2 4:0 5:0 7:1 73:1 966:1 # 20140607141649AANF6Tv In NNP Consumer_Electronics TOKEN
0.5 2:1 3:10 4:0 5:0 7:1 73:1 1757:1 # 20140621012549AAOo4ve Dreamworks NNP Arts_&_Humanities ORGANIZATION
-0.18168958611264152125386317493394 2:1 3:4 4:0 5:0 7:1 73:1 10318:1 # 20140611090216AAsNyRd Lets NNP Family_&_Relationships TOKEN
-0.18175999693130240331129243713804 2:1 3:4 4:0 5:0 7:1 73:1 6855:1 # 20140620231356AA5VO2N Sims NNP Games_&_Recreation TOKEN
-0.18143034321636619665696343872696 2:1 3:4 4:0 5:0 7:1 73:1 11772:1 # 20140620063230AAXLo9n Cola NNP Food_&_Drink TOKEN
-0.18175266403950018911928054876626 2:1 3:4 4:0 5:0 7:1 73:1 15155:1 # 20140610123048AAZOuhW Cons NNP Politics_&_Government TOKEN
0.5 2:1 3:7 4:0 5:0 7:1 123:1 5614:1 # 20140608113007AAoVpt8 Answers VBZ Politics_&_Government ORGANIZATION
-0.24696959414678509858731558779255 2:0 3:3 4:0 5:0 7:1 73:1 10718:1 # 20140611152558AA4un22 Cam NNP Cars_&_Transportation TOKEN
-0.24641309126694599385132278257515 2:0 3:3 4:0 5:0 7:1 73:1 2579:1 # 20140611152642AAd7nNQ Sun NNP Pets TOKEN
-0.24706128393394521935988450422883 2:0 3:3 4:0 5:0 7:1 73:1 8847:1 # 20140607184544AAxrzQb Jaw NNP Beauty_&_Style TOKEN
-0.24706101820700321347601402521832 2:0 3:3 4:0 5:0 7:1 73:1 14218:1 # 20140618215915AAruZzF Dad NNP News_&_Events TOKEN
-0.24701446233972035315673565492034 2:0 3:3 4:0 5:0 7:1 41:1 73:1 # 20140615025730AAsJj6v Now NNP Social_Science TOKEN
-0.24701266420508405374789617781062 2:0 3:3 4:0 5:0 7:1 73:1 10630:1 # 20140603135339AAL5mDP Thx NNP Cars_&_Transportation TOKEN
-0.24704614087072762629304634174332 2:0 3:3 4:0 5:0 7:1 73:1 9344:1 # 20140614220006AA90c02 Nam NNP Sports TOKEN
-0.24685392661585084383979449285107 2:0 3:3 4:0 5:0 7:1 73:1 12982:1 # 20140622225954AAAlKMt Xin NNP Local_Businesses TOKEN
-0.2470612839337960053853748831898 2:0 3:3 4:0 5:0 7:1 73:1 15329:1 # 20140607125905AA2JtXv War NNP Politics_&_Government TOKEN
-0.5 2:0 3:7 4:0 5:1 7:0 8:1 11079:1 # 20140614164536AAHVllV chicken NN Food_&_Drink TOKEN
-0.5 2:0 3:7 4:0 5:1 7:0 8:1 3810:1 # 20140605094920AAfugK5 mission NN Consumer_Electronics TOKEN
-0.24706092449155114820769085781649 2:0 3:3 4:0 5:0 7:1 73:1 11518:1 # 20140613052638AAHwjzY Bar NNP Dining_Out TOKEN
-0.24649469760212561197931790957227 2:0 3:3 4:0 5:0 7:1 73:1 7485:1 # 20140609221937AAH7tge Age NNP Travel TOKEN
-0.24702744920616481749675585888326 2:0 3:3 4:0 5:0 7:1 73:1 18842:1 # 20140614045845AAdu92x Web NNP Computer_&_Internet TOKEN
-0.24685392661568350547440786613151 2:0 3:3 4:0 5:0 7:1 73:1 2604:1 # 20140615124053AAji1XJ Idk NNP Science_&_Mathematics TOKEN
-0.24701266420494949471731160883792 2:0 3:3 4:0 5:0 7:1 73:1 13109:1 # 20140620035947AAeYEbM Top NNP Local_Businesses TOKEN
-0.24706092449155026002927115769126 2:0 3:3 4:0 5:0 7:1 73:1 8245:1 # 20140622013948AAZujJH Ohm NNP Science_&_Mathematics TOKEN
-0.18162169433493247083788446616381 2:1 3:4 4:0 5:0 7:1 73:1 8466:1 # 20140612022126AAsUT1R Accs NNP Beauty_&_Style TOKEN
-0.1817599969313015151328727370128 2:1 3:4 4:0 5:0 7:1 73:1 18310:1 # 20140622230045AAAI6WE Days NNP Travel TOKEN
-0.18144842798036769915270838282595 2:1 3:4 4:0 5:0 7:1 73:1 1795:1 # 20140621012549AAOo4ve Arts NNP Arts_&_Humanities TOKEN
-0.18139013735627826373608684207284 2:1 3:4 4:0 5:0 7:1 73:1 11774:1 # 20140620063230AAXLo9n Iced NNP Food_&_Drink TOKEN
-0.24706128393393811393252690322697 2:0 3:3 4:0 5:0 7:1 73:1 3767:1 # 20140620192235AA5KHXm Cup NNP Travel TOKEN
-0.24699528145115734467651691375067 2:0 3:3 4:0 5:0 7:1 73:1 3854:1 # 20140626112013AAPPVIB Run NNP Consumer_Electronics TOKEN
-0.24696959414699293233752541709691 2:0 3:3 4:0 5:0 7:1 73:1 2459:1 # 20140601075512AAfLuOE God NNP Beauty_&_Style TOKEN
-0.24704464163863093517647939734161 2:0 3:3 4:0 5:0 7:1 73:1 18777:1 # 20140609063130AAx8NAT Gen NNP Computer_&_Internet TOKEN
-0.24622972316080646293379174949223 2:0 3:3 4:0 5:0 7:1 73:1 10378:1 # 20140610052054AAkNfGL Car NNP Cars_&_Transportation TOKEN
-0.24698073792402652770761051215231 2:0 3:3 4:0 5:0 7:1 73:1 5924:1 # 20140611201334AAFQLgO Eat NNP Health TOKEN
0.5 2:1 3:8 4:0 5:0 7:1 73:1 11353:1 # 20140616143448AAdU6Ze Oberweis NNP Dining_Out ORGANIZATION
-0.24705954062856827491145850217436 2:0 3:3 4:0 5:0 7:1 73:1 5432:1 # 20140620190356AAdnQme Don NNP Entertainment_&_Music TOKEN
-0.2470425506346050070760611561127 2:0 3:3 4:0 5:0 7:1 73:1 6980:1 # 20140625193758AANDcbj Muk NNP Games_&_Recreation TOKEN
-0.24702744920630115288417982810643 2:0 3:3 4:0 5:0 7:1 73:1 11942:1 # 20140626031053AAyXCcP Ham NNP Food_&_Drink TOKEN
-0.24511243569109097961700172163546 2:0 3:3 4:0 5:0 7:1 73:1 6674:1 # 20140609161733AAfnIuB Tea NNP Food_&_Drink TOKEN
-0.24701446233959245546429883688688 2:0 3:3 4:0 5:0 7:1 73:1 6870:1 # 20140620231356AA5VO2N Ctr NNP Games_&_Recreation TOKEN
-0.24703629707034646667551669452223 2:0 3:3 4:0 5:0 7:1 73:1 5220:1 # 20140614004826AAWj9IB Day NNP Entertainment_&_Music TOKEN
-0.24814732221953761381882941350341 2:0 3:2 4:0 5:0 7:1 73:1 11037:1 # 20140616141511AAlZZIn Iv NNP Dining_Out TOKEN
-0.2470425506355855560514100943692 2:0 3:3 4:0 5:0 7:1 73:1 270:1 # 20140609212304AAlJxoJ For NNP Cars_&_Transportation TOKEN
-0.24696959414686503464508859906346 2:0 3:3 4:0 5:0 7:1 73:1 12613:1 # 20140626130807AAvZf6J Hot NNP Computer_&_Internet TOKEN
-0.24699579894478596031603956362233 2:0 3:3 4:0 5:0 7:1 73:1 13158:1 # 20140610040156AAtbQ4M Sry NNP Local_Businesses TOKEN
-0.24522112409056706638921241392381 2:0 3:3 4:0 5:0 7:1 73:1 9692:1 # 20140614154636AAYu9pP Coz NNP Social_Science TOKEN
-0.24706092449154759549401205731556 2:0 3:3 4:0 5:0 7:1 73:1 19143:1 # 20140608155422AAGg2Wt Soi NNP Pregnancy_&_Parenting TOKEN
-0.24706092449155558909978935844265 2:0 3:3 4:0 5:0 7:1 73:1 9101:1 # 20140620105746AAnOLsk Sig NNP Sports TOKEN
-0.2465938656353540703314308757399 2:0 3:3 4:0 5:0 7:1 73:1 13148:1 # 20140603131218AA1t3hP Ave NNP Local_Businesses TOKEN
-0.24701266420508893872920452849939 2:0 3:3 4:0 5:0 7:1 73:1 6989:1 # 20140625193758AANDcbj Lvl NNP Games_&_Recreation TOKEN
-0.2469728301459158670283500214282 2:0 3:3 4:0 5:0 7:1 73:1 5016:1 # 20140601140351AAMxHZD Guy NNP Pregnancy_&_Parenting TOKEN
-0.24703629707021296235680551944824 2:0 3:3 4:0 5:0 7:1 73:1 3583:1 # 20140614134845AAVhWeg Qty NNP Consumer_Electronics TOKEN
-0.24701266420508893872920452849939 2:0 3:3 4:0 5:0 7:1 73:1 465:1 # 20140626114755AAx0yWm Btw NNP Education_&_Reference TOKEN
-0.24813585976494145768356247572228 2:0 3:2 4:0 5:0 7:1 73:1 6782:1 # 20140614172231AAsQkBF Ur NNP Politics_&_Government TOKEN
-0.2459900017334680222269582827721 2:0 3:3 4:0 5:0 7:1 73:1 18736:1 # 20140606131438AAaBd2m Amd NNP Computer_&_Internet TOKEN
-0.095643433342638362049115130503196 2:0 3:3 4:1 5:0 7:0 73:1 1505:1 # 20140612104828AAbSxeI NOT NNP Health TOKEN
-0.096895435569765542282993919798173 2:0 3:2 4:1 5:0 7:0 73:1 7862:1 # 20140603072418AAgZjcN AB NNP Science_&_Mathematics TOKEN
-0.096773251399390858296101214364171 2:0 3:2 4:1 5:0 7:0 73:1 7852:1 # 20140605092633AAPkbBp W. NNP Science_&_Mathematics TOKEN
-0.096802210576626634974672924727201 2:0 3:2 4:1 5:0 7:0 73:1 3569:1 # 20140614134845AAVhWeg PC NNP Consumer_Electronics TOKEN
-0.096879584538669516469155951199355 2:0 3:2 4:1 5:0 7:0 73:1 3507:1 # 20140603135339AAL5mDP CA NNP Cars_&_Transportation TOKEN
-0.09664327489193608178297267841117 2:0 3:2 4:1 5:0 7:0 73:1 9515:1 # 20140615120927AAPeVv5 AZ NNP Sports TOKEN
-0.18168958611264685032438137568533 2:1 3:4 4:0 5:0 7:1 73:1 3844:1 # 20140603005221AAThPnj Apps NNP Consumer_Electronics TOKEN
-0.18170038582452541220391140086576 2:1 3:4 4:0 5:0 7:1 73:1 5065:1 # 20140608162419AAwr1N9 Kids NNP Entertainment_&_Music TOKEN
-0.18176954101582154521565826144069 2:1 3:4 4:0 5:0 7:1 73:1 12953:1 # 20140622225954AAAlKMt Hung NNP Local_Businesses TOKEN
-0.1811520303836144929476859033457 2:1 3:4 4:0 5:0 7:1 73:1 13978:1 # 20140610123048AAZOuhW Libs NNP Politics_&_Government TOKEN
-0.24702744920632113689862308092415 2:0 3:3 4:0 5:0 7:1 73:1 5018:1 # 20140611114023AAQ6gKU Gay NNP Education_&_Reference TOKEN
-0.24698073792404429127600451465696 2:0 3:3 4:0 5:0 7:1 73:1 11834:1 # 20140611141719AAUaRNh Elf NNP Food_&_Drink TOKEN
-0.2469807379238861955172978923656 2:0 3:3 4:0 5:0 7:1 73:1 1598:1 # 20140614004826AAWj9IB Art NNP Entertainment_&_Music TOKEN
-0.24624163949084945657297396337526 2:0 3:3 4:0 5:0 7:1 73:1 1622:1 # 20140618141257AAQm1bZ Tip NNP Arts_&_Humanities TOKEN
-0.24599000173347362885323263981263 2:0 3:3 4:0 5:0 7:1 73:1 8798:1 # 20140613125219AA2D0JF Tan NNP Beauty_&_Style TOKEN
-0.24704464163865580417223100084811 2:0 3:3 4:0 5:0 7:1 73:1 14659:1 # 20140608113007AAoVpt8 Yep NNP Politics_&_Government TOKEN
-0.18291836980950559876646366319619 2:1 3:3 4:0 5:0 7:1 73:1 15163:1 # 20140610123048AAZOuhW Drs NNP Politics_&_Government TOKEN
-0.24599671571933418023903072935354 2:0 3:3 4:0 5:0 7:1 73:1 11182:1 # 20140608075953AADKMro Pot NNP Dining_Out TOKEN
-0.24685392661570870753706685718498 2:0 3:3 4:0 5:0 7:1 73:1 6072:1 # 20140605225313AAAhy4Z Huh NNP Health TOKEN
-0.24586472696691119566025918175001 2:0 3:4 4:0 5:0 7:1 73:1 1477:1 # 20140605223141AA4aNVu Peak NNP Arts_&_Humanities TOKEN
-0.24586864908688621511601013480686 2:0 3:4 4:0 5:0 7:1 73:1 15420:1 # 20140619072135AAeFu7N Isle NNP Politics_&_Government TOKEN
-0.5 2:0 3:6 4:0 5:1 7:0 8:1 359:1 # 20140608034752AAWHbyf tumblr NN Arts_&_Humanities TOKEN
-0.24589181334600418438185442937538 2:0 3:4 4:0 5:0 7:1 73:1 2456:1 # 20140608145354AAWyj40 Loan NNP Business_&_Finance TOKEN
-0.24706092449155026002927115769126 2:0 3:3 4:0 5:0 7:1 73:1 12382:1 # 20140601134625AAPRFLP Rub NNP Home_&_Garden TOKEN
-0.2459625620814165358751779422164 2:0 3:3 4:0 5:0 7:1 73:1 7318:1 # 20140612212350AAeLl07 Ill NNP Family_&_Relationships TOKEN
-0.5 2:0 3:3 4:0 5:0 7:1 73:1 4312:1 # 20140617213812AAnm3nS San NNP Travel TOKEN
-0.24632695362616413570222562157142 2:0 3:3 4:0 5:0 7:1 73:1 5844:1 # 20140613124158AAH0KXB Dic NNP Entertainment_&_Music TOKEN
-0.5 2:0 3:6 4:0 5:1 7:0 8:1 1441:1 # 20140614114159AAxmnir google NN Travel TOKEN
-0.24596256208153022271289955824614 2:0 3:3 4:0 5:0 7:1 73:1 3545:1 # 20140620063230AAXLo9n Kit NNP Food_&_Drink TOKEN
-0.24599000173333102070571953845501 2:0 3:3 4:0 5:0 7:1 73:1 18031:1 # 20140604115540AAQrGu2 Pan NNP Travel TOKEN
-0.5 2:1 3:7 4:0 5:0 7:1 123:1 5614:1 # 20140605111442AA4wyqx Answers VBZ Science_&_Mathematics TOKEN
-0.17658987508727364001970272511244 2:1 3:9 4:0 5:0 7:1 73:1 10548:1 # 20140608182325AAmvy1Q Illionois NNP Cars_&_Transportation TOKEN
0.5 2:0 3:6 4:0 5:1 7:0 8:1 1441:1 # 20140611222016AAhrT1y google NN Computer_&_Internet ORGANIZATION
0.5 2:1 3:7 4:0 5:0 7:1 73:1 12802:1 # 20140616200702AA6Pms8 Angeles NNP Local_Businesses LOCATION
0.5 2:0 3:9 4:0 5:0 7:1 73:1 4459:1 # 20140618125641AAGkGpi Louisiana NNP Education_&_Reference LOCATION
-0.24033550851672469406139498460107 2:0 3:8 4:0 5:0 7:1 73:1 19386:1 # 20140608060520AAMzqLw Overview NNP Yahoo!_Products TOKEN
0.5 2:0 3:8 4:0 5:0 7:1 73:1 18418:1 # 20140617134810AAX61tb Aramoana NNP Travel LOCATION
-0.49961942849725105020297633018345 2:0 3:5 4:0 5:0 7:1 73:1 263:1 # 20140605210007AAoMB1b Green NNP Home_&_Garden TOKEN
-0.5 2:0 3:5 4:0 5:0 7:1 73:1 1692:1 # 20140609031322AAZz3r8 India NNP Travel TOKEN
-0.5 2:0 3:5 4:0 5:0 7:1 73:1 14019:1 # 20140609103954AAB6LY5 Allah NNP News_&_Events TOKEN
0.5 2:0 3:6 4:0 5:1 7:0 20:1 359:1 # 20140622080843AAfcL4m tumblr VBG Pets ORGANIZATION
-0.070101068482806283554964466020465 2:1 3:7 4:0 5:0 7:1 61:1 18724:1 # 20140609172302AAjgqUA Options NNPS Yahoo!_Products TOKEN
0.5 2:0 3:2 4:1 5:0 7:0 73:1 3408:1 # 20140616063937AAhSsrT UK NNP Business_&_Finance LOCATION
0.5 2:0 3:6 4:0 5:1 7:0 8:1 1441:1 # 20140607053946AAkMdTv google NN Social_Science ORGANIZATION
-0.5 2:0 3:6 4:0 5:1 7:0 8:1 1441:1 # 20140614114159AAxmnir google NN Travel TOKEN
0.5 2:0 3:7 4:0 5:0 7:1 73:1 8719:1 # 20140622131925AAtjtJJ Waldorf NNP Beauty_&_Style PERSON
0.5 2:1 3:5 4:0 5:0 7:1 73:1 14314:1 # 20140606223938AAjsrL7 Times NNP News_&_Events ORGANIZATION
0.5 2:0 3:3 4:0 5:0 7:1 73:1 2656:1 # 20140617134810AAX61tb New NNP Travel LOCATION
-0.24508800480870621130158326650417 2:0 3:5 4:0 5:0 7:1 73:1 263:1 # 20140620063230AAXLo9n Green NNP Food_&_Drink TOKEN
0.5 2:0 3:6 4:0 5:1 7:0 8:1 1441:1 # 20140607053946AAkMdTv google NN Social_Science ORGANIZATION
0.5 2:0 3:3 4:1 5:0 7:0 73:1 13982:1 # 20140623230739AA9pP9C BBC NNP News_&_Events ORGANIZATION
0.5 2:0 3:3 4:0 5:0 7:1 73:1 4312:1 # 20140619190906AAxXT6l San NNP Local_Businesses LOCATION
0.5 2:0 3:5 4:0 5:1 7:0 20:1 15566:1 # 20140603004555AAv1K5X steve VBG Politics_&_Government PERSON
0.5 2:0 3:3 4:0 5:0 7:1 73:1 9479:1 # 20140613182418AAAZN2I Zeb NNP Sports PERSON
0.5 2:0 3:3 4:0 5:0 7:1 73:1 11351:1 # 20140616143448AAdU6Ze Moe NNP Dining_Out ORGANIZATION
0.5 2:0 3:4 4:0 5:0 7:1 73:1 811:1 # 20140617074422AANUT7h Otto NNP Arts_&_Humanities PERSON
0.5 2:0 3:4 4:0 5:0 7:1 73:1 9040:1 # 20140605104442AAFzzy2 Bray NNP Sports PERSON
0.5 2:0 3:4 4:0 5:0 7:1 73:1 8153:1 # 20140603131218AA1t3hP East NNP Local_Businesses LOCATION
-0.5 2:0 3:6 4:0 5:1 7:0 8:1 1441:1 # 20140614114159AAxmnir google NN Travel TOKEN
0.5 2:0 3:4 4:1 5:0 7:0 73:1 785:1 # 20140617074422AANUT7h H.P. NNP Arts_&_Humanities PERSON
-0.24684968227721570954713570245076 2:0 3:2 4:0 5:0 7:1 73:1 844:1 # 20140626112013AAPPVIB Ok NNP Consumer_Electronics TOKEN
0.5 2:0 3:4 4:0 5:0 7:1 73:1 4448:1 # 20140610062626AA46ms6 Mark NNP Education_&_Reference PERSON
0.5 2:1 3:9 4:0 5:0 7:1 73:1 11307:1 # 20140616143448AAdU6Ze Bojangles NNP Dining_Out ORGANIZATION
0.5 2:0 3:3 4:0 5:0 7:1 73:1 2656:1 # 20140609103954AAB6LY5 New NNP News_&_Events LOCATION
0.5 2:0 3:2 4:1 5:0 7:0 73:1 9505:1 # 20140623125801AASUucg NJ NNP Food_&_Drink LOCATION
0.5 2:0 3:4 4:0 5:0 7:1 73:1 15269:1 # 20140625082631AAcgyMl Issa NNP Politics_&_Government PERSON
0.5 2:0 3:4 4:0 5:0 7:1 73:1 5165:1 # 20140614004826AAWj9IB Macy NNP Entertainment_&_Music PERSON
0.5 2:0 3:4 4:0 5:0 7:1 73:1 12793:1 # 20140609111240AAvCNqw Fort NNP Local_Businesses LOCATION
-0.2481737370228778161163063487038 2:0 3:2 4:0 5:0 7:1 73:1 230:1 # 20140619182359AA4NAKk Im NNP Health TOKEN
0.5 2:0 3:4 4:0 5:0 7:1 73:1 5211:1 # 20140626142532AAHm2Mx Club NNP Pets ORGANIZATION
-0.5 2:0 3:5 4:0 5:0 7:1 73:1 1692:1 # 20140609031322AAZz3r8 India NNP Travel TOKEN
0.5 2:0 3:4 4:1 5:0 7:0 73:1 9175:1 # 20140623155342AAYpGzf NCAA NNP Sports ORGANIZATION
0.5 2:0 3:4 4:1 5:0 7:0 73:1 5654:1 # 20140622140805AAtjqJa U.S. NNP Cars_&_Transportation ORGANIZATION
0.5 2:0 3:3 4:0 5:0 7:1 73:1 4312:1 # 20140619190906AAxXT6l San NNP Local_Businesses LOCATION
-0.018583398787459515233422280289233 2:0 3:5 4:0 5:1 7:0 8:1 15671:1 # 20140614170630AA1o9BQ theft NN Politics_&_Government TOKEN
-0.019692346076451539005347513011657 2:0 3:4 4:0 5:1 7:0 8:1 2515:1 # 20140611180906AAGf9fM high NN Education_&_Reference TOKEN
0.5 2:0 3:8 4:0 5:0 7:1 73:1 4686:1 # 20140626142532AAHm2Mx American NNP Pets ORGANIZATION
0.5 2:0 3:4 4:0 5:0 7:1 73:1 12296:1 # 20140615100226AACLhyS Ebay NNP Home_&_Garden ORGANIZATION
0.5 2:0 3:10 4:0 5:0 7:1 73:1 15218:1 # 20140610123048AAZOuhW Guantanamo NNP Politics_&_Government LOCATION
-0.02203164038636096222489868523553 2:0 3:2 4:0 5:1 7:0 8:1 5038:1 # 20140611112422AAvMvFi mg NN Education_&_Reference TOKEN
0.5 2:0 3:4 4:0 5:0 7:1 73:1 2657:1 # 20140609103954AAB6LY5 York NNP News_&_Events LOCATION
0.5 2:0 3:4 4:0 5:0 7:1 73:1 11092:1 # 20140613111207AAD5YgE Gacy NNP Dining_Out PERSON
0.5 2:0 3:4 4:0 5:0 7:1 73:1 9145:1 # 20140615215028AAGmoaM Cole NNP Sports PERSON
0.5 2:0 3:4 4:0 5:0 7:1 73:1 1541:1 # 20140625095108AAhxBZ2 Paul NNP Arts_&_Humanities PERSON
-0.24589773653996971347623912151903 2:0 3:4 4:0 5:0 7:1 73:1 11656:1 # 20140622183237AAlmEtx Prep NNP Dining_Out TOKEN
0.5 2:0 3:10 4:0 5:0 7:1 73:1 4394:1 # 20140619105821AAuioIb University NNP Education_&_Reference ORGANIZATION
0.5 2:0 3:3 4:1 5:0 7:0 73:1 14320:1 # 20140606223938AAjsrL7 NFC NNP News_&_Events ORGANIZATION
0.5 2:0 3:3 4:1 5:0 7:0 73:1 7172:1 # 20140623022611AAddTaJ WWE NNP Sports ORGANIZATION
0.5 2:0 3:3 4:1 5:0 7:0 73:1 3927:1 # 20140619113940AAko4f7 HTC NNP Entertainment_&_Music ORGANIZATION
0.5 2:0 3:4 4:1 5:0 7:0 73:1 15255:1 # 20140605231104AAm8fzJ EBAY NNP Politics_&_Government ORGANIZATION
0.5 2:0 3:4 4:1 5:0 7:0 73:1 8905:1 # 20140625083610AAU2r7X FIFA NNP Sports ORGANIZATION
0.5 2:0 3:4 4:0 5:0 7:1 73:1 9071:1 # 20140605104442AAFzzy2 Seth NNP Sports PERSON
0.5 2:0 3:4 4:0 5:0 7:1 73:1 14254:1 # 20140609053527AAHPrln Carr NNP News_&_Events PERSON
0.5 2:0 3:4 4:0 5:0 7:1 73:1 15030:1 # 20140625100007AAcadtk Marx NNP Politics_&_Government PERSON
-0.49945116526751576202514115720987 2:1 3:9 4:0 5:0 7:1 73:1 10548:1 # 20140608182325AAmvy1Q Illionois NNP Cars_&_Transportation TOKEN
0.5 2:0 3:4 4:0 5:0 7:1 73:1 3929:1 # 20140614070914AAwpQqi Sony NNP Consumer_Electronics ORGANIZATION
0.5 2:0 3:4 4:0 5:0 7:1 73:1 13979:1 # 20140614170630AA1o9BQ Bush NNP Politics_&_Government PERSON
0.5 2:0 3:4 4:0 5:0 7:1 73:1 4955:1 # 20140611132742AAU8vAK Rica NNP Education_&_Reference LOCATION
0.5 2:0 3:4 4:0 5:0 7:1 73:1 11370:1 # 20140616143448AAdU6Ze Cane NNP Dining_Out ORGANIZATION
0.5 2:0 3:4 4:0 5:0 7:1 73:1 15785:1 # 20140611151627AAmAEbQ Newt NNP Politics_&_Government PERSON
0.5 2:0 3:4 4:0 5:0 7:1 73:1 18294:1 # 20140603020037AAlyzyA Ryan NNP Travel PERSON
0.5 2:0 3:4 4:0 5:0 7:1 73:1 1468:1 # 20140605223141AA4aNVu Ness NNP Arts_&_Humanities PERSON
0.5 2:0 3:4 4:0 5:0 7:1 73:1 8152:1 # 20140612211617AAE6Bis Iraq NNP News_&_Events LOCATION
0.5 2:0 3:4 4:0 5:0 7:1 73:1 9254:1 # 20140617195809AA0PD6g Real NNP Sports ORGANIZATION
0.5 2:0 3:4 4:0 5:0 7:1 73:1 1627:1 # 20140618141409AA9yzif King NNP Entertainment_&_Music PERSON
0.5 2:0 3:4 4:0 5:0 7:1 73:1 2510:1 # 20140626223207AABdv8w Ross NNP Business_&_Finance ORGANIZATION
0.5 2:0 3:4 4:0 5:0 7:1 73:1 262:1 # 20140623033506AAfLqxC John NNP Beauty_&_Style PERSON
0.5 2:0 3:4 4:0 5:0 7:1 73:1 4279:1 # 20140609122525AAYu0rC Ohio NNP Travel LOCATION
0.5 2:0 3:4 4:0 5:0 7:1 73:1 2716:1 # 20140621155455AA5YRJ2 Maui NNP Business_&_Finance LOCATION
0.5 2:0 3:4 4:0 5:0 7:1 73:1 4268:1 # 20140604083714AANM1Br Hill NNP Education_&_Reference LOCATION
0.5 2:0 3:4 4:0 5:0 7:1 73:1 6653:1 # 20140612080629AAuyjlx Sean NNP Health PERSON
0.5 2:0 3:4 4:0 5:0 7:1 73:1 11305:1 # 20140616143448AAdU6Ze Arby NNP Dining_Out ORGANIZATION
0.5 2:0 3:5 4:0 5:0 7:1 73:1 4458:1 # 20140618125641AAGkGpi South NNP Education_&_Reference LOCATION
0.5 2:0 3:4 4:0 5:0 7:1 73:1 682:1 # 20140605104442AAFzzy2 Eric NNP Sports PERSON
0.5 2:0 3:4 4:0 5:0 7:1 73:1 5268:1 # 20140614004826AAWj9IB Snow NNP Entertainment_&_Music PERSON
0.5 2:0 3:4 4:0 5:0 7:1 73:1 11312:1 # 20140616143448AAdU6Ze Carl NNP Dining_Out ORGANIZATION
0.5 2:0 3:4 4:1 5:0 7:0 73:1 1555:1 # 20140625095108AAhxBZ2 E.A. NNP Arts_&_Humanities PERSON
-0.043320514035161628019210411366657 2:1 3:7 4:0 5:0 7:1 123:1 5614:1 # 20140617222051AA6Qnkk Answers VBZ Entertainment_&_Music TOKEN
-0.24721614862598073614208260551095 2:0 3:2 4:0 5:0 7:1 73:1 7204:1 # 20140613202053AAONeF7 Hm NNP Games_&_Recreation TOKEN
0.5 2:0 3:9 4:0 5:0 7:1 73:1 4271:1 # 20140604083714AANM1Br Nashville NNP Education_&_Reference LOCATION
0.5 2:0 3:9 4:0 5:0 7:1 73:1 4400:1 # 20140623005211AAQ4eOc Australia NNP Local_Businesses LOCATION
0.5 2:0 3:6 4:0 5:0 7:0 73:1 4282:1 # 20140604083714AANM1Br MIzzou NNP Education_&_Reference LOCATION
-0.5 2:0 3:4 4:1 5:0 7:0 73:1 5654:1 # 20140617203723AAnMv8x U.S. NNP Politics_&_Government TOKEN
0.5 2:0 3:5 4:0 5:0 7:1 73:1 13729:1 # 20140612075720AAmNq58 Bundy NNP News_&_Events PERSON
-0.5 2:0 3:5 4:0 5:0 7:1 73:1 1692:1 # 20140614170630AA1o9BQ India NNP Politics_&_Government TOKEN
0.49999944178222338608819086402946 2:0 3:6 4:0 5:0 7:1 73:1 5266:1 # 20140622230045AAAI6WE Sydney NNP Travel PERSON
0.5 2:0 3:3 4:0 5:0 7:1 73:1 2656:1 # 20140625072412AAUASEG New NNP Yahoo!_Products LOCATION
-0.24450457039127027059066676883958 2:0 3:5 4:0 5:0 7:1 73:1 3466:1 # 20140623023853AA1SoFR Round NNP Science_&_Mathematics TOKEN
-0.5 2:0 3:2 4:1 5:0 7:0 73:1 3408:1 # 20140608151316AAZv17m UK NNP Travel TOKEN
0.5 2:0 3:5 4:0 5:0 7:1 73:1 1692:1 # 20140609170145AAsvd80 India NNP Politics_&_Government LOCATION
-0.070767293747735493525397032499313 2:0 3:82 4:0 5:0 7:0 73:1 19320:1 # 20140611085859AAUuw7r http:##help.yahoo.com#kb#index?page=content&id;=SLN2058&locale;=en_US&y;=PROD_ACCT NNP Yahoo!_Products TOKEN
-0.092575501766759771271608769893646 2:0 3:63 4:0 5:0 7:0 73:1 19431:1 # 20140609172302AAjgqUA https:##io.help.yahoo.com#contact#index?page=home&locale;=en_US NNP Yahoo!_Products TOKEN
-0.5 2:0 3:4 4:0 5:0 7:1 73:1 8153:1 # 20140601100338AAUfBLz East NNP News_&_Events TOKEN
0.5 2:0 3:6 4:0 5:1 7:0 8:1 1441:1 # 20140611222016AAhrT1y google NN Computer_&_Internet ORGANIZATION
-0.4994239367044754906999060040107 2:0 3:3 4:1 5:0 7:0 73:1 7172:1 # 20140623022611AAddTaJ WWE NNP Sports TOKEN
0.5 2:0 3:5 4:0 5:0 7:1 73:1 1692:1 # 20140609170145AAsvd80 India NNP Politics_&_Government LOCATION
-0.5 2:0 3:3 4:0 5:0 7:1 73:1 2656:1 # 20140604083714AANM1Br New NNP Education_&_Reference TOKEN
-0.5 2:0 3:4 4:0 5:0 7:1 73:1 4734:1 # 20140617102632AAPzLAI Fall NNP Education_&_Reference TOKEN
0.5 2:0 3:9 4:0 5:0 7:1 73:1 6654:1 # 20140612080629AAuyjlx Brookwood NNP Health PERSON
-0.24336286062107984062841126160492 2:0 3:6 4:0 5:0 7:1 73:1 11300:1 # 20140615191331AAdpnmg Fillet NNP Dining_Out TOKEN
-0.24193226194743289170219213701785 2:0 3:6 4:0 5:0 7:1 73:1 5175:1 # 20140614004826AAWj9IB Violet NNP Entertainment_&_Music TOKEN
-0.49804435202490227041494108561892 2:0 3:2 4:1 5:0 7:0 73:1 9505:1 # 20140615120927AAPeVv5 NJ NNP Sports TOKEN
0.5 2:0 3:9 4:0 5:0 7:1 73:1 14137:1 # 20140605150717AAmRFk6 Bloomberg NNP News_&_Events PERSON
0.5 2:0 3:9 4:0 5:0 7:1 73:1 3852:1 # 20140626112013AAPPVIB Instagram NNP Consumer_Electronics ORGANIZATION
0.5 2:0 3:9 4:0 5:0 7:1 73:1 12210:1 # 20140623125801AASUucg Monterrey NNP Food_&_Drink LOCATION
0.5 2:0 3:9 4:0 5:0 7:1 73:1 4313:1 # 20140604083714AANM1Br Francisco NNP Education_&_Reference LOCATION
-0.09590859292446611561455682704036 2:0 3:60 4:0 5:0 7:0 73:1 19511:1 # 20140609172302AAjgqUA https:##help.yahoo.com#kb#mail#SLN2717.html?impressions=true NNP Yahoo!_Products TOKEN
0.5 2:0 3:9 4:0 5:0 7:1 73:1 4307:1 # 20140604083714AANM1Br Wisconsin NNP Education_&_Reference LOCATION
