SVM-light Version V6.02
0 # kernel type
3 # kernel parameter -d 
1 # kernel parameter -g 
1 # kernel parameter -s 
1 # kernel parameter -r 
empty# kernel parameter -u 
19570 # highest feature index 
69010 # number of training documents 
7732 # number of support vectors plus 1 
1.0584093 # threshold b, each following line is a SV (starting with alpha*y)
-0.016274649689210107794679061044008 2:0 3:4 4:0 5:1 7:0 8:1 936:1 # 20140605091638AATCTbo show NN Arts_&_Humanities TOKEN
-0.10638114857255609457808986917371 2:0 3:5 4:0 5:0 7:1 8:1 3613:1 # 20140615210245AAjCZ2q Maker NN Consumer_Electronics TOKEN
-0.018965192959065665934126343472599 2:0 3:4 4:0 5:0 7:1 238:1 1059:1 # 20140613124917AAp8Kiq More RBR Entertainment_&_Music TOKEN
-0.014387568015247535757605845674334 2:1 3:9 4:0 5:0 7:1 20:1 9514:1 # 20140618103521AAfeF87 Depending VBG Dining_Out TOKEN
-0.003972348162641692326246811717283 2:0 3:3 4:0 5:1 7:0 26:1 5120:1 # 20140615230550AAzCluq app JJ Computer_&_Internet TOKEN
0.5 2:0 3:3 4:0 5:1 7:0 8:1 14450:1 # 20140617191218AAiEBHA fox NN News_&_Events ORGANIZATION
-0.21348959087583918581287889537634 2:1 3:12 4:0 5:0 7:1 73:1 4733:1 # 20140617102632AAPzLAI Thanksgiving NNP Education_&_Reference TOKEN
0.5 2:0 3:6 4:0 5:0 7:1 73:1 5266:1 # 20140622230045AAAI6WE Sydney NNP Travel PERSON
-0.4999992830673201105184944026405 2:0 3:2 4:0 5:1 7:0 73:1 149:1 # 20140620051059AAvmrsV in NNP News_&_Events TOKEN
-0.5 2:1 3:2 4:1 5:0 7:0 16:1 2475:1 # 20140603053113AAVRR5O US PRP Local_Businesses TOKEN
0.5 2:0 3:9 4:0 5:0 7:1 73:1 4400:1 # 20140622230045AAAI6WE Australia NNP Travel LOCATION
-0.021143848614911586736297977040522 2:0 3:1 4:0 5:1 7:0 35:1 73:1 # 20140617145102AAT8yhN a NNP Beauty_&_Style TOKEN
-0.26456928813139768408291274681687 2:0 3:7 4:0 5:0 7:1 73:1 3160:1 # 20140601131055AAPxhOP Mention NNP Business_&_Finance TOKEN
0.5 2:1 3:7 4:0 5:1 7:0 43:1 7296:1 # 20140610052054AAkNfGL googled VBP Cars_&_Transportation ORGANIZATION
0.5 2:1 3:2 4:1 5:0 7:0 16:1 2475:1 # 20140622210819AARJGLW US PRP Entertainment_&_Music LOCATION
-0.26601071730849312757527513895184 2:0 3:2 4:0 5:0 7:1 73:1 844:1 # 20140626112013AAPPVIB Ok NNP Consumer_Electronics TOKEN
-0.26721662070464446969708660617471 2:0 3:2 4:0 5:0 7:1 73:1 7204:1 # 20140613202053AAONeF7 Hm NNP Games_&_Recreation TOKEN
-0.26721662070464446969708660617471 2:0 3:2 4:0 5:0 7:1 73:1 3010:1 # 20140611204210AAPJj1y Dr NNP Business_&_Finance TOKEN
-0.26721662070468354954755341168493 2:0 3:2 4:0 5:0 7:1 73:1 230:1 # 20140611001634AAefV9p Im NNP Pregnancy_&_Parenting TOKEN
0.5 2:0 3:5 4:0 5:1 7:0 20:1 15566:1 # 20140603004555AAv1K5X steve VBG Politics_&_Government PERSON
-0.26629930256883171946213906267076 2:0 3:2 4:0 5:0 7:1 73:1 11293:1 # 20140618215915AAruZzF Ya NNP News_&_Events TOKEN
-0.26686773376412686875625013271929 2:0 3:2 4:0 5:0 7:1 73:1 755:1 # 20140601014139AA5Szo2 Do NNP Education_&_Reference TOKEN
-0.26662340318576649433879310890916 2:0 3:2 4:0 5:0 7:1 73:1 6782:1 # 20140614172231AAsQkBF Ur NNP Politics_&_Government TOKEN
-0.26681524658527755455850183352595 2:0 3:2 4:0 5:0 7:1 73:1 5832:1 # 20140613124158AAH0KXB Va NNP Entertainment_&_Music TOKEN
-0.26608369455497182798353605903685 2:0 3:2 4:0 5:0 7:1 73:1 1086:1 # 20140605231104AAm8fzJ He NNP Politics_&_Government TOKEN
0.5 2:0 3:9 4:0 5:0 7:0 26:1 19499:1 # 20140609172302AAjgqUA non-Yahoo JJ Yahoo!_Products ORGANIZATION
-0.26608369455493985356042685452849 2:0 3:2 4:0 5:0 7:1 73:1 9627:1 # 20140618192549AAzYXYR Se NNP Social_Science TOKEN
-0.26722253343915308709810574328003 2:0 3:2 4:0 5:0 7:1 73:1 5935:1 # 20140604090916AAD5Lml Oz NNP Health TOKEN
-0.26714364329228601491195149719715 2:0 3:2 4:0 5:0 7:1 73:1 9600:1 # 20140618192549AAzYXYR Yo NNP Social_Science TOKEN
-0.26720263438724822790959478879813 2:0 3:2 4:0 5:0 7:1 73:1 9266:1 # 20140617195809AA0PD6g Di NNP Sports TOKEN
0.5 2:0 3:89 4:0 5:1 7:0 26:1 10552:1 # 20140608182325AAmvy1Q http:##www.cyberdriveillinois.com#departments#drivers#drivers_license#drlicid.html#mcylic JJ Cars_&_Transportation LOCATION
0.5 2:1 3:14 4:0 5:0 7:0 73:1 11306:1 # 20140616143448AAdU6Ze Baskin-Robbins NNP Dining_Out ORGANIZATION
0.5 2:0 3:89 4:0 5:1 7:0 26:1 10552:1 # 20140608182325AAmvy1Q http:##www.cyberdriveillinois.com#departments#drivers#drivers_license#drlicid.html#mcylic JJ Cars_&_Transportation LOCATION
0.5 2:1 3:2 4:1 5:0 7:0 16:1 2475:1 # 20140617191218AAiEBHA US PRP News_&_Events LOCATION
-0.0019895412038439808100065420148894 2:0 3:3 4:0 5:0 7:1 204:1 2640:1 # 20140611152642AAd7nNQ Two CD Pets TOKEN
-0.10434946166070413475779332657112 2:0 3:2 4:0 5:1 7:0 37:1 73:1 # 20140621143727AAOCXDZ on NNP Pets TOKEN
-0.5 2:0 3:10 4:0 5:0 7:1 73:1 4198:1 # 20140613123024AAkX1Tt Statistics NNP Education_&_Reference TOKEN
-0.016081028683162301717857189942151 2:0 3:5 4:0 5:0 7:1 30:1 5822:1 # 20140605210007AAoMB1b Since IN Home_&_Garden TOKEN
0.5 2:0 3:2 4:0 5:1 7:0 73:1 149:1 # 20140616143448AAdU6Ze in NNP Dining_Out ORGANIZATION
0.5 2:0 3:2 4:0 5:0 7:1 73:1 12930:1 # 20140614113251AA3Y1WB Mr NNP News_&_Events PERSON
0.5 2:0 3:12 4:0 5:0 7:1 73:1 3079:1 # 20140611204210AAPJj1y Bannerghatta NNP Business_&_Finance LOCATION
0.5 2:0 3:9 4:0 5:0 7:1 73:1 4271:1 # 20140604083714AANM1Br Nashville NNP Education_&_Reference LOCATION
0.5 2:1 3:8 4:0 5:0 7:1 73:1 3952:1 # 20140603005221AAThPnj Motorola NNP Consumer_Electronics ORGANIZATION
0.5 2:0 3:10 4:0 5:0 7:1 73:1 2770:1 # 20140615161422AAiDhFt California NNP News_&_Events ORGANIZATION
0.5 2:0 3:10 4:0 5:0 7:1 73:1 4198:1 # 20140622140805AAtjqJa Statistics NNP Cars_&_Transportation ORGANIZATION
0.5 2:0 3:10 4:0 5:0 7:1 73:1 15218:1 # 20140610123048AAZOuhW Guantanamo NNP Politics_&_Government LOCATION
-0.01328398173821653330262115844107 2:0 3:8 4:0 5:1 7:0 8:1 3825:1 # 20140612080629AAuyjlx solution NN Health TOKEN
-0.015810721687299540000326558697452 2:0 3:8 4:0 5:1 7:0 43:1 14750:1 # 20140623154545AAikPvj usuallly VBP Pets TOKEN
0.5 2:0 3:10 4:0 5:0 7:1 73:1 4394:1 # 20140619105821AAuioIb University NNP Education_&_Reference ORGANIZATION
0.5 2:0 3:10 4:0 5:0 7:1 73:1 1675:1 # 20140609112801AAnee0x Alexandria NNP Arts_&_Humanities LOCATION
-0.29101142920097294863879255899519 2:0 3:1 4:0 5:0 7:0 630:1 631:1 # 20140618090750AAlViol # # Pregnancy_&_Parenting TOKEN
-0.5 2:1 3:7 4:0 5:1 7:0 8:1 7296:1 # 20140617075804AAbhubH googled NN Pregnancy_&_Parenting TOKEN
-0.15017272266711678696538001531735 2:0 3:1 4:0 5:0 7:0 73:1 8795:1 # 20140620003333AAaN90M | NNP Dining_Out TOKEN
-0.26649855105325581661190881277435 2:0 3:2 4:0 5:0 7:1 73:1 9659:1 # 20140616160015AAkjHsB La NNP Dining_Out TOKEN
0.5 2:1 3:9 4:0 5:0 7:1 73:1 12377:1 # 20140601134625AAPRFLP Walgreens NNP Home_&_Garden ORGANIZATION
-0.12670026171092541034113310161047 2:1 3:4 4:0 5:1 7:0 73:1 449:1 # 20140606090914AA45noC apps NNP Yahoo!_Products TOKEN
0.5 2:0 3:6 4:0 5:0 7:1 8:1 11347:1 # 20140616143448AAdU6Ze Choice NN Dining_Out ORGANIZATION
0.5 2:0 3:6 4:0 5:0 7:1 8:1 11349:1 # 20140616143448AAdU6Ze Silver NN Dining_Out ORGANIZATION
0.5 2:0 3:5 4:0 5:0 7:1 8:1 5598:1 # 20140605040256AAru12G Panic NN Entertainment_&_Music PERSON
-0.010019350023526385484728962182999 2:0 3:16 4:0 5:1 7:0 8:1 13034:1 # 20140610194612AA31tgA mailbox#doorstep NN Local_Businesses TOKEN
-0.0068959828490520180821476969867945 2:0 3:7 4:0 5:1 7:0 16:1 1017:1 # 20140617160504AARhrZ6 herself PRP Pets TOKEN
-0.052233466265651506965639327972895 2:1 3:4 4:1 5:0 7:0 73:1 11164:1 # 20140608075953AADKMro PEAS NNP Dining_Out TOKEN
0.5 2:1 3:9 4:0 5:0 7:1 73:1 11376:1 # 20140623125801AASUucg Starbucks NNP Food_&_Drink ORGANIZATION
0.5 2:1 3:9 4:0 5:0 7:1 73:1 10548:1 # 20140608182325AAmvy1Q Illionois NNP Cars_&_Transportation LOCATION
-0.012975952046815564244752749800682 2:0 3:11 4:0 5:1 7:0 8:1 18488:1 # 20140609122525AAYu0rC preferrably NN Travel TOKEN
-0.21726974643801985620505945462355 2:1 3:5 4:0 5:0 7:1 73:1 8232:1 # 20140622013948AAZujJH Watts NNP Science_&_Mathematics TOKEN
-0.015960499880038447884089691797271 2:0 3:7 4:0 5:1 7:0 43:1 2669:1 # 20140610102038AAX5RlB believe VBP Pets TOKEN
-0.012797190266563340799166326178238 2:0 3:11 4:0 5:1 7:0 8:1 15481:1 # 20140617193722AA5emAo remediation NN Politics_&_Government TOKEN
0.5 2:0 3:10 4:0 5:0 7:1 73:1 15471:1 # 20140617193722AA5emAo Whitehouse NNP Politics_&_Government PERSON
-0.011974799935537960848819238890428 2:0 3:11 4:0 5:1 7:0 8:1 7455:1 # 20140615112034AAukyhJ superheater NN Science_&_Mathematics TOKEN
-0.10202730740713267243435780073924 2:0 3:2 4:1 5:0 7:0 73:1 19352:1 # 20140608060520AAMzqLw IE NNP Yahoo!_Products TOKEN
-0.011994371086180954932842723792419 2:0 3:11 4:0 5:1 7:0 8:1 15725:1 # 20140608113007AAoVpt8 persecution NN Politics_&_Government TOKEN
0.5 2:0 3:5 4:0 5:1 7:0 73:1 9557:1 # 20140615224306AASdmOX kawhi NNP Sports PERSON
0.5 2:0 3:9 4:0 5:0 7:1 73:1 4528:1 # 20140618125641AAGkGpi Argandona NNP Education_&_Reference PERSON
-0.033781226577542067257553526360425 2:0 3:5 4:0 5:1 7:0 16:1 745:1 # 20140607071218AAzGtJH their PRP Family_&_Relationships TOKEN
-0.0019640530647524606644438449620793 2:1 3:3 4:0 5:0 7:1 18:1 57:1 # 20140610052054AAkNfGL Did VBD Cars_&_Transportation TOKEN
0.5 2:0 3:5 4:0 5:1 7:0 8:1 7374:1 # 20140605122136AAZjfnG yahoo NN Yahoo!_Products ORGANIZATION
-0.022693814144080448613749467767775 2:1 3:9 4:0 5:0 7:1 20:1 5847:1 # 20140613124158AAH0KXB Including VBG Entertainment_&_Music TOKEN
-0.5 2:0 3:2 4:0 5:0 7:1 22:1 608:1 # 20140610194612AA31tgA My PRP$ Local_Businesses TOKEN
0.5 2:0 3:2 4:0 5:1 7:0 12:1 3151:1 # 20140613111831AABRhzn al NNS News_&_Events ORGANIZATION
-0.5 2:0 3:2 4:0 5:0 7:1 73:1 12930:1 # 20140622225954AAAlKMt Mr NNP Local_Businesses TOKEN
-0.26613466922405093484371718659531 2:0 3:2 4:0 5:0 7:1 73:1 11037:1 # 20140616141511AAlZZIn Iv NNP Dining_Out TOKEN
-0.26608369455499669697928766254336 2:0 3:2 4:0 5:0 7:1 73:1 11461:1 # 20140603215034AABtnxF Le NNP Dining_Out TOKEN
-0.2671593758265042861665961027029 2:0 3:2 4:0 5:0 7:1 73:1 12959:1 # 20140622225954AAAlKMt Ho NNP Local_Businesses TOKEN
-0.016775541939162863513956835959107 2:0 3:4 4:0 5:1 7:0 8:1 5856:1 # 20140601162630AAuDjDG lmao NN Sports TOKEN
0.5 2:0 3:1 4:1 5:0 7:1 8:1 720:1 # 20140616143448AAdU6Ze D NN Dining_Out ORGANIZATION
0.5 2:0 3:10 4:0 5:0 7:1 73:1 9439:1 # 20140623022611AAddTaJ Undertaker NNP Sports PERSON
0.5 2:0 3:10 4:0 5:0 7:1 73:1 4394:1 # 20140619105821AAuioIb University NNP Education_&_Reference ORGANIZATION
0.5 2:0 3:1 4:0 5:0 7:0 630:1 631:1 # 20140605034309AAV7PuK # # Consumer_Electronics PERSON
-0.5 2:1 3:9 4:0 5:0 7:1 73:1 10548:1 # 20140608182325AAmvy1Q Illionois NNP Cars_&_Transportation TOKEN
0.5 2:0 3:10 4:0 5:0 7:1 73:1 8727:1 # 20140622131925AAtjtJJ Fabricland NNP Beauty_&_Style ORGANIZATION
0.5 2:0 3:2 4:0 5:0 7:1 22:1 608:1 # 20140605040256AAru12G My PRP$ Entertainment_&_Music PERSON
-0.5 2:0 3:6 4:0 5:0 7:1 73:1 11349:1 # 20140620003333AAaN90M Silver NNP Dining_Out TOKEN
-0.0084562771985603468749559397110716 2:1 3:8 4:0 5:0 7:1 12:1 12367:1 # 20140612113332AApfBo8 Elements NNS Home_&_Garden TOKEN
-0.0085521862797294234681544367049355 2:1 3:8 4:0 5:0 7:1 12:1 1893:1 # 20140605111442AA4wyqx Children NNS Science_&_Mathematics TOKEN
-0.0084562771985630114102150400867686 2:1 3:8 4:0 5:0 7:1 12:1 679:1 # 20140615171734AAd4Cuo Examples NNS Yahoo!_Products TOKEN
-0.007793517181740927668442964204587 2:1 3:8 4:0 5:0 7:1 12:1 12315:1 # 20140623142217AAHjEJM Problems NNS Politics_&_Government TOKEN
0.5 2:0 3:11 4:0 5:0 7:1 73:1 1454:1 # 20140605223141AA4aNVu Westerfield NNP Arts_&_Humanities PERSON
0.5 2:0 3:11 4:0 5:0 7:1 73:1 13821:1 # 20140611151627AAmAEbQ Afghanistan NNP Politics_&_Government LOCATION
-0.045472681668441650160161771054845 2:0 3:2 4:0 5:1 7:0 73:1 147:1 # 20140609063130AAx8NAT at NNP Computer_&_Internet TOKEN
0.5 2:0 3:2 4:1 5:0 7:0 73:1 4507:1 # 20140618125641AAGkGpi C. NNP Education_&_Reference PERSON
-0.016866591162795430136611685156822 2:0 3:1 4:0 5:1 7:0 8:1 7337:1 # 20140623023853AA1SoFR h NN Science_&_Mathematics TOKEN
0.5 2:0 3:10 4:0 5:0 7:1 73:1 18030:1 # 20140608151316AAZv17m Disneyland NNP Travel ORGANIZATION
-0.26451975406970618109880888368934 2:0 3:7 4:0 5:0 7:1 73:1 7193:1 # 20140613202053AAONeF7 Servine NNP Games_&_Recreation TOKEN
0.5 2:1 3:7 4:0 5:1 7:0 43:1 7296:1 # 20140610052054AAkNfGL googled VBP Cars_&_Transportation ORGANIZATION
-0.013614495295103168359673873055726 2:0 3:7 4:0 5:0 7:1 124:1 15276:1 # 20140625082631AAcgyMl Biggest JJS Politics_&_Government TOKEN
-0.043754785952711650054425263078883 2:0 3:2 4:0 5:1 7:0 73:1 470:1 # 20140609031322AAZz3r8 an NNP Travel TOKEN
-0.016858536777007770979253109544516 2:0 3:1 4:0 5:1 7:0 8:1 7845:1 # 20140603090420AAhFUM7 p NN Science_&_Mathematics TOKEN
-0.16703559441523396777995458251098 2:0 3:19 4:0 5:1 7:0 73:1 8010:1 # 20140621084721AANldDd comparison#contrast NNP Science_&_Mathematics TOKEN
-0.017538346159131412704823560488876 2:0 3:1 4:0 5:1 7:0 8:1 9555:1 # 20140619060021AAhU4hr q NN Sports TOKEN
-0.0019640530647524329088682293331658 2:1 3:3 4:0 5:0 7:1 18:1 5045:1 # 20140605140138AAyDVJY Was VBD Entertainment_&_Music TOKEN
0.5 2:0 3:2 4:0 5:0 7:1 73:1 11325:1 # 20140616143448AAdU6Ze El NNP Dining_Out ORGANIZATION
-0.033608780757891976165296910039615 2:0 3:5 4:0 5:1 7:0 16:1 3897:1 # 20140616234645AAnbyhx yours PRP Consumer_Electronics TOKEN
-0.015774286317122632183895802882034 2:0 3:8 4:0 5:1 7:0 43:1 9714:1 # 20140606165846AA1KBRp surround VBP Social_Science TOKEN
0.5 2:0 3:9 4:0 5:0 7:1 73:1 1483:1 # 20140605223141AA4aNVu Muchamore NNP Arts_&_Humanities PERSON
0.5 2:0 3:8 4:0 5:1 7:0 8:1 5583:1 # 20140605040256AAru12G chemical NN Entertainment_&_Music PERSON
0.5 2:0 3:7 4:0 5:1 7:0 88:1 12548:1 # 20140619063559AA2eks0 florida VB Home_&_Garden LOCATION
0.5 2:0 3:8 4:0 5:1 7:0 8:1 5833:1 # 20140613124158AAH0KXB michelle NN Entertainment_&_Music PERSON
0.5 2:1 3:9 4:0 5:0 7:0 73:1 7069:1 # 20140616143448AAdU6Ze McDonalds NNP Dining_Out ORGANIZATION
-0.058106546385863877546285038988572 2:0 3:2 4:0 5:1 7:0 73:1 147:1 # 20140621092416AArsE0s at NNP Social_Science TOKEN
-0.014128641477468293144448274745173 2:0 3:1 4:0 5:1 7:0 8:1 4815:1 # 20140608001904AAVKEC5 g NN Computer_&_Internet TOKEN
-0.015654852745911721628724322386006 2:0 3:8 4:0 5:1 7:0 24:1 1282:1 # 20140616154039AA0PCKg whatever DT Family_&_Relationships TOKEN
-0.018370826508460780246423382777721 2:0 3:1 4:0 5:1 7:0 8:1 4443:1 # 20140605102530AA17S7s k NN Dining_Out TOKEN
-0.017189287597176416966249234974384 2:0 3:1 4:0 5:1 7:0 8:1 5829:1 # 20140608113659AAJ5fVM r NN Science_&_Mathematics TOKEN
-0.26360130397612180352950872475049 2:0 3:7 4:0 5:0 7:1 73:1 9353:1 # 20140610112505AAhGjYL Service NNP Dining_Out TOKEN
0.5 2:0 3:8 4:0 5:1 7:0 8:1 8911:1 # 20140615190410AAmWDg3 @rolando NN Sports PERSON
-0.05050221124248199799922076635994 2:1 3:8 4:1 5:0 7:0 73:1 15003:1 # 20140613154011AAJ98M9 INVOLVED NNP Politics_&_Government TOKEN
-0.092551566726276401908535262919031 2:0 3:7 4:0 5:0 7:1 26:1 7010:1 # 20140625193758AANDcbj Extreme JJ Games_&_Recreation TOKEN
-0.5 2:0 3:10 4:0 5:0 7:1 73:1 4394:1 # 20140616160015AAkjHsB University NNP Dining_Out TOKEN
-0.35944353509842841276622493751347 2:0 3:1 4:0 5:0 7:0 73:1 630:1 # 20140603072418AAgZjcN # NNP Science_&_Mathematics TOKEN
-0.2538880835002005342815323274408 2:0 3:1 4:1 5:0 7:1 15:1 720:1 # 20140601022509AAalkZo D . Health TOKEN
-0.050498661559497781681216110882815 2:0 3:3 4:0 5:0 7:1 88:1 8541:1 # 20140605185213AAgsKy3 Fix VB Yahoo!_Products TOKEN
-0.10760170701548732452579315577168 2:0 3:2 4:0 5:1 7:0 73:1 154:1 # 20140604083714AANM1Br to NNP Education_&_Reference TOKEN
0.5 2:0 3:11 4:0 5:0 7:1 73:1 775:1 # 20140617074422AANUT7h Shakespeare NNP Arts_&_Humanities PERSON
0.5 2:0 3:11 4:0 5:0 7:1 73:1 9108:1 # 20140614220006AA90c02 Springfield NNP Sports LOCATION
0.5 2:0 3:7 4:0 5:1 7:0 43:1 8739:1 # 20140612145554AAjlhJX america VBP Beauty_&_Style LOCATION
0.5 2:0 3:9 4:0 5:0 7:1 73:1 12210:1 # 20140623125801AASUucg Monterrey NNP Food_&_Drink LOCATION
0.5 2:0 3:7 4:0 5:0 7:0 73:1 2570:1 # 20140611204210AAPJj1y BLS.gov NNP Business_&_Finance ORGANIZATION
-0.21868038316754445649081617375487 2:0 3:1 4:1 5:0 7:1 73:1 429:1 # 20140619072135AAeFu7N A NNP Politics_&_Government TOKEN
0.5 2:0 3:10 4:0 5:0 7:1 73:1 10644:1 # 20140625110415AAjpx1n Washington NNP Cars_&_Transportation LOCATION
-0.26353409470060812358482849049324 2:0 3:7 4:0 5:0 7:1 73:1 3916:1 # 20140622223032AAkvyyd Android NNP Games_&_Recreation TOKEN
-0.01605462044153016520908749953378 2:0 3:5 4:0 5:1 7:0 8:1 554:1 # 20140608120927AA1JZcv story NN Travel TOKEN
-0.5 2:0 3:11 4:0 5:0 7:1 73:1 13821:1 # 20140611151627AAmAEbQ Afghanistan NNP Politics_&_Government TOKEN
-0.26547571034615757845642747270176 2:0 3:3 4:0 5:0 7:1 73:1 6674:1 # 20140605150717AAmRFk6 Tea NNP News_&_Events TOKEN
-0.26666125681587971030239714309573 2:0 3:3 4:0 5:0 7:1 73:1 11834:1 # 20140611141719AAUaRNh Elf NNP Food_&_Drink TOKEN
0.5 2:1 3:9 4:0 5:0 7:1 73:1 805:1 # 20140617074422AANUT7h Euripides NNP Arts_&_Humanities PERSON
0.5 2:0 3:4 4:1 5:0 7:0 73:1 5654:1 # 20140622140805AAtjqJa U.S. NNP Cars_&_Transportation ORGANIZATION
-0.042081592216009600093684639432468 2:1 3:11 4:0 5:0 7:1 26:1 8775:1 # 20140615161422AAiDhFt Interesting JJ News_&_Events TOKEN
-0.04315836073509871084752376191318 2:1 3:9 4:0 5:0 7:1 26:1 19162:1 # 20140608155422AAGg2Wt Exhausted JJ Pregnancy_&_Parenting TOKEN
-0.26582368527131894353487950866111 2:0 3:3 4:0 5:0 7:1 73:1 7723:1 # 20140618201815AAmO6f1 Dec NNP Science_&_Mathematics TOKEN
-0.26628133562508082832209765911102 2:0 3:3 4:0 5:0 7:1 73:1 6072:1 # 20140605225313AAAhy4Z Huh NNP Health TOKEN
-0.26653169316135194577555012074299 2:0 3:3 4:0 5:0 7:1 73:1 5016:1 # 20140601140351AAMxHZD Guy NNP Pregnancy_&_Parenting TOKEN
-0.079940339112402392096612402383471 2:1 3:9 4:0 5:0 7:1 61:1 12021:1 # 20140608120927AA1JZcv Europeans NNPS Travel TOKEN
-0.1414596106942553888075053691864 2:0 3:66 4:0 5:1 7:0 73:1 3966:1 # 20140603005221AAThPnj http:##www.recover-iphone-android.com#erase-data-from-android.html NNP Consumer_Electronics TOKEN
-0.15006773879999002474505687132478 2:0 3:1 4:0 5:0 7:0 73:1 3524:1 # 20140614134845AAVhWeg • NNP Consumer_Electronics TOKEN
-0.15045496429961247031314997002482 2:0 3:1 4:0 5:0 7:0 73:1 7755:1 # 20140620035536AASKdrI _ NNP Computer_&_Internet TOKEN
-0.1512935211768891008432547096163 2:0 3:1 4:0 5:0 7:0 73:1 657:1 # 20140608132523AAWfvBH 4 NNP Computer_&_Internet TOKEN
-0.15045410573137019127898383885622 2:0 3:1 4:0 5:0 7:0 73:1 648:1 # 20140610162943AA8McBJ 3 NNP Games_&_Recreation TOKEN
-0.21866032751074815365655013010837 2:0 3:1 4:1 5:0 7:1 73:1 1278:1 # 20140601094337AAbsB6Z B NNP Politics_&_Government TOKEN
-0.21868038316753846128648319790955 2:0 3:1 4:1 5:0 7:1 73:1 3175:1 # 20140603072418AAgZjcN Y NNP Science_&_Mathematics TOKEN
-0.21866032751074770956734028004576 2:0 3:1 4:1 5:0 7:1 73:1 10193:1 # 20140603020037AAlyzyA M NNP Travel TOKEN
0.5 2:0 3:9 4:1 5:0 7:0 73:1 13026:1 # 20140610194612AA31tgA ENGLEWOOD NNP Local_Businesses LOCATION
0.5 2:0 3:2 4:0 5:0 7:1 73:1 5396:1 # 20140612211617AAE6Bis Al NNP News_&_Events ORGANIZATION
-0.26656639052118924482215334137436 2:0 3:3 4:0 5:0 7:1 73:1 10630:1 # 20140603135339AAL5mDP Thx NNP Cars_&_Transportation TOKEN
-0.26669950019919763661846445756964 2:0 3:3 4:0 5:0 7:1 73:1 2459:1 # 20140619114039AAjxNQW God NNP Food_&_Drink TOKEN
-0.26665187482801044893676589708775 2:0 3:3 4:0 5:0 7:1 73:1 1598:1 # 20140618140344AAAVwJx Art NNP Arts_&_Humanities TOKEN
-0.26575784126358176218118956057879 2:0 3:3 4:0 5:0 7:1 73:1 9209:1 # 20140618180738AANfMh9 Big NNP Sports TOKEN
-0.26658248791712413350296628777869 2:0 3:3 4:0 5:0 7:1 73:1 9136:1 # 20140625100007AAcadtk Max NNP Politics_&_Government TOKEN
0.5 2:0 3:5 4:0 5:0 7:1 73:1 5511:1 # 20140613111207AAD5YgE Wayne NNP Dining_Out PERSON
-0.2602794597564402900857771783194 2:0 3:13 4:0 5:0 7:1 73:1 4724:1 # 20140617102632AAPzLAI Christmastime NNP Education_&_Reference TOKEN
-0.26048915774121883526248666385072 2:0 3:13 4:0 5:0 7:1 73:1 14905:1 # 20140611152642AAd7nNQ Dechlorinator NNP Pets TOKEN
-0.26665187482800956075834619696252 2:0 3:3 4:0 5:0 7:1 73:1 15329:1 # 20140611151627AAmAEbQ War NNP Politics_&_Government TOKEN
-0.21411981514679112592602905351669 2:1 3:11 4:0 5:0 7:1 73:1 19436:1 # 20140605185213AAgsKy3 Recommended NNP Yahoo!_Products TOKEN
0.5 2:0 3:11 4:0 5:0 7:1 73:1 4290:1 # 20140604083714AANM1Br Northampton NNP Education_&_Reference LOCATION
-0.5 2:1 3:2 4:1 5:0 7:0 40:1 2475:1 # 20140609170145AAsvd80 US RB Politics_&_Government TOKEN
0.5 2:1 3:9 4:0 5:0 7:1 73:1 803:1 # 20140617074422AANUT7h Gottfried NNP Arts_&_Humanities PERSON
-0.26452126500043959822505712509155 2:0 3:7 4:0 5:0 7:1 73:1 14419:1 # 20140625210906AATgayM Commons NNP News_&_Events TOKEN
-0.26454816327175390000547849922441 2:0 3:7 4:0 5:0 7:1 73:1 19336:1 # 20140614035657AABax4K Manager NNP Yahoo!_Products TOKEN
0.5 2:0 3:6 4:1 5:0 7:0 73:1 8317:1 # 20140626034154AAGjZE1 LITTLE NNP Food_&_Drink PERSON
-0.2631896956028697553975348455424 2:0 3:7 4:0 5:0 7:1 73:1 19428:1 # 20140605185213AAgsKy3 Hotmail NNP Yahoo!_Products TOKEN
0.5 2:0 3:9 4:0 5:0 7:1 73:1 1457:1 # 20140605223141AA4aNVu Catherine NNP Arts_&_Humanities PERSON
0.5 2:0 3:7 4:0 5:0 7:1 26:1 14010:1 # 20140609103954AAB6LY5 Zionist JJ News_&_Events ORGANIZATION
0.5 2:0 3:8 4:0 5:0 7:1 73:1 9277:1 # 20140607094147AAMHfCN Martinez NNP Sports PERSON
0.5 2:1 3:9 4:0 5:0 7:1 73:1 8460:1 # 20140612022126AAsUT1R Wayfarers NNP Beauty_&_Style ORGANIZATION
0.5 2:1 3:9 4:0 5:0 7:1 73:1 11307:1 # 20140616143448AAdU6Ze Bojangles NNP Dining_Out ORGANIZATION
0.5 2:1 3:8 4:0 5:0 7:1 73:1 11053:1 # 20140601101734AAAYp2K Brenners NNP Dining_Out ORGANIZATION
0.5 2:1 3:8 4:0 5:0 7:1 73:1 15468:1 # 20140617193722AA5emAo Cummings NNP Politics_&_Government PERSON
0.5 2:1 3:8 4:0 5:0 7:1 73:1 11353:1 # 20140616143448AAdU6Ze Oberweis NNP Dining_Out ORGANIZATION
0.5 2:0 3:9 4:0 5:1 7:0 8:1 4801:1 # 20140620191437AA9D0Nc australia NN Food_&_Drink LOCATION
-0.26454816327173347190182539634407 2:0 3:7 4:0 5:0 7:1 73:1 11431:1 # 20140623072617AAIXida Pounder NNP Dining_Out TOKEN
-0.017386989760424853557196911424398 2:0 3:2 4:0 5:1 7:0 20:1 13195:1 # 20140616160832AA467zb y' VBG Family_&_Relationships TOKEN
-0.072726898144798823864221049007028 2:0 3:2 4:0 5:1 7:0 73:1 147:1 # 20140609063130AAx8NAT at NNP Computer_&_Internet TOKEN
0.5 2:1 3:8 4:0 5:0 7:1 73:1 8461:1 # 20140612022126AAsUT1R Aviators NNP Beauty_&_Style ORGANIZATION
0.5 2:1 3:8 4:0 5:0 7:1 73:1 11040:1 # 20140616141511AAlZZIn Carmines NNP Dining_Out LOCATION
0.5 2:1 3:8 4:0 5:0 7:1 73:1 9447:1 # 20140623022611AAddTaJ Fighting NNP Sports ORGANIZATION
0.5 2:0 3:8 4:0 5:0 7:1 73:1 9137:1 # 20140615215028AAGmoaM Scherzer NNP Sports PERSON
-0.2186293801833208982898781869153 2:0 3:1 4:1 5:0 7:1 17:1 73:1 # 20140601151243AAGeO0l I NNP Home_&_Garden TOKEN
0.5 2:0 3:9 4:0 5:1 7:0 8:1 4801:1 # 20140620191437AA9D0Nc australia NN Food_&_Drink LOCATION
0.5 2:0 3:9 4:0 5:1 7:0 8:1 10238:1 # 20140609103954AAB6LY5 sociopath NN News_&_Events ORGANIZATION
0.5 2:0 3:7 4:0 5:0 7:1 26:1 14010:1 # 20140609103954AAB6LY5 Zionist JJ News_&_Events ORGANIZATION
0.5 2:0 3:7 4:0 5:0 7:1 26:1 8190:1 # 20140625120602AAXWOm0 Kurdish JJ Science_&_Mathematics LOCATION
0.5 2:0 3:9 4:0 5:0 7:0 73:1 11391:1 # 20140616143448AAdU6Ze FatBurger NNP Dining_Out ORGANIZATION
0.5 2:0 3:9 4:0 5:0 7:0 73:1 791:1 # 20140617074422AANUT7h DuMaurier NNP Arts_&_Humanities PERSON
0.5 2:0 3:7 4:0 5:0 7:0 73:1 3594:1 # 20140615230550AAzCluq YouTube NNP Computer_&_Internet ORGANIZATION
0.5 2:0 3:7 4:0 5:0 7:0 73:1 118:1 # 20140618003957AA2mrn7 TommyMc NNP Arts_&_Humanities PERSON
-0.033294357523303119705815333873034 2:0 3:6 4:0 5:1 7:0 16:1 1609:1 # 20140626114755AAx0yWm myself PRP Education_&_Reference TOKEN
-0.26335658334389777657236209051916 2:0 3:7 4:0 5:0 7:1 73:1 14150:1 # 20140624203758AAyLMD9 Raymond NNP Travel TOKEN
-0.0081997516101981471337012408184819 2:1 3:2 4:0 5:0 7:1 123:1 546:1 # 20140622053126AAxcj34 Is VBZ Family_&_Relationships TOKEN
-0.096648140342972199690052548248786 2:0 3:11 4:1 5:0 7:0 73:1 10764:1 # 20140609115257AAXrpdb MAINTAINECE NNP Cars_&_Transportation TOKEN
-0.050095729659348720019806933123618 2:1 3:8 4:1 5:0 7:0 73:1 12063:1 # 20140626034154AAGjZE1 SIBLINGS NNP Food_&_Drink TOKEN
-0.21868038316753735106345857275301 2:0 3:1 4:1 5:0 7:1 73:1 4291:1 # 20140606231225AAaaTGf U NNP Social_Science TOKEN
-0.095750361814636697488367644837126 2:1 3:15 4:0 5:0 7:0 73:1 11288:1 # 20140615191331AAdpnmg Fillet-o-Fishes NNP Dining_Out TOKEN
-0.050540373932198789930225757416338 2:1 3:8 4:1 5:0 7:0 73:1 18642:1 # 20140625234425AA5mIb9 REALIZED NNP Computer_&_Internet TOKEN
0.5 2:0 3:8 4:0 5:1 7:0 20:1 9584:1 # 20140615224306AASdmOX popovich VBG Sports PERSON
0.5 2:0 3:9 4:0 5:1 7:0 8:1 6620:1 # 20140612080629AAuyjlx brookwood NN Health PERSON
0.5 2:0 3:7 4:0 5:0 7:0 73:1 11323:1 # 20140616143448AAdU6Ze Dunkin' NNP Dining_Out ORGANIZATION
0.5 2:0 3:7 4:0 5:0 7:0 73:1 15019:1 # 20140613154011AAJ98M9 McCaine NNP Politics_&_Government PERSON
0.5 2:0 3:10 4:0 5:1 7:0 8:1 3309:1 # 20140619105821AAuioIb university NN Education_&_Reference ORGANIZATION
0.5 2:0 3:7 4:0 5:0 7:0 73:1 2570:1 # 20140611204210AAPJj1y BLS.gov NNP Business_&_Finance ORGANIZATION
-0.26351462553543847366910313212429 2:0 3:7 4:0 5:0 7:1 73:1 4573:1 # 20140605115942AAHijoB English NNP Education_&_Reference TOKEN
-0.26338357030808307035485427149979 2:0 3:7 4:0 5:0 7:1 73:1 11241:1 # 20140610172137AA9hoaq Midwest NNP Dining_Out TOKEN
-0.26339241589116535458003909297986 2:0 3:7 4:0 5:0 7:1 73:1 1207:1 # 20140604190316AAF0wYE Minolta NNP Arts_&_Humanities TOKEN
-0.26451975406971683923984528519213 2:0 3:7 4:0 5:0 7:1 73:1 4688:1 # 20140617152905AAraW4N British NNP Education_&_Reference TOKEN
0.5 2:0 3:9 4:0 5:0 7:1 73:1 3578:1 # 20140614134845AAVhWeg Microsoft NNP Consumer_Electronics ORGANIZATION
0.5 2:0 3:9 4:0 5:0 7:1 73:1 6654:1 # 20140612080629AAuyjlx Brookwood NNP Health PERSON
0.5 2:0 3:9 4:0 5:1 7:0 8:1 5352:1 # 20140621194648AAv7Pxb bertholdt NN Entertainment_&_Music PERSON
0.5 2:0 3:10 4:0 5:1 7:0 8:1 8927:1 # 20140615190410AAmWDg3 wristwatch NN Sports PERSON
0.5 2:0 3:9 4:0 5:0 7:1 73:1 5406:1 # 20140620190356AAdnQme Dillinger NNP Entertainment_&_Music PERSON
0.5 2:0 3:9 4:0 5:0 7:1 73:1 4307:1 # 20140604083714AANM1Br Wisconsin NNP Education_&_Reference LOCATION
0.5 2:0 3:2 4:1 5:0 7:0 73:1 4289:1 # 20140604083714AANM1Br NY NNP Education_&_Reference LOCATION
-0.26454816327174945911337999859825 2:0 3:7 4:0 5:0 7:1 73:1 7197:1 # 20140613202053AAONeF7 Haxorus NNP Games_&_Recreation TOKEN
-0.26445485378909872054009611019865 2:0 3:7 4:0 5:0 7:1 73:1 5836:1 # 20140613124158AAH0KXB Neptune NNP Entertainment_&_Music TOKEN
-0.26372267455510645106642186874524 2:0 3:7 4:0 5:0 7:1 73:1 11580:1 # 20140610112505AAhGjYL Richest NNP Dining_Out TOKEN
-0.26372267455494702304008569626603 2:0 3:7 4:0 5:0 7:1 73:1 5651:1 # 20140619132551AAMKLtQ Flippin NNP Entertainment_&_Music TOKEN
-0.26443312227127613311949971830472 2:0 3:7 4:0 5:0 7:1 73:1 9187:1 # 20140617223537AAdlxEL Larwood NNP Sports TOKEN
0.5 2:0 3:8 4:0 5:0 7:1 73:1 4058:1 # 20140606193910AApjpvz Oblivion NNP Consumer_Electronics LOCATION
0.5 2:0 3:8 4:0 5:0 7:1 73:1 9157:1 # 20140615215028AAGmoaM Gonzalez NNP Sports PERSON
0.5 2:0 3:8 4:0 5:0 7:1 73:1 4304:1 # 20140604083714AANM1Br Colorado NNP Education_&_Reference ORGANIZATION
0.5 2:0 3:8 4:0 5:0 7:1 73:1 19285:1 # 20140611150705AAPCzDc Beatrice NNP Pregnancy_&_Parenting PERSON
0.5 2:0 3:8 4:0 5:0 7:1 73:1 5936:1 # 20140604090916AAD5Lml Garcinia NNP Health PERSON
-0.26443312227142712345084873959422 2:0 3:7 4:0 5:0 7:1 73:1 15767:1 # 20140611151627AAmAEbQ Launder NNP Politics_&_Government TOKEN
0.5 2:0 3:9 4:0 5:0 7:1 73:1 9267:1 # 20140618192549AAzYXYR Argentina NNP Social_Science LOCATION
0.5 2:0 3:9 4:0 5:0 7:1 73:1 2972:1 # 20140604131630AAZXrpw Pinterest NNP Business_&_Finance ORGANIZATION
0.5 2:0 3:9 4:0 5:0 7:1 73:1 4459:1 # 20140618125641AAGkGpi Louisiana NNP Education_&_Reference LOCATION
-0.26315954047988876496333432442043 2:0 3:7 4:0 5:0 7:1 73:1 8174:1 # 20140612211617AAE6Bis Ottoman NNP News_&_Events TOKEN
0.5 2:0 3:8 4:0 5:0 7:1 73:1 1648:1 # 20140618141257AAQm1bZ Arikatou NNP Arts_&_Humanities PERSON
0.5 2:0 3:8 4:0 5:0 7:1 73:1 5937:1 # 20140604090916AAD5Lml Cambogia NNP Health PERSON
0.5 2:0 3:8 4:0 5:0 7:1 73:1 4280:1 # 20140610222206AAaaj3T Columbia NNP News_&_Events LOCATION
-0.26340249973193463617349152627867 2:0 3:7 4:0 5:0 7:1 73:1 18208:1 # 20140613030213AAZi4zH Salford NNP Travel TOKEN
0.5 2:1 3:9 4:0 5:0 7:1 73:1 10548:1 # 20140608182325AAmvy1Q Illionois NNP Cars_&_Transportation LOCATION
-0.26451975406973282645139988744631 2:0 3:7 4:0 5:0 7:1 73:1 4757:1 # 20140605081144AAuazx4 Algebra NNP Science_&_Mathematics TOKEN
-0.26454114382559268392469675745815 2:0 3:7 4:0 5:0 7:1 73:1 11601:1 # 20140605102530AA17S7s Kitchen NNP Dining_Out TOKEN
-0.26451975406972749738088168669492 2:0 3:7 4:0 5:0 7:1 73:1 18520:1 # 20140614045845AAdu92x Restart NNP Computer_&_Internet TOKEN
-0.26458513032279640242450113873929 2:0 3:7 4:0 5:0 7:1 73:1 2566:1 # 20140620222120AA4p1zz Therapy NNP Business_&_Finance TOKEN
-0.26458513032280706056553754024208 2:0 3:7 4:0 5:0 7:1 73:1 7057:1 # 20140625193758AANDcbj Vullaby NNP Games_&_Recreation TOKEN
-0.5 2:0 3:7 4:0 5:0 7:1 73:1 9562:1 # 20140617213812AAnm3nS Antonio NNP Travel TOKEN
-0.26359634130027037590693339552672 2:0 3:7 4:0 5:0 7:1 73:1 9461:1 # 20140623022611AAddTaJ Octagon NNP Sports TOKEN
-0.26341170363187071945532125027967 2:0 3:7 4:0 5:0 7:1 73:1 5418:1 # 20140620190356AAdnQme Hoodlum NNP Entertainment_&_Music TOKEN
-0.26454114382547544437329634092748 2:0 3:7 4:0 5:0 7:1 73:1 4500:1 # 20140625193758AANDcbj Ability NNP Games_&_Recreation TOKEN
-0.263514625535379520826495536312 2:0 3:7 4:0 5:0 7:1 73:1 10814:1 # 20140604163858AAhNFOq Durango NNP Cars_&_Transportation TOKEN
-0.26398022620746552924231309589231 2:0 3:7 4:0 5:0 7:1 73:1 1324:1 # 20140614122338AAHL8sn Optical NNP Arts_&_Humanities TOKEN
-0.26350231370692533960919945457135 2:0 3:7 4:0 5:0 7:1 73:1 11482:1 # 20140620003333AAaN90M Project NNP Dining_Out TOKEN
-0.26344387724724216415239652633318 2:0 3:7 4:0 5:0 7:1 73:1 3582:1 # 20140614134845AAVhWeg Edition NNP Consumer_Electronics TOKEN
-0.5 2:0 3:7 4:0 5:0 7:1 73:1 5433:1 # 20140620190356AAdnQme Eastern NNP Entertainment_&_Music TOKEN
-0.5 2:0 3:7 4:0 5:0 7:1 73:1 15421:1 # 20140617213812AAnm3nS Kingdom NNP Travel TOKEN
-0.26372030591758033324367715977132 2:0 3:7 4:0 5:0 7:1 73:1 5416:1 # 20140620190356AAdnQme Valachi NNP Entertainment_&_Music TOKEN
-0.26400625645261716067935253704491 2:0 3:7 4:0 5:0 7:1 73:1 15357:1 # 20140607125905AA2JtXv Maginot NNP Politics_&_Government TOKEN
-0.26445485378895838834978349041194 2:0 3:7 4:0 5:0 7:1 73:1 11826:1 # 20140611141719AAUaRNh Thermal NNP Food_&_Drink TOKEN
-0.26441552103824239594587197643705 2:0 3:7 4:0 5:0 7:1 73:1 14744:1 # 20140620141720AAh6NZ6 Terrier NNP Pets TOKEN
-0.26397520171205179906337434658781 2:0 3:7 4:0 5:0 7:1 73:1 1710:1 # 20140609112801AAnee0x Central NNP Arts_&_Humanities TOKEN
-0.26336674799291337478734931210056 2:0 3:7 4:0 5:0 7:1 73:1 7815:1 # 20140618110626AAvIpWH Doppler NNP Science_&_Mathematics TOKEN
-0.26336674799292963955466007064388 2:0 3:7 4:0 5:0 7:1 73:1 4578:1 # 20140605115942AAHijoB General NNP Education_&_Reference TOKEN
0.5 2:0 3:11 4:0 5:1 7:0 8:1 9169:1 # 20140623155342AAYpGzf bridgestone NN Sports ORGANIZATION
0.5 2:0 3:10 4:0 5:1 7:0 8:1 5172:1 # 20140614004826AAWj9IB wonderland NN Entertainment_&_Music LOCATION
-0.016694316457684266197247779928148 2:0 3:6 4:0 5:1 7:0 43:1 1826:1 # 20140612104828AAbSxeI notice VBP Health TOKEN
0.5 2:0 3:10 4:0 5:0 7:1 73:1 4198:1 # 20140622140805AAtjqJa Statistics NNP Cars_&_Transportation ORGANIZATION
-0.018370826501806547526030044537038 2:0 3:1 4:0 5:1 7:0 8:1 7684:1 # 20140618170211AA99yVG π NN Science_&_Mathematics TOKEN
0.5 2:0 3:2 4:0 5:0 7:1 73:1 11325:1 # 20140616143448AAdU6Ze El NNP Dining_Out ORGANIZATION
-0.12191681460243231072126945946366 2:1 3:12 4:0 5:1 7:0 73:1 18709:1 # 20140611200230AA2zvuY reinstalling NNP Computer_&_Internet TOKEN
-0.12629240269389285789003452009638 2:1 3:5 4:0 5:1 7:0 73:1 18121:1 # 20140608120927AA1JZcv laden NNP Travel TOKEN
-0.12801020458794623579912297373085 2:1 3:2 4:0 5:1 7:0 73:1 108:1 # 20140613111831AABRhzn is NNP News_&_Events TOKEN
0.5 2:0 3:5 4:0 5:0 7:1 26:1 11375:1 # 20140613214814AARwXS4 Sonic JJ Local_Businesses ORGANIZATION
0.5 2:0 3:5 4:0 5:1 7:0 40:1 5659:1 # 20140619063559AA2eks0 south RB Home_&_Garden LOCATION
0.5 2:1 3:5 4:0 5:1 7:0 12:1 19123:1 # 20140601002604AAq45X7 hicks NNS Pregnancy_&_Parenting PERSON
0.5 2:0 3:7 4:0 5:0 7:1 73:1 15421:1 # 20140617213812AAnm3nS Kingdom NNP Travel ORGANIZATION
0.5 2:1 3:2 4:1 5:0 7:0 16:1 2475:1 # 20140612145554AAjlhJX US PRP Beauty_&_Style LOCATION
0.5 2:0 3:7 4:0 5:0 7:1 73:1 9562:1 # 20140615224306AASdmOX Antonio NNP Sports PERSON
0.5 2:0 3:11 4:0 5:0 7:1 73:1 13821:1 # 20140611151627AAmAEbQ Afghanistan NNP Politics_&_Government LOCATION
0.5 2:0 3:2 4:1 5:0 7:0 8:1 5530:1 # 20140617203632AANuG3B DC NN Entertainment_&_Music ORGANIZATION
-0.00028495099623948583200672146631405 2:0 3:8 4:0 5:1 7:0 8:1 143:1 # 20140615205410AAihwS8 anything NN Family_&_Relationships TOKEN
0.5 2:0 3:8 4:0 5:1 7:0 26:1 7068:1 # 20140606032555AA8mCFY american JJ Politics_&_Government ORGANIZATION
0.5 2:0 3:3 4:0 5:0 7:1 73:1 9136:1 # 20140601101734AAAYp2K Max NNP Dining_Out ORGANIZATION
0.5 2:0 3:3 4:0 5:0 7:1 73:1 9209:1 # 20140623022611AAddTaJ Big NNP Sports PERSON
0.5 2:0 3:2 4:0 5:1 7:0 73:1 149:1 # 20140616143448AAdU6Ze in NNP Dining_Out ORGANIZATION
0.5 2:1 3:4 4:0 5:0 7:1 12:1 8743:1 # 20140616143448AAdU6Ze Guys NNS Dining_Out ORGANIZATION
0.5 2:0 3:2 4:0 5:0 7:1 22:1 608:1 # 20140605040256AAru12G My PRP$ Entertainment_&_Music PERSON
0.5 2:0 3:2 4:0 5:0 7:1 30:1 2509:1 # 20140605040256AAru12G At IN Entertainment_&_Music PERSON
0.5 2:0 3:3 4:0 5:1 7:0 26:1 31:1 # 20140612200636AAqMBhQ new JJ Politics_&_Government LOCATION
0.5 2:0 3:3 4:0 5:1 7:0 26:1 9449:1 # 20140623022611AAddTaJ ufc JJ Sports ORGANIZATION
0.5 2:0 3:2 4:0 5:1 7:0 8:1 13064:1 # 20140615091428AA1nGW3 st NN Local_Businesses LOCATION
0.5 2:0 3:2 4:0 5:1 7:0 8:1 18381:1 # 20140617134810AAX61tb nz NN Travel LOCATION
0.5 2:0 3:2 4:0 5:1 7:0 8:1 5994:1 # 20140621045509AAck6mP uk NN News_&_Events LOCATION
0.5 2:0 3:3 4:0 5:0 7:0 204:1 2700:1 # 20140605081144AAuazx4 1#2 CD Science_&_Mathematics PERSON
0.5 2:0 3:3 4:0 5:0 7:1 24:1 830:1 # 20140605040256AAru12G All DT Entertainment_&_Music PERSON
0.5 2:0 3:2 4:1 5:0 7:0 73:1 3928:1 # 20140615222209AAOSKxY LG NNP Entertainment_&_Music ORGANIZATION
0.5 2:0 3:2 4:1 5:0 7:0 73:1 3408:1 # 20140616063937AAhSsrT UK NNP Business_&_Finance LOCATION
0.5 2:0 3:2 4:1 5:0 7:0 73:1 4294:1 # 20140604083714AANM1Br GA NNP Education_&_Reference LOCATION
0.5 2:0 3:2 4:1 5:0 7:0 73:1 14378:1 # 20140613180332AA3jCxr AL NNP News_&_Events ORGANIZATION
0.5 2:0 3:4 4:0 5:1 7:0 20:1 8143:1 # 20140625120602AAXWOm0 iraq VBG Science_&_Mathematics LOCATION
0.5 2:0 3:4 4:0 5:1 7:0 20:1 3365:1 # 20140616234645AAnbyhx ebay VBG Consumer_Electronics ORGANIZATION
0.5 2:1 3:4 4:0 5:0 7:1 12:1 8743:1 # 20140616143448AAdU6Ze Guys NNS Dining_Out ORGANIZATION
0.5 2:0 3:2 4:1 5:0 7:0 73:1 11389:1 # 20140616143448AAdU6Ze DQ NNP Dining_Out ORGANIZATION
0.5 2:1 3:3 4:0 5:0 7:1 73:1 12801:1 # 20140603004555AAv1K5X Los NNP Politics_&_Government LOCATION
0.5 2:0 3:4 4:0 5:0 7:1 710:1 18942:1 # 20140611001634AAefV9p Maya FW Pregnancy_&_Parenting PERSON
0.5 2:0 3:3 4:0 5:0 7:0 73:1 9571:1 # 20140615224306AASdmOX NbA NNP Sports ORGANIZATION
0.5 2:0 3:2 4:1 5:0 7:0 73:1 11527:1 # 20140608112522AAMjxU9 LA NNP Local_Businesses LOCATION
0.5 2:0 3:2 4:1 5:0 7:0 73:1 3507:1 # 20140604083714AANM1Br CA NNP Education_&_Reference LOCATION
-0.060325019845101746085447302903049 2:0 3:2 4:0 5:1 7:0 73:1 216:1 # 20140609103348AAf8tZ6 me NNP News_&_Events TOKEN
-0.011514100582283859353083244059235 2:0 3:3 4:0 5:1 7:0 24:1 363:1 # 20140616114406AAi0jDN his DT Games_&_Recreation TOKEN
0.5 2:0 3:2 4:0 5:0 7:1 73:1 11325:1 # 20140616143448AAdU6Ze El NNP Dining_Out ORGANIZATION
0.5 2:1 3:10 4:0 5:0 7:1 73:1 1757:1 # 20140621012549AAOo4ve Dreamworks NNP Arts_&_Humanities ORGANIZATION
0.5 2:0 3:2 4:1 5:0 7:0 73:1 3408:1 # 20140610222206AAaaj3T UK NNP News_&_Events LOCATION
0.5 2:0 3:2 4:1 5:0 7:0 73:1 4289:1 # 20140604083714AANM1Br NY NNP Education_&_Reference LOCATION
0.5 2:0 3:3 4:0 5:0 7:0 73:1 9571:1 # 20140615224306AASdmOX NbA NNP Sports ORGANIZATION
0.5 2:0 3:2 4:1 5:0 7:0 73:1 3928:1 # 20140615222209AAOSKxY LG NNP Entertainment_&_Music ORGANIZATION
0.5 2:0 3:9 4:0 5:1 7:0 26:1 1875:1 # 20140614170630AA1o9BQ corporate JJ Politics_&_Government ORGANIZATION
0.5 2:0 3:2 4:0 5:1 7:0 8:1 18381:1 # 20140617134810AAX61tb nz NN Travel LOCATION
0.5 2:0 3:2 4:0 5:1 7:0 8:1 5994:1 # 20140621045509AAck6mP uk NN News_&_Events LOCATION
0.5 2:0 3:2 4:0 5:1 7:0 8:1 13064:1 # 20140615091428AA1nGW3 st NN Local_Businesses LOCATION
0.5 2:0 3:7 4:0 5:0 7:1 73:1 5433:1 # 20140606075218AAmnm1s Eastern NNP Entertainment_&_Music LOCATION
0.5 2:0 3:2 4:1 5:0 7:0 73:1 3408:1 # 20140616063937AAhSsrT UK NNP Business_&_Finance LOCATION
0.5 2:1 3:5 4:0 5:0 7:1 73:1 8897:1 # 20140615224306AASdmOX Spurs NNP Sports ORGANIZATION
-0.5 2:0 3:2 4:0 5:0 7:1 22:1 608:1 # 20140601072000AABRvpX My PRP$ Games_&_Recreation TOKEN
-0.17538706065041376191970812215004 2:0 3:3 4:0 5:1 7:0 73:1 7409:1 # 20140623064734AAHH1Hb x-0 NNP Science_&_Mathematics TOKEN
0.5 2:0 3:3 4:0 5:0 7:1 73:1 12379:1 # 20140601134625AAPRFLP Aid NNP Home_&_Garden ORGANIZATION
0.5 2:0 3:3 4:0 5:0 7:1 73:1 9458:1 # 20140623022611AAddTaJ Jon NNP Sports PERSON
-0.5 2:0 3:2 4:1 5:0 7:0 73:1 3408:1 # 20140608151316AAZv17m UK NNP Travel TOKEN
0.5 2:0 3:6 4:0 5:1 7:0 20:1 14023:1 # 20140601100338AAUfBLz hitler VBG News_&_Events PERSON
0.5 2:0 3:5 4:0 5:0 7:1 26:1 11375:1 # 20140616143448AAdU6Ze Sonic JJ Dining_Out ORGANIZATION
-0.0041966774902447157025164869992295 2:0 3:5 4:0 5:1 7:0 8:1 5376:1 # 20140620190356AAdnQme flick NN Entertainment_&_Music TOKEN
0.5 2:0 3:4 4:0 5:0 7:1 73:1 11092:1 # 20140613111207AAD5YgE Gacy NNP Dining_Out PERSON
0.5 2:0 3:4 4:0 5:0 7:1 73:1 15269:1 # 20140625082631AAcgyMl Issa NNP Politics_&_Government PERSON
0.5 2:1 3:2 4:1 5:0 7:0 16:1 2475:1 # 20140605225754AA2LJWC US PRP Consumer_Electronics LOCATION
-0.5 2:0 3:2 4:0 5:0 7:1 22:1 608:1 # 20140608005945AABaB4R My PRP$ Education_&_Reference TOKEN
-0.21728939008297132318148214835674 2:1 3:5 4:0 5:0 7:1 73:1 18919:1 # 20140620035536AASKdrI Peeps NNP Computer_&_Internet TOKEN
-0.5 2:1 3:9 4:0 5:0 7:1 73:1 10548:1 # 20140608182325AAmvy1Q Illionois NNP Cars_&_Transportation TOKEN
0.5 2:0 3:5 4:0 5:0 7:1 8:1 5598:1 # 20140605040256AAru12G Panic NN Entertainment_&_Music PERSON
0.5 2:1 3:7 4:0 5:0 7:1 123:1 5614:1 # 20140608113007AAoVpt8 Answers VBZ Politics_&_Government ORGANIZATION
-0.021292697002007421325231462105876 2:0 3:2 4:0 5:1 7:0 73:1 154:1 # 20140625120602AAXWOm0 to NNP Science_&_Mathematics TOKEN
0.5 2:0 3:11 4:0 5:0 7:1 73:1 13821:1 # 20140611151627AAmAEbQ Afghanistan NNP Politics_&_Government LOCATION
-0.5 2:0 3:3 4:0 5:0 7:1 24:1 830:1 # 20140613124917AAp8Kiq All DT Entertainment_&_Music TOKEN
0.5 2:0 3:3 4:0 5:0 7:1 24:1 729:1 # 20140606223938AAjsrL7 The DT News_&_Events ORGANIZATION
-0.5 2:1 3:2 4:1 5:0 7:0 16:1 2475:1 # 20140619072135AAeFu7N US PRP Politics_&_Government TOKEN
-0.053837954900311846273552873753943 2:1 3:2 4:1 5:0 7:0 73:1 9433:1 # 20140623022611AAddTaJ VS NNP Sports TOKEN
-0.053663489872505250322110015304133 2:1 3:2 4:1 5:0 7:0 73:1 311:1 # 20140608090153AAQx192 IS NNP Education_&_Reference TOKEN
0.5 2:0 3:5 4:0 5:0 7:1 88:1 8800:1 # 20140615215028AAGmoaM Leave VB Sports PERSON
-0.5 2:1 3:4 4:0 5:0 7:1 12:1 8743:1 # 20140612145554AAjlhJX Guys NNS Beauty_&_Style TOKEN
-0.5 2:0 3:3 4:0 5:0 7:1 24:1 830:1 # 20140623072617AAIXida All DT Dining_Out TOKEN
-0.49893877847761203270238183904439 2:0 3:2 4:0 5:0 7:1 30:1 2509:1 # 20140608151316AAZv17m At IN Travel TOKEN
-0.14590234731990558980641026209923 2:0 3:11 4:0 5:0 7:0 73:1 9065:1 # 20140605104442AAFzzy2 HEavyweight NNP Sports TOKEN
-0.5 2:0 3:7 4:0 5:0 7:0 73:1 3594:1 # 20140622080843AAfcL4m YouTube NNP Pets TOKEN
-0.21800393296960862699052086099982 2:1 3:2 4:0 5:0 7:1 73:1 6889:1 # 20140613230123AAy6rx7 Us NNP Games_&_Recreation TOKEN
0.5 2:1 3:2 4:1 5:0 7:0 16:1 2475:1 # 20140622210819AARJGLW US PRP Entertainment_&_Music LOCATION
-0.5 2:0 3:2 4:0 5:1 7:0 8:1 5994:1 # 20140615211937AA9zqfw uk NN Health TOKEN
-0.052032500503445211492703492695 2:1 3:5 4:1 5:0 7:0 73:1 19069:1 # 20140620170402AA0uGdu THATS NNP Pregnancy_&_Parenting TOKEN
0.5 2:0 3:9 4:0 5:0 7:1 73:1 786:1 # 20140625193136AAUePpR Lovecraft NNP Arts_&_Humanities PERSON
0.5 2:0 3:9 4:0 5:0 7:1 73:1 13682:1 # 20140610222206AAaaj3T Mackenzie NNP News_&_Events LOCATION
0.5 2:0 3:9 4:0 5:0 7:1 73:1 781:1 # 20140617074422AANUT7h Radcliffe NNP Arts_&_Humanities PERSON
0.5 2:1 3:2 4:1 5:0 7:0 16:1 2475:1 # 20140605225754AA2LJWC US PRP Consumer_Electronics LOCATION
0.5 2:0 3:11 4:0 5:0 7:1 73:1 775:1 # 20140625193136AAUePpR Shakespeare NNP Arts_&_Humanities PERSON
-0.21800393297196052344588679261506 2:1 3:2 4:0 5:0 7:1 73:1 247:1 # 20140623022611AAddTaJ Am NNP Sports TOKEN
-0.21800437391190818914310511900112 2:1 3:2 4:0 5:0 7:1 73:1 2354:1 # 20140609063130AAx8NAT Rs NNP Computer_&_Internet TOKEN
0.5 2:0 3:2 4:0 5:1 7:0 8:1 5994:1 # 20140621045509AAck6mP uk NN News_&_Events LOCATION
0.5 2:0 3:2 4:1 5:0 7:0 73:1 3408:1 # 20140625120602AAXWOm0 UK NNP Science_&_Mathematics LOCATION
-0.5 2:0 3:3 4:0 5:1 7:0 26:1 31:1 # 20140602000015AAQvMYZ new JJ Consumer_Electronics TOKEN
0.5 2:1 3:6 4:0 5:0 7:1 61:1 9343:1 # 20140616154757AA3uubn Forces NNPS News_&_Events ORGANIZATION
0.5 2:1 3:6 4:0 5:0 7:1 61:1 12443:1 # 20140607191241AAICEVB States NNPS Home_&_Garden LOCATION
0.5 2:1 3:6 4:0 5:0 7:1 61:1 15074:1 # 20140617015321AAEmy38 Masons NNPS Politics_&_Government PERSON
-0.5 2:0 3:2 4:1 5:0 7:0 73:1 3408:1 # 20140608120927AA1JZcv UK NNP Travel TOKEN
0.5 2:0 3:4 4:0 5:0 7:1 88:1 5589:1 # 20140605040256AAru12G Kill VB Entertainment_&_Music PERSON
0.5 2:0 3:9 4:0 5:0 7:1 73:1 3852:1 # 20140626112013AAPPVIB Instagram NNP Consumer_Electronics ORGANIZATION
0.5 2:0 3:9 4:0 5:0 7:1 73:1 15476:1 # 20140617193722AA5emAo Attkisson NNP Politics_&_Government PERSON
-0.2178188132355955985985929146409 2:1 3:3 4:0 5:0 7:1 73:1 3523:1 # 20140614134845AAVhWeg Ops NNP Consumer_Electronics TOKEN
0.5 2:0 3:2 4:1 5:0 7:0 73:1 3408:1 # 20140615131345AAW89pT UK NNP News_&_Events LOCATION
-0.011571726115867875250842189416289 2:0 3:12 4:0 5:1 7:0 8:1 6664:1 # 20140612080629AAuyjlx multivitamin NN Health TOKEN
-0.17679097972715496212003927212209 2:0 3:1 4:0 5:1 7:0 73:1 2518:1 # 20140601130859AAHxybZ y NNP Sports TOKEN
0.5 2:0 3:5 4:0 5:0 7:1 8:1 5598:1 # 20140605040256AAru12G Panic NN Entertainment_&_Music PERSON
-0.49986376518393527135231124702841 2:1 3:7 4:0 5:0 7:1 73:1 3502:1 # 20140608001904AAVKEC5 Windows NNP Computer_&_Internet TOKEN
-0.5 2:0 3:2 4:1 5:0 7:0 73:1 3408:1 # 20140608151316AAZv17m UK NNP Travel TOKEN
-0.5 2:0 3:3 4:0 5:0 7:0 204:1 2700:1 # 20140620123248AAQq23H 1#2 CD Business_&_Finance TOKEN
0.5 2:0 3:2 4:1 5:0 7:0 73:1 3408:1 # 20140625120602AAXWOm0 UK NNP Science_&_Mathematics LOCATION
-0.5 2:0 3:2 4:1 5:0 7:0 73:1 3408:1 # 20140612013350AAX11Xr UK NNP Travel TOKEN
0.5 2:0 3:10 4:0 5:0 7:1 73:1 2770:1 # 20140615161422AAiDhFt California NNP News_&_Events ORGANIZATION
0.5 2:0 3:10 4:0 5:0 7:1 73:1 9439:1 # 20140623022611AAddTaJ Undertaker NNP Sports PERSON
-0.21751900957310610351669311057776 2:1 3:4 4:0 5:0 7:1 73:1 8234:1 # 20140622013948AAZujJH Amps NNP Science_&_Mathematics TOKEN
-0.21833675580241518332513805944473 2:1 3:3 4:0 5:0 7:1 73:1 11237:1 # 20140610172137AA9hoaq Las NNP Dining_Out TOKEN
-0.21775566044761940354135276720626 2:1 3:4 4:0 5:0 7:1 73:1 18310:1 # 20140606232017AAQ2iYc Days NNP Pregnancy_&_Parenting TOKEN
-0.5 2:0 3:2 4:1 5:0 7:0 73:1 4507:1 # 20140601094337AAbsB6Z C. NNP Politics_&_Government TOKEN
-0.49932952268627328606953597045504 2:0 3:2 4:1 5:0 7:0 73:1 11527:1 # 20140608112522AAMjxU9 LA NNP Local_Businesses TOKEN
0.5 2:1 3:7 4:0 5:0 7:1 73:1 11379:1 # 20140616143448AAdU6Ze Hortons NNP Dining_Out ORGANIZATION
0.5 2:1 3:7 4:0 5:0 7:1 73:1 19548:1 # 20140619231832AAFqTWm Mikayla NNP Yahoo!_Products PERSON
-0.21784017372340225282556502861553 2:1 3:4 4:0 5:0 7:1 73:1 6901:1 # 20140613230123AAy6rx7 Rent NNP Games_&_Recreation TOKEN
-0.2176336935008578166161896660924 2:1 3:4 4:0 5:0 7:1 73:1 11774:1 # 20140620063230AAXLo9n Iced NNP Food_&_Drink TOKEN
-0.21691169771450635739284962255624 2:1 3:4 4:0 5:0 7:1 73:1 8466:1 # 20140612022126AAsUT1R Accs NNP Beauty_&_Style TOKEN
0.5 2:0 3:2 4:1 5:0 7:0 73:1 3408:1 # 20140625120602AAXWOm0 UK NNP Science_&_Mathematics LOCATION
-0.5 2:0 3:2 4:1 5:0 7:0 73:1 3408:1 # 20140608151316AAZv17m UK NNP Travel TOKEN
-0.5 2:0 3:2 4:1 5:0 7:0 73:1 4289:1 # 20140610174552AAptb2t NY NNP Local_Businesses TOKEN
0.5 2:1 3:7 4:0 5:0 7:1 73:1 12802:1 # 20140608112522AAMjxU9 Angeles NNP Local_Businesses LOCATION
-0.016173780533181913998674872345873 2:0 3:3 4:0 5:1 7:0 8:1 4854:1 # 20140617203723AAnMv8x usa NN Politics_&_Government TOKEN
-0.5 2:0 3:2 4:1 5:0 7:0 73:1 3507:1 # 20140604203617AAQJuGv CA NNP Games_&_Recreation TOKEN
-0.17663680936524173148427507840097 2:0 3:1 4:0 5:1 7:0 73:1 2481:1 # 20140618192549AAzYXYR o NNP Social_Science TOKEN
0.5 2:0 3:8 4:0 5:0 7:1 73:1 1965:1 # 20140601105234AA3ANDN Napoleon NNP Arts_&_Humanities PERSON
0.5 2:0 3:8 4:0 5:0 7:1 73:1 15273:1 # 20140625082631AAcgyMl Benghazi NNP Politics_&_Government LOCATION
-0.21740304114079289643512993279728 2:1 3:4 4:0 5:0 7:1 73:1 3180:1 # 20140603005221AAThPnj Data NNP Consumer_Electronics TOKEN
-0.21767290880058520752271533638122 2:1 3:4 4:0 5:0 7:1 73:1 3844:1 # 20140603005221AAThPnj Apps NNP Consumer_Electronics TOKEN
-0.21768785770927134848307105130516 2:1 3:4 4:0 5:0 7:1 73:1 10318:1 # 20140611090216AAsNyRd Lets NNP Family_&_Relationships TOKEN
-0.5 2:0 3:2 4:1 5:0 7:0 73:1 4289:1 # 20140610174552AAptb2t NY NNP Local_Businesses TOKEN
0.5 2:1 3:7 4:0 5:0 7:1 73:1 3502:1 # 20140614134845AAVhWeg Windows NNP Consumer_Electronics ORGANIZATION
0.5 2:1 3:7 4:0 5:0 7:1 123:1 5614:1 # 20140620213457AAI59UA Answers VBZ Computer_&_Internet ORGANIZATION
-0.2163443716909378977675260102842 2:1 3:7 4:0 5:0 7:1 73:1 3502:1 # 20140610220123AAW30Bg Windows NNP Home_&_Garden TOKEN
0.5 2:0 3:2 4:1 5:0 7:0 73:1 4289:1 # 20140604083714AANM1Br NY NNP Education_&_Reference LOCATION
0.5 2:0 3:2 4:1 5:0 7:0 73:1 3408:1 # 20140616063937AAhSsrT UK NNP Business_&_Finance LOCATION
0.5 2:0 3:9 4:0 5:0 7:1 73:1 786:1 # 20140625193136AAUePpR Lovecraft NNP Arts_&_Humanities PERSON
0.5 2:0 3:8 4:0 5:0 7:1 73:1 13971:1 # 20140601100338AAUfBLz Pakistan NNP News_&_Events LOCATION
-0.21640621558436512472667345718946 2:1 3:6 4:0 5:0 7:1 73:1 10977:1 # 20140606223938AAjsrL7 Sports NNP News_&_Events TOKEN
-0.21662868592447859228400375286583 2:1 3:6 4:0 5:0 7:1 73:1 14028:1 # 20140601100338AAUfBLz Bombed NNP News_&_Events TOKEN
0.5 2:1 3:6 4:0 5:0 7:1 73:1 12442:1 # 20140607191241AAICEVB United NNP Home_&_Garden LOCATION
0.5 2:1 3:7 4:0 5:0 7:1 73:1 11379:1 # 20140616143448AAdU6Ze Hortons NNP Dining_Out ORGANIZATION
0.5 2:0 3:7 4:0 5:0 7:1 73:1 1693:1 # 20140609112801AAnee0x Nalanda NNP Arts_&_Humanities LOCATION
0.5 2:0 3:7 4:0 5:0 7:1 73:1 17039:1 # 20140611192243AAwUpsS Abraham NNP Pregnancy_&_Parenting PERSON
0.5 2:0 3:6 4:0 5:0 7:1 73:1 3931:1 # 20140623125801AASUucg Google NNP Food_&_Drink ORGANIZATION
-0.21733512994594089695610250601021 2:1 3:5 4:0 5:0 7:1 73:1 11972:1 # 20140607232759AAzh7sY Baked NNP Food_&_Drink TOKEN
-0.26232193239538043050274040979275 2:0 3:9 4:0 5:0 7:1 73:1 6904:1 # 20140611144551AAguC6x Operation NNP Games_&_Recreation TOKEN
-0.21665795707786372759073856286705 2:1 3:5 4:0 5:0 7:1 73:1 14726:1 # 20140626142532AAHm2Mx Mills NNP Pets TOKEN
0.5 2:1 3:4 4:0 5:0 7:1 73:1 11048:1 # 20140610083106AA7AAUT Ribs NNP Dining_Out ORGANIZATION
0.5 2:1 3:5 4:0 5:0 7:1 73:1 8897:1 # 20140615224306AASdmOX Spurs NNP Sports ORGANIZATION
0.5 2:1 3:5 4:0 5:0 7:1 73:1 14314:1 # 20140606223938AAjsrL7 Times NNP News_&_Events ORGANIZATION
0.5 2:1 3:5 4:0 5:0 7:1 73:1 14128:1 # 20140605150717AAmRFk6 Soros NNP News_&_Events PERSON
0.5 2:1 3:5 4:0 5:0 7:1 73:1 14400:1 # 20140620214550AA74tKP Myers NNP News_&_Events PERSON
-0.5 2:1 3:5 4:0 5:0 7:1 73:1 14314:1 # 20140625210906AATgayM Times NNP News_&_Events TOKEN
0.5 2:1 3:6 4:0 5:0 7:1 73:1 11324:1 # 20140616143448AAdU6Ze Donuts NNP Dining_Out ORGANIZATION
0.5 2:1 3:6 4:0 5:0 7:1 73:1 12442:1 # 20140605150717AAmRFk6 United NNP News_&_Events LOCATION
0.5 2:1 3:5 4:0 5:0 7:1 73:1 15298:1 # 20140613140428AASx2zV Sears NNP Politics_&_Government ORGANIZATION
0.5 2:1 3:4 4:0 5:0 7:1 73:1 15214:1 # 20140610123048AAZOuhW Rose NNP Politics_&_Government LOCATION
-0.21775830069833276847468539472175 2:1 3:4 4:0 5:0 7:1 73:1 1795:1 # 20140621012549AAOo4ve Arts NNP Arts_&_Humanities TOKEN
-0.217840173724128005616762493446 2:1 3:4 4:0 5:0 7:1 73:1 11772:1 # 20140620063230AAXLo9n Cola NNP Food_&_Drink TOKEN
-0.21700901194080790546081516367849 2:1 3:4 4:0 5:0 7:1 73:1 1871:1 # 20140605091638AATCTbo Xmas NNP Arts_&_Humanities TOKEN
-0.2178574445811092274993825412821 2:1 3:4 4:0 5:0 7:1 73:1 14585:1 # 20140613073945AAjr9GV Vets NNP Pets TOKEN
0.5 2:1 3:5 4:0 5:0 7:1 73:1 8897:1 # 20140611011232AAoHyfn Spurs NNP Sports ORGANIZATION
-0.26272353307910378816814045421779 2:0 3:9 4:0 5:0 7:1 73:1 11832:1 # 20140611141719AAUaRNh Covergirl NNP Food_&_Drink TOKEN
-0.21709550700327895356167573481798 2:1 3:5 4:0 5:0 7:1 73:1 8463:1 # 20140612022126AAsUT1R Shoes NNP Beauty_&_Style TOKEN
-0.21734413359995219394704690785147 2:1 3:5 4:0 5:0 7:1 73:1 6325:1 # 20140607184915AAytW6g Women NNP Social_Science TOKEN
-0.21728939008228387308463425142691 2:1 3:5 4:0 5:0 7:1 73:1 8558:1 # 20140610100930AAaZ9T3 Clogs NNP Beauty_&_Style TOKEN
-0.21709550700327717720483633456752 2:1 3:5 4:0 5:0 7:1 73:1 13145:1 # 20140603131218AA1t3hP Techs NNP Local_Businesses TOKEN
-0.21733074440000876847989275120199 2:1 3:5 4:0 5:0 7:1 73:1 8801:1 # 20140613125219AA2D0JF Links NNP Beauty_&_Style TOKEN
-0.21716647087074392175054526887834 2:1 3:5 4:0 5:0 7:1 73:1 9730:1 # 20140618194342AAqG5NH Thats NNP Family_&_Relationships TOKEN
0.5 2:1 3:5 4:0 5:0 7:1 73:1 14400:1 # 20140620214550AA74tKP Myers NNP News_&_Events PERSON
-0.21728939008228209672779485117644 2:1 3:5 4:0 5:0 7:1 73:1 11213:1 # 20140616160015AAkjHsB Pines NNP Dining_Out TOKEN
-0.060168249978718002513033979994361 2:1 3:5 4:0 5:0 7:1 73:1 10885:1 # 20140614231842AApn3VH Rules NNP Cars_&_Transportation TOKEN
-0.26213293047612828967629639009829 2:0 3:9 4:0 5:0 7:1 73:1 11135:1 # 20140605151444AA6EqVP Interview NNP Dining_Out TOKEN
-0.21693819755769649937349186075153 2:1 3:5 4:0 5:0 7:1 73:1 8233:1 # 20140622013948AAZujJH Volts NNP Science_&_Mathematics TOKEN
-0.21716593827856200960013666190207 2:1 3:5 4:0 5:0 7:1 73:1 10776:1 # 20140621111444AACBO2L Aveos NNP Cars_&_Transportation TOKEN
-0.26548394301952615847994820796885 2:0 3:5 4:0 5:0 7:1 73:1 8471:1 # 20140601075512AAfLuOE Smile NNP Beauty_&_Style TOKEN
-0.096224237104112653184984083054587 2:1 3:5 4:0 5:0 7:1 73:1 11761:1 # 20140615131345AAW89pT Stars NNP News_&_Events TOKEN
-0.21723965392486199732502427650616 2:1 3:5 4:0 5:0 7:1 73:1 5436:1 # 20140620190356AAdnQme Gangs NNP Entertainment_&_Music TOKEN
-0.2162945941169165109396743673642 2:1 3:5 4:0 5:0 7:1 73:1 18259:1 # 20140609221937AAH7tge Rides NNP Travel TOKEN
-0.21688272050907464461033669067547 2:1 3:5 4:0 5:0 7:1 73:1 11173:1 # 20140608075953AADKMro Pease NNP Dining_Out TOKEN
-0.2173307444006820077220254461281 2:1 3:5 4:0 5:0 7:1 73:1 5025:1 # 20140614004826AAWj9IB Girls NNP Entertainment_&_Music TOKEN
-0.02285554382548530757968130444624 2:1 3:9 4:0 5:0 7:1 20:1 7665:1 # 20140605092633AAPkbBp Expanding VBG Science_&_Mathematics TOKEN
-0.21732456042869596757327599334531 2:1 3:5 4:0 5:0 7:1 73:1 11600:1 # 20140605102530AA17S7s Kyles NNP Dining_Out TOKEN
-0.21734413360064053222231450490654 2:1 3:5 4:0 5:0 7:1 73:1 18017:1 # 20140604152901AACS3Yj Treks NNP Travel TOKEN
-0.21629459411664558876609021353943 2:1 3:5 4:0 5:0 7:1 73:1 4860:1 # 20140601014139AA5Szo2 Doing NNP Education_&_Reference TOKEN
0.5 2:1 3:4 4:0 5:0 7:1 73:1 15214:1 # 20140610123048AAZOuhW Rose NNP Politics_&_Government LOCATION
-0.21633198114722929084052793768933 2:1 3:5 4:0 5:0 7:1 73:1 11434:1 # 20140623072617AAIXida Kings NNP Dining_Out TOKEN
-0.21728612542642977700779738370329 2:1 3:5 4:0 5:0 7:1 73:1 5340:1 # 20140613124158AAH0KXB Codes NNP Entertainment_&_Music TOKEN
-0.21733363793341453629182069562376 2:1 3:5 4:0 5:0 7:1 73:1 9507:1 # 20140615120927AAPeVv5 Slugs NNP Sports TOKEN
-0.21629459411613546904185056973802 2:1 3:5 4:0 5:0 7:1 73:1 11951:1 # 20140626031053AAyXCcP Voila NNP Food_&_Drink TOKEN
-0.2173245604288496224398841150105 2:1 3:5 4:0 5:0 7:1 73:1 5705:1 # 20140615112034AAukyhJ Whats NNP Science_&_Mathematics TOKEN
-0.13098036353771791429068116485723 2:0 3:4 4:0 5:0 7:1 61:1 11788:1 # 20140620063230AAXLo9n Chip NNPS Food_&_Drink TOKEN
-0.13109060760129431777443187456811 2:0 3:4 4:0 5:0 7:1 61:1 1394:1 # 20140605223141AA4aNVu Teen NNPS Arts_&_Humanities TOKEN
0.5 2:0 3:3 4:0 5:1 7:0 24:1 25:1 # 20140605040256AAru12G the DT Entertainment_&_Music PERSON
0.5 2:0 3:3 4:0 5:1 7:0 8:1 4854:1 # 20140601014139AA5Szo2 usa NN Education_&_Reference LOCATION
0.5 2:0 3:3 4:0 5:1 7:0 8:1 2189:1 # 20140605040256AAru12G boy NN Entertainment_&_Music PERSON
-0.5 2:1 3:2 4:1 5:0 7:0 16:1 2475:1 # 20140603020037AAlyzyA US PRP Travel TOKEN
0.5 2:0 3:12 4:1 5:0 7:0 73:1 3558:1 # 20140614134845AAVhWeg CYBERPOWERPC NNP Consumer_Electronics ORGANIZATION
0.5 2:0 3:12 4:0 5:1 7:0 26:1 3256:1 # 20140601093053AA6zdEg fakeiduk.com JJ Business_&_Finance ORGANIZATION
-0.5 2:0 3:2 4:1 5:0 7:0 73:1 3408:1 # 20140608151316AAZv17m UK NNP Travel TOKEN
-0.0011796758448974209443349536741152 2:0 3:2 4:0 5:1 7:0 73:1 154:1 # 20140625120602AAXWOm0 to NNP Science_&_Mathematics TOKEN
-0.017736618457779407265206828014925 2:0 3:4 4:0 5:1 7:0 43:1 11950:1 # 20140626031053AAyXCcP fold VBP Food_&_Drink TOKEN
-0.013271924574540738817063356691506 2:0 3:2 4:0 5:1 7:0 73:1 416:1 # 20140614045845AAdu92x so NNP Computer_&_Internet TOKEN
0.5 2:0 3:2 4:0 5:0 7:1 22:1 608:1 # 20140605040256AAru12G My PRP$ Entertainment_&_Music PERSON
0.5 2:1 3:6 4:0 5:0 7:1 73:1 14140:1 # 20140620051059AAvmrsV Coates NNP News_&_Events PERSON
0.5 2:1 3:6 4:0 5:0 7:1 73:1 11324:1 # 20140616143448AAdU6Ze Donuts NNP Dining_Out ORGANIZATION
0.5 2:0 3:7 4:0 5:0 7:1 73:1 5515:1 # 20140606053450AAtepIb Lycklig NNP Entertainment_&_Music PERSON
0.5 2:0 3:7 4:0 5:0 7:1 73:1 4275:1 # 20140604083714AANM1Br College NNP Education_&_Reference ORGANIZATION
-0.5 2:0 3:4 4:0 5:0 7:1 88:1 5589:1 # 20140619114039AAjxNQW Kill VB Food_&_Drink TOKEN
-0.5 2:0 3:5 4:0 5:0 7:1 88:1 8800:1 # 20140611175239AA5u6en Leave VB Family_&_Relationships TOKEN
0.5 2:1 3:4 4:1 5:0 7:0 73:1 13003:1 # 20140625100949AAuIkTO USPS NNP Local_Businesses ORGANIZATION
0.5 2:1 3:3 4:1 5:0 7:0 73:1 9297:1 # 20140626152929AAvb2mt SFS NNP Sports ORGANIZATION
0.5 2:1 3:3 4:1 5:0 7:0 73:1 15277:1 # 20140625082631AAcgyMl IRS NNP Politics_&_Government ORGANIZATION
0.5 2:1 3:3 4:1 5:0 7:0 73:1 12376:1 # 20140601134625AAPRFLP CVS NNP Home_&_Garden ORGANIZATION
-0.21868038316758486860891252945294 2:0 3:1 4:1 5:0 7:1 73:1 3174:1 # 20140603072418AAgZjcN X NNP Science_&_Mathematics TOKEN
0.5 2:0 3:6 4:0 5:1 7:0 8:1 8749:1 # 20140621092416AArsE0s brazil NN Social_Science LOCATION
0.5 2:0 3:11 4:0 5:1 7:0 8:1 9169:1 # 20140623155342AAYpGzf bridgestone NN Sports ORGANIZATION
0.5 2:0 3:11 4:0 5:0 7:0 73:1 12865:1 # 20140613214814AARwXS4 Chic-Fill-A NNP Local_Businesses ORGANIZATION
0.5 2:1 3:10 4:0 5:0 7:1 73:1 1757:1 # 20140621012549AAOo4ve Dreamworks NNP Arts_&_Humanities ORGANIZATION
0.5 2:0 3:3 4:0 5:0 7:1 24:1 830:1 # 20140605040256AAru12G All DT Entertainment_&_Music PERSON
0.5 2:0 3:3 4:0 5:0 7:1 24:1 830:1 # 20140605040256AAru12G All DT Entertainment_&_Music PERSON
0.5 2:0 3:3 4:0 5:0 7:0 204:1 2700:1 # 20140605081144AAuazx4 1#2 CD Science_&_Mathematics PERSON
-0.5 2:1 3:2 4:1 5:0 7:0 16:1 2475:1 # 20140603053113AAVRR5O US PRP Local_Businesses TOKEN
-0.0013823193656321564048994332551956 2:0 3:4 4:0 5:1 7:0 26:1 963:1 # 20140620214550AA74tKP true JJ News_&_Events TOKEN
-0.12095951447337016659844266541768 2:1 3:5 4:0 5:0 7:1 73:1 11761:1 # 20140620063230AAXLo9n Stars NNP Food_&_Drink TOKEN
0.5 2:0 3:5 4:1 5:0 7:0 73:1 15683:1 # 20140614170630AA1o9BQ SWIFT NNP Politics_&_Government ORGANIZATION
0.5 2:0 3:5 4:1 5:0 7:0 73:1 14379:1 # 20140613180332AA3jCxr ISISL NNP News_&_Events ORGANIZATION
0.5 2:0 3:5 4:1 5:0 7:0 73:1 13972:1 # 20140613111831AABRhzn COBRA NNP News_&_Events ORGANIZATION
-0.5 2:0 3:6 4:0 5:0 7:1 73:1 3931:1 # 20140613030213AAZi4zH Google NNP Travel TOKEN
0.5 2:0 3:3 4:0 5:0 7:1 73:1 11351:1 # 20140616143448AAdU6Ze Moe NNP Dining_Out ORGANIZATION
-0.5 2:0 3:8 4:0 5:0 7:1 73:1 4280:1 # 20140609221937AAH7tge Columbia NNP Travel TOKEN
0.49301341616497729170021102618193 2:0 3:6 4:0 5:1 7:0 43:1 1441:1 # 20140617052323AAeXK8h google VBP Cars_&_Transportation ORGANIZATION
0.5 2:0 3:8 4:0 5:0 7:1 73:1 1542:1 # 20140625095108AAhxBZ2 Laurence NNP Arts_&_Humanities PERSON
0.5 2:0 3:8 4:0 5:0 7:1 73:1 11091:1 # 20140616143448AAdU6Ze Mcdonald NNP Dining_Out ORGANIZATION
0.5 2:0 3:8 4:0 5:0 7:1 73:1 4690:1 # 20140626142532AAHm2Mx Canadian NNP Pets ORGANIZATION
-0.5 2:0 3:9 4:0 5:0 7:1 73:1 4400:1 # 20140623005211AAQ4eOc Australia NNP Local_Businesses TOKEN
-0.5 2:0 3:9 4:0 5:0 7:1 73:1 3578:1 # 20140611153520AAksgjY Microsoft NNP Computer_&_Internet TOKEN
-0.33923070265652377486276236595586 2:0 3:9 4:0 5:0 7:1 73:1 3852:1 # 20140611192542AADRqhK Instagram NNP Yahoo!_Products TOKEN
0.5 2:0 3:7 4:0 5:1 7:0 8:1 3646:1 # 20140615060824AA0aRHm youtube NN Computer_&_Internet ORGANIZATION
0.5 2:0 3:7 4:0 5:1 7:0 8:1 13566:1 # 20140622053126AAxcj34 lindsay NN Family_&_Relationships PERSON
0.5 2:0 3:7 4:0 5:1 7:0 8:1 2520:1 # 20140626223207AABdv8w khalifa NN Business_&_Finance PERSON
-0.049371695578880103738583784434013 2:1 3:7 4:0 5:0 7:1 123:1 5614:1 # 20140605111442AA4wyqx Answers VBZ Science_&_Mathematics TOKEN
-0.26239908075413692634114681823121 2:0 3:9 4:0 5:0 7:1 73:1 3578:1 # 20140626130807AAvZf6J Microsoft NNP Computer_&_Internet TOKEN
0.5 2:1 3:9 4:0 5:0 7:1 73:1 10548:1 # 20140608182325AAmvy1Q Illionois NNP Cars_&_Transportation LOCATION
0.5 2:1 3:5 4:0 5:1 7:0 123:1 2184:1 # 20140615091428AA1nGW3 falls VBZ Local_Businesses LOCATION
0.5 2:0 3:8 4:0 5:0 7:1 73:1 11385:1 # 20140616143448AAdU6Ze Wingstop NNP Dining_Out ORGANIZATION
0.5 2:0 3:8 4:0 5:0 7:1 73:1 3930:1 # 20140603005221AAThPnj Motolora NNP Consumer_Electronics ORGANIZATION
-0.5 2:0 3:6 4:0 5:0 7:1 73:1 3931:1 # 20140613030213AAZi4zH Google NNP Travel TOKEN
-0.5 2:0 3:8 4:0 5:0 7:1 73:1 4280:1 # 20140609221937AAH7tge Columbia NNP Travel TOKEN
0.5 2:1 3:2 4:1 5:0 7:0 16:1 2475:1 # 20140619105821AAuioIb US PRP Education_&_Reference LOCATION
0.5 2:0 3:9 4:0 5:0 7:0 26:1 19499:1 # 20140609172302AAjgqUA non-Yahoo JJ Yahoo!_Products ORGANIZATION
0.5 2:0 3:7 4:0 5:1 7:0 8:1 12137:1 # 20140623173753AAUMZe3 iceland NN Food_&_Drink LOCATION
0.5 2:0 3:7 4:0 5:1 7:0 8:1 5584:1 # 20140605040256AAru12G romance NN Entertainment_&_Music PERSON
0.5 2:0 3:7 4:0 5:1 7:0 8:1 11079:1 # 20140616143448AAdU6Ze chicken NN Dining_Out ORGANIZATION
0.5 2:0 3:7 4:0 5:1 7:0 8:1 18308:1 # 20140622230045AAAI6WE zealand NN Travel LOCATION
0.5 2:0 3:7 4:0 5:1 7:0 8:1 3810:1 # 20140603131218AA1t3hP mission NN Local_Businesses LOCATION
-0.4976751691672562927237777330447 2:0 3:3 4:0 5:0 7:1 24:1 830:1 # 20140613025817AAIhYP8 All DT Games_&_Recreation TOKEN
0.5 2:0 3:7 4:0 5:1 7:0 8:1 7797:1 # 20140605081144AAuazx4 michael NN Science_&_Mathematics PERSON
-0.5 2:1 3:9 4:0 5:0 7:1 73:1 10548:1 # 20140608182325AAmvy1Q Illionois NNP Cars_&_Transportation TOKEN
-0.5 2:1 3:7 4:0 5:0 7:1 123:1 5614:1 # 20140605111442AA4wyqx Answers VBZ Science_&_Mathematics TOKEN
0.5 2:0 3:6 4:0 5:1 7:0 8:1 15149:1 # 20140626101740AADAK0e obongo NN Politics_&_Government PERSON
0.5 2:0 3:6 4:0 5:1 7:0 8:1 18077:1 # 20140615020333AAAIUUW disney NN Travel ORGANIZATION
0.5 2:0 3:6 4:0 5:1 7:0 8:1 7190:1 # 20140615220821AAG2puS amazon NN Games_&_Recreation ORGANIZATION
0.5 2:0 3:6 4:0 5:1 7:0 8:1 12812:1 # 20140610174552AAptb2t lsland NN Local_Businesses LOCATION
-0.5 2:0 3:10 4:0 5:0 7:1 73:1 10644:1 # 20140625110415AAjpx1n Washington NNP Cars_&_Transportation TOKEN
0.5 2:0 3:8 4:0 5:0 7:1 73:1 12818:1 # 20140610174552AAptb2t Edgewood NNP Local_Businesses LOCATION
0.5 2:0 3:8 4:0 5:0 7:1 73:1 1476:1 # 20140605223141AA4aNVu Bradford NNP Arts_&_Humanities PERSON
0.5 2:0 3:8 4:0 5:0 7:1 73:1 14247:1 # 20140609053527AAHPrln Woodward NNP News_&_Events PERSON
-0.5 2:0 3:6 4:0 5:0 7:1 73:1 3931:1 # 20140613030213AAZi4zH Google NNP Travel TOKEN
0.5 2:0 3:2 4:0 5:0 7:1 30:1 2509:1 # 20140605040256AAru12G At IN Entertainment_&_Music PERSON
0.5 2:0 3:8 4:0 5:0 7:1 73:1 1472:1 # 20140605223141AA4aNVu Blackman NNP Arts_&_Humanities PERSON
-0.42396542315202634387816260641557 2:0 3:9 4:0 5:0 7:1 73:1 3852:1 # 20140605200512AAK0eW7 Instagram NNP Family_&_Relationships TOKEN
0.5 2:0 3:6 4:0 5:1 7:0 8:1 9335:1 # 20140609172302AAjgqUA canada NN Yahoo!_Products LOCATION
0.5 2:0 3:6 4:0 5:1 7:0 8:1 8740:1 # 20140612145554AAjlhJX europe NN Beauty_&_Style LOCATION
0.5 2:0 3:6 4:0 5:1 7:0 8:1 2071:1 # 20140625193136AAUePpR stoker NN Arts_&_Humanities PERSON
0.5 2:1 3:9 4:0 5:0 7:0 73:1 7069:1 # 20140613111207AAD5YgE McDonalds NNP Dining_Out ORGANIZATION
0.5 2:0 3:3 4:0 5:1 7:0 8:1 14450:1 # 20140617191218AAiEBHA fox NN News_&_Events ORGANIZATION
0.5 2:0 3:7 4:0 5:0 7:1 73:1 11317:1 # 20140616143448AAdU6Ze Chicken NNP Dining_Out ORGANIZATION
0.5 2:0 3:5 4:0 5:1 7:0 8:1 7374:1 # 20140623012422AAMYwQO yahoo NN Yahoo!_Products ORGANIZATION
-0.012330813712258525960407951060915 2:0 3:11 4:0 5:1 7:0 8:1 9380:1 # 20140614220006AA90c02 importation NN Sports TOKEN
-0.21628668161218600474171580572147 2:1 3:5 4:0 5:0 7:1 73:1 5346:1 # 20140613124917AAp8Kiq Skins NNP Entertainment_&_Music TOKEN
0.5 2:0 3:8 4:0 5:0 7:1 73:1 13945:1 # 20140626120744AAMAD0e Vladimir NNP News_&_Events PERSON
0.5 2:0 3:7 4:0 5:0 7:1 73:1 3851:1 # 20140626112013AAPPVIB Twitter NNP Consumer_Electronics ORGANIZATION
0.5 2:0 3:8 4:0 5:0 7:1 73:1 5629:1 # 20140619132551AAMKLtQ Strawman NNP Entertainment_&_Music LOCATION
0.5 2:0 3:3 4:0 5:1 7:0 32:1 33:1 # 20140610083106AA7AAUT and CC Dining_Out ORGANIZATION
0.5 2:0 3:7 4:0 5:0 7:1 73:1 802:1 # 20140605223141AA4aNVu Johnson NNP Arts_&_Humanities PERSON
0.5 2:0 3:7 4:0 5:0 7:1 73:1 15470:1 # 20140617193722AA5emAo Sheldon NNP Politics_&_Government PERSON
0.5 2:0 3:7 4:0 5:0 7:1 73:1 1885:1 # 20140605091638AATCTbo Macbeth NNP Arts_&_Humanities PERSON
0.5 2:0 3:7 4:0 5:0 7:1 73:1 14390:1 # 20140626101740AADAK0e Baghdad NNP Politics_&_Government LOCATION
0.5 2:0 3:3 4:0 5:1 7:0 26:1 31:1 # 20140622230045AAAI6WE new JJ Travel LOCATION
0.5 2:0 3:7 4:0 5:0 7:1 73:1 10935:1 # 20140603235141AAdqnjl Hyundai NNP Cars_&_Transportation ORGANIZATION
0.5 2:0 3:7 4:0 5:0 7:1 73:1 11236:1 # 20140609103954AAB6LY5 Chicago NNP News_&_Events LOCATION
0.5 2:0 3:7 4:0 5:0 7:1 73:1 5367:1 # 20140621194648AAv7Pxb Hiroshi NNP Entertainment_&_Music PERSON
0.5 2:0 3:7 4:0 5:0 7:1 73:1 9493:1 # 20140618123245AAiwouS Uruguay NNP Sports LOCATION
-0.26218322532760968135434609393997 2:0 3:9 4:0 5:0 7:1 73:1 18046:1 # 20140617213812AAnm3nS Universal NNP Travel TOKEN
-0.26562080371129681566344515886158 2:0 3:5 4:0 5:0 7:1 73:1 11654:1 # 20140622183237AAlmEtx Order NNP Dining_Out TOKEN
-0.26557755432142382545634973212145 2:0 3:5 4:0 5:0 7:1 73:1 11361:1 # 20140618202204AAODcVd Pizza NNP Food_&_Drink TOKEN
-0.0037670546836303525628508737099764 2:0 3:5 4:1 5:0 7:0 73:1 8110:1 # 20140620170402AA0uGdu NEVER NNP Pregnancy_&_Parenting TOKEN
0.5 2:0 3:7 4:0 5:0 7:1 73:1 13743:1 # 20140625082631AAcgyMl Hillary NNP Politics_&_Government PERSON
0.5 2:0 3:7 4:0 5:0 7:1 73:1 13738:1 # 20140605150717AAmRFk6 Supreme NNP News_&_Events ORGANIZATION
0.5 2:0 3:7 4:0 5:0 7:1 73:1 13139:1 # 20140603131218AA1t3hP Mission NNP Local_Businesses LOCATION
0.5 2:0 3:7 4:0 5:0 7:1 73:1 9257:1 # 20140617195809AA0PD6g Ronaldo NNP Sports PERSON
-0.5 2:1 3:7 4:0 5:0 7:1 123:1 5614:1 # 20140605111442AA4wyqx Answers VBZ Science_&_Mathematics TOKEN
0.5 2:0 3:7 4:0 5:0 7:1 73:1 4315:1 # 20140604083714AANM1Br Clemson NNP Education_&_Reference LOCATION
0.5 2:0 3:7 4:0 5:0 7:1 73:1 19286:1 # 20140611150705AAPCzDc Beatrix NNP Pregnancy_&_Parenting PERSON
0.5 2:0 3:7 4:0 5:0 7:1 73:1 5403:1 # 20140620190356AAdnQme Luciano NNP Entertainment_&_Music PERSON
0.5 2:0 3:7 4:0 5:0 7:1 73:1 15794:1 # 20140605183929AAMoGA3 Trudeau NNP Politics_&_Government PERSON
0.5 2:0 3:7 4:0 5:0 7:1 73:1 12416:1 # 20140605150717AAmRFk6 Michael NNP News_&_Events PERSON
0.5 2:0 3:7 4:0 5:0 7:1 73:1 2161:1 # 20140609160711AAprF2f Swanson NNP Arts_&_Humanities PERSON
0.5 2:0 3:7 4:0 5:0 7:1 73:1 9492:1 # 20140618123245AAiwouS England NNP Sports LOCATION
0.5 2:1 3:9 4:0 5:0 7:1 73:1 10548:1 # 20140608182325AAmvy1Q Illionois NNP Cars_&_Transportation LOCATION
-0.26282107042670110885751455498394 2:0 3:8 4:0 5:0 7:1 73:1 4280:1 # 20140609221937AAH7tge Columbia NNP Travel TOKEN
0.5 2:0 3:7 4:0 5:0 7:1 73:1 2054:1 # 20140625193136AAUePpR Richard NNP Arts_&_Humanities PERSON
0.5 2:0 3:7 4:0 5:0 7:1 73:1 14380:1 # 20140613180332AA3jCxr Wahhabi NNP News_&_Events LOCATION
0.5 2:0 3:7 4:0 5:0 7:1 73:1 18377:1 # 20140617134810AAX61tb Dunedin NNP Travel LOCATION
0.5 2:0 3:7 4:0 5:0 7:1 73:1 15421:1 # 20140617213812AAnm3nS Kingdom NNP Travel ORGANIZATION
-0.015164497724631485764401617188923 2:0 3:5 4:0 5:1 7:0 8:1 3384:1 # 20140621104938AAA4IC5 mouse NN Business_&_Finance TOKEN
0.5 2:0 3:7 4:0 5:0 7:1 73:1 11588:1 # 20140605102530AA17S7s Garland NNP Dining_Out PERSON
0.5 2:0 3:7 4:0 5:0 7:1 73:1 5433:1 # 20140606075218AAmnm1s Eastern NNP Entertainment_&_Music LOCATION
0.5 2:0 3:7 4:0 5:0 7:1 73:1 4392:1 # 20140619105821AAuioIb Alabama NNP Education_&_Reference ORGANIZATION
0.5 2:0 3:7 4:0 5:0 7:1 73:1 2727:1 # 20140621155455AA5YRJ2 Charlie NNP Business_&_Finance PERSON
-0.21717294204919568301193066872656 2:1 3:5 4:0 5:0 7:1 73:1 8360:1 # 20140605160251AAlylUY Going NNP Beauty_&_Style TOKEN
0.5 2:0 3:7 4:0 5:0 7:1 73:1 9562:1 # 20140615224306AASdmOX Antonio NNP Sports PERSON
0.5 2:0 3:7 4:0 5:0 7:1 73:1 19122:1 # 20140601002604AAq45X7 Braxton NNP Pregnancy_&_Parenting PERSON
0.5 2:0 3:7 4:0 5:0 7:1 73:1 5576:1 # 20140618141409AA9yzif Wagoner NNP Entertainment_&_Music PERSON
0.5 2:0 3:7 4:0 5:0 7:1 73:1 3765:1 # 20140605225754AA2LJWC Comcast NNP Consumer_Electronics ORGANIZATION
0.5 2:0 3:7 4:0 5:0 7:1 73:1 13744:1 # 20140625082631AAcgyMl Clinton NNP Politics_&_Government PERSON
0.5 2:0 3:7 4:0 5:0 7:1 73:1 10890:1 # 20140617092003AATWcQC Houston NNP Cars_&_Transportation LOCATION
0.5 2:0 3:7 4:0 5:0 7:1 73:1 18040:1 # 20140617213812AAnm3nS Orlando NNP Travel LOCATION
0.5 2:0 3:7 4:0 5:0 7:1 73:1 5194:1 # 20140614004826AAWj9IB Vietnam NNP Entertainment_&_Music LOCATION
0.5 2:0 3:7 4:0 5:0 7:1 73:1 14423:1 # 20140603004555AAv1K5X Journal NNP Politics_&_Government ORGANIZATION
0.5 2:0 3:7 4:0 5:0 7:1 73:1 5371:1 # 20140621194648AAv7Pxb Orihara NNP Entertainment_&_Music PERSON
0.5 2:0 3:7 4:0 5:0 7:1 73:1 11360:1 # 20140616143448AAdU6Ze Station NNP Dining_Out ORGANIZATION
0.5 2:0 3:7 4:0 5:0 7:1 73:1 4118:1 # 20140611153858AAK05v1 Walmart NNP Sports ORGANIZATION
0.5 2:0 3:7 4:0 5:0 7:1 73:1 15159:1 # 20140610123048AAZOuhW Taliban NNP Politics_&_Government ORGANIZATION
0.5 2:0 3:7 4:0 5:0 7:1 73:1 266:1 # 20140608034752AAWHbyf Grayson NNP Arts_&_Humanities PERSON
0.5 2:0 3:7 4:0 5:0 7:1 73:1 18939:1 # 20140611001634AAefV9p Brynlee NNP Pregnancy_&_Parenting PERSON
0.5 2:0 3:7 4:0 5:0 7:1 73:1 5430:1 # 20140613180332AA3jCxr America NNP News_&_Events ORGANIZATION
-0.15697462135883544220860130735673 2:1 3:5 4:0 5:0 7:1 73:1 10885:1 # 20140614231842AApn3VH Rules NNP Cars_&_Transportation TOKEN
0.5 2:0 3:7 4:0 5:0 7:1 73:1 13657:1 # 20140610222206AAaaj3T Alberta NNP News_&_Events LOCATION
0.5 2:0 3:7 4:0 5:0 7:1 73:1 4178:1 # 20140607141649AANF6Tv Holzman NNP Consumer_Electronics PERSON
-0.21723965392501476401321269804612 2:1 3:5 4:0 5:0 7:1 73:1 10634:1 # 20140612075124AA6dIcl Towed NNP Cars_&_Transportation TOKEN
0.5 2:0 3:7 4:0 5:0 7:1 73:1 4305:1 # 20140604083714AANM1Br Boulder NNP Education_&_Reference LOCATION
0.5 2:0 3:7 4:0 5:0 7:1 73:1 11649:1 # 20140604112329AAS36PD Safeway NNP Dining_Out ORGANIZATION
0.5 2:0 3:7 4:0 5:0 7:1 73:1 10824:1 # 20140617213812AAnm3nS Florida NNP Travel LOCATION
0.5 2:0 3:7 4:0 5:0 7:1 73:1 7018:1 # 20140613182418AAAZN2I Swagger NNP Sports PERSON
0.5 2:0 3:7 4:0 5:0 7:1 73:1 1870:1 # 20140616143448AAdU6Ze Express NNP Dining_Out ORGANIZATION
0.5 2:0 3:7 4:0 5:0 7:1 73:1 5670:1 # 20140606075218AAmnm1s Ukraine NNP Entertainment_&_Music LOCATION
0.5 2:0 3:7 4:0 5:0 7:1 73:1 15573:1 # 20140603004555AAv1K5X Ballmer NNP Politics_&_Government PERSON
0.5 2:0 3:7 4:0 5:0 7:1 73:1 3570:1 # 20140614134845AAVhWeg Samsung NNP Consumer_Electronics ORGANIZATION
0.5 2:0 3:7 4:0 5:0 7:1 73:1 13797:1 # 20140609103954AAB6LY5 Britain NNP News_&_Events LOCATION
-0.5 2:1 3:3 4:1 5:0 7:0 73:1 15277:1 # 20140617193722AA5emAo IRS NNP Politics_&_Government TOKEN
-0.5 2:0 3:3 4:0 5:1 7:0 25:1 73:1 # 20140609122525AAYu0rC the NNP Travel TOKEN
-0.5 2:0 3:3 4:0 5:1 7:0 32:1 73:1 # 20140617164024AABuVO8 and NNP Food_&_Drink TOKEN
0.5 2:1 3:6 4:0 5:0 7:1 61:1 9343:1 # 20140616154757AA3uubn Forces NNPS News_&_Events ORGANIZATION
0.5 2:1 3:6 4:0 5:0 7:1 61:1 12443:1 # 20140610174552AAptb2t States NNPS Local_Businesses LOCATION
-0.26564311936409090719735104357824 2:0 3:5 4:0 5:0 7:1 73:1 18096:1 # 20140608151316AAZv17m Paris NNP Travel TOKEN
-0.26540465906182841848703901632689 2:0 3:5 4:0 5:0 7:1 73:1 714:1 # 20140606112307AAHpG1a Potta NNP Arts_&_Humanities TOKEN
-0.49995447636437351235372261726297 2:0 3:2 4:0 5:0 7:1 30:1 2509:1 # 20140625175128AAldtwC At IN Food_&_Drink TOKEN
0.5 2:0 3:4 4:0 5:1 7:0 88:1 15152:1 # 20140612200636AAqMBhQ york VB Politics_&_Government LOCATION
-0.039910851975585304174387601960916 2:0 3:3 4:0 5:1 7:0 33:1 224:1 # 20140611031137AAH7s7n but CC Family_&_Relationships TOKEN
-0.49792731685198177160600607749075 2:0 3:4 4:0 5:1 7:0 8:1 3365:1 # 20140605231104AAm8fzJ ebay NN Politics_&_Government TOKEN
0.5 2:1 3:7 4:0 5:0 7:1 123:1 5614:1 # 20140620213457AAI59UA Answers VBZ Computer_&_Internet ORGANIZATION
0.5 2:0 3:6 4:0 5:0 7:1 73:1 3931:1 # 20140609091235AAxdu3y Google NNP Consumer_Electronics ORGANIZATION
-0.5 2:0 3:7 4:0 5:0 7:1 73:1 13797:1 # 20140608120927AA1JZcv Britain NNP Travel TOKEN
-0.5 2:0 3:8 4:0 5:0 7:1 73:1 4690:1 # 20140617152905AAraW4N Canadian NNP Education_&_Reference TOKEN
0.5 2:0 3:9 4:0 5:1 7:0 88:1 1266:1 # 20140610075021AAwlDsA hollywood VB Dining_Out LOCATION
0.5 2:0 3:4 4:0 5:0 7:1 88:1 5589:1 # 20140605040256AAru12G Kill VB Entertainment_&_Music PERSON
0.5 2:0 3:8 4:0 5:0 7:1 73:1 4280:1 # 20140610222206AAaaj3T Columbia NNP News_&_Events LOCATION
-0.41300101647209219724032891463139 2:0 3:3 4:0 5:0 7:0 204:1 2700:1 # 20140611231438AAUamVg 1#2 CD Pets TOKEN
-0.016738755041075137341977097094059 2:0 3:4 4:0 5:1 7:0 8:1 5821:1 # 20140614164536AAHVllV duck NN Food_&_Drink TOKEN
-0.5 2:0 3:8 4:0 5:1 7:0 26:1 7068:1 # 20140603215034AABtnxF american JJ Dining_Out TOKEN
0.5 2:0 3:6 4:0 5:0 7:1 73:1 3931:1 # 20140608232829AAA2063 Google NNP Home_&_Garden ORGANIZATION
-0.05366348987237271744854538724212 2:1 3:2 4:1 5:0 7:0 73:1 9229:1 # 20140615215502AAWIjLB SS NNP Local_Businesses TOKEN
-0.14919871853227950619924513375736 2:0 3:3 4:0 5:0 7:0 73:1 13249:1 # 20140616141615AA44wGc Mr. NNP Family_&_Relationships TOKEN
-0.26551588447744123300253704655915 2:0 3:5 4:0 5:0 7:1 73:1 18880:1 # 20140626111642AAP80Gv Troye NNP Computer_&_Internet TOKEN
0.5 2:0 3:10 4:1 5:0 7:0 73:1 3568:1 # 20140614134845AAVhWeg CYBERPOWER NNP Consumer_Electronics ORGANIZATION
-0.5 2:0 3:8 4:0 5:1 7:0 8:1 5583:1 # 20140622085925AAdFLbE chemical NN Science_&_Mathematics TOKEN
0.5 2:1 3:6 4:0 5:0 7:1 61:1 15074:1 # 20140617015321AAEmy38 Masons NNPS Politics_&_Government PERSON
-0.17606995982539563883051414450165 2:0 3:2 4:0 5:1 7:0 73:1 188:1 # 20140620213457AAI59UA if NNP Computer_&_Internet TOKEN
-0.264522048366635953442482787068 2:0 3:5 4:0 5:0 7:1 73:1 11054:1 # 20140610172137AA9hoaq Sugar NNP Dining_Out TOKEN
-0.5 2:1 3:6 4:0 5:0 7:1 61:1 9343:1 # 20140614220006AA90c02 Forces NNPS Sports TOKEN
-0.016704793317183330714215117041022 2:0 3:4 4:0 5:1 7:0 8:1 145:1 # 20140618003957AA2mrn7 lube NN Arts_&_Humanities TOKEN
-0.050106305358391500792691886090324 2:1 3:5 4:0 5:0 7:1 123:1 3486:1 # 20140625230035AAgGhX2 Looks VBZ Consumer_Electronics TOKEN
-0.015101240395063442178980039898306 2:0 3:6 4:0 5:1 7:0 8:1 10377:1 # 20140622170617AATlgRE engine NN Cars_&_Transportation TOKEN
-0.0077507217691467622522338842827594 2:0 3:20 4:0 5:1 7:0 8:1 5920:1 # 20140604090916AAD5Lml mentally#emotionally NN Health TOKEN
0.5 2:1 3:6 4:0 5:0 7:1 73:1 4508:1 # 20140618125641AAGkGpi Isaacs NNP Education_&_Reference PERSON
0.5 2:1 3:6 4:0 5:0 7:1 73:1 11049:1 # 20140610083106AA7AAUT Steaks NNP Dining_Out ORGANIZATION
0.5 2:1 3:6 4:0 5:0 7:1 73:1 4481:1 # 20140618125641AAGkGpi Hughes NNP Education_&_Reference PERSON
0.5 2:0 3:3 4:0 5:1 7:0 32:1 33:1 # 20140610083106AA7AAUT and CC Dining_Out ORGANIZATION
-0.14250479226484458195045590400696 2:0 3:64 4:0 5:1 7:0 73:1 7718:1 # 20140618201815AAmO6f1 http:##www.nysedregents.org#earthscience#114#esci12014-examw.pdf NNP Science_&_Mathematics TOKEN
-0.012998376632737063118838705122471 2:0 3:11 4:0 5:1 7:0 8:1 13239:1 # 20140616141615AA44wGc polyamorous NN Family_&_Relationships TOKEN
-0.5 2:0 3:5 4:0 5:0 7:1 88:1 8800:1 # 20140613125219AA2D0JF Leave VB Beauty_&_Style TOKEN
0.5 2:0 3:7 4:0 5:1 7:0 8:1 5072:1 # 20140616190348AA6nheU walmart NN Dining_Out ORGANIZATION
-0.021198043928311705030864686705172 2:0 3:3 4:0 5:1 7:0 8:1 2189:1 # 20140620141720AAh6NZ6 boy NN Pets TOKEN
-0.5 2:0 3:9 4:0 5:1 7:0 8:1 10238:1 # 20140610052940AAbhAwt sociopath NN Social_Science TOKEN
-0.0061085488386852793141201800608542 2:0 3:9 4:0 5:1 7:0 8:1 15633:1 # 20140617203723AAnMv8x arrogance NN Politics_&_Government TOKEN
-0.059259823625431383431472198708434 2:0 3:1 4:1 5:0 7:1 8:1 8037:1 # 20140605031016AAsN8GR E NN Science_&_Mathematics TOKEN
-0.059259823625410372460731167620906 2:0 3:1 4:1 5:0 7:1 8:1 7987:1 # 20140615171734AAd4Cuo Q NN Yahoo!_Products TOKEN
-0.26338693017454267719656968438358 2:0 3:7 4:0 5:0 7:1 73:1 1870:1 # 20140622085925AAdFLbE Express NNP Science_&_Mathematics TOKEN
-0.5 2:0 3:3 4:0 5:1 7:0 8:1 4854:1 # 20140617203723AAnMv8x usa NN Politics_&_Government TOKEN
-0.49609556364843232501016245805658 2:0 3:3 4:0 5:1 7:0 8:1 2189:1 # 20140607064609AA5EKx9 boy NN Pregnancy_&_Parenting TOKEN
0.5 2:0 3:8 4:0 5:0 7:1 73:1 4068:1 # 20140606193910AApjpvz Bethesda NNP Consumer_Electronics PERSON
-0.5 2:1 3:7 4:0 5:0 7:1 123:1 5614:1 # 20140615171734AAd4Cuo Answers VBZ Yahoo!_Products TOKEN
-0.5 2:0 3:7 4:0 5:0 7:1 73:1 9562:1 # 20140617213812AAnm3nS Antonio NNP Travel TOKEN
-0.5 2:0 3:7 4:0 5:0 7:1 73:1 4275:1 # 20140609221937AAH7tge College NNP Travel TOKEN
-0.5 2:0 3:7 4:0 5:0 7:1 73:1 11588:1 # 20140605102530AA17S7s Garland NNP Dining_Out TOKEN
-0.5 2:0 3:7 4:0 5:0 7:1 73:1 10824:1 # 20140616160015AAkjHsB Florida NNP Dining_Out TOKEN
-0.012805332248954304219523692154326 2:0 3:10 4:0 5:1 7:0 8:1 3309:1 # 20140607014708AAKJo8F university NN Pregnancy_&_Parenting TOKEN
-0.5 2:0 3:6 4:0 5:1 7:0 8:1 1441:1 # 20140604115540AAQrGu2 google NN Travel TOKEN
-0.14985778907367830470320768654346 2:0 3:2 4:0 5:0 7:0 73:1 4211:1 # 20140613123024AAkX1Tt 18 NNP Education_&_Reference TOKEN
-0.15077465073223933478274716435408 2:0 3:2 4:0 5:0 7:0 73:1 897:1 # 20140613123024AAkX1Tt !! NNP Education_&_Reference TOKEN
0.5 2:1 3:6 4:0 5:0 7:1 73:1 4481:1 # 20140618125641AAGkGpi Hughes NNP Education_&_Reference PERSON
0.5 2:0 3:6 4:0 5:0 7:1 73:1 3931:1 # 20140612211617AAE6Bis Google NNP News_&_Events ORGANIZATION
-0.05925982362540903325420771352583 2:0 3:1 4:1 5:0 7:1 8:1 8038:1 # 20140605031016AAsN8GR F NN Science_&_Mathematics TOKEN
-0.26519449779229486985343555716099 2:0 3:5 4:0 5:0 7:1 73:1 10107:1 # 20140617102648AARlmNg Honey NNP Pregnancy_&_Parenting TOKEN
0.5 2:0 3:8 4:0 5:0 7:1 73:1 5593:1 # 20140605040256AAru12G Benjamin NNP Entertainment_&_Music PERSON
-0.5 2:0 3:7 4:0 5:0 7:1 73:1 7018:1 # 20140613182418AAAZN2I Swagger NNP Sports TOKEN
-0.01342536160147404095122070089019 2:0 3:8 4:0 5:1 7:0 8:1 2009:1 # 20140605044942AAisLvo original NN Travel TOKEN
0.5 2:0 3:8 4:0 5:0 7:1 73:1 15786:1 # 20140611151627AAmAEbQ Gingrich NNP Politics_&_Government PERSON
-0.26341863630556267006355142257235 2:0 3:7 4:0 5:0 7:1 73:1 5433:1 # 20140620190356AAdnQme Eastern NNP Entertainment_&_Music TOKEN
-0.5 2:0 3:7 4:0 5:0 7:1 73:1 5430:1 # 20140610112505AAhGjYL America NNP Dining_Out TOKEN
-0.2644692996361536208027587235847 2:0 3:5 4:0 5:0 7:1 73:1 1718:1 # 20140603020037AAlyzyA Human NNP Travel TOKEN
-0.26560705274749452087235113140196 2:0 3:5 4:0 5:0 7:1 73:1 619:1 # 20140608155422AAGg2Wt March NNP Pregnancy_&_Parenting TOKEN
-0.26560705274801676978313480503857 2:0 3:5 4:0 5:0 7:1 73:1 10000:1 # 20140620214550AA74tKP Music NNP News_&_Events TOKEN
-0.5 2:0 3:6 4:0 5:1 7:0 8:1 9335:1 # 20140614220006AA90c02 canada NN Sports TOKEN
-0.5 2:0 3:10 4:0 5:1 7:0 8:1 3309:1 # 20140623125518AAtlQpd university NN Dining_Out TOKEN
-0.26548517734821075464424211531878 2:0 3:5 4:0 5:0 7:1 73:1 10786:1 # 20140621111444AACBO2L Valve NNP Cars_&_Transportation TOKEN
-0.26548991040044001010755891911685 2:0 3:5 4:0 5:0 7:1 73:1 14529:1 # 20140617145448AAyyT2q Kitty NNP Pets TOKEN
-0.26381412488484379252895450918004 2:0 3:5 4:0 5:0 7:1 73:1 8185:1 # 20140625120602AAXWOm0 River NNP Science_&_Mathematics TOKEN
-0.26553794456650969824096364391153 2:0 3:5 4:0 5:0 7:1 73:1 3533:1 # 20140614134845AAVhWeg Power NNP Consumer_Electronics TOKEN
-0.26534923222948592069769802037627 2:0 3:5 4:0 5:0 7:1 73:1 5755:1 # 20140605140138AAyDVJY Means NNP Entertainment_&_Music TOKEN
-0.49959885414962823535489633286488 2:0 3:3 4:0 5:1 7:0 26:1 31:1 # 20140621092416AArsE0s new JJ Social_Science TOKEN
-0.5 2:1 3:6 4:0 5:0 7:1 61:1 9343:1 # 20140614220006AA90c02 Forces NNPS Sports TOKEN
-0.5 2:0 3:7 4:0 5:0 7:1 73:1 18939:1 # 20140611001634AAefV9p Brynlee NNP Pregnancy_&_Parenting TOKEN
-0.5 2:0 3:7 4:0 5:0 7:1 73:1 14423:1 # 20140625210906AATgayM Journal NNP News_&_Events TOKEN
-0.26555290664605468720083081279881 2:0 3:5 4:0 5:0 7:1 73:1 4029:1 # 20140610144517AADMFHa Alert NNP Consumer_Electronics TOKEN
-0.5 2:0 3:4 4:0 5:1 7:0 8:1 3365:1 # 20140605231104AAm8fzJ ebay NN Politics_&_Government TOKEN
-0.14198785436831937167845296698943 2:0 3:10 4:0 5:0 7:1 73:1 4086:1 # 20140606193910AApjpvz Daggerfall NNP Consumer_Electronics TOKEN
-0.16387307053958011238137260079384 2:0 3:24 4:0 5:1 7:0 73:1 12798:1 # 20140609111240AAvCNqw http:##www.eteenjobs.com NNP Local_Businesses TOKEN
-0.2654851773483679622245290374849 2:0 3:5 4:0 5:0 7:1 73:1 7731:1 # 20140622012837AAm8vHm Earth NNP Social_Science TOKEN
-0.26564372989744633457576128421351 2:0 3:5 4:0 5:0 7:1 73:1 3280:1 # 20140620021441AAIMW14 Hotel NNP Games_&_Recreation TOKEN
-0.2655094084600883030944373786042 2:0 3:5 4:0 5:0 7:1 73:1 19541:1 # 20140625072412AAUASEG Color NNP Yahoo!_Products TOKEN
-0.26550940846009546403294621086388 2:0 3:5 4:0 5:0 7:1 73:1 4591:1 # 20140608090153AAQx192 Solve NNP Education_&_Reference TOKEN
-0.26557267610602508511874475516379 2:0 3:5 4:0 5:0 7:1 73:1 7023:1 # 20140625193758AANDcbj Focus NNP Games_&_Recreation TOKEN
0.5 2:0 3:7 4:0 5:0 7:1 73:1 11588:1 # 20140605102530AA17S7s Garland NNP Dining_Out PERSON
-0.5 2:0 3:5 4:0 5:1 7:0 73:1 172:1 # 20140625140958AAG0wQK &amp; NNP Beauty_&_Style TOKEN
-0.5 2:0 3:3 4:0 5:0 7:1 73:1 5166:1 # 20140617094029AAZ1FwJ May NNP Family_&_Relationships TOKEN
-0.5 2:0 3:7 4:0 5:0 7:1 73:1 5430:1 # 20140617203723AAnMv8x America NNP Politics_&_Government TOKEN
-0.23208850062220420795711106620729 2:0 3:5 4:0 5:1 7:0 40:1 5659:1 # 20140603020037AAlyzyA south RB Travel TOKEN
-0.1627777385833195644693205395015 2:0 3:27 4:0 5:1 7:0 73:1 8458:1 # 20140612022126AAsUT1R http:##www.freeoakleys.com# NNP Beauty_&_Style TOKEN
-0.5 2:0 3:7 4:0 5:0 7:1 73:1 5433:1 # 20140620190356AAdnQme Eastern NNP Entertainment_&_Music TOKEN
-0.5 2:0 3:7 4:0 5:0 7:1 73:1 1870:1 # 20140622085925AAdFLbE Express NNP Science_&_Mathematics TOKEN
-0.26403556883687429035489913076162 2:0 3:8 4:0 5:0 7:1 73:1 11212:1 # 20140616160015AAkjHsB Pembroke NNP Dining_Out TOKEN
-0.26394053152072771695202391128987 2:0 3:8 4:0 5:0 7:1 73:1 9506:1 # 20140615120927AAPeVv5 Buckshot NNP Sports TOKEN
-0.26403556883687073764122033026069 2:0 3:8 4:0 5:0 7:1 73:1 6756:1 # 20140604153959AAylnd6 Holeless NNP Games_&_Recreation TOKEN
-0.26279492413485788793181541223021 2:0 3:8 4:0 5:0 7:1 73:1 7212:1 # 20140613202053AAONeF7 Pinwheel NNP Games_&_Recreation TOKEN
-0.26284567027002331274232460600615 2:0 3:8 4:0 5:0 7:1 73:1 5686:1 # 20140625192132AACp46H Beginner NNP Entertainment_&_Music TOKEN
-0.2628220021569533382255201559019 2:0 3:8 4:0 5:0 7:1 73:1 3604:1 # 20140615210245AAjCZ2q Youtuber NNP Consumer_Electronics TOKEN
-0.26403556883687073764122033026069 2:0 3:8 4:0 5:0 7:1 73:1 4000:1 # 20140609091235AAxdu3y Defender NNP Consumer_Electronics TOKEN
-0.26353221784542490979674767004326 2:0 3:8 4:0 5:0 7:1 73:1 6985:1 # 20140625193758AANDcbj Arcanine NNP Games_&_Recreation TOKEN
-0.26403556883687784306857793126255 2:0 3:8 4:0 5:0 7:1 73:1 5630:1 # 20140619132551AAMKLtQ Festival NNP Entertainment_&_Music TOKEN
-0.26327028526999063373637000040617 2:0 3:8 4:0 5:0 7:1 73:1 4686:1 # 20140610172137AA9hoaq American NNP Dining_Out TOKEN
-0.26400833003899548678816699975869 2:0 3:8 4:0 5:0 7:1 73:1 2734:1 # 20140611201334AAFQLgO Saturday NNP Health TOKEN
0.5 2:0 3:4 4:0 5:1 7:0 88:1 15152:1 # 20140612200636AAqMBhQ york VB Politics_&_Government LOCATION
-0.26282762395020731194250629414455 2:0 3:8 4:0 5:0 7:1 73:1 11114:1 # 20140613111207AAD5YgE Twilight NNP Dining_Out TOKEN
-0.26282904140292462358274860889651 2:0 3:8 4:0 5:0 7:1 73:1 4714:1 # 20140615120927AAPeVv5 Practice NNP Sports TOKEN
-0.26283036511771973309237182547804 2:0 3:8 4:0 5:0 7:1 73:1 4003:1 # 20140612022126AAsUT1R Download NNP Beauty_&_Style TOKEN
-0.26398543039924859954226121772081 2:0 3:8 4:0 5:0 7:1 73:1 5135:1 # 20140619101954AAAy1Zi Snapchat NNP Entertainment_&_Music TOKEN
-0.26398852940320960414055662113242 2:0 3:8 4:0 5:0 7:1 73:1 15485:1 # 20140617193722AA5emAo Congress NNP Politics_&_Government TOKEN
-0.2630454303647022928913656869554 2:0 3:8 4:0 5:0 7:1 73:1 19435:1 # 20140609172302AAjgqUA Subtopic NNP Yahoo!_Products TOKEN
-0.26401733857087350543224602006376 2:0 3:8 4:0 5:0 7:1 73:1 6015:1 # 20140611193450AAklhM2 November NNP Health TOKEN
-0.26384475653751238155564351473004 2:0 3:8 4:0 5:0 7:1 73:1 10365:1 # 20140622170617AATlgRE Autozone NNP Cars_&_Transportation TOKEN
-0.26560705274749096815867233090103 2:0 3:5 4:0 5:0 7:1 73:1 15459:1 # 20140617193722AA5emAo House NNP Politics_&_Government TOKEN
-0.26563097616823583280165621545166 2:0 3:5 4:0 5:0 7:1 73:1 11948:1 # 20140626031053AAyXCcP Sauté NNP Food_&_Drink TOKEN
-0.26545710467957350786605275061447 2:0 3:5 4:0 5:0 7:1 73:1 2543:1 # 20140618024923AAR6gIm Third NNP Science_&_Mathematics TOKEN
-0.2655842823874543512374657439068 2:0 3:5 4:0 5:0 7:1 73:1 6887:1 # 20140620021441AAIMW14 Steve NNP Games_&_Recreation TOKEN
-0.26533126412306273778085596859455 2:0 3:5 4:0 5:0 7:1 73:1 11825:1 # 20140611141719AAUaRNh Avéne NNP Food_&_Drink TOKEN
-0.26542633244537650050176580407424 2:0 3:5 4:0 5:0 7:1 73:1 14104:1 # 20140613180332AA3jCxr Sunni NNP News_&_Events TOKEN
-0.26548517734889021113531271112151 2:0 3:5 4:0 5:0 7:1 73:1 12559:1 # 20140608141931AALElda Reese NNP Home_&_Garden TOKEN
-0.49746890875188576330856449203566 2:0 3:5 4:0 5:0 7:1 73:1 1886:1 # 20140617195809AA0PD6g Maria NNP Sports TOKEN
-0.26555707132459993591311331329052 2:0 3:5 4:0 5:0 7:1 73:1 18527:1 # 20140620213457AAI59UA Cache NNP Computer_&_Internet TOKEN
-0.26560925074815200375155654910486 2:0 3:5 4:0 5:0 7:1 73:1 9104:1 # 20140620105746AAnOLsk Carry NNP Sports TOKEN
-0.26532814430221307588908530306071 2:0 3:5 4:0 5:0 7:1 73:1 3529:1 # 20140614134845AAVhWeg Elite NNP Consumer_Electronics TOKEN
-0.2651588821967862386053127465857 2:0 3:5 4:0 5:0 7:1 73:1 5767:1 # 20140613023120AA7XyZ8 Shrek NNP Entertainment_&_Music TOKEN
-0.26551090754289674578103586100042 2:0 3:5 4:0 5:0 7:1 73:1 18862:1 # 20140608001904AAVKEC5 Cloud NNP Computer_&_Internet TOKEN
-0.26560925074882479890447939396836 2:0 3:5 4:0 5:0 7:1 73:1 1716:1 # 20140609103348AAf8tZ6 Islam NNP News_&_Events TOKEN
-0.26562819122084579959164329920895 2:0 3:5 4:0 5:0 7:1 73:1 19432:1 # 20140605185213AAgsKy3 Topic NNP Yahoo!_Products TOKEN
-0.26563824046159822955814888700843 2:0 3:5 4:0 5:0 7:1 73:1 14872:1 # 20140621125811AAzEWHP Cause NNP Pets TOKEN
-0.26558829397197314392542466521263 2:0 3:5 4:0 5:0 7:1 73:1 5445:1 # 20140605210007AAoMB1b Blood NNP Home_&_Garden TOKEN
-0.26544699043030561824707547202706 2:0 3:5 4:0 5:0 7:1 73:1 13818:1 # 20140616154757AA3uubn Horse NNP News_&_Events TOKEN
-0.26543985039620920929337444249541 2:0 3:5 4:0 5:0 7:1 73:1 19357:1 # 20140608060520AAMzqLw Hover NNP Yahoo!_Products TOKEN
-0.26548394301968336606023513013497 2:0 3:5 4:0 5:0 7:1 73:1 18132:1 # 20140608120927AA1JZcv Japan NNP Travel TOKEN
-0.2656190567191458740126108750701 2:0 3:5 4:0 5:0 7:1 73:1 1706:1 # 20140611185044AABR6jn First NNP Family_&_Relationships TOKEN
-0.49893833883840699172651511617005 2:0 3:5 4:0 5:0 7:1 73:1 3466:1 # 20140625210906AATgayM Round NNP News_&_Events TOKEN
-0.26480591652445728545473002668587 2:0 3:5 4:0 5:0 7:1 73:1 3766:1 # 20140617213812AAnm3nS World NNP Travel TOKEN
-0.26561640535325281575751432683319 2:0 3:5 4:0 5:0 7:1 73:1 14039:1 # 20140601100338AAUfBLz Welsh NNP News_&_Events TOKEN
-0.26545736663198837845811794977635 2:0 3:5 4:0 5:0 7:1 73:1 13729:1 # 20140612075720AAmNq58 Bundy NNP News_&_Events TOKEN
-0.5 2:0 3:5 4:0 5:0 7:1 73:1 3489:1 # 20140603131218AA1t3hP Apple NNP Local_Businesses TOKEN
-0.26549354925385060255393909756094 2:0 3:5 4:0 5:0 7:1 73:1 12906:1 # 20140605190919AAVV44J Abuse NNP Family_&_Relationships TOKEN
-0.2645191414574034616258302321512 2:0 3:5 4:0 5:0 7:1 73:1 11729:1 # 20140620063230AAXLo9n Mardi NNP Food_&_Drink TOKEN
-0.26549831503441900792950036702678 2:0 3:5 4:0 5:0 7:1 73:1 11651:1 # 20140609031322AAZz3r8 Coast NNP Travel TOKEN
-0.26564311936341589159837894840166 2:0 3:5 4:0 5:0 7:1 73:1 11466:1 # 20140620003333AAaN90M Noida NNP Dining_Out TOKEN
-0.26475633413694832363205478031887 2:0 3:5 4:0 5:0 7:1 73:1 4034:1 # 20140617092003AATWcQC Grand NNP Cars_&_Transportation TOKEN
-0.26524521757704633273533545434475 2:0 3:5 4:0 5:0 7:1 73:1 11470:1 # 20140620003333AAaN90M Metro NNP Dining_Out TOKEN
-0.26561640535377861738197680097073 2:0 3:5 4:0 5:0 7:1 73:1 4109:1 # 20140607141649AANF6Tv Tower NNP Consumer_Electronics TOKEN
-0.26548394302014965973057769588195 2:0 3:5 4:0 5:0 7:1 73:1 18160:1 # 20140609031322AAZz3r8 Rural NNP Travel TOKEN
-0.2656382404615946768444700865075 2:0 3:5 4:0 5:0 7:1 73:1 3612:1 # 20140615230550AAzCluq Movie NNP Computer_&_Internet TOKEN
-0.26564372989748896713990689022467 2:0 3:5 4:0 5:0 7:1 73:1 2021:1 # 20140625193136AAUePpR Scary NNP Arts_&_Humanities TOKEN
-0.26542236289916854019566017086618 2:0 3:5 4:0 5:0 7:1 73:1 9354:1 # 20140614220006AA90c02 Rifle NNP Sports TOKEN
-0.26548092680751711469611109350808 2:0 3:5 4:0 5:0 7:1 73:1 5310:1 # 20140622230045AAAI6WE Great NNP Travel TOKEN
-0.26555264534535538700765755493194 2:0 3:5 4:0 5:0 7:1 73:1 5995:1 # 20140603130124AA7UGol Ovary NNP Health TOKEN
0.5 2:0 3:3 4:0 5:0 7:1 73:1 9156:1 # 20140615215028AAGmoaM Gio NNP Sports PERSON
0.5 2:0 3:5 4:0 5:1 7:0 40:1 5659:1 # 20140619063559AA2eks0 south RB Home_&_Garden LOCATION
0.5 2:0 3:3 4:0 5:1 7:0 32:1 33:1 # 20140610083106AA7AAUT and CC Dining_Out ORGANIZATION
0.5 2:0 3:5 4:0 5:0 7:1 88:1 8800:1 # 20140615215028AAGmoaM Leave VB Sports PERSON
0.5 2:0 3:7 4:0 5:0 7:1 73:1 5430:1 # 20140607125905AA2JtXv America NNP Politics_&_Government LOCATION
0.5 2:0 3:5 4:0 5:0 7:1 73:1 1886:1 # 20140605091638AATCTbo Maria NNP Arts_&_Humanities PERSON
0.5 2:0 3:5 4:0 5:0 7:1 73:1 3489:1 # 20140625230035AAgGhX2 Apple NNP Consumer_Electronics ORGANIZATION
-0.49974285641547033787190912335063 2:0 3:3 4:1 5:0 7:0 73:1 4270:1 # 20140604083714AANM1Br UNC NNP Education_&_Reference TOKEN
0.5 2:1 3:9 4:0 5:0 7:1 73:1 8460:1 # 20140612022126AAsUT1R Wayfarers NNP Beauty_&_Style ORGANIZATION
0.5 2:1 3:9 4:0 5:0 7:1 73:1 803:1 # 20140617074422AANUT7h Gottfried NNP Arts_&_Humanities PERSON
0.5 2:0 3:6 4:0 5:1 7:0 8:1 1441:1 # 20140609115257AAXrpdb google NN Cars_&_Transportation ORGANIZATION
0.5 2:0 3:6 4:0 5:1 7:0 8:1 11397:1 # 20140616143448AAdU6Ze popeye NN Dining_Out ORGANIZATION
0.5 2:1 3:3 4:1 5:0 7:0 73:1 15277:1 # 20140625082631AAcgyMl IRS NNP Politics_&_Government ORGANIZATION
0.5 2:1 3:3 4:1 5:0 7:0 73:1 14427:1 # 20140617191218AAiEBHA CBS NNP News_&_Events ORGANIZATION
0.5 2:0 3:3 4:0 5:0 7:1 73:1 9306:1 # 20140626152929AAvb2mt Eck NNP Sports PERSON
0.5 2:0 3:3 4:0 5:0 7:1 73:1 15512:1 # 20140614114159AAxmnir Abu NNP Travel LOCATION
0.5 2:0 3:3 4:0 5:0 7:1 73:1 4312:1 # 20140615224306AASdmOX San NNP Sports PERSON
0.5 2:0 3:5 4:0 5:0 7:1 88:1 8800:1 # 20140615215028AAGmoaM Leave VB Sports PERSON
0.5 2:0 3:5 4:0 5:0 7:1 73:1 3466:1 # 20140616143448AAdU6Ze Round NNP Dining_Out ORGANIZATION
0.5 2:0 3:3 4:0 5:1 7:0 24:1 25:1 # 20140605040256AAru12G the DT Entertainment_&_Music PERSON
0.5 2:0 3:3 4:0 5:1 7:0 30:1 292:1 # 20140605040256AAru12G out IN Entertainment_&_Music PERSON
0.5 2:0 3:3 4:0 5:0 7:1 73:1 769:1 # 20140617074422AANUT7h Poe NNP Arts_&_Humanities PERSON
0.5 2:0 3:3 4:0 5:0 7:1 73:1 9136:1 # 20140601101734AAAYp2K Max NNP Dining_Out ORGANIZATION
0.5 2:0 3:3 4:0 5:0 7:1 73:1 2656:1 # 20140625120602AAXWOm0 New NNP Science_&_Mathematics LOCATION
0.5 2:0 3:5 4:0 5:1 7:0 73:1 172:1 # 20140607125905AA2JtXv &amp; NNP Politics_&_Government ORGANIZATION
0.5 2:0 3:4 4:0 5:1 7:0 73:1 3365:1 # 20140614220309AAJTZNt ebay NNP Computer_&_Internet ORGANIZATION
0.5 2:0 3:2 4:1 5:0 7:0 8:1 5530:1 # 20140617203632AANuG3B DC NN Entertainment_&_Music ORGANIZATION
0.5 2:0 3:3 4:0 5:0 7:1 73:1 12474:1 # 20140605130921AAXKqjH Xtx NNP Home_&_Garden PERSON
0.5 2:0 3:3 4:0 5:0 7:1 73:1 5166:1 # 20140614004826AAWj9IB May NNP Entertainment_&_Music PERSON
0.5 2:0 3:3 4:0 5:0 7:1 73:1 9479:1 # 20140613182418AAAZN2I Zeb NNP Sports PERSON
0.5 2:0 3:3 4:0 5:0 7:1 73:1 11351:1 # 20140616143448AAdU6Ze Moe NNP Dining_Out ORGANIZATION
0.5 2:0 3:3 4:0 5:0 7:1 73:1 11362:1 # 20140616143448AAdU6Ze Hut NNP Dining_Out ORGANIZATION
-0.013052111639932917341866414062679 2:0 3:11 4:0 5:1 7:0 8:1 13914:1 # 20140607104637AASvvKI eurosceptic NN News_&_Events TOKEN
0.5 2:0 3:3 4:0 5:0 7:1 73:1 19261:1 # 20140625072412AAUASEG Hun NNP Yahoo!_Products PERSON
0.5 2:0 3:3 4:0 5:0 7:1 73:1 11343:1 # 20140616143448AAdU6Ze Lee NNP Dining_Out ORGANIZATION
0.5 2:0 3:3 4:0 5:0 7:1 73:1 2148:1 # 20140609160711AAprF2f Kay NNP Arts_&_Humanities PERSON
0.5 2:0 3:3 4:0 5:0 7:1 73:1 5259:1 # 20140614004826AAWj9IB Nim NNP Entertainment_&_Music PERSON
0.5 2:0 3:3 4:0 5:0 7:1 73:1 11351:1 # 20140616143448AAdU6Ze Moe NNP Dining_Out ORGANIZATION
0.5 2:0 3:3 4:0 5:1 7:0 26:1 31:1 # 20140612200636AAqMBhQ new JJ Politics_&_Government LOCATION
-0.5 2:0 3:3 4:0 5:1 7:0 25:1 73:1 # 20140604083714AANM1Br the NNP Education_&_Reference TOKEN
-0.5 2:0 3:3 4:0 5:1 7:0 73:1 292:1 # 20140618125641AAGkGpi out NNP Education_&_Reference TOKEN
0.5 2:0 3:5 4:0 5:0 7:1 88:1 8800:1 # 20140615215028AAGmoaM Leave VB Sports PERSON
0.5 2:0 3:4 4:0 5:0 7:1 88:1 5589:1 # 20140605040256AAru12G Kill VB Entertainment_&_Music PERSON
0.5 2:0 3:5 4:0 5:1 7:0 40:1 5659:1 # 20140619063559AA2eks0 south RB Home_&_Garden LOCATION
-0.26598826361623162384262286650483 2:0 3:4 4:0 5:0 7:1 73:1 8936:1 # 20140606003853AAp4Kid Full NNP Sports TOKEN
-0.5 2:0 3:3 4:0 5:0 7:1 73:1 2656:1 # 20140609221937AAH7tge New NNP Travel TOKEN
-0.14890075673383804111260531044536 2:0 3:4 4:0 5:0 7:0 73:1 254:1 # 20140613154011AAJ98M9 !!!! NNP Politics_&_Government TOKEN
-0.063431675620581634555961159094295 2:0 3:4 4:0 5:0 7:1 88:1 4742:1 # 20140617102632AAPzLAI Meet VB Education_&_Reference TOKEN
-0.5 2:0 3:3 4:0 5:0 7:1 73:1 4312:1 # 20140617213812AAnm3nS San NNP Travel TOKEN
-0.5 2:0 3:3 4:0 5:0 7:1 73:1 9136:1 # 20140625100007AAcadtk Max NNP Politics_&_Government TOKEN
-0.15045410573144835097991744987667 2:0 3:1 4:0 5:0 7:0 73:1 259:1 # 20140614154636AAYu9pP ! NNP Social_Science TOKEN
0.5 2:0 3:5 4:0 5:1 7:0 8:1 15250:1 # 20140605231104AAm8fzJ gucci NN Politics_&_Government ORGANIZATION
0.5 2:0 3:5 4:0 5:1 7:0 8:1 14957:1 # 20140622080843AAfcL4m gomez NN Pets PERSON
-0.213289613810650535707935659957 2:1 3:11 4:0 5:0 7:1 73:1 6626:1 # 20140612080629AAuyjlx Antibiotics NNP Health TOKEN
-0.5 2:0 3:3 4:0 5:0 7:1 73:1 9136:1 # 20140625100007AAcadtk Max NNP Politics_&_Government TOKEN
-0.5 2:0 3:3 4:0 5:0 7:1 73:1 2656:1 # 20140604083714AANM1Br New NNP Education_&_Reference TOKEN
-0.5 2:0 3:3 4:0 5:0 7:1 73:1 5166:1 # 20140620063230AAXLo9n May NNP Food_&_Drink TOKEN
-0.5 2:0 3:6 4:0 5:0 7:1 73:1 4399:1 # 20140607125905AA2JtXv Canada NNP Politics_&_Government TOKEN
-0.0075132905846484465683943199110217 2:0 3:7 4:0 5:1 7:0 8:1 15451:1 # 20140606032555AA8mCFY tribute NN Politics_&_Government TOKEN
-0.001909546854376831248600865365006 2:0 3:9 4:0 5:1 7:0 8:1 14813:1 # 20140601002604AAq45X7 pregnancy NN Pregnancy_&_Parenting TOKEN
-0.21411981514691547090478707104921 2:1 3:11 4:0 5:0 7:1 73:1 4173:1 # 20140626204611AAKagRz Engineering NNP Science_&_Mathematics TOKEN
-0.26657771459890433618511451641098 2:0 3:3 4:0 5:0 7:1 73:1 10378:1 # 20140610052054AAkNfGL Car NNP Cars_&_Transportation TOKEN
-0.26560202371814362054536218238354 2:0 3:3 4:0 5:0 7:1 73:1 12095:1 # 20140614170630AA1o9BQ Law NNP Politics_&_Government TOKEN
-0.051079760014845987381448821906815 2:1 3:7 4:1 5:0 7:0 73:1 12061:1 # 20140626034154AAGjZE1 MARRIED NNP Food_&_Drink TOKEN
-0.016306553530864853485127241583541 2:0 3:7 4:0 5:1 7:0 43:1 18360:1 # 20140622025924AAbvcWQ andhave VBP Travel TOKEN
-0.012919558988424562073760171188042 2:0 3:11 4:0 5:1 7:0 8:1 6773:1 # 20140625035457AAwYqoP possibility NN Games_&_Recreation TOKEN
-0.07705658499131531891102042663988 2:0 3:7 4:1 5:0 7:0 73:1 15005:1 # 20140613154011AAJ98M9 TOTALLY NNP Politics_&_Government TOKEN
-0.21389544915950864378828555345535 2:1 3:11 4:0 5:0 7:1 73:1 15110:1 # 20140617015321AAEmy38 Definitions NNP Politics_&_Government TOKEN
-0.09221768400349716898745100479573 2:0 3:8 4:0 5:0 7:1 26:1 8162:1 # 20140625120602AAXWOm0 Algerian JJ Science_&_Mathematics TOKEN
-0.15045496429942062377449474297464 2:0 3:1 4:0 5:0 7:0 73:1 659:1 # 20140603072418AAgZjcN 5 NNP Science_&_Mathematics TOKEN
-0.037514693464586024163054389646277 2:0 3:5 4:0 5:0 7:1 26:1 3839:1 # 20140625192132AACp46H Other JJ Entertainment_&_Music TOKEN
0.5 2:0 3:4 4:0 5:1 7:0 26:1 13974:1 # 20140613111831AABRhzn east JJ News_&_Events LOCATION
-0.5 2:0 3:5 4:0 5:0 7:1 88:1 8800:1 # 20140611175239AA5u6en Leave VB Family_&_Relationships TOKEN
0.5 2:0 3:6 4:0 5:1 7:0 8:1 8749:1 # 20140621092416AArsE0s brazil NN Social_Science LOCATION
0.5 2:0 3:6 4:0 5:1 7:0 8:1 9335:1 # 20140609172302AAjgqUA canada NN Yahoo!_Products LOCATION
0.5 2:0 3:6 4:0 5:1 7:0 8:1 9451:1 # 20140623022611AAddTaJ lesnar NN Sports PERSON
0.5 2:0 3:6 4:0 5:1 7:0 8:1 2072:1 # 20140613111831AABRhzn middle NN News_&_Events LOCATION
0.5 2:0 3:9 4:0 5:0 7:1 73:1 4400:1 # 20140623005211AAQ4eOc Australia NNP Local_Businesses LOCATION
0.5 2:0 3:3 4:0 5:0 7:1 73:1 2656:1 # 20140606223938AAjsrL7 New NNP News_&_Events ORGANIZATION
0.5 2:1 3:7 4:0 5:1 7:0 43:1 7296:1 # 20140610052054AAkNfGL googled VBP Cars_&_Transportation ORGANIZATION
0.5 2:0 3:3 4:0 5:1 7:0 24:1 25:1 # 20140605040256AAru12G the DT Entertainment_&_Music PERSON
0.5 2:0 3:3 4:0 5:0 7:1 73:1 5166:1 # 20140614004826AAWj9IB May NNP Entertainment_&_Music PERSON
0.5 2:0 3:3 4:1 5:0 7:0 73:1 14311:1 # 20140611214724AASfT7e GOP NNP News_&_Events ORGANIZATION
0.5 2:0 3:3 4:1 5:0 7:0 73:1 10551:1 # 20140608182325AAmvy1Q DMV NNP Cars_&_Transportation ORGANIZATION
0.5 2:0 3:3 4:1 5:0 7:0 73:1 14319:1 # 20140606223938AAjsrL7 AFC NNP News_&_Events ORGANIZATION
0.5 2:0 3:3 4:1 5:0 7:0 73:1 15694:1 # 20140614170630AA1o9BQ CIA NNP Politics_&_Government ORGANIZATION
0.5 2:0 3:6 4:0 5:1 7:0 8:1 15567:1 # 20140603004555AAv1K5X balmer NN Politics_&_Government PERSON
0.5 2:0 3:6 4:0 5:1 7:0 8:1 6484:1 # 20140610094552AAK4gFS palmer NN Health PERSON
0.5 2:0 3:5 4:0 5:1 7:0 8:1 1291:1 # 20140614122338AAHL8sn canon NN Arts_&_Humanities ORGANIZATION
0.5 2:0 3:5 4:0 5:1 7:0 8:1 7476:1 # 20140623022611AAddTaJ angle NN Sports PERSON
0.5 2:0 3:5 4:0 5:1 7:0 8:1 15519:1 # 20140609182413AATpjOA obama NN Politics_&_Government PERSON
0.5 2:0 3:3 4:0 5:0 7:1 73:1 4312:1 # 20140619190906AAxXT6l San NNP Local_Businesses LOCATION
0.5 2:1 3:3 4:1 5:0 7:0 73:1 9297:1 # 20140626152929AAvb2mt SFS NNP Sports ORGANIZATION
0.5 2:1 3:3 4:1 5:0 7:0 73:1 12376:1 # 20140601134625AAPRFLP CVS NNP Home_&_Garden ORGANIZATION
0.5 2:0 3:3 4:0 5:0 7:1 73:1 2656:1 # 20140606223938AAjsrL7 New NNP News_&_Events ORGANIZATION
0.5 2:0 3:7 4:0 5:1 7:0 88:1 12548:1 # 20140619063559AA2eks0 florida VB Home_&_Garden LOCATION
0.5 2:0 3:6 4:0 5:1 7:0 26:1 5214:1 # 20140615171734AAd4Cuo virgin JJ Yahoo!_Products PERSON
0.5 2:0 3:3 4:0 5:0 7:1 73:1 5166:1 # 20140614004826AAWj9IB May NNP Entertainment_&_Music PERSON
0.5 2:0 3:6 4:0 5:0 7:1 73:1 1928:1 # 20140611151627AAmAEbQ George NNP Politics_&_Government PERSON
0.5 2:0 3:6 4:0 5:0 7:1 73:1 15328:1 # 20140607125905AA2JtXv Hitler NNP Politics_&_Government PERSON
0.5 2:0 3:6 4:0 5:0 7:1 73:1 5558:1 # 20140618141409AA9yzif Stevie NNP Entertainment_&_Music PERSON
0.5 2:0 3:6 4:0 5:0 7:1 73:1 19338:1 # 20140606101823AAGCR6y Marion NNP Yahoo!_Products PERSON
0.5 2:0 3:6 4:0 5:0 7:1 73:1 8902:1 # 20140611011232AAoHyfn Lebron NNP Sports PERSON
0.5 2:0 3:6 4:0 5:0 7:1 73:1 14253:1 # 20140609053527AAHPrln Maxine NNP News_&_Events PERSON
0.5 2:0 3:6 4:0 5:0 7:1 73:1 15475:1 # 20140617193722AA5emAo Sharyl NNP Politics_&_Government PERSON
0.5 2:0 3:6 4:0 5:0 7:1 73:1 15699:1 # 20140614170630AA1o9BQ Israel NNP Politics_&_Government LOCATION
0.5 2:0 3:6 4:0 5:0 7:1 73:1 12033:1 # 20140609103954AAB6LY5 Europe NNP News_&_Events LOCATION
0.5 2:0 3:6 4:0 5:0 7:1 73:1 5423:1 # 20140616143448AAdU6Ze Little NNP Dining_Out ORGANIZATION
0.5 2:0 3:4 4:0 5:0 7:1 73:1 8152:1 # 20140613180332AA3jCxr Iraq NNP News_&_Events LOCATION
0.5 2:0 3:4 4:0 5:0 7:1 73:1 1627:1 # 20140613214814AARwXS4 King NNP Local_Businesses ORGANIZATION
0.5 2:0 3:4 4:0 5:0 7:1 73:1 13979:1 # 20140609182413AATpjOA Bush NNP Politics_&_Government PERSON
0.5 2:0 3:4 4:0 5:0 7:1 73:1 15323:1 # 20140607125905AA2JtXv Navy NNP Politics_&_Government ORGANIZATION
0.5 2:0 3:6 4:0 5:0 7:1 73:1 4267:1 # 20140604083714AANM1Br Chapel NNP Education_&_Reference LOCATION
0.5 2:0 3:6 4:0 5:0 7:1 73:1 5368:1 # 20140621194648AAv7Pxb Akashi NNP Entertainment_&_Music PERSON
0.5 2:0 3:6 4:0 5:0 7:1 73:1 15215:1 # 20140610123048AAZOuhW Garden NNP Politics_&_Government LOCATION
0.5 2:0 3:6 4:0 5:0 7:1 73:1 9913:1 # 20140614170630AA1o9BQ Brazil NNP Politics_&_Government LOCATION
0.5 2:0 3:6 4:0 5:0 7:1 73:1 13954:1 # 20140614170630AA1o9BQ Russia NNP Politics_&_Government LOCATION
0.5 2:0 3:4 4:0 5:0 7:1 73:1 8154:1 # 20140613180332AA3jCxr Iran NNP News_&_Events LOCATION
0.5 2:0 3:4 4:0 5:0 7:1 73:1 2657:1 # 20140625072412AAUASEG York NNP Yahoo!_Products LOCATION
0.5 2:0 3:4 4:0 5:0 7:1 73:1 783:1 # 20140617074422AANUT7h Sade NNP Arts_&_Humanities PERSON
