SVM-light Version V6.02
0 # kernel type
3 # kernel parameter -d 
1 # kernel parameter -g 
1 # kernel parameter -s 
1 # kernel parameter -r 
empty# kernel parameter -u 
19567 # highest feature index 
69010 # number of training documents 
6879 # number of support vectors plus 1 
1.0612435 # threshold b, each following line is a SV (starting with alpha*y)
-0.0063572744049125162746349815279245 2:0 3:2 4:0 5:1 7:0 43:1 3707:1 # 20140615060824AA0aRHm sa VBP Computer_&_Internet TOKEN
-0.5 2:1 3:2 4:1 5:0 7:0 16:1 2475:1 # 20140603020037AAlyzyA US PRP Travel TOKEN
-0.059474707370183566013110976200551 2:0 3:2 4:0 5:1 7:0 73:1 149:1 # 20140620021441AAIMW14 in NNP Games_&_Recreation TOKEN
-0.016065676387548050163545099167095 2:0 3:3 4:0 5:1 7:0 8:1 3743:1 # 20140622031654AAtTkJT don NN Politics_&_Government TOKEN
-0.0079811146937132093626132700592279 2:0 3:14 4:0 5:1 7:0 8:1 14710:1 # 20140626142532AAHm2Mx classification NN Pets TOKEN
0.5 2:1 3:6 4:0 5:1 7:0 8:1 5762:1 # 20140605140138AAyDVJY barros NN Entertainment_&_Music PERSON
0.5 2:0 3:3 4:1 5:0 7:0 73:1 3769:1 # 20140605225754AA2LJWC ABC NNP Consumer_Electronics ORGANIZATION
0.5 2:1 3:8 4:0 5:0 7:1 73:1 3952:1 # 20140603005221AAThPnj Motorola NNP Consumer_Electronics ORGANIZATION
0.5 2:1 3:5 4:0 5:0 7:1 73:1 8897:1 # 20140615224306AASdmOX Spurs NNP Sports ORGANIZATION
0.5 2:1 3:5 4:0 5:0 7:1 73:1 14314:1 # 20140606223938AAjsrL7 Times NNP News_&_Events ORGANIZATION
-0.012593983881161507909496322099585 2:0 3:8 4:0 5:0 7:1 8:1 15418:1 # 20140619072135AAeFu7N Passport NN Politics_&_Government TOKEN
-0.031320276156471704709360892593395 2:1 3:10 4:1 5:0 7:0 73:1 15025:1 # 20140613154011AAJ98M9 COMPLAINTS NNP Politics_&_Government TOKEN
0.5 2:0 3:3 4:0 5:1 7:0 30:1 292:1 # 20140605040256AAru12G out IN Entertainment_&_Music PERSON
0.5 2:0 3:3 4:0 5:1 7:0 26:1 9449:1 # 20140623022611AAddTaJ ufc JJ Sports ORGANIZATION
0.5 2:0 3:3 4:0 5:1 7:0 26:1 31:1 # 20140612200636AAqMBhQ new JJ Politics_&_Government LOCATION
-0.19756643381676186610462764292606 2:0 3:1 4:0 5:1 7:0 73:1 3546:1 # 20140620035947AAeYEbM x NNP Local_Businesses TOKEN
-0.19754077551259019429608088103123 2:0 3:1 4:0 5:1 7:0 35:1 73:1 # 20140606184121AAh0zjp a NNP Food_&_Drink TOKEN
0.5 2:0 3:12 4:0 5:1 7:0 26:1 3256:1 # 20140601093053AA6zdEg fakeiduk.com JJ Business_&_Finance ORGANIZATION
-0.026422365268875896981981554745289 2:1 3:4 4:0 5:0 7:1 123:1 2607:1 # 20140613111207AAD5YgE Does VBZ Dining_Out TOKEN
0.5 2:0 3:12 4:1 5:0 7:0 73:1 3558:1 # 20140614134845AAVhWeg CYBERPOWERPC NNP Consumer_Electronics ORGANIZATION
-0.5 2:0 3:3 4:1 5:0 7:0 73:1 3769:1 # 20140603072418AAgZjcN ABC NNP Science_&_Mathematics TOKEN
0.5 2:1 3:8 4:0 5:1 7:0 12:1 10150:1 # 20140605150717AAmRFk6 brothers NNS News_&_Events ORGANIZATION
-0.12491227361518042471288936212659 2:1 3:2 4:0 5:1 7:0 73:1 1285:1 # 20140614170630AA1o9BQ us NNP Politics_&_Government TOKEN
-0.12475294590401919680999753836659 2:1 3:2 4:0 5:1 7:0 73:1 108:1 # 20140617213812AAnm3nS is NNP Travel TOKEN
0.5 2:0 3:89 4:0 5:1 7:0 26:1 10552:1 # 20140608182325AAmvy1Q http:##www.cyberdriveillinois.com#departments#drivers#drivers_license#drlicid.html#mcylic JJ Cars_&_Transportation LOCATION
0.5 2:1 3:2 4:1 5:0 7:0 16:1 2475:1 # 20140622210819AARJGLW US PRP Entertainment_&_Music LOCATION
-0.015854508093575248039996949955821 2:0 3:3 4:0 5:1 7:0 8:1 19275:1 # 20140623130828AAGeAiz b#c NN Pregnancy_&_Parenting TOKEN
0.5 2:1 3:4 4:0 5:1 7:0 45:1 847:1 # 20140601162630AAuDjDG laid VBN Sports ORGANIZATION
0.5 2:1 3:3 4:0 5:0 7:1 73:1 12801:1 # 20140608112522AAMjxU9 Los NNP Local_Businesses LOCATION
-0.5 2:1 3:2 4:1 5:0 7:0 16:1 2475:1 # 20140617152905AAraW4N US PRP Education_&_Reference TOKEN
0.5 2:1 3:9 4:0 5:0 7:0 73:1 7069:1 # 20140616143448AAdU6Ze McDonalds NNP Dining_Out ORGANIZATION
-0.0052349794033389462910577094589826 2:0 3:4 4:0 5:1 7:0 43:1 18933:1 # 20140606151952AAnJYJg toke VBP Pregnancy_&_Parenting TOKEN
-0.5 2:1 3:2 4:1 5:0 7:0 16:1 2475:1 # 20140609172302AAjgqUA US PRP Yahoo!_Products TOKEN
-0.015352286848433926991219777846709 2:0 3:3 4:0 5:1 7:0 8:1 3105:1 # 20140610123048AAZOuhW cop NN Politics_&_Government TOKEN
-0.016081399627606351998565514804795 2:0 3:3 4:0 5:1 7:0 8:1 6554:1 # 20140606081156AANGQrl bud NN Health TOKEN
-0.049027076812890091339625087130116 2:0 3:7 4:0 5:0 7:1 26:1 15439:1 # 20140619072135AAeFu7N Iranian JJ Politics_&_Government TOKEN
-0.5 2:1 3:2 4:1 5:0 7:0 16:1 2475:1 # 20140619072135AAeFu7N US PRP Politics_&_Government TOKEN
-0.19327512533174306952332699438557 2:0 3:7 4:0 5:1 7:0 73:1 11235:1 # 20140610172137AA9hoaq chicago NNP Dining_Out TOKEN
-0.5 2:1 3:5 4:0 5:0 7:1 73:1 14314:1 # 20140625210906AATgayM Times NNP News_&_Events TOKEN
-0.014773243510957434487806949618971 2:0 3:3 4:0 5:1 7:0 8:1 5071:1 # 20140613193928AAaFgh0 bag NN Food_&_Drink TOKEN
-0.10582227638019947590919400681742 2:0 3:4 4:0 5:0 7:1 16:1 12096:1 # 20140619114039AAjxNQW Thou PRP Food_&_Drink TOKEN
0.5 2:0 3:2 4:1 5:0 7:0 73:1 3408:1 # 20140609103348AAf8tZ6 UK NNP News_&_Events LOCATION
-0.19254347677738259392299369210377 2:0 3:5 4:0 5:0 7:0 73:1 7639:1 # 20140618095228AAKVjIw Ri-hj NNP Science_&_Mathematics TOKEN
-0.5 2:0 3:7 4:0 5:0 7:1 73:1 5430:1 # 20140610112505AAhGjYL America NNP Dining_Out TOKEN
-0.032178389059000167549129400867969 2:1 3:10 4:0 5:0 7:1 8:1 11631:1 # 20140604112329AAS36PD Gorgonzola NN Dining_Out TOKEN
-0.10786379688658431774683776893653 2:0 3:4 4:0 5:0 7:1 8:1 4079:1 # 20140625082631AAcgyMl Liar NN Politics_&_Government TOKEN
-0.015927462375903461005988148713186 2:0 3:5 4:0 5:0 7:1 30:1 649:1 # 20140601213644AAZ1tNs After IN Pets TOKEN
0.5 2:0 3:4 4:0 5:1 7:0 88:1 15152:1 # 20140612200636AAqMBhQ york VB Politics_&_Government LOCATION
-0.28933578392946479596048448001966 2:0 3:2 4:0 5:0 7:1 73:1 7204:1 # 20140613202053AAONeF7 Hm NNP Games_&_Recreation TOKEN
-0.016408837627457373287143127527088 2:0 3:5 4:0 5:0 7:1 30:1 15378:1 # 20140613132938AABdKy8 Under IN Politics_&_Government TOKEN
0.5 2:0 3:3 4:1 5:0 7:0 73:1 3927:1 # 20140619113940AAko4f7 HTC NNP Entertainment_&_Music ORGANIZATION
0.5 2:0 3:3 4:1 5:0 7:0 73:1 7172:1 # 20140623022611AAddTaJ WWE NNP Sports ORGANIZATION
0.5 2:0 3:3 4:1 5:0 7:0 73:1 13982:1 # 20140623230739AA9pP9C BBC NNP News_&_Events ORGANIZATION
0.5 2:0 3:3 4:1 5:0 7:0 73:1 15694:1 # 20140614170630AA1o9BQ CIA NNP Politics_&_Government ORGANIZATION
0.5 2:0 3:3 4:1 5:0 7:0 73:1 15192:1 # 20140610123048AAZOuhW KGB NNP Politics_&_Government ORGANIZATION
0.5 2:1 3:12 4:0 5:0 7:0 73:1 814:1 # 20140617074422AANUT7h Jean-Jacques NNP Arts_&_Humanities PERSON
-0.010816618749662332277239329414442 2:0 3:4 4:0 5:1 7:0 8:1 13555:1 # 20140615205410AAihwS8 sh!t NN Family_&_Relationships TOKEN
-0.014723854330160490722079202896566 2:0 3:4 4:0 5:1 7:0 8:1 6627:1 # 20140625210906AATgayM news NN News_&_Events TOKEN
-0.5 2:1 3:2 4:1 5:0 7:0 73:1 2475:1 # 20140619105821AAuioIb US NNP Education_&_Reference TOKEN
0.5 2:0 3:2 4:0 5:1 7:0 12:1 3151:1 # 20140613111831AABRhzn al NNS News_&_Events ORGANIZATION
0.5 2:0 3:4 4:0 5:1 7:0 8:1 6873:1 # 20140620231356AA5VO2N john NN Games_&_Recreation PERSON
0.5 2:0 3:4 4:0 5:1 7:0 8:1 8143:1 # 20140612211617AAE6Bis iraq NN News_&_Events LOCATION
-0.10748244479144397622860651608789 2:0 3:5 4:0 5:0 7:1 8:1 9318:1 # 20140608001904AAVKEC5 Watch NN Computer_&_Internet TOKEN
0.5 2:1 3:4 4:1 5:0 7:0 73:1 13003:1 # 20140610194612AA31tgA USPS NNP Local_Businesses ORGANIZATION
-0.5 2:0 3:2 4:0 5:1 7:0 73:1 3151:1 # 20140618192549AAzYXYR al NNP Social_Science TOKEN
-0.1975724154733995152621872648524 2:0 3:1 4:0 5:1 7:0 73:1 3471:1 # 20140622093907AASVTkE t NNP Business_&_Finance TOKEN
-0.19756643381676131099311533034779 2:0 3:1 4:0 5:1 7:0 73:1 2518:1 # 20140623023853AA1SoFR y NNP Science_&_Mathematics TOKEN
-0.19746853423714871844651952415006 2:0 3:1 4:0 5:1 7:0 73:1 1159:1 # 20140601100338AAUfBLz b NNP News_&_Events TOKEN
0.5 2:0 3:1 4:1 5:0 7:1 8:1 720:1 # 20140616143448AAdU6Ze D NN Dining_Out ORGANIZATION
0.5 2:0 3:4 4:0 5:0 7:0 8:1 3200:1 # 20140617164637AAddgz5 eBay NN Local_Businesses ORGANIZATION
0.5 2:1 3:2 4:1 5:0 7:0 16:1 2475:1 # 20140614170630AA1o9BQ US PRP Politics_&_Government ORGANIZATION
-0.017071263345874276851077411265578 2:0 3:1 4:0 5:1 7:0 8:1 896:1 # 20140610040156AAtbQ4M u NN Local_Businesses TOKEN
-0.0070335375445438330643810331821442 2:0 3:17 4:0 5:1 7:0 8:1 13862:1 # 20140616154757AA3uubn misinterpretation NN News_&_Events TOKEN
-0.11840980358443964348680310649797 2:1 3:10 4:0 5:0 7:0 73:1 12892:1 # 20140613214814AARwXS4 YouthRules NNP Local_Businesses TOKEN
-0.010980062271239821036772355000721 2:0 3:4 4:0 5:1 7:0 8:1 10278:1 # 20140601115304AAcEyR8 fate NN Social_Science TOKEN
-0.28184156800917992136135126202134 2:0 3:13 4:0 5:0 7:1 73:1 10082:1 # 20140622134748AAtNT9p Schizophrenic NNP Social_Science TOKEN
-0.013841625422155168223525834036991 2:0 3:4 4:0 5:1 7:0 8:1 731:1 # 20140606112307AAHpG1a rond NN Arts_&_Humanities TOKEN
-0.28654158915293725939932301116642 2:0 3:5 4:0 5:0 7:1 73:1 7430:1 # 20140615112034AAukyhJ Jamie NNP Science_&_Mathematics TOKEN
0.5 2:0 3:9 4:0 5:1 7:0 8:1 7298:1 # 20140606094406AAvjkJW wikipedia NN Games_&_Recreation ORGANIZATION
-0.5 2:0 3:6 4:0 5:1 7:0 8:1 2072:1 # 20140625193136AAUePpR middle NN Arts_&_Humanities TOKEN
-0.10744999307006564137623172427993 2:0 3:5 4:0 5:0 7:1 8:1 18867:1 # 20140608001904AAVKEC5 Share NN Computer_&_Internet TOKEN
-0.19694709526813092281827266560867 2:0 3:2 4:0 5:1 7:0 73:1 167:1 # 20140620003333AAaN90M up NNP Dining_Out TOKEN
-0.10737235019759339138545328751206 2:0 3:5 4:0 5:0 7:1 8:1 4986:1 # 20140611132742AAU8vAK Stuff NN Education_&_Reference TOKEN
-0.017168970097952040987365762703121 2:0 3:1 4:0 5:1 7:0 8:1 9555:1 # 20140619060021AAhU4hr q NN Sports TOKEN
-0.19697741168673577050185485859402 2:0 3:2 4:0 5:1 7:0 73:1 147:1 # 20140609063130AAx8NAT at NNP Computer_&_Internet TOKEN
-0.017168970091745450190501287579536 2:0 3:1 4:0 5:1 7:0 8:1 7337:1 # 20140623023853AA1SoFR h NN Science_&_Mathematics TOKEN
-0.015822258547737888534356898162514 2:0 3:1 4:0 5:1 7:0 8:1 2330:1 # 20140601102431AAJe7ZG e NN Family_&_Relationships TOKEN
-0.28560452384799894787192897638306 2:0 3:7 4:0 5:0 7:1 73:1 19515:1 # 20140609172302AAjgqUA Keepass NNP Yahoo!_Products TOKEN
-0.5 2:0 3:4 4:0 5:0 7:1 73:1 8153:1 # 20140601100338AAUfBLz East NNP News_&_Events TOKEN
0.5 2:0 3:6 4:0 5:0 7:1 73:1 3931:1 # 20140613180332AA3jCxr Google NNP News_&_Events ORGANIZATION
-0.017071263345903142649717665335629 2:0 3:1 4:0 5:1 7:0 8:1 8201:1 # 20140608113659AAJ5fVM z NN Science_&_Mathematics TOKEN
-0.28277176704892781344824470579624 2:0 3:13 4:0 5:0 7:1 73:1 14905:1 # 20140611152642AAd7nNQ Dechlorinator NNP Pets TOKEN
-0.0112835817473921906639588996768 2:0 3:1 4:0 5:1 7:0 8:1 4815:1 # 20140601043856AAIunch g NN Science_&_Mathematics TOKEN
-0.013296894296615846542408689856529 2:0 3:1 4:0 5:1 7:0 8:1 5829:1 # 20140618170211AA99yVG r NN Science_&_Mathematics TOKEN
-0.1969917059499302069980330998078 2:0 3:2 4:0 5:1 7:0 73:1 533:1 # 20140611204210AAPJj1y go NNP Business_&_Finance TOKEN
-0.014830573734487373371848661918193 2:0 3:4 4:0 5:1 7:0 8:1 14643:1 # 20140615103833AAIK4wa tail NN Pets TOKEN
0.5 2:1 3:3 4:1 5:0 7:0 73:1 14427:1 # 20140617191218AAiEBHA CBS NNP News_&_Events ORGANIZATION
-0.0090014596498804166913032531738281 2:0 3:14 4:0 5:1 7:0 8:1 4415:1 # 20140608223808AAjHFUR transportation NN Cars_&_Transportation TOKEN
0.5 2:0 3:2 4:0 5:1 7:0 73:1 149:1 # 20140616143448AAdU6Ze in NNP Dining_Out ORGANIZATION
-0.016571066770776354815097874961793 2:0 3:5 4:0 5:0 7:1 30:1 2091:1 # 20140601004138AAIxEr7 About IN Science_&_Mathematics TOKEN
-0.015543667997942531289190526422317 2:0 3:5 4:0 5:0 7:1 30:1 5822:1 # 20140617112511AAZ4ux3 Since IN Entertainment_&_Music TOKEN
-0.016300206794752636341172546963207 2:0 3:5 4:0 5:0 7:1 30:1 2048:1 # 20140617094029AAZ1FwJ While IN Family_&_Relationships TOKEN
-0.5 2:0 3:2 4:1 5:0 7:0 73:1 3408:1 # 20140608120927AA1JZcv UK NNP Travel TOKEN
0.5 2:0 3:3 4:0 5:1 7:0 26:1 3981:1 # 20140605040256AAru12G low JJ Entertainment_&_Music PERSON
0.5 2:0 3:5 4:0 5:1 7:0 73:1 172:1 # 20140607125905AA2JtXv &amp; NNP Politics_&_Government ORGANIZATION
-0.10874000766405800266767300854553 2:0 3:2 4:1 5:0 7:0 73:1 3624:1 # 20140609063130AAx8NAT HD NNP Computer_&_Internet TOKEN
0.5 2:1 3:2 4:1 5:0 7:0 16:1 2475:1 # 20140622210819AARJGLW US PRP Entertainment_&_Music LOCATION
-0.017249544821430262686590140219778 2:0 3:1 4:0 5:1 7:0 8:1 8717:1 # 20140623173753AAUMZe3 c NN Food_&_Drink TOKEN
0.5 2:0 3:2 4:0 5:0 7:1 73:1 5396:1 # 20140612211617AAE6Bis Al NNP News_&_Events ORGANIZATION
0.5 2:0 3:2 4:0 5:0 7:1 73:1 11325:1 # 20140616143448AAdU6Ze El NNP Dining_Out ORGANIZATION
0.5 2:0 3:11 4:0 5:0 7:1 73:1 11382:1 # 20140616143448AAdU6Ze Whataburger NNP Dining_Out ORGANIZATION
-0.15849728901275739190168678760529 2:0 3:60 4:0 5:0 7:0 73:1 19511:1 # 20140609172302AAjgqUA https:##help.yahoo.com#kb#mail#SLN2717.html?impressions=true NNP Yahoo!_Products TOKEN
-0.22296923166799409443683543941006 2:0 3:1 4:1 5:0 7:1 15:1 720:1 # 20140609194638AAhw9UC D . Food_&_Drink TOKEN
0.5 2:0 3:11 4:0 5:0 7:1 73:1 775:1 # 20140617074422AANUT7h Shakespeare NNP Arts_&_Humanities PERSON
0.5 2:0 3:3 4:0 5:1 7:0 8:1 11396:1 # 20140616143448AAdU6Ze hut NN Dining_Out ORGANIZATION
0.5 2:0 3:3 4:0 5:1 7:0 8:1 14450:1 # 20140617191218AAiEBHA fox NN News_&_Events ORGANIZATION
0.5 2:0 3:10 4:0 5:1 7:0 8:1 5172:1 # 20140614004826AAWj9IB wonderland NN Entertainment_&_Music LOCATION
0.5 2:0 3:2 4:0 5:1 7:0 73:1 149:1 # 20140616143448AAdU6Ze in NNP Dining_Out ORGANIZATION
0.5 2:1 3:9 4:0 5:1 7:0 8:1 11112:1 # 20140622003739AAdUNRt mcdonalds NN Dining_Out ORGANIZATION
0.5 2:0 3:3 4:0 5:1 7:0 8:1 4854:1 # 20140601014139AA5Szo2 usa NN Education_&_Reference LOCATION
0.5 2:0 3:10 4:0 5:1 7:0 8:1 8927:1 # 20140615190410AAmWDg3 wristwatch NN Sports PERSON
-0.2884671198611812314993585459888 2:0 3:2 4:0 5:0 7:1 73:1 9600:1 # 20140618192549AAzYXYR Yo NNP Social_Science TOKEN
0.5 2:0 3:5 4:0 5:1 7:0 73:1 9557:1 # 20140615224306AASdmOX kawhi NNP Sports PERSON
0.5 2:0 3:10 4:0 5:1 7:0 8:1 3309:1 # 20140619105821AAuioIb university NN Education_&_Reference ORGANIZATION
0.5 2:1 3:2 4:1 5:0 7:0 16:1 2475:1 # 20140616154757AA3uubn US PRP News_&_Events LOCATION
-0.5 2:0 3:3 4:1 5:0 7:0 73:1 7172:1 # 20140605104442AAFzzy2 WWE NNP Sports TOKEN
0.5 2:0 3:7 4:0 5:0 7:0 73:1 14240:1 # 20140615161422AAiDhFt K-Earth NNP News_&_Events ORGANIZATION
0.5 2:0 3:3 4:0 5:0 7:1 73:1 9209:1 # 20140623022611AAddTaJ Big NNP Sports PERSON
0.5 2:0 3:11 4:0 5:0 7:1 73:1 9108:1 # 20140614220006AA90c02 Springfield NNP Sports LOCATION
0.5 2:1 3:12 4:0 5:0 7:0 73:1 814:1 # 20140617074422AANUT7h Jean-Jacques NNP Arts_&_Humanities PERSON
0.5 2:0 3:9 4:0 5:1 7:0 8:1 6620:1 # 20140612080629AAuyjlx brookwood NN Health PERSON
-0.10657705993605870453677653131308 2:0 3:5 4:0 5:0 7:1 8:1 3613:1 # 20140615210245AAjCZ2q Maker NN Consumer_Electronics TOKEN
-0.28977888140832774865884857717901 2:0 3:2 4:0 5:0 7:1 73:1 1538:1 # 20140623154545AAikPvj We NNP Pets TOKEN
0.5 2:0 3:9 4:0 5:1 7:0 43:1 2989:1 # 20140604131630AAZXrpw list#sell VBP Business_&_Finance ORGANIZATION
0.5 2:0 3:10 4:0 5:0 7:1 73:1 15471:1 # 20140617193722AA5emAo Whitehouse NNP Politics_&_Government PERSON
0.5 2:0 3:10 4:0 5:0 7:1 73:1 4198:1 # 20140622140805AAtjqJa Statistics NNP Cars_&_Transportation ORGANIZATION
-0.015436254374103342001944838557392 2:0 3:4 4:0 5:1 7:0 8:1 4019:1 # 20140604143748AAdZe2e unit NN Science_&_Mathematics TOKEN
0.5 2:1 3:7 4:0 5:0 7:1 123:1 5614:1 # 20140608113007AAoVpt8 Answers VBZ Politics_&_Government ORGANIZATION
-0.5 2:0 3:2 4:0 5:1 7:0 12:1 3151:1 # 20140623230739AA9pP9C al NNS News_&_Events TOKEN
0.5 2:0 3:2 4:0 5:0 7:1 22:1 608:1 # 20140605040256AAru12G My PRP$ Entertainment_&_Music PERSON
0.5 2:1 3:9 4:0 5:1 7:0 12:1 8260:1 # 20140611151627AAmAEbQ engineers NNS Politics_&_Government ORGANIZATION
-0.015314433744506750212366341656889 2:0 3:4 4:0 5:1 7:0 8:1 2470:1 # 20140609053527AAHPrln fill NN News_&_Events TOKEN
-0.20326285474416722065527096674487 2:0 3:1 4:1 5:0 7:1 73:1 4291:1 # 20140610191527AA9b8i0 U NNP Health TOKEN
0.5 2:0 3:9 4:0 5:1 7:0 8:1 4801:1 # 20140620191437AA9D0Nc australia NN Food_&_Drink LOCATION
0.5 2:0 3:3 4:0 5:0 7:1 73:1 2656:1 # 20140617134810AAX61tb New NNP Travel LOCATION
0.5 2:0 3:2 4:0 5:0 7:1 30:1 2509:1 # 20140605040256AAru12G At IN Entertainment_&_Music PERSON
-0.21378584154839330722097656689584 2:1 3:8 4:0 5:0 7:1 73:1 18038:1 # 20140607024930AAQZT27 Advanced NNP Travel TOKEN
-0.49797393324295924355027409546892 2:0 3:5 4:0 5:0 7:1 73:1 3489:1 # 20140601073120AActdQD Apple NNP Food_&_Drink TOKEN
0.5 2:0 3:10 4:0 5:0 7:1 73:1 15558:1 # 20140623142217AAHjEJM Hicksville NNP Politics_&_Government LOCATION
0.5 2:0 3:3 4:0 5:0 7:1 73:1 769:1 # 20140625193136AAUePpR Poe NNP Arts_&_Humanities PERSON
-0.28770725683549080997636337997392 2:0 3:5 4:0 5:0 7:1 73:1 15507:1 # 20140617193722AA5emAo Nixon NNP Politics_&_Government TOKEN
0.5 2:0 3:10 4:0 5:0 7:1 73:1 4394:1 # 20140619105821AAuioIb University NNP Education_&_Reference ORGANIZATION
0.49978732732191916143804633065884 2:0 3:4 4:0 5:0 7:1 73:1 18294:1 # 20140603020037AAlyzyA Ryan NNP Travel PERSON
0.5 2:1 3:2 4:1 5:0 7:0 16:1 2475:1 # 20140616154757AA3uubn US PRP News_&_Events LOCATION
-0.21753163606468817192762799095362 2:1 3:2 4:0 5:0 7:1 73:1 6889:1 # 20140622223032AAkvyyd Us NNP Games_&_Recreation TOKEN
-0.2884671198612664966276497580111 2:0 3:2 4:0 5:0 7:1 73:1 11461:1 # 20140603215034AABtnxF Le NNP Dining_Out TOKEN
0.5 2:0 3:9 4:0 5:0 7:0 73:1 791:1 # 20140617074422AANUT7h DuMaurier NNP Arts_&_Humanities PERSON
-0.28935931239519080415689700203075 2:0 3:2 4:0 5:0 7:1 73:1 230:1 # 20140611001634AAefV9p Im NNP Pregnancy_&_Parenting TOKEN
-0.28977682337674792734105722047389 2:0 3:2 4:0 5:0 7:1 73:1 9627:1 # 20140618192549AAzYXYR Se NNP Social_Science TOKEN
0.5 2:0 3:5 4:0 5:0 7:1 73:1 4458:1 # 20140618125641AAGkGpi South NNP Education_&_Reference LOCATION
-0.28977682337677812540732702473179 2:0 3:2 4:0 5:0 7:1 73:1 7632:1 # 20140618095228AAKVjIw Ri NNP Science_&_Mathematics TOKEN
-0.28978448728889105723283137194812 2:0 3:2 4:0 5:0 7:1 73:1 12959:1 # 20140622225954AAAlKMt Ho NNP Local_Businesses TOKEN
0.5 2:0 3:9 4:0 5:0 7:1 73:1 786:1 # 20140625193136AAUePpR Lovecraft NNP Arts_&_Humanities PERSON
0.5 2:0 3:4 4:0 5:0 7:1 73:1 262:1 # 20140605104442AAFzzy2 John NNP Sports PERSON
-0.10399639160719109653996383713093 2:0 3:10 4:0 5:0 7:1 8:1 9464:1 # 20140626111642AAP80Gv Background NN Computer_&_Internet TOKEN
0.5 2:0 3:9 4:0 5:0 7:1 73:1 4313:1 # 20140604083714AANM1Br Francisco NNP Education_&_Reference LOCATION
0.5 2:0 3:6 4:0 5:0 7:1 73:1 11822:1 # 20140612135609AAxFMMn Thomas NNP Food_&_Drink PERSON
0.5 2:0 3:9 4:0 5:0 7:1 73:1 13682:1 # 20140610222206AAaaj3T Mackenzie NNP News_&_Events LOCATION
-0.28753283995630241065555310342461 2:0 3:4 4:0 5:0 7:1 73:1 1890:1 # 20140605091638AATCTbo Duet NNP Arts_&_Humanities TOKEN
-0.5 2:0 3:4 4:0 5:0 7:1 73:1 5268:1 # 20140617223537AAdlxEL Snow NNP Sports TOKEN
0.5 2:0 3:5 4:0 5:0 7:1 73:1 263:1 # 20140608034752AAWHbyf Green NNP Arts_&_Humanities PERSON
-0.28755844660002055634961948271666 2:0 3:4 4:0 5:0 7:1 73:1 18322:1 # 20140623010804AATRu9l Kpop NNP Travel TOKEN
-0.014559973472032083918747957795858 2:0 3:3 4:0 5:1 7:0 8:1 292:1 # 20140609221937AAH7tge out NN Travel TOKEN
0.5 2:0 3:9 4:0 5:0 7:1 73:1 1457:1 # 20140605223141AA4aNVu Catherine NNP Arts_&_Humanities PERSON
-0.12167378122670036155739126115805 2:0 3:4 4:0 5:0 7:1 61:1 1394:1 # 20140605223141AA4aNVu Teen NNPS Arts_&_Humanities TOKEN
0.5 2:0 3:6 4:0 5:1 7:0 8:1 359:1 # 20140622080843AAfcL4m tumblr NN Pets ORGANIZATION
0.5 2:1 3:9 4:0 5:0 7:1 73:1 805:1 # 20140617074422AANUT7h Euripides NNP Arts_&_Humanities PERSON
-0.28846711986121675863614655099809 2:0 3:2 4:0 5:0 7:1 73:1 5935:1 # 20140604090916AAD5Lml Oz NNP Health TOKEN
-0.2886582614136996571829740787507 2:0 3:2 4:0 5:0 7:1 73:1 12930:1 # 20140622225954AAAlKMt Mr NNP Local_Businesses TOKEN
-0.28978448727492889247514540329576 2:0 3:2 4:0 5:0 7:1 73:1 9266:1 # 20140617195809AA0PD6g Di NNP Sports TOKEN
0.5 2:1 3:2 4:1 5:0 7:0 16:1 2475:1 # 20140612145554AAjlhJX US PRP Beauty_&_Style LOCATION
-0.5 2:1 3:2 4:1 5:0 7:0 16:1 2475:1 # 20140609172302AAjgqUA US PRP Yahoo!_Products TOKEN
0.5 2:0 3:3 4:0 5:0 7:1 73:1 15512:1 # 20140614114159AAxmnir Abu NNP Travel LOCATION
0.5 2:0 3:3 4:0 5:0 7:1 73:1 12474:1 # 20140605130921AAXKqjH Xtx NNP Home_&_Garden PERSON
-0.28977682338202193079723656410351 2:0 3:2 4:0 5:0 7:1 73:1 185:1 # 20140603005221AAThPnj So NNP Consumer_Electronics TOKEN
0.21530964323309204067058431064652 2:0 3:8 4:0 5:0 7:1 73:1 1648:1 # 20140618141257AAQm1bZ Arikatou NNP Arts_&_Humanities PERSON
-0.016391106616676198726167967834044 2:0 3:5 4:0 5:0 7:1 30:1 4752:1 # 20140605140138AAyDVJY Until IN Entertainment_&_Music TOKEN
-0.10786643218003755251288566796575 2:0 3:3 4:1 5:0 7:0 73:1 11035:1 # 20140603215034AABtnxF NYC NNP Dining_Out TOKEN
-0.21168055017661924210869983653538 2:1 3:11 4:0 5:0 7:1 73:1 19436:1 # 20140609172302AAjgqUA Recommended NNP Yahoo!_Products TOKEN
-0.28909551052482829192058488843031 2:0 3:5 4:0 5:0 7:1 73:1 807:1 # 20140613202053AAONeF7 White NNP Games_&_Recreation TOKEN
0.49997624601300438840212336799596 2:0 3:5 4:0 5:0 7:1 73:1 4452:1 # 20140615171734AAd4Cuo Jesus NNP Yahoo!_Products PERSON
0.5 2:1 3:2 4:1 5:0 7:0 16:1 2475:1 # 20140605225754AA2LJWC US PRP Consumer_Electronics LOCATION
0.5 2:0 3:5 4:0 5:0 7:1 73:1 3489:1 # 20140625230035AAgGhX2 Apple NNP Consumer_Electronics ORGANIZATION
-0.017249544821424933616071939468384 2:0 3:1 4:0 5:1 7:0 8:1 2284:1 # 20140623023853AA1SoFR f NN Science_&_Mathematics TOKEN
-0.5 2:1 3:2 4:1 5:0 7:0 16:1 2475:1 # 20140617152905AAraW4N US PRP Education_&_Reference TOKEN
0.5 2:0 3:3 4:0 5:0 7:1 73:1 2656:1 # 20140625120602AAXWOm0 New NNP Science_&_Mathematics LOCATION
0.5 2:0 3:12 4:0 5:0 7:1 73:1 3079:1 # 20140611204210AAPJj1y Bannerghatta NNP Business_&_Finance LOCATION
0.5 2:0 3:2 4:0 5:1 7:0 8:1 13095:1 # 20140620035947AAeYEbM sc NN Local_Businesses LOCATION
0.5 2:1 3:4 4:0 5:0 7:1 12:1 8743:1 # 20140616143448AAdU6Ze Guys NNS Dining_Out ORGANIZATION
0.5 2:1 3:2 4:1 5:0 7:0 16:1 2475:1 # 20140614170630AA1o9BQ US PRP Politics_&_Government ORGANIZATION
-0.5 2:0 3:3 4:0 5:0 7:1 73:1 2656:1 # 20140604083714AANM1Br New NNP Education_&_Reference TOKEN
-0.5 2:0 3:3 4:0 5:0 7:1 73:1 9209:1 # 20140618180738AANfMh9 Big NNP Sports TOKEN
0.5 2:0 3:11 4:0 5:1 7:0 8:1 15600:1 # 20140617203723AAnMv8x brotherhood NN Politics_&_Government ORGANIZATION
0.5 2:0 3:11 4:0 5:1 7:0 8:1 9169:1 # 20140623155342AAYpGzf bridgestone NN Sports ORGANIZATION
0.5 2:0 3:5 4:0 5:0 7:1 8:1 5598:1 # 20140605040256AAru12G Panic NN Entertainment_&_Music PERSON
0.5 2:0 3:5 4:0 5:0 7:1 8:1 5440:1 # 20140616143448AAdU6Ze Juice NN Dining_Out ORGANIZATION
-0.28664739071793121638620505109429 2:0 3:7 4:0 5:0 7:1 73:1 8453:1 # 20140615120022AADbAkK Regards NNP Pets TOKEN
-0.10806030420976497907759039662778 2:0 3:4 4:0 5:0 7:1 8:1 5510:1 # 20140604202844AAigI4l Fray NN Entertainment_&_Music TOKEN
-0.10806030420976142636391159612685 2:0 3:4 4:0 5:0 7:1 8:1 2743:1 # 20140622140805AAtjqJa Make NN Cars_&_Transportation TOKEN
-0.1080516502243256127258064225316 2:0 3:4 4:0 5:0 7:1 8:1 2807:1 # 20140626142532AAHm2Mx None NN Pets TOKEN
-0.10753815146656808821035156142898 2:0 3:4 4:0 5:0 7:1 8:1 11695:1 # 20140618202204AAODcVd Date NN Food_&_Drink TOKEN
-0.10802425751431776745903334813192 2:0 3:4 4:0 5:0 7:1 8:1 1463:1 # 20140608113007AAoVpt8 Name NN Politics_&_Government TOKEN
-0.16047521928603458718498586677015 2:0 3:57 4:0 5:0 7:0 73:1 18744:1 # 20140623193424AAEouJN http:##www.superbiiz.com#detail.php?name=MB-970AS3P&c;=CJ NNP Computer_&_Internet TOKEN
-0.1609753303920342659694142639637 2:0 3:56 4:0 5:0 7:0 73:1 19397:1 # 20140606090914AA45noC https:##help.yahoo.com#kb#mail-app-for-ios#SLN14676.html NNP Yahoo!_Products TOKEN
-0.5 2:0 3:3 4:1 5:0 7:0 73:1 7172:1 # 20140623022611AAddTaJ WWE NNP Sports TOKEN
-0.5 2:0 3:2 4:1 5:0 7:0 73:1 3408:1 # 20140612013350AAX11Xr UK NNP Travel TOKEN
0.5 2:0 3:3 4:0 5:0 7:1 73:1 4312:1 # 20140619190906AAxXT6l San NNP Local_Businesses LOCATION
-0.5 2:0 3:3 4:0 5:0 7:1 73:1 5166:1 # 20140608132523AAWfvBH May NNP Computer_&_Internet TOKEN
0.5 2:0 3:3 4:0 5:0 7:1 73:1 2656:1 # 20140603115526AAQmGXN New NNP Cars_&_Transportation LOCATION
-0.5 2:0 3:3 4:0 5:0 7:1 73:1 2656:1 # 20140609221937AAH7tge New NNP Travel TOKEN
-0.030342870353848638842464424669743 2:1 3:12 4:1 5:0 7:0 73:1 11931:1 # 20140626031053AAyXCcP ALTERNATIVES NNP Food_&_Drink TOKEN
0.5 2:0 3:2 4:0 5:1 7:0 12:1 3151:1 # 20140613111831AABRhzn al NNS News_&_Events ORGANIZATION
-0.5 2:0 3:10 4:0 5:0 7:1 73:1 4198:1 # 20140613123024AAkX1Tt Statistics NNP Education_&_Reference TOKEN
0.5 2:0 3:4 4:0 5:1 7:0 8:1 13833:1 # 20140607125905AA2JtXv army NN Politics_&_Government ORGANIZATION
0.5 2:0 3:4 4:0 5:1 7:0 8:1 19455:1 # 20140610080957AAEwFfP andy NN Yahoo!_Products PERSON
0.5 2:0 3:4 4:0 5:1 7:0 8:1 487:1 # 20140620035947AAeYEbM area NN Local_Businesses LOCATION
0.5 2:0 3:4 4:0 5:1 7:0 8:1 4391:1 # 20140619105821AAuioIb kean NN Education_&_Reference ORGANIZATION
-0.017249544821513751458041951991618 2:0 3:1 4:0 5:1 7:0 8:1 3741:1 # 20140623064734AAHH1Hb m NN Science_&_Mathematics TOKEN
0.5 2:0 3:11 4:0 5:0 7:1 73:1 13821:1 # 20140611151627AAmAEbQ Afghanistan NNP Politics_&_Government LOCATION
-0.5 2:0 3:11 4:0 5:0 7:1 73:1 13821:1 # 20140611151627AAmAEbQ Afghanistan NNP Politics_&_Government TOKEN
-0.5 2:0 3:10 4:0 5:0 7:1 73:1 4394:1 # 20140616160015AAkjHsB University NNP Dining_Out TOKEN
0.5 2:0 3:3 4:1 5:0 7:0 73:1 13982:1 # 20140623230739AA9pP9C BBC NNP News_&_Events ORGANIZATION
0.5 2:0 3:11 4:0 5:0 7:1 73:1 1454:1 # 20140605223141AA4aNVu Westerfield NNP Arts_&_Humanities PERSON
-0.28916637640852460577889360138215 2:0 3:3 4:0 5:0 7:1 73:1 6674:1 # 20140620063230AAXLo9n Tea NNP Food_&_Drink TOKEN
0.5 2:0 3:6 4:0 5:0 7:1 73:1 14294:1 # 20140621045509AAck6mP Saddam NNP News_&_Events PERSON
0.5 2:0 3:9 4:0 5:0 7:1 73:1 12210:1 # 20140623125801AASUucg Monterrey NNP Food_&_Drink LOCATION
0.5 2:0 3:4 4:0 5:1 7:0 8:1 1077:1 # 20140616143448AAdU6Ze land NN Dining_Out ORGANIZATION
0.5 2:0 3:4 4:0 5:1 7:0 8:1 9454:1 # 20140623022611AAddTaJ kurt NN Sports PERSON
0.5 2:0 3:11 4:0 5:0 7:1 73:1 11052:1 # 20140601101734AAAYp2K Serendipity NNP Dining_Out ORGANIZATION
-0.21197926972131497791451693046838 2:1 3:11 4:0 5:0 7:1 73:1 2548:1 # 20140608032717AAM9Cvk Registering NNP Business_&_Finance TOKEN
-0.2119635526285179594196961261332 2:1 3:11 4:0 5:0 7:1 73:1 6626:1 # 20140612080629AAuyjlx Antibiotics NNP Health TOKEN
-0.20239659975480606135533889755607 2:0 3:1 4:1 5:0 7:1 73:1 445:1 # 20140615190614AAf5U3D C NNP Education_&_Reference TOKEN
-0.21190387287386625025931152777048 2:1 3:11 4:0 5:0 7:1 73:1 15615:1 # 20140617203723AAnMv8x Transformed NNP Politics_&_Government TOKEN
-0.20234906869334423618056462146342 2:0 3:1 4:1 5:0 7:1 73:1 446:1 # 20140622013948AAZujJH V NNP Science_&_Mathematics TOKEN
-0.2023353297340477752186416182667 2:0 3:1 4:1 5:0 7:1 73:1 10193:1 # 20140603020037AAlyzyA M NNP Travel TOKEN
0.5 2:0 3:8 4:0 5:0 7:1 73:1 13971:1 # 20140601100338AAUfBLz Pakistan NNP News_&_Events LOCATION
-0.5 2:0 3:3 4:0 5:1 7:0 8:1 292:1 # 20140613192110AABUd4A out NN Beauty_&_Style TOKEN
-0.21381065016023725888771878089756 2:1 3:8 4:0 5:0 7:1 73:1 7107:1 # 20140610162943AA8McBJ Consoles NNP Games_&_Recreation TOKEN
-0.2137858415484004126483341678977 2:1 3:8 4:0 5:0 7:1 73:1 12444:1 # 20140605130921AAXKqjH Aspestos NNP Home_&_Garden TOKEN
-0.21289556970396972257475454171072 2:1 3:8 4:0 5:0 7:1 73:1 3567:1 # 20140609063130AAx8NAT Graphics NNP Computer_&_Internet TOKEN
-0.28663696441091701672121416777372 2:0 3:7 4:0 5:0 7:1 73:1 8174:1 # 20140625120602AAXWOm0 Ottoman NNP Science_&_Mathematics TOKEN
0.5 2:0 3:4 4:0 5:0 7:1 204:1 11332:1 # 20140616143448AAdU6Ze Five CD Dining_Out ORGANIZATION
0.5 2:0 3:10 4:0 5:0 7:1 73:1 15686:1 # 20140614170630AA1o9BQ Kazakhstan NNP Politics_&_Government LOCATION
0.5 2:0 3:3 4:0 5:0 7:1 73:1 11310:1 # 20140616143448AAdU6Ze Rio NNP Dining_Out ORGANIZATION
0.5 2:0 3:3 4:0 5:0 7:1 73:1 5559:1 # 20140618141409AA9yzif Ray NNP Entertainment_&_Music PERSON
-0.28801025045007566660615339060314 2:0 3:3 4:0 5:0 7:1 73:1 5559:1 # 20140618215915AAruZzF Ray NNP News_&_Events TOKEN
-0.28680220263727718155166712676873 2:0 3:5 4:0 5:0 7:1 73:1 8363:1 # 20140605160251AAlylUY Crazy NNP Beauty_&_Style TOKEN
0.5 2:0 3:3 4:0 5:0 7:1 73:1 14276:1 # 20140609053527AAHPrln Ian NNP News_&_Events PERSON
0.5 2:0 3:3 4:0 5:0 7:1 73:1 12379:1 # 20140601134625AAPRFLP Aid NNP Home_&_Garden ORGANIZATION
0.5 2:0 3:3 4:0 5:0 7:1 73:1 9479:1 # 20140613182418AAAZN2I Zeb NNP Sports PERSON
0.5 2:0 3:3 4:0 5:0 7:1 73:1 5166:1 # 20140614004826AAWj9IB May NNP Entertainment_&_Music PERSON
0.5 2:1 3:2 4:1 5:0 7:0 16:1 2475:1 # 20140613180332AA3jCxr US PRP News_&_Events LOCATION
0.5 2:0 3:3 4:0 5:0 7:1 73:1 15781:1 # 20140611151627AAmAEbQ Ted NNP Politics_&_Government PERSON
0.5 2:0 3:3 4:0 5:0 7:1 73:1 2148:1 # 20140609160711AAprF2f Kay NNP Arts_&_Humanities PERSON
-0.10399639160719065245075398706831 2:0 3:10 4:0 5:0 7:1 8:1 15762:1 # 20140611151627AAmAEbQ Production NN Politics_&_Government TOKEN
-0.046538039452481250179971539182588 2:0 3:10 4:0 5:0 7:1 73:1 15440:1 # 20140608113007AAoVpt8 Government NNP Politics_&_Government TOKEN
-0.027707764222466901848918041650904 2:1 3:8 4:0 5:0 7:1 20:1 14882:1 # 20140611152642AAd7nNQ Floating VBG Pets TOKEN
0.5 2:0 3:11 4:0 5:0 7:0 73:1 12865:1 # 20140613214814AARwXS4 Chic-Fill-A NNP Local_Businesses ORGANIZATION
0.5 2:0 3:2 4:0 5:1 7:0 12:1 3151:1 # 20140613111831AABRhzn al NNS News_&_Events ORGANIZATION
0.5 2:0 3:3 4:0 5:0 7:1 73:1 9136:1 # 20140601101734AAAYp2K Max NNP Dining_Out ORGANIZATION
0.5 2:0 3:3 4:0 5:0 7:1 73:1 5259:1 # 20140614004826AAWj9IB Nim NNP Entertainment_&_Music PERSON
-0.5 2:1 3:2 4:1 5:0 7:0 16:1 2475:1 # 20140622223032AAkvyyd US PRP Games_&_Recreation TOKEN
0.5 2:0 3:3 4:0 5:0 7:1 24:1 729:1 # 20140606223938AAjsrL7 The DT News_&_Events ORGANIZATION
0.5 2:1 3:2 4:1 5:0 7:0 16:1 2475:1 # 20140619105821AAuioIb US PRP Education_&_Reference LOCATION
-0.5 2:0 3:3 4:0 5:0 7:1 73:1 5166:1 # 20140620063230AAXLo9n May NNP Food_&_Drink TOKEN
-0.19514815729623516404878103003284 2:0 3:1 4:0 5:0 7:0 73:1 639:1 # 20140618095228AAKVjIw 2 NNP Science_&_Mathematics TOKEN
0.5 2:0 3:9 4:0 5:0 7:1 73:1 3967:1 # 20140607132455AAfiY8G Panasonic NNP Consumer_Electronics ORGANIZATION
-0.19575374102817200139270426006988 2:0 3:1 4:0 5:0 7:0 73:1 630:1 # 20140603072418AAgZjcN # NNP Science_&_Mathematics TOKEN
-0.28761438142392847794326371513307 2:0 3:4 4:0 5:0 7:1 73:1 18767:1 # 20140609063130AAx8NAT Core NNP Computer_&_Internet TOKEN
0.5 2:0 3:3 4:0 5:0 7:1 73:1 5166:1 # 20140614004826AAWj9IB May NNP Entertainment_&_Music PERSON
0.5 2:0 3:10 4:0 5:0 7:1 73:1 4198:1 # 20140622140805AAtjqJa Statistics NNP Cars_&_Transportation ORGANIZATION
-0.5 2:0 3:3 4:0 5:0 7:1 73:1 5559:1 # 20140618215915AAruZzF Ray NNP News_&_Events TOKEN
-0.21254417064186270636128028854728 2:1 3:10 4:0 5:0 7:1 73:1 5378:1 # 20140620190356AAdnQme Goodfellas NNP Entertainment_&_Music TOKEN
0.5 2:1 3:2 4:1 5:0 7:0 16:1 2475:1 # 20140613180332AA3jCxr US PRP News_&_Events LOCATION
0.5 2:0 3:9 4:0 5:0 7:0 73:1 18950:1 # 20140611001634AAefV9p AnnaMaria NNP Pregnancy_&_Parenting PERSON
-0.19491861817616218388593551935628 2:0 3:1 4:0 5:0 7:0 73:1 131:1 # 20140605225313AAAhy4Z - NNP Health TOKEN
-0.19497674216042004680105037550675 2:0 3:1 4:0 5:0 7:0 73:1 657:1 # 20140608132523AAWfvBH 4 NNP Computer_&_Internet TOKEN
-0.28913898216143874009276260039769 2:0 3:3 4:0 5:0 7:1 73:1 7318:1 # 20140606094406AAvjkJW Ill NNP Games_&_Recreation TOKEN
-0.28570855480103318768669851124287 2:0 3:7 4:0 5:0 7:1 73:1 15621:1 # 20140617203723AAnMv8x Afghani NNP Politics_&_Government TOKEN
-0.28631121176152873886167071759701 2:0 3:7 4:0 5:0 7:1 73:1 15769:1 # 20140611151627AAmAEbQ Illegal NNP Politics_&_Government TOKEN
-0.19481805732802115471713477745652 2:0 3:1 4:0 5:0 7:0 73:1 666:1 # 20140603235141AAdqnjl 6 NNP Cars_&_Transportation TOKEN
-0.2884983723768894670058671181323 2:0 3:4 4:0 5:0 7:1 73:1 9310:1 # 20140626152929AAvb2mt Wolf NNP Sports TOKEN
-0.28831408823045912015459180111066 2:0 3:4 4:0 5:0 7:1 73:1 9593:1 # 20140618192549AAzYXYR Nose NNP Social_Science TOKEN
-0.19481805732806378728128038346767 2:0 3:1 4:0 5:0 7:0 73:1 7755:1 # 20140620035536AASKdrI _ NNP Computer_&_Internet TOKEN
-0.28659284108652993694477117969655 2:0 3:7 4:0 5:0 7:1 73:1 14744:1 # 20140620141720AAh6NZ6 Terrier NNP Pets TOKEN
-0.28650960778679523954792784934398 2:0 3:7 4:0 5:0 7:1 73:1 19490:1 # 20140609172302AAjgqUA Account NNP Yahoo!_Products TOKEN
-0.19515058155050496457860731425171 2:0 3:1 4:0 5:0 7:0 73:1 668:1 # 20140614134845AAVhWeg 7 NNP Consumer_Electronics TOKEN
0.5 2:0 3:5 4:0 5:0 7:1 73:1 12794:1 # 20140609111240AAvCNqw Worth NNP Local_Businesses LOCATION
-0.28539894693584239027117632758745 2:0 3:7 4:0 5:0 7:1 73:1 15126:1 # 20140618212015AAM2O4i Private NNP Travel TOKEN
-0.28544280325667248376930729136802 2:0 3:7 4:0 5:0 7:1 73:1 10911:1 # 20140614131911AAPXlGW Harrier NNP Cars_&_Transportation TOKEN
-0.19441448216650064617638804520539 2:0 3:2 4:0 5:0 7:0 73:1 897:1 # 20140613123024AAkX1Tt !! NNP Education_&_Reference TOKEN
-0.19441448216650270008898360174499 2:0 3:2 4:0 5:0 7:0 73:1 4211:1 # 20140613123024AAkX1Tt 18 NNP Education_&_Reference TOKEN
0.5 2:0 3:5 4:0 5:0 7:1 73:1 7911:1 # 20140618024923AAR6gIm Rosen NNP Science_&_Mathematics PERSON
0.5 2:0 3:5 4:0 5:0 7:1 73:1 15640:1 # 20140614170630AA1o9BQ Sudan NNP Politics_&_Government LOCATION
0.5 2:0 3:5 4:0 5:0 7:1 73:1 8147:1 # 20140626101740AADAK0e Syria NNP Politics_&_Government LOCATION
0.5 2:0 3:5 4:0 5:0 7:1 73:1 14382:1 # 20140614114159AAxmnir Saudi NNP Travel LOCATION
-0.28916201554876863610843429341912 2:0 3:3 4:0 5:0 7:1 73:1 5166:1 # 20140620063230AAXLo9n May NNP Food_&_Drink TOKEN
-0.28524406114652062216308081588068 2:0 3:7 4:0 5:0 7:1 73:1 3916:1 # 20140622223032AAkvyyd Android NNP Games_&_Recreation TOKEN
0.5 2:0 3:5 4:0 5:0 7:1 73:1 1692:1 # 20140609170145AAsvd80 India NNP Politics_&_Government LOCATION
0.5 2:0 3:5 4:0 5:0 7:1 73:1 6805:1 # 20140604203617AAQJuGv Skype NNP Games_&_Recreation ORGANIZATION
0.5 2:0 3:5 4:0 5:0 7:1 73:1 13142:1 # 20140603131218AA1t3hP Diego NNP Local_Businesses LOCATION
0.5 2:0 3:5 4:0 5:0 7:1 73:1 807:1 # 20140616072209AARwehs White NNP Arts_&_Humanities PERSON
0.5 2:0 3:5 4:0 5:0 7:1 73:1 1453:1 # 20140605223141AA4aNVu Scott NNP Arts_&_Humanities PERSON
-0.035968147528330440820809599244967 2:1 3:3 4:1 5:0 7:0 73:1 8083:1 # 20140601004138AAIxEr7 GPS NNP Science_&_Mathematics TOKEN
0.5 2:0 3:3 4:1 5:0 7:0 73:1 15192:1 # 20140610123048AAZOuhW KGB NNP Politics_&_Government ORGANIZATION
0.5 2:0 3:4 4:0 5:0 7:1 710:1 18942:1 # 20140611001634AAefV9p Maya FW Pregnancy_&_Parenting PERSON
0.5 2:0 3:5 4:0 5:0 7:1 73:1 1552:1 # 20140625095108AAhxBZ2 Auden NNP Arts_&_Humanities PERSON
0.5 2:0 3:5 4:0 5:0 7:1 73:1 13196:1 # 20140625034559AAH3Auf Korea NNP Family_&_Relationships LOCATION
-0.28963234186777730982953471539076 2:0 3:2 4:0 5:0 7:1 73:1 11293:1 # 20140615191331AAdpnmg Ya NNP Dining_Out TOKEN
0.5 2:0 3:10 4:0 5:0 7:1 73:1 2770:1 # 20140603135339AAL5mDP California NNP Cars_&_Transportation LOCATION
0.5 2:0 3:10 4:0 5:0 7:1 73:1 1675:1 # 20140609112801AAnee0x Alexandria NNP Arts_&_Humanities LOCATION
0.5 2:0 3:10 4:0 5:0 7:1 73:1 13951:1 # 20140626120744AAMAD0e Poreshenco NNP News_&_Events LOCATION
-0.28724579952970685781110660172999 2:0 3:6 4:0 5:0 7:1 73:1 13343:1 # 20140618114010AAeeGQR Advice NNP Pregnancy_&_Parenting TOKEN
-0.28793652830754012938996311277151 2:0 3:5 4:0 5:0 7:1 73:1 3533:1 # 20140608132523AAWfvBH Power NNP Computer_&_Internet TOKEN
-0.28776103472220615486776296165772 2:0 3:5 4:0 5:0 7:1 73:1 1469:1 # 20140605223141AA4aNVu Noble NNP Arts_&_Humanities TOKEN
0.5 2:0 3:4 4:0 5:0 7:1 73:1 11358:1 # 20140616143448AAdU6Ze Papa NNP Dining_Out ORGANIZATION
0.5 2:0 3:4 4:0 5:0 7:1 73:1 4734:1 # 20140605040256AAru12G Fall NNP Entertainment_&_Music PERSON
-0.5 2:0 3:4 4:0 5:0 7:1 73:1 4734:1 # 20140618083118AAt93Sw Fall NNP Home_&_Garden TOKEN
0.5 2:0 3:4 4:0 5:0 7:1 73:1 15323:1 # 20140607125905AA2JtXv Navy NNP Politics_&_Government ORGANIZATION
0.5 2:0 3:4 4:0 5:0 7:1 73:1 15030:1 # 20140625100007AAcadtk Marx NNP Politics_&_Government PERSON
0.5 2:0 3:4 4:0 5:0 7:1 73:1 3929:1 # 20140603005221AAThPnj Sony NNP Consumer_Electronics ORGANIZATION
0.5 2:0 3:4 4:0 5:0 7:1 73:1 8153:1 # 20140603131218AA1t3hP East NNP Local_Businesses LOCATION
0.5 2:0 3:4 4:0 5:0 7:1 73:1 8154:1 # 20140613154011AAJ98M9 Iran NNP Politics_&_Government LOCATION
-0.28658809426823594890265667345375 2:0 3:7 4:0 5:0 7:1 73:1 18619:1 # 20140611153520AAksgjY Sabrent NNP Computer_&_Internet TOKEN
-0.28523066380402872788124568614876 2:0 3:7 4:0 5:0 7:1 73:1 1461:1 # 20140605223141AA4aNVu Trilogy NNP Arts_&_Humanities TOKEN
0.5 2:0 3:5 4:0 5:0 7:1 73:1 12022:1 # 20140614170630AA1o9BQ Egypt NNP Politics_&_Government LOCATION
-0.017249544821439144470787141472101 2:0 3:1 4:0 5:1 7:0 8:1 7845:1 # 20140603090420AAhFUM7 p NN Science_&_Mathematics TOKEN
0.5 2:0 3:5 4:0 5:0 7:1 73:1 9440:1 # 20140623022611AAddTaJ Brock NNP Sports PERSON
0.5 2:0 3:5 4:0 5:0 7:1 73:1 7488:1 # 20140619060021AAhU4hr Yahoo NNP Sports ORGANIZATION
0.5 2:0 3:5 4:0 5:0 7:1 73:1 4121:1 # 20140623104914AA6r2dE Intel NNP Computer_&_Internet ORGANIZATION
0.5 2:0 3:5 4:0 5:0 7:1 73:1 18321:1 # 20140622230045AAAI6WE Roger NNP Travel PERSON
-0.49941681912579838353849481791258 2:0 3:5 4:0 5:0 7:1 73:1 807:1 # 20140620190356AAdnQme White NNP Entertainment_&_Music TOKEN
-0.5 2:0 3:5 4:0 5:0 7:1 73:1 4278:1 # 20140616160015AAkjHsB Miami NNP Dining_Out TOKEN
-0.5 2:0 3:5 4:0 5:0 7:1 73:1 1692:1 # 20140609031322AAZz3r8 India NNP Travel TOKEN
0.5 2:0 3:5 4:0 5:0 7:1 73:1 686:1 # 20140605104442AAFzzy2 Bryan NNP Sports PERSON
0.5 2:0 3:5 4:0 5:0 7:1 73:1 15085:1 # 20140617015321AAEmy38 Eddie NNP Politics_&_Government PERSON
0.5 2:0 3:5 4:0 5:0 7:1 73:1 4278:1 # 20140610075021AAwlDsA Miami NNP Dining_Out LOCATION
-0.28646456726734115250110335182399 2:0 3:7 4:0 5:0 7:1 73:1 11431:1 # 20140623072617AAIXida Pounder NNP Dining_Out TOKEN
-0.5 2:0 3:7 4:0 5:0 7:1 73:1 15421:1 # 20140617213812AAnm3nS Kingdom NNP Travel TOKEN
0.5 2:0 3:4 4:0 5:0 7:1 73:1 18294:1 # 20140603020037AAlyzyA Ryan NNP Travel PERSON
0.5 2:0 3:4 4:0 5:0 7:1 73:1 11380:1 # 20140616143448AAdU6Ze Togo NNP Dining_Out ORGANIZATION
-0.2883140882303560914579065865837 2:0 3:4 4:0 5:0 7:1 73:1 1908:1 # 20140603005221AAThPnj Hope NNP Consumer_Electronics TOKEN
-0.28840567990262488962116549373604 2:0 3:4 4:0 5:0 7:1 73:1 18258:1 # 20140609221937AAH7tge Hall NNP Travel TOKEN
-0.28855675029169347567403747234493 2:0 3:4 4:0 5:0 7:1 73:1 695:1 # 20140610193547AAHNlOY Good NNP Business_&_Finance TOKEN
0.5 2:0 3:4 4:0 5:0 7:1 73:1 778:1 # 20140615171734AAd4Cuo Mary NNP Yahoo!_Products PERSON
0.5 2:0 3:4 4:0 5:0 7:1 73:1 13993:1 # 20140617191218AAiEBHA News NNP News_&_Events ORGANIZATION
-0.28855638279180428895642762654461 2:0 3:4 4:0 5:0 7:1 73:1 11723:1 # 20140620063230AAXLo9n Golf NNP Food_&_Drink TOKEN
-0.012663552875137845665776126224955 2:0 3:6 4:0 5:1 7:0 8:1 8710:1 # 20140607185036AAymxEi parent NN Pregnancy_&_Parenting TOKEN
0.5 2:0 3:3 4:1 5:0 7:0 73:1 2568:1 # 20140612022126AAsUT1R USA NNP Beauty_&_Style LOCATION
0.5 2:0 3:5 4:0 5:0 7:1 73:1 1419:1 # 20140605223141AA4aNVu Harry NNP Arts_&_Humanities PERSON
-0.28842672866851870594473439268768 2:0 3:4 4:0 5:0 7:1 73:1 364:1 # 20140609073126AAKKPVv Plus NNP Pregnancy_&_Parenting TOKEN
-0.28849801257073970361943793250248 2:0 3:4 4:0 5:0 7:1 73:1 2929:1 # 20140611141719AAUaRNh List NNP Food_&_Drink TOKEN
-0.28853477163638230340581003474654 2:0 3:4 4:0 5:0 7:1 73:1 6903:1 # 20140611144551AAguC6x Arma NNP Games_&_Recreation TOKEN
0.5 2:0 3:5 4:0 5:0 7:1 73:1 807:1 # 20140617074422AANUT7h White NNP Arts_&_Humanities PERSON
0.5 2:0 3:5 4:0 5:0 7:1 73:1 1692:1 # 20140618212015AAM2O4i India NNP Travel LOCATION
0.5 2:0 3:5 4:0 5:0 7:1 73:1 11319:1 # 20140613214814AARwXS4 Dairy NNP Local_Businesses ORGANIZATION
0.5 2:0 3:5 4:0 5:0 7:1 73:1 5398:1 # 20140620190356AAdnQme Nitti NNP Entertainment_&_Music PERSON
0.5 2:0 3:5 4:0 5:0 7:1 73:1 18096:1 # 20140608151316AAZv17m Paris NNP Travel ORGANIZATION
0.5 2:0 3:5 4:0 5:0 7:1 73:1 9569:1 # 20140615224306AASdmOX Kawhi NNP Sports PERSON
0.5 2:0 3:5 4:0 5:0 7:1 73:1 10857:1 # 20140610123048AAZOuhW Obama NNP Politics_&_Government PERSON
0.5 2:0 3:5 4:0 5:0 7:1 73:1 11361:1 # 20140616143448AAdU6Ze Pizza NNP Dining_Out ORGANIZATION
-0.5 2:0 3:5 4:0 5:0 7:1 73:1 1692:1 # 20140609031322AAZz3r8 India NNP Travel TOKEN
-0.10780584200690696006219582159247 2:0 3:4 4:0 5:0 7:1 8:1 6602:1 # 20140610194612AA31tgA Sort NN Local_Businesses TOKEN
-0.10804391369439425574228152981959 2:0 3:4 4:0 5:0 7:1 8:1 1445:1 # 20140604115540AAQrGu2 Look NN Travel TOKEN
0.5 2:0 3:5 4:0 5:0 7:1 73:1 11320:1 # 20140616143448AAdU6Ze Queen NNP Dining_Out ORGANIZATION
-0.28660778813750809046467793450574 2:0 3:7 4:0 5:0 7:1 73:1 15244:1 # 20140610123048AAZOuhW Puritan NNP Politics_&_Government TOKEN
0.5 2:0 3:5 4:0 5:0 7:1 73:1 4177:1 # 20140607141649AANF6Tv Carey NNP Consumer_Electronics PERSON
0.5 2:0 3:5 4:0 5:0 7:1 73:1 9125:1 # 20140626150225AAeTpqG Cuero NNP Sports LOCATION
0.5 2:0 3:3 4:0 5:0 7:1 24:1 830:1 # 20140605040256AAru12G All DT Entertainment_&_Music PERSON
-0.28784724206866973972296364081558 2:0 3:4 4:0 5:0 7:1 73:1 3179:1 # 20140615120927AAPeVv5 Luck NNP Sports TOKEN
0.5 2:0 3:5 4:0 5:0 7:1 73:1 5199:1 # 20140614004826AAWj9IB Benny NNP Entertainment_&_Music PERSON
-0.5 2:0 3:5 4:0 5:0 7:1 73:1 18096:1 # 20140612013350AAX11Xr Paris NNP Travel TOKEN
0.5 2:0 3:5 4:0 5:0 7:1 73:1 11386:1 # 20140616143448AAdU6Ze Zaxby NNP Dining_Out ORGANIZATION
0.5 2:0 3:5 4:0 5:0 7:1 73:1 2073:1 # 20140625193136AAUePpR Anton NNP Arts_&_Humanities PERSON
0.5 2:0 3:5 4:0 5:0 7:1 73:1 8185:1 # 20140610222206AAaaj3T River NNP News_&_Events LOCATION
-0.288506840435259537258616546751 2:0 3:4 4:0 5:0 7:1 73:1 1093:1 # 20140620213457AAI59UA Game NNP Computer_&_Internet TOKEN
-0.28856143176772697245269228005782 2:0 3:4 4:0 5:0 7:1 73:1 3579:1 # 20140620063230AAXLo9n Home NNP Food_&_Drink TOKEN
-0.28850419428978391067630582256243 2:0 3:4 4:0 5:0 7:1 73:1 4707:1 # 20140617152905AAraW4N Time NNP Education_&_Reference TOKEN
-0.28833165557595874517460288188886 2:0 3:4 4:0 5:0 7:1 73:1 1161:1 # 20140618215915AAruZzF Many NNP News_&_Events TOKEN
0.5 2:0 3:5 4:0 5:0 7:1 73:1 807:1 # 20140617074422AANUT7h White NNP Arts_&_Humanities PERSON
0.5 2:0 3:5 4:0 5:0 7:1 73:1 4506:1 # 20140618125641AAGkGpi Jayne NNP Education_&_Reference PERSON
-0.49858523659182196752226445823908 2:0 3:5 4:0 5:0 7:1 73:1 807:1 # 20140620035947AAeYEbM White NNP Local_Businesses TOKEN
0.5 2:0 3:5 4:0 5:0 7:1 73:1 18069:1 # 20140617213812AAnm3nS Epcot NNP Travel ORGANIZATION
0.5 2:0 3:5 4:0 5:0 7:1 73:1 13960:1 # 20140626120744AAMAD0e North NNP News_&_Events LOCATION
0.5 2:0 3:5 4:0 5:0 7:1 73:1 11357:1 # 20140616143448AAdU6Ze Bread NNP Dining_Out ORGANIZATION
0.5 2:0 3:5 4:0 5:0 7:1 73:1 5330:1 # 20140611151627AAmAEbQ Italy NNP Politics_&_Government LOCATION
-0.1074194206328549228146584937349 2:0 3:5 4:0 5:0 7:1 8:1 17472:1 # 20140614045845AAdu92x Quote NN Computer_&_Internet TOKEN
0.5 2:0 3:5 4:0 5:0 7:1 73:1 1708:1 # 20140618212015AAM2O4i Delhi NNP Travel LOCATION
0.5 2:0 3:5 4:0 5:0 7:1 73:1 3704:1 # 20140613162418AAQFhPM Casio NNP Consumer_Electronics ORGANIZATION
-0.28978448727495020875721820630133 2:0 3:2 4:0 5:0 7:1 73:1 9659:1 # 20140616160015AAkjHsB La NNP Dining_Out TOKEN
-0.2865928410865148379116362775676 2:0 3:7 4:0 5:0 7:1 73:1 12154:1 # 20140623173753AAUMZe3 Glucose NNP Food_&_Drink TOKEN
-0.28655037432381647022339166142046 2:0 3:7 4:0 5:0 7:1 73:1 4275:1 # 20140609221937AAH7tge College NNP Travel TOKEN
0.5 2:0 3:4 4:0 5:0 7:1 73:1 14254:1 # 20140609053527AAHPrln Carr NNP News_&_Events PERSON
0.5 2:0 3:4 4:0 5:0 7:1 73:1 2512:1 # 20140626223207AABdv8w Rick NNP Business_&_Finance PERSON
0.5 2:0 3:4 4:0 5:0 7:1 73:1 9040:1 # 20140605104442AAFzzy2 Bray NNP Sports PERSON
0.5 2:0 3:4 4:0 5:0 7:1 73:1 4279:1 # 20140609122525AAYu0rC Ohio NNP Travel LOCATION
0.5 2:0 3:4 4:0 5:0 7:1 73:1 15457:1 # 20140617193722AA5emAo Lois NNP Politics_&_Government PERSON
0.5 2:0 3:5 4:0 5:0 7:1 73:1 4954:1 # 20140611132742AAU8vAK Costa NNP Education_&_Reference LOCATION
0.5 2:0 3:4 4:0 5:0 7:1 73:1 9145:1 # 20140615215028AAGmoaM Cole NNP Sports PERSON
-0.28853269878197362885430266032927 2:0 3:4 4:0 5:0 7:1 73:1 5427:1 # 20140625193758AANDcbj Heat NNP Games_&_Recreation TOKEN
-0.28847783076955213488190565840341 2:0 3:4 4:0 5:0 7:1 73:1 658:1 # 20140615220821AAG2puS Read NNP Games_&_Recreation TOKEN
-0.28838159779715644148723185935523 2:0 3:4 4:0 5:0 7:1 73:1 4188:1 # 20140607141649AANF6Tv Asus NNP Consumer_Electronics TOKEN
0.5 2:0 3:5 4:0 5:0 7:1 73:1 807:1 # 20140616143448AAdU6Ze White NNP Dining_Out ORGANIZATION
0.5 2:0 3:5 4:0 5:0 7:1 73:1 15693:1 # 20140614170630AA1o9BQ Qaida NNP Politics_&_Government ORGANIZATION
0.5 2:0 3:5 4:0 5:0 7:1 73:1 1692:1 # 20140618212015AAM2O4i India NNP Travel LOCATION
0.5 2:0 3:5 4:0 5:0 7:1 73:1 18479:1 # 20140614114159AAxmnir Dhabi NNP Travel LOCATION
0.5 2:0 3:5 4:0 5:0 7:1 73:1 4679:1 # 20140614170630AA1o9BQ Spain NNP Politics_&_Government LOCATION
-0.5 2:0 3:5 4:0 5:0 7:1 73:1 807:1 # 20140616154757AA3uubn White NNP News_&_Events TOKEN
-0.5 2:0 3:5 4:0 5:0 7:1 73:1 1692:1 # 20140603053113AAVRR5O India NNP Local_Businesses TOKEN
0.5 2:0 3:5 4:0 5:0 7:1 73:1 11367:1 # 20140616143448AAdU6Ze Qdoba NNP Dining_Out ORGANIZATION
0.5 2:0 3:5 4:0 5:0 7:1 73:1 13729:1 # 20140612075720AAmNq58 Bundy NNP News_&_Events PERSON
0.5 2:0 3:5 4:0 5:0 7:1 73:1 1716:1 # 20140616154757AA3uubn Islam NNP News_&_Events ORGANIZATION
0.5 2:0 3:5 4:0 5:0 7:1 73:1 14103:1 # 20140612211617AAE6Bis Qaeda NNP News_&_Events ORGANIZATION
0.5 2:0 3:5 4:0 5:0 7:1 73:1 4278:1 # 20140604083714AANM1Br Miami NNP Education_&_Reference LOCATION
-0.5 2:0 3:5 4:0 5:0 7:1 73:1 1716:1 # 20140609103348AAf8tZ6 Islam NNP News_&_Events TOKEN
-0.28855111693296020547450098092668 2:0 3:4 4:0 5:0 7:1 73:1 1097:1 # 20140613202053AAONeF7 Fire NNP Games_&_Recreation TOKEN
-0.28855638279180162442116852616891 2:0 3:4 4:0 5:0 7:1 73:1 8789:1 # 20140613125219AA2D0JF Heyo NNP Beauty_&_Style TOKEN
-0.28857070688235975097768459818326 2:0 3:4 4:0 5:0 7:1 73:1 7053:1 # 20140620003333AAaN90M Wave NNP Dining_Out TOKEN
-0.28843642867381369399026880273595 2:0 3:4 4:0 5:0 7:1 73:1 5820:1 # 20140619012658AAFU8Pz Edit NNP Yahoo!_Products TOKEN
0.5 2:0 3:5 4:0 5:0 7:1 73:1 5405:1 # 20140620190356AAdnQme Bugsy NNP Entertainment_&_Music PERSON
0.5 2:0 3:5 4:0 5:0 7:1 73:1 3137:1 # 20140601131055AAPxhOP Texas NNP Business_&_Finance LOCATION
0.5 2:0 3:5 4:0 5:0 7:1 73:1 1701:1 # 20140609112801AAnee0x China NNP Arts_&_Humanities LOCATION
-0.2885408164916603013239182473626 2:0 3:4 4:0 5:0 7:1 73:1 1464:1 # 20140605223141AA4aNVu Star NNP Arts_&_Humanities TOKEN
-0.28839368449464330979026271961629 2:0 3:4 4:0 5:0 7:1 73:1 4676:1 # 20140608094114AAxPdPq High NNP Health TOKEN
-0.28844952351158781311823986470699 2:0 3:4 4:0 5:0 7:1 73:1 5011:1 # 20140611114023AAQ6gKU Army NNP Education_&_Reference TOKEN
-0.2883662717784201134918475872837 2:0 3:4 4:0 5:0 7:1 73:1 11249:1 # 20140617213812AAnm3nS Park NNP Travel TOKEN
-0.28856086223217136677021699142642 2:0 3:4 4:0 5:0 7:1 73:1 4004:1 # 20140601160702AAOGVk4 Mode NNP Yahoo!_Products TOKEN
0.5 2:0 3:5 4:0 5:0 7:1 73:1 15469:1 # 20140617193722AA5emAo Levin NNP Politics_&_Government PERSON
0.5 2:0 3:5 4:0 5:0 7:1 73:1 11060:1 # 20140601101734AAAYp2K Cheng NNP Dining_Out ORGANIZATION
0.5 2:0 3:5 4:0 5:0 7:1 73:1 15057:1 # 20140617015321AAEmy38 Perry NNP Politics_&_Government PERSON
0.5 2:0 3:5 4:0 5:0 7:1 73:1 13946:1 # 20140626120744AAMAD0e Putin NNP News_&_Events PERSON
-0.5 2:0 3:5 4:0 5:0 7:1 73:1 13946:1 # 20140610123048AAZOuhW Putin NNP Politics_&_Government TOKEN
0.5 2:0 3:5 4:0 5:0 7:1 73:1 18096:1 # 20140608151316AAZv17m Paris NNP Travel ORGANIZATION
0.5 2:0 3:5 4:0 5:0 7:1 73:1 11373:1 # 20140616143448AAdU6Ze Shack NNP Dining_Out ORGANIZATION
0.5 2:0 3:5 4:0 5:0 7:1 73:1 9438:1 # 20140623022611AAddTaJ Angle NNP Sports PERSON
0.5 2:0 3:5 4:0 5:0 7:1 73:1 13487:1 # 20140607071218AAzGtJH Ricky NNP Family_&_Relationships PERSON
-0.28856086223205368312960672483314 2:0 3:4 4:0 5:0 7:1 73:1 7003:1 # 20140625193758AANDcbj Tail NNP Games_&_Recreation TOKEN
-0.28844147373140271994884642481338 2:0 3:4 4:0 5:0 7:1 73:1 12231:1 # 20140608155422AAGg2Wt Beat NNP Pregnancy_&_Parenting TOKEN
-0.28850619791618825615842069964856 2:0 3:4 4:0 5:0 7:1 73:1 2392:1 # 20140616190348AA6nheU June NNP Dining_Out TOKEN
-0.28827367518076041363883632584475 2:0 3:4 4:0 5:0 7:1 73:1 1095:1 # 20140616072209AARwehs Song NNP Arts_&_Humanities TOKEN
-0.28855675029185512414642289513722 2:0 3:4 4:0 5:0 7:1 73:1 8183:1 # 20140625120602AAXWOm0 Gulf NNP Science_&_Mathematics TOKEN
0.5 2:0 3:4 4:0 5:0 7:1 73:1 15785:1 # 20140611151627AAmAEbQ Newt NNP Politics_&_Government PERSON
0.5 2:0 3:4 4:0 5:0 7:1 73:1 15168:1 # 20140610123048AAZOuhW Bowe NNP Politics_&_Government PERSON
0.5 2:0 3:4 4:0 5:0 7:1 73:1 13979:1 # 20140611151627AAmAEbQ Bush NNP Politics_&_Government PERSON
0.5 2:0 3:4 4:0 5:0 7:1 73:1 12793:1 # 20140609111240AAvCNqw Fort NNP Local_Businesses LOCATION
0.5 2:0 3:4 4:0 5:0 7:1 73:1 682:1 # 20140605104442AAFzzy2 Eric NNP Sports PERSON
0.5 2:0 3:4 4:0 5:0 7:1 73:1 2716:1 # 20140621155455AA5YRJ2 Maui NNP Business_&_Finance LOCATION
0.5 2:0 3:4 4:0 5:0 7:1 73:1 14258:1 # 20140609053527AAHPrln Knox NNP News_&_Events PERSON
0.5 2:0 3:4 4:0 5:0 7:1 73:1 13473:1 # 20140620214550AA74tKP Mike NNP News_&_Events PERSON
-0.28855675029179739254914238699712 2:0 3:4 4:0 5:0 7:1 73:1 11106:1 # 20140613111207AAD5YgE Holy NNP Dining_Out TOKEN
-0.28854603101616049798394669778645 2:0 3:4 4:0 5:0 7:1 73:1 12815:1 # 20140611085859AAUuw7r Mail NNP Yahoo!_Products TOKEN
-0.28727127669313889946067774872063 2:0 3:4 4:0 5:0 7:1 73:1 11099:1 # 20140620063230AAXLo9n Food NNP Food_&_Drink TOKEN
-0.28855111693296464636659948155284 2:0 3:4 4:0 5:0 7:1 73:1 10888:1 # 20140617092003AATWcQC Prix NNP Cars_&_Transportation TOKEN
-0.28843278578544184753695844847243 2:0 3:4 4:0 5:0 7:1 73:1 12141:1 # 20140623173753AAUMZe3 Meat NNP Food_&_Drink TOKEN
0.5 2:0 3:4 4:0 5:0 7:1 73:1 1627:1 # 20140618141409AA9yzif King NNP Entertainment_&_Music PERSON
0.5 2:0 3:4 4:0 5:0 7:1 73:1 9042:1 # 20140605104442AAFzzy2 Cena NNP Sports PERSON
0.5 2:0 3:4 4:0 5:0 7:1 73:1 795:1 # 20140617074422AANUT7h Faye NNP Arts_&_Humanities PERSON
0.5 2:0 3:4 4:0 5:0 7:1 73:1 5268:1 # 20140614004826AAWj9IB Snow NNP Entertainment_&_Music PERSON
0.5 2:0 3:4 4:0 5:0 7:1 73:1 1468:1 # 20140605223141AA4aNVu Ness NNP Arts_&_Humanities PERSON
0.5 2:0 3:4 4:0 5:0 7:1 73:1 5165:1 # 20140614004826AAWj9IB Macy NNP Entertainment_&_Music PERSON
0.5 2:0 3:4 4:0 5:0 7:1 73:1 9071:1 # 20140605104442AAFzzy2 Seth NNP Sports PERSON
0.5 2:0 3:4 4:0 5:0 7:1 73:1 9254:1 # 20140617195809AA0PD6g Real NNP Sports ORGANIZATION
0.5 2:0 3:4 4:0 5:0 7:1 73:1 3932:1 # 20140603005221AAThPnj Acer NNP Consumer_Electronics ORGANIZATION
-0.5 2:0 3:4 4:0 5:0 7:1 73:1 1627:1 # 20140604112329AAS36PD King NNP Dining_Out TOKEN
-0.28651004074849062419616529950872 2:0 3:7 4:0 5:0 7:1 73:1 7704:1 # 20140608132523AAWfvBH January NNP Computer_&_Internet TOKEN
-0.28543843485165304452166878945718 2:0 3:7 4:0 5:0 7:1 73:1 17717:1 # 20140620192235AA5KHXm Morocco NNP Travel TOKEN
0.5 2:0 3:5 4:0 5:0 7:1 73:1 5511:1 # 20140613111207AAD5YgE Wayne NNP Dining_Out PERSON
-0.28658809426847398071913630701602 2:0 3:7 4:0 5:0 7:1 73:1 8454:1 # 20140615025730AAsJj6v Jessica NNP Social_Science TOKEN
-0.28541693505228826754915871788398 2:0 3:7 4:0 5:0 7:1 73:1 13949:1 # 20140626120744AAMAD0e Crimean NNP News_&_Events TOKEN
0.5 2:0 3:5 4:0 5:0 7:1 73:1 3466:1 # 20140616143448AAdU6Ze Round NNP Dining_Out ORGANIZATION
0.5 2:0 3:5 4:0 5:0 7:1 73:1 13946:1 # 20140626120744AAMAD0e Putin NNP News_&_Events PERSON
0.5 2:0 3:5 4:0 5:0 7:1 73:1 9317:1 # 20140607094147AAMHfCN Jimmy NNP Sports PERSON
0.5 2:0 3:5 4:0 5:0 7:1 73:1 2147:1 # 20140609160711AAprF2f Susan NNP Arts_&_Humanities PERSON
0.5 2:0 3:5 4:0 5:0 7:1 73:1 11326:1 # 20140616143448AAdU6Ze Pollo NNP Dining_Out ORGANIZATION
0.5 2:0 3:4 4:0 5:0 7:1 73:1 9412:1 # 20140611153858AAK05v1 Pete NNP Sports LOCATION
0.5 2:0 3:4 4:0 5:0 7:1 73:1 1627:1 # 20140618141409AA9yzif King NNP Entertainment_&_Music PERSON
0.5 2:0 3:4 4:0 5:0 7:1 73:1 5200:1 # 20140614004826AAWj9IB Joon NNP Entertainment_&_Music PERSON
0.5 2:0 3:4 4:0 5:0 7:1 73:1 8972:1 # 20140601162630AAuDjDG Mert NNP Sports PERSON
0.5 2:0 3:4 4:0 5:0 7:1 73:1 2657:1 # 20140609103954AAB6LY5 York NNP News_&_Events LOCATION
-0.2865049957360360499691864788474 2:0 3:5 4:0 5:0 7:1 73:1 3466:1 # 20140625210906AATgayM Round NNP News_&_Events TOKEN
0.5 2:0 3:4 4:0 5:0 7:1 73:1 8969:1 # 20140601162630AAuDjDG Pepe NNP Sports ORGANIZATION
0.5 2:0 3:4 4:0 5:0 7:1 73:1 4955:1 # 20140611132742AAU8vAK Rica NNP Education_&_Reference LOCATION
0.5 2:0 3:4 4:0 5:0 7:1 73:1 11889:1 # 20140626133140AAROz72 Hati NNP Food_&_Drink LOCATION
0.5 2:0 3:4 4:0 5:0 7:1 73:1 8152:1 # 20140614170630AA1o9BQ Iraq NNP Politics_&_Government LOCATION
-0.28664739071776779155698022805154 2:0 3:7 4:0 5:0 7:1 73:1 5418:1 # 20140620190356AAdnQme Hoodlum NNP Entertainment_&_Music TOKEN
-0.28539460232082214385940233114525 2:0 3:7 4:0 5:0 7:1 73:1 6884:1 # 20140620021441AAIMW14 Skyline NNP Games_&_Recreation TOKEN
-0.49920550885820347275512176565826 2:0 3:4 4:0 5:0 7:1 73:1 8152:1 # 20140614170630AA1o9BQ Iraq NNP Politics_&_Government TOKEN
0.5 2:0 3:4 4:0 5:0 7:1 73:1 11587:1 # 20140605102530AA17S7s Kyle NNP Dining_Out PERSON
0.5 2:0 3:4 4:0 5:0 7:1 73:1 8153:1 # 20140603131218AA1t3hP East NNP Local_Businesses LOCATION
0.5 2:0 3:4 4:0 5:0 7:1 73:1 6653:1 # 20140612080629AAuyjlx Sean NNP Health PERSON
-0.5 2:0 3:4 4:0 5:0 7:1 73:1 1627:1 # 20140604112329AAS36PD King NNP Dining_Out TOKEN
-0.28845719242579725971609150292352 2:0 3:4 4:0 5:0 7:1 73:1 4209:1 # 20140613123024AAkX1Tt Xscl NNP Education_&_Reference TOKEN
-0.28852117480329830812024738406762 2:0 3:4 4:0 5:0 7:1 73:1 5348:1 # 20140615025730AAsJj6v Riot NNP Social_Science TOKEN
0.5 2:0 3:4 4:0 5:0 7:1 73:1 15785:1 # 20140611151627AAmAEbQ Newt NNP Politics_&_Government PERSON
0.5 2:0 3:4 4:0 5:0 7:1 73:1 11387:1 # 20140616143448AAdU6Ze Zoup NNP Dining_Out ORGANIZATION
-0.10750525442632041794865926931379 2:0 3:5 4:0 5:0 7:1 8:1 5835:1 # 20140613124158AAH0KXB Pluto NN Entertainment_&_Music TOKEN
0.5 2:0 3:4 4:0 5:0 7:1 73:1 783:1 # 20140617074422AANUT7h Sade NNP Arts_&_Humanities PERSON
0.5 2:0 3:4 4:0 5:0 7:1 73:1 9437:1 # 20140623022611AAddTaJ Kurt NNP Sports PERSON
0.5 2:0 3:4 4:0 5:0 7:1 73:1 5268:1 # 20140614004826AAWj9IB Snow NNP Entertainment_&_Music PERSON
0.5 2:0 3:4 4:0 5:0 7:1 73:1 8152:1 # 20140612211617AAE6Bis Iraq NNP News_&_Events LOCATION
-0.28916872540662552637513726949692 2:0 3:4 4:0 5:0 7:1 73:1 8152:1 # 20140625120602AAXWOm0 Iraq NNP Science_&_Mathematics TOKEN
-0.28855111693288293395198707003146 2:0 3:4 4:0 5:0 7:1 73:1 8923:1 # 20140615190410AAmWDg3 Dude NNP Sports TOKEN
-0.28852117480333738797071418957785 2:0 3:4 4:0 5:0 7:1 73:1 12543:1 # 20140608105750AAaIXts Lowe NNP Home_&_Garden TOKEN
0.5 2:0 3:5 4:0 5:0 7:1 73:1 3489:1 # 20140625230035AAgGhX2 Apple NNP Consumer_Electronics ORGANIZATION
0.5 2:0 3:4 4:0 5:0 7:1 73:1 4448:1 # 20140610062626AA46ms6 Mark NNP Education_&_Reference PERSON
0.5 2:0 3:4 4:0 5:0 7:1 73:1 5585:1 # 20140605040256AAru12G Iron NNP Entertainment_&_Music PERSON
0.5 2:0 3:4 4:0 5:0 7:1 73:1 18436:1 # 20140618212015AAM2O4i Axis NNP Travel ORGANIZATION
-0.28663492245921418088983045890927 2:0 3:7 4:0 5:0 7:1 73:1 18022:1 # 20140604152901AACS3Yj Burundi NNP Travel TOKEN
-0.28663492245916089018464845139533 2:0 3:7 4:0 5:0 7:1 73:1 5962:1 # 20140608132523AAWfvBH Problem NNP Computer_&_Internet TOKEN
0.5 2:0 3:4 4:0 5:0 7:1 73:1 9488:1 # 20140616143448AAdU6Ze Jack NNP Dining_Out ORGANIZATION
0.5 2:0 3:4 4:0 5:0 7:1 73:1 3011:1 # 20140611204210AAPJj1y Arun NNP Business_&_Finance PERSON
-0.49999995475786151999386675015558 2:0 3:5 4:0 5:0 7:1 73:1 3489:1 # 20140603131218AA1t3hP Apple NNP Local_Businesses TOKEN
0.5 2:0 3:5 4:0 5:0 7:1 73:1 11373:1 # 20140616143448AAdU6Ze Shack NNP Dining_Out ORGANIZATION
-0.28829576776502108259592205286026 2:0 3:4 4:0 5:0 7:1 73:1 9488:1 # 20140603131218AA1t3hP Jack NNP Local_Businesses TOKEN
-0.28910626891371649094253371004015 2:0 3:5 4:0 5:0 7:1 73:1 3489:1 # 20140603131218AA1t3hP Apple NNP Local_Businesses TOKEN
0.5 2:0 3:4 4:0 5:0 7:1 73:1 1627:1 # 20140616143448AAdU6Ze King NNP Dining_Out ORGANIZATION
0.5 2:0 3:4 4:0 5:0 7:1 73:1 11092:1 # 20140613111207AAD5YgE Gacy NNP Dining_Out PERSON
0.5 2:0 3:4 4:0 5:0 7:1 73:1 1541:1 # 20140625095108AAhxBZ2 Paul NNP Arts_&_Humanities PERSON
-0.28849992766629029006253404077142 2:0 3:4 4:0 5:0 7:1 73:1 5349:1 # 20140613124917AAp8Kiq Code NNP Entertainment_&_Music TOKEN
-0.28843278578543918300169934809674 2:0 3:4 4:0 5:0 7:1 73:1 5735:1 # 20140605140138AAyDVJY Dont NNP Entertainment_&_Music TOKEN
-0.28829340961653571184797328896821 2:0 3:4 4:0 5:0 7:1 73:1 11208:1 # 20140616160015AAkjHsB Caf NNP Dining_Out TOKEN
-0.28851429637511444292741202843899 2:0 3:4 4:0 5:0 7:1 73:1 7937:1 # 20140618024923AAR6gIm Folk NNP Science_&_Mathematics TOKEN
-0.28852117480341732402848720084876 2:0 3:4 4:0 5:0 7:1 73:1 4268:1 # 20140609031322AAZz3r8 Hill NNP Travel TOKEN
-0.10600380300737022309931489871815 2:0 3:4 4:0 5:0 7:1 16:1 692:1 # 20140608162419AAwr1N9 They PRP Entertainment_&_Music TOKEN
-0.5 2:0 3:4 4:0 5:0 7:1 73:1 8152:1 # 20140614170630AA1o9BQ Iraq NNP Politics_&_Government TOKEN
-0.28833165557598494643798403558321 2:0 3:4 4:0 5:0 7:1 73:1 14897:1 # 20140611152642AAd7nNQ Dang NNP Pets TOKEN
-0.28794538920664258796477952273563 2:0 3:4 4:0 5:0 7:1 73:1 8702:1 # 20140619055300AA9BUOc July NNP Food_&_Drink TOKEN
-0.28854081649163632050658634398133 2:0 3:4 4:0 5:0 7:1 73:1 969:1 # 20140621115845AAQL7uD Dear NNP Family_&_Relationships TOKEN
-0.28714579080985236370082702705986 2:0 3:4 4:0 5:0 7:1 73:1 8149:1 # 20140617213812AAnm3nS West NNP Travel TOKEN
-0.28746516375522646047357966381242 2:0 3:4 4:0 5:0 7:1 73:1 2445:1 # 20140608145354AAWyj40 Ring NNP Business_&_Finance TOKEN
-0.288543806308080519329450908117 2:0 3:4 4:0 5:0 7:1 73:1 8848:1 # 20140607184544AAxrzQb Line NNP Beauty_&_Style TOKEN
-0.28832171311760212972785666352138 2:0 3:4 4:0 5:0 7:1 73:1 11302:1 # 20140616143448AAdU6Ze Menu NNP Dining_Out TOKEN
-0.28842043343351275730412908160361 2:0 3:4 4:0 5:0 7:1 73:1 7315:1 # 20140625234425AA5mIb9 Live NNP Computer_&_Internet TOKEN
-0.28855514588689246124886267352849 2:0 3:4 4:0 5:0 7:1 73:1 14853:1 # 20140608222755AASVAKO Ping NNP Pets TOKEN
-0.28849837237690145741453306982294 2:0 3:4 4:0 5:0 7:1 73:1 12246:1 # 20140618193911AA3NARn Jeez NNP Home_&_Garden TOKEN
-0.28705678600010031686906586401165 2:0 3:6 4:0 5:0 7:1 73:1 18130:1 # 20140615004107AA0Il4W Orakle NNP Travel TOKEN
-0.28849837237682374180280930886511 2:0 3:4 4:0 5:0 7:1 73:1 12433:1 # 20140607191241AAICEVB Weed NNP Home_&_Garden TOKEN
0.5 2:0 3:4 4:0 5:0 7:1 73:1 262:1 # 20140608034752AAWHbyf John NNP Arts_&_Humanities PERSON
-0.2852213654786422414311175543844 2:0 3:7 4:0 5:0 7:1 73:1 4500:1 # 20140625193758AANDcbj Ability NNP Games_&_Recreation TOKEN
-0.28663705058741406617173197446391 2:0 3:7 4:0 5:0 7:1 73:1 4757:1 # 20140626114755AAx0yWm Algebra NNP Education_&_Reference TOKEN
-0.28853477163640089964147250611859 2:0 3:4 4:0 5:0 7:1 73:1 2456:1 # 20140608145354AAWyj40 Loan NNP Business_&_Finance TOKEN
-0.28836357351625174771925230743363 2:0 3:4 4:0 5:0 7:1 73:1 5339:1 # 20140613073945AAjr9GV Skin NNP Pets TOKEN
-0.28844147373140893719778432569001 2:0 3:4 4:0 5:0 7:1 73:1 4534:1 # 20140618125641AAGkGpi Play NNP Education_&_Reference TOKEN
-0.288463469624966606374982802663 2:0 3:4 4:0 5:0 7:1 73:1 2890:1 # 20140615192931AAJvnqN Card NNP Business_&_Finance TOKEN
-0.2885567502916952520308768725954 2:0 3:4 4:0 5:0 7:1 73:1 424:1 # 20140612201710AACVW6f Open NNP Arts_&_Humanities TOKEN
0.5 2:0 3:10 4:0 5:0 7:1 73:1 18030:1 # 20140604115540AAQrGu2 Disneyland NNP Travel LOCATION
-0.28850326794532676899507350753993 2:0 3:4 4:0 5:0 7:1 73:1 14753:1 # 20140623154545AAikPvj Welp NNP Pets TOKEN
-0.28778436614766178536228835582733 2:0 3:5 4:0 5:0 7:1 73:1 11825:1 # 20140611141719AAUaRNh Avne NNP Food_&_Drink TOKEN
-0.28752896977287889512808760628104 2:0 3:5 4:0 5:0 7:1 73:1 7572:1 # 20140623023853AA1SoFR Trunc NNP Science_&_Mathematics TOKEN
-0.28838402955643971381505252793431 2:0 3:4 4:0 5:0 7:1 73:1 7314:1 # 20140606094406AAvjkJW Xbox NNP Games_&_Recreation TOKEN
-0.28844147373123441013831325108185 2:0 3:4 4:0 5:0 7:1 73:1 15420:1 # 20140619072135AAeFu7N Isle NNP Politics_&_Government TOKEN
-0.28856086223211496744056603347417 2:0 3:4 4:0 5:0 7:1 73:1 15369:1 # 20140613132938AABdKy8 Info NNP Politics_&_Government TOKEN
-0.28839089108208071365879732184112 2:0 3:4 4:0 5:0 7:1 73:1 14743:1 # 20140620141720AAh6NZ6 Bull NNP Pets TOKEN
-0.28849837237689301971954591863323 2:0 3:4 4:0 5:0 7:1 73:1 7380:1 # 20140621115845AAQL7uD Book NNP Family_&_Relationships TOKEN
-0.28848827888120798235149777610786 2:0 3:4 4:0 5:0 7:1 73:1 4734:1 # 20140618083118AAt93Sw Fall NNP Home_&_Garden TOKEN
-0.28714579080986013526199940315564 2:0 3:4 4:0 5:0 7:1 73:1 11921:1 # 20140626031053AAyXCcP Peel NNP Food_&_Drink TOKEN
-0.28637807080137633874983293935657 2:0 3:7 4:0 5:0 7:1 73:1 3580:1 # 20140614134845AAVhWeg Premium NNP Consumer_Electronics TOKEN
-0.28637795897136086864520621020347 2:0 3:7 4:0 5:0 7:1 73:1 3114:1 # 20140611204210AAPJj1y Actress NNP Business_&_Finance TOKEN
-0.28850619791618203890948279877193 2:0 3:4 4:0 5:0 7:1 73:1 18206:1 # 20140613030213AAZi4zH Pass NNP Travel TOKEN
-0.28855111693294954733346457942389 2:0 3:4 4:0 5:0 7:1 73:1 11722:1 # 20140620063230AAXLo9n Mini NNP Food_&_Drink TOKEN
-0.28855675029188887492637149989605 2:0 3:4 4:0 5:0 7:1 73:1 5715:1 # 20140606153641AAjtBgn Life NNP Social_Science TOKEN
-0.28822932140604429207542125368491 2:0 3:4 4:0 5:0 7:1 73:1 13917:1 # 20140607104637AASvvKI Euro NNP News_&_Events TOKEN
-0.28855638279181761163272312842309 2:0 3:4 4:0 5:0 7:1 73:1 9403:1 # 20140614220006AA90c02 Ammo NNP Sports TOKEN
-0.28845038373272258169777160219382 2:0 3:4 4:0 5:0 7:1 73:1 5063:1 # 20140620035947AAeYEbM Sour NNP Local_Businesses TOKEN
-0.5 2:0 3:4 4:0 5:0 7:1 73:1 9488:1 # 20140603131218AA1t3hP Jack NNP Local_Businesses TOKEN
-0.28838988475957894053181007620879 2:0 3:4 4:0 5:0 7:1 73:1 12495:1 # 20140605210007AAoMB1b Tide NNP Home_&_Garden TOKEN
-0.28839286178338152666356108966284 2:0 3:4 4:0 5:0 7:1 73:1 12252:1 # 20140609031322AAZz3r8 Cost NNP Travel TOKEN
-0.28539894693594852759233049255272 2:0 3:7 4:0 5:0 7:1 73:1 18520:1 # 20140620213457AAI59UA Restart NNP Computer_&_Internet TOKEN
-0.28854380630802456408900980022736 2:0 3:4 4:0 5:0 7:1 73:1 7483:1 # 20140605111442AA4wyqx Math NNP Science_&_Mathematics TOKEN
-0.28831129592920490267715649679303 2:0 3:4 4:0 5:0 7:1 73:1 15572:1 # 20140603004555AAv1K5X Care NNP Politics_&_Government TOKEN
-0.28710071046615498469023464167549 2:0 3:4 4:0 5:0 7:1 73:1 14550:1 # 20140613073945AAjr9GV Worm NNP Pets TOKEN
-0.28714868336430104944767549568496 2:0 3:4 4:0 5:0 7:1 73:1 13827:1 # 20140616154757AA3uubn Race NNP News_&_Events TOKEN
-0.28715582727964727993708038411569 2:0 3:4 4:0 5:0 7:1 73:1 11286:1 # 20140603140146AAA2DGN Casa NNP Dining_Out TOKEN
-0.2853039479260218724832043335482 2:0 3:7 4:0 5:0 7:1 73:1 18257:1 # 20140609221937AAH7tge Hartley NNP Travel TOKEN
0.5 2:0 3:3 4:0 5:1 7:0 32:1 33:1 # 20140610083106AA7AAUT and CC Dining_Out ORGANIZATION
-0.28538504962261640462983791621809 2:0 3:7 4:0 5:0 7:1 73:1 1870:1 # 20140622085925AAdFLbE Express NNP Science_&_Mathematics TOKEN
-0.28547348410808037755259647383355 2:0 3:7 4:0 5:0 7:1 73:1 11580:1 # 20140610112505AAhGjYL Richest NNP Dining_Out TOKEN
-0.5 2:0 3:7 4:0 5:0 7:1 73:1 11236:1 # 20140610172137AA9hoaq Chicago NNP Dining_Out TOKEN
-0.28658591428815327617485309019685 2:0 3:7 4:0 5:0 7:1 73:1 10746:1 # 20140606145613AArNENe Blaster NNP Cars_&_Transportation TOKEN
-0.28628495871010861684169412910705 2:0 3:7 4:0 5:0 7:1 73:1 5435:1 # 20140620190356AAdnQme Russian NNP Entertainment_&_Music TOKEN
-0.28531583591060566407193732629821 2:0 3:7 4:0 5:0 7:1 73:1 5430:1 # 20140620190356AAdnQme America NNP Entertainment_&_Music TOKEN
-0.28726090649771496288167327293195 2:0 3:4 4:0 5:0 7:1 73:1 11830:1 # 20140611141719AAUaRNh Pixi NNP Food_&_Drink TOKEN
-0.28795399201133342614866705844179 2:0 3:4 4:0 5:0 7:1 73:1 8237:1 # 20140622013948AAZujJH Watt NNP Science_&_Mathematics TOKEN
-0.28854986535017523863189126132056 2:0 3:4 4:0 5:0 7:1 73:1 4447:1 # 20140604150422AAIDveZ Cant NNP Education_&_Reference TOKEN
-0.28846711986127360205500735901296 2:0 3:2 4:0 5:0 7:1 73:1 11037:1 # 20140616141511AAlZZIn Iv NNP Dining_Out TOKEN
0.5 2:0 3:4 4:0 5:1 7:0 20:1 3365:1 # 20140616234645AAnbyhx ebay VBG Consumer_Electronics ORGANIZATION
-0.28730299482361354446169343646034 2:0 3:4 4:0 5:0 7:1 73:1 6323:1 # 20140608094114AAxPdPq Bone NNP Health TOKEN
-0.28855638279173234650443191640079 2:0 3:4 4:0 5:0 7:1 73:1 5439:1 # 20140620190356AAdnQme Hood NNP Entertainment_&_Music TOKEN
-0.28836627177844320613075979053974 2:0 3:4 4:0 5:0 7:1 73:1 18608:1 # 20140611153520AAksgjY Wine NNP Computer_&_Internet TOKEN
-0.28855111693296553454501918167807 2:0 3:4 4:0 5:0 7:1 73:1 3831:1 # 20140605094015AALUoSd Alot NNP Consumer_Electronics TOKEN
-0.2882101340793337129753126646392 2:0 3:4 4:0 5:0 7:1 73:1 3551:1 # 20140609063130AAx8NAT Hard NNP Computer_&_Internet TOKEN
-0.28715679650588321614179676544154 2:0 3:4 4:0 5:0 7:1 73:1 13137:1 # 20140607104826AAF23WO Whay NNP Local_Businesses TOKEN
-0.28716731915335547142831273959018 2:0 3:4 4:0 5:0 7:1 73:1 5211:1 # 20140614004826AAWj9IB Club NNP Entertainment_&_Music TOKEN
-0.28850684043508456610993562208023 2:0 3:4 4:0 5:0 7:1 73:1 5222:1 # 20140621194648AAv7Pxb Girl NNP Entertainment_&_Music TOKEN
-0.28831129592921111992609439766966 2:0 3:4 4:0 5:0 7:1 73:1 8943:1 # 20140616195748AA2BAj7 Body NNP Social_Science TOKEN
-0.28854986535030846539484628010541 2:0 3:4 4:0 5:0 7:1 73:1 15166:1 # 20140610123048AAZOuhW Team NNP Politics_&_Government TOKEN
-0.28849801257074147997627733275294 2:0 3:4 4:0 5:0 7:1 73:1 11154:1 # 20140608075953AADKMro Fish NNP Dining_Out TOKEN
-0.074281828344933409358219478235696 2:0 3:8 4:0 5:0 7:1 204:1 5184:1 # 20140614004826AAWj9IB Thirteen CD Entertainment_&_Music TOKEN
-0.28713566895608977347364998422563 2:0 3:4 4:0 5:0 7:1 73:1 2151:1 # 20140609160711AAprF2f Love NNP Arts_&_Humanities TOKEN
-0.28834231334778159805409813998267 2:0 3:4 4:0 5:0 7:1 73:1 10369:1 # 20140622170617AATlgRE Blue NNP Cars_&_Transportation TOKEN
-0.28717917633004963473553061703569 2:0 3:4 4:0 5:0 7:1 73:1 15790:1 # 20140611151627AAmAEbQ Hawk NNP Politics_&_Government TOKEN
-0.28712643319949415765535150057985 2:0 3:4 4:0 5:0 7:1 73:1 15574:1 # 20140614170630AA1o9BQ Wall NNP Politics_&_Government TOKEN
-0.28721447976607927810022147241398 2:0 3:4 4:0 5:0 7:1 73:1 5138:1 # 20140622001343AA8tgia Show NNP Science_&_Mathematics TOKEN
-0.28717917633000550337030176706321 2:0 3:4 4:0 5:0 7:1 73:1 11837:1 # 20140613193928AAaFgh0 Neon NNP Food_&_Drink TOKEN
0.5 2:0 3:8 4:0 5:0 7:1 73:1 3930:1 # 20140603005221AAThPnj Motolora NNP Consumer_Electronics ORGANIZATION
-0.28825222392447624741862455266528 2:0 3:4 4:0 5:0 7:1 73:1 1652:1 # 20140620190356AAdnQme Once NNP Entertainment_&_Music TOKEN
-0.28712140602226748908876174937177 2:0 3:4 4:0 5:0 7:1 73:1 6810:1 # 20140604203617AAQJuGv Zone NNP Games_&_Recreation TOKEN
-0.28825213882254546726713329007907 2:0 3:4 4:0 5:0 7:1 73:1 685:1 # 20140605104442AAFzzy2 Luke NNP Sports TOKEN
-0.28839286178341794197876879479736 2:0 3:4 4:0 5:0 7:1 73:1 10564:1 # 20140617213812AAnm3nS City NNP Travel TOKEN
-0.28829576776509568958317686337978 2:0 3:4 4:0 5:0 7:1 73:1 15707:1 # 20140614170630AA1o9BQ Arab NNP Politics_&_Government TOKEN
-0.28718774373647892872440934297629 2:0 3:4 4:0 5:0 7:1 73:1 11698:1 # 20140618202204AAODcVd Main NNP Food_&_Drink TOKEN
-0.28714868336433041484667683107546 2:0 3:4 4:0 5:0 7:1 73:1 6244:1 # 20140611201334AAFQLgO Lose NNP Health TOKEN
-0.28716231092550204007096681380062 2:0 3:4 4:0 5:0 7:1 73:1 8952:1 # 20140606003853AAp4Kid Grip NNP Sports TOKEN
-0.28737631627302079317942684610898 2:0 3:4 4:0 5:0 7:1 73:1 7017:1 # 20140625193758AANDcbj Head NNP Games_&_Recreation TOKEN
-0.28784253013611049709652434103191 2:0 3:4 4:0 5:0 7:1 73:1 11689:1 # 20140625175128AAldtwC Fine NNP Food_&_Drink TOKEN
-0.28712643319946373754447677129065 2:0 3:4 4:0 5:0 7:1 73:1 7050:1 # 20140625193758AANDcbj Wild NNP Games_&_Recreation TOKEN
0.5 2:0 3:9 4:0 5:0 7:1 73:1 781:1 # 20140617074422AANUT7h Radcliffe NNP Arts_&_Humanities PERSON
-0.28713659407248570687443134374917 2:0 3:4 4:0 5:0 7:1 73:1 13116:1 # 20140620035947AAeYEbM Kush NNP Local_Businesses TOKEN
-0.28825222392444871388761384878308 2:0 3:4 4:0 5:0 7:1 73:1 18334:1 # 20140608183101AAll62c Hoku NNP Travel TOKEN
-0.28854380630807963115103120799176 2:0 3:4 4:0 5:0 7:1 73:1 516:1 # 20140605140138AAyDVJY What NNP Entertainment_&_Music TOKEN
-0.28842672866851604140947529231198 2:0 3:4 4:0 5:0 7:1 73:1 9854:1 # 20140607002126AA0cFXN Pour NNP Social_Science TOKEN
-0.28856307211083276342833414673805 2:0 3:4 4:0 5:0 7:1 73:1 3525:1 # 20140614134845AAVhWeg Case NNP Consumer_Electronics TOKEN
-0.2884327857853805632259991398314 2:0 3:4 4:0 5:0 7:1 73:1 1477:1 # 20140605223141AA4aNVu Peak NNP Arts_&_Humanities TOKEN
-0.28738503905786294545521286636358 2:0 3:4 4:0 5:0 7:1 73:1 12071:1 # 20140626034154AAGjZE1 Mojo NNP Food_&_Drink TOKEN
-0.28653340202011140513960185671749 2:0 3:5 4:0 5:0 7:1 73:1 5445:1 # 20140605210007AAoMB1b Blood NNP Home_&_Garden TOKEN
-0.28750883395246962237479237955995 2:0 3:5 4:0 5:0 7:1 73:1 7731:1 # 20140611200656AADQgAb Earth NNP Travel TOKEN
-0.28780116101148855989322328241542 2:0 3:5 4:0 5:0 7:1 73:1 5745:1 # 20140605140138AAyDVJY Didnt NNP Entertainment_&_Music TOKEN
-0.28850326794545910757960882619955 2:0 3:4 4:0 5:0 7:1 73:1 3614:1 # 20140615210245AAjCZ2q Free NNP Consumer_Electronics TOKEN
-0.28793480486172429166913389053661 2:0 3:4 4:0 5:0 7:1 73:1 15397:1 # 20140609170145AAsvd80 Ahhh NNP Politics_&_Government TOKEN
-0.28852117480341732402848720084876 2:0 3:4 4:0 5:0 7:1 73:1 14284:1 # 20140609053527AAHPrln Fail NNP News_&_Events TOKEN
-0.28762924510326470795007480774075 2:0 3:5 4:0 5:0 7:1 73:1 12498:1 # 20140605210007AAoMB1b Preen NNP Home_&_Garden TOKEN
-0.15164353975183075817767530679703 2:0 3:71 4:0 5:0 7:0 73:1 18495:1 # 20140609122525AAYu0rC https:##www.cedarpoint.com#rides#Fun-on-the-Water#The-Cedar-Point-Beach NNP Travel TOKEN
-0.28784779252373571267753504798748 2:0 3:5 4:0 5:0 7:1 73:1 2543:1 # 20140618024923AAR6gIm Third NNP Science_&_Mathematics TOKEN
-0.28776779135197472214713343419135 2:0 3:5 4:0 5:0 7:1 73:1 9106:1 # 20140620105746AAnOLsk Ruger NNP Sports TOKEN
-0.28778720059752238569217297481373 2:0 3:5 4:0 5:0 7:1 73:1 1706:1 # 20140609112801AAnee0x First NNP Arts_&_Humanities TOKEN
-0.28791961510319197259377688169479 2:0 3:5 4:0 5:0 7:1 73:1 3552:1 # 20140608132523AAWfvBH Drive NNP Computer_&_Internet TOKEN
-0.28779309804992347920915563008748 2:0 3:5 4:0 5:0 7:1 73:1 19541:1 # 20140625072412AAUASEG Color NNP Yahoo!_Products TOKEN
-0.28759610496711829341620614286512 2:0 3:5 4:0 5:0 7:1 73:1 1943:1 # 20140611123045AAMKOWz Manor NNP Pets TOKEN
-0.28792332918430929566966369748116 2:0 3:5 4:0 5:0 7:1 73:1 11729:1 # 20140620063230AAXLo9n Mardi NNP Food_&_Drink TOKEN
-0.28778320506232102360399949247949 2:0 3:5 4:0 5:0 7:1 73:1 18880:1 # 20140626111642AAP80Gv Troye NNP Computer_&_Internet TOKEN
-0.28779169901957057930985683924519 2:0 3:5 4:0 5:0 7:1 73:1 18132:1 # 20140608120927AA1JZcv Japan NNP Travel TOKEN
-0.28771595474773370426646579289809 2:0 3:5 4:0 5:0 7:1 73:1 11948:1 # 20140626031053AAyXCcP Saut NNP Food_&_Drink TOKEN
-0.28785817970093141582310636295006 2:0 3:5 4:0 5:0 7:1 73:1 7182:1 # 20140625101557AAZ5Rvq Dream NNP Social_Science TOKEN
-0.28791575134118208012523609795608 2:0 3:5 4:0 5:0 7:1 73:1 4109:1 # 20140607141649AANF6Tv Tower NNP Consumer_Electronics TOKEN
-0.2879259909364888514460290025454 2:0 3:5 4:0 5:0 7:1 73:1 10786:1 # 20140621111444AACBO2L Valve NNP Cars_&_Transportation TOKEN
-0.28776103472221192802749101247173 2:0 3:5 4:0 5:0 7:1 73:1 3766:1 # 20140617203723AAnMv8x World NNP Politics_&_Government TOKEN
-0.28790537446558772671778569929302 2:0 3:5 4:0 5:0 7:1 73:1 18862:1 # 20140608001904AAVKEC5 Cloud NNP Computer_&_Internet TOKEN
-0.28770176173266470698308694409207 2:0 3:5 4:0 5:0 7:1 73:1 3606:1 # 20140615230550AAzCluq Video NNP Computer_&_Internet TOKEN
-0.28791575134110836131640098756179 2:0 3:5 4:0 5:0 7:1 73:1 12501:1 # 20140605210007AAoMB1b Stain NNP Home_&_Garden TOKEN
-0.28792599093647819330499260104261 2:0 3:5 4:0 5:0 7:1 73:1 14104:1 # 20140613180332AA3jCxr Sunni NNP News_&_Events TOKEN
-0.5 2:0 3:5 4:0 5:0 7:1 73:1 807:1 # 20140613202053AAONeF7 White NNP Games_&_Recreation TOKEN
-0.28780898854151004684354120399803 2:0 3:5 4:0 5:0 7:1 73:1 12319:1 # 20140618083118AAt93Sw Photo NNP Home_&_Garden TOKEN
0.5 2:1 3:3 4:1 5:0 7:0 73:1 12376:1 # 20140601134625AAPRFLP CVS NNP Home_&_Garden ORGANIZATION
-0.28790880405011876064236275851727 2:0 3:5 4:0 5:0 7:1 73:1 13677:1 # 20140610222206AAaaj3T Algae NNP News_&_Events TOKEN
-0.28776866360495478858183560078032 2:0 3:5 4:0 5:0 7:1 73:1 11716:1 # 20140620063230AAXLo9n Sweet NNP Food_&_Drink TOKEN
-0.28793504125705027263393276371062 2:0 3:5 4:0 5:0 7:1 73:1 13683:1 # 20140610222206AAaaj3T Truck NNP News_&_Events TOKEN
-0.28712986066696710718559870656463 2:0 3:5 4:0 5:0 7:1 73:1 9087:1 # 20140620105746AAnOLsk Luger NNP Sports TOKEN
-0.28977682337678700719152402598411 2:0 3:2 4:0 5:0 7:1 73:1 844:1 # 20140607071218AAzGtJH Ok NNP Family_&_Relationships TOKEN
-0.28764089679576887448320121620782 2:0 3:5 4:0 5:0 7:1 73:1 11263:1 # 20140609103954AAB6LY5 Greek NNP News_&_Events TOKEN
-0.28792599093649595687338660354726 2:0 3:5 4:0 5:0 7:1 73:1 428:1 # 20140606224612AAe7J4W Click NNP Computer_&_Internet TOKEN
-0.28784392002678060862308484502137 2:0 3:5 4:0 5:0 7:1 73:1 1886:1 # 20140617195809AA0PD6g Maria NNP Sports TOKEN
-0.28760105662004065152359544299543 2:0 3:5 4:0 5:0 7:1 73:1 1888:1 # 20140605091638AATCTbo Night NNP Arts_&_Humanities TOKEN
0.5 2:0 3:3 4:0 5:1 7:0 8:1 14450:1 # 20140617191218AAiEBHA fox NN News_&_Events ORGANIZATION
0.5 2:0 3:3 4:0 5:1 7:0 8:1 11396:1 # 20140616143448AAdU6Ze hut NN Dining_Out ORGANIZATION
-0.2866824103040044313672751741251 2:0 3:5 4:0 5:0 7:1 73:1 14725:1 # 20140626142532AAHm2Mx Puppy NNP Pets TOKEN
-0.28780821226670028067928797099739 2:0 3:5 4:0 5:0 7:1 73:1 7168:1 # 20140621171642AATfemJ Sting NNP Games_&_Recreation TOKEN
-0.28785817970098737106354747083969 2:0 3:5 4:0 5:0 7:1 73:1 12724:1 # 20140621012150AAs9NFo Amber NNP Home_&_Garden TOKEN
-0.2878011610114192819764866726473 2:0 3:5 4:0 5:0 7:1 73:1 4712:1 # 20140611200656AADQgAb Study NNP Travel TOKEN
-0.28772807654163301549488096497953 2:0 3:5 4:0 5:0 7:1 73:1 14961:1 # 20140622080843AAfcL4m Weezy NNP Pets TOKEN
-0.28656134315832115788680312107317 2:0 3:5 4:0 5:0 7:1 73:1 8292:1 # 20140615124053AAji1XJ Hooah NNP Science_&_Mathematics TOKEN
-0.28769307334841798251545696984977 2:0 3:5 4:0 5:0 7:1 73:1 7849:1 # 20140605092633AAPkbBp Apply NNP Science_&_Mathematics TOKEN
-0.28735576540861407224269896687474 2:0 3:5 4:0 5:0 7:1 73:1 4288:1 # 20140604083714AANM1Br Paltz NNP Education_&_Reference TOKEN
-0.28784779252378456249061855487525 2:0 3:5 4:0 5:0 7:1 73:1 11470:1 # 20140620003333AAaN90M Metro NNP Dining_Out TOKEN
-0.28661055460734630173647019546479 2:0 3:5 4:0 5:0 7:1 73:1 14388:1 # 20140613180332AA3jCxr Mosul NNP News_&_Events TOKEN
-0.28779177352870988215727265924215 2:0 3:5 4:0 5:0 7:1 73:1 5230:1 # 20140614004826AAWj9IB Funny NNP Entertainment_&_Music TOKEN
-0.28653737233638182368977709302271 2:0 3:5 4:0 5:0 7:1 73:1 12098:1 # 20140617094029AAZ1FwJ Karma NNP Family_&_Relationships TOKEN
-0.28778720059731099922828434500843 2:0 3:5 4:0 5:0 7:1 73:1 7726:1 # 20140618201815AAmO6f1 Shale NNP Science_&_Mathematics TOKEN
-0.28771962362568181958977220347151 2:0 3:5 4:0 5:0 7:1 73:1 4554:1 # 20140618125641AAGkGpi Basic NNP Education_&_Reference TOKEN
-0.28783253994110857831856264965609 2:0 3:5 4:0 5:0 7:1 73:1 11718:1 # 20140605150717AAmRFk6 Party NNP News_&_Events TOKEN
-0.28786405969931649906357051804662 2:0 3:5 4:0 5:0 7:1 73:1 2540:1 # 20140608032717AAM9Cvk Visit NNP Business_&_Finance TOKEN
-0.28650096655953594115828764188336 2:0 3:5 4:0 5:0 7:1 73:1 11651:1 # 20140604112329AAS36PD Coast NNP Dining_Out TOKEN
-0.28753004944874538395538365875836 2:0 3:5 4:0 5:0 7:1 73:1 15459:1 # 20140617193722AA5emAo House NNP Politics_&_Government TOKEN
-0.28779169901920909069303888827562 2:0 3:5 4:0 5:0 7:1 73:1 19460:1 # 20140620120056AAFGiXk Draft NNP Yahoo!_Products TOKEN
-0.28785817970084526251639545080252 2:0 3:5 4:0 5:0 7:1 73:1 11673:1 # 20140614164536AAHVllV Quail NNP Food_&_Drink TOKEN
-0.28785817970086213790636975318193 2:0 3:5 4:0 5:0 7:1 73:1 5410:1 # 20140620190356AAdnQme Clyde NNP Entertainment_&_Music TOKEN
-0.28695005273519713639984729525167 2:0 3:5 4:0 5:0 7:1 73:1 8954:1 # 20140625201720AA1VzQt Guard NNP Politics_&_Government TOKEN
0.5 2:0 3:3 4:0 5:0 7:1 73:1 4312:1 # 20140619190906AAxXT6l San NNP Local_Businesses LOCATION
-0.2877056465562377596256737888325 2:0 3:5 4:0 5:0 7:1 73:1 12559:1 # 20140608141931AALElda Reese NNP Home_&_Garden TOKEN
-0.28691178093528590942185019230237 2:0 3:5 4:0 5:0 7:1 73:1 1807:1 # 20140621012549AAOo4ve Manga NNP Arts_&_Humanities TOKEN
-0.28789528147299492388810904230922 2:0 3:5 4:0 5:0 7:1 73:1 4426:1 # 20140619105821AAuioIb Guess NNP Education_&_Reference TOKEN
-0.28708445395552351087076203839388 2:0 3:5 4:0 5:0 7:1 73:1 13818:1 # 20140616154757AA3uubn Horse NNP News_&_Events TOKEN
-0.28785817970108507068971448461525 2:0 3:5 4:0 5:0 7:1 73:1 5310:1 # 20140622230045AAAI6WE Great NNP Travel TOKEN
-0.28744272457783559548971652475302 2:0 3:5 4:0 5:0 7:1 73:1 4034:1 # 20140615004107AA0Il4W Grand NNP Travel TOKEN
-0.5 2:0 3:5 4:0 5:0 7:1 73:1 3466:1 # 20140625210906AATgayM Round NNP News_&_Events TOKEN
-0.28778720059759521632258838508278 2:0 3:5 4:0 5:0 7:1 73:1 6793:1 # 20140618201815AAmO6f1 Guide NNP Science_&_Mathematics TOKEN
-0.28762261393389954022836718650069 2:0 3:5 4:0 5:0 7:1 73:1 13531:1 # 20140610093017AAXZ1nc Space NNP Family_&_Relationships TOKEN
-0.28793652830746108151060980162583 2:0 3:5 4:0 5:0 7:1 73:1 3612:1 # 20140615210245AAjCZ2q Movie NNP Consumer_Electronics TOKEN
-0.28741501305621697248682266945252 2:0 3:5 4:0 5:0 7:1 73:1 5202:1 # 20140614004826AAWj9IB Bling NNP Entertainment_&_Music TOKEN
-0.28750926365115070382216799771413 2:0 3:5 4:0 5:0 7:1 73:1 15338:1 # 20140607125905AA2JtXv Santa NNP Politics_&_Government TOKEN
-0.28785565446598049277326936135069 2:0 3:5 4:0 5:0 7:1 73:1 5995:1 # 20140603130124AA7UGol Ovary NNP Health TOKEN
-0.28791575134089253396041385713033 2:0 3:5 4:0 5:0 7:1 73:1 14892:1 # 20140611152642AAd7nNQ Gavel NNP Pets TOKEN
-0.28791575134117142198419969645329 2:0 3:5 4:0 5:0 7:1 73:1 18064:1 # 20140617213812AAnm3nS Extra NNP Travel TOKEN
-0.28779169901948886689524442772381 2:0 3:5 4:0 5:0 7:1 73:1 422:1 # 20140616141615AA44wGc Right NNP Family_&_Relationships TOKEN
-0.28767002192951185435276784119196 2:0 3:5 4:0 5:0 7:1 73:1 2994:1 # 20140611204210AAPJj1y Thing NNP Business_&_Finance TOKEN
-0.28792454581786586231828550808132 2:0 3:5 4:0 5:0 7:1 73:1 2025:1 # 20140625193136AAUePpR Lunar NNP Arts_&_Humanities TOKEN
-0.28744951360057158229466267584939 2:0 3:5 4:0 5:0 7:1 73:1 3816:1 # 20140603084904AAsQGUA Reset NNP Consumer_Electronics TOKEN
-0.28757690021926568535448609509331 2:0 3:5 4:0 5:0 7:1 73:1 11781:1 # 20140620063230AAXLo9n Cream NNP Food_&_Drink TOKEN
-0.28756048141561502129448513187526 2:0 3:5 4:0 5:0 7:1 73:1 18062:1 # 20140617213812AAnm3nS Magic NNP Travel TOKEN
-0.28756048141554013675147416506661 2:0 3:5 4:0 5:0 7:1 73:1 14393:1 # 20140620214550AA74tKP Kanye NNP News_&_Events TOKEN
-0.28722353089441365892042767882231 2:0 3:5 4:0 5:0 7:1 73:1 11578:1 # 20140610112505AAhGjYL Dunno NNP Dining_Out TOKEN
-0.28722353089433683148712361798971 2:0 3:5 4:0 5:0 7:1 73:1 18721:1 # 20140606224612AAe7J4W Panel NNP Computer_&_Internet TOKEN
-0.28650177793337283649321989287273 2:0 3:5 4:0 5:0 7:1 73:1 1814:1 # 20140611151627AAmAEbQ Money NNP Politics_&_Government TOKEN
-0.28761365457680732049539074068889 2:0 3:5 4:0 5:0 7:1 73:1 10566:1 # 20140603115526AAQmGXN Lance NNP Cars_&_Transportation TOKEN
-0.28769260902574167459988530026749 2:0 3:5 4:0 5:0 7:1 73:1 11764:1 # 20140620063230AAXLo9n Grape NNP Food_&_Drink TOKEN
-0.2866848559516789185508400805702 2:0 3:5 4:0 5:0 7:1 73:1 11828:1 # 20140623173753AAUMZe3 Water NNP Food_&_Drink TOKEN
-0.28780821226663277911939076147974 2:0 3:5 4:0 5:0 7:1 73:1 19432:1 # 20140605185213AAgsKy3 Topic NNP Yahoo!_Products TOKEN
-0.28779309804992436738757533021271 2:0 3:5 4:0 5:0 7:1 73:1 6518:1 # 20140622163515AA7A77e Molly NNP Travel TOKEN
-0.28650096655946999391062490758486 2:0 3:5 4:0 5:0 7:1 73:1 1163:1 # 20140616072209AARwehs Finch NNP Arts_&_Humanities TOKEN
-0.2865615321390602154849602811737 2:0 3:5 4:0 5:0 7:1 73:1 11466:1 # 20140620003333AAaN90M Noida NNP Dining_Out TOKEN
-0.2869033993077633182267049960501 2:0 3:5 4:0 5:0 7:1 73:1 11054:1 # 20140610172137AA9hoaq Sugar NNP Dining_Out TOKEN
-0.28652923993755152753948323152144 2:0 3:5 4:0 5:0 7:1 73:1 9093:1 # 20140620105746AAnOLsk Eagle NNP Sports TOKEN
-0.28727198368542961048888173536398 2:0 3:5 4:0 5:0 7:1 73:1 619:1 # 20140617213812AAnm3nS March NNP Travel TOKEN
-0.28650177793328390762894741783384 2:0 3:5 4:0 5:0 7:1 73:1 17983:1 # 20140604115540AAQrGu2 Peter NNP Travel TOKEN
-0.2891663764085423693472876038868 2:0 3:3 4:0 5:0 7:1 73:1 2459:1 # 20140614113251AA3Y1WB God NNP News_&_Events TOKEN
0.5 2:1 3:3 4:1 5:0 7:0 73:1 15277:1 # 20140625082631AAcgyMl IRS NNP Politics_&_Government ORGANIZATION
0.5 2:1 3:3 4:1 5:0 7:0 73:1 12376:1 # 20140601134625AAPRFLP CVS NNP Home_&_Garden ORGANIZATION
0.5 2:0 3:8 4:0 5:0 7:1 73:1 18316:1 # 20140622230045AAAI6WE Auckland NNP Travel LOCATION
0.5 2:0 3:2 4:1 5:0 7:0 73:1 3408:1 # 20140615131345AAW89pT UK NNP News_&_Events LOCATION
-0.5 2:1 3:2 4:1 5:0 7:0 40:1 2475:1 # 20140609170145AAsvd80 US RB Politics_&_Government TOKEN
-0.010321401018758447065692962496541 2:0 3:12 4:0 5:1 7:0 8:1 13104:1 # 20140620035947AAeYEbM promethazine NN Local_Businesses TOKEN
0.5 2:0 3:8 4:0 5:1 7:0 8:1 8911:1 # 20140615190410AAmWDg3 @rolando NN Sports PERSON
0.5 2:0 3:8 4:0 5:1 7:0 8:1 5583:1 # 20140605040256AAru12G chemical NN Entertainment_&_Music PERSON
-0.5 2:0 3:2 4:0 5:0 7:1 22:1 608:1 # 20140616114406AAi0jDN My PRP$ Games_&_Recreation TOKEN
0.5 2:0 3:6 4:0 5:0 7:1 8:1 11349:1 # 20140616143448AAdU6Ze Silver NN Dining_Out ORGANIZATION
0.5 2:0 3:7 4:0 5:1 7:0 8:1 13781:1 # 20140616154757AA3uubn britain NN News_&_Events LOCATION
0.5 2:0 3:7 4:0 5:1 7:0 8:1 18308:1 # 20140622230045AAAI6WE zealand NN Travel LOCATION
-0.5 2:0 3:4 4:0 5:1 7:0 73:1 1077:1 # 20140608151316AAZv17m land NNP Travel TOKEN
0.5 2:0 3:8 4:0 5:0 7:1 73:1 15156:1 # 20140610123048AAZOuhW Berghdal NNP Politics_&_Government PERSON
0.5 2:0 3:7 4:0 5:0 7:1 26:1 8190:1 # 20140625120602AAXWOm0 Kurdish JJ Science_&_Mathematics LOCATION
0.5 2:0 3:8 4:0 5:0 7:0 73:1 11334:1 # 20140616143448AAdU6Ze In-N-Out NNP Dining_Out ORGANIZATION
-0.5 2:1 3:7 4:0 5:0 7:1 123:1 5614:1 # 20140605081144AAuazx4 Answers VBZ Science_&_Mathematics TOKEN
0.5 2:0 3:7 4:0 5:0 7:1 73:1 15421:1 # 20140617213812AAnm3nS Kingdom NNP Travel ORGANIZATION
-0.5 2:1 3:4 4:0 5:0 7:1 12:1 8743:1 # 20140607184544AAxrzQb Guys NNS Beauty_&_Style TOKEN
-0.5 2:0 3:2 4:0 5:0 7:1 22:1 608:1 # 20140605034309AAV7PuK My PRP$ Consumer_Electronics TOKEN
-0.5 2:0 3:3 4:0 5:0 7:1 24:1 830:1 # 20140612030100AAmunww All DT Social_Science TOKEN
-0.18612695914292687326963005034486 2:0 3:19 4:0 5:1 7:0 73:1 8010:1 # 20140621084721AANldDd comparison#contrast NNP Science_&_Mathematics TOKEN
0.5 2:0 3:9 4:0 5:0 7:1 73:1 4307:1 # 20140604083714AANM1Br Wisconsin NNP Education_&_Reference LOCATION
-0.010958031477369400974453128583264 2:0 3:3 4:0 5:1 7:0 20:1 3981:1 # 20140607135336AADGWCS low VBG Computer_&_Internet TOKEN
0.5 2:0 3:7 4:0 5:0 7:1 73:1 5430:1 # 20140607125905AA2JtXv America NNP Politics_&_Government LOCATION
0.5 2:0 3:7 4:0 5:1 7:0 8:1 11079:1 # 20140616143448AAdU6Ze chicken NN Dining_Out ORGANIZATION
0.5 2:0 3:7 4:0 5:1 7:0 8:1 5584:1 # 20140605040256AAru12G romance NN Entertainment_&_Music PERSON
0.5 2:0 3:7 4:0 5:1 7:0 8:1 10581:1 # 20140607104849AAvstRC hyundai NN Cars_&_Transportation ORGANIZATION
0.5 2:0 3:7 4:0 5:0 7:1 73:1 11236:1 # 20140609103954AAB6LY5 Chicago NNP News_&_Events LOCATION
0.5 2:1 3:6 4:0 5:0 7:1 61:1 12443:1 # 20140605150717AAmRFk6 States NNPS News_&_Events LOCATION
0.5 2:0 3:7 4:0 5:1 7:0 8:1 2520:1 # 20140626223207AABdv8w khalifa NN Business_&_Finance PERSON
0.5 2:0 3:7 4:0 5:1 7:0 8:1 13879:1 # 20140617033632AAaS0SQ britney NN News_&_Events PERSON
0.5 2:0 3:9 4:0 5:0 7:0 26:1 19499:1 # 20140609172302AAjgqUA non-Yahoo JJ Yahoo!_Products ORGANIZATION
-0.19254930260901659266892238520086 2:0 3:8 4:0 5:1 7:0 73:1 18542:1 # 20140608132523AAWfvBH bad#dead NNP Computer_&_Internet TOKEN
0.5 2:1 3:9 4:0 5:0 7:1 73:1 11307:1 # 20140616143448AAdU6Ze Bojangles NNP Dining_Out ORGANIZATION
0.5 2:0 3:8 4:0 5:0 7:0 73:1 9149:1 # 20140615215028AAGmoaM Hyun-Jin NNP Sports PERSON
-0.5 2:0 3:4 4:0 5:1 7:0 8:1 487:1 # 20140610075021AAwlDsA area NN Dining_Out TOKEN
0.5 2:0 3:2 4:1 5:0 7:0 73:1 3507:1 # 20140604083714AANM1Br CA NNP Education_&_Reference LOCATION
-0.5 2:0 3:3 4:0 5:1 7:0 26:1 31:1 # 20140613212610AAbRLLX new JJ Consumer_Electronics TOKEN
-0.5 2:0 3:4 4:0 5:0 7:1 26:1 9254:1 # 20140617195809AA0PD6g Real JJ Sports TOKEN
0.5 2:0 3:2 4:1 5:0 7:0 73:1 14378:1 # 20140613180332AA3jCxr AL NNP News_&_Events ORGANIZATION
0.5 2:0 3:7 4:0 5:1 7:0 8:1 12137:1 # 20140623173753AAUMZe3 iceland NN Food_&_Drink LOCATION
0.2159145590309758944158602389507 2:0 3:11 4:0 5:0 7:1 73:1 775:1 # 20140625193136AAUePpR Shakespeare NNP Arts_&_Humanities PERSON
0.5 2:0 3:7 4:0 5:1 7:0 8:1 13566:1 # 20140622053126AAxcj34 lindsay NN Family_&_Relationships PERSON
0.5 2:0 3:7 4:0 5:1 7:0 8:1 11448:1 # 20140606032555AA8mCFY italian NN Politics_&_Government ORGANIZATION
0.5 2:0 3:7 4:0 5:1 7:0 8:1 5072:1 # 20140616190348AA6nheU walmart NN Dining_Out ORGANIZATION
-0.11951477562983114921735250391066 2:1 3:10 4:0 5:1 7:0 73:1 14809:1 # 20140610102038AAX5RlB c-sections NNP Pets TOKEN
0.5 2:0 3:2 4:1 5:0 7:0 73:1 11389:1 # 20140616143448AAdU6Ze DQ NNP Dining_Out ORGANIZATION
0.5 2:0 3:6 4:0 5:1 7:0 8:1 12812:1 # 20140610174552AAptb2t lsland NN Local_Businesses LOCATION
0.5 2:0 3:6 4:0 5:1 7:0 8:1 2072:1 # 20140613111831AABRhzn middle NN News_&_Events LOCATION
-0.5 2:0 3:4 4:0 5:1 7:0 8:1 13833:1 # 20140616154757AA3uubn army NN News_&_Events TOKEN
-0.28292082511189864391099035856314 2:0 3:12 4:0 5:0 7:1 73:1 6666:1 # 20140612080629AAuyjlx Multivitamin NNP Health TOKEN
-0.041199034501147480114013887941837 2:0 3:10 4:0 5:1 7:0 8:1 3309:1 # 20140607140550AAYTiFo university NN Education_&_Reference TOKEN
0.5 2:0 3:9 4:0 5:0 7:1 73:1 5406:1 # 20140620190356AAdnQme Dillinger NNP Entertainment_&_Music PERSON
-0.19491861817611422225127171259373 2:0 3:1 4:0 5:0 7:0 39:1 73:1 # 20140615161422AAiDhFt . NNP News_&_Events TOKEN
0.5 2:0 3:9 4:0 5:0 7:0 73:1 11391:1 # 20140616143448AAdU6Ze FatBurger NNP Dining_Out ORGANIZATION
0.5 2:0 3:5 4:0 5:1 7:0 8:1 7155:1 # 20140625171643AAxjtac intel NN Computer_&_Internet ORGANIZATION
0.5 2:0 3:7 4:0 5:1 7:0 8:1 3646:1 # 20140615191957AAO9x20 youtube NN Computer_&_Internet ORGANIZATION
0.5 2:0 3:8 4:0 5:0 7:1 73:1 2125:1 # 20140609160711AAprF2f Broadway NNP Arts_&_Humanities LOCATION
0.5 2:0 3:3 4:1 5:0 7:0 73:1 7172:1 # 20140613182418AAAZN2I WWE NNP Sports ORGANIZATION
0.5 2:0 3:5 4:0 5:1 7:0 8:1 7374:1 # 20140610093017AAXZ1nc yahoo NN Family_&_Relationships ORGANIZATION
0.49818477890679480069024975819048 2:0 3:6 4:0 5:1 7:0 8:1 1441:1 # 20140604163858AAhNFOq google NN Cars_&_Transportation ORGANIZATION
0.5 2:0 3:6 4:0 5:1 7:0 8:1 14956:1 # 20140622080843AAfcL4m selena NN Pets PERSON
-0.49836750107735017234489305337775 2:0 3:5 4:0 5:1 7:0 73:1 172:1 # 20140609103954AAB6LY5 &amp; NNP News_&_Events TOKEN
-0.5 2:0 3:3 4:0 5:1 7:0 8:1 11396:1 # 20140608112522AAMjxU9 hut NN Local_Businesses TOKEN
0.5 2:0 3:6 4:0 5:1 7:0 8:1 8749:1 # 20140621092416AArsE0s brazil NN Social_Science LOCATION
0.5 2:0 3:6 4:0 5:1 7:0 8:1 2071:1 # 20140625193136AAUePpR stoker NN Arts_&_Humanities PERSON
-0.5 2:0 3:3 4:0 5:1 7:0 8:1 4854:1 # 20140617203723AAnMv8x usa NN Politics_&_Government TOKEN
0.5 2:0 3:6 4:0 5:1 7:0 8:1 2991:1 # 20140604131630AAZXrpw yorbin NN Business_&_Finance ORGANIZATION
-0.5 2:0 3:4 4:0 5:1 7:0 8:1 3365:1 # 20140605231104AAm8fzJ ebay NN Politics_&_Government TOKEN
0.5 2:0 3:6 4:0 5:1 7:0 8:1 18077:1 # 20140615020333AAAIUUW disney NN Travel ORGANIZATION
0.5 2:1 3:8 4:0 5:0 7:1 73:1 15513:1 # 20140617193722AA5emAo Khattala NNP Politics_&_Government PERSON
0.5 2:0 3:6 4:0 5:0 7:1 73:1 2160:1 # 20140609160711AAprF2f Gloria NNP Arts_&_Humanities PERSON
-0.015424287325501495615753810852766 2:0 3:4 4:0 5:1 7:0 8:1 487:1 # 20140614231842AApn3VH area NN Cars_&_Transportation TOKEN
-0.5 2:0 3:3 4:0 5:1 7:0 20:1 3981:1 # 20140607135336AADGWCS low VBG Computer_&_Internet TOKEN
0.5 2:0 3:6 4:0 5:1 7:0 8:1 15567:1 # 20140603004555AAv1K5X balmer NN Politics_&_Government PERSON
0.5 2:0 3:9 4:0 5:1 7:0 88:1 1266:1 # 20140610075021AAwlDsA hollywood VB Dining_Out LOCATION
0.5 2:0 3:6 4:0 5:1 7:0 8:1 8740:1 # 20140612145554AAjlhJX europe NN Beauty_&_Style LOCATION
0.5 2:0 3:6 4:0 5:1 7:0 8:1 6484:1 # 20140610094552AAK4gFS palmer NN Health PERSON
-0.5 2:0 3:2 4:0 5:1 7:0 8:1 13095:1 # 20140620035947AAeYEbM sc NN Local_Businesses TOKEN
0.5 2:0 3:5 4:0 5:1 7:0 8:1 15250:1 # 20140605231104AAm8fzJ gucci NN Politics_&_Government ORGANIZATION
0.5 2:0 3:5 4:0 5:1 7:0 8:1 1291:1 # 20140614122338AAHL8sn canon NN Arts_&_Humanities ORGANIZATION
0.5 2:0 3:10 4:0 5:0 7:1 73:1 15686:1 # 20140614170630AA1o9BQ Kazakhstan NNP Politics_&_Government LOCATION
-0.13928200403556978415053890785202 2:1 3:2 4:1 5:0 7:0 40:1 2475:1 # 20140609170145AAsvd80 US RB Politics_&_Government TOKEN
0.5 2:0 3:6 4:0 5:0 7:1 73:1 8902:1 # 20140611011232AAoHyfn Lebron NNP Sports PERSON
0.5 2:0 3:3 4:1 5:0 7:0 73:1 14311:1 # 20140611214724AASfT7e GOP NNP News_&_Events ORGANIZATION
-0.19476798235501746603404171764851 2:0 3:1 4:0 5:0 7:0 73:1 1052:1 # 20140603091614AAtZw6A ~ NNP Family_&_Relationships TOKEN
0.5 2:0 3:3 4:1 5:0 7:0 73:1 3769:1 # 20140617191218AAiEBHA ABC NNP News_&_Events ORGANIZATION
-0.083923020966635369921604592491349 2:0 3:7 4:0 5:0 7:1 12:1 15067:1 # 20140617015321AAEmy38 Officer NNS Politics_&_Government TOKEN
0.5 2:0 3:4 4:1 5:0 7:0 73:1 12412:1 # 20140601151243AAGeO0l IKEA NNP Home_&_Garden ORGANIZATION
0.5 2:0 3:7 4:0 5:0 7:1 73:1 9562:1 # 20140615224306AASdmOX Antonio NNP Sports PERSON
0.49999012811337095740782388020307 2:0 3:6 4:0 5:0 7:1 73:1 1928:1 # 20140620214550AA74tKP George NNP News_&_Events PERSON
0.5 2:0 3:8 4:0 5:0 7:1 73:1 15123:1 # 20140625201720AA1VzQt National NNP Politics_&_Government ORGANIZATION
0.5 2:0 3:9 4:0 5:1 7:0 8:1 5352:1 # 20140621194648AAv7Pxb bertholdt NN Entertainment_&_Music PERSON
0.5 2:0 3:9 4:0 5:1 7:0 8:1 3603:1 # 20140615210245AAjCZ2q microsoft NN Consumer_Electronics ORGANIZATION
-0.013501323884438143352326733293012 2:0 3:5 4:0 5:1 7:0 8:1 2800:1 # 20140610214206AAA5Std urine NN Business_&_Finance TOKEN
0.5 2:0 3:5 4:0 5:1 7:0 8:1 7476:1 # 20140623022611AAddTaJ angle NN Sports PERSON
0.5 2:0 3:5 4:0 5:1 7:0 8:1 9214:1 # 20140618180738AANfMh9 china NN Sports LOCATION
0.5 2:0 3:2 4:1 5:0 7:0 73:1 4289:1 # 20140604083714AANM1Br NY NNP Education_&_Reference LOCATION
-0.015486672073225404844265540305059 2:0 3:4 4:0 5:1 7:0 8:1 4260:1 # 20140604083714AANM1Br vibe NN Education_&_Reference TOKEN
-0.21423995601042689074233749124687 2:1 3:7 4:0 5:0 7:1 73:1 3502:1 # 20140606131438AAaBd2m Windows NNP Computer_&_Internet TOKEN
-0.015485150077217735287149480427615 2:0 3:4 4:0 5:1 7:0 8:1 298:1 # 20140617213812AAnm3nS sort NN Travel TOKEN
0.5 2:0 3:5 4:1 5:0 7:0 73:1 14429:1 # 20140617193722AA5emAo MSNBC NNP Politics_&_Government ORGANIZATION
0.5 2:0 3:5 4:1 5:0 7:0 73:1 15732:1 # 20140620134143AA2rxJi YAHOO NNP Yahoo!_Products ORGANIZATION
0.5 2:0 3:5 4:1 5:0 7:0 73:1 15683:1 # 20140614170630AA1o9BQ SWIFT NNP Politics_&_Government ORGANIZATION
0.5 2:0 3:3 4:1 5:0 7:0 73:1 4270:1 # 20140604083714AANM1Br UNC NNP Education_&_Reference ORGANIZATION
-0.5 2:0 3:4 4:0 5:1 7:0 8:1 487:1 # 20140603020037AAlyzyA area NN Travel TOKEN
0.5 2:1 3:7 4:0 5:0 7:1 73:1 19548:1 # 20140619231832AAFqTWm Mikayla NNP Yahoo!_Products PERSON
0.5 2:0 3:5 4:0 5:1 7:0 8:1 15447:1 # 20140606032555AA8mCFY mafia NN Politics_&_Government ORGANIZATION
0.5 2:0 3:6 4:1 5:0 7:0 73:1 18073:1 # 20140617213812AAnm3nS DISNEY NNP Travel ORGANIZATION
0.5 2:0 3:5 4:0 5:1 7:0 8:1 15519:1 # 20140609182413AATpjOA obama NN Politics_&_Government PERSON
0.5 2:0 3:5 4:0 5:1 7:0 8:1 9567:1 # 20140615224306AASdmOX danny NN Sports PERSON
0.5 2:1 3:4 4:0 5:0 7:1 73:1 11048:1 # 20140610083106AA7AAUT Ribs NNP Dining_Out ORGANIZATION
0.5 2:1 3:4 4:0 5:0 7:1 73:1 15214:1 # 20140610123048AAZOuhW Rose NNP Politics_&_Government LOCATION
0.5 2:0 3:10 4:0 5:0 7:0 73:1 12866:1 # 20140613214814AARwXS4 Winn-Dixie NNP Local_Businesses ORGANIZATION
-0.21930041326297899928476908826269 2:0 3:3 4:0 5:1 7:0 25:1 73:1 # 20140601130859AAHxybZ the NNP Sports TOKEN
-0.01543197754355468687137431516021 2:0 3:4 4:0 5:1 7:0 8:1 1077:1 # 20140605081144AAuazx4 land NN Science_&_Mathematics TOKEN
-0.5 2:0 3:10 4:0 5:1 7:0 8:1 3309:1 # 20140607014708AAKJo8F university NN Pregnancy_&_Parenting TOKEN
-0.28978448727495731418457580730319 2:0 3:2 4:0 5:0 7:1 73:1 966:1 # 20140607141649AANF6Tv In NNP Consumer_Electronics TOKEN
0.5 2:0 3:9 4:0 5:0 7:1 73:1 1483:1 # 20140605223141AA4aNVu Muchamore NNP Arts_&_Humanities PERSON
-0.21655351128241662195250682998449 2:1 3:2 4:0 5:0 7:1 73:1 247:1 # 20140613191324AAysIAb Am NNP Family_&_Relationships TOKEN
-0.194976742160347438215239890269 2:0 3:1 4:0 5:0 7:0 73:1 3524:1 # 20140614134845AAVhWeg  NNP Consumer_Electronics TOKEN
0.5 2:0 3:6 4:0 5:0 7:1 73:1 11347:1 # 20140616143448AAdU6Ze Choice NNP Dining_Out ORGANIZATION
-0.28914271509893918477018814883195 2:0 3:3 4:0 5:0 7:1 73:1 7485:1 # 20140609221937AAH7tge Age NNP Travel TOKEN
0.5 2:0 3:8 4:0 5:0 7:1 73:1 1648:1 # 20140618141257AAQm1bZ Arikatou NNP Arts_&_Humanities PERSON
-0.28978448727498573589400621131063 2:0 3:2 4:0 5:0 7:1 73:1 6782:1 # 20140614172231AAsQkBF Ur NNP Politics_&_Government TOKEN
0.5 2:0 3:9 4:0 5:0 7:1 73:1 4271:1 # 20140604083714AANM1Br Nashville NNP Education_&_Reference LOCATION
-0.19491861817609912321813681046478 2:0 3:1 4:0 5:0 7:0 73:1 259:1 # 20140614154636AAYu9pP ! NNP Social_Science TOKEN
0.5 2:0 3:6 4:0 5:0 7:0 73:1 3934:1 # 20140603005221AAThPnj HuaWei NNP Consumer_Electronics ORGANIZATION
-0.0073146655972879948137688188580796 2:0 3:3 4:0 5:1 7:0 32:1 73:1 # 20140625140958AAG0wQK and NNP Beauty_&_Style TOKEN
-0.0084794180991959178239625316564343 2:0 3:11 4:0 5:0 7:0 8:1 7714:1 # 20140618201815AAmO6f1 answer?What NN Science_&_Mathematics TOKEN
-0.28854380630804854490634170360863 2:0 3:4 4:0 5:0 7:1 73:1 14880:1 # 20140611152642AAd7nNQ Cave NNP Pets TOKEN
-0.012551250941154279416878125630319 2:0 3:6 4:0 5:0 7:0 8:1 3487:1 # 20140615210245AAjCZ2q iPhone NN Consumer_Electronics TOKEN
-0.012315368852299890534141013631597 2:0 3:6 4:0 5:0 7:0 8:1 3080:1 # 20140611204210AAPJj1y  NN Business_&_Finance TOKEN
-0.19484393982216374752169940620661 2:0 3:1 4:0 5:0 7:0 73:1 659:1 # 20140603072418AAgZjcN 5 NNP Science_&_Mathematics TOKEN
0.5 2:0 3:2 4:1 5:0 7:0 73:1 3408:1 # 20140616063937AAhSsrT UK NNP Business_&_Finance LOCATION
-0.01552546966636292324892565375194 2:0 3:3 4:0 5:1 7:0 8:1 4854:1 # 20140617203723AAnMv8x usa NN Politics_&_Government TOKEN
0.5 2:0 3:8 4:0 5:0 7:0 73:1 10495:1 # 20140623072617AAIXida McDonald NNP Dining_Out ORGANIZATION
0.5 2:0 3:8 4:0 5:0 7:1 73:1 9137:1 # 20140615215028AAGmoaM Scherzer NNP Sports PERSON
0.5 2:0 3:7 4:0 5:0 7:1 26:1 8190:1 # 20140625120602AAXWOm0 Kurdish JJ Science_&_Mathematics LOCATION
0.5 2:0 3:8 4:0 5:0 7:1 73:1 15211:1 # 20140610123048AAZOuhW Bergdahl NNP Politics_&_Government PERSON
0.5 2:0 3:7 4:0 5:0 7:0 73:1 11323:1 # 20140616143448AAdU6Ze Dunkin' NNP Dining_Out ORGANIZATION
0.5 2:0 3:7 4:0 5:0 7:0 73:1 15019:1 # 20140613154011AAJ98M9 McCaine NNP Politics_&_Government PERSON
-0.0076253615209362912708002113504335 2:1 3:4 4:0 5:0 7:1 12:1 4263:1 # 20140617052323AAeXK8h Lots NNS Cars_&_Transportation TOKEN
-0.10571881891249332308113650924497 2:0 3:5 4:1 5:0 7:0 73:1 18930:1 # 20140617132235AAkTTzS WHERE NNP Computer_&_Internet TOKEN
-0.0051839148488166397754639547201805 2:0 3:8 4:1 5:0 7:0 73:1 5329:1 # 20140613124917AAp8Kiq JYP#CUBE NNP Entertainment_&_Music TOKEN
0.5 2:0 3:8 4:0 5:0 7:1 73:1 4280:1 # 20140604083714AANM1Br Columbia NNP Education_&_Reference LOCATION
0.21642295374154363329921579861548 2:0 3:10 4:0 5:0 7:1 73:1 2770:1 # 20140614231842AApn3VH California NNP Cars_&_Transportation LOCATION
0.5 2:0 3:8 4:0 5:0 7:1 73:1 4068:1 # 20140606193910AApjpvz Bethesda NNP Consumer_Electronics PERSON
0.49977414952214216370407484646421 2:1 3:7 4:0 5:0 7:1 73:1 12802:1 # 20140616200702AA6Pms8 Angeles NNP Local_Businesses LOCATION
-0.16130929786057168762170022091595 2:0 3:3 4:0 5:0 7:1 24:1 729:1 # 20140610052054AAkNfGL The DT Cars_&_Transportation TOKEN
0.5 2:1 3:7 4:0 5:0 7:1 73:1 11365:1 # 20140616143448AAdU6Ze Popeyes NNP Dining_Out ORGANIZATION
0.5 2:1 3:7 4:0 5:0 7:1 73:1 11348:1 # 20140616143448AAdU6Ze Caesars NNP Dining_Out ORGANIZATION
0.5 2:1 3:7 4:0 5:0 7:1 73:1 15590:1 # 20140613162326AARvh60 Stevens NNP Politics_&_Government PERSON
0.5 2:1 3:7 4:0 5:0 7:1 73:1 11379:1 # 20140616143448AAdU6Ze Hortons NNP Dining_Out ORGANIZATION
0.5 2:0 3:2 4:1 5:0 7:0 73:1 4294:1 # 20140604083714AANM1Br GA NNP Education_&_Reference LOCATION
0.5 2:0 3:2 4:1 5:0 7:0 73:1 4300:1 # 20140604083714AANM1Br TX NNP Education_&_Reference LOCATION
0.5 2:0 3:2 4:1 5:0 7:0 73:1 809:1 # 20140617074422AANUT7h J. NNP Arts_&_Humanities PERSON
-0.029874299858546005115300658872002 2:0 3:2 4:0 5:1 7:0 710:1 9662:1 # 20140605180334AAWxjN8 un FW Food_&_Drink TOKEN
-0.029801910731556358058469413663261 2:0 3:2 4:0 5:1 7:0 710:1 9410:1 # 20140617094029AAZ1FwJ ex FW Family_&_Relationships TOKEN
-0.012739845294714058354657026939094 2:0 3:4 4:0 5:1 7:0 8:1 10615:1 # 20140601151243AAGeO0l cord NN Home_&_Garden TOKEN
0.5 2:0 3:8 4:0 5:0 7:1 73:1 13959:1 # 20140626120744AAMAD0e Zimbabwe NNP News_&_Events LOCATION
0.5 2:0 3:8 4:0 5:0 7:1 73:1 18418:1 # 20140617134810AAX61tb Aramoana NNP Travel LOCATION
0.5 2:0 3:8 4:0 5:0 7:1 73:1 7910:1 # 20140618024923AAR6gIm Einstein NNP Science_&_Mathematics PERSON
-0.19227668260374766728837414575537 2:0 3:9 4:0 5:1 7:0 73:1 3951:1 # 20140603005221AAThPnj space.the NNP Consumer_Electronics TOKEN
0.5 2:0 3:8 4:0 5:0 7:1 73:1 9277:1 # 20140607094147AAMHfCN Martinez NNP Sports PERSON
0.5 2:0 3:8 4:0 5:0 7:1 73:1 5937:1 # 20140604090916AAD5Lml Cambogia NNP Health PERSON
0.5 2:0 3:8 4:0 5:0 7:1 73:1 13945:1 # 20140626120744AAMAD0e Vladimir NNP News_&_Events PERSON
0.5 2:0 3:8 4:0 5:0 7:1 73:1 15273:1 # 20140617193722AA5emAo Benghazi NNP Politics_&_Government LOCATION
-0.14806063886305764754069969058037 2:0 3:79 4:0 5:1 7:0 73:1 19374:1 # 20140608060520AAMzqLw https:##help.yahoo.com#kb#limitations-internet-explorer-yahoo-mail-sln5918.html NNP Yahoo!_Products TOKEN
-0.28855638279167106219347260775976 2:0 3:4 4:0 5:0 7:1 73:1 4127:1 # 20140607141649AANF6Tv Sale NNP Consumer_Electronics TOKEN
