SVM-light Version V6.02
0 # kernel type
3 # kernel parameter -d 
1 # kernel parameter -g 
1 # kernel parameter -s 
1 # kernel parameter -r 
empty# kernel parameter -u 
19572 # highest feature index 
69010 # number of training documents 
8149 # number of support vectors plus 1 
1.0176662 # threshold b, each following line is a SV (starting with alpha*y)
-0.27068135557497541299198928754777 2:0 3:6 4:0 5:0 7:1 73:1 8180:1 # 20140614170630AA1o9BQ Muslim NNP Politics_&_Government TOKEN
-0.013067076035003566403247532434762 2:0 3:4 4:0 5:1 7:0 8:1 13841:1 # 20140621045509AAck6mP wing NN News_&_Events TOKEN
-0.026163411142782866392053620074876 2:0 3:6 4:0 5:1 7:0 20:1 10377:1 # 20140603235141AAdqnjl engine VBG Cars_&_Transportation TOKEN
-0.012488947368448244379379730162327 2:0 3:5 4:0 5:1 7:0 8:1 1123:1 # 20140601130859AAHxybZ world NN Sports TOKEN
-0.029296541483727393806457683922417 2:0 3:6 4:0 5:0 7:1 88:1 5720:1 # 20140601140351AAMxHZD Forget VB Pregnancy_&_Parenting TOKEN
0.5 2:0 3:6 4:0 5:0 7:1 73:1 9913:1 # 20140614170630AA1o9BQ Brazil NNP Politics_&_Government LOCATION
0.5 2:0 3:6 4:0 5:1 7:0 73:1 5370:1 # 20140621194648AAv7Pxb kuroko NNP Entertainment_&_Music PERSON
0.5 2:0 3:3 4:0 5:0 7:1 73:1 769:1 # 20140625193136AAUePpR Poe NNP Arts_&_Humanities PERSON
0.5 2:1 3:5 4:0 5:1 7:0 123:1 2184:1 # 20140615091428AA1nGW3 falls VBZ Local_Businesses LOCATION
0.5 2:0 3:4 4:1 5:0 7:0 73:1 1555:1 # 20140625095108AAhxBZ2 E.A. NNP Arts_&_Humanities PERSON
0.5 2:1 3:2 4:1 5:0 7:0 16:1 2475:1 # 20140613180332AA3jCxr US PRP News_&_Events LOCATION
0.5 2:0 3:2 4:1 5:0 7:0 8:1 5530:1 # 20140617203632AANuG3B DC NN Entertainment_&_Music ORGANIZATION
0.5 2:0 3:4 4:0 5:0 7:1 73:1 9040:1 # 20140605104442AAFzzy2 Bray NNP Sports PERSON
0.5 2:0 3:4 4:0 5:0 7:1 73:1 13473:1 # 20140617193722AA5emAo Mike NNP Politics_&_Government PERSON
0.5 2:0 3:4 4:0 5:0 7:1 73:1 4268:1 # 20140604083714AANM1Br Hill NNP Education_&_Reference LOCATION
0.5 2:1 3:8 4:0 5:1 7:0 12:1 10150:1 # 20140605150717AAmRFk6 brothers NNS News_&_Events ORGANIZATION
-0.17964503949077581523852131795138 2:1 3:3 4:0 5:0 7:1 73:1 11237:1 # 20140610172137AA9hoaq Las NNP Dining_Out TOKEN
-0.17964503949077226252484251745045 2:1 3:3 4:0 5:0 7:1 73:1 3523:1 # 20140614134845AAVhWeg Ops NNP Consumer_Electronics TOKEN
0.5 2:0 3:5 4:0 5:1 7:0 40:1 5659:1 # 20140619063559AA2eks0 south RB Home_&_Garden LOCATION
-0.5 2:1 3:5 4:0 5:1 7:0 123:1 2184:1 # 20140612062149AAH8vjl falls VBZ Arts_&_Humanities TOKEN
-0.21075542473796557429999154464895 2:0 3:1 4:1 5:0 7:1 73:1 8228:1 # 20140622013948AAZujJH W NNP Science_&_Mathematics TOKEN
0.5 2:0 3:10 4:0 5:1 7:0 8:1 8927:1 # 20140615190410AAmWDg3 wristwatch NN Sports PERSON
0.5 2:1 3:5 4:0 5:1 7:0 12:1 19123:1 # 20140601002604AAq45X7 hicks NNS Pregnancy_&_Parenting PERSON
-0.17965625004658747343455615919083 2:1 3:4 4:0 5:0 7:1 73:1 13978:1 # 20140610123048AAZOuhW Libs NNP Politics_&_Government TOKEN
-0.17965625004659413477270391013008 2:1 3:4 4:0 5:0 7:1 73:1 15155:1 # 20140610123048AAZOuhW Cons NNP Politics_&_Government TOKEN
-0.17969524992604890556435748294462 2:1 3:4 4:0 5:0 7:1 73:1 3180:1 # 20140601131055AAPxhOP Data NNP Business_&_Finance TOKEN
0.5 2:0 3:10 4:0 5:1 7:0 8:1 2204:1 # 20140614170630AA1o9BQ government NN Politics_&_Government ORGANIZATION
0.5 2:0 3:4 4:1 5:0 7:0 73:1 3768:1 # 20140605225754AA2LJWC ESPN NNP Consumer_Electronics ORGANIZATION
-0.17586683625358101590308024242404 2:0 3:1 4:0 5:0 7:0 73:1 131:1 # 20140605225313AAAhy4Z - NNP Health TOKEN
-0.17571301059312130488088143920322 2:0 3:1 4:0 5:0 7:0 39:1 73:1 # 20140622230045AAAI6WE . NNP Travel TOKEN
-0.175825976338350287164757901337 2:0 3:1 4:0 5:0 7:0 73:1 259:1 # 20140614154636AAYu9pP ! NNP Social_Science TOKEN
0.5 2:0 3:5 4:0 5:1 7:0 8:1 7374:1 # 20140605185213AAgsKy3 yahoo NN Yahoo!_Products ORGANIZATION
0.5 2:0 3:5 4:0 5:1 7:0 8:1 3986:1 # 20140617165924AASLrlc apple NN Consumer_Electronics ORGANIZATION
0.5 2:1 3:7 4:0 5:0 7:1 123:1 5614:1 # 20140620213457AAI59UA Answers VBZ Computer_&_Internet ORGANIZATION
-0.18115625991857786658556506154127 2:0 3:1 4:0 5:1 7:0 35:1 73:1 # 20140610121407AAmfyfy a NNP Food_&_Drink TOKEN
0.5 2:0 3:4 4:0 5:0 7:0 8:1 3200:1 # 20140605231104AAm8fzJ eBay NN Politics_&_Government ORGANIZATION
0.5 2:1 3:2 4:1 5:0 7:0 16:1 2475:1 # 20140619105821AAuioIb US PRP Education_&_Reference LOCATION
-0.11559760966585599928357908083854 2:0 3:5 4:1 5:0 7:0 73:1 7908:1 # 20140618024923AAR6gIm WOULD NNP Science_&_Mathematics TOKEN
-0.11648555058852050336781758232974 2:0 3:5 4:1 5:0 7:0 73:1 4153:1 # 20140607141649AANF6Tv E2200 NNP Consumer_Electronics TOKEN
-0.012131732662244057441292000021349 2:0 3:15 4:0 5:1 7:0 8:1 14840:1 # 20140615103833AAIK4wa self-confidence NN Pets TOKEN
0.5 2:0 3:6 4:0 5:1 7:0 8:1 8749:1 # 20140612145554AAjlhJX brazil NN Beauty_&_Style LOCATION
0.5 2:1 3:4 4:0 5:1 7:0 45:1 847:1 # 20140601162630AAuDjDG laid VBN Sports ORGANIZATION
-0.35800651256098992014642590220319 2:1 3:2 4:1 5:0 7:0 16:1 2475:1 # 20140609172302AAjgqUA US PRP Yahoo!_Products TOKEN
0.5 2:0 3:5 4:0 5:1 7:0 8:1 15250:1 # 20140605231104AAm8fzJ gucci NN Politics_&_Government ORGANIZATION
0.5 2:0 3:5 4:0 5:1 7:0 8:1 11110:1 # 20140613111207AAD5YgE wayne NN Dining_Out PERSON
0.5 2:0 3:5 4:0 5:1 7:0 8:1 15776:1 # 20140611151627AAmAEbQ corps NN Politics_&_Government ORGANIZATION
0.5 2:0 3:5 4:0 5:1 7:0 8:1 9588:1 # 20140615224306AASdmOX james NN Sports PERSON
0.5 2:1 3:2 4:1 5:0 7:0 16:1 2475:1 # 20140617191218AAiEBHA US PRP News_&_Events LOCATION
-0.41120854107257143184028791438323 2:1 3:4 4:0 5:1 7:0 45:1 847:1 # 20140622020047AAbc35x laid VBN Arts_&_Humanities TOKEN
0.5 2:0 3:11 4:0 5:1 7:0 8:1 15600:1 # 20140617203723AAnMv8x brotherhood NN Politics_&_Government ORGANIZATION
0.5 2:0 3:5 4:0 5:0 7:1 26:1 11375:1 # 20140616143448AAdU6Ze Sonic JJ Dining_Out ORGANIZATION
0.5 2:0 3:5 4:0 5:1 7:0 26:1 5739:1 # 20140615224306AASdmOX green JJ Sports PERSON
0.5 2:0 3:3 4:0 5:1 7:0 26:1 9449:1 # 20140623022611AAddTaJ ufc JJ Sports ORGANIZATION
-0.5 2:0 3:5 4:0 5:1 7:0 26:1 5739:1 # 20140620102728AA6qqJ3 green JJ Food_&_Drink TOKEN
-0.41256592008633730106481607435853 2:1 3:8 4:0 5:1 7:0 12:1 10150:1 # 20140605150717AAmRFk6 brothers NNS News_&_Events TOKEN
0.5 2:1 3:4 4:1 5:0 7:0 73:1 13003:1 # 20140617164637AAddgz5 USPS NNP Local_Businesses ORGANIZATION
0.5 2:0 3:3 4:0 5:1 7:0 26:1 31:1 # 20140622230045AAAI6WE new JJ Travel LOCATION
0.5 2:0 3:3 4:0 5:1 7:0 26:1 3981:1 # 20140605040256AAru12G low JJ Entertainment_&_Music PERSON
-0.013021230114002690925190108828247 2:0 3:3 4:0 5:1 7:0 8:1 11259:1 # 20140610172137AA9hoaq ft. NN Dining_Out TOKEN
-0.012889580079402662704524118453264 2:0 3:3 4:0 5:1 7:0 8:1 12998:1 # 20140622225954AAAlKMt goi NN Local_Businesses TOKEN
-0.00091804575254172959830611944198608 2:0 3:5 4:0 5:1 7:0 26:1 3637:1 # 20140616073715AA0e9si plain JJ Cars_&_Transportation TOKEN
-0.5 2:0 3:9 4:0 5:0 7:1 73:1 3578:1 # 20140626130807AAvZf6J Microsoft NNP Computer_&_Internet TOKEN
0.5 2:1 3:2 4:1 5:0 7:0 16:1 2475:1 # 20140612145554AAjlhJX US PRP Beauty_&_Style LOCATION
-0.0015884764573605991699878359213471 2:0 3:2 4:0 5:1 7:0 204:1 4444:1 # 20140604150422AAIDveZ 2k CD Education_&_Reference TOKEN
-0.011872939052601338971726363524795 2:0 3:1 4:0 5:1 7:0 8:1 4443:1 # 20140618170211AA99yVG k NN Science_&_Mathematics TOKEN
-0.006580219263990313982581881191436 2:0 3:5 4:0 5:0 7:0 8:1 8273:1 # 20140615124053AAji1XJ !!!!! NN Science_&_Mathematics TOKEN
-0.0015884764573604881476853734056931 2:0 3:2 4:0 5:1 7:0 204:1 7744:1 # 20140605081144AAuazx4 r6 CD Science_&_Mathematics TOKEN
0.5 2:0 3:5 4:0 5:1 7:0 26:1 5739:1 # 20140615224306AASdmOX green JJ Sports PERSON
-0.090456735721971881503122858703136 2:0 3:3 4:0 5:0 7:1 26:1 9931:1 # 20140621092416AArsE0s Due JJ Social_Science TOKEN
-0.090456735722021619494626065716147 2:0 3:3 4:0 5:0 7:1 26:1 11081:1 # 20140610190716AAGOR0h Few JJ Dining_Out TOKEN
-0.090625119988601565701458184776129 2:0 3:3 4:0 5:0 7:1 26:1 884:1 # 20140622020047AAbc35x Lol JJ Arts_&_Humanities TOKEN
-0.090456735722138859046026482246816 2:0 3:3 4:0 5:0 7:1 26:1 1100:1 # 20140611185044AABR6jn Bad JJ Family_&_Relationships TOKEN
0.5 2:0 3:5 4:0 5:1 7:0 8:1 10766:1 # 20140609115257AAXrpdb skoda NN Cars_&_Transportation ORGANIZATION
0.5 2:0 3:5 4:0 5:1 7:0 8:1 9214:1 # 20140618180738AANfMh9 china NN Sports LOCATION
0.5 2:0 3:5 4:0 5:1 7:0 8:1 7155:1 # 20140625171643AAxjtac intel NN Computer_&_Internet ORGANIZATION
0.5 2:0 3:5 4:0 5:1 7:0 8:1 8142:1 # 20140625120602AAXWOm0 syria NN Science_&_Mathematics LOCATION
-0.5 2:0 3:5 4:0 5:1 7:0 26:1 5739:1 # 20140604184751AAZzDj5 green JJ Beauty_&_Style TOKEN
-0.042625144541661441621727135498077 2:0 3:1 4:1 5:0 7:1 8:1 8037:1 # 20140605031016AAsN8GR E NN Science_&_Mathematics TOKEN
0.5 2:0 3:4 4:0 5:1 7:0 20:1 8143:1 # 20140625120602AAXWOm0 iraq VBG Science_&_Mathematics LOCATION
-0.5 2:1 3:2 4:1 5:0 7:0 73:1 2475:1 # 20140619105821AAuioIb US NNP Education_&_Reference TOKEN
0.49966216400755125714994164809468 2:0 3:6 4:0 5:0 7:1 73:1 3931:1 # 20140608232829AAA2063 Google NNP Home_&_Garden ORGANIZATION
0.5 2:1 3:4 4:1 5:0 7:0 73:1 13003:1 # 20140625100949AAuIkTO USPS NNP Local_Businesses ORGANIZATION
-0.026107489936593841761691692227032 2:0 3:1 4:0 5:1 7:0 20:1 4815:1 # 20140618095228AAKVjIw g VBG Science_&_Mathematics TOKEN
0.5 2:0 3:7 4:0 5:1 7:0 8:1 13781:1 # 20140616154757AA3uubn britain NN News_&_Events LOCATION
-0.17963187807350600166955700842664 2:1 3:3 4:0 5:0 7:1 73:1 15595:1 # 20140617203723AAnMv8x Hes NNP Politics_&_Government TOKEN
0.5 2:0 3:4 4:0 5:1 7:0 20:1 3365:1 # 20140616234645AAnbyhx ebay VBG Consumer_Electronics ORGANIZATION
-0.5 2:0 3:3 4:0 5:1 7:0 20:1 3981:1 # 20140607135336AADGWCS low VBG Computer_&_Internet TOKEN
-0.00099606309712818585921922931447625 2:0 3:3 4:0 5:1 7:0 26:1 3981:1 # 20140622183237AAlmEtx low JJ Dining_Out TOKEN
-0.5 2:1 3:2 4:1 5:0 7:0 16:1 2475:1 # 20140619072135AAeFu7N US PRP Politics_&_Government TOKEN
0.5 2:0 3:3 4:0 5:1 7:0 24:1 25:1 # 20140605040256AAru12G the DT Entertainment_&_Music PERSON
0.5 2:0 3:3 4:0 5:1 7:0 32:1 33:1 # 20140610083106AA7AAUT and CC Dining_Out ORGANIZATION
0.5 2:1 3:2 4:1 5:0 7:0 16:1 2475:1 # 20140619105821AAuioIb US PRP Education_&_Reference LOCATION
-0.17967165593007874968556336625625 2:1 3:15 4:0 5:0 7:1 73:1 19388:1 # 20140606090914AA45noC Troubleshooting NNP Yahoo!_Products TOKEN
0.5 2:0 3:4 4:0 5:0 7:1 88:1 5589:1 # 20140605040256AAru12G Kill VB Entertainment_&_Music PERSON
-0.013941762098890642107562598539516 2:0 3:4 4:0 5:1 7:0 123:1 748:1 # 20140607125905AA2JtXv sure VBZ Politics_&_Government TOKEN
0.5 2:0 3:3 4:0 5:0 7:1 24:1 830:1 # 20140605040256AAru12G All DT Entertainment_&_Music PERSON
0.5 2:0 3:3 4:0 5:1 7:0 32:1 33:1 # 20140610083106AA7AAUT and CC Dining_Out ORGANIZATION
-0.090676847384779435401469527278095 2:0 3:10 4:0 5:0 7:1 26:1 14678:1 # 20140626142532AAHm2Mx Pomeranian JJ Pets TOKEN
0.5 2:0 3:4 4:0 5:0 7:1 204:1 11332:1 # 20140616143448AAdU6Ze Five CD Dining_Out ORGANIZATION
0.5 2:0 3:4 4:0 5:0 7:1 710:1 18942:1 # 20140611001634AAefV9p Maya FW Pregnancy_&_Parenting PERSON
-0.5 2:0 3:3 4:0 5:0 7:1 24:1 830:1 # 20140604083714AANM1Br All DT Education_&_Reference TOKEN
-0.5 2:0 3:3 4:0 5:1 7:0 26:1 31:1 # 20140623011420AA1Rko5 new JJ Pregnancy_&_Parenting TOKEN
0.5 2:0 3:3 4:0 5:1 7:0 24:1 25:1 # 20140605040256AAru12G the DT Entertainment_&_Music PERSON
-0.5 2:0 3:4 4:0 5:0 7:1 88:1 5589:1 # 20140619114039AAjxNQW Kill VB Food_&_Drink TOKEN
-0.03888653884503101565428551111836 2:0 3:2 4:0 5:0 7:1 217:1 504:1 # 20140612085537AAi9CKA To TO Pregnancy_&_Parenting TOKEN
-0.013012381421894758659618673846126 2:0 3:3 4:0 5:1 7:0 8:1 8997:1 # 20140612160340AAE8W0E lie NN Sports TOKEN
0.5 2:0 3:3 4:0 5:0 7:1 24:1 729:1 # 20140623022611AAddTaJ The DT Sports PERSON
-0.040638567267997860454897818272002 2:0 3:1 4:0 5:1 7:0 73:1 2284:1 # 20140601034548AAxsbgI f NNP Science_&_Mathematics TOKEN
0.5 2:0 3:3 4:0 5:1 7:0 26:1 31:1 # 20140612200636AAqMBhQ new JJ Politics_&_Government LOCATION
-0.17583864239939117624089703895152 2:0 3:1 4:0 5:0 7:0 73:1 8795:1 # 20140613125219AA2D0JF | NNP Beauty_&_Style TOKEN
-0.17576182599524159400061762426049 2:0 3:1 4:0 5:0 7:0 73:1 639:1 # 20140621111444AACBO2L 2 NNP Cars_&_Transportation TOKEN
-0.17582597633848706664139172062278 2:0 3:1 4:0 5:0 7:0 73:1 1052:1 # 20140613202053AAONeF7 ~ NNP Games_&_Recreation TOKEN
-0.17582597633834851080791850108653 2:0 3:1 4:0 5:0 7:0 73:1 666:1 # 20140617015321AAEmy38 6 NNP Politics_&_Government TOKEN
-0.17570128891415826011268563888734 2:0 3:1 4:0 5:0 7:0 73:1 648:1 # 20140610162943AA8McBJ 3 NNP Games_&_Recreation TOKEN
0.5 2:0 3:4 4:0 5:1 7:0 88:1 15152:1 # 20140612200636AAqMBhQ york VB Politics_&_Government LOCATION
0.5 2:0 3:3 4:0 5:0 7:1 24:1 830:1 # 20140605040256AAru12G All DT Entertainment_&_Music PERSON
0.5 2:0 3:5 4:0 5:1 7:0 8:1 15447:1 # 20140606032555AA8mCFY mafia NN Politics_&_Government ORGANIZATION
0.5 2:0 3:3 4:1 5:0 7:0 73:1 14319:1 # 20140606223938AAjsrL7 AFC NNP News_&_Events ORGANIZATION
0.5 2:0 3:3 4:1 5:0 7:0 73:1 10551:1 # 20140608182325AAmvy1Q DMV NNP Cars_&_Transportation ORGANIZATION
0.5 2:0 3:3 4:1 5:0 7:0 73:1 2568:1 # 20140606153641AAjtBgn USA NNP Social_Science LOCATION
0.5 2:0 3:3 4:1 5:0 7:0 73:1 3953:1 # 20140603005221AAThPnj ZET NNP Consumer_Electronics ORGANIZATION
0.5 2:0 3:3 4:1 5:0 7:0 73:1 4270:1 # 20140604083714AANM1Br UNC NNP Education_&_Reference ORGANIZATION
-0.26994892435640888139758430952497 2:0 3:8 4:0 5:0 7:1 73:1 1818:1 # 20140621012549AAOo4ve Brittany NNP Arts_&_Humanities TOKEN
0.5 2:1 3:6 4:0 5:1 7:0 8:1 5762:1 # 20140605140138AAyDVJY barros NN Entertainment_&_Music PERSON
-0.5 2:0 3:3 4:0 5:0 7:1 24:1 830:1 # 20140606003853AAp4Kid All DT Sports TOKEN
0.5 2:0 3:3 4:0 5:0 7:0 73:1 9571:1 # 20140615224306AASdmOX NbA NNP Sports ORGANIZATION
0.5 2:0 3:2 4:1 5:0 7:0 73:1 3408:1 # 20140616063937AAhSsrT UK NNP Business_&_Finance LOCATION
0.5 2:0 3:2 4:1 5:0 7:0 73:1 4300:1 # 20140604083714AANM1Br TX NNP Education_&_Reference LOCATION
0.5 2:0 3:2 4:1 5:0 7:0 73:1 4289:1 # 20140604083714AANM1Br NY NNP Education_&_Reference LOCATION
-0.5 2:1 3:7 4:0 5:0 7:1 123:1 5614:1 # 20140605081144AAuazx4 Answers VBZ Science_&_Mathematics TOKEN
-0.18106281250292965978587744757533 2:0 3:2 4:0 5:1 7:0 73:1 149:1 # 20140618141257AAQm1bZ in NNP Arts_&_Humanities TOKEN
-0.042507071923991834871969786036061 2:0 3:1 4:1 5:0 7:1 8:1 8038:1 # 20140605031016AAsN8GR F NN Science_&_Mathematics TOKEN
0.5 2:0 3:6 4:0 5:0 7:0 73:1 3934:1 # 20140603005221AAThPnj HuaWei NNP Consumer_Electronics ORGANIZATION
0.5 2:0 3:7 4:0 5:1 7:0 8:1 13781:1 # 20140616154757AA3uubn britain NN News_&_Events LOCATION
-0.10231513434774219817313678504433 2:0 3:8 4:0 5:0 7:1 8:1 11034:1 # 20140616141511AAlZZIn Birthday NN Dining_Out TOKEN
0.5 2:1 3:3 4:1 5:0 7:0 73:1 15277:1 # 20140625082631AAcgyMl IRS NNP Politics_&_Government ORGANIZATION
0.5 2:0 3:3 4:0 5:1 7:0 8:1 4854:1 # 20140601014139AA5Szo2 usa NN Education_&_Reference LOCATION
-0.5 2:1 3:2 4:1 5:0 7:0 16:1 2475:1 # 20140609172302AAjgqUA US PRP Yahoo!_Products TOKEN
-0.37271602379559354289995098952204 2:1 3:3 4:1 5:0 7:0 73:1 15277:1 # 20140617193722AA5emAo IRS NNP Politics_&_Government TOKEN
0.5 2:0 3:5 4:0 5:1 7:0 88:1 13037:1 # 20140620172230AAfuPAg texas VB Local_Businesses LOCATION
0.5 2:0 3:4 4:0 5:1 7:0 8:1 13833:1 # 20140607125905AA2JtXv army NN Politics_&_Government ORGANIZATION
0.5 2:0 3:4 4:0 5:1 7:0 8:1 194:1 # 20140605040256AAru12G time NN Entertainment_&_Music PERSON
0.5 2:0 3:3 4:0 5:0 7:1 73:1 15781:1 # 20140611151627AAmAEbQ Ted NNP Politics_&_Government PERSON
0.5 2:0 3:2 4:1 5:0 7:0 73:1 14378:1 # 20140613180332AA3jCxr AL NNP News_&_Events ORGANIZATION
0.5 2:0 3:2 4:1 5:0 7:0 73:1 4294:1 # 20140604083714AANM1Br GA NNP Education_&_Reference LOCATION
-0.012620259530375932399692828767002 2:0 3:1 4:0 5:1 7:0 8:1 3741:1 # 20140623023853AA1SoFR m NN Science_&_Mathematics TOKEN
-0.011872939052331332732137525454164 2:0 3:1 4:0 5:1 7:0 8:1 7845:1 # 20140603090420AAhFUM7 p NN Science_&_Mathematics TOKEN
-0.0015884764572630105661232846614439 2:0 3:2 4:0 5:1 7:0 204:1 8063:1 # 20140601043856AAIunch 4g CD Science_&_Mathematics TOKEN
-0.011913804818985851419199661904713 2:0 3:1 4:0 5:1 7:0 8:1 3471:1 # 20140615174740AA8MA6l t NN Cars_&_Transportation TOKEN
0.5 2:1 3:5 4:0 5:1 7:0 123:1 2184:1 # 20140615091428AA1nGW3 falls VBZ Local_Businesses LOCATION
0.5 2:0 3:5 4:0 5:0 7:1 8:1 5598:1 # 20140605040256AAru12G Panic NN Entertainment_&_Music PERSON
-0.012182050818981160489329340634868 2:1 3:2 4:0 5:0 7:1 123:1 546:1 # 20140618202204AAODcVd Is VBZ Food_&_Drink TOKEN
0.5 2:0 3:4 4:0 5:1 7:0 8:1 4391:1 # 20140619105821AAuioIb kean NN Education_&_Reference ORGANIZATION
-0.5 2:0 3:3 4:0 5:0 7:1 16:1 729:1 # 20140613121148AAUGduQ The PRP Social_Science TOKEN
-0.011935928719679134157871658317163 2:0 3:12 4:0 5:1 7:0 8:1 18460:1 # 20140617130308AAqDdcG confirmation NN Travel TOKEN
0.5 2:0 3:3 4:1 5:0 7:0 73:1 14311:1 # 20140611214724AASfT7e GOP NNP News_&_Events ORGANIZATION
-0.44740620119563434542442337260582 2:0 3:2 4:1 5:0 7:0 8:1 5530:1 # 20140617203632AANuG3B DC NN Entertainment_&_Music TOKEN
-0.069446323600537596121284877881408 2:1 3:7 4:0 5:0 7:1 61:1 12844:1 # 20140603053113AAVRR5O Indians NNPS Local_Businesses TOKEN
-0.15260328363892483594099758192897 2:1 3:3 4:1 5:0 7:0 73:1 15277:1 # 20140617193722AA5emAo IRS NNP Politics_&_Government TOKEN
0.5 2:0 3:2 4:0 5:0 7:1 22:1 608:1 # 20140605040256AAru12G My PRP$ Entertainment_&_Music PERSON
0.5 2:0 3:4 4:0 5:1 7:0 8:1 9454:1 # 20140623022611AAddTaJ kurt NN Sports PERSON
0.5 2:1 3:2 4:1 5:0 7:0 16:1 2475:1 # 20140614170630AA1o9BQ US PRP Politics_&_Government ORGANIZATION
-0.49822415004062747811985900625587 2:0 3:2 4:0 5:0 7:1 22:1 608:1 # 20140611114023AAQ6gKU My PRP$ Education_&_Reference TOKEN
0.5 2:1 3:3 4:0 5:0 7:1 73:1 12801:1 # 20140603004555AAv1K5X Los NNP Politics_&_Government LOCATION
-0.012833097438345930640934966504574 2:0 3:28 4:0 5:1 7:0 8:1 19462:1 # 20140615171734AAd4Cuo stupidest#funniest#strangest NN Yahoo!_Products TOKEN
0.5 2:0 3:4 4:0 5:1 7:0 8:1 487:1 # 20140620035947AAeYEbM area NN Local_Businesses LOCATION
0.5 2:0 3:3 4:1 5:0 7:0 73:1 3933:1 # 20140603005221AAThPnj ZTE NNP Consumer_Electronics ORGANIZATION
0.5 2:0 3:5 4:0 5:0 7:1 73:1 1716:1 # 20140616154757AA3uubn Islam NNP News_&_Events ORGANIZATION
-0.090508826526621843910902498464566 2:0 3:9 4:0 5:0 7:1 26:1 12161:1 # 20140610121407AAmfyfy Different JJ Food_&_Drink TOKEN
-0.041106161511230254745896672829986 2:0 3:2 4:0 5:0 7:1 24:1 1064:1 # 20140613030213AAZi4zH An DT Travel TOKEN
0.5 2:0 3:2 4:0 5:0 7:1 22:1 608:1 # 20140605040256AAru12G My PRP$ Entertainment_&_Music PERSON
0.5 2:0 3:3 4:0 5:0 7:1 73:1 4312:1 # 20140604083714AANM1Br San NNP Education_&_Reference LOCATION
0.5 2:0 3:3 4:0 5:0 7:1 73:1 2656:1 # 20140606223938AAjsrL7 New NNP News_&_Events ORGANIZATION
-0.5 2:0 3:2 4:0 5:0 7:1 22:1 608:1 # 20140612075124AA6dIcl My PRP$ Cars_&_Transportation TOKEN
0.5 2:0 3:3 4:0 5:0 7:0 204:1 2700:1 # 20140605081144AAuazx4 1#2 CD Science_&_Mathematics PERSON
-0.5 2:0 3:3 4:0 5:0 7:1 73:1 2656:1 # 20140614220006AA90c02 New NNP Sports TOKEN
-0.17576182599524337035745702451095 2:0 3:1 4:0 5:0 7:0 73:1 659:1 # 20140603072418AAgZjcN 5 NNP Science_&_Mathematics TOKEN
-0.17584142109940614773222478106618 2:0 3:1 4:0 5:0 7:0 73:1 3524:1 # 20140614134845AAVhWeg • NNP Consumer_Electronics TOKEN
0.5 2:0 3:7 4:0 5:0 7:0 73:1 14240:1 # 20140615161422AAiDhFt K-Earth NNP News_&_Events ORGANIZATION
0.5 2:0 3:3 4:1 5:0 7:0 73:1 9434:1 # 20140623022611AAddTaJ UFC NNP Sports ORGANIZATION
0.5 2:0 3:3 4:1 5:0 7:0 73:1 19533:1 # 20140625072412AAUASEG LA. NNP Yahoo!_Products LOCATION
0.5 2:0 3:3 4:1 5:0 7:0 73:1 3769:1 # 20140605225754AA2LJWC ABC NNP Consumer_Electronics ORGANIZATION
0.5 2:0 3:2 4:0 5:0 7:1 22:1 608:1 # 20140605040256AAru12G My PRP$ Entertainment_&_Music PERSON
-0.5 2:0 3:3 4:1 5:0 7:0 73:1 3769:1 # 20140603072418AAgZjcN ABC NNP Science_&_Mathematics TOKEN
-0.2698421722513827947231845882925 2:0 3:2 4:0 5:0 7:1 73:1 11293:1 # 20140618215915AAruZzF Ya NNP News_&_Events TOKEN
-0.5 2:0 3:2 4:0 5:0 7:1 73:1 5396:1 # 20140614114159AAxmnir Al NNP Travel TOKEN
-0.27067109357712615391733379510697 2:0 3:2 4:0 5:0 7:1 73:1 185:1 # 20140617015321AAEmy38 So NNP Politics_&_Government TOKEN
-0.27066138701869801863608699932229 2:0 3:2 4:0 5:0 7:1 73:1 230:1 # 20140622011040AAZ0TjA Im NNP Education_&_Reference TOKEN
0.5 2:0 3:1 4:0 5:0 7:0 630:1 631:1 # 20140605034309AAV7PuK # # Consumer_Electronics PERSON
0.5 2:0 3:2 4:0 5:0 7:1 73:1 5396:1 # 20140612211617AAE6Bis Al NNP News_&_Events ORGANIZATION
0.5 2:0 3:3 4:0 5:0 7:1 73:1 12474:1 # 20140605130921AAXKqjH Xtx NNP Home_&_Garden PERSON
0.5 2:0 3:3 4:0 5:0 7:1 73:1 5559:1 # 20140618141409AA9yzif Ray NNP Entertainment_&_Music PERSON
-0.30798855800598790022348794082063 2:0 3:1 4:0 5:0 7:0 630:1 631:1 # 20140620102728AA6qqJ3 # # Food_&_Drink TOKEN
-0.025354273557650630621651544061024 2:1 3:2 4:1 5:0 7:0 73:1 311:1 # 20140608111211AAkpqtd IS NNP Pregnancy_&_Parenting TOKEN
-0.022223415156069639686542416256998 2:0 3:3 4:1 5:0 7:0 73:1 2641:1 # 20140623135519AAuth3K ADN NNP Business_&_Finance TOKEN
0.5 2:0 3:3 4:0 5:0 7:1 73:1 2656:1 # 20140603115526AAQmGXN New NNP Cars_&_Transportation LOCATION
-0.5 2:0 3:2 4:0 5:0 7:1 22:1 608:1 # 20140603135339AAL5mDP My PRP$ Cars_&_Transportation TOKEN
0.5 2:0 3:3 4:1 5:0 7:0 73:1 18052:1 # 20140617213812AAnm3nS WDW NNP Travel ORGANIZATION
0.5 2:0 3:4 4:1 5:0 7:0 73:1 15255:1 # 20140605231104AAm8fzJ EBAY NNP Politics_&_Government ORGANIZATION
-0.5 2:0 3:2 4:1 5:0 7:0 73:1 3408:1 # 20140608120927AA1JZcv UK NNP Travel TOKEN
-0.11622710791975263133757323430473 2:0 3:2 4:1 5:0 7:0 73:1 4300:1 # 20140617092003AATWcQC TX NNP Cars_&_Transportation TOKEN
-0.5 2:0 3:2 4:1 5:0 7:0 73:1 4289:1 # 20140610174552AAptb2t NY NNP Local_Businesses TOKEN
0.5 2:0 3:3 4:0 5:0 7:1 24:1 729:1 # 20140623022611AAddTaJ The DT Sports PERSON
-0.5 2:0 3:3 4:0 5:0 7:1 24:1 729:1 # 20140625072412AAUASEG The DT Yahoo!_Products TOKEN
-0.5 2:0 3:2 4:1 5:0 7:0 73:1 4300:1 # 20140626150225AAeTpqG TX NNP Sports TOKEN
-0.11644391732763237357062280352693 2:0 3:2 4:1 5:0 7:0 73:1 5149:1 # 20140613154011AAJ98M9 I. NNP Politics_&_Government TOKEN
-0.11650989960114577215222197992261 2:0 3:2 4:1 5:0 7:0 73:1 9259:1 # 20140617195809AA0PD6g RM NNP Sports TOKEN
-0.49608470806814597420242307634908 2:0 3:3 4:0 5:0 7:0 204:1 2700:1 # 20140601043856AAIunch 1#2 CD Science_&_Mathematics TOKEN
-0.27039385773438362470244555879617 2:0 3:10 4:0 5:0 7:1 73:1 10243:1 # 20140616052040AAmxXBJ Stockholme NNP Social_Science TOKEN
-0.21069776245954380256009130789607 2:0 3:1 4:1 5:0 7:1 73:1 3175:1 # 20140603072418AAgZjcN Y NNP Science_&_Mathematics TOKEN
0.5 2:0 3:4 4:0 5:1 7:0 8:1 1077:1 # 20140616143448AAdU6Ze land NN Dining_Out ORGANIZATION
0.5 2:0 3:4 4:0 5:1 7:0 8:1 6873:1 # 20140620231356AA5VO2N john NN Games_&_Recreation PERSON
-0.11649475026038946801065776526229 2:0 3:2 4:1 5:0 7:0 73:1 5097:1 # 20140609063130AAx8NAT GB NNP Computer_&_Internet TOKEN
0.5 2:0 3:2 4:1 5:0 7:0 73:1 3507:1 # 20140604083714AANM1Br CA NNP Education_&_Reference LOCATION
-0.27068283073295873464303440414369 2:0 3:3 4:0 5:0 7:1 73:1 5559:1 # 20140618215915AAruZzF Ray NNP News_&_Events TOKEN
-0.5 2:0 3:3 4:0 5:0 7:1 73:1 2656:1 # 20140614220006AA90c02 New NNP Sports TOKEN
0.5 2:0 3:3 4:1 5:0 7:0 73:1 15192:1 # 20140610123048AAZOuhW KGB NNP Politics_&_Government ORGANIZATION
0.5 2:0 3:3 4:1 5:0 7:0 73:1 13982:1 # 20140623230739AA9pP9C BBC NNP News_&_Events ORGANIZATION
0.5 2:0 3:3 4:1 5:0 7:0 73:1 4154:1 # 20140607141649AANF6Tv MSI NNP Consumer_Electronics ORGANIZATION
0.5 2:0 3:3 4:1 5:0 7:0 73:1 3769:1 # 20140617191218AAiEBHA ABC NNP News_&_Events ORGANIZATION
-0.5 2:0 3:2 4:1 5:0 7:0 73:1 3507:1 # 20140604203617AAQJuGv CA NNP Games_&_Recreation TOKEN
-0.5 2:0 3:3 4:0 5:0 7:1 73:1 5559:1 # 20140618215915AAruZzF Ray NNP News_&_Events TOKEN
-0.27066283681455471921140087943058 2:0 3:2 4:0 5:0 7:1 73:1 9627:1 # 20140618192549AAzYXYR Se NNP Social_Science TOKEN
0.5 2:0 3:2 4:1 5:0 7:0 73:1 11527:1 # 20140608112522AAMjxU9 LA NNP Local_Businesses LOCATION
-0.5 2:0 3:2 4:1 5:0 7:0 73:1 3408:1 # 20140608151316AAZv17m UK NNP Travel TOKEN
0.5 2:0 3:5 4:0 5:0 7:1 8:1 5440:1 # 20140616143448AAdU6Ze Juice NN Dining_Out ORGANIZATION
-0.5 2:0 3:5 4:0 5:0 7:1 8:1 5440:1 # 20140620190356AAdnQme Juice NN Entertainment_&_Music TOKEN
-0.012401070317160534095535240339814 2:0 3:4 4:0 5:1 7:0 8:1 2398:1 # 20140608145354AAWyj40 debt NN Business_&_Finance TOKEN
-0.013055961289059947461055344319902 2:0 3:4 4:0 5:1 7:0 8:1 5821:1 # 20140617112511AAZ4ux3 duck NN Entertainment_&_Music TOKEN
-0.5 2:0 3:2 4:0 5:0 7:1 73:1 5396:1 # 20140614114159AAxmnir Al NNP Travel TOKEN
0.5 2:0 3:3 4:0 5:1 7:0 26:1 31:1 # 20140612200636AAqMBhQ new JJ Politics_&_Government LOCATION
0.5 2:0 3:2 4:1 5:0 7:0 73:1 3408:1 # 20140625120602AAXWOm0 UK NNP Science_&_Mathematics LOCATION
0.5 2:0 3:9 4:0 5:1 7:0 88:1 1266:1 # 20140610075021AAwlDsA hollywood VB Dining_Out LOCATION
-0.5 2:0 3:3 4:1 5:0 7:0 73:1 2568:1 # 20140622140805AAtjqJa USA NNP Cars_&_Transportation TOKEN
-0.5 2:0 3:3 4:1 5:0 7:0 73:1 4270:1 # 20140604083714AANM1Br UNC NNP Education_&_Reference TOKEN
0.5 2:0 3:2 4:0 5:1 7:0 8:1 18381:1 # 20140617134810AAX61tb nz NN Travel LOCATION
0.5 2:0 3:5 4:0 5:0 7:1 8:1 5440:1 # 20140616143448AAdU6Ze Juice NN Dining_Out ORGANIZATION
-0.012910241238696162913157650109497 2:0 3:1 4:0 5:1 7:0 8:1 7337:1 # 20140623023853AA1SoFR h NN Science_&_Mathematics TOKEN
-0.012945049487834481283243803773075 2:0 3:1 4:0 5:1 7:0 8:1 8717:1 # 20140623173753AAUMZe3 c NN Food_&_Drink TOKEN
-0.012910241238696995580426118976902 2:0 3:1 4:0 5:1 7:0 8:1 8201:1 # 20140608113659AAJ5fVM z NN Science_&_Mathematics TOKEN
-0.5 2:0 3:3 4:1 5:0 7:0 73:1 4270:1 # 20140604083714AANM1Br UNC NNP Education_&_Reference TOKEN
-0.5 2:0 3:3 4:1 5:0 7:0 73:1 2568:1 # 20140622140805AAtjqJa USA NNP Cars_&_Transportation TOKEN
0.5 2:0 3:4 4:0 5:1 7:0 8:1 11101:1 # 20140613111207AAD5YgE gacy NN Dining_Out PERSON
0.5 2:0 3:4 4:0 5:1 7:0 8:1 19455:1 # 20140610080957AAEwFfP andy NN Yahoo!_Products PERSON
0.5 2:0 3:3 4:0 5:1 7:0 8:1 11396:1 # 20140616143448AAdU6Ze hut NN Dining_Out ORGANIZATION
-0.21071370444542547595290216122521 2:0 3:1 4:1 5:0 7:1 73:1 446:1 # 20140622013948AAZujJH V NNP Science_&_Mathematics TOKEN
-0.5 2:0 3:3 4:0 5:1 7:0 8:1 4854:1 # 20140617203723AAnMv8x usa NN Politics_&_Government TOKEN
-0.5 2:0 3:2 4:0 5:1 7:0 8:1 13095:1 # 20140620035947AAeYEbM sc NN Local_Businesses TOKEN
0.5 2:0 3:5 4:0 5:0 7:1 73:1 15639:1 # 20140614170630AA1o9BQ Libya NNP Politics_&_Government LOCATION
-0.010144834150600523514640372013673 2:0 3:4 4:0 5:0 7:1 22:1 2353:1 # 20140613123024AAkX1Tt Your PRP$ Education_&_Reference TOKEN
0.5 2:0 3:5 4:0 5:0 7:1 73:1 1692:1 # 20140618212015AAM2O4i India NNP Travel LOCATION
-0.27066795585228486942241943324916 2:0 3:3 4:0 5:0 7:1 73:1 11487:1 # 20140620003333AAaN90M Air NNP Dining_Out TOKEN
0.5 2:0 3:3 4:0 5:0 7:1 73:1 2656:1 # 20140625072412AAUASEG New NNP Yahoo!_Products LOCATION
0.5 2:0 3:5 4:0 5:1 7:0 8:1 1291:1 # 20140614122338AAHL8sn canon NN Arts_&_Humanities ORGANIZATION
0.5 2:0 3:3 4:1 5:0 7:0 73:1 4270:1 # 20140604083714AANM1Br UNC NNP Education_&_Reference ORGANIZATION
-0.11649128840963918207762617385015 2:0 3:2 4:1 5:0 7:0 73:1 6777:1 # 20140603131218AA1t3hP SD NNP Local_Businesses TOKEN
-0.11644310550349068478226399747655 2:0 3:2 4:1 5:0 7:0 73:1 7975:1 # 20140622230045AAAI6WE B. NNP Travel TOKEN
-0.11644737374603031376807393826311 2:0 3:2 4:1 5:0 7:0 73:1 4507:1 # 20140607181926AAii9kA C. NNP Pets TOKEN
0.5 2:0 3:3 4:0 5:1 7:0 8:1 4854:1 # 20140601014139AA5Szo2 usa NN Education_&_Reference LOCATION
0.5 2:0 3:2 4:1 5:0 7:0 73:1 3507:1 # 20140604083714AANM1Br CA NNP Education_&_Reference LOCATION
-0.10162635573772729746799825534254 2:0 3:5 4:0 5:0 7:1 8:1 5440:1 # 20140620190356AAdnQme Juice NN Entertainment_&_Music TOKEN
-0.098789900325710888751018501352519 2:0 3:2 4:0 5:0 7:1 8:1 664:1 # 20140626142532AAHm2Mx No NN Pets TOKEN
-0.10207883836200504212854411889566 2:0 3:2 4:0 5:0 7:1 8:1 13621:1 # 20140617094029AAZ1FwJ Id NN Family_&_Relationships TOKEN
0.5 2:0 3:3 4:1 5:0 7:0 73:1 2568:1 # 20140606153641AAjtBgn USA NNP Social_Science LOCATION
-0.11697407834417261618398242717376 2:0 3:2 4:1 5:0 7:0 73:1 3507:1 # 20140608223808AAjHFUR CA NNP Cars_&_Transportation TOKEN
0.5 2:0 3:2 4:0 5:1 7:0 8:1 13095:1 # 20140620035947AAeYEbM sc NN Local_Businesses LOCATION
-0.5 2:0 3:5 4:0 5:0 7:1 8:1 5440:1 # 20140620190356AAdnQme Juice NN Entertainment_&_Music TOKEN
-0.013020248923193866730230183748063 2:0 3:2 4:0 5:1 7:0 8:1 3748:1 # 20140602000015AAQvMYZ 5c NN Consumer_Electronics TOKEN
-0.49945756048893308332026208518073 2:0 3:2 4:1 5:0 7:0 73:1 3507:1 # 20140604203617AAQJuGv CA NNP Games_&_Recreation TOKEN
-0.5 2:0 3:3 4:0 5:1 7:0 26:1 31:1 # 20140616234645AAnbyhx new JJ Consumer_Electronics TOKEN
0.5 2:0 3:3 4:1 5:0 7:0 73:1 4270:1 # 20140604083714AANM1Br UNC NNP Education_&_Reference ORGANIZATION
-0.21105063477052965481561841443181 2:0 3:1 4:1 5:0 7:1 73:1 4291:1 # 20140616195748AA2BAj7 U NNP Social_Science TOKEN
-0.055533373832219012911082245409489 2:0 3:2 4:0 5:1 7:0 73:1 154:1 # 20140605130921AAXKqjH to NNP Home_&_Garden TOKEN
-0.011626632867102415502813528291881 2:0 3:2 4:0 5:1 7:0 8:1 1089:1 # 20140607125412AAK3UlI he NN Games_&_Recreation TOKEN
-0.0015884764573603771253829108900391 2:0 3:2 4:0 5:1 7:0 204:1 7541:1 # 20140623023853AA1SoFR c1 CD Science_&_Mathematics TOKEN
-0.013071925163755437893087218981236 2:0 3:4 4:0 5:1 7:0 8:1 1490:1 # 20140616152825AABP2iB sand NN News_&_Events TOKEN
0.5 2:0 3:2 4:0 5:0 7:1 73:1 5396:1 # 20140612211617AAE6Bis Al NNP News_&_Events ORGANIZATION
0.5 2:0 3:3 4:0 5:0 7:1 73:1 9136:1 # 20140601101734AAAYp2K Max NNP Dining_Out ORGANIZATION
0.5 2:0 3:3 4:0 5:0 7:1 73:1 9443:1 # 20140623022611AAddTaJ Mir NNP Sports PERSON
0.5 2:0 3:3 4:1 5:0 7:0 73:1 15430:1 # 20140619072135AAeFu7N U.K NNP Politics_&_Government LOCATION
-0.0074126312608466804476847755722702 2:0 3:1 4:0 5:0 7:0 8:1 1990:1 # 20140623064734AAHH1Hb ^ NN Science_&_Mathematics TOKEN
-0.5 2:0 3:3 4:0 5:0 7:1 73:1 9136:1 # 20140625100007AAcadtk Max NNP Politics_&_Government TOKEN
-0.18116769369033836056814834591933 2:0 3:2 4:0 5:1 7:0 55:1 73:1 # 20140601134625AAPRFLP it NNP Home_&_Garden TOKEN
-0.18115345397426496631965164851863 2:0 3:2 4:0 5:1 7:0 37:1 73:1 # 20140621084721AANldDd on NNP Science_&_Mathematics TOKEN
-0.18120469181653220402949955314398 2:0 3:2 4:0 5:1 7:0 73:1 470:1 # 20140618123245AAiwouS an NNP Sports TOKEN
-0.18119624676735668344917939975858 2:0 3:2 4:0 5:1 7:0 73:1 147:1 # 20140619183644AAkBDn2 at NNP Pets TOKEN
0.5 2:0 3:3 4:0 5:1 7:0 8:1 5596:1 # 20140605040256AAru12G cab NN Entertainment_&_Music PERSON
-0.5 2:0 3:3 4:0 5:1 7:0 8:1 5596:1 # 20140624203758AAyLMD9 cab NN Travel TOKEN
-0.0057217594043642572287922121176962 2:0 3:1 4:0 5:1 7:0 73:1 251:1 # 20140606131438AAaBd2m i NNP Computer_&_Internet TOKEN
0.5 2:0 3:4 4:0 5:0 7:1 73:1 15168:1 # 20140610123048AAZOuhW Bowe NNP Politics_&_Government PERSON
-0.013031235591837386778024665545672 2:0 3:2 4:0 5:1 7:0 8:1 237:1 # 20140625035457AAwYqoP im NN Games_&_Recreation TOKEN
-0.01060856428787104732691659592092 2:0 3:2 4:0 5:1 7:0 8:1 216:1 # 20140609214747AADyA9I me NN Local_Businesses TOKEN
0.5 2:0 3:3 4:0 5:0 7:1 73:1 19261:1 # 20140625072412AAUASEG Hun NNP Yahoo!_Products PERSON
0.5 2:0 3:3 4:0 5:0 7:1 73:1 11351:1 # 20140616143448AAdU6Ze Moe NNP Dining_Out ORGANIZATION
0.5 2:0 3:3 4:0 5:0 7:1 73:1 2148:1 # 20140609160711AAprF2f Kay NNP Arts_&_Humanities PERSON
0.5 2:0 3:3 4:0 5:0 7:1 73:1 5166:1 # 20140614004826AAWj9IB May NNP Entertainment_&_Music PERSON
0.5 2:0 3:3 4:0 5:0 7:1 73:1 9306:1 # 20140626152929AAvb2mt Eck NNP Sports PERSON
-0.0072656801066628418084292206913233 2:0 3:1 4:0 5:0 7:0 8:1 253:1 # 20140604131630AAZXrpw % NN Business_&_Finance TOKEN
0.5 2:0 3:2 4:0 5:1 7:0 8:1 13095:1 # 20140620035947AAeYEbM sc NN Local_Businesses LOCATION
-0.26980449522236271686637110178708 2:0 3:3 4:0 5:0 7:1 73:1 5166:1 # 20140608132523AAWfvBH May NNP Computer_&_Internet TOKEN
-0.0070717656915828541741575463674963 2:0 3:1 4:0 5:0 7:0 8:1 7410:1 # 20140618170211AA99yVG ² NN Science_&_Mathematics TOKEN
0.5 2:0 3:2 4:0 5:0 7:1 73:1 5396:1 # 20140612211617AAE6Bis Al NNP News_&_Events ORGANIZATION
-0.1165037290424627558493853030086 2:0 3:2 4:1 5:0 7:0 73:1 7623:1 # 20140618095228AAKVjIw C2 NNP Science_&_Mathematics TOKEN
-0.1160190280444417521010791460867 2:0 3:2 4:1 5:0 7:0 73:1 15710:1 # 20140601064930AA0dvez CF NNP Politics_&_Government TOKEN
-0.5 2:0 3:3 4:0 5:1 7:0 26:1 31:1 # 20140614220006AA90c02 new JJ Sports TOKEN
0.5 2:0 3:3 4:0 5:0 7:1 73:1 9479:1 # 20140613182418AAAZN2I Zeb NNP Sports PERSON
0.5 2:0 3:3 4:0 5:0 7:1 73:1 12379:1 # 20140601134625AAPRFLP Aid NNP Home_&_Garden ORGANIZATION
-0.27067877204570400806460384046659 2:0 3:2 4:0 5:0 7:1 73:1 9659:1 # 20140616160015AAkjHsB La NNP Dining_Out TOKEN
-0.27066283681455738374665997980628 2:0 3:2 4:0 5:0 7:1 73:1 11037:1 # 20140616141511AAlZZIn Iv NNP Dining_Out TOKEN
-0.27067877204570578442144324071705 2:0 3:2 4:0 5:0 7:1 73:1 7632:1 # 20140618095228AAKVjIw Ri NNP Science_&_Mathematics TOKEN
-0.26975964217385439702923122240463 2:0 3:2 4:0 5:0 7:1 73:1 5935:1 # 20140604090916AAD5Lml Oz NNP Health TOKEN
0.5 2:0 3:5 4:0 5:1 7:0 73:1 9557:1 # 20140615224306AASdmOX kawhi NNP Sports PERSON
0.5 2:0 3:5 4:0 5:1 7:0 8:1 13881:1 # 20140617033632AAaS0SQ lohan NN News_&_Events PERSON
-0.11644737374602964763425916316919 2:0 3:2 4:1 5:0 7:0 73:1 8520:1 # 20140606094425AAJm5yJ TM NNP Beauty_&_Style TOKEN
0.5 2:0 3:3 4:0 5:0 7:1 73:1 11362:1 # 20140616143448AAdU6Ze Hut NNP Dining_Out ORGANIZATION
-0.083342980905468877494968182872981 2:0 3:2 4:0 5:1 7:0 73:1 157:1 # 20140608113007AAoVpt8 or NNP Politics_&_Government TOKEN
-0.5 2:0 3:3 4:0 5:0 7:1 73:1 5166:1 # 20140620063230AAXLo9n May NNP Food_&_Drink TOKEN
-0.27072300093987511360182907083072 2:0 3:3 4:0 5:0 7:1 41:1 73:1 # 20140613124917AAp8Kiq Now NNP Entertainment_&_Music TOKEN
-0.27065799124064282565882422204595 2:0 3:3 4:0 5:0 7:1 73:1 13992:1 # 20140623230739AA9pP9C Sky NNP News_&_Events TOKEN
0.5 2:0 3:5 4:0 5:1 7:0 8:1 7476:1 # 20140623022611AAddTaJ angle NN Sports PERSON
-0.0129958548005282281678773870226 2:0 3:2 4:0 5:1 7:0 8:1 151:1 # 20140619105821AAuioIb of NN Education_&_Reference TOKEN
-0.029437483406032693977749659097753 2:0 3:4 4:0 5:0 7:1 88:1 13867:1 # 20140616154757AA3uubn Wake VB News_&_Events TOKEN
-0.013050053854280596610237807908561 2:0 3:2 4:0 5:1 7:0 8:1 4212:1 # 20140605092633AAPkbBp a. NN Science_&_Mathematics TOKEN
-0.012980824452291983561735833063722 2:0 3:2 4:0 5:1 7:0 8:1 6450:1 # 20140610164612AA5SkqL ab NN Health TOKEN
0.5 2:0 3:2 4:0 5:0 7:1 73:1 11325:1 # 20140616143448AAdU6Ze El NNP Dining_Out ORGANIZATION
-0.27067207103289447900351660791785 2:0 3:3 4:0 5:0 7:1 73:1 2459:1 # 20140608145354AAWyj40 God NNP Business_&_Finance TOKEN
0.5 2:0 3:2 4:1 5:0 7:0 73:1 809:1 # 20140617074422AANUT7h J. NNP Arts_&_Humanities PERSON
-0.18119624676728918188928219024092 2:0 3:2 4:0 5:1 7:0 73:1 136:1 # 20140604085754AAaequj as NNP Social_Science TOKEN
-0.18119624676856993517048977082595 2:0 3:2 4:0 5:1 7:0 73:1 9613:1 # 20140618192549AAzYXYR en NNP Social_Science TOKEN
-0.18119115311106115395745064233779 2:0 3:2 4:0 5:1 7:0 73:1 76:1 # 20140625083610AAU2r7X do NNP Sports TOKEN
-0.18115345397395454796196645474993 2:0 3:2 4:0 5:1 7:0 73:1 416:1 # 20140607132455AAfiY8G so NNP Consumer_Electronics TOKEN
-0.01303277846748684964950371067971 2:0 3:2 4:0 5:1 7:0 8:1 12393:1 # 20140608232829AAA2063 ft NN Home_&_Garden TOKEN
-0.0018401089790245350741315633058548 2:0 3:4 4:0 5:1 7:0 8:1 210:1 # 20140613073945AAjr9GV read NN Pets TOKEN
-0.01237399261031546515710033418145 2:0 3:2 4:0 5:1 7:0 8:1 472:1 # 20140615103833AAIK4wa ca NN Pets TOKEN
-0.013050053854282372967077208159026 2:0 3:2 4:0 5:1 7:0 8:1 4133:1 # 20140607141649AANF6Tv i5 NN Consumer_Electronics TOKEN
-0.01167812645206112165396916680038 2:0 3:2 4:0 5:1 7:0 8:1 321:1 # 20140621115845AAQL7uD by NN Family_&_Relationships TOKEN
-0.11644896768097257044871639664052 2:0 3:2 4:1 5:0 7:0 73:1 8034:1 # 20140605031016AAsN8GR A. NNP Science_&_Mathematics TOKEN
-0.27065861212767394761158357141539 2:0 3:3 4:0 5:0 7:1 73:1 19143:1 # 20140608155422AAGg2Wt Soi NNP Pregnancy_&_Parenting TOKEN
-0.27065799123468181619500683154911 2:0 3:3 4:0 5:0 7:1 73:1 2075:1 # 20140625193136AAUePpR Old NNP Arts_&_Humanities TOKEN
-0.012121923920933586060755260405131 2:0 3:3 4:0 5:1 7:0 33:1 1019:1 # 20140617160504AARhrZ6 her CC Pets TOKEN
-0.01168210133333502653840696439147 2:0 3:2 4:0 5:1 7:0 8:1 13299:1 # 20140615171734AAd4Cuo gf NN Yahoo!_Products TOKEN
-0.013012241729994933336911344667897 2:0 3:2 4:0 5:1 7:0 8:1 3128:1 # 20140610102038AAX5RlB yr NN Pets TOKEN
-0.012991512435260532676295497367391 2:0 3:2 4:0 5:1 7:0 8:1 167:1 # 20140611165651AAiykAa up NN Pets TOKEN
-0.011706712667162832985923159867525 2:0 3:2 4:0 5:1 7:0 8:1 2753:1 # 20140613073945AAjr9GV ya NN Pets TOKEN
-0.27072182114226706062254379503429 2:0 3:3 4:0 5:0 7:1 73:1 9209:1 # 20140613111207AAD5YgE Big NNP Dining_Out TOKEN
-0.26973180690615783383634607162094 2:0 3:3 4:0 5:0 7:1 73:1 5844:1 # 20140613124158AAH0KXB Dic NNP Entertainment_&_Music TOKEN
0.5 2:0 3:2 4:1 5:0 7:0 73:1 4289:1 # 20140604083714AANM1Br NY NNP Education_&_Reference LOCATION
0.5 2:0 3:2 4:1 5:0 7:0 73:1 3408:1 # 20140616063937AAhSsrT UK NNP Business_&_Finance LOCATION
-0.11644737374603031376807393826311 2:0 3:2 4:1 5:0 7:0 73:1 4286:1 # 20140604083714AANM1Br MA NNP Education_&_Reference TOKEN
-0.27056128746274699103935290622758 2:0 3:3 4:0 5:0 7:1 73:1 13454:1 # 20140612212350AAeLl07 Ull NNP Family_&_Relationships TOKEN
-0.11642773436722109181573614478111 2:0 3:2 4:1 5:0 7:0 73:1 4009:1 # 20140610164612AA5SkqL NO NNP Health TOKEN
-0.11646522857351726543129188939929 2:0 3:2 4:1 5:0 7:0 73:1 2998:1 # 20140611204210AAPJj1y UC NNP Business_&_Finance TOKEN
-0.0046837301843369871789946046192199 2:0 3:2 4:0 5:1 7:0 8:1 859:1 # 20140605210007AAoMB1b we NN Home_&_Garden TOKEN
-0.013014538102521733264893555315211 2:0 3:2 4:0 5:1 7:0 8:1 19142:1 # 20140606151952AAnJYJg gp NN Pregnancy_&_Parenting TOKEN
-0.012008003683001922112794090935495 2:0 3:2 4:0 5:1 7:0 8:1 11733:1 # 20140620063230AAXLo9n dj NN Food_&_Drink TOKEN
-0.013044916287938690402370411902666 2:0 3:2 4:0 5:1 7:0 8:1 12918:1 # 20140622225954AAAlKMt có NN Local_Businesses TOKEN
-0.012927625807172216099161232705228 2:0 3:2 4:0 5:1 7:0 8:1 12941:1 # 20140622225954AAAlKMt ổn NN Local_Businesses TOKEN
0.5 2:0 3:3 4:1 5:0 7:0 73:1 2568:1 # 20140606153641AAjtBgn USA NNP Social_Science LOCATION
0.5 2:0 3:4 4:0 5:0 7:1 73:1 18294:1 # 20140603020037AAlyzyA Ryan NNP Travel PERSON
-0.0073840985268827097343091736547649 2:0 3:9 4:0 5:0 7:0 8:1 14453:1 # 20140617191218AAiEBHA legs.That NN News_&_Events TOKEN
-0.17585155010245046014460967853665 2:0 3:2 4:0 5:0 7:0 73:1 848:1 # 20140613025817AAIhYP8 ?? NNP Games_&_Recreation TOKEN
-0.013008650793377984911103339982219 2:0 3:2 4:0 5:1 7:0 8:1 6223:1 # 20140617094029AAZ1FwJ bf NN Family_&_Relationships TOKEN
-0.27068283073296761642723140539601 2:0 3:3 4:0 5:0 7:1 73:1 18777:1 # 20140609063130AAx8NAT Gen NNP Computer_&_Internet TOKEN
-0.27068056156712394511032471200451 2:0 3:3 4:0 5:0 7:1 73:1 2579:1 # 20140611152642AAd7nNQ Sun NNP Pets TOKEN
-0.2706654724575621173698891652748 2:0 3:3 4:0 5:0 7:1 73:1 3854:1 # 20140610222206AAaaj3T Run NNP News_&_Events TOKEN
-0.0034958262674189555241355265025049 2:0 3:4 4:0 5:0 7:1 88:1 11712:1 # 20140609194638AAhw9UC Grab VB Food_&_Drink TOKEN
-0.013093235544854309182483120821416 2:0 3:4 4:0 5:1 7:0 8:1 520:1 # 20140617094029AAZ1FwJ word NN Family_&_Relationships TOKEN
-0.013179943241624414440593682229519 2:0 3:12 4:0 5:1 7:0 8:1 2374:1 # 20140608132523AAWfvBH manufacturer NN Computer_&_Internet TOKEN
-0.1164464177282314993888689969026 2:0 3:2 4:1 5:0 7:0 73:1 10791:1 # 20140621111444AACBO2L GM NNP Cars_&_Transportation TOKEN
-0.27049704928680284865549765527248 2:0 3:2 4:0 5:0 7:1 73:1 1086:1 # 20140605231104AAm8fzJ He NNP Politics_&_Government TOKEN
-0.26984217225138296125663828206598 2:0 3:2 4:0 5:0 7:1 73:1 966:1 # 20140607141649AANF6Tv In NNP Consumer_Electronics TOKEN
-0.27066702551399490772610079147853 2:0 3:3 4:0 5:0 7:1 73:1 10892:1 # 20140617092003AATWcQC Owe NNP Cars_&_Transportation TOKEN
-0.27064670901503795619191805599257 2:0 3:3 4:0 5:0 7:1 73:1 270:1 # 20140609212304AAlJxoJ For NNP Cars_&_Transportation TOKEN
-0.27068653302835521401448204414919 2:0 3:3 4:0 5:0 7:1 73:1 15329:1 # 20140607125905AA2JtXv War NNP Politics_&_Government TOKEN
-0.11644896768097012795806222129613 2:0 3:2 4:1 5:0 7:0 73:1 13931:1 # 20140619072135AAeFu7N EU NNP Politics_&_Government TOKEN
-0.11650372904246530936234194086865 2:0 3:2 4:1 5:0 7:0 73:1 7154:1 # 20140608111211AAkpqtd MY NNP Pregnancy_&_Parenting TOKEN
-0.11649128840963385300710797309875 2:0 3:2 4:1 5:0 7:0 73:1 7862:1 # 20140603072418AAgZjcN AB NNP Science_&_Mathematics TOKEN
-0.11644737374603142399109856341965 2:0 3:2 4:1 5:0 7:0 73:1 19449:1 # 20140607012308AAXFLrR TU NNP Yahoo!_Products TOKEN
-0.11642773436727793523459695279598 2:0 3:2 4:1 5:0 7:0 73:1 4316:1 # 20140604083714AANM1Br SC NNP Education_&_Reference TOKEN
0.5 2:0 3:4 4:0 5:0 7:1 710:1 18942:1 # 20140611001634AAefV9p Maya FW Pregnancy_&_Parenting PERSON
-0.11682599795370984807618697232101 2:0 3:2 4:0 5:1 7:0 710:1 10452:1 # 20140622053311AA7YtqE au FW Cars_&_Transportation TOKEN
-0.11674922256257858066419430542737 2:0 3:2 4:0 5:1 7:0 710:1 9638:1 # 20140618192549AAzYXYR se FW Social_Science TOKEN
-0.11682599795370918194237219722709 2:0 3:2 4:0 5:1 7:0 710:1 9410:1 # 20140616141615AA44wGc ex FW Family_&_Relationships TOKEN
-0.21075542473795291775751081786439 2:0 3:1 4:1 5:0 7:1 73:1 445:1 # 20140615190614AAf5U3D C NNP Education_&_Reference TOKEN
-0.1164489676809706830695745338744 2:0 3:2 4:1 5:0 7:0 73:1 12348:1 # 20140619064754AAnYzEU L1 NNP Home_&_Garden TOKEN
-0.11646522857351726543129188939929 2:0 3:2 4:1 5:0 7:0 73:1 4281:1 # 20140604083714AANM1Br MO NNP Education_&_Reference TOKEN
-0.11644641772822772463058527137036 2:0 3:2 4:1 5:0 7:0 73:1 3624:1 # 20140609063130AAx8NAT HD NNP Computer_&_Internet TOKEN
-0.012940283695422105658678901818348 2:0 3:17 4:0 5:1 7:0 8:1 10701:1 # 20140611152558AA4un22 engine#body#frame NN Cars_&_Transportation TOKEN
-0.013251048042322466358200472313911 2:0 3:17 4:0 5:1 7:0 8:1 13862:1 # 20140616154757AA3uubn misinterpretation NN News_&_Events TOKEN
-0.013014520095432316471040223859745 2:0 3:6 4:0 5:1 7:0 8:1 3818:1 # 20140603084904AAsQGUA backup NN Consumer_Electronics TOKEN
-0.012501953455268388637477983138524 2:0 3:15 4:0 5:1 7:0 8:1 18323:1 # 20140623010804AATRu9l cool#successful NN Travel TOKEN
-0.012883425342522514256415888667107 2:0 3:15 4:0 5:1 7:0 8:1 15702:1 # 20140614170630AA1o9BQ competitiveness NN Politics_&_Government TOKEN
-0.03625254446732517621398983465042 2:1 3:2 4:0 5:1 7:0 73:1 108:1 # 20140610102038AAX5RlB is NNP Pets TOKEN
-0.01307553615819756487326230853796 2:0 3:15 4:0 5:1 7:0 8:1 7272:1 # 20140613025817AAIhYP8 computer#laptop NN Games_&_Recreation TOKEN
-0.013167457770599355626472970470786 2:0 3:15 4:0 5:1 7:0 8:1 10060:1 # 20140606165846AA1KBRp vitamin#hormone NN Social_Science TOKEN
-0.012921215459243740042438730597496 2:0 3:15 4:0 5:1 7:0 8:1 19204:1 # 20140606084250AAVT7QA confidentiality NN Pregnancy_&_Parenting TOKEN
-0.042326867451108945994420196257124 2:0 3:1 4:1 5:0 7:1 8:1 3174:1 # 20140615124053AAji1XJ X NN Science_&_Mathematics TOKEN
-0.042381348908361739236116960682921 2:0 3:1 4:1 5:0 7:1 8:1 7987:1 # 20140615171734AAd4Cuo Q NN Yahoo!_Products TOKEN
-0.27068586029596986008982639759779 2:0 3:3 4:0 5:0 7:1 73:1 7723:1 # 20140618201815AAmO6f1 Dec NNP Science_&_Mathematics TOKEN
-0.17587083371947631604825801332481 2:0 3:3 4:0 5:0 7:0 73:1 5399:1 # 20140620190356AAdnQme St. NNP Entertainment_&_Music TOKEN
-0.27072521639163715789777597819921 2:0 3:3 4:0 5:0 7:1 73:1 5018:1 # 20140611114023AAQ6gKU Gay NNP Education_&_Reference TOKEN
-0.0074139857474237041978781803663878 2:0 3:2 4:0 5:0 7:0 8:1 3024:1 # 20140611204210AAPJj1y من NN Business_&_Finance TOKEN
0.5 2:0 3:3 4:0 5:0 7:1 73:1 4312:1 # 20140615224306AASdmOX San NNP Sports PERSON
-0.012000858661597807452992014987103 2:0 3:16 4:0 5:1 7:0 8:1 13034:1 # 20140610194612AA31tgA mailbox#doorstep NN Local_Businesses TOKEN
-0.012959130568873433730914257466793 2:0 3:16 4:0 5:1 7:0 8:1 14021:1 # 20140601100338AAUfBLz multiculturalism NN News_&_Events TOKEN
-0.025354273557648410175602293747943 2:1 3:2 4:1 5:0 7:0 73:1 9229:1 # 20140615215502AAWIjLB SS NNP Local_Businesses TOKEN
0.5 2:0 3:2 4:1 5:0 7:0 73:1 11527:1 # 20140608112522AAMjxU9 LA NNP Local_Businesses LOCATION
-0.11644310550348890842542459722608 2:0 3:2 4:1 5:0 7:0 73:1 3492:1 # 20140612231240AAb6Jgs IV NNP Consumer_Electronics TOKEN
0.5 2:0 3:2 4:0 5:1 7:0 8:1 18381:1 # 20140617134810AAX61tb nz NN Travel LOCATION
0.5 2:0 3:2 4:0 5:1 7:0 8:1 13095:1 # 20140620035947AAeYEbM sc NN Local_Businesses LOCATION
-0.11650989960114488397380227979738 2:0 3:2 4:1 5:0 7:0 73:1 5107:1 # 20140614220006AA90c02 S2 NNP Sports TOKEN
-0.11650372904246641958536656602519 2:0 3:2 4:1 5:0 7:0 73:1 9505:1 # 20140624203758AAyLMD9 NJ NNP Travel TOKEN
-0.11650372904246553140694686589995 2:0 3:2 4:1 5:0 7:0 73:1 10895:1 # 20140617092003AATWcQC GT NNP Cars_&_Transportation TOKEN
-0.11648559277202547024288037391671 2:0 3:2 4:1 5:0 7:0 73:1 3573:1 # 20140614134845AAVhWeg RW NNP Consumer_Electronics TOKEN
-0.013189293598685480901622213423252 2:0 3:16 4:0 5:1 7:0 8:1 5904:1 # 20140604090916AAD5Lml shape#overweight NN Health TOKEN
-0.013279039545693649415625259280205 2:0 3:16 4:0 5:1 7:0 8:1 8881:1 # 20140620015151AAISFRV average#slightly NN Beauty_&_Style TOKEN
-0.11645934698564630593864421825856 2:0 3:2 4:1 5:0 7:0 73:1 7852:1 # 20140605092633AAPkbBp W. NNP Science_&_Mathematics TOKEN
-0.11649475025909761249920393311186 2:0 3:2 4:1 5:0 7:0 73:1 12349:1 # 20140619064754AAnYzEU L2 NNP Home_&_Garden TOKEN
-0.11646626730335185584408463910222 2:0 3:2 4:1 5:0 7:0 73:1 9091:1 # 20140620105746AAnOLsk SA NNP Sports TOKEN
-0.11644641772823127734426407187129 2:0 3:2 4:1 5:0 7:0 73:1 6974:1 # 20140616114406AAi0jDN AC NNP Games_&_Recreation TOKEN
-0.11650372904246708571918134111911 2:0 3:2 4:1 5:0 7:0 73:1 4191:1 # 20140614220309AAJTZNt HP NNP Computer_&_Internet TOKEN
-0.11572388604485106533559246599907 2:0 3:2 4:1 5:0 7:0 73:1 6940:1 # 20140616114406AAi0jDN I7 NNP Games_&_Recreation TOKEN
-0.11644737374651026318161939343554 2:0 3:2 4:1 5:0 7:0 73:1 4439:1 # 20140607211424AAdLIHO EX NNP Education_&_Reference TOKEN
-0.11644641772822916792051728407387 2:0 3:2 4:1 5:0 7:0 73:1 9378:1 # 20140618215915AAruZzF GI NNP News_&_Events TOKEN
-0.11563707939884318443013455635082 2:0 3:2 4:1 5:0 7:0 73:1 19352:1 # 20140626122544AARcT3z IE NNP Yahoo!_Products TOKEN
-0.11636371404207959678878125941992 2:0 3:2 4:1 5:0 7:0 73:1 11602:1 # 20140605102530AA17S7s KK NNP Dining_Out TOKEN
0.5 2:0 3:3 4:1 5:0 7:0 73:1 15430:1 # 20140619072135AAeFu7N U.K NNP Politics_&_Government LOCATION
-0.11649128842832823238495620898902 2:0 3:2 4:1 5:0 7:0 73:1 8256:1 # 20140626204611AAKagRz PE NNP Science_&_Mathematics TOKEN
-0.11644896768097101613648192142136 2:0 3:2 4:1 5:0 7:0 73:1 9116:1 # 20140620105746AAnOLsk FN NNP Sports TOKEN
-0.11643163883339791020432585355593 2:0 3:2 4:1 5:0 7:0 73:1 15077:1 # 20140613132938AABdKy8 PD NNP Politics_&_Government TOKEN
-0.11649128840963385300710797309875 2:0 3:2 4:1 5:0 7:0 73:1 18513:1 # 20140615060824AA0aRHm WP NNP Computer_&_Internet TOKEN
-0.11646626728742148770834319293499 2:0 3:2 4:1 5:0 7:0 73:1 2213:1 # 20140607125905AA2JtXv HQ NNP Politics_&_Government TOKEN
-0.11647513513707830057342107465956 2:0 3:2 4:1 5:0 7:0 73:1 9481:1 # 20140613182418AAAZN2I E. NNP Sports TOKEN
-0.11634481360639510605370361417954 2:0 3:2 4:1 5:0 7:0 73:1 5387:1 # 20140620190356AAdnQme II NNP Entertainment_&_Music TOKEN
-0.11649235198480314967817150773044 2:0 3:2 4:1 5:0 7:0 73:1 13963:1 # 20140626120744AAMAD0e UN NNP News_&_Events TOKEN
-0.17583237817644459255461697466671 2:0 3:3 4:0 5:0 7:0 73:1 11313:1 # 20140616143448AAdU6Ze Jr. NNP Dining_Out TOKEN
-0.17566564762286329681728602736257 2:0 3:3 4:0 5:0 7:0 73:1 6846:1 # 20140612121603AAc09vI GHz NNP Games_&_Recreation TOKEN
-0.17587521497861735575440889078891 2:0 3:3 4:0 5:0 7:0 73:1 19211:1 # 20140618090750AAlViol Ky. NNP Pregnancy_&_Parenting TOKEN
-0.17584824810919208459836227120832 2:0 3:3 4:0 5:0 7:0 73:1 9699:1 # 20140616195748AA2BAj7 Hi5 NNP Social_Science TOKEN
-0.013044313172070332029761630110443 2:0 3:3 4:0 5:1 7:0 8:1 3708:1 # 20140608222755AASVAKO min NN Pets TOKEN
-0.012125625133187156734493328258395 2:0 3:3 4:0 5:1 7:0 8:1 7611:1 # 20140603003740AAmc4Dt gas NN Science_&_Mathematics TOKEN
-0.015717027217038340158872244956001 2:0 3:796 4:0 5:0 7:0 26:1 18315:1 # 20140622230045AAAI6WE http:##www.booking.com#searchresults.html?src=index&nflt;=&ss;_raw=&error;_url=http%3A%2F%2Fwww.booking.com%2Fbed-and-breakfast%2Findex.en-gb.html%3Faid%3D376367%3Blabel%3Dbooking-name-AyJKxHSdVhlt5LH2rN0PUgS39560110201%253Apl%253Ata%253Ap1%253Ap2494%252C000%253Aac%253Aap1t1%253Aneg%3Bsid%3D990077fdafaa2cd3b7dceb6fe642169c%3Bdcid%3D1%3B&aid;=376367&dcid;=1&label;=booking-name-AyJKxHSdVhlt5LH2rN0PUgS39560110201%3Apl%3Ata%3Ap1%3Ap2494%2C000%3Aac%3Aap1t1%3Aneg&sid;=990077fdafaa2cd3b7dceb6fe642169c&si;=ai%2Cco%2Cci%2Cre%2Cdi&ss;=Auckland&checkin;_monthday=1&checkin;_year_month=2014-7&checkout;_monthday=7&checkout;_year_month=2014-7&interval;_of_time=any&flex;_checkin_year_month=any&amp;=2&no;_rooms=1&group;_adults=2&group;_children=0&ppt;=bed_and_breakfast&dest;_type=city&dest;_id=-1506909 JJ Travel TOKEN
-0.013044313172070332029761630110443 2:0 3:3 4:0 5:1 7:0 8:1 4025:1 # 20140610144517AADMFHa gta NN Consumer_Electronics TOKEN
-0.013770661590888771952378988316923 2:0 3:1 4:0 5:0 7:0 14:1 20:1 # 20140625101557AAZ5Rvq ? VBG Social_Science TOKEN
-0.11646626730334119770304823759943 2:0 3:2 4:1 5:0 7:0 73:1 15014:1 # 20140613154011AAJ98M9 T. NNP Politics_&_Government TOKEN
-0.11646626730338027755351504310966 2:0 3:2 4:1 5:0 7:0 73:1 13306:1 # 20140609053527AAHPrln DM NNP News_&_Events TOKEN
-0.11633500500051985326877002080437 2:0 3:2 4:1 5:0 7:0 73:1 19280:1 # 20140604150349AA6PQh8 IB NNP Pregnancy_&_Parenting TOKEN
-0.11623857007178761691079671436455 2:0 3:2 4:1 5:0 7:0 73:1 10904:1 # 20140617092003AATWcQC CB NNP Cars_&_Transportation TOKEN
-0.11644896768050272406469503039261 2:0 3:2 4:1 5:0 7:0 73:1 9107:1 # 20140620105746AAnOLsk MK NNP Sports TOKEN
-0.11650501349146935581302386708558 2:0 3:2 4:1 5:0 7:0 73:1 7865:1 # 20140603072418AAgZjcN BC NNP Science_&_Mathematics TOKEN
-0.11563499508805112625520195024365 2:0 3:2 4:1 5:0 7:0 73:1 1630:1 # 20140620170402AA0uGdu SO NNP Pregnancy_&_Parenting TOKEN
-0.11636053215641917191192078462336 2:0 3:2 4:1 5:0 7:0 73:1 10780:1 # 20140621111444AACBO2L O2 NNP Cars_&_Transportation TOKEN
-0.013005892699565535508554603438824 2:0 3:3 4:0 5:1 7:0 8:1 6514:1 # 20140621143727AAOCXDZ paw NN Pets TOKEN
-0.013026529343093784518714528530836 2:0 3:3 4:0 5:1 7:0 8:1 1770:1 # 20140615215502AAWIjLB job NN Local_Businesses TOKEN
-0.013028282527624668318821932189167 2:0 3:3 4:0 5:1 7:0 8:1 14093:1 # 20140612233000AAOudfw feb NN News_&_Events TOKEN
-0.013056984144398597891267854720354 2:0 3:3 4:0 5:1 7:0 8:1 3827:1 # 20140620141720AAh6NZ6 dog NN Pets TOKEN
-0.013039091476562347793333174195141 2:0 3:3 4:0 5:1 7:0 8:1 1506:1 # 20140616222816AASXpde top NN Arts_&_Humanities TOKEN
0.5 2:1 3:3 4:0 5:0 7:1 73:1 12801:1 # 20140603004555AAv1K5X Los NNP Politics_&_Government LOCATION
-0.11648071947112792479117615584983 2:0 3:2 4:1 5:0 7:0 73:1 5971:1 # 20140615211937AA9zqfw GP NNP Health TOKEN
-0.11645558296914515494790975935757 2:0 3:2 4:1 5:0 7:0 73:1 9515:1 # 20140615120927AAPeVv5 AZ NNP Sports TOKEN
-0.11604235920324273978465612344735 2:0 3:2 4:1 5:0 7:0 73:1 6592:1 # 20140612080629AAuyjlx ER NNP Health TOKEN
-0.11635107582417741900471241933701 2:0 3:2 4:1 5:0 7:0 73:1 14242:1 # 20140615161422AAiDhFt FM NNP News_&_Events TOKEN
-0.11651524217101183467093505896628 2:0 3:2 4:1 5:0 7:0 73:1 4272:1 # 20140604083714AANM1Br TN NNP Education_&_Reference TOKEN
-0.2706749734852369471127531141974 2:0 3:3 4:0 5:0 7:1 73:1 14218:1 # 20140605200359AAgJgxT Dad NNP Pregnancy_&_Parenting TOKEN
-0.27065799124064326974803407210857 2:0 3:3 4:0 5:0 7:1 73:1 5220:1 # 20140614004826AAWj9IB Day NNP Entertainment_&_Music TOKEN
-0.27068056156281272706110030412674 2:0 3:3 4:0 5:0 7:1 73:1 9864:1 # 20140621092416AArsE0s Jan NNP Social_Science TOKEN
-0.2706579912406468224617128726095 2:0 3:3 4:0 5:0 7:1 73:1 9344:1 # 20140614220006AA90c02 Nam NNP Sports TOKEN
-0.2706879813691021041677231551148 2:0 3:3 4:0 5:0 7:1 73:1 3767:1 # 20140620192235AA5KHXm Cup NNP Travel TOKEN
0.5 2:0 3:5 4:0 5:1 7:0 8:1 9214:1 # 20140618180738AANfMh9 china NN Sports LOCATION
0.5 2:0 3:5 4:0 5:1 7:0 8:1 15250:1 # 20140605231104AAm8fzJ gucci NN Politics_&_Government ORGANIZATION
0.5 2:0 3:5 4:0 5:1 7:0 8:1 7155:1 # 20140625171643AAxjtac intel NN Computer_&_Internet ORGANIZATION
-0.013022138039488595495640765875578 2:0 3:3 4:0 5:1 7:0 8:1 2300:1 # 20140601162630AAuDjDG guy NN Sports TOKEN
-0.012998987872492762107867747545242 2:0 3:3 4:0 5:1 7:0 8:1 8906:1 # 20140625083610AAU2r7X tie NN Sports TOKEN
-0.013060249372824905833567754598334 2:0 3:3 4:0 5:1 7:0 8:1 11218:1 # 20140608112522AAMjxU9 bus NN Local_Businesses TOKEN
-0.012414112877406568991034419013886 2:0 3:3 4:0 5:1 7:0 8:1 236:1 # 20140621192007AAsQBSf use NN Pregnancy_&_Parenting TOKEN
-0.27068283073296939278407080564648 2:0 3:3 4:0 5:0 7:1 73:1 13158:1 # 20140610040156AAtbQ4M Sry NNP Local_Businesses TOKEN
-0.27064670901503706801349835586734 2:0 3:3 4:0 5:0 7:1 73:1 12996:1 # 20140622225954AAAlKMt Luc NNP Local_Businesses TOKEN
-0.270709865382156245061651134165 2:0 3:3 4:0 5:0 7:1 73:1 18142:1 # 20140609031322AAZz3r8 Eco NNP Travel TOKEN
-0.27071733399388087093484500655904 2:0 3:3 4:0 5:0 7:1 73:1 12982:1 # 20140622225954AAAlKMt Xin NNP Local_Businesses TOKEN
0.5 2:0 3:4 4:0 5:1 7:0 8:1 9454:1 # 20140623022611AAddTaJ kurt NN Sports PERSON
-0.013030307614535274751688120886683 2:0 3:3 4:0 5:1 7:0 8:1 1103:1 # 20140612200636AAqMBhQ man NN Politics_&_Government TOKEN
-0.012998987890114221954718232154846 2:0 3:3 4:0 5:1 7:0 8:1 2131:1 # 20140621192007AAsQBSf cat NN Pregnancy_&_Parenting TOKEN
-0.0017021090445741293706305441446602 2:0 3:2 4:0 5:1 7:0 204:1 7735:1 # 20140605081144AAuazx4 r1 CD Science_&_Mathematics TOKEN
-0.013006861956363025001337518915534 2:0 3:3 4:0 5:1 7:0 8:1 28:1 # 20140612160340AAE8W0E day NN Sports TOKEN
-0.013044313172049015747688827104867 2:0 3:3 4:0 5:1 7:0 8:1 1262:1 # 20140613230250AAiwZOf kid NN Family_&_Relationships TOKEN
-0.27064670901503395938902940542903 2:0 3:3 4:0 5:0 7:1 73:1 6674:1 # 20140609161733AAfnIuB Tea NNP Food_&_Drink TOKEN
-0.27067242385895440293097635731101 2:0 3:3 4:0 5:0 7:1 73:1 14456:1 # 20140607181926AAii9kA Cat NNP Pets TOKEN
-0.2706749734852231803472477622563 2:0 3:3 4:0 5:0 7:1 73:1 3583:1 # 20140614134845AAVhWeg Qty NNP Consumer_Electronics TOKEN
-0.27071733399387731822116620605811 2:0 3:3 4:0 5:0 7:1 73:1 4301:1 # 20140604083714AANM1Br Cal NNP Education_&_Reference TOKEN
-0.27069229428762930922403029398993 2:0 3:3 4:0 5:0 7:1 73:1 6993:1 # 20140625193758AANDcbj Mud NNP Games_&_Recreation TOKEN
-0.013025310617452601213983598427149 2:0 3:3 4:0 5:1 7:0 8:1 2035:1 # 20140617075804AAbhubH eye NN Pregnancy_&_Parenting TOKEN
-0.0025026045346261266422160929323582 2:0 3:4 4:0 5:1 7:0 45:1 2317:1 # 20140612135609AAxFMMn 30th VBN Food_&_Drink TOKEN
-0.012998527838334439366008155047894 2:0 3:3 4:0 5:1 7:0 8:1 495:1 # 20140622140805AAtjqJa pay NN Cars_&_Transportation TOKEN
-0.012138093393897264604675001464784 2:0 3:3 4:0 5:1 7:0 8:1 406:1 # 20140616141615AA44wGc way NN Family_&_Relationships TOKEN
-0.012794447482987081343708268832415 2:0 3:3 4:0 5:1 7:0 8:1 12677:1 # 20140622225954AAAlKMt tin NN Local_Businesses TOKEN
-0.012998527838348650220723357051611 2:0 3:3 4:0 5:1 7:0 8:1 10423:1 # 20140612032608AA8pVpP rev NN Cars_&_Transportation TOKEN
-0.013039091476553466009136172942817 2:0 3:3 4:0 5:1 7:0 8:1 2799:1 # 20140623064647AA1AeLu lab NN Food_&_Drink TOKEN
-0.012844716352096469114130172783916 2:0 3:3 4:0 5:1 7:0 8:1 8189:1 # 20140613213722AAj4ujF oil NN Food_&_Drink TOKEN
-0.013065793339475884060618682269705 2:0 3:3 4:0 5:1 7:0 8:1 5955:1 # 20140615020333AAAIUUW ice NN Travel TOKEN
-0.11649553514960908628950164711569 2:0 3:3 4:1 5:0 7:0 73:1 1505:1 # 20140620170402AA0uGdu NOT NNP Pregnancy_&_Parenting TOKEN
-0.11649389012034716550658686173847 2:0 3:3 4:1 5:0 7:0 73:1 9138:1 # 20140615215028AAGmoaM CLE NNP Sports TOKEN
-0.11647751840233677711466953041963 2:0 3:3 4:1 5:0 7:0 73:1 18244:1 # 20140609221937AAH7tge NYU NNP Travel TOKEN
-0.11655593215684634245121742424089 2:0 3:3 4:1 5:0 7:0 73:1 19042:1 # 20140620170402AA0uGdu ADD NNP Pregnancy_&_Parenting TOKEN
-0.5 2:0 3:5 4:0 5:1 7:0 8:1 7155:1 # 20140601072000AABRvpX intel NN Games_&_Recreation TOKEN
-0.49800710071236320430898558697663 2:0 3:4 4:0 5:1 7:0 73:1 1077:1 # 20140608151316AAZv17m land NNP Travel TOKEN
0.5 2:0 3:7 4:0 5:1 7:0 88:1 12548:1 # 20140619063559AA2eks0 florida VB Home_&_Garden LOCATION
-0.024739844303815941572999292930035 2:1 3:3 4:1 5:0 7:0 73:1 18070:1 # 20140617213812AAnm3nS DHS NNP Travel TOKEN
0.5 2:0 3:3 4:1 5:0 7:0 73:1 18052:1 # 20140617213812AAnm3nS WDW NNP Travel ORGANIZATION
0.5 2:0 3:2 4:0 5:0 7:1 73:1 5396:1 # 20140612211617AAE6Bis Al NNP News_&_Events ORGANIZATION
-0.025437822090293549237571824050974 2:1 3:3 4:1 5:0 7:0 73:1 4087:1 # 20140606193910AApjpvz DOS NNP Consumer_Electronics TOKEN
0.5 2:0 3:3 4:0 5:1 7:0 8:1 11396:1 # 20140616143448AAdU6Ze hut NN Dining_Out ORGANIZATION
0.5 2:0 3:3 4:0 5:1 7:0 8:1 4854:1 # 20140601014139AA5Szo2 usa NN Education_&_Reference LOCATION
-0.025437822090296546839738311973633 2:1 3:3 4:1 5:0 7:0 73:1 12814:1 # 20140610174552AAptb2t UPS NNP Local_Businesses TOKEN
-0.18302843904101173677645419957116 2:0 3:4 4:0 5:1 7:0 73:1 1077:1 # 20140608151316AAZv17m land NNP Travel TOKEN
0.5 2:0 3:9 4:0 5:1 7:0 8:1 5352:1 # 20140621194648AAv7Pxb bertholdt NN Entertainment_&_Music PERSON
0.5 2:1 3:6 4:0 5:0 7:1 61:1 12443:1 # 20140610174552AAptb2t States NNPS Local_Businesses LOCATION
0.5 2:0 3:6 4:0 5:1 7:0 8:1 11397:1 # 20140616143448AAdU6Ze popeye NN Dining_Out ORGANIZATION
-0.11571960541022945079259187650678 2:0 3:5 4:1 5:0 7:0 73:1 5159:1 # 20140614004826AAWj9IB TEENS NNP Entertainment_&_Music TOKEN
-0.5 2:0 3:10 4:0 5:0 7:1 73:1 10644:1 # 20140625110415AAjpx1n Washington NNP Cars_&_Transportation TOKEN
-0.024753312205430838544018001812219 2:1 3:5 4:1 5:0 7:0 73:1 19069:1 # 20140620170402AA0uGdu THATS NNP Pregnancy_&_Parenting TOKEN
-0.025409244876054337680670869303867 2:1 3:5 4:1 5:0 7:0 73:1 14989:1 # 20140613154011AAJ98M9 LIVES NNP Politics_&_Government TOKEN
-0.025371313963514552369815646670759 2:1 3:5 4:1 5:0 7:0 73:1 19046:1 # 20140620170402AA0uGdu HANDS NNP Pregnancy_&_Parenting TOKEN
0.5 2:0 3:6 4:0 5:1 7:0 8:1 1441:1 # 20140611222016AAhrT1y google NN Computer_&_Internet ORGANIZATION
0.5 2:0 3:6 4:0 5:1 7:0 8:1 14956:1 # 20140622080843AAfcL4m selena NN Pets PERSON
0.5 2:0 3:6 4:0 5:1 7:0 8:1 9451:1 # 20140623022611AAddTaJ lesnar NN Sports PERSON
0.5 2:0 3:12 4:0 5:1 7:0 26:1 3256:1 # 20140601093053AA6zdEg fakeiduk.com JJ Business_&_Finance ORGANIZATION
0.5 2:1 3:4 4:0 5:0 7:1 73:1 11048:1 # 20140610083106AA7AAUT Ribs NNP Dining_Out ORGANIZATION
0.5 2:1 3:4 4:0 5:0 7:1 73:1 15214:1 # 20140610123048AAZOuhW Rose NNP Politics_&_Government LOCATION
0.5 2:0 3:4 4:1 5:0 7:0 73:1 12412:1 # 20140601151243AAGeO0l IKEA NNP Home_&_Garden ORGANIZATION
0.5 2:0 3:4 4:1 5:0 7:0 73:1 785:1 # 20140625193136AAUePpR H.P. NNP Arts_&_Humanities PERSON
0.5 2:0 3:4 4:1 5:0 7:0 73:1 5654:1 # 20140622140805AAtjqJa U.S. NNP Cars_&_Transportation ORGANIZATION
0.5 2:0 3:4 4:1 5:0 7:0 73:1 4319:1 # 20140610062626AA46ms6 GCSE NNP Education_&_Reference ORGANIZATION
0.5 2:0 3:4 4:1 5:0 7:0 73:1 5061:1 # 20140608162419AAwr1N9 M&M; NNP Entertainment_&_Music ORGANIZATION
0.5 2:0 3:4 4:1 5:0 7:0 73:1 13985:1 # 20140626101740AADAK0e ISIS NNP Politics_&_Government ORGANIZATION
0.5 2:0 3:4 4:1 5:0 7:0 73:1 11304:1 # 20140616143448AAdU6Ze A&W; NNP Dining_Out ORGANIZATION
-0.27067877204571866300852889253292 2:0 3:2 4:0 5:0 7:1 73:1 844:1 # 20140612233414AAbNPKy Ok NNP Family_&_Relationships TOKEN
-0.27067877204571733074089934234507 2:0 3:2 4:0 5:0 7:1 73:1 12959:1 # 20140622225954AAAlKMt Ho NNP Local_Businesses TOKEN
0.5 2:0 3:9 4:0 5:1 7:0 8:1 7298:1 # 20140606094406AAvjkJW wikipedia NN Games_&_Recreation ORGANIZATION
0.5 2:0 3:4 4:0 5:0 7:1 73:1 5165:1 # 20140614004826AAWj9IB Macy NNP Entertainment_&_Music PERSON
0.49983817612641645578008819938987 2:0 3:4 4:0 5:0 7:1 73:1 8154:1 # 20140613180332AA3jCxr Iran NNP News_&_Events LOCATION
0.5 2:0 3:4 4:0 5:0 7:1 73:1 682:1 # 20140605104442AAFzzy2 Eric NNP Sports PERSON
0.5 2:0 3:4 4:0 5:0 7:1 73:1 2657:1 # 20140625072412AAUASEG York NNP Yahoo!_Products LOCATION
0.5 2:0 3:4 4:0 5:0 7:1 73:1 5585:1 # 20140605040256AAru12G Iron NNP Entertainment_&_Music PERSON
0.5 2:0 3:4 4:0 5:0 7:1 73:1 13979:1 # 20140614170630AA1o9BQ Bush NNP Politics_&_Government PERSON
0.5 2:0 3:4 4:0 5:0 7:1 73:1 778:1 # 20140617074422AANUT7h Mary NNP Arts_&_Humanities PERSON
0.5 2:0 3:4 4:0 5:0 7:1 73:1 11380:1 # 20140616143448AAdU6Ze Togo NNP Dining_Out ORGANIZATION
0.5 2:0 3:4 4:0 5:0 7:1 73:1 1627:1 # 20140618141257AAQm1bZ King NNP Arts_&_Humanities PERSON
0.5 2:0 3:4 4:0 5:0 7:1 73:1 262:1 # 20140617074422AANUT7h John NNP Arts_&_Humanities PERSON
-0.36703725545071613778347341394692 2:0 3:1 4:0 5:0 7:0 73:1 630:1 # 20140603072418AAgZjcN # NNP Science_&_Mathematics TOKEN
0.5 2:0 3:4 4:0 5:0 7:1 73:1 9042:1 # 20140605104442AAFzzy2 Cena NNP Sports PERSON
0.5 2:0 3:4 4:0 5:0 7:1 73:1 14254:1 # 20140609053527AAHPrln Carr NNP News_&_Events PERSON
0.5 2:0 3:4 4:0 5:0 7:1 73:1 4955:1 # 20140611132742AAU8vAK Rica NNP Education_&_Reference LOCATION
0.5 2:0 3:2 4:1 5:0 7:0 73:1 3408:1 # 20140619072135AAeFu7N UK NNP Politics_&_Government LOCATION
0.5 2:0 3:6 4:0 5:1 7:0 8:1 18077:1 # 20140615020333AAAIUUW disney NN Travel ORGANIZATION
-0.18116769369005569778607878106413 2:0 3:2 4:0 5:1 7:0 73:1 8301:1 # 20140622225954AAAlKMt va NNP Local_Businesses TOKEN
-0.1156349950880564692035079588095 2:0 3:2 4:1 5:0 7:0 73:1 6973:1 # 20140616120632AA6Yeah AA NNP Sports TOKEN
0.5 2:0 3:6 4:0 5:1 7:0 8:1 2991:1 # 20140604131630AAZXrpw yorbin NN Business_&_Finance ORGANIZATION
0.5 2:0 3:3 4:1 5:0 7:0 73:1 19533:1 # 20140625072412AAUASEG LA. NNP Yahoo!_Products LOCATION
0.5 2:0 3:6 4:0 5:1 7:0 8:1 10383:1 # 20140615174740AA8MA6l malibu NN Cars_&_Transportation LOCATION
0.5 2:0 3:8 4:0 5:0 7:1 73:1 12818:1 # 20140610174552AAptb2t Edgewood NNP Local_Businesses LOCATION
0.5 2:0 3:2 4:1 5:0 7:0 73:1 3408:1 # 20140615131345AAW89pT UK NNP News_&_Events LOCATION
-0.27063634107339851198048563674092 2:0 3:5 4:0 5:0 7:1 73:1 8954:1 # 20140625201720AA1VzQt Guard NNP Politics_&_Government TOKEN
0.5 2:0 3:10 4:0 5:1 7:0 8:1 3309:1 # 20140619105821AAuioIb university NN Education_&_Reference ORGANIZATION
-0.5 2:0 3:4 4:0 5:0 7:1 73:1 4268:1 # 20140609031322AAZz3r8 Hill NNP Travel TOKEN
0.5 2:0 3:89 4:0 5:1 7:0 26:1 10552:1 # 20140608182325AAmvy1Q http:##www.cyberdriveillinois.com#departments#drivers#drivers_license#drlicid.html#mcylic JJ Cars_&_Transportation LOCATION
-0.011592661924602509770920732989907 2:0 3:1 4:0 5:1 7:0 8:1 7684:1 # 20140618170211AA99yVG π NN Science_&_Mathematics TOKEN
-0.11650431084227363953687017783523 2:0 3:5 4:1 5:0 7:0 73:1 8110:1 # 20140608155422AAGg2Wt NEVER NNP Pregnancy_&_Parenting TOKEN
-0.11651406447486767348209468764253 2:0 3:5 4:1 5:0 7:0 73:1 19063:1 # 20140620170402AA0uGdu APPLY NNP Pregnancy_&_Parenting TOKEN
-0.11616016261869255288274871418253 2:0 3:5 4:1 5:0 7:0 73:1 18930:1 # 20140617132235AAkTTzS WHERE NNP Computer_&_Internet TOKEN
-0.11607911551159030838498154025729 2:0 3:5 4:1 5:0 7:0 73:1 15391:1 # 20140609170145AAsvd80 WHITE NNP Politics_&_Government TOKEN
-0.11651406447486900574972423783038 2:0 3:5 4:1 5:0 7:0 73:1 8061:1 # 20140601043856AAIunch H2SO4 NNP Science_&_Mathematics TOKEN
-0.11657404032404183880089476588182 2:0 3:5 4:1 5:0 7:0 73:1 10741:1 # 20140606145613AArNENe WD-40 NNP Cars_&_Transportation TOKEN
-0.1165173857191201811644987174077 2:0 3:5 4:1 5:0 7:0 73:1 6366:1 # 20140618180738AANfMh9 THINK NNP Sports TOKEN
-0.11569419402756873915816271392032 2:0 3:5 4:1 5:0 7:0 73:1 11875:1 # 20140619055300AA9BUOc YEAST NNP Food_&_Drink TOKEN
-0.11648555058961207464562903624028 2:0 3:5 4:1 5:0 7:0 73:1 6363:1 # 20140611193450AAnqGcc WHILE NNP Health TOKEN
-0.11589639936246803886277234596491 2:0 3:5 4:1 5:0 7:0 73:1 1964:1 # 20140601105234AA3ANDN -LSB- NNP Arts_&_Humanities TOKEN
-0.11621212990665916175991867476114 2:0 3:5 4:1 5:0 7:0 73:1 3564:1 # 20140614134845AAVhWeg GDDR3 NNP Consumer_Electronics TOKEN
-0.069796939888552067543514567660168 2:0 3:5 4:1 5:0 7:0 73:1 3444:1 # 20140610102038AAX5RlB FIRST NNP Pets TOKEN
-0.1157196054102190146961604000353 2:0 3:5 4:1 5:0 7:0 73:1 9001:1 # 20140612160340AAE8W0E BITCH NNP Sports TOKEN
-0.11568948374579840487896831291437 2:0 3:5 4:1 5:0 7:0 73:1 13903:1 # 20140617033632AAaS0SQ BLESS NNP News_&_Events TOKEN
-0.11651738571912195752133811765816 2:0 3:5 4:1 5:0 7:0 73:1 15337:1 # 20140607125905AA2JtXv NORAD NNP Politics_&_Government TOKEN
-0.11657364023665728325340751325712 2:0 3:5 4:1 5:0 7:0 73:1 18553:1 # 20140608132523AAWfvBH R.A.M NNP Computer_&_Internet TOKEN
-0.5 2:0 3:10 4:0 5:1 7:0 8:1 2204:1 # 20140605150717AAmRFk6 government NN News_&_Events TOKEN
-0.11571439513382843211619643852828 2:0 3:5 4:1 5:0 7:0 73:1 19076:1 # 20140620170402AA0uGdu THING NNP Pregnancy_&_Parenting TOKEN
-0.11634562407506754411201654875185 2:0 3:5 4:1 5:0 7:0 73:1 11905:1 # 20140626031053AAyXCcP CREAM NNP Food_&_Drink TOKEN
-0.11650431084230206124630058184266 2:0 3:5 4:1 5:0 7:0 73:1 2849:1 # 20140610214206AAA5Std PROVE NNP Business_&_Finance TOKEN
-0.11618132867403718755383579264162 2:0 3:5 4:1 5:0 7:0 73:1 5148:1 # 20140619101954AAAy1Zi LAUGH NNP Entertainment_&_Music TOKEN
-0.11643289100065523644644827072625 2:0 3:5 4:1 5:0 7:0 73:1 15008:1 # 20140613154011AAJ98M9 BINKY NNP Politics_&_Government TOKEN
-0.012897663298335970694097341038287 2:0 3:10 4:0 5:1 7:0 8:1 2204:1 # 20140605150717AAmRFk6 government NN News_&_Events TOKEN
0.5 2:0 3:5 4:0 5:1 7:0 73:1 172:1 # 20140607125905AA2JtXv &amp; NNP Politics_&_Government ORGANIZATION
-0.27064938937188198764260960160755 2:0 3:2 4:0 5:0 7:1 73:1 11461:1 # 20140603215034AABtnxF Le NNP Dining_Out TOKEN
-0.5 2:0 3:4 4:0 5:0 7:1 73:1 13979:1 # 20140610123048AAZOuhW Bush NNP Politics_&_Government TOKEN
-0.11632316064097325547521677435725 2:0 3:5 4:1 5:0 7:0 73:1 6849:1 # 20140612121603AAc09vI GDDR5 NNP Games_&_Recreation TOKEN
-0.11658285733728188104940670655196 2:0 3:5 4:1 5:0 7:0 73:1 5300:1 # 20140621032104AA5LQDd SCENE NNP Entertainment_&_Music TOKEN
-0.11652955932681952067042630005744 2:0 3:5 4:1 5:0 7:0 73:1 19360:1 # 20140608060520AAMzqLw INBOX NNP Yahoo!_Products TOKEN
-0.11629409302505439027797251583252 2:0 3:5 4:1 5:0 7:0 73:1 5342:1 # 20140615025730AAsJj6v PROOF NNP Social_Science TOKEN
-0.11657498667720744833786739036441 2:0 3:5 4:1 5:0 7:0 73:1 14861:1 # 20140608222755AASVAKO COULD NNP Pets TOKEN
-0.11636006575688551123448633006774 2:0 3:5 4:1 5:0 7:0 73:1 11163:1 # 20140608075953AADKMro MUSHY NNP Dining_Out TOKEN
-0.11658883199502589889107184717432 2:0 3:5 4:1 5:0 7:0 73:1 11907:1 # 20140626031053AAyXCcP SAUCE NNP Food_&_Drink TOKEN
-0.11570282344249334383068372744674 2:0 3:5 4:1 5:0 7:0 73:1 10303:1 # 20140608060520AAMzqLw ABOUT NNP Yahoo!_Products TOKEN
-0.11570282344246525518816071098627 2:0 3:5 4:1 5:0 7:0 73:1 1966:1 # 20140603072418AAgZjcN -RSB- NNP Science_&_Mathematics TOKEN
0.5 2:0 3:6 4:1 5:0 7:0 73:1 8317:1 # 20140626034154AAGjZE1 LITTLE NNP Food_&_Drink PERSON
0.5 2:0 3:6 4:0 5:1 7:0 8:1 10383:1 # 20140615174740AA8MA6l malibu NN Cars_&_Transportation LOCATION
0.5 2:0 3:3 4:1 5:0 7:0 73:1 2568:1 # 20140618180738AANfMh9 USA NNP Sports LOCATION
-0.046720445830569445888613699935377 2:0 3:5 4:1 5:0 7:0 73:1 3444:1 # 20140610102038AAX5RlB FIRST NNP Pets TOKEN
0.5 2:0 3:6 4:0 5:1 7:0 8:1 18077:1 # 20140615020333AAAIUUW disney NN Travel ORGANIZATION
0.5 2:0 3:3 4:1 5:0 7:0 73:1 2568:1 # 20140618180738AANfMh9 USA NNP Sports LOCATION
0.5 2:0 3:5 4:1 5:0 7:0 73:1 15661:1 # 20140614170630AA1o9BQ NAFTA NNP Politics_&_Government ORGANIZATION
0.5 2:0 3:5 4:1 5:0 7:0 73:1 15683:1 # 20140614170630AA1o9BQ SWIFT NNP Politics_&_Government ORGANIZATION
0.5 2:0 3:5 4:1 5:0 7:0 73:1 13972:1 # 20140613111831AABRhzn COBRA NNP News_&_Events ORGANIZATION
0.5 2:0 3:5 4:1 5:0 7:0 73:1 14429:1 # 20140617193722AA5emAo MSNBC NNP Politics_&_Government ORGANIZATION
0.5 2:0 3:5 4:1 5:0 7:0 73:1 10760:1 # 20140609115257AAXrpdb SKODA NNP Cars_&_Transportation ORGANIZATION
0.5 2:0 3:5 4:1 5:0 7:0 73:1 15732:1 # 20140620134143AA2rxJi YAHOO NNP Yahoo!_Products ORGANIZATION
-0.5 2:0 3:4 4:0 5:0 7:1 73:1 2657:1 # 20140610172137AA9hoaq York NNP Dining_Out TOKEN
-0.5 2:0 3:4 4:0 5:0 7:1 73:1 262:1 # 20140613111207AAD5YgE John NNP Dining_Out TOKEN
-0.5 2:0 3:4 4:0 5:0 7:1 73:1 1627:1 # 20140604112329AAS36PD King NNP Dining_Out TOKEN
0.5 2:0 3:4 4:0 5:0 7:1 73:1 1468:1 # 20140605223141AA4aNVu Ness NNP Arts_&_Humanities PERSON
0.5 2:0 3:3 4:1 5:0 7:0 73:1 14319:1 # 20140606223938AAjsrL7 AFC NNP News_&_Events ORGANIZATION
0.5 2:0 3:3 4:1 5:0 7:0 73:1 10551:1 # 20140608182325AAmvy1Q DMV NNP Cars_&_Transportation ORGANIZATION
-0.49654196533795769141761411447078 2:0 3:4 4:0 5:1 7:0 8:1 3365:1 # 20140620191437AA9D0Nc ebay NN Food_&_Drink TOKEN
-0.5 2:0 3:4 4:0 5:1 7:0 8:1 487:1 # 20140610075021AAwlDsA area NN Dining_Out TOKEN
0.5 2:0 3:12 4:1 5:0 7:0 73:1 3558:1 # 20140614134845AAVhWeg CYBERPOWERPC NNP Consumer_Electronics ORGANIZATION
0.5 2:0 3:4 4:0 5:0 7:1 73:1 9254:1 # 20140617195809AA0PD6g Real NNP Sports ORGANIZATION
0.5 2:0 3:4 4:0 5:0 7:1 73:1 9437:1 # 20140623022611AAddTaJ Kurt NNP Sports PERSON
0.5 2:0 3:4 4:0 5:0 7:1 73:1 783:1 # 20140617074422AANUT7h Sade NNP Arts_&_Humanities PERSON
0.5 2:0 3:4 4:0 5:0 7:1 73:1 9071:1 # 20140605104442AAFzzy2 Seth NNP Sports PERSON
0.5 2:0 3:4 4:0 5:0 7:1 73:1 15779:1 # 20140611151627AAmAEbQ Dick NNP Politics_&_Government PERSON
-0.41269819235876026297660246200394 2:0 3:5 4:0 5:1 7:0 40:1 5659:1 # 20140603020037AAlyzyA south RB Travel TOKEN
0.5 2:0 3:11 4:0 5:0 7:1 73:1 775:1 # 20140625193136AAUePpR Shakespeare NNP Arts_&_Humanities PERSON
0.5 2:0 3:4 4:0 5:0 7:1 73:1 15785:1 # 20140611151627AAmAEbQ Newt NNP Politics_&_Government PERSON
0.5 2:0 3:3 4:1 5:0 7:0 73:1 3933:1 # 20140603005221AAThPnj ZTE NNP Consumer_Electronics ORGANIZATION
0.5 2:0 3:3 4:1 5:0 7:0 73:1 3953:1 # 20140603005221AAThPnj ZET NNP Consumer_Electronics ORGANIZATION
-0.5 2:0 3:4 4:0 5:0 7:1 73:1 13979:1 # 20140610123048AAZOuhW Bush NNP Politics_&_Government TOKEN
0.5 2:0 3:7 4:0 5:1 7:0 43:1 8739:1 # 20140612145554AAjlhJX america VBP Beauty_&_Style LOCATION
0.5 2:0 3:4 4:0 5:0 7:1 73:1 15137:1 # 20140611151627AAmAEbQ Mitt NNP Politics_&_Government PERSON
0.5 2:0 3:4 4:0 5:0 7:1 73:1 3932:1 # 20140603005221AAThPnj Acer NNP Consumer_Electronics ORGANIZATION
0.5 2:0 3:4 4:0 5:0 7:1 73:1 15269:1 # 20140625082631AAcgyMl Issa NNP Politics_&_Government PERSON
-0.5 2:0 3:6 4:0 5:1 7:0 43:1 1441:1 # 20140616063937AAhSsrT google VBP Business_&_Finance TOKEN
0.5 2:0 3:9 4:0 5:1 7:0 20:1 3603:1 # 20140615210245AAjCZ2q microsoft VBG Consumer_Electronics ORGANIZATION
-0.27017688753932250778078127950721 2:0 3:6 4:0 5:0 7:1 73:1 5336:1 # 20140615025730AAsJj6v League NNP Social_Science TOKEN
0.5 2:0 3:4 4:0 5:0 7:1 73:1 2512:1 # 20140626223207AABdv8w Rick NNP Business_&_Finance PERSON
0.5 2:0 3:4 4:0 5:0 7:1 73:1 5211:1 # 20140626142532AAHm2Mx Club NNP Pets ORGANIZATION
-0.069371190107531788271444384008646 2:1 3:5 4:0 5:0 7:1 61:1 11648:1 # 20140604112329AAS36PD Foods NNPS Dining_Out TOKEN
-0.06941235618371166538054239936173 2:1 3:5 4:0 5:0 7:1 61:1 14120:1 # 20140612211617AAE6Bis Turks NNPS News_&_Events TOKEN
-0.069371190107545999126159586012363 2:1 3:5 4:0 5:0 7:1 61:1 1411:1 # 20140605223141AA4aNVu Games NNPS Arts_&_Humanities TOKEN
-0.08479666230654903102958996896632 2:1 3:8 4:0 5:0 7:0 73:1 18281:1 # 20140603020037AAlyzyA WWOOFing NNP Travel TOKEN
0.5 2:0 3:6 4:0 5:0 7:1 73:1 14253:1 # 20140609053527AAHPrln Maxine NNP News_&_Events PERSON
0.5 2:1 3:7 4:0 5:1 7:0 43:1 7296:1 # 20140610052054AAkNfGL googled VBP Cars_&_Transportation ORGANIZATION
-0.013020621190630521368802874349058 2:0 3:4 4:0 5:1 7:0 8:1 487:1 # 20140613073945AAjr9GV area NN Pets TOKEN
0.5 2:0 3:7 4:0 5:1 7:0 26:1 2720:1 # 20140611170153AAHPuYj scarlet JJ Education_&_Reference PERSON
0.5 2:0 3:6 4:0 5:0 7:1 73:1 8902:1 # 20140611011232AAoHyfn Lebron NNP Sports PERSON
-0.012992049555276108385726274718763 2:0 3:3 4:0 5:1 7:0 8:1 18697:1 # 20140623171559AARTbz7 psu NN Computer_&_Internet TOKEN
0.5 2:0 3:6 4:0 5:0 7:1 73:1 11650:1 # 20140604112329AAS36PD Wegman NNP Dining_Out ORGANIZATION
0.5 2:0 3:6 4:0 5:0 7:1 73:1 12033:1 # 20140616154757AA3uubn Europe NNP News_&_Events LOCATION
0.5 2:0 3:6 4:0 5:0 7:1 73:1 3135:1 # 20140601131055AAPxhOP Martin NNP Business_&_Finance PERSON
0.5 2:0 3:7 4:0 5:1 7:0 8:1 13879:1 # 20140617033632AAaS0SQ britney NN News_&_Events PERSON
0.5 2:0 3:4 4:0 5:0 7:1 73:1 2510:1 # 20140626223207AABdv8w Ross NNP Business_&_Finance ORGANIZATION
0.5 2:0 3:7 4:0 5:1 7:0 8:1 7797:1 # 20140605081144AAuazx4 michael NN Science_&_Mathematics PERSON
0.5 2:0 3:7 4:0 5:1 7:0 8:1 15221:1 # 20140610123048AAZOuhW taliban NN Politics_&_Government ORGANIZATION
0.5 2:0 3:7 4:0 5:1 7:0 8:1 2520:1 # 20140626223207AABdv8w khalifa NN Business_&_Finance PERSON
0.5 2:0 3:6 4:0 5:0 7:1 73:1 11083:1 # 20140616143448AAdU6Ze Burger NNP Dining_Out ORGANIZATION
-0.025354273557650186532441693998408 2:1 3:2 4:1 5:0 7:0 73:1 3695:1 # 20140617123215AAwmmE0 PS NNP Consumer_Electronics TOKEN
-0.26980911641296645431253864444443 2:0 3:3 4:0 5:0 7:1 73:1 6072:1 # 20140605225313AAAhy4Z Huh NNP Health TOKEN
0.5 2:0 3:5 4:0 5:0 7:1 73:1 5330:1 # 20140618192549AAzYXYR Italy NNP Social_Science LOCATION
0.5 2:0 3:7 4:0 5:1 7:0 8:1 3646:1 # 20140615060824AA0aRHm youtube NN Computer_&_Internet ORGANIZATION
0.5 2:0 3:7 4:0 5:1 7:0 8:1 3810:1 # 20140603131218AA1t3hP mission NN Local_Businesses LOCATION
0.5 2:1 3:5 4:0 5:0 7:1 73:1 9342:1 # 20140616154757AA3uubn Armed NNP News_&_Events ORGANIZATION
0.5 2:0 3:7 4:0 5:1 7:0 8:1 5584:1 # 20140605040256AAru12G romance NN Entertainment_&_Music PERSON
0.5 2:0 3:4 4:0 5:0 7:1 73:1 2716:1 # 20140621155455AA5YRJ2 Maui NNP Business_&_Finance LOCATION
0.5 2:0 3:7 4:0 5:1 7:0 8:1 10581:1 # 20140607104849AAvstRC hyundai NN Cars_&_Transportation ORGANIZATION
0.5 2:0 3:7 4:0 5:1 7:0 26:1 7383:1 # 20140614114159AAxmnir western JJ Travel LOCATION
0.5 2:1 3:5 4:0 5:0 7:1 73:1 15298:1 # 20140613140428AASx2zV Sears NNP Politics_&_Government ORGANIZATION
-0.5 2:0 3:10 4:0 5:1 7:0 8:1 3309:1 # 20140607014708AAKJo8F university NN Pregnancy_&_Parenting TOKEN
0.5 2:0 3:6 4:0 5:0 7:1 73:1 5423:1 # 20140616143448AAdU6Ze Little NNP Dining_Out ORGANIZATION
0.5 2:0 3:6 4:0 5:0 7:1 73:1 1709:1 # 20140609112801AAnee0x Turkic NNP Arts_&_Humanities LOCATION
0.5 2:0 3:6 4:0 5:0 7:1 73:1 1928:1 # 20140620214550AA74tKP George NNP News_&_Events PERSON
0.5 2:0 3:6 4:0 5:0 7:1 73:1 9260:1 # 20140617195809AA0PD6g Madrid NNP Sports ORGANIZATION
-0.49854146575025382048806932289153 2:0 3:5 4:0 5:1 7:0 73:1 172:1 # 20140616143448AAdU6Ze &amp; NNP Dining_Out TOKEN
-0.0053273965559706981665044622786809 2:0 3:5 4:0 5:0 7:1 139:1 287:1 # 20140611151627AAmAEbQ There EX Politics_&_Government TOKEN
-0.0072120985929089442834083456546068 2:0 3:9 4:0 5:0 7:0 8:1 12868:1 # 20140613214814AARwXS4 Fast-food NN Local_Businesses TOKEN
0.5 2:0 3:4 4:0 5:0 7:1 73:1 11092:1 # 20140613111207AAD5YgE Gacy NNP Dining_Out PERSON
0.5 2:0 3:4 4:0 5:0 7:1 73:1 6653:1 # 20140612080629AAuyjlx Sean NNP Health PERSON
0.5 2:0 3:5 4:0 5:0 7:1 73:1 7488:1 # 20140620120056AAFGiXk Yahoo NNP Yahoo!_Products ORGANIZATION
0.5 2:0 3:5 4:0 5:0 7:1 73:1 4278:1 # 20140615224306AASdmOX Miami NNP Sports LOCATION
-0.069237433979942863970791222527623 2:1 3:6 4:0 5:0 7:1 61:1 3945:1 # 20140603005221AAThPnj Videos NNPS Consumer_Electronics TOKEN
-0.069428141043928803810558747500181 2:1 3:6 4:0 5:0 7:1 61:1 10977:1 # 20140603235141AAdqnjl Sports NNPS Cars_&_Transportation TOKEN
-0.06942814104387906581905554048717 2:1 3:6 4:0 5:0 7:1 61:1 5519:1 # 20140617203632AANuG3B Comics NNPS Entertainment_&_Music TOKEN
0.5 2:0 3:6 4:0 5:0 7:1 8:1 11349:1 # 20140616143448AAdU6Ze Silver NN Dining_Out ORGANIZATION
0.5 2:0 3:6 4:0 5:0 7:1 8:1 11347:1 # 20140616143448AAdU6Ze Choice NN Dining_Out ORGANIZATION
0.5 2:1 3:5 4:0 5:0 7:1 73:1 10357:1 # 20140620180056AARv7Hs Mises NNP Social_Science PERSON
0.5 2:1 3:5 4:0 5:0 7:1 73:1 1891:1 # 20140605091638AATCTbo Carla NNP Arts_&_Humanities PERSON
0.5 2:1 3:5 4:0 5:0 7:1 73:1 8897:1 # 20140615224306AASdmOX Spurs NNP Sports ORGANIZATION
0.5 2:1 3:5 4:0 5:0 7:1 73:1 9139:1 # 20140615215028AAGmoaM Jered NNP Sports PERSON
0.5 2:0 3:7 4:0 5:1 7:0 8:1 11448:1 # 20140606032555AA8mCFY italian NN Politics_&_Government ORGANIZATION
-0.5 2:0 3:6 4:0 5:1 7:0 8:1 1441:1 # 20140622072140AAPnIrk google NN Food_&_Drink TOKEN
0.5 2:0 3:5 4:0 5:0 7:1 73:1 807:1 # 20140617074422AANUT7h White NNP Arts_&_Humanities PERSON
0.5 2:0 3:5 4:0 5:0 7:1 73:1 13960:1 # 20140626120744AAMAD0e North NNP News_&_Events LOCATION
0.5 2:0 3:5 4:0 5:0 7:1 73:1 2147:1 # 20140609160711AAprF2f Susan NNP Arts_&_Humanities PERSON
0.5 2:0 3:5 4:0 5:0 7:1 73:1 9317:1 # 20140607094147AAMHfCN Jimmy NNP Sports PERSON
-0.097667190437045595108322970645531 2:0 3:5 4:0 5:0 7:1 43:1 5509:1 # 20140621115845AAQL7uD Think VBP Family_&_Relationships TOKEN
-0.012517614771584084643052392493701 2:0 3:10 4:0 5:1 7:0 8:1 3309:1 # 20140607140550AAYTiFo university NN Education_&_Reference TOKEN
-0.27074251036173535567286307923496 2:0 3:6 4:0 5:0 7:1 73:1 1427:1 # 20140605223141AA4aNVu Unwind NNP Arts_&_Humanities TOKEN
0.5 2:0 3:8 4:0 5:1 7:0 20:1 9584:1 # 20140615224306AASdmOX popovich VBG Sports PERSON
0.5 2:0 3:5 4:0 5:0 7:1 73:1 2105:1 # 20140609160711AAprF2f Lloyd NNP Arts_&_Humanities PERSON
0.5 2:0 3:5 4:0 5:0 7:1 73:1 8147:1 # 20140613111831AABRhzn Syria NNP News_&_Events LOCATION
0.5 2:0 3:5 4:0 5:0 7:1 73:1 11386:1 # 20140616143448AAdU6Ze Zaxby NNP Dining_Out ORGANIZATION
0.5 2:0 3:7 4:0 5:1 7:0 8:1 12137:1 # 20140623173753AAUMZe3 iceland NN Food_&_Drink LOCATION
-0.00030357019133381291098316978604998 2:0 3:8 4:0 5:0 7:1 30:1 6838:1 # 20140611001634AAefV9p Although IN Pregnancy_&_Parenting TOKEN
0.5 2:0 3:4 4:0 5:0 7:0 8:1 3200:1 # 20140605231104AAm8fzJ eBay NN Politics_&_Government ORGANIZATION
0.5 2:0 3:3 4:1 5:0 7:0 73:1 3769:1 # 20140605225754AA2LJWC ABC NNP Consumer_Electronics ORGANIZATION
0.5 2:0 3:6 4:0 5:1 7:0 8:1 1441:1 # 20140608001904AAVKEC5 google NN Computer_&_Internet ORGANIZATION
0.5 2:0 3:9 4:0 5:1 7:0 8:1 10238:1 # 20140609103954AAB6LY5 sociopath NN News_&_Events ORGANIZATION
0.5 2:0 3:5 4:0 5:0 7:1 73:1 4177:1 # 20140607141649AANF6Tv Carey NNP Consumer_Electronics PERSON
-0.17950931418250615223541899467818 2:1 3:7 4:0 5:0 7:1 73:1 10490:1 # 20140622140805AAtjqJa Depends NNP Cars_&_Transportation TOKEN
-0.5 2:0 3:5 4:0 5:0 7:1 73:1 807:1 # 20140616154757AA3uubn White NNP News_&_Events TOKEN
-0.01290417412178612721618264913559 2:0 3:14 4:0 5:1 7:0 8:1 4340:1 # 20140609052848AA9cZW3 sustainability NN Education_&_Reference TOKEN
0.5 2:0 3:5 4:0 5:0 7:0 73:1 4284:1 # 20140604083714AANM1Br UMass NNP Education_&_Reference ORGANIZATION
-0.030025259737047282904143230553018 2:0 3:5 4:0 5:0 7:1 88:1 691:1 # 20140625140958AAG0wQK Thank VB Beauty_&_Style TOKEN
-0.02928900949410959131391507526132 2:0 3:5 4:0 5:0 7:1 88:1 680:1 # 20140623100602AAeUxIh Drink VB Arts_&_Humanities TOKEN
-0.030072181673286735303918248973787 2:0 3:5 4:0 5:0 7:1 88:1 12496:1 # 20140605210007AAoMB1b Shout VB Home_&_Garden TOKEN
-0.030071676111710354817319057474378 2:0 3:5 4:0 5:0 7:1 88:1 13332:1 # 20140611152642AAd7nNQ Stand VB Pets TOKEN
0.5 2:0 3:8 4:0 5:1 7:0 26:1 7068:1 # 20140606032555AA8mCFY american JJ Politics_&_Government ORGANIZATION
0.5 2:0 3:4 4:0 5:0 7:1 73:1 5268:1 # 20140614004826AAWj9IB Snow NNP Entertainment_&_Music PERSON
0.5 2:0 3:4 4:0 5:0 7:1 73:1 15030:1 # 20140625100007AAcadtk Marx NNP Politics_&_Government PERSON
0.5 2:0 3:4 4:0 5:0 7:1 73:1 11889:1 # 20140626133140AAROz72 Hati NNP Food_&_Drink LOCATION
0.5 2:0 3:4 4:0 5:0 7:1 73:1 10600:1 # 20140609212304AAlJxoJ Ford NNP Cars_&_Transportation ORGANIZATION
-0.17570833179718192695872858166695 2:0 3:2 4:0 5:0 7:0 73:1 4211:1 # 20140613123024AAkX1Tt 18 NNP Education_&_Reference TOKEN
-0.17583711221825559789522230857983 2:0 3:2 4:0 5:0 7:0 73:1 897:1 # 20140613123024AAkX1Tt !! NNP Education_&_Reference TOKEN
0.5 2:0 3:6 4:0 5:0 7:0 73:1 4282:1 # 20140604083714AANM1Br MIzzou NNP Education_&_Reference LOCATION
0.5 2:0 3:6 4:0 5:0 7:0 73:1 12297:1 # 20140615100226AACLhyS C-list NNP Home_&_Garden ORGANIZATION
0.5 2:0 3:4 4:0 5:0 7:1 73:1 11358:1 # 20140616143448AAdU6Ze Papa NNP Dining_Out ORGANIZATION
0.5 2:0 3:4 4:0 5:0 7:1 73:1 8152:1 # 20140613180332AA3jCxr Iraq NNP News_&_Events LOCATION
0.5 2:0 3:4 4:0 5:0 7:1 73:1 3929:1 # 20140603005221AAThPnj Sony NNP Consumer_Electronics ORGANIZATION
0.5 2:0 3:4 4:0 5:0 7:1 73:1 3011:1 # 20140611204210AAPJj1y Arun NNP Business_&_Finance PERSON
0.5 2:0 3:4 4:0 5:0 7:1 73:1 3929:1 # 20140614070914AAwpQqi Sony NNP Consumer_Electronics ORGANIZATION
0.5 2:0 3:4 4:0 5:0 7:1 73:1 811:1 # 20140617074422AANUT7h Otto NNP Arts_&_Humanities PERSON
0.5 2:0 3:8 4:0 5:1 7:0 8:1 8911:1 # 20140615190410AAmWDg3 @rolando NN Sports PERSON
0.5 2:1 3:9 4:0 5:0 7:0 73:1 7069:1 # 20140615191331AAdpnmg McDonalds NNP Dining_Out ORGANIZATION
-0.013014538122181562584955827333033 2:0 3:2 4:0 5:1 7:0 8:1 15300:1 # 20140618090750AAlViol xx NN Pregnancy_&_Parenting TOKEN
-0.17495826405568212780217152158002 2:0 3:1 4:0 5:0 7:0 73:1 352:1 # 20140612233414AAbNPKy : NNP Family_&_Relationships TOKEN
-0.2707137947749451711842993972823 2:0 3:6 4:0 5:0 7:1 73:1 1410:1 # 20140605223141AA4aNVu Hunger NNP Arts_&_Humanities TOKEN
-0.029368044101808678941756269864527 2:0 3:8 4:0 5:0 7:1 88:1 12888:1 # 20140617094029AAZ1FwJ Remember VB Family_&_Relationships TOKEN
-0.025141508842237203502634201868204 2:0 3:5 4:0 5:0 7:1 26:1 17326:1 # 20140625072412AAUASEG Asian JJ Yahoo!_Products TOKEN
-0.42113407414987724664001689234283 2:1 3:7 4:0 5:1 7:0 8:1 7296:1 # 20140617075804AAbhubH googled NN Pregnancy_&_Parenting TOKEN
-0.5 2:1 3:5 4:0 5:0 7:1 73:1 9342:1 # 20140614220006AA90c02 Armed NNP Sports TOKEN
-0.5 2:0 3:7 4:0 5:1 7:0 8:1 3810:1 # 20140605094920AAfugK5 mission NN Consumer_Electronics TOKEN
-0.5 2:0 3:7 4:0 5:1 7:0 8:1 11448:1 # 20140603215034AABtnxF italian NN Dining_Out TOKEN
0.5 2:0 3:9 4:0 5:0 7:0 26:1 19499:1 # 20140609172302AAjgqUA non-Yahoo JJ Yahoo!_Products ORGANIZATION
0.5 2:1 3:6 4:0 5:0 7:1 61:1 15074:1 # 20140617015321AAEmy38 Masons NNPS Politics_&_Government PERSON
0.5 2:0 3:6 4:0 5:1 7:0 43:1 1441:1 # 20140617052323AAeXK8h google VBP Cars_&_Transportation ORGANIZATION
0.5 2:0 3:7 4:0 5:0 7:1 26:1 14010:1 # 20140609103954AAB6LY5 Zionist JJ News_&_Events ORGANIZATION
0.5 2:0 3:5 4:1 5:0 7:0 73:1 15661:1 # 20140614170630AA1o9BQ NAFTA NNP Politics_&_Government ORGANIZATION
-0.097942180150590307796676370344358 2:0 3:4 4:0 5:0 7:1 43:1 282:1 # 20140622131925AAtjtJJ Have VBP Beauty_&_Style TOKEN
0.5 2:0 3:6 4:0 5:1 7:0 8:1 1441:1 # 20140605214704AAzq0fk google NN Health ORGANIZATION
-0.5 2:0 3:6 4:0 5:0 7:1 73:1 8902:1 # 20140615224306AASdmOX Lebron NNP Sports TOKEN
-0.27071007737219865418865083483979 2:0 3:6 4:0 5:0 7:1 73:1 5423:1 # 20140620190356AAdnQme Little NNP Entertainment_&_Music TOKEN
0.5 2:0 3:4 4:0 5:0 7:1 73:1 13979:1 # 20140613111831AABRhzn Bush NNP News_&_Events PERSON
-0.013102191347365454987539123976603 2:0 3:5 4:0 5:0 7:1 24:1 565:1 # 20140617015321AAEmy38 Every DT Politics_&_Government TOKEN
-0.5 2:0 3:6 4:0 5:0 7:1 73:1 11083:1 # 20140623072617AAIXida Burger NNP Dining_Out TOKEN
-0.5 2:0 3:6 4:0 5:0 7:1 73:1 5423:1 # 20140620190356AAdnQme Little NNP Entertainment_&_Music TOKEN
-0.2697562539086512667374506690976 2:0 3:6 4:0 5:0 7:1 73:1 11147:1 # 20140612013350AAX11Xr London NNP Travel TOKEN
-0.26994386005229270564242938235111 2:0 3:6 4:0 5:0 7:1 73:1 6672:1 # 20140612080629AAuyjlx Nettle NNP Health TOKEN
-0.27072919980977161458213231526315 2:0 3:6 4:0 5:0 7:1 73:1 12768:1 # 20140615215502AAWIjLB Social NNP Local_Businesses TOKEN
-0.5 2:0 3:6 4:0 5:0 7:1 73:1 3931:1 # 20140613030213AAZi4zH Google NNP Travel TOKEN
0.5 2:0 3:5 4:1 5:0 7:0 73:1 14379:1 # 20140613180332AA3jCxr ISISL NNP News_&_Events ORGANIZATION
0.5 2:0 3:7 4:0 5:0 7:0 73:1 3594:1 # 20140603131617AAsXYRf YouTube NNP Education_&_Reference ORGANIZATION
0.5 2:0 3:7 4:0 5:0 7:0 73:1 15019:1 # 20140613154011AAJ98M9 McCaine NNP Politics_&_Government PERSON
0.5 2:0 3:4 4:0 5:0 7:1 73:1 4448:1 # 20140610062626AA46ms6 Mark NNP Education_&_Reference PERSON
0.5 2:0 3:4 4:0 5:0 7:1 73:1 13979:1 # 20140613111831AABRhzn Bush NNP News_&_Events PERSON
0.5 2:0 3:5 4:0 5:0 7:1 73:1 14103:1 # 20140613180332AA3jCxr Qaeda NNP News_&_Events ORGANIZATION
-0.26986497956015459420697766290687 2:0 3:6 4:0 5:0 7:1 73:1 12432:1 # 20140607191241AAICEVB Flower NNP Home_&_Garden TOKEN
-0.27074251036165364325825066771358 2:0 3:6 4:0 5:0 7:1 73:1 10567:1 # 20140603115526AAQmGXN Havana NNP Cars_&_Transportation TOKEN
-0.2706680054945849178693606518209 2:0 3:6 4:0 5:0 7:1 73:1 3607:1 # 20140615210245AAjCZ2q Editor NNP Consumer_Electronics TOKEN
-0.18096123865722379964182664480177 2:0 3:9 4:0 5:1 7:0 73:1 3951:1 # 20140603005221AAThPnj space.the NNP Consumer_Electronics TOKEN
-0.18095152605513931121095083653927 2:0 3:9 4:0 5:1 7:0 73:1 4193:1 # 20140607141649AANF6Tv 700-210xt NNP Consumer_Electronics TOKEN
-0.0072120985929444714201963506639004 2:0 3:9 4:0 5:0 7:0 8:1 7715:1 # 20140618201815AAmO6f1 here?Also NN Science_&_Mathematics TOKEN
0.5 2:0 3:5 4:1 5:0 7:0 73:1 14379:1 # 20140613180332AA3jCxr ISISL NNP News_&_Events ORGANIZATION
-0.26994411321509281798114443517989 2:0 3:6 4:0 5:0 7:1 73:1 13343:1 # 20140605190919AAVV44J Advice NNP Family_&_Relationships TOKEN
-0.2705305560449475787976325591444 2:0 3:6 4:0 5:0 7:1 73:1 3855:1 # 20140617194830AAHJTRC Subway NNP Dining_Out TOKEN
-0.27072519462854138794227765174583 2:0 3:6 4:0 5:0 7:1 73:1 14294:1 # 20140617203723AAnMv8x Saddam NNP Politics_&_Government TOKEN
-0.27053331096638544295274186879396 2:0 3:6 4:0 5:0 7:1 73:1 2549:1 # 20140606193910AApjpvz Online NNP Consumer_Electronics TOKEN
-0.27034651782027196986746275797486 2:0 3:6 4:0 5:0 7:1 73:1 832:1 # 20140621092416AArsE0s Update NNP Social_Science TOKEN
0.5 2:0 3:7 4:0 5:0 7:0 73:1 2570:1 # 20140611204210AAPJj1y BLS.gov NNP Business_&_Finance ORGANIZATION
0.5 2:0 3:7 4:0 5:0 7:0 73:1 118:1 # 20140618003957AA2mrn7 TommyMc NNP Arts_&_Humanities PERSON
-0.5 2:0 3:6 4:0 5:0 7:1 73:1 12374:1 # 20140623005211AAQ4eOc Target NNP Local_Businesses TOKEN
-0.27071527149990526339706775615923 2:0 3:6 4:0 5:0 7:1 73:1 7913:1 # 20140618024923AAR6gIm Theory NNP Science_&_Mathematics TOKEN
-0.2707255324971900023456328199245 2:0 3:6 4:0 5:0 7:1 73:1 18150:1 # 20140609031322AAZz3r8 Ceylon NNP Travel TOKEN
-0.27074467648367317451629787683487 2:0 3:6 4:0 5:0 7:1 73:1 5409:1 # 20140620190356AAdnQme Bonnie NNP Entertainment_&_Music TOKEN
-0.27064920236127698593975310359383 2:0 3:6 4:0 5:0 7:1 73:1 9206:1 # 20140620192235AA5KHXm Soccer NNP Travel TOKEN
0.5 2:0 3:4 4:0 5:0 7:1 73:1 795:1 # 20140617074422AANUT7h Faye NNP Arts_&_Humanities PERSON
0.5 2:0 3:6 4:0 5:0 7:0 73:1 4145:1 # 20140607141649AANF6Tv NVidia NNP Consumer_Electronics ORGANIZATION
-0.27066434407605299838905921205878 2:0 3:6 4:0 5:0 7:1 73:1 2542:1 # 20140610194612AA31tgA Office NNP Local_Businesses TOKEN
-0.27072919980836651632216671714559 2:0 3:6 4:0 5:0 7:1 73:1 13115:1 # 20140611151627AAmAEbQ Afghan NNP Politics_&_Government TOKEN
-0.27043145762771403362023647787282 2:0 3:6 4:0 5:0 7:1 73:1 8951:1 # 20140606003853AAp4Kid Pistol NNP Sports TOKEN
-0.2698466637423322378452894554357 2:0 3:6 4:0 5:0 7:1 73:1 6138:1 # 20140604085754AAaequj Doctor NNP Social_Science TOKEN
-0.27069302859115840220738391508348 2:0 3:6 4:0 5:0 7:1 73:1 7382:1 # 20140622011723AAsDjlo Author NNP Games_&_Recreation TOKEN
0.5 2:0 3:4 4:0 5:0 7:1 73:1 9412:1 # 20140611153858AAK05v1 Pete NNP Sports LOCATION
0.5 2:0 3:4 4:0 5:0 7:1 73:1 11327:1 # 20140616143448AAdU6Ze Loco NNP Dining_Out ORGANIZATION
-0.27071255760002621570947667350993 2:0 3:6 4:0 5:0 7:1 73:1 9385:1 # 20140614220006AA90c02 Fulton NNP Sports TOKEN
-0.27071076507949953793286113068461 2:0 3:6 4:0 5:0 7:1 73:1 11977:1 # 20140607232759AAzh7sY Sesame NNP Food_&_Drink TOKEN
-0.27069302858979860104682302335277 2:0 3:6 4:0 5:0 7:1 73:1 11771:1 # 20140620063230AAXLo9n Orange NNP Food_&_Drink TOKEN
-0.27031841518008081770574335678248 2:0 3:6 4:0 5:0 7:1 73:1 18611:1 # 20140606224612AAe7J4W Center NNP Computer_&_Internet TOKEN
-0.26981552532864189197781001894327 2:0 3:6 4:0 5:0 7:1 73:1 743:1 # 20140607125905AA2JtXv French NNP Politics_&_Government TOKEN
-0.18151085583656367816729471087456 2:0 3:52 4:0 5:1 7:0 73:1 12320:1 # 20140618083118AAt93Sw http:##fyi.uwex.edu#bugbites#2012#04#10#clovermites# NNP Home_&_Garden TOKEN
-0.01604483720475435859498247737065 2:0 3:2 4:0 5:1 7:0 710:1 9662:1 # 20140605180334AAWxjN8 un FW Food_&_Drink TOKEN
-0.26995460147265715189490720149479 2:0 3:6 4:0 5:0 7:1 73:1 11560:1 # 20140610112505AAhGjYL Insure NNP Dining_Out TOKEN
-0.26990634347928310621256287049619 2:0 3:6 4:0 5:0 7:1 73:1 2154:1 # 20140609160711AAprF2f Sunset NNP Arts_&_Humanities TOKEN
-0.27066280332905101602136710425839 2:0 3:6 4:0 5:0 7:1 73:1 7033:1 # 20140625193758AANDcbj Bullet NNP Games_&_Recreation TOKEN
-0.27000436749001882619225511916738 2:0 3:6 4:0 5:0 7:1 73:1 5428:1 # 20140614170630AA1o9BQ Street NNP Politics_&_Government TOKEN
-0.26991787789981325218491292616818 2:0 3:6 4:0 5:0 7:1 73:1 10450:1 # 20140622053311AA7YtqE Nguyen NNP Cars_&_Transportation TOKEN
-0.27075708337784476498200092464685 2:0 3:6 4:0 5:0 7:1 73:1 8465:1 # 20140612022126AAsUT1R Unisex NNP Beauty_&_Style TOKEN
-0.27000489060118265660648262382892 2:0 3:6 4:0 5:0 7:1 73:1 11399:1 # 20140611234202AAi9C6B Indian NNP Dining_Out TOKEN
-0.5 2:0 3:5 4:0 5:0 7:1 73:1 807:1 # 20140616154757AA3uubn White NNP News_&_Events TOKEN
0.5 2:0 3:7 4:0 5:0 7:1 73:1 13657:1 # 20140610222206AAaaj3T Alberta NNP News_&_Events LOCATION
0.5 2:0 3:6 4:0 5:0 7:1 73:1 15215:1 # 20140610123048AAZOuhW Garden NNP Politics_&_Government LOCATION
0.5 2:0 3:7 4:0 5:0 7:1 73:1 14423:1 # 20140603004555AAv1K5X Journal NNP Politics_&_Government ORGANIZATION
0.5 2:1 3:9 4:0 5:0 7:1 73:1 11376:1 # 20140623125801AASUucg Starbucks NNP Food_&_Drink ORGANIZATION
-0.27069363605447094300870958250016 2:0 3:4 4:0 5:0 7:1 73:1 5211:1 # 20140614004826AAWj9IB Club NNP Entertainment_&_Music TOKEN
-0.090557334328995153782670968212187 2:0 3:4 4:0 5:0 7:1 26:1 4778:1 # 20140615190614AAf5U3D Dual JJ Education_&_Reference TOKEN
0.5 2:0 3:89 4:0 5:1 7:0 26:1 10552:1 # 20140608182325AAmvy1Q http:##www.cyberdriveillinois.com#departments#drivers#drivers_license#drlicid.html#mcylic JJ Cars_&_Transportation LOCATION
-0.5 2:0 3:6 4:0 5:1 7:0 8:1 1441:1 # 20140604115540AAQrGu2 google NN Travel TOKEN
-0.5 2:0 3:7 4:0 5:0 7:0 73:1 3594:1 # 20140622080843AAfcL4m YouTube NNP Pets TOKEN
0.5 2:0 3:8 4:0 5:0 7:0 73:1 10495:1 # 20140623072617AAIXida McDonald NNP Dining_Out ORGANIZATION
0.5 2:0 3:6 4:0 5:0 7:1 73:1 12374:1 # 20140601134625AAPRFLP Target NNP Home_&_Garden ORGANIZATION
0.5 2:0 3:6 4:0 5:0 7:1 73:1 11147:1 # 20140622025924AAbvcWQ London NNP Travel LOCATION
0.5 2:0 3:6 4:0 5:0 7:1 73:1 3931:1 # 20140607080221AAia755 Google NNP Science_&_Mathematics ORGANIZATION
0.5 2:0 3:4 4:0 5:1 7:0 8:1 13833:1 # 20140607125905AA2JtXv army NN Politics_&_Government ORGANIZATION
0.5 2:0 3:5 4:0 5:1 7:0 8:1 7374:1 # 20140606132641AA7YK9b yahoo NN Yahoo!_Products ORGANIZATION
-0.5 2:0 3:5 4:0 5:0 7:1 73:1 7488:1 # 20140601163915AAS8CzR Yahoo NNP Family_&_Relationships TOKEN
0.5 2:1 3:8 4:0 5:0 7:1 73:1 8461:1 # 20140612022126AAsUT1R Aviators NNP Beauty_&_Style ORGANIZATION
-0.5 2:0 3:4 4:0 5:0 7:1 73:1 8152:1 # 20140613180332AA3jCxr Iraq NNP News_&_Events TOKEN
0.5 2:0 3:7 4:0 5:1 7:0 43:1 8739:1 # 20140612145554AAjlhJX america VBP Beauty_&_Style LOCATION
-0.5 2:0 3:4 4:0 5:0 7:1 73:1 5211:1 # 20140614004826AAWj9IB Club NNP Entertainment_&_Music TOKEN
0.5 2:0 3:8 4:0 5:0 7:0 73:1 11334:1 # 20140616143448AAdU6Ze In-N-Out NNP Dining_Out ORGANIZATION
0.5 2:0 3:7 4:0 5:0 7:0 73:1 3594:1 # 20140615230550AAzCluq YouTube NNP Computer_&_Internet ORGANIZATION
-0.5 2:0 3:6 4:0 5:1 7:0 8:1 1441:1 # 20140604115540AAQrGu2 google NN Travel TOKEN
0.5 2:0 3:6 4:0 5:0 7:1 73:1 14294:1 # 20140621045509AAck6mP Saddam NNP News_&_Events PERSON
0.5 2:1 3:6 4:0 5:1 7:0 8:1 5762:1 # 20140605140138AAyDVJY barros NN Entertainment_&_Music PERSON
-0.5 2:0 3:5 4:0 5:0 7:1 73:1 807:1 # 20140620035947AAeYEbM White NNP Local_Businesses TOKEN
0.5 2:0 3:4 4:0 5:0 7:1 73:1 1627:1 # 20140613214814AARwXS4 King NNP Local_Businesses ORGANIZATION
0.5 2:0 3:4 4:0 5:0 7:1 73:1 262:1 # 20140617074422AANUT7h John NNP Arts_&_Humanities PERSON
0.5 2:0 3:11 4:0 5:0 7:1 73:1 3281:1 # 20140601093053AA6zdEg Pentonville NNP Business_&_Finance LOCATION
0.5 2:0 3:7 4:0 5:1 7:0 8:1 7797:1 # 20140605081144AAuazx4 michael NN Science_&_Mathematics PERSON
-0.5 2:0 3:7 4:0 5:0 7:0 73:1 3594:1 # 20140615210245AAjCZ2q YouTube NNP Consumer_Electronics TOKEN
-0.27070397522675460066921004909091 2:0 3:4 4:0 5:0 7:1 73:1 8152:1 # 20140625120602AAXWOm0 Iraq NNP Science_&_Mathematics TOKEN
0.5 2:0 3:9 4:0 5:0 7:0 73:1 18950:1 # 20140611001634AAefV9p AnnaMaria NNP Pregnancy_&_Parenting PERSON
0.5 2:0 3:7 4:0 5:0 7:0 73:1 3594:1 # 20140615230550AAzCluq YouTube NNP Computer_&_Internet ORGANIZATION
-0.27065668064880732401888963067904 2:0 3:4 4:0 5:0 7:1 73:1 5268:1 # 20140604115540AAQrGu2 Snow NNP Travel TOKEN
0.5 2:1 3:6 4:0 5:0 7:1 73:1 4481:1 # 20140618125641AAGkGpi Hughes NNP Education_&_Reference PERSON
0.5 2:0 3:7 4:0 5:1 7:0 8:1 3646:1 # 20140626111642AAP80Gv youtube NN Computer_&_Internet ORGANIZATION
-0.5 2:0 3:5 4:0 5:0 7:1 73:1 7488:1 # 20140601163915AAS8CzR Yahoo NNP Family_&_Relationships TOKEN
0.5 2:0 3:7 4:0 5:1 7:0 8:1 15221:1 # 20140610123048AAZOuhW taliban NN Politics_&_Government ORGANIZATION
0.5 2:1 3:4 4:1 5:0 7:0 73:1 13003:1 # 20140625100949AAuIkTO USPS NNP Local_Businesses ORGANIZATION
0.5 2:0 3:4 4:1 5:0 7:0 73:1 785:1 # 20140617074422AANUT7h H.P. NNP Arts_&_Humanities PERSON
0.5 2:0 3:4 4:1 5:0 7:0 73:1 11304:1 # 20140616143448AAdU6Ze A&W; NNP Dining_Out ORGANIZATION
0.5 2:0 3:4 4:1 5:0 7:0 73:1 1555:1 # 20140625095108AAhxBZ2 E.A. NNP Arts_&_Humanities PERSON
0.5 2:0 3:4 4:1 5:0 7:0 73:1 3768:1 # 20140605225754AA2LJWC ESPN NNP Consumer_Electronics ORGANIZATION
-0.5 2:0 3:4 4:0 5:0 7:1 73:1 5268:1 # 20140604115540AAQrGu2 Snow NNP Travel TOKEN
0.5 2:0 3:6 4:0 5:1 7:0 8:1 11397:1 # 20140616143448AAdU6Ze popeye NN Dining_Out ORGANIZATION
0.5 2:1 3:5 4:0 5:0 7:1 73:1 9342:1 # 20140616154757AA3uubn Armed NNP News_&_Events ORGANIZATION
0.5 2:1 3:6 4:0 5:0 7:1 73:1 11324:1 # 20140623125801AASUucg Donuts NNP Food_&_Drink ORGANIZATION
0.5 2:1 3:6 4:0 5:0 7:1 73:1 14140:1 # 20140620051059AAvmrsV Coates NNP News_&_Events PERSON
0.5 2:0 3:9 4:0 5:1 7:0 8:1 7298:1 # 20140606094406AAvjkJW wikipedia NN Games_&_Recreation ORGANIZATION
0.5 2:0 3:9 4:0 5:1 7:0 8:1 3603:1 # 20140615210245AAjCZ2q microsoft NN Consumer_Electronics ORGANIZATION
0.5 2:0 3:9 4:0 5:1 7:0 8:1 10238:1 # 20140609103954AAB6LY5 sociopath NN News_&_Events ORGANIZATION
0.5 2:0 3:9 4:0 5:1 7:0 8:1 5352:1 # 20140621194648AAv7Pxb bertholdt NN Entertainment_&_Music PERSON
0.5 2:1 3:6 4:0 5:0 7:1 73:1 12442:1 # 20140619072135AAeFu7N United NNP Politics_&_Government LOCATION
-0.5 2:0 3:6 4:0 5:1 7:0 8:1 1441:1 # 20140622072140AAPnIrk google NN Food_&_Drink TOKEN
0.5 2:0 3:10 4:1 5:0 7:0 73:1 3568:1 # 20140614134845AAVhWeg CYBERPOWER NNP Consumer_Electronics ORGANIZATION
-0.5 2:0 3:7 4:0 5:1 7:0 26:1 7383:1 # 20140622011723AAsDjlo western JJ Games_&_Recreation TOKEN
0.5 2:0 3:5 4:0 5:0 7:1 73:1 7488:1 # 20140623183907AAVM1ca Yahoo NNP Yahoo!_Products ORGANIZATION
-0.5 2:1 3:7 4:0 5:0 7:1 73:1 3502:1 # 20140611153520AAksgjY Windows NNP Computer_&_Internet TOKEN
-0.5 2:0 3:4 4:0 5:0 7:1 73:1 262:1 # 20140613111207AAD5YgE John NNP Dining_Out TOKEN
-0.5 2:0 3:7 4:0 5:0 7:1 73:1 14423:1 # 20140625210906AATgayM Journal NNP News_&_Events TOKEN
-0.5 2:1 3:7 4:0 5:0 7:1 123:1 5614:1 # 20140605111442AA4wyqx Answers VBZ Science_&_Mathematics TOKEN
0.5 2:0 3:6 4:0 5:1 7:0 8:1 1441:1 # 20140611153520AAksgjY google NN Computer_&_Internet ORGANIZATION
-0.00062052004918200509564485400915146 2:0 3:6 4:0 5:1 7:0 26:1 8976:1 # 20140621012150AAs9NFo cheeky JJ Home_&_Garden TOKEN
-0.27027798481670650687647139420733 2:0 3:11 4:0 5:0 7:1 73:1 14629:1 # 20140619183644AAkBDn2 Evaporation NNP Pets TOKEN
-0.00060373246375534190752421004333428 2:0 3:6 4:0 5:1 7:0 26:1 476:1 # 20140620222120AA4p1zz single JJ Business_&_Finance TOKEN
0.5 2:0 3:5 4:0 5:0 7:1 73:1 7488:1 # 20140617083049AAe7WzO Yahoo NNP Yahoo!_Products ORGANIZATION
-0.5 2:0 3:4 4:1 5:0 7:0 73:1 13985:1 # 20140612211617AAE6Bis ISIS NNP News_&_Events TOKEN
0.5 2:0 3:4 4:0 5:0 7:1 73:1 1627:1 # 20140613214814AARwXS4 King NNP Local_Businesses ORGANIZATION
-0.49983687535252097067228760352009 2:0 3:4 4:1 5:0 7:0 73:1 4319:1 # 20140610102326AA3pmaG GCSE NNP Education_&_Reference TOKEN
0.5 2:1 3:6 4:0 5:0 7:1 61:1 12443:1 # 20140617203723AAnMv8x States NNPS Politics_&_Government LOCATION
-0.5 2:1 3:7 4:0 5:0 7:1 123:1 5614:1 # 20140601163915AAS8CzR Answers VBZ Family_&_Relationships TOKEN
0.5 2:0 3:5 4:0 5:0 7:1 73:1 807:1 # 20140617074422AANUT7h White NNP Arts_&_Humanities PERSON
-0.32612478534331890145381294132676 2:0 3:4 4:1 5:0 7:0 73:1 5654:1 # 20140617203723AAnMv8x U.S. NNP Politics_&_Government TOKEN
0.5 2:1 3:9 4:0 5:0 7:1 73:1 8460:1 # 20140612022126AAsUT1R Wayfarers NNP Beauty_&_Style ORGANIZATION
0.5 2:1 3:9 4:0 5:0 7:1 73:1 805:1 # 20140617074422AANUT7h Euripides NNP Arts_&_Humanities PERSON
0.5 2:1 3:9 4:0 5:0 7:1 73:1 11307:1 # 20140616143448AAdU6Ze Bojangles NNP Dining_Out ORGANIZATION
-0.5 2:0 3:5 4:0 5:0 7:1 73:1 807:1 # 20140613125219AA2D0JF White NNP Beauty_&_Style TOKEN
0.5 2:0 3:6 4:0 5:1 7:0 8:1 1441:1 # 20140615120022AADbAkK google NN Pets ORGANIZATION
-0.5 2:0 3:6 4:0 5:1 7:0 8:1 1441:1 # 20140622072140AAPnIrk google NN Food_&_Drink TOKEN
-0.011918463303986936985268130229088 2:0 3:3 4:0 5:1 7:0 8:1 8605:1 # 20140604184751AAZzDj5 to6 NN Beauty_&_Style TOKEN
-0.090178064163438875766587443649769 2:1 3:5 4:0 5:1 7:0 73:1 18121:1 # 20140608120927AA1JZcv laden NNP Travel TOKEN
-0.090160290170376633511750696925446 2:1 3:4 4:0 5:1 7:0 73:1 449:1 # 20140606090914AA45noC apps NNP Yahoo!_Products TOKEN
0.5 2:0 3:5 4:0 5:0 7:1 73:1 807:1 # 20140616072209AARwehs White NNP Arts_&_Humanities PERSON
-0.5 2:0 3:5 4:0 5:0 7:1 73:1 807:1 # 20140609103348AAf8tZ6 White NNP News_&_Events TOKEN
-0.026407849501254077040357515215874 2:0 3:8 4:0 5:1 7:0 20:1 9837:1 # 20140606222934AAKFPKy forgetby VBG Social_Science TOKEN
0.5 2:0 3:5 4:0 5:0 7:1 73:1 807:1 # 20140616072209AARwehs White NNP Arts_&_Humanities PERSON
0.5 2:1 3:7 4:0 5:0 7:1 73:1 12802:1 # 20140616200702AA6Pms8 Angeles NNP Local_Businesses LOCATION
0.5 2:1 3:7 4:0 5:0 7:1 73:1 15590:1 # 20140613162326AARvh60 Stevens NNP Politics_&_Government PERSON
0.5 2:1 3:7 4:0 5:0 7:1 73:1 11368:1 # 20140616143448AAdU6Ze Quiznos NNP Dining_Out ORGANIZATION
0.5 2:1 3:7 4:0 5:0 7:1 73:1 3502:1 # 20140614134845AAVhWeg Windows NNP Consumer_Electronics ORGANIZATION
-0.18112584695752431684923067223281 2:0 3:8 4:0 5:1 7:0 73:1 3516:1 # 20140614045845AAdu92x download NNP Computer_&_Internet TOKEN
