SVM-light Version V6.02
0 # kernel type
3 # kernel parameter -d 
1 # kernel parameter -g 
1 # kernel parameter -s 
1 # kernel parameter -r 
empty# kernel parameter -u 
19569 # highest feature index 
69010 # number of training documents 
7923 # number of support vectors plus 1 
1.0712644 # threshold b, each following line is a SV (starting with alpha*y)
-0.056652553564880747671850258484483 2:0 3:8 4:0 5:0 7:1 8:1 13805:1 # 20140616154757AA3uubn Religion NN News_&_Events TOKEN
-0.014892842895136482184170745313168 2:0 3:7 4:0 5:1 7:0 8:1 9932:1 # 20140621092416AArsE0s absence NN Social_Science TOKEN
0.5 2:0 3:6 4:0 5:0 7:1 73:1 15215:1 # 20140610123048AAZOuhW Garden NNP Politics_&_Government LOCATION
0.5 2:0 3:6 4:0 5:0 7:1 73:1 14126:1 # 20140612211617AAE6Bis Bagdad NNP News_&_Events LOCATION
0.5 2:0 3:6 4:0 5:1 7:0 8:1 2991:1 # 20140604131630AAZXrpw yorbin NN Business_&_Finance ORGANIZATION
0.5 2:0 3:6 4:0 5:1 7:0 8:1 15149:1 # 20140626101740AADAK0e obongo NN Politics_&_Government PERSON
0.5 2:0 3:6 4:0 5:0 7:1 73:1 8902:1 # 20140611011232AAoHyfn Lebron NNP Sports PERSON
0.5 2:0 3:4 4:0 5:1 7:0 20:1 3365:1 # 20140616234645AAnbyhx ebay VBG Consumer_Electronics ORGANIZATION
0.5 2:0 3:3 4:0 5:0 7:0 73:1 9571:1 # 20140615224306AASdmOX NbA NNP Sports ORGANIZATION
0.5 2:1 3:6 4:1 5:0 7:0 73:1 3136:1 # 20140601131055AAPxhOP DALLAS NNP Business_&_Finance LOCATION
-0.04252212945348590733551930043177 2:1 3:6 4:0 5:0 7:1 20:1 6593:1 # 20140604115540AAQrGu2 Having VBG Travel TOKEN
-0.042425126376120940452363328176943 2:1 3:5 4:0 5:0 7:1 20:1 4002:1 # 20140605092633AAPkbBp Using VBG Science_&_Mathematics TOKEN
-0.16367836384614520284230820834637 2:0 3:14 4:0 5:0 7:0 73:1 1571:1 # 20140603115701AA0IaWS Fanfiction.net NNP Arts_&_Humanities TOKEN
-0.49639232796999621655231749173254 2:0 3:3 4:0 5:1 7:0 26:1 31:1 # 20140607053946AAkMdTv new JJ Social_Science TOKEN
0.5 2:0 3:3 4:0 5:0 7:1 24:1 729:1 # 20140623022611AAddTaJ The DT Sports PERSON
-0.18297336192803315135790853673825 2:1 3:10 4:0 5:0 7:1 73:1 5180:1 # 20140614004826AAWj9IB Intentions NNP Entertainment_&_Music TOKEN
-0.013990497550842917462432524189353 2:0 3:2 4:0 5:1 7:0 8:1 712:1 # 20140618192549AAzYXYR de NN Social_Science TOKEN
-0.09170978805115481691245804540813 2:0 3:3 4:1 5:0 7:0 73:1 18929:1 # 20140617132235AAkTTzS MIN NNP Computer_&_Internet TOKEN
-0.04242512637615140913549538481675 2:1 3:5 4:0 5:0 7:1 20:1 5014:1 # 20140619114039AAjxNQW Being VBG Food_&_Drink TOKEN
-0.016499775944558203732981382927392 2:0 3:7 4:0 5:1 7:0 8:1 11079:1 # 20140610190716AAGOR0h chicken NN Dining_Out TOKEN
-0.0013425864850091784319374710321426 2:0 3:5 4:0 5:1 7:0 8:1 7102:1 # 20140610162943AA8McBJ crime NN Games_&_Recreation TOKEN
0.5 2:0 3:5 4:0 5:1 7:0 8:1 7374:1 # 20140623012422AAMYwQO yahoo NN Yahoo!_Products ORGANIZATION
-0.063531533642475324086262844502926 2:0 3:4 4:0 5:0 7:1 88:1 1412:1 # 20140605223141AA4aNVu Maze VB Arts_&_Humanities TOKEN
-0.014163479168777776129317658160289 2:0 3:5 4:0 5:1 7:0 8:1 9014:1 # 20140603020037AAlyzyA train NN Travel TOKEN
-0.0095583965718821772838964534457773 2:0 3:5 4:0 5:1 7:0 8:1 5688:1 # 20140609063130AAx8NAT range NN Computer_&_Internet TOKEN
-0.063521102321216993402686057379469 2:0 3:4 4:0 5:0 7:1 88:1 13867:1 # 20140616154757AA3uubn Wake VB News_&_Events TOKEN
-0.013916820019243825168331341046724 2:0 3:6 4:0 5:1 7:0 8:1 8710:1 # 20140616230524AAedd2r parent NN Beauty_&_Style TOKEN
0.5 2:0 3:3 4:0 5:1 7:0 32:1 73:1 # 20140616143448AAdU6Ze and NNP Dining_Out ORGANIZATION
0.5 2:0 3:3 4:0 5:0 7:1 73:1 2656:1 # 20140617134810AAX61tb New NNP Travel LOCATION
0.5 2:1 3:6 4:0 5:0 7:1 61:1 9343:1 # 20140616154757AA3uubn Forces NNPS News_&_Events ORGANIZATION
0.5 2:0 3:4 4:0 5:0 7:1 73:1 15457:1 # 20140617193722AA5emAo Lois NNP Politics_&_Government PERSON
0.5 2:0 3:8 4:0 5:0 7:1 73:1 3930:1 # 20140603005221AAThPnj Motolora NNP Consumer_Electronics ORGANIZATION
0.5 2:1 3:2 4:1 5:0 7:0 16:1 2475:1 # 20140613214814AARwXS4 US PRP Local_Businesses LOCATION
-0.5 2:0 3:2 4:0 5:0 7:1 22:1 608:1 # 20140606075218AAmnm1s My PRP$ Entertainment_&_Music TOKEN
0.5 2:1 3:4 4:1 5:0 7:0 73:1 13003:1 # 20140610194612AA31tgA USPS NNP Local_Businesses ORGANIZATION
-0.168140297028738783247092669626 2:1 3:2 4:0 5:0 7:1 73:1 2354:1 # 20140609035939AA1Gfsp Rs NNP Business_&_Finance TOKEN
-0.044842127392227482118869374971837 2:0 3:2 4:0 5:1 7:0 20:1 13195:1 # 20140616160832AA467zb y' VBG Family_&_Relationships TOKEN
-0.04728809038128667374678570922697 2:0 3:3 4:1 5:0 7:0 73:1 18746:1 # 20140623193424AAEouJN ATX NNP Computer_&_Internet TOKEN
-0.1827736434147573807429409953329 2:1 3:2 4:0 5:0 7:1 73:1 247:1 # 20140623022611AAddTaJ Am NNP Sports TOKEN
-0.042492119539760633828429092773149 2:1 3:5 4:0 5:0 7:1 20:1 8360:1 # 20140610112505AAhGjYL Going VBG Dining_Out TOKEN
-0.26251561663237793498026917404786 2:0 3:4 4:0 5:0 7:1 73:1 14550:1 # 20140613073945AAjr9GV Worm NNP Pets TOKEN
0.5 2:0 3:2 4:1 5:0 7:0 8:1 5530:1 # 20140617203632AANuG3B DC NN Entertainment_&_Music ORGANIZATION
-0.084645098123388384792065153305884 2:0 3:4 4:0 5:0 7:1 24:1 550:1 # 20140614122338AAHL8sn Some DT Arts_&_Humanities TOKEN
-0.49984584086448369255606394290226 2:0 3:3 4:0 5:1 7:0 32:1 73:1 # 20140625140958AAG0wQK and NNP Beauty_&_Style TOKEN
0.5 2:0 3:89 4:0 5:1 7:0 26:1 10552:1 # 20140608182325AAmvy1Q http:##www.cyberdriveillinois.com#departments#drivers#drivers_license#drlicid.html#mcylic JJ Cars_&_Transportation LOCATION
0.5 2:1 3:9 4:0 5:1 7:0 8:1 11112:1 # 20140622003739AAdUNRt mcdonalds NN Dining_Out ORGANIZATION
-0.5 2:0 3:4 4:0 5:1 7:0 8:1 3365:1 # 20140605231104AAm8fzJ ebay NN Politics_&_Government TOKEN
-0.02636630665303169723800991164353 2:0 3:3 4:1 5:0 7:0 73:1 2343:1 # 20140609035939AA1Gfsp PAN NNP Business_&_Finance TOKEN
0.5 2:0 3:3 4:0 5:1 7:0 32:1 73:1 # 20140616143448AAdU6Ze and NNP Dining_Out ORGANIZATION
-0.1907706391168017823201097371566 2:0 3:1 4:1 5:0 7:1 73:1 445:1 # 20140615190614AAf5U3D C NNP Education_&_Reference TOKEN
-0.19077063911678104890512486235821 2:0 3:1 4:1 5:0 7:1 73:1 429:1 # 20140607141649AANF6Tv A NNP Consumer_Electronics TOKEN
0.5 2:0 3:11 4:0 5:1 7:0 8:1 15600:1 # 20140617203723AAnMv8x brotherhood NN Politics_&_Government ORGANIZATION
0.5 2:0 3:11 4:0 5:1 7:0 8:1 9169:1 # 20140623155342AAYpGzf bridgestone NN Sports ORGANIZATION
-0.26455246713247149159542459528893 2:0 3:2 4:0 5:0 7:1 73:1 12930:1 # 20140622225954AAAlKMt Mr NNP Local_Businesses TOKEN
0.5 2:0 3:12 4:1 5:0 7:0 73:1 3558:1 # 20140614134845AAVhWeg CYBERPOWERPC NNP Consumer_Electronics ORGANIZATION
-0.26275988798183647077166824601591 2:0 3:3 4:0 5:0 7:1 73:1 10718:1 # 20140611152558AA4un22 Cam NNP Cars_&_Transportation TOKEN
-0.0033498018644309013325255364179611 2:1 3:3 4:0 5:0 7:1 123:1 2665:1 # 20140607110538AAO6Auo Has VBZ Computer_&_Internet TOKEN
-0.023852968720769140986703860107809 2:0 3:2 4:0 5:1 7:0 73:1 149:1 # 20140601130859AAHxybZ in NNP Sports TOKEN
0.5 2:0 3:1 4:1 5:0 7:1 8:1 720:1 # 20140616143448AAdU6Ze D NN Dining_Out ORGANIZATION
0.5 2:0 3:3 4:0 5:1 7:0 30:1 292:1 # 20140605040256AAru12G out IN Entertainment_&_Music PERSON
-0.47881514532904906333854455624532 2:0 3:1 4:1 5:0 7:1 15:1 720:1 # 20140605214704AAzq0fk D . Health TOKEN
0.5 2:1 3:6 4:0 5:0 7:1 61:1 12443:1 # 20140607191241AAICEVB States NNPS Home_&_Garden LOCATION
0.5 2:1 3:6 4:0 5:0 7:1 61:1 12380:1 # 20140601134625AAPRFLP Sallys NNPS Home_&_Garden ORGANIZATION
0.5 2:1 3:6 4:0 5:0 7:1 61:1 15074:1 # 20140617015321AAEmy38 Masons NNPS Politics_&_Government PERSON
0.5 2:0 3:2 4:0 5:1 7:0 12:1 3151:1 # 20140613111831AABRhzn al NNS News_&_Events ORGANIZATION
-0.00081270878752093267394229769706726 2:0 3:4 4:0 5:1 7:0 8:1 2221:1 # 20140612062149AAH8vjl team NN Arts_&_Humanities TOKEN
-0.012474214059928045994496415005415 2:1 3:6 4:0 5:0 7:1 8:1 13039:1 # 20140620172230AAfuPAg Timing NN Local_Businesses TOKEN
-0.012283885510457670520167994254734 2:1 3:7 4:0 5:0 7:1 8:1 19509:1 # 20140609172302AAjgqUA Editing NN Yahoo!_Products TOKEN
-0.012275733331283289473390141210984 2:1 3:7 4:0 5:0 7:1 8:1 11014:1 # 20140616073715AA0e9si Meaning NN Cars_&_Transportation TOKEN
-0.011591935752154114425138686783612 2:1 3:4 4:1 5:0 7:0 73:1 18552:1 # 20140608132523AAWfvBH SATA NNP Computer_&_Internet TOKEN
-0.024056080203825214169910395867191 2:0 3:4 4:0 5:0 7:1 30:1 4067:1 # 20140613180332AA3jCxr From IN News_&_Events TOKEN
-0.5 2:1 3:6 4:0 5:0 7:1 61:1 9343:1 # 20140614220006AA90c02 Forces NNPS Sports TOKEN
0.5 2:0 3:10 4:0 5:0 7:1 73:1 10644:1 # 20140625110415AAjpx1n Washington NNP Cars_&_Transportation LOCATION
0.5 2:0 3:10 4:0 5:0 7:1 73:1 4394:1 # 20140619105821AAuioIb University NNP Education_&_Reference ORGANIZATION
0.5 2:0 3:7 4:0 5:0 7:1 26:1 14010:1 # 20140609103954AAB6LY5 Zionist JJ News_&_Events ORGANIZATION
0.5 2:0 3:7 4:0 5:0 7:1 26:1 8190:1 # 20140625120602AAXWOm0 Kurdish JJ Science_&_Mathematics LOCATION
0.5 2:0 3:5 4:0 5:0 7:1 26:1 11375:1 # 20140616143448AAdU6Ze Sonic JJ Dining_Out ORGANIZATION
0.5 2:0 3:2 4:0 5:0 7:1 30:1 2509:1 # 20140605040256AAru12G At IN Entertainment_&_Music PERSON
0.5 2:0 3:6 4:0 5:1 7:0 20:1 359:1 # 20140622080843AAfcL4m tumblr VBG Pets ORGANIZATION
0.5 2:1 3:5 4:0 5:1 7:0 123:1 2184:1 # 20140615091428AA1nGW3 falls VBZ Local_Businesses LOCATION
-0.5 2:0 3:2 4:0 5:0 7:1 30:1 2509:1 # 20140609172302AAjgqUA At IN Yahoo!_Products TOKEN
0.5 2:1 3:5 4:0 5:1 7:0 12:1 19123:1 # 20140601002604AAq45X7 hicks NNS Pregnancy_&_Parenting PERSON
-0.271018807624682944723559785416 2:0 3:1 4:0 5:0 7:0 630:1 631:1 # 20140608090153AAQx192 # # Education_&_Reference TOKEN
-0.26203626298947835238095649401657 2:0 3:5 4:0 5:0 7:1 73:1 19086:1 # 20140607064609AA5EKx9 Felix NNP Pregnancy_&_Parenting TOKEN
0.5 2:0 3:2 4:0 5:0 7:1 30:1 2509:1 # 20140605040256AAru12G At IN Entertainment_&_Music PERSON
0.5 2:1 3:2 4:1 5:0 7:0 16:1 2475:1 # 20140613214814AARwXS4 US PRP Local_Businesses LOCATION
-0.5 2:0 3:3 4:0 5:0 7:1 73:1 2656:1 # 20140609221937AAH7tge New NNP Travel TOKEN
0.5 2:0 3:2 4:1 5:0 7:0 73:1 3507:1 # 20140604083714AANM1Br CA NNP Education_&_Reference LOCATION
-0.091016490505324121329522313317284 2:0 3:2 4:1 5:0 7:0 73:1 7862:1 # 20140610222206AAaaj3T AB NNP News_&_Events TOKEN
0.5 2:0 3:2 4:1 5:0 7:0 73:1 3408:1 # 20140625120602AAXWOm0 UK NNP Science_&_Mathematics LOCATION
0.5 2:0 3:7 4:0 5:0 7:1 73:1 4118:1 # 20140611153858AAK05v1 Walmart NNP Sports ORGANIZATION
-0.091203971330052424626444462774089 2:0 3:7 4:1 5:0 7:0 73:1 18548:1 # 20140608132523AAWfvBH A6-3600 NNP Computer_&_Internet TOKEN
0.5 2:0 3:3 4:0 5:0 7:1 73:1 2656:1 # 20140625072412AAUASEG New NNP Yahoo!_Products LOCATION
-0.5 2:0 3:6 4:0 5:0 7:1 73:1 8902:1 # 20140615224306AASdmOX Lebron NNP Sports TOKEN
0.5 2:0 3:9 4:0 5:1 7:0 8:1 5352:1 # 20140621194648AAv7Pxb bertholdt NN Entertainment_&_Music PERSON
-0.014700293479837256427344982512295 2:0 3:5 4:0 5:1 7:0 8:1 18055:1 # 20140617213812AAnm3nS grind NN Travel TOKEN
-0.091874798193614992669608909636736 2:0 3:5 4:1 5:0 7:0 73:1 8061:1 # 20140601043856AAIunch H2SO4 NNP Science_&_Mathematics TOKEN
-0.063014895179093199928388457919937 2:0 3:4 4:0 5:0 7:1 88:1 10870:1 # 20140608155422AAGg2Wt Want VB Pregnancy_&_Parenting TOKEN
-0.062660014765917509960146958292171 2:0 3:4 4:0 5:0 7:1 88:1 10563:1 # 20140608001904AAVKEC5 Move VB Computer_&_Internet TOKEN
-0.26207867973438958575371771075879 2:0 3:7 4:0 5:0 7:1 73:1 19336:1 # 20140614035657AABax4K Manager NNP Yahoo!_Products TOKEN
0.5 2:1 3:3 4:1 5:0 7:0 73:1 14427:1 # 20140617191218AAiEBHA CBS NNP News_&_Events ORGANIZATION
0.5 2:1 3:3 4:1 5:0 7:0 73:1 12376:1 # 20140601134625AAPRFLP CVS NNP Home_&_Garden ORGANIZATION
0.5 2:0 3:7 4:0 5:1 7:0 26:1 7383:1 # 20140614114159AAxmnir western JJ Travel LOCATION
-0.5 2:1 3:2 4:1 5:0 7:0 73:1 2475:1 # 20140619105821AAuioIb US NNP Education_&_Reference TOKEN
-0.011541016714838210621696390489888 2:1 3:2 4:1 5:0 7:0 73:1 9229:1 # 20140615215502AAWIjLB SS NNP Local_Businesses TOKEN
-0.18469167417919152285321615636349 2:0 3:1 4:0 5:1 7:0 73:1 896:1 # 20140615210245AAjCZ2q u NNP Consumer_Electronics TOKEN
-0.18460377451189097230965785456647 2:0 3:1 4:0 5:1 7:0 73:1 251:1 # 20140614035657AABax4K i NNP Yahoo!_Products TOKEN
-0.18469167417920218099425255786628 2:0 3:1 4:0 5:1 7:0 73:1 1159:1 # 20140601100338AAUfBLz b NNP News_&_Events TOKEN
-0.18469958248546802792589005548507 2:0 3:1 4:0 5:1 7:0 73:1 2518:1 # 20140601130859AAHxybZ y NNP Sports TOKEN
0.5 2:0 3:4 4:0 5:0 7:1 73:1 13473:1 # 20140620214550AA74tKP Mike NNP News_&_Events PERSON
-0.49760273253421594130685434720363 2:0 3:2 4:0 5:0 7:1 30:1 2509:1 # 20140625175128AAldtwC At IN Food_&_Drink TOKEN
0.5 2:0 3:4 4:0 5:1 7:0 73:1 3365:1 # 20140614220309AAJTZNt ebay NNP Computer_&_Internet ORGANIZATION
0.5 2:0 3:3 4:0 5:1 7:0 30:1 292:1 # 20140605040256AAru12G out IN Entertainment_&_Music PERSON
0.5 2:1 3:6 4:0 5:0 7:1 73:1 12442:1 # 20140626142532AAHm2Mx United NNP Pets ORGANIZATION
-0.014744614195608463091957673896104 2:0 3:5 4:0 5:1 7:0 8:1 10338:1 # 20140620180056AARv7Hs ofthe NN Social_Science TOKEN
-0.049074061680920190442467543334715 2:0 3:7 4:1 5:0 7:0 73:1 3553:1 # 20140614134845AAVhWeg CPHD500 NNP Consumer_Electronics TOKEN
-0.1131532346016683732159435749054 2:0 3:2 4:0 5:1 7:0 73:1 149:1 # 20140604083714AANM1Br in NNP Education_&_Reference TOKEN
-0.022761150578725419107994909495574 2:0 3:5 4:0 5:0 7:1 30:1 4752:1 # 20140605140138AAyDVJY Until IN Entertainment_&_Music TOKEN
0.5 2:1 3:4 4:1 5:0 7:0 73:1 13003:1 # 20140625100949AAuIkTO USPS NNP Local_Businesses ORGANIZATION
0.5 2:1 3:3 4:1 5:0 7:0 73:1 15277:1 # 20140625082631AAcgyMl IRS NNP Politics_&_Government ORGANIZATION
0.5 2:1 3:3 4:1 5:0 7:0 73:1 9297:1 # 20140626152929AAvb2mt SFS NNP Sports ORGANIZATION
-0.5 2:1 3:3 4:1 5:0 7:0 73:1 15277:1 # 20140617193722AA5emAo IRS NNP Politics_&_Government TOKEN
0.5 2:0 3:5 4:0 5:1 7:0 26:1 5739:1 # 20140615224306AASdmOX green JJ Sports PERSON
0.5 2:1 3:6 4:0 5:1 7:0 123:1 13880:1 # 20140617033632AAaS0SQ spears VBZ News_&_Events PERSON
-0.5 2:0 3:4 4:0 5:1 7:0 8:1 3365:1 # 20140610194612AA31tgA ebay NN Local_Businesses TOKEN
-0.26273248010216176950848421256524 2:0 3:2 4:0 5:0 7:1 73:1 11293:1 # 20140615191331AAdpnmg Ya NNP Dining_Out TOKEN
-0.025740388773617173256980095175095 2:0 3:5 4:0 5:1 7:0 20:1 10734:1 # 20140611152558AA4un22 brite VBG Cars_&_Transportation TOKEN
0.5 2:0 3:12 4:0 5:1 7:0 26:1 3256:1 # 20140601093053AA6zdEg fakeiduk.com JJ Business_&_Finance ORGANIZATION
0.5 2:0 3:11 4:0 5:0 7:0 73:1 11315:1 # 20140616143448AAdU6Ze Chick-fil-A NNP Dining_Out ORGANIZATION
-0.091696364121286677573152701370418 2:0 3:3 4:1 5:0 7:0 73:1 250:1 # 20140608034752AAWHbyf YES NNP Arts_&_Humanities TOKEN
0.5 2:0 3:11 4:0 5:0 7:1 73:1 11382:1 # 20140616143448AAdU6Ze Whataburger NNP Dining_Out ORGANIZATION
-0.49958069728189391511818939761724 2:0 3:2 4:0 5:1 7:0 73:1 3151:1 # 20140618192549AAzYXYR al NNP Social_Science TOKEN
-0.081427014575774503413185811950825 2:0 3:6 4:0 5:0 7:1 26:1 3858:1 # 20140616102135AAM363A Normal JJ Pets TOKEN
0.5 2:0 3:4 4:0 5:0 7:1 73:1 11377:1 # 20140616143448AAdU6Ze Bell NNP Dining_Out ORGANIZATION
-0.049082663968851636404622240661411 2:0 3:4 4:1 5:0 7:0 73:1 8059:1 # 20140601043856AAIunch EACH NNP Science_&_Mathematics TOKEN
-0.014738557074599256679903191979975 2:0 3:5 4:0 5:1 7:0 8:1 1123:1 # 20140617193722AA5emAo world NN Politics_&_Government TOKEN
-0.18483232927020409874785400461406 2:0 3:2 4:0 5:1 7:0 73:1 533:1 # 20140611204210AAPJj1y go NNP Business_&_Finance TOKEN
-0.0021569081787217170287362932867836 2:0 3:4 4:0 5:0 7:1 49:1 706:1 # 20140607184544AAxrzQb Okay UH Beauty_&_Style TOKEN
0.5 2:0 3:6 4:0 5:1 7:0 20:1 14023:1 # 20140601100338AAUfBLz hitler VBG News_&_Events PERSON
-0.014668588518645719886990264058113 2:0 3:4 4:0 5:1 7:0 8:1 7867:1 # 20140621012150AAs9NFo crap NN Home_&_Garden TOKEN
-0.5 2:0 3:10 4:0 5:1 7:0 8:1 2204:1 # 20140612062149AAH8vjl government NN Arts_&_Humanities TOKEN
-0.5 2:0 3:7 4:0 5:0 7:1 73:1 4292:1 # 20140617203723AAnMv8x Georgia NNP Politics_&_Government TOKEN
-0.26228236462423876185212634482014 2:0 3:7 4:0 5:0 7:1 73:1 14419:1 # 20140625210906AATgayM Commons NNP News_&_Events TOKEN
0.5 2:1 3:2 4:1 5:0 7:0 16:1 2475:1 # 20140605225754AA2LJWC US PRP Consumer_Electronics LOCATION
-0.084698196208421783204300936631626 2:0 3:4 4:0 5:0 7:1 24:1 4070:1 # 20140622085925AAdFLbE Each DT Science_&_Mathematics TOKEN
0.5 2:0 3:10 4:0 5:1 7:0 8:1 5172:1 # 20140614004826AAWj9IB wonderland NN Entertainment_&_Music LOCATION
-0.18488587878870799130481827887706 2:0 3:2 4:0 5:1 7:0 73:1 188:1 # 20140620213457AAI59UA if NNP Computer_&_Internet TOKEN
-0.091616543415447893039527116343379 2:0 3:2 4:1 5:0 7:0 73:1 5097:1 # 20140609063130AAx8NAT GB NNP Computer_&_Internet TOKEN
0.5 2:0 3:6 4:0 5:1 7:0 8:1 8749:1 # 20140612145554AAjlhJX brazil NN Beauty_&_Style LOCATION
0.5 2:0 3:4 4:0 5:1 7:0 8:1 487:1 # 20140620035947AAeYEbM area NN Local_Businesses LOCATION
-0.091720196362075512297451496124268 2:0 3:3 4:1 5:0 7:0 73:1 6458:1 # 20140609175346AAWw6PO WAY NNP Home_&_Garden TOKEN
0.5 2:0 3:4 4:0 5:1 7:0 8:1 13833:1 # 20140611151627AAmAEbQ army NN Politics_&_Government ORGANIZATION
-0.026568210204974240795650075597223 2:1 3:9 4:0 5:0 7:1 20:1 9514:1 # 20140618103521AAfeF87 Depending VBG Dining_Out TOKEN
-0.042687293182000339564208246656563 2:1 3:9 4:0 5:0 7:1 20:1 7665:1 # 20140605092633AAPkbBp Expanding VBG Science_&_Mathematics TOKEN
0.5 2:0 3:9 4:1 5:0 7:0 73:1 13026:1 # 20140610194612AA31tgA ENGLEWOOD NNP Local_Businesses LOCATION
0.5 2:0 3:1 4:0 5:0 7:0 630:1 631:1 # 20140605034309AAV7PuK # # Consumer_Electronics PERSON
-0.029466138605798497529519863746827 2:0 3:9 4:0 5:0 7:1 30:1 11937:1 # 20140626031053AAyXCcP Alongside IN Food_&_Drink TOKEN
-0.013771255453983414704377530313195 2:0 3:2 4:0 5:1 7:0 8:1 859:1 # 20140605210007AAoMB1b we NN Home_&_Garden TOKEN
-0.49673724111903799771639000937284 2:0 3:1 4:0 5:0 7:0 630:1 631:1 # 20140625120602AAXWOm0 # # Science_&_Mathematics TOKEN
0.5 2:1 3:4 4:0 5:0 7:1 12:1 8743:1 # 20140616143448AAdU6Ze Guys NNS Dining_Out ORGANIZATION
0.5 2:1 3:4 4:0 5:1 7:0 45:1 847:1 # 20140601162630AAuDjDG laid VBN Sports ORGANIZATION
0.5 2:0 3:4 4:0 5:1 7:0 20:1 8143:1 # 20140625120602AAXWOm0 iraq VBG Science_&_Mathematics LOCATION
-0.5 2:0 3:2 4:1 5:0 7:0 73:1 3408:1 # 20140608120927AA1JZcv UK NNP Travel TOKEN
-0.091912474361383722509799554245546 2:0 3:5 4:1 5:0 7:0 73:1 19356:1 # 20140608060520AAMzqLw BASIC NNP Yahoo!_Products TOKEN
-0.18484624520335812825067023368319 2:0 3:2 4:0 5:1 7:0 73:1 147:1 # 20140619183644AAkBDn2 at NNP Pets TOKEN
-0.18483232927016324254054779885337 2:0 3:2 4:0 5:1 7:0 73:1 9613:1 # 20140618192549AAzYXYR en NNP Social_Science TOKEN
0.5 2:0 3:6 4:0 5:0 7:1 73:1 14381:1 # 20140614114159AAxmnir Arabia NNP Travel LOCATION
-0.0008132441039379045832902193069458 2:0 3:5 4:0 5:1 7:0 8:1 11806:1 # 20140617130308AAqDdcG hotel NN Travel TOKEN
-0.081552835713580407173139974474907 2:0 3:11 4:0 5:0 7:1 26:1 7936:1 # 20140608075953AADKMro Traditional JJ Dining_Out TOKEN
-0.5 2:0 3:2 4:1 5:0 7:0 73:1 3408:1 # 20140608120927AA1JZcv UK NNP Travel TOKEN
0.5 2:0 3:1 4:0 5:0 7:0 630:1 631:1 # 20140605034309AAV7PuK # # Consumer_Electronics PERSON
-0.42121033659082840472365205641836 2:1 3:4 4:0 5:1 7:0 45:1 847:1 # 20140610102038AAX5RlB laid VBN Pets TOKEN
-0.5 2:1 3:4 4:0 5:0 7:1 12:1 8743:1 # 20140607184544AAxrzQb Guys NNS Beauty_&_Style TOKEN
-0.42781462974012551825353511958383 2:1 3:9 4:0 5:1 7:0 12:1 8260:1 # 20140608143112AAz8XEx engineers NNS Yahoo!_Products TOKEN
0.5 2:0 3:7 4:0 5:1 7:0 26:1 2720:1 # 20140611170153AAHPuYj scarlet JJ Education_&_Reference PERSON
0.5 2:0 3:6 4:0 5:1 7:0 26:1 13789:1 # 20140617203723AAnMv8x muslim JJ Politics_&_Government ORGANIZATION
0.5 2:0 3:2 4:0 5:1 7:0 73:1 149:1 # 20140616143448AAdU6Ze in NNP Dining_Out ORGANIZATION
-0.081240103479927938678883947432041 2:0 3:3 4:0 5:0 7:1 26:1 5849:1 # 20140613124158AAH0KXB Rei JJ Entertainment_&_Music TOKEN
-0.081229836223549511942110257223248 2:0 3:3 4:0 5:0 7:1 26:1 1100:1 # 20140611185044AABR6jn Bad JJ Family_&_Relationships TOKEN
-0.0088470282629883045810714747858583 2:0 3:4 4:0 5:1 7:0 43:1 643:1 # 20140612062149AAH8vjl suck VBP Arts_&_Humanities TOKEN
-0.26287269912383948167189373634756 2:0 3:4 4:0 5:0 7:1 73:1 5735:1 # 20140607014708AAKJo8F Dont NNP Pregnancy_&_Parenting TOKEN
0.5 2:1 3:9 4:0 5:0 7:0 73:1 7069:1 # 20140613111207AAD5YgE McDonalds NNP Dining_Out ORGANIZATION
-0.020544009003954692704763118626943 2:0 3:1 4:0 5:1 7:0 123:1 3812:1 # 20140625210906AATgayM s VBZ News_&_Events TOKEN
-0.009123876843993627971940441057086 2:0 3:4 4:0 5:1 7:0 43:1 635:1 # 20140614070914AAwpQqi live VBP Consumer_Electronics TOKEN
-0.0018493414158489152043784997658804 2:0 3:6 4:0 5:1 7:0 26:1 1823:1 # 20140616193752AA6M8Z0 wooden JJ Arts_&_Humanities TOKEN
-0.019976125207740835776348831132054 2:0 3:2 4:0 5:1 7:0 123:1 344:1 # 20140611180906AAGf9fM no VBZ Education_&_Reference TOKEN
-0.0091151554234443210589233785867691 2:0 3:4 4:0 5:1 7:0 43:1 9391:1 # 20140614220006AA90c02 ride VBP Sports TOKEN
0.5 2:1 3:9 4:0 5:1 7:0 12:1 8260:1 # 20140611151627AAmAEbQ engineers NNS Politics_&_Government ORGANIZATION
0.5 2:0 3:5 4:0 5:0 7:1 88:1 8800:1 # 20140615215028AAGmoaM Leave VB Sports PERSON
0.5 2:0 3:4 4:0 5:0 7:1 88:1 5589:1 # 20140605040256AAru12G Kill VB Entertainment_&_Music PERSON
0.5 2:0 3:8 4:0 5:0 7:1 73:1 9157:1 # 20140615215028AAGmoaM Gonzalez NNP Sports PERSON
0.5 2:0 3:2 4:0 5:0 7:1 22:1 608:1 # 20140605040256AAru12G My PRP$ Entertainment_&_Music PERSON
-0.5 2:0 3:2 4:0 5:1 7:0 73:1 149:1 # 20140604083714AANM1Br in NNP Education_&_Reference TOKEN
0.5 2:0 3:4 4:0 5:0 7:1 710:1 18942:1 # 20140611001634AAefV9p Maya FW Pregnancy_&_Parenting PERSON
0.5 1:1 2:0 3:4 4:0 5:0 6:1 7:1 # 20140608034752AAWHbyf Will MD Arts_&_Humanities PERSON
-0.5 2:0 3:5 4:0 5:0 7:1 88:1 8800:1 # 20140613125219AA2D0JF Leave VB Beauty_&_Style TOKEN
0.5 2:1 3:7 4:0 5:0 7:1 123:1 5614:1 # 20140620213457AAI59UA Answers VBZ Computer_&_Internet ORGANIZATION
-0.081580034167011206136521650478244 2:0 3:8 4:0 5:0 7:1 26:1 8767:1 # 20140622025924AAbvcWQ European JJ Travel TOKEN
-0.33425599511811343589329226233531 2:1 3:2 4:1 5:0 7:0 16:1 2475:1 # 20140619072135AAeFu7N US PRP Politics_&_Government TOKEN
0.5 2:0 3:7 4:0 5:1 7:0 43:1 8739:1 # 20140612145554AAjlhJX america VBP Beauty_&_Style LOCATION
-0.063335236691933971542312065139413 2:0 3:2 4:0 5:0 7:1 88:1 492:1 # 20140603235141AAdqnjl Go VB Cars_&_Transportation TOKEN
-0.011631140446745291683328105136752 2:1 3:2 4:1 5:0 7:0 73:1 9433:1 # 20140623022611AAddTaJ VS NNP Sports TOKEN
-0.011517441102882261527717844273866 2:1 3:2 4:1 5:0 7:0 73:1 3695:1 # 20140607125412AAK3UlI PS NNP Games_&_Recreation TOKEN
-0.011489753192220647504129260596528 2:1 3:2 4:1 5:0 7:0 73:1 9777:1 # 20140608132523AAWfvBH AM NNP Computer_&_Internet TOKEN
0.5 2:0 3:2 4:0 5:0 7:1 22:1 608:1 # 20140605040256AAru12G My PRP$ Entertainment_&_Music PERSON
0.5 2:0 3:6 4:0 5:0 7:1 8:1 11349:1 # 20140616143448AAdU6Ze Silver NN Dining_Out ORGANIZATION
-0.5 1:1 2:0 3:4 4:0 5:0 6:1 7:1 # 20140611231438AAUamVg Will MD Pets TOKEN
0.5 2:1 3:2 4:1 5:0 7:0 16:1 2475:1 # 20140622210819AARJGLW US PRP Entertainment_&_Music LOCATION
-0.059085949639079871076319250278175 2:0 3:7 4:0 5:0 7:1 26:1 13040:1 # 20140620172230AAfuPAg Strange JJ Local_Businesses TOKEN
0.5 2:0 3:9 4:0 5:1 7:0 88:1 1266:1 # 20140610075021AAwlDsA hollywood VB Dining_Out LOCATION
0.5 2:0 3:7 4:0 5:1 7:0 88:1 12548:1 # 20140619063559AA2eks0 florida VB Home_&_Garden LOCATION
-0.014458044789435575694369617849588 2:0 3:1 4:0 5:1 7:0 8:1 7845:1 # 20140621192007AAsQBSf p NN Pregnancy_&_Parenting TOKEN
-0.014878182311839793783292407169938 2:0 3:7 4:0 5:1 7:0 8:1 4569:1 # 20140618125641AAGkGpi lottery NN Education_&_Reference TOKEN
-0.014455102070797920532641001045704 2:0 3:1 4:0 5:1 7:0 8:1 7570:1 # 20140615103833AAIK4wa n NN Pets TOKEN
-0.014775713808660384529503062367439 2:0 3:7 4:0 5:1 7:0 8:1 3778:1 # 20140625100949AAuIkTO package NN Local_Businesses TOKEN
-0.16238539131482637722925232992566 2:0 3:7 4:0 5:0 7:0 73:1 9051:1 # 20140605104442AAFzzy2 Six-Man NNP Sports TOKEN
0.5 2:0 3:2 4:1 5:0 7:0 73:1 3507:1 # 20140604083714AANM1Br CA NNP Education_&_Reference LOCATION
-0.5 2:0 3:2 4:1 5:0 7:0 73:1 3507:1 # 20140612231240AAb6Jgs CA NNP Consumer_Electronics TOKEN
-0.011169534516342879970629553554318 2:1 3:3 4:1 5:0 7:0 73:1 4087:1 # 20140606193910AApjpvz DOS NNP Consumer_Electronics TOKEN
-0.011810667336519309333908722692286 2:1 3:3 4:1 5:0 7:0 73:1 18508:1 # 20140613224357AAigvJR IOS NNP Computer_&_Internet TOKEN
0.5 2:0 3:7 4:0 5:1 7:0 8:1 18308:1 # 20140622230045AAAI6WE zealand NN Travel LOCATION
0.5 2:0 3:7 4:0 5:1 7:0 8:1 15221:1 # 20140610123048AAZOuhW taliban NN Politics_&_Government ORGANIZATION
-0.17650972353514216006686865512165 2:0 3:2 4:0 5:1 7:0 73:1 8301:1 # 20140622225954AAAlKMt va NNP Local_Businesses TOKEN
-0.49958206854442721578379860147834 2:0 3:2 4:0 5:0 7:1 22:1 608:1 # 20140620021441AAIMW14 My PRP$ Games_&_Recreation TOKEN
0.5 2:0 3:4 4:0 5:0 7:0 8:1 3200:1 # 20140617164637AAddgz5 eBay NN Local_Businesses ORGANIZATION
0.5 2:0 3:3 4:0 5:0 7:0 204:1 2700:1 # 20140605081144AAuazx4 1#2 CD Science_&_Mathematics PERSON
-0.0026657133295908564535325879774064 2:0 3:8 4:0 5:1 7:0 26:1 6002:1 # 20140608155422AAGg2Wt pregnant JJ Pregnancy_&_Parenting TOKEN
-0.0041940782428540046566922683268785 2:0 3:5 4:0 5:1 7:0 8:1 5807:1 # 20140613023120AA7XyZ8 lobby NN Entertainment_&_Music TOKEN
-0.040045052731060737372104085807223 2:0 3:6 4:0 5:0 7:1 26:1 2580:1 # 20140609170145AAsvd80 Simple JJ Politics_&_Government TOKEN
-0.00080016452640729873735381261212751 2:0 3:6 4:0 5:1 7:0 26:1 9115:1 # 20140616120632AA6Yeah double JJ Sports TOKEN
0.5 2:0 3:6 4:0 5:0 7:1 73:1 5839:1 # 20140613124158AAH0KXB Serena NNP Entertainment_&_Music PERSON
0.5 2:0 3:4 4:0 5:0 7:1 88:1 5589:1 # 20140605040256AAru12G Kill VB Entertainment_&_Music PERSON
0.5 2:0 3:6 4:0 5:0 7:1 73:1 12033:1 # 20140622025924AAbvcWQ Europe NNP Travel LOCATION
0.5 2:0 3:3 4:0 5:1 7:0 26:1 3981:1 # 20140605040256AAru12G low JJ Entertainment_&_Music PERSON
0.5 2:0 3:3 4:0 5:1 7:0 26:1 31:1 # 20140612200636AAqMBhQ new JJ Politics_&_Government LOCATION
0.5 2:0 3:3 4:0 5:1 7:0 26:1 9449:1 # 20140623022611AAddTaJ ufc JJ Sports ORGANIZATION
-0.19077063911678182606124209996779 2:0 3:1 4:1 5:0 7:1 73:1 8228:1 # 20140622013948AAZujJH W NNP Science_&_Mathematics TOKEN
-0.19078991635796049841644617117709 2:0 3:1 4:1 5:0 7:1 73:1 3175:1 # 20140603072418AAgZjcN Y NNP Science_&_Mathematics TOKEN
-0.19078991635796707648786707522959 2:0 3:1 4:1 5:0 7:1 73:1 10193:1 # 20140603020037AAlyzyA M NNP Travel TOKEN
-0.19103441056809344900102587416768 2:0 3:1 4:1 5:0 7:1 73:1 4291:1 # 20140606231225AAaaTGf U NNP Social_Science TOKEN
0.5 2:0 3:4 4:0 5:1 7:0 26:1 13974:1 # 20140613111831AABRhzn east JJ News_&_Events LOCATION
-0.41853947287714987623985507525504 2:0 3:3 4:0 5:0 7:0 204:1 2700:1 # 20140618170211AA99yVG 1#2 CD Science_&_Mathematics TOKEN
-0.091356268950481656077045045094565 2:0 3:6 4:1 5:0 7:0 73:1 8306:1 # 20140607150805AAQGSUv JUSSSS NNP Beauty_&_Style TOKEN
-0.013768128805077495258046837989241 2:0 3:4 4:0 5:1 7:0 8:1 2221:1 # 20140617195809AA0PD6g team NN Sports TOKEN
-0.042687293182061186724851609142206 2:1 3:9 4:0 5:0 7:1 20:1 5847:1 # 20140613124158AAH0KXB Including VBG Entertainment_&_Music TOKEN
0.5 2:0 3:3 4:0 5:0 7:1 24:1 729:1 # 20140623022611AAddTaJ The DT Sports PERSON
-0.0045033489223014200319994415622205 2:0 3:5 4:0 5:1 7:0 8:1 9785:1 # 20140620035947AAeYEbM widow NN Local_Businesses TOKEN
0.5 2:0 3:3 4:0 5:0 7:1 73:1 2656:1 # 20140620214550AA74tKP New NNP News_&_Events LOCATION
-0.16274044623362549089051753981039 2:0 3:1 4:0 5:0 7:0 73:1 8795:1 # 20140620003333AAaN90M | NNP Dining_Out TOKEN
-0.1626574241162757061829324811697 2:0 3:1 4:0 5:0 7:0 73:1 1052:1 # 20140603072418AAgZjcN ~ NNP Science_&_Mathematics TOKEN
-0.16278827961977512805979984022997 2:0 3:1 4:0 5:0 7:0 73:1 352:1 # 20140614045845AAdu92x : NNP Computer_&_Internet TOKEN
0.5 2:0 3:4 4:0 5:1 7:0 88:1 15152:1 # 20140612200636AAqMBhQ york VB Politics_&_Government LOCATION
0.5 2:0 3:2 4:1 5:0 7:0 73:1 3408:1 # 20140625120602AAXWOm0 UK NNP Science_&_Mathematics LOCATION
-0.5 2:0 3:3 4:0 5:1 7:0 20:1 3981:1 # 20140607135336AADGWCS low VBG Computer_&_Internet TOKEN
0.5 2:0 3:7 4:0 5:0 7:1 73:1 2161:1 # 20140609160711AAprF2f Swanson NNP Arts_&_Humanities PERSON
-0.5 2:1 3:7 4:0 5:0 7:1 123:1 5614:1 # 20140605081144AAuazx4 Answers VBZ Science_&_Mathematics TOKEN
-0.31081331060661110399223616695963 2:0 3:2 4:1 5:0 7:0 73:1 3507:1 # 20140603135339AAL5mDP CA NNP Cars_&_Transportation TOKEN
0.5 2:0 3:3 4:0 5:0 7:1 24:1 729:1 # 20140623022611AAddTaJ The DT Sports PERSON
0.5 2:0 3:5 4:0 5:1 7:0 20:1 15566:1 # 20140603004555AAv1K5X steve VBG Politics_&_Government PERSON
0.5 2:0 3:4 4:0 5:1 7:0 43:1 8877:1 # 20140620015151AAISFRV nike VBP Beauty_&_Style ORGANIZATION
-0.43781847025105058435201499378309 2:0 3:3 4:0 5:0 7:1 24:1 729:1 # 20140625072412AAUASEG The DT Yahoo!_Products TOKEN
-0.18354286544609976772335357964039 2:1 3:11 4:0 5:0 7:1 73:1 9314:1 # 20140607094147AAMHfCN Restaurants NNP Sports TOKEN
-0.0089237150801171338798667420633137 2:0 3:2 4:0 5:1 7:0 43:1 342:1 # 20140613192110AABUd4A 'm VBP Beauty_&_Style TOKEN
-0.0089237150801171338798667420633137 2:0 3:2 4:0 5:1 7:0 43:1 10198:1 # 20140606153641AAjtBgn ar VBP Social_Science TOKEN
0.5 2:0 3:6 4:0 5:0 7:1 73:1 10862:1 # 20140611151627AAmAEbQ Romney NNP Politics_&_Government PERSON
-0.26272262480793084904462375561707 2:0 3:2 4:0 5:0 7:1 73:1 844:1 # 20140618024923AAR6gIm Ok NNP Science_&_Mathematics TOKEN
-0.2626684637840384084483957849443 2:0 3:2 4:0 5:0 7:1 73:1 755:1 # 20140601014139AA5Szo2 Do NNP Education_&_Reference TOKEN
-0.26272540510547770509219844825566 2:0 3:2 4:0 5:0 7:1 73:1 230:1 # 20140619182359AA4NAKk Im NNP Health TOKEN
-0.48574864435725828570866724476218 2:0 3:6 4:0 5:1 7:0 88:1 359:1 # 20140606165846AA1KBRp tumblr VB Social_Science TOKEN
0.5 2:0 3:6 4:0 5:0 7:1 73:1 13954:1 # 20140626120744AAMAD0e Russia NNP News_&_Events LOCATION
-0.5 2:0 3:2 4:1 5:0 7:0 73:1 3507:1 # 20140608223808AAjHFUR CA NNP Cars_&_Transportation TOKEN
0.5 2:0 3:6 4:0 5:0 7:1 73:1 3931:1 # 20140612211617AAE6Bis Google NNP News_&_Events ORGANIZATION
0.5 2:0 3:6 4:0 5:0 7:1 73:1 1756:1 # 20140608151316AAZv17m Disney NNP Travel ORGANIZATION
0.5 2:0 3:6 4:0 5:0 7:1 73:1 11344:1 # 20140616143448AAdU6Ze Famous NNP Dining_Out ORGANIZATION
0.5 2:0 3:5 4:0 5:0 7:0 73:1 4284:1 # 20140604083714AANM1Br UMass NNP Education_&_Reference ORGANIZATION
0.5 2:0 3:2 4:1 5:0 7:0 73:1 3507:1 # 20140604083714AANM1Br CA NNP Education_&_Reference LOCATION
0.5 2:0 3:6 4:0 5:0 7:1 73:1 11147:1 # 20140622025924AAbvcWQ London NNP Travel LOCATION
0.5 2:0 3:6 4:1 5:0 7:0 73:1 8317:1 # 20140626034154AAGjZE1 LITTLE NNP Food_&_Drink PERSON
0.5 2:0 3:5 4:1 5:0 7:0 73:1 14379:1 # 20140613180332AA3jCxr ISISL NNP News_&_Events ORGANIZATION
0.5 2:0 3:5 4:1 5:0 7:0 73:1 15732:1 # 20140608113007AAoVpt8 YAHOO NNP Politics_&_Government ORGANIZATION
0.5 2:0 3:5 4:0 5:1 7:0 88:1 13037:1 # 20140620172230AAfuPAg texas VB Local_Businesses LOCATION
-0.5 2:0 3:6 4:1 5:0 7:0 73:1 8317:1 # 20140614131802AAL6tJW LITTLE NNP Beauty_&_Style TOKEN
-0.093536199992207968989532673731446 2:0 3:2 4:1 5:0 7:0 73:1 11527:1 # 20140608112522AAMjxU9 LA NNP Local_Businesses TOKEN
-0.5 2:0 3:2 4:1 5:0 7:0 73:1 9505:1 # 20140624203758AAyLMD9 NJ NNP Travel TOKEN
0.5 2:0 3:6 4:0 5:1 7:0 8:1 359:1 # 20140622080843AAfcL4m tumblr NN Pets ORGANIZATION
-0.014455102070769498823210597038269 2:0 3:1 4:0 5:1 7:0 8:1 7684:1 # 20140618170211AA99yVG π NN Science_&_Mathematics TOKEN
-0.014455102070854763951501809060574 2:0 3:1 4:0 5:1 7:0 8:1 4443:1 # 20140605102530AA17S7s k NN Dining_Out TOKEN
-0.013658740903281341161346063017845 2:0 3:1 4:0 5:1 7:0 8:1 8201:1 # 20140608113659AAJ5fVM z NN Science_&_Mathematics TOKEN
-0.01360656135429394453240092843771 2:0 3:1 4:0 5:1 7:0 8:1 3471:1 # 20140615174740AA8MA6l t NN Cars_&_Transportation TOKEN
0.5 2:0 3:5 4:1 5:0 7:0 73:1 15661:1 # 20140614170630AA1o9BQ NAFTA NNP Politics_&_Government ORGANIZATION
-0.28015544290265920190918791377044 2:0 3:2 4:1 5:0 7:0 73:1 3507:1 # 20140603135339AAL5mDP CA NNP Cars_&_Transportation TOKEN
0.5 2:0 3:8 4:0 5:0 7:1 73:1 4280:1 # 20140610222206AAaaj3T Columbia NNP News_&_Events LOCATION
-0.044473538295587318469603843595905 2:0 3:4 4:1 5:0 7:0 73:1 350:1 # 20140620170402AA0uGdu THIS NNP Pregnancy_&_Parenting TOKEN
-0.26279163557401830075832549482584 2:0 3:3 4:0 5:0 7:1 73:1 1896:1 # 20140605091638AATCTbo Too NNP Arts_&_Humanities TOKEN
0.5 2:0 3:2 4:0 5:1 7:0 8:1 5994:1 # 20140621045509AAck6mP uk NN News_&_Events LOCATION
0.5 2:0 3:3 4:0 5:0 7:1 73:1 5559:1 # 20140618141409AA9yzif Ray NNP Entertainment_&_Music PERSON
-0.49768743798466630323673598468304 2:0 3:2 4:1 5:0 7:0 73:1 4507:1 # 20140601094337AAbsB6Z C. NNP Politics_&_Government TOKEN
0.5 2:0 3:7 4:0 5:1 7:0 8:1 10581:1 # 20140607104849AAvstRC hyundai NN Cars_&_Transportation ORGANIZATION
0.5 2:0 3:7 4:0 5:1 7:0 8:1 13063:1 # 20140615091428AA1nGW3 niagara NN Local_Businesses LOCATION
-0.020738710669441218215069966390729 2:0 3:1 4:1 5:0 7:1 8:1 8038:1 # 20140605031016AAsN8GR F NN Science_&_Mathematics TOKEN
-0.091665085001945811882251291535795 2:0 3:2 4:1 5:0 7:0 73:1 4316:1 # 20140604083714AANM1Br SC NNP Education_&_Reference TOKEN
-0.091663561635771273472528264392167 2:0 3:2 4:1 5:0 7:0 73:1 6592:1 # 20140612080629AAuyjlx ER NNP Health TOKEN
-0.26287459949546221338323448435403 2:0 3:4 4:0 5:0 7:1 73:1 1910:1 # 20140601105234AA3ANDN Farm NNP Arts_&_Humanities TOKEN
-0.091630549766854585413966560736299 2:0 3:2 4:1 5:0 7:0 73:1 6777:1 # 20140625035457AAwYqoP SD NNP Games_&_Recreation TOKEN
-0.091671952078371532479650340974331 2:0 3:2 4:1 5:0 7:0 73:1 8520:1 # 20140606094425AAJm5yJ TM NNP Beauty_&_Style TOKEN
0.5 2:0 3:3 4:0 5:0 7:1 73:1 9209:1 # 20140623022611AAddTaJ Big NNP Sports PERSON
0.5 2:0 3:6 4:0 5:1 7:0 8:1 6484:1 # 20140610094552AAK4gFS palmer NN Health PERSON
0.5 2:0 3:6 4:0 5:1 7:0 8:1 1441:1 # 20140604163858AAhNFOq google NN Cars_&_Transportation ORGANIZATION
-0.5 2:0 3:6 4:0 5:0 7:1 73:1 3931:1 # 20140613030213AAZi4zH Google NNP Travel TOKEN
-0.5 2:0 3:3 4:0 5:0 7:1 73:1 2656:1 # 20140609221937AAH7tge New NNP Travel TOKEN
-0.5 2:0 3:3 4:0 5:1 7:0 20:1 3981:1 # 20140607135336AADGWCS low VBG Computer_&_Internet TOKEN
0.5 2:0 3:5 4:0 5:0 7:1 8:1 5440:1 # 20140616143448AAdU6Ze Juice NN Dining_Out ORGANIZATION
0.5 2:0 3:5 4:0 5:0 7:1 8:1 5598:1 # 20140605040256AAru12G Panic NN Entertainment_&_Music PERSON
0.5 2:0 3:10 4:0 5:1 7:0 8:1 2204:1 # 20140614170630AA1o9BQ government NN Politics_&_Government ORGANIZATION
0.5 2:0 3:2 4:0 5:1 7:0 73:1 149:1 # 20140616143448AAdU6Ze in NNP Dining_Out ORGANIZATION
0.5 2:0 3:3 4:0 5:1 7:0 32:1 73:1 # 20140616143448AAdU6Ze and NNP Dining_Out ORGANIZATION
-0.5 2:0 3:5 4:0 5:0 7:1 8:1 5440:1 # 20140620190356AAdnQme Juice NN Entertainment_&_Music TOKEN
-0.26247532753426316975975396417198 2:0 3:4 4:0 5:0 7:1 73:1 14897:1 # 20140611152642AAd7nNQ Dang NNP Pets TOKEN
-0.26219297531444685223078749913839 2:0 3:4 4:0 5:0 7:1 73:1 11592:1 # 20140605102530AA17S7s Blog NNP Dining_Out TOKEN
-0.081082383795471280052424845052883 2:0 3:6 4:0 5:0 7:1 26:1 9309:1 # 20140626152929AAvb2mt Afraid JJ Sports TOKEN
-0.092066239161098906151892151683569 2:0 3:3 4:0 5:0 7:1 8:1 5263:1 # 20140614004826AAWj9IB Man NN Entertainment_&_Music TOKEN
0.5 2:0 3:6 4:0 5:1 7:0 73:1 5370:1 # 20140621194648AAv7Pxb kuroko NNP Entertainment_&_Music PERSON
0.5 2:0 3:5 4:0 5:1 7:0 73:1 9557:1 # 20140615224306AASdmOX kawhi NNP Sports PERSON
0.5 2:0 3:5 4:0 5:1 7:0 73:1 172:1 # 20140607125905AA2JtXv &amp; NNP Politics_&_Government ORGANIZATION
-0.49682933737869205970127950422466 2:0 3:5 4:0 5:1 7:0 73:1 172:1 # 20140613124917AAp8Kiq &amp; NNP Entertainment_&_Music TOKEN
-0.014574513099120167680666781961918 2:0 3:2 4:0 5:1 7:0 8:1 7844:1 # 20140605092633AAPkbBp p. NN Science_&_Mathematics TOKEN
-0.014666188725561468686464650090784 2:0 3:4 4:0 5:1 7:0 8:1 917:1 # 20140606184121AAh0zjp idea NN Food_&_Drink TOKEN
-0.020738710669402138364603160880506 2:0 3:1 4:1 5:0 7:1 8:1 10939:1 # 20140617194830AAHJTRC T NN Dining_Out TOKEN
-0.0090305080844395035910565638914704 2:0 3:3 4:0 5:1 7:0 43:1 169:1 # 20140613192110AABUd4A 've VBP Beauty_&_Style TOKEN
0.5 2:0 3:10 4:0 5:0 7:0 73:1 12866:1 # 20140613214814AARwXS4 Winn-Dixie NNP Local_Businesses ORGANIZATION
-0.10483819402963945321971550583839 2:1 3:3 4:0 5:1 7:0 73:1 5285:1 # 20140621035229AASbo9S men NNP Social_Science TOKEN
-0.16252237649209533287830709014088 2:0 3:7 4:0 5:0 7:0 73:1 1767:1 # 20140621012549AAOo4ve BroFist NNP Arts_&_Humanities TOKEN
-0.0059999424089633435208668288396439 2:0 3:50 4:0 5:1 7:0 26:1 14729:1 # 20140626142532AAHm2Mx http:##www.almostheavenbiewers.com#teacuprisk.html JJ Pets TOKEN
-0.014466249252365059874136932194233 2:0 3:9 4:0 5:1 7:0 8:1 13534:1 # 20140610093017AAXZ1nc courtship NN Family_&_Relationships TOKEN
0.5 2:1 3:9 4:0 5:1 7:0 20:1 11112:1 # 20140613111207AAD5YgE mcdonalds VBG Dining_Out ORGANIZATION
-0.5 2:1 3:9 4:0 5:0 7:0 73:1 7069:1 # 20140610162943AA8McBJ McDonalds NNP Games_&_Recreation TOKEN
0.5 2:0 3:2 4:1 5:0 7:0 73:1 4507:1 # 20140618125641AAGkGpi C. NNP Education_&_Reference PERSON
-0.044759512301296267011707641358953 2:0 3:2 4:0 5:1 7:0 20:1 4215:1 # 20140622001343AA8tgia d. VBG Science_&_Mathematics TOKEN
-0.058967616616591556066850898787379 2:0 3:2 4:0 5:1 7:0 73:1 216:1 # 20140622212808AAkLGsg me NNP Entertainment_&_Music TOKEN
-0.014742844183402326052600983530283 2:0 3:5 4:0 5:1 7:0 8:1 67:1 # 20140612233000AAOudfw month NN News_&_Events TOKEN
0.5 2:0 3:3 4:0 5:0 7:1 73:1 2656:1 # 20140622230045AAAI6WE New NNP Travel LOCATION
0.5 2:1 3:9 4:0 5:0 7:0 73:1 7069:1 # 20140615191331AAdpnmg McDonalds NNP Dining_Out ORGANIZATION
-0.26273248010216176950848421256524 2:0 3:2 4:0 5:0 7:1 73:1 5935:1 # 20140604090916AAD5Lml Oz NNP Health TOKEN
-0.26272540510547637282456889806781 2:0 3:2 4:0 5:0 7:1 73:1 1086:1 # 20140605231104AAm8fzJ He NNP Politics_&_Government TOKEN
-0.26272262480792729633094495511614 2:0 3:2 4:0 5:0 7:1 73:1 7204:1 # 20140613202053AAONeF7 Hm NNP Games_&_Recreation TOKEN
-0.26274119003896601043379632756114 2:0 3:2 4:0 5:0 7:1 73:1 185:1 # 20140608155422AAGg2Wt So NNP Pregnancy_&_Parenting TOKEN
-0.2620777071226183529972786345752 2:0 3:5 4:0 5:0 7:1 73:1 14920:1 # 20140601213644AAZ1tNs Multi NNP Pets TOKEN
-0.058337186324580514451554336119443 2:0 3:2 4:0 5:1 7:0 710:1 9410:1 # 20140621092416AArsE0s ex FW Social_Science TOKEN
0.5 2:0 3:2 4:0 5:0 7:1 73:1 5396:1 # 20140612211617AAE6Bis Al NNP News_&_Events ORGANIZATION
-0.5 2:0 3:6 4:0 5:0 7:1 73:1 1986:1 # 20140620063230AAXLo9n Joseph NNP Food_&_Drink TOKEN
-0.18476903409434952685330699750921 2:0 3:2 4:0 5:1 7:0 73:1 167:1 # 20140618125641AAGkGpi up NNP Education_&_Reference TOKEN
0.5 2:0 3:4 4:0 5:0 7:1 73:1 13473:1 # 20140620214550AA74tKP Mike NNP News_&_Events PERSON
-0.18480582963488179082389706309186 2:0 3:2 4:0 5:1 7:0 73:1 3742:1 # 20140622225954AAAlKMt ha NNP Local_Businesses TOKEN
-0.0082961060997375213332816201727837 2:0 3:2 4:0 5:1 7:0 73:1 8301:1 # 20140622225954AAAlKMt va NNP Local_Businesses TOKEN
-0.081237678808692037613070624502143 2:0 3:3 4:0 5:0 7:1 26:1 5380:1 # 20140607012308AAXFLrR Own JJ Yahoo!_Products TOKEN
-0.5 2:0 3:2 4:0 5:0 7:1 73:1 5396:1 # 20140611153520AAksgjY Al NNP Computer_&_Internet TOKEN
0.5 2:0 3:6 4:0 5:1 7:0 8:1 12812:1 # 20140610174552AAptb2t lsland NN Local_Businesses LOCATION
-0.093979765130343784207411772513296 2:0 3:2 4:1 5:0 7:0 73:1 4507:1 # 20140607181926AAii9kA C. NNP Pets TOKEN
-0.49995210214406693438604634138756 2:0 3:3 4:0 5:1 7:0 32:1 73:1 # 20140605102530AA17S7s and NNP Dining_Out TOKEN
-0.10540585672326918675878459907835 2:1 3:10 4:0 5:1 7:0 73:1 14809:1 # 20140610102038AAX5RlB c-sections NNP Pets TOKEN
-0.14169206518254617854779553454136 2:0 3:4 4:0 5:0 7:1 61:1 1394:1 # 20140605223141AA4aNVu Teen NNPS Arts_&_Humanities TOKEN
-0.14134657163845995575535141597356 2:0 3:4 4:0 5:0 7:1 61:1 11788:1 # 20140620063230AAXLo9n Chip NNPS Food_&_Drink TOKEN
-0.014621331880229071487065084511414 2:0 3:4 4:0 5:1 7:0 8:1 6742:1 # 20140619231832AAFqTWm seed NN Yahoo!_Products TOKEN
0.5 2:0 3:8 4:0 5:1 7:0 20:1 9289:1 # 20140601130859AAHxybZ martinez VBG Sports PERSON
-0.5 2:0 3:2 4:0 5:0 7:1 73:1 5396:1 # 20140614114159AAxmnir Al NNP Travel TOKEN
0.5 2:0 3:2 4:0 5:1 7:0 8:1 13095:1 # 20140620035947AAeYEbM sc NN Local_Businesses LOCATION
0.5 2:0 3:5 4:1 5:0 7:0 73:1 14429:1 # 20140617193722AA5emAo MSNBC NNP Politics_&_Government ORGANIZATION
-0.5 2:1 3:7 4:0 5:0 7:1 123:1 5614:1 # 20140601163915AAS8CzR Answers VBZ Family_&_Relationships TOKEN
0.5 2:1 3:8 4:0 5:0 7:1 73:1 11353:1 # 20140616143448AAdU6Ze Oberweis NNP Dining_Out ORGANIZATION
-0.18476903409434941583100453499355 2:0 3:2 4:0 5:1 7:0 73:1 4133:1 # 20140609063130AAx8NAT i5 NNP Computer_&_Internet TOKEN
-0.18484624520335757313915792110492 2:0 3:2 4:0 5:1 7:0 73:1 237:1 # 20140608155422AAGg2Wt im NNP Pregnancy_&_Parenting TOKEN
-0.1845016137283721491257892921567 2:0 3:2 4:0 5:1 7:0 73:1 7680:1 # 20140612160340AAE8W0E t. NNP Sports TOKEN
-0.18474671482178806058982445392758 2:0 3:2 4:0 5:1 7:0 73:1 13121:1 # 20140620035947AAeYEbM op NNP Local_Businesses TOKEN
0.5 2:1 3:7 4:0 5:0 7:1 123:1 5614:1 # 20140608113007AAoVpt8 Answers VBZ Politics_&_Government ORGANIZATION
-0.18482811319174774489226820151089 2:0 3:3 4:0 5:1 7:0 73:1 12850:1 # 20140622225954AAAlKMt van NNP Local_Businesses TOKEN
-0.18482811319174663466924357635435 2:0 3:3 4:0 5:1 7:0 73:1 6202:1 # 20140608155422AAGg2Wt ive NNP Pregnancy_&_Parenting TOKEN
0.5 2:0 3:2 4:1 5:0 7:0 73:1 9505:1 # 20140623125801AASUucg NJ NNP Food_&_Drink LOCATION
-0.083000157415304864905181148060365 2:1 3:4 4:0 5:0 7:0 73:1 10728:1 # 20140611152558AA4un22 RPMs NNP Cars_&_Transportation TOKEN
-0.2629686894022853493879665620625 2:0 3:5 4:0 5:0 7:1 73:1 7305:1 # 20140611153520AAksgjY Linux NNP Computer_&_Internet TOKEN
-0.26293640660839301403939316514879 2:0 3:5 4:0 5:0 7:1 73:1 12498:1 # 20140605210007AAoMB1b Preen NNP Home_&_Garden TOKEN
0.5 2:0 3:6 4:0 5:0 7:1 73:1 10918:1 # 20140614131911AAPXlGW Subaru NNP Cars_&_Transportation ORGANIZATION
-0.26293334615373353813083667773753 2:0 3:5 4:0 5:0 7:1 73:1 18527:1 # 20140620213457AAI59UA Cache NNP Computer_&_Internet TOKEN
-0.26293902634287036335081211291254 2:0 3:5 4:0 5:0 7:1 73:1 12151:1 # 20140623173753AAUMZe3 Fruit NNP Food_&_Drink TOKEN
0.5 2:0 3:6 4:0 5:1 7:0 8:1 2071:1 # 20140625193136AAUePpR stoker NN Arts_&_Humanities PERSON
0.5 2:0 3:2 4:1 5:0 7:0 73:1 11527:1 # 20140608112522AAMjxU9 LA NNP Local_Businesses LOCATION
0.5 2:0 3:2 4:1 5:0 7:0 73:1 3408:1 # 20140619072135AAeFu7N UK NNP Politics_&_Government LOCATION
-0.5 2:0 3:6 4:0 5:0 7:1 73:1 10918:1 # 20140614131911AAPXlGW Subaru NNP Cars_&_Transportation TOKEN
0.5 2:0 3:2 4:0 5:0 7:1 73:1 12930:1 # 20140614113251AA3Y1WB Mr NNP News_&_Events PERSON
-0.5 2:0 3:2 4:0 5:1 7:0 8:1 13095:1 # 20140620035947AAeYEbM sc NN Local_Businesses TOKEN
-0.26239327852819799291594904389058 2:0 3:5 4:0 5:0 7:1 73:1 4034:1 # 20140620035947AAeYEbM Grand NNP Local_Businesses TOKEN
0.5 2:0 3:2 4:1 5:0 7:0 73:1 4294:1 # 20140604083714AANM1Br GA NNP Education_&_Reference LOCATION
0.5 2:0 3:2 4:1 5:0 7:0 73:1 11389:1 # 20140616143448AAdU6Ze DQ NNP Dining_Out ORGANIZATION
0.5 2:0 3:5 4:1 5:0 7:0 73:1 13972:1 # 20140613111831AABRhzn COBRA NNP News_&_Events ORGANIZATION
0.5 2:0 3:5 4:1 5:0 7:0 73:1 15683:1 # 20140614170630AA1o9BQ SWIFT NNP Politics_&_Government ORGANIZATION
0.5 2:0 3:3 4:0 5:1 7:0 26:1 3981:1 # 20140605040256AAru12G low JJ Entertainment_&_Music PERSON
-0.49801184096773098985977412667125 2:0 3:2 4:1 5:0 7:0 73:1 11527:1 # 20140608112522AAMjxU9 LA NNP Local_Businesses TOKEN
0.5 2:0 3:8 4:0 5:1 7:0 20:1 9584:1 # 20140615224306AASdmOX popovich VBG Sports PERSON
-0.022839930343676206891956326217041 2:0 3:5 4:0 5:1 7:0 20:1 4386:1 # 20140617152905AAraW4N study VBG Education_&_Reference TOKEN
0.5 2:0 3:4 4:1 5:0 7:0 73:1 3768:1 # 20140605225754AA2LJWC ESPN NNP Consumer_Electronics ORGANIZATION
0.5 2:0 3:4 4:1 5:0 7:0 73:1 13985:1 # 20140617203723AAnMv8x ISIS NNP Politics_&_Government ORGANIZATION
0.5 2:0 3:4 4:1 5:0 7:0 73:1 4319:1 # 20140610062626AA46ms6 GCSE NNP Education_&_Reference ORGANIZATION
-0.091717279381452243569583515636623 2:0 3:2 4:1 5:0 7:0 73:1 7154:1 # 20140613083238AAZnREA MY NNP Beauty_&_Style TOKEN
0.5 2:0 3:9 4:0 5:1 7:0 20:1 3603:1 # 20140615210245AAjCZ2q microsoft VBG Consumer_Electronics ORGANIZATION
-0.045255064619358548183569723732944 2:0 3:5 4:0 5:0 7:1 26:1 5078:1 # 20140608162419AAwr1N9 Jolly JJ Entertainment_&_Music TOKEN
-0.014487788775102927729676594026387 2:0 3:2 4:0 5:1 7:0 8:1 321:1 # 20140623011420AA1Rko5 by NN Pregnancy_&_Parenting TOKEN
-0.014283006933180075748168746940792 2:0 3:2 4:0 5:1 7:0 8:1 12951:1 # 20140617134810AAX61tb vu NN Travel TOKEN
-0.014574513090337859466671943664551 2:0 3:2 4:0 5:1 7:0 8:1 472:1 # 20140615103833AAIK4wa ca NN Pets TOKEN
-0.25734919145165430220956181983638 2:0 3:4 4:1 5:0 7:0 73:1 4319:1 # 20140610102326AA3pmaG GCSE NNP Education_&_Reference TOKEN
-0.5 2:0 3:4 4:1 5:0 7:0 73:1 13985:1 # 20140623230739AA9pP9C ISIS NNP News_&_Events TOKEN
-0.5 2:0 3:2 4:1 5:0 7:0 73:1 9505:1 # 20140610194612AA31tgA NJ NNP Local_Businesses TOKEN
0.5 2:0 3:8 4:0 5:1 7:0 8:1 5583:1 # 20140605040256AAru12G chemical NN Entertainment_&_Music PERSON
-0.01448689889316767676064046099782 2:0 3:2 4:0 5:1 7:0 8:1 12393:1 # 20140608232829AAA2063 ft NN Home_&_Garden TOKEN
-0.014378857070976636123305070213974 2:0 3:2 4:0 5:1 7:0 8:1 13299:1 # 20140615171734AAd4Cuo gf NN Yahoo!_Products TOKEN
-0.01454700956965560010303306626156 2:0 3:2 4:0 5:1 7:0 8:1 3128:1 # 20140610102038AAX5RlB yr NN Pets TOKEN
-0.014319945302510461715428391471505 2:0 3:2 4:0 5:1 7:0 8:1 1912:1 # 20140601105234AA3ANDN pt NN Arts_&_Humanities TOKEN
0.5 2:0 3:5 4:0 5:1 7:0 8:1 7374:1 # 20140622132856AAIJXKc yahoo NN Games_&_Recreation ORGANIZATION
-0.1848263224536452753454796038568 2:0 3:3 4:0 5:1 7:0 69:1 73:1 # 20140614170630AA1o9BQ all NNP Politics_&_Government TOKEN
-0.18471396067102752169830637285486 2:0 3:3 4:0 5:1 7:0 28:1 73:1 # 20140614004826AAWj9IB day NNP Entertainment_&_Music TOKEN
-0.18471396067102774374291129788617 2:0 3:3 4:0 5:1 7:0 73:1 13921:1 # 20140609053527AAHPrln yer NNP News_&_Events TOKEN
-0.1848500563414674502382695209235 2:0 3:3 4:0 5:1 7:0 73:1 93:1 # 20140603135339AAL5mDP for NNP Cars_&_Transportation TOKEN
-0.18456551253808139989587289164774 2:0 3:3 4:0 5:1 7:0 73:1 7409:1 # 20140623064734AAHH1Hb x-0 NNP Science_&_Mathematics TOKEN
0.5 2:0 3:2 4:1 5:0 7:0 73:1 9505:1 # 20140623125801AASUucg NJ NNP Food_&_Drink LOCATION
0.5 2:0 3:4 4:1 5:0 7:0 73:1 1551:1 # 20140625095108AAhxBZ2 W.H. NNP Arts_&_Humanities PERSON
-0.33378161016517171599815583249438 2:0 3:4 4:1 5:0 7:0 73:1 4319:1 # 20140610102326AA3pmaG GCSE NNP Education_&_Reference TOKEN
-0.5 2:0 3:4 4:1 5:0 7:0 73:1 13985:1 # 20140612211617AAE6Bis ISIS NNP News_&_Events TOKEN
-0.081366300184485318425231525907293 2:0 3:5 4:0 5:0 7:1 26:1 727:1 # 20140618215915AAruZzF Sorry JJ News_&_Events TOKEN
-0.084488823073783358985622271575266 2:0 3:2 4:0 5:0 7:1 24:1 1064:1 # 20140611204210AAPJj1y An DT Business_&_Finance TOKEN
-0.013688011856920923037250759080052 2:0 3:4 4:0 5:1 7:0 8:1 10149:1 # 20140606231225AAaaTGf fvck NN Social_Science TOKEN
-0.01466398129506302216995550224965 2:0 3:4 4:0 5:1 7:0 8:1 11139:1 # 20140605151444AA6EqVP hook NN Dining_Out TOKEN
-0.014784600854923946045005322957877 2:0 3:13 4:0 5:1 7:0 8:1 9379:1 # 20140614220006AA90c02 craftsmanship NN Sports TOKEN
-0.014460073227040126653264451306313 2:0 3:13 4:0 5:1 7:0 8:1 8086:1 # 20140601004138AAIxEr7 paleomagnetic NN Science_&_Mathematics TOKEN
-0.26198053164701601280839327046124 2:0 3:4 4:0 5:0 7:1 73:1 1093:1 # 20140620213457AAI59UA Game NNP Computer_&_Internet TOKEN
0.5 2:0 3:2 4:1 5:0 7:0 73:1 3408:1 # 20140609103348AAf8tZ6 UK NNP News_&_Events LOCATION
-0.49811545739515139530340093187988 2:0 3:2 4:0 5:0 7:1 73:1 12930:1 # 20140622225954AAAlKMt Mr NNP Local_Businesses TOKEN
-0.26272540510512598643799719866365 2:0 3:2 4:0 5:0 7:1 73:1 9600:1 # 20140618192549AAzYXYR Yo NNP Social_Science TOKEN
-0.014736492615055551969049929539324 2:0 3:5 4:0 5:1 7:0 8:1 698:1 # 20140618202204AAODcVd drink NN Food_&_Drink TOKEN
0.5 2:0 3:2 4:0 5:0 7:1 73:1 5396:1 # 20140612211617AAE6Bis Al NNP News_&_Events ORGANIZATION
0.5 2:0 3:9 4:0 5:1 7:0 26:1 1875:1 # 20140614170630AA1o9BQ corporate JJ Politics_&_Government ORGANIZATION
-0.26295616234830276880529709160328 2:0 3:5 4:0 5:0 7:1 73:1 5310:1 # 20140625100007AAcadtk Great NNP Politics_&_Government TOKEN
0.5 2:0 3:3 4:0 5:1 7:0 8:1 11396:1 # 20140616143448AAdU6Ze hut NN Dining_Out ORGANIZATION
-0.26281153745161844881295110099018 2:0 3:3 4:0 5:0 7:1 73:1 10630:1 # 20140603135339AAL5mDP Thx NNP Cars_&_Transportation TOKEN
0.5 2:0 3:5 4:0 5:1 7:0 8:1 7155:1 # 20140625171643AAxjtac intel NN Computer_&_Internet ORGANIZATION
0.5 2:0 3:5 4:0 5:1 7:0 8:1 13881:1 # 20140617033632AAaS0SQ lohan NN News_&_Events PERSON
0.5 2:0 3:5 4:0 5:1 7:0 8:1 8142:1 # 20140625120602AAXWOm0 syria NN Science_&_Mathematics LOCATION
0.5 2:0 3:5 4:0 5:1 7:0 8:1 15519:1 # 20140609182413AATpjOA obama NN Politics_&_Government PERSON
-0.091717279386692496245814254507422 2:0 3:2 4:1 5:0 7:0 73:1 9481:1 # 20140613182418AAAZN2I E. NNP Sports TOKEN
-0.014331441839164682505725068040192 2:0 3:2 4:0 5:1 7:0 8:1 18661:1 # 20140615191957AAO9x20 fi NN Computer_&_Internet TOKEN
-0.0033551396590496551652904599905014 2:0 3:4 4:0 5:0 6:1 7:1 5234:1 # 20140613214814AARwXS4 Must MD Local_Businesses TOKEN
-0.081537021888806293645757250487804 2:0 3:8 4:0 5:0 7:1 26:1 8162:1 # 20140625120602AAXWOm0 Algerian JJ Science_&_Mathematics TOKEN
0.5 2:0 3:6 4:0 5:0 7:1 73:1 1709:1 # 20140609112801AAnee0x Turkic NNP Arts_&_Humanities LOCATION
-0.091664185156759003803017549216747 2:0 3:2 4:1 5:0 7:0 73:1 8256:1 # 20140626204611AAKagRz PE NNP Science_&_Mathematics TOKEN
-0.091717279386699601673171855509281 2:0 3:2 4:1 5:0 7:0 73:1 7865:1 # 20140610222206AAaaj3T BC NNP News_&_Events TOKEN
0.5 2:0 3:7 4:0 5:0 7:0 73:1 3594:1 # 20140610162943AA8McBJ YouTube NNP Games_&_Recreation ORGANIZATION
-0.091686390690931318658840609714389 2:0 3:2 4:1 5:0 7:0 73:1 9515:1 # 20140615120927AAPeVv5 AZ NNP Sports TOKEN
0.5 2:0 3:5 4:0 5:1 7:0 8:1 11110:1 # 20140613111207AAD5YgE wayne NN Dining_Out PERSON
0.5 2:0 3:5 4:0 5:1 7:0 8:1 14957:1 # 20140622080843AAfcL4m gomez NN Pets PERSON
0.5 2:0 3:5 4:0 5:1 7:0 8:1 9567:1 # 20140615224306AASdmOX danny NN Sports PERSON
0.5 2:0 3:2 4:0 5:1 7:0 8:1 13095:1 # 20140620035947AAeYEbM sc NN Local_Businesses LOCATION
-0.09167195207837508519332914147526 2:0 3:2 4:1 5:0 7:0 73:1 4749:1 # 20140603131617AAsXYRf LP NNP Education_&_Reference TOKEN
-0.18310030631943452483767487137811 2:1 3:4 4:0 5:0 7:1 73:1 11772:1 # 20140620063230AAXLo9n Cola NNP Food_&_Drink TOKEN
-0.091663561635773049829367664642632 2:0 3:2 4:1 5:0 7:0 73:1 8034:1 # 20140601094337AAbsB6Z A. NNP Politics_&_Government TOKEN
-0.012990436078148093201889423653483 2:0 3:4 4:0 5:1 7:0 8:1 6081:1 # 20140605225313AAAhy4Z edge NN Health TOKEN
-0.014869089906426324887434020638466 2:0 3:7 4:0 5:1 7:0 8:1 2508:1 # 20140626223207AABdv8w percent NN Business_&_Finance TOKEN
-0.013324661778967822334251991378551 2:0 3:5 4:0 5:1 7:0 8:1 4324:1 # 20140615100226AACLhyS paper NN Home_&_Garden TOKEN
-0.19035258718307557224136417062255 2:0 3:94 4:0 5:1 7:0 73:1 19385:1 # 20140608060520AAMzqLw http:##yahoomail.tumblr.com#post#85155936276#an-update-to-yahoo-mails-supported-browser-policy NNP Yahoo!_Products TOKEN
0.5 2:0 3:4 4:1 5:0 7:0 73:1 13985:1 # 20140617203723AAnMv8x ISIS NNP Politics_&_Government ORGANIZATION
-0.042765823404428270071431228416259 2:1 3:10 4:0 5:0 7:1 20:1 10431:1 # 20140612032608AA8pVpP Increasing VBG Cars_&_Transportation TOKEN
-0.09154804096043989147801767103374 2:0 3:2 4:1 5:0 7:0 73:1 2998:1 # 20140611204210AAPJj1y UC NNP Business_&_Finance TOKEN
-0.091677387922956654620065819472075 2:0 3:2 4:1 5:0 7:0 73:1 9378:1 # 20140618215915AAruZzF GI NNP News_&_Events TOKEN
-0.09203995929977759615780996682588 2:0 3:3 4:0 5:0 7:1 8:1 1527:1 # 20140623130828AAGeAiz Any NN Pregnancy_&_Parenting TOKEN
-0.091624646559485253827226358680491 2:0 3:3 4:0 5:0 7:1 8:1 12409:1 # 20140601151243AAGeO0l Bed NN Home_&_Garden TOKEN
-0.091791913819133208463085793482605 2:0 3:3 4:0 5:0 7:1 8:1 5393:1 # 20140620190356AAdnQme Mob NN Entertainment_&_Music TOKEN
-0.092054188258913427489460445940495 2:0 3:3 4:0 5:0 7:1 8:1 7209:1 # 20140607104637AASvvKI Hmm NN News_&_Events TOKEN
-0.092333333260953054377750959247351 2:0 3:3 4:0 5:0 7:1 8:1 5207:1 # 20140605200359AAgJgxT Cry NN Pregnancy_&_Parenting TOKEN
0.5 2:0 3:4 4:1 5:0 7:0 73:1 15255:1 # 20140605231104AAm8fzJ EBAY NNP Politics_&_Government ORGANIZATION
0.5 2:0 3:4 4:1 5:0 7:0 73:1 5061:1 # 20140608162419AAwr1N9 M&M; NNP Entertainment_&_Music ORGANIZATION
0.5 2:0 3:4 4:1 5:0 7:0 73:1 12412:1 # 20140601151243AAGeO0l IKEA NNP Home_&_Garden ORGANIZATION
-0.091163494998802940827431484649424 2:0 3:2 4:1 5:0 7:0 73:1 4272:1 # 20140604083714AANM1Br TN NNP Education_&_Reference TOKEN
-0.091674241952131918509394381544553 2:0 3:2 4:1 5:0 7:0 73:1 5107:1 # 20140614220006AA90c02 S2 NNP Sports TOKEN
-0.091632827971235286668161279521883 2:0 3:2 4:1 5:0 7:0 73:1 4155:1 # 20140610172137AA9hoaq MB NNP Dining_Out TOKEN
0.5 2:0 3:6 4:0 5:1 7:0 8:1 5586:1 # 20140605040256AAru12G maiden NN Entertainment_&_Music PERSON
0.5 2:0 3:1 4:1 5:0 7:1 8:1 720:1 # 20140616143448AAdU6Ze D NN Dining_Out ORGANIZATION
-0.18333014982283274418861651611223 2:1 3:7 4:0 5:0 7:1 73:1 4053:1 # 20140606193910AApjpvz Scrolls NNP Consumer_Electronics TOKEN
-0.067765577993514014565334946382791 2:0 3:2 4:0 5:1 7:0 73:1 416:1 # 20140617015321AAEmy38 so NNP Politics_&_Government TOKEN
-0.021022135200741587368611362762749 2:0 3:7 4:0 5:1 7:0 123:1 12156:1 # 20140623173753AAUMZe3 contain VBZ Food_&_Drink TOKEN
0.5 2:0 3:7 4:0 5:0 7:1 73:1 9134:1 # 20140615215028AAGmoaM Iwakuma NNP Sports PERSON
-0.0627016296951278112592476077225 2:0 3:4 4:0 5:0 7:1 88:1 8519:1 # 20140612212350AAeLl07 Wait VB Family_&_Relationships TOKEN
0.5 2:0 3:6 4:0 5:0 7:0 73:1 4145:1 # 20140607141649AANF6Tv NVidia NNP Consumer_Electronics ORGANIZATION
0.5 2:0 3:6 4:0 5:0 7:0 73:1 4282:1 # 20140604083714AANM1Br MIzzou NNP Education_&_Reference LOCATION
0.5 2:0 3:7 4:0 5:1 7:0 8:1 5072:1 # 20140616190348AA6nheU walmart NN Dining_Out ORGANIZATION
-0.26280788523982145932222920237109 2:0 3:3 4:0 5:0 7:1 73:1 3854:1 # 20140601072000AABRvpX Run NNP Games_&_Recreation TOKEN
0.5 2:0 3:2 4:1 5:0 7:0 73:1 15532:1 # 20140609182413AATpjOA GW NNP Politics_&_Government PERSON
0.5 2:0 3:2 4:1 5:0 7:0 73:1 3928:1 # 20140615222209AAOSKxY LG NNP Entertainment_&_Music ORGANIZATION
-0.013871250631975357361924672261466 2:0 3:2 4:0 5:1 7:0 8:1 8918:1 # 20140615190410AAmWDg3 bq NN Sports TOKEN
-0.014054007775669674629170913249254 2:0 3:2 4:0 5:1 7:0 8:1 747:1 # 20140606112307AAHpG1a zj NN Arts_&_Humanities TOKEN
-0.014534389271460668169311247766018 2:0 3:2 4:0 5:1 7:0 8:1 2753:1 # 20140602000015AAQvMYZ ya NN Consumer_Electronics TOKEN
-0.014486898894702449069882277399302 2:0 3:2 4:0 5:1 7:0 8:1 11195:1 # 20140620063230AAXLo9n oz NN Food_&_Drink TOKEN
-0.081402226297413449174200650304556 2:0 3:6 4:0 5:0 7:1 26:1 2539:1 # 20140612075720AAmNq58 Second JJ News_&_Events TOKEN
0.5 2:0 3:7 4:0 5:0 7:0 73:1 2570:1 # 20140620222120AA4p1zz BLS.gov NNP Business_&_Finance ORGANIZATION
0.5 2:0 3:7 4:0 5:0 7:0 73:1 14240:1 # 20140615161422AAiDhFt K-Earth NNP News_&_Events ORGANIZATION
-0.08132644918378417742133024148643 2:0 3:4 4:0 5:0 7:1 26:1 14361:1 # 20140617091125AAL4eiR Nice JJ Pregnancy_&_Parenting TOKEN
-0.081330181006979529456657473929226 2:0 3:4 4:0 5:0 7:1 26:1 5431:1 # 20140611001634AAefV9p Last JJ Pregnancy_&_Parenting TOKEN
-0.091038619601506054479500562592875 2:0 3:4 4:1 5:0 7:0 73:1 11540:1 # 20140617194830AAHJTRC YOGA NNP Dining_Out TOKEN
0.5 2:0 3:7 4:0 5:0 7:0 73:1 3594:1 # 20140625171723AAQIRte YouTube NNP Computer_&_Internet ORGANIZATION
0.5 2:0 3:5 4:0 5:0 7:1 73:1 5402:1 # 20140620190356AAdnQme Lucky NNP Entertainment_&_Music PERSON
-0.02023468478810247495047747179342 2:0 3:7 4:0 5:1 7:0 123:1 399:1 # 20140618024923AAR6gIm explain VBZ Science_&_Mathematics TOKEN
0.5 2:0 3:6 4:0 5:0 7:1 73:1 5575:1 # 20140618141409AA9yzif Porter NNP Entertainment_&_Music PERSON
-0.09100490801356711512148933707067 2:0 3:2 4:1 5:0 7:0 73:1 19103:1 # 20140608111211AAkpqtd NA NNP Pregnancy_&_Parenting TOKEN
-0.26289864011878494309826237440575 2:0 3:4 4:0 5:0 7:1 73:1 5715:1 # 20140618215915AAruZzF Life NNP News_&_Events TOKEN
0.5 2:0 3:6 4:0 5:0 7:1 73:1 5368:1 # 20140621194648AAv7Pxb Akashi NNP Entertainment_&_Music PERSON
-0.14144129544807526599470293149352 2:0 3:5 4:0 5:0 7:1 61:1 13803:1 # 20140616154757AA3uubn Force NNPS News_&_Events TOKEN
-0.14166268732010475761562418028916 2:0 3:5 4:0 5:0 7:1 61:1 10979:1 # 20140603235141AAdqnjl Sport NNPS Cars_&_Transportation TOKEN
-0.18639346559507252720777614740655 2:0 3:23 4:0 5:1 7:0 73:1 5343:1 # 20140615025730AAsJj6v http:##lolfreecode.asia NNP Social_Science TOKEN
0.5 2:0 3:4 4:1 5:0 7:0 73:1 6079:1 # 20140605225313AAAhy4Z A&E; NNP Health ORGANIZATION
0.5 2:0 3:4 4:1 5:0 7:0 73:1 1555:1 # 20140625095108AAhxBZ2 E.A. NNP Arts_&_Humanities PERSON
0.5 2:0 3:2 4:0 5:1 7:0 8:1 13064:1 # 20140615091428AA1nGW3 st NN Local_Businesses LOCATION
-0.091667203115495254905908950604498 2:0 3:2 4:1 5:0 7:0 73:1 13669:1 # 20140610222206AAaaj3T QC NNP News_&_Events TOKEN
-0.091716561553390363314974820241332 2:0 3:2 4:1 5:0 7:0 73:1 4286:1 # 20140604083714AANM1Br MA NNP Education_&_Reference TOKEN
-0.091632219741299536508449818938971 2:0 3:2 4:1 5:0 7:0 73:1 5971:1 # 20140615211937AA9zqfw GP NNP Health TOKEN
-0.091676197748697174638721207884373 2:0 3:2 4:1 5:0 7:0 73:1 12348:1 # 20140619064754AAnYzEU L1 NNP Home_&_Garden TOKEN
-0.091684684769187896336006815545261 2:0 3:2 4:1 5:0 7:0 73:1 18749:1 # 20140626130807AAvZf6J F8 NNP Computer_&_Internet TOKEN
0.5 2:0 3:5 4:0 5:1 7:0 8:1 15250:1 # 20140605231104AAm8fzJ gucci NN Politics_&_Government ORGANIZATION
-0.091618680173096933572196576278657 2:0 3:2 4:1 5:0 7:0 73:1 10895:1 # 20140617092003AATWcQC GT NNP Cars_&_Transportation TOKEN
-0.091662985591487000647248351015151 2:0 3:2 4:1 5:0 7:0 73:1 7623:1 # 20140618095228AAKVjIw C2 NNP Science_&_Mathematics TOKEN
-0.0081204722806234030940686352550983 2:0 3:11 4:0 5:1 7:0 12:1 8193:1 # 20140625120602AAXWOm0 hostilities NNS Science_&_Mathematics TOKEN
-0.091717279386841710220323875546455 2:0 3:2 4:1 5:0 7:0 73:1 9109:1 # 20140620105746AAnOLsk XD NNP Sports TOKEN
-0.091668374943669306276206043548882 2:0 3:2 4:1 5:0 7:0 73:1 13306:1 # 20140609053527AAHPrln DM NNP News_&_Events TOKEN
0.5 2:1 3:6 4:0 5:0 7:1 61:1 12443:1 # 20140610174552AAptb2t States NNPS Local_Businesses LOCATION
0.5 2:0 3:6 4:0 5:0 7:1 73:1 1986:1 # 20140601105234AA3ANDN Joseph NNP Arts_&_Humanities PERSON
0.5 2:0 3:3 4:1 5:0 7:0 73:1 3933:1 # 20140603005221AAThPnj ZTE NNP Consumer_Electronics ORGANIZATION
-0.011790636437538637437683064490557 2:1 3:3 4:1 5:0 7:0 73:1 18773:1 # 20140609063130AAx8NAT NFS NNP Computer_&_Internet TOKEN
-0.011313293616403319319374531914946 2:1 3:3 4:1 5:0 7:0 73:1 18986:1 # 20140617102648AARlmNg PMS NNP Pregnancy_&_Parenting TOKEN
-0.011295671552587448205340336926383 2:1 3:3 4:1 5:0 7:0 73:1 11831:1 # 20140611141719AAUaRNh EOS NNP Food_&_Drink TOKEN
0.5 2:0 3:3 4:0 5:1 7:0 26:1 31:1 # 20140612200636AAqMBhQ new JJ Politics_&_Government LOCATION
0.5 2:0 3:6 4:0 5:0 7:1 73:1 14042:1 # 20140601100338AAUfBLz Africa NNP News_&_Events LOCATION
0.5 2:0 3:6 4:0 5:0 7:1 73:1 5420:1 # 20140620190356AAdnQme Brasco NNP Entertainment_&_Music PERSON
0.5 2:0 3:6 4:0 5:0 7:1 73:1 3135:1 # 20140601131055AAPxhOP Martin NNP Business_&_Finance PERSON
0.5 2:0 3:7 4:0 5:0 7:1 73:1 15794:1 # 20140605183929AAMoGA3 Trudeau NNP Politics_&_Government PERSON
-0.184834766335867595188346967916 2:0 3:3 4:0 5:1 7:0 73:1 4194:1 # 20140607141649AANF6Tv 15t NNP Consumer_Electronics TOKEN
-0.18479609353361969859008695493685 2:0 3:3 4:0 5:1 7:0 73:1 12979:1 # 20140622225954AAAlKMt pha NNP Local_Businesses TOKEN
-0.18479257288358930111371591920033 2:0 3:4 4:0 5:1 7:0 73:1 6195:1 # 20140603072418AAgZjcN &lt; NNP Science_&_Mathematics TOKEN
0.5 2:0 3:4 4:1 5:0 7:0 73:1 5654:1 # 20140606075218AAmnm1s U.S. NNP Entertainment_&_Music LOCATION
0.5 2:0 3:3 4:1 5:0 7:0 73:1 2568:1 # 20140620180056AARv7Hs USA NNP Social_Science LOCATION
-0.5 2:0 3:4 4:1 5:0 7:0 73:1 5654:1 # 20140617015321AAEmy38 U.S. NNP Politics_&_Government TOKEN
0.5 2:0 3:4 4:0 5:1 7:0 8:1 14958:1 # 20140622080843AAfcL4m demi NN Pets PERSON
-0.020616217121244062582263723015785 2:0 3:7 4:0 5:1 7:0 123:1 5247:1 # 20140614004826AAWj9IB attempt VBZ Entertainment_&_Music TOKEN
-0.0041479269299411480886874414863996 2:0 3:3 4:0 5:1 7:0 73:1 186:1 # 20140626101740AADAK0e can NNP Politics_&_Government TOKEN
-0.014534729588458000781869827733317 2:0 3:7 4:0 5:1 7:0 8:1 2224:1 # 20140617092003AATWcQC vehicle NN Cars_&_Transportation TOKEN
-0.0037336018270037740762745670508593 2:1 3:4 4:0 5:0 7:1 12:1 10549:1 # 20140616152825AABP2iB Laws NNS News_&_Events TOKEN
0.5 2:0 3:6 4:0 5:0 7:1 73:1 15531:1 # 20140617203723AAnMv8x Reagan NNP Politics_&_Government PERSON
0.5 2:0 3:6 4:0 5:0 7:1 73:1 9048:1 # 20140605104442AAFzzy2 Daniel NNP Sports PERSON
0.5 2:0 3:6 4:0 5:0 7:1 73:1 4399:1 # 20140606153641AAjtBgn Canada NNP Social_Science LOCATION
0.5 2:0 3:6 4:0 5:0 7:1 73:1 3931:1 # 20140610062626AA46ms6 Google NNP Education_&_Reference ORGANIZATION
0.5 2:1 3:9 4:0 5:0 7:0 73:1 7069:1 # 20140613111207AAD5YgE McDonalds NNP Dining_Out ORGANIZATION
-0.013422986483265786361585014674347 2:0 3:7 4:0 5:1 7:0 8:1 6044:1 # 20140605225313AAAhy4Z surgery NN Health TOKEN
-0.014917379886298931523924693465233 2:0 3:9 4:0 5:1 7:0 8:1 5244:1 # 20140622211947AASW8v1 boyfriend NN Pets TOKEN
-0.091684684769189672692846215795726 2:0 3:2 4:1 5:0 7:0 73:1 9198:1 # 20140611135954AABR99L SF NNP Sports TOKEN
0.5 2:0 3:5 4:0 5:1 7:0 8:1 1291:1 # 20140614122338AAHL8sn canon NN Arts_&_Humanities ORGANIZATION
-0.081469360715871630418405402451754 2:0 3:7 4:0 5:0 7:1 26:1 5801:1 # 20140613023120AA7XyZ8 Present JJ Entertainment_&_Music TOKEN
-0.081514822010831267107278108596802 2:0 3:8 4:0 5:0 7:1 26:1 13995:1 # 20140625072412AAUASEG Hispanic JJ Yahoo!_Products TOKEN
-0.042482796604570438603332149796188 2:0 3:5 4:0 5:0 7:1 26:1 3839:1 # 20140603191657AA88Y0T Other JJ Pets TOKEN
-0.014313630258705245523742632940412 2:0 3:1 4:0 5:1 7:0 8:1 2284:1 # 20140623023853AA1SoFR f NN Science_&_Mathematics TOKEN
-0.014283006933155206752417143434286 2:0 3:2 4:0 5:1 7:0 8:1 3102:1 # 20140611204210AAPJj1y ur NN Business_&_Finance TOKEN
0.5 2:0 3:3 4:1 5:0 7:0 73:1 13982:1 # 20140623230739AA9pP9C BBC NNP News_&_Events ORGANIZATION
0.5 2:0 3:3 4:1 5:0 7:0 73:1 15694:1 # 20140614170630AA1o9BQ CIA NNP Politics_&_Government ORGANIZATION
0.5 2:0 3:3 4:1 5:0 7:0 73:1 4154:1 # 20140607141649AANF6Tv MSI NNP Consumer_Electronics ORGANIZATION
-0.091194259999757498746930650668219 2:0 3:2 4:1 5:0 7:0 73:1 2213:1 # 20140612062149AAH8vjl HQ NNP Arts_&_Humanities TOKEN
-0.091665085008933999688451876863837 2:0 3:2 4:1 5:0 7:0 73:1 7983:1 # 20140622085925AAdFLbE H2 NNP Science_&_Mathematics TOKEN
-0.091662985591504764215642353519797 2:0 3:2 4:1 5:0 7:0 73:1 346:1 # 20140608034752AAWHbyf YA NNP Arts_&_Humanities TOKEN
-0.091663561635769497115688864141703 2:0 3:2 4:1 5:0 7:0 73:1 19352:1 # 20140601160702AAOGVk4 IE NNP Yahoo!_Products TOKEN
-0.091620453603134421882714377716184 2:0 3:2 4:1 5:0 7:0 73:1 9107:1 # 20140617213812AAnm3nS MK NNP Travel TOKEN
0.5 2:0 3:4 4:0 5:1 7:0 8:1 19455:1 # 20140610080957AAEwFfP andy NN Yahoo!_Products PERSON
0.5 2:0 3:4 4:0 5:1 7:0 8:1 194:1 # 20140605040256AAru12G time NN Entertainment_&_Music PERSON
0.5 2:0 3:4 4:0 5:1 7:0 8:1 1077:1 # 20140616143448AAdU6Ze land NN Dining_Out ORGANIZATION
0.5 2:0 3:6 4:0 5:0 7:1 73:1 5558:1 # 20140618141409AA9yzif Stevie NNP Entertainment_&_Music PERSON
-0.014543545114061529055504706775537 2:0 3:11 4:0 5:1 7:0 8:1 18372:1 # 20140622163515AA7A77e beneficiary NN Travel TOKEN
-0.014547644675518611734332807827741 2:0 3:2 4:0 5:1 7:0 8:1 9008:1 # 20140612160340AAE8W0E kw NN Sports TOKEN
-0.01454148461814952497661579400301 2:0 3:2 4:0 5:1 7:0 8:1 12968:1 # 20140622225954AAAlKMt du NN Local_Businesses TOKEN
-0.014245570803055329633934888988733 2:0 3:2 4:0 5:1 7:0 8:1 9124:1 # 20140626150225AAeTpqG tx NN Sports TOKEN
-0.0071534994497892689935270027490333 2:0 3:4 4:0 5:1 7:0 8:1 2470:1 # 20140616195748AA2BAj7 fill NN Social_Science TOKEN
-0.020470447187356966001203772975714 2:0 3:2 4:0 5:1 7:0 123:1 6555:1 # 20140606081156AANGQrl lo VBZ Health TOKEN
0.5 2:0 3:7 4:0 5:0 7:1 73:1 5576:1 # 20140618141409AA9yzif Wagoner NNP Entertainment_&_Music PERSON
0.5 2:0 3:7 4:0 5:0 7:1 73:1 18377:1 # 20140617134810AAX61tb Dunedin NNP Travel LOCATION
-0.091632219741313747363165020942688 2:0 3:2 4:1 5:0 7:0 73:1 5387:1 # 20140620190356AAdnQme II NNP Entertainment_&_Music TOKEN
-0.091549240660050656970270210877061 2:0 3:2 4:1 5:0 7:0 73:1 8552:1 # 20140610100930AAaZ9T3 BB NNP Beauty_&_Style TOKEN
-0.014381566219844321707910239638295 2:0 3:2 4:0 5:1 7:0 8:1 4833:1 # 20140623125518AAtlQpd id NN Dining_Out TOKEN
-0.01379284644303735429815560564748 2:0 3:2 4:0 5:1 7:0 8:1 7742:1 # 20140605081144AAuazx4 r5 NN Science_&_Mathematics TOKEN
-0.014547644675515059020654007326812 2:0 3:2 4:0 5:1 7:0 8:1 12918:1 # 20140622225954AAAlKMt có NN Local_Businesses TOKEN
-0.013416484921291882415061991196126 2:0 3:2 4:0 5:1 7:0 8:1 6223:1 # 20140608151316AAZv17m bf NN Travel TOKEN
-0.01453438924079364369390532374382 2:0 3:2 4:0 5:1 7:0 8:1 13452:1 # 20140617094029AAZ1FwJ u. NN Family_&_Relationships TOKEN
-0.091702423755473078115230123330548 2:0 3:14 4:1 5:0 7:0 73:1 15097:1 # 20140617015321AAEmy38 ROL_2014_03_24 NNP Politics_&_Government TOKEN
-0.092471924042438757851414266042411 2:0 3:14 4:1 5:0 7:0 73:1 15094:1 # 20140617015321AAEmy38 ROL_2013-04-01 NNP Politics_&_Government TOKEN
0.5 2:0 3:12 4:1 5:0 7:0 73:1 3558:1 # 20140614134845AAVhWeg CYBERPOWERPC NNP Consumer_Electronics ORGANIZATION
0.5 2:0 3:3 4:0 5:1 7:0 8:1 2189:1 # 20140605040256AAru12G boy NN Entertainment_&_Music PERSON
0.5 2:0 3:3 4:1 5:0 7:0 73:1 3953:1 # 20140603005221AAThPnj ZET NNP Consumer_Electronics ORGANIZATION
-0.5 2:0 3:4 4:0 5:1 7:0 20:1 194:1 # 20140607204711AAtWX4j time VBG Local_Businesses TOKEN
-0.5 2:0 3:4 4:0 5:0 7:1 73:1 13473:1 # 20140607071218AAzGtJH Mike NNP Family_&_Relationships TOKEN
-0.26272262480792640815252525499091 2:0 3:2 4:0 5:0 7:1 73:1 11461:1 # 20140603215034AABtnxF Le NNP Dining_Out TOKEN
0.5 2:0 3:3 4:1 5:0 7:0 73:1 14319:1 # 20140606223938AAjsrL7 AFC NNP News_&_Events ORGANIZATION
0.5 2:0 3:3 4:1 5:0 7:0 73:1 4270:1 # 20140604083714AANM1Br UNC NNP Education_&_Reference ORGANIZATION
0.5 2:0 3:3 4:1 5:0 7:0 73:1 18052:1 # 20140617213812AAnm3nS WDW NNP Travel ORGANIZATION
-0.5 2:0 3:3 4:1 5:0 7:0 73:1 18052:1 # 20140617213812AAnm3nS WDW NNP Travel TOKEN
-0.091668374943665753562527243047953 2:0 3:2 4:1 5:0 7:0 73:1 9116:1 # 20140620105746AAnOLsk FN NNP Sports TOKEN
-0.091665035511159231873534736223519 2:0 3:2 4:1 5:0 7:0 73:1 19280:1 # 20140604150349AA6PQh8 IB NNP Pregnancy_&_Parenting TOKEN
-0.091620453603127316455356776714325 2:0 3:2 4:1 5:0 7:0 73:1 5145:1 # 20140608060520AAMzqLw TO NNP Yahoo!_Products TOKEN
-0.091665035511168113657731737475842 2:0 3:2 4:1 5:0 7:0 73:1 12349:1 # 20140619064754AAnYzEU L2 NNP Home_&_Garden TOKEN
-0.091642579283210068297194084152579 2:0 3:2 4:1 5:0 7:0 73:1 15012:1 # 20140613154011AAJ98M9 S. NNP Politics_&_Government TOKEN
0.5 2:0 3:6 4:0 5:0 7:1 73:1 15749:1 # 20140611151627AAmAEbQ Norway NNP Politics_&_Government LOCATION
-0.5 2:0 3:6 4:0 5:0 7:1 73:1 14042:1 # 20140604152901AACS3Yj Africa NNP Travel TOKEN
0.5 2:0 3:3 4:0 5:1 7:0 8:1 4854:1 # 20140601014139AA5Szo2 usa NN Education_&_Reference LOCATION
0.5 2:0 3:2 4:0 5:0 7:1 73:1 11325:1 # 20140616143448AAdU6Ze El NNP Dining_Out ORGANIZATION
0.5 2:0 3:2 4:0 5:0 7:1 73:1 5396:1 # 20140612211617AAE6Bis Al NNP News_&_Events ORGANIZATION
-0.044759512301295600877892866265029 2:0 3:2 4:0 5:1 7:0 20:1 5876:1 # 20140605214704AAzq0fk nt VBG Health TOKEN
-0.044759512301295933944800253811991 2:0 3:2 4:0 5:1 7:0 20:1 17536:1 # 20140618114010AAeeGQR bc VBG Pregnancy_&_Parenting TOKEN
-0.013930775037360287882393095060252 2:0 3:7 4:0 5:1 7:0 8:1 3873:1 # 20140613030213AAZi4zH section NN Travel TOKEN
0.5 2:0 3:6 4:0 5:1 7:0 8:1 1441:1 # 20140605223141AA4aNVu google NN Arts_&_Humanities ORGANIZATION
-0.014506308035635129272122867405415 2:0 3:2 4:0 5:1 7:0 8:1 4765:1 # 20140626114755AAx0yWm 5x NN Education_&_Reference TOKEN
-0.014283006933194286602883948944509 2:0 3:2 4:0 5:1 7:0 8:1 13275:1 # 20140621115845AAQL7uD rd NN Family_&_Relationships TOKEN
-0.014506308035674209122589672915637 2:0 3:2 4:0 5:1 7:0 8:1 3655:1 # 20140623134204AAefrL0 ve NN Consumer_Electronics TOKEN
-0.014506308035681314549947273917496 2:0 3:2 4:0 5:1 7:0 8:1 5040:1 # 20140606184121AAh0zjp ml NN Food_&_Drink TOKEN
0.5 2:0 3:8 4:0 5:0 7:1 73:1 4274:1 # 20140604083714AANM1Br Davidson NNP Education_&_Reference LOCATION
-0.16274389195037830546652912744321 2:0 3:4 4:0 5:0 7:0 73:1 9064:1 # 20140605104442AAFzzy2 eNew NNP Sports TOKEN
0.5 2:0 3:7 4:0 5:0 7:1 73:1 11649:1 # 20140604112329AAS36PD Safeway NNP Dining_Out ORGANIZATION
-0.26272540510547282011089009756688 2:0 3:2 4:0 5:0 7:1 73:1 11037:1 # 20140616141511AAlZZIn Iv NNP Dining_Out TOKEN
0.5 2:0 3:2 4:1 5:0 7:0 73:1 809:1 # 20140617074422AANUT7h J. NNP Arts_&_Humanities PERSON
0.5 2:0 3:2 4:1 5:0 7:0 73:1 4289:1 # 20140604083714AANM1Br NY NNP Education_&_Reference LOCATION
-0.010252310164682781890022056359157 2:0 3:4 4:0 5:1 7:0 8:1 18256:1 # 20140609221937AAH7tge slum NN Travel TOKEN
-0.014471623468253369537706021219492 2:0 3:2 4:0 5:1 7:0 8:1 7421:1 # 20140615112034AAukyhJ ac NN Science_&_Mathematics TOKEN
-0.013473176091395089315483346581459 2:0 3:2 4:0 5:1 7:0 8:1 5738:1 # 20140605140138AAyDVJY ta NN Entertainment_&_Music TOKEN
-0.014506308035752368823523283936083 2:0 3:2 4:0 5:1 7:0 8:1 11733:1 # 20140620063230AAXLo9n dj NN Food_&_Drink TOKEN
-0.26272381785599208114945213310421 2:0 3:2 4:0 5:0 7:1 73:1 1538:1 # 20140623154545AAikPvj We NNP Pets TOKEN
-0.5 2:0 3:6 4:0 5:0 7:1 73:1 3931:1 # 20140603215034AABtnxF Google NNP Dining_Out TOKEN
-0.26357204630461694705445552244782 2:0 3:6 4:0 5:0 7:1 73:1 15531:1 # 20140617203723AAnMv8x Reagan NNP Politics_&_Government TOKEN
-0.014486898893117938769137253984809 2:0 3:2 4:0 5:1 7:0 8:1 2416:1 # 20140607053946AAkMdTv tv NN Social_Science TOKEN
0.41696638247860917658726975787431 2:1 3:9 4:0 5:0 7:0 73:1 7069:1 # 20140613111207AAD5YgE McDonalds NNP Dining_Out ORGANIZATION
-0.014508607616782853710901690647006 2:0 3:2 4:0 5:1 7:0 8:1 7675:1 # 20140618170211AA99yVG pi NN Science_&_Mathematics TOKEN
-0.014547009569653823746193666011095 2:0 3:2 4:0 5:1 7:0 8:1 6450:1 # 20140610164612AA5SkqL ab NN Health TOKEN
-0.081243390604036846980307018384337 2:0 3:9 4:0 5:0 7:1 26:1 14485:1 # 20140621143727AAOCXDZ Excessive JJ Pets TOKEN
-0.014371658282698929198772930249106 2:0 3:2 4:0 5:1 7:0 8:1 10680:1 # 20140605195407AAKcWWL pm NN Local_Businesses TOKEN
-0.014188998211392966908306334516965 2:0 3:2 4:0 5:1 7:0 8:1 13317:1 # 20140612212350AAeLl07 wk NN Family_&_Relationships TOKEN
-0.49942439674290994844341184943914 2:0 3:6 4:0 5:0 7:1 73:1 15531:1 # 20140617203723AAnMv8x Reagan NNP Politics_&_Government TOKEN
-0.16173944675412618710019785339682 2:0 3:1 4:0 5:0 7:0 73:1 3524:1 # 20140614134845AAVhWeg • NNP Consumer_Electronics TOKEN
-0.16267194661662642829469405114651 2:0 3:1 4:0 5:0 7:0 73:1 648:1 # 20140610162943AA8McBJ 3 NNP Games_&_Recreation TOKEN
-0.091718715963320818218562635593116 2:0 3:14 4:1 5:0 7:0 73:1 15096:1 # 20140617015321AAEmy38 ROL_2014_01_06 NNP Politics_&_Government TOKEN
-0.092058706176345594940357841551304 2:0 3:14 4:1 5:0 7:0 73:1 15100:1 # 20140617015321AAEmy38 ROL_2014-05-05 NNP Politics_&_Government TOKEN
-0.091702423755530115823120240747812 2:0 3:14 4:1 5:0 7:0 73:1 15092:1 # 20140617015321AAEmy38 ROL_2013-02_25 NNP Politics_&_Government TOKEN
-0.042255185563686903371660719130887 2:0 3:7 4:1 5:0 7:0 73:1 3553:1 # 20140614134845AAVhWeg CPHD500 NNP Consumer_Electronics TOKEN
-0.013506059634394773638632614165545 2:0 3:6 4:0 5:1 7:0 8:1 8965:1 # 20140608151316AAZv17m spring NN Travel TOKEN
0.5 2:0 3:3 4:1 5:0 7:0 73:1 18052:1 # 20140617213812AAnm3nS WDW NNP Travel ORGANIZATION
0.5 2:0 3:2 4:0 5:1 7:0 8:1 18381:1 # 20140617134810AAX61tb nz NN Travel LOCATION
-0.091717279386781314087784267030656 2:0 3:2 4:1 5:0 7:0 73:1 3492:1 # 20140601002604AAq45X7 IV NNP Pregnancy_&_Parenting TOKEN
-0.090968753509261590650680773251224 2:0 3:2 4:1 5:0 7:0 73:1 7851:1 # 20140623173753AAUMZe3 D. NNP Food_&_Drink TOKEN
-0.091667203115495254905908950604498 2:0 3:2 4:1 5:0 7:0 73:1 5338:1 # 20140613124158AAH0KXB RP NNP Entertainment_&_Music TOKEN
-0.091632219741292431081092217937112 2:0 3:2 4:1 5:0 7:0 73:1 4191:1 # 20140607141649AANF6Tv HP NNP Consumer_Electronics TOKEN
0.5 2:0 3:4 4:0 5:1 7:0 8:1 6873:1 # 20140620231356AA5VO2N john NN Games_&_Recreation PERSON
0.5 2:0 3:4 4:0 5:1 7:0 8:1 8995:1 # 20140601162630AAuDjDG pepe NN Sports PERSON
0.5 2:0 3:4 4:0 5:1 7:0 8:1 6619:1 # 20140612080629AAuyjlx sean NN Health PERSON
-0.013806571330340078329612651941716 2:0 3:2 4:0 5:1 7:0 8:1 12919:1 # 20140622225954AAAlKMt vẻ NN Local_Businesses TOKEN
-0.013650563645353885888766853895504 2:0 3:2 4:0 5:1 7:0 8:1 12984:1 # 20140622225954AAAlKMt vi NN Local_Businesses TOKEN
0.5 2:0 3:3 4:1 5:0 7:0 73:1 7172:1 # 20140623022611AAddTaJ WWE NNP Sports ORGANIZATION
0.5 2:0 3:3 4:1 5:0 7:0 73:1 15430:1 # 20140619072135AAeFu7N U.K NNP Politics_&_Government LOCATION
-0.49826548138400994503172114491463 2:0 3:3 4:1 5:0 7:0 73:1 7172:1 # 20140623022611AAddTaJ WWE NNP Sports TOKEN
-0.16462661787920218614544864976779 2:0 3:28 4:0 5:0 7:0 73:1 11457:1 # 20140603215034AABtnxF Www.godiningout.blogspot.com NNP Dining_Out TOKEN
-0.091667203115498807619587751105428 2:0 3:2 4:1 5:0 7:0 73:1 4009:1 # 20140610164612AA5SkqL NO NNP Health TOKEN
0.5 2:0 3:6 4:0 5:0 7:0 73:1 12297:1 # 20140615100226AACLhyS C-list NNP Home_&_Garden ORGANIZATION
-0.5 2:0 3:3 4:0 5:1 7:0 8:1 292:1 # 20140604131630AAZXrpw out NN Business_&_Finance TOKEN
-0.014356953783384973633019399130717 2:0 3:11 4:0 5:1 7:0 8:1 2927:1 # 20140614220006AA90c02 reliability NN Sports TOKEN
-0.16364383575660212954971939325333 2:0 3:21 4:0 5:0 7:0 73:1 18228:1 # 20140613030213AAZi4zH Manchester#Nottingham NNP Travel TOKEN
-0.015028262735384156911777608911507 2:0 3:11 4:0 5:1 7:0 8:1 12118:1 # 20140620191437AA9D0Nc consumption NN Food_&_Drink TOKEN
0.5 2:0 3:5 4:0 5:0 7:0 73:1 4284:1 # 20140604083714AANM1Br UMass NNP Education_&_Reference ORGANIZATION
-0.16415031284168435377068817615509 2:0 3:22 4:0 5:0 7:0 73:1 18478:1 # 20140614114159AAxmnir Abu-Dhabi-Tariff-Saudi NNP Travel TOKEN
-0.16384245519358131559783942066133 2:0 3:21 4:0 5:0 7:0 73:1 15091:1 # 20140617015321AAEmy38 LogosRadionetwork_com NNP Politics_&_Government TOKEN
-0.091896440515989219477432925486937 2:0 3:16 4:1 5:0 7:0 73:1 8698:1 # 20140613083238AAZnREA BAHAHAHAHAHAHAHA NNP Beauty_&_Style TOKEN
-0.044844790001832279813243076205254 2:0 3:3 4:0 5:1 7:0 20:1 2325:1 # 20140616230100AA0TniQ ind VBG Business_&_Finance TOKEN
-0.0088867121715736629994353279471397 2:0 3:2 4:0 5:1 7:0 43:1 7371:1 # 20140625154952AAgFb3h fo VBP Cars_&_Transportation TOKEN
-0.1847317920933575496889034184278 2:0 3:4 4:0 5:1 7:0 73:1 1575:1 # 20140613124917AAp8Kiq free NNP Entertainment_&_Music TOKEN
-0.18484648615147847294792882166803 2:0 3:4 4:0 5:1 7:0 73:1 4017:1 # 20140614070914AAwpQqi 25th NNP Consumer_Electronics TOKEN
-0.04448307209578250542847399628954 2:0 3:3 4:0 5:1 7:0 20:1 2052:1 # 20140625082631AAcgyMl sin VBG Politics_&_Government TOKEN
-0.1632919511592583750037022127799 2:0 3:16 4:0 5:0 7:0 73:1 11489:1 # 20140620003333AAaN90M State-of-the-art NNP Dining_Out TOKEN
-0.5 2:0 3:6 4:0 5:0 7:1 73:1 11147:1 # 20140605102530AA17S7s London NNP Dining_Out TOKEN
-0.18451399180581562475822465785313 2:0 3:4 4:0 5:1 7:0 73:1 5251:1 # 20140605140138AAyDVJY poor NNP Entertainment_&_Music TOKEN
-0.18480024815393725212686604209011 2:0 3:4 4:0 5:1 7:0 73:1 3990:1 # 20140613124158AAH0KXB code NNP Entertainment_&_Music TOKEN
-0.18445478388060454477681560092606 2:0 3:4 4:0 5:1 7:0 73:1 12957:1 # 20140622225954AAAlKMt minh NNP Local_Businesses TOKEN
-0.18490593008543143582755874376744 2:0 3:4 4:0 5:1 7:0 73:1 931:1 # 20140606224612AAe7J4W site NNP Computer_&_Internet TOKEN
0.5 2:0 3:5 4:0 5:0 7:1 73:1 11357:1 # 20140616143448AAdU6Ze Bread NNP Dining_Out ORGANIZATION
0.5 2:0 3:5 4:0 5:0 7:1 73:1 10857:1 # 20140617193722AA5emAo Obama NNP Politics_&_Government PERSON
0.5 2:0 3:5 4:0 5:0 7:1 73:1 8925:1 # 20140615190410AAmWDg3 Patek NNP Sports PERSON
0.5 2:0 3:5 4:0 5:0 7:1 73:1 1479:1 # 20140605223141AA4aNVu Smith NNP Arts_&_Humanities PERSON
-0.26241022123138768584738045319682 2:0 3:5 4:0 5:0 7:1 73:1 1479:1 # 20140620105746AAnOLsk Smith NNP Sports TOKEN
-0.014724459126711053613689728081226 2:0 3:5 4:0 5:1 7:0 8:1 10733:1 # 20140611152558AA4un22 guage NN Cars_&_Transportation TOKEN
-0.0050416956448700034343346487730742 2:1 3:4 4:0 5:0 7:1 12:1 9272:1 # 20140601130859AAHxybZ Fans NNS Sports TOKEN
0.5 2:0 3:9 4:0 5:0 7:0 73:1 18950:1 # 20140611001634AAefV9p AnnaMaria NNP Pregnancy_&_Parenting PERSON
-0.5 2:0 3:6 4:0 5:0 7:1 73:1 3931:1 # 20140610052054AAkNfGL Google NNP Cars_&_Transportation TOKEN
-0.26262048157527179137460393576475 2:0 3:13 4:0 5:0 7:1 73:1 14905:1 # 20140611152642AAd7nNQ Dechlorinator NNP Pets TOKEN
-0.091642579283197633799318282399327 2:0 3:2 4:1 5:0 7:0 73:1 15014:1 # 20140613154011AAJ98M9 T. NNP Politics_&_Government TOKEN
-0.091664185156766109230375150218606 2:0 3:2 4:1 5:0 7:0 73:1 18237:1 # 20140605044942AAisLvo VF NNP Travel TOKEN
-0.091665035511164560944052936974913 2:0 3:2 4:1 5:0 7:0 73:1 3573:1 # 20140614134845AAVhWeg RW NNP Consumer_Electronics TOKEN
0.5 2:0 3:5 4:0 5:0 7:1 73:1 807:1 # 20140616072209AARwehs White NNP Arts_&_Humanities PERSON
0.5 2:0 3:5 4:0 5:0 7:1 73:1 5574:1 # 20140618141409AA9yzif Price NNP Entertainment_&_Music PERSON
0.5 2:0 3:5 4:0 5:0 7:1 73:1 13196:1 # 20140626120744AAMAD0e Korea NNP News_&_Events LOCATION
-0.18469958248551066049003566149622 2:0 3:1 4:0 5:1 7:0 35:1 73:1 # 20140621032104AA5LQDd a NNP Entertainment_&_Music TOKEN
-0.5 2:0 3:5 4:0 5:0 7:1 73:1 807:1 # 20140620035947AAeYEbM White NNP Local_Businesses TOKEN
-0.5 2:0 3:5 4:0 5:0 7:1 73:1 5574:1 # 20140603215034AABtnxF Price NNP Dining_Out TOKEN
-0.26261148518518118155640195254819 2:0 3:13 4:0 5:0 7:1 73:1 4724:1 # 20140617102632AAPzLAI Christmastime NNP Education_&_Reference TOKEN
0.5 2:0 3:10 4:0 5:0 7:1 73:1 4394:1 # 20140619105821AAuioIb University NNP Education_&_Reference ORGANIZATION
0.5 2:0 3:3 4:0 5:0 7:1 73:1 769:1 # 20140625193136AAUePpR Poe NNP Arts_&_Humanities PERSON
-0.2628668244137335463506133237388 2:0 3:4 4:0 5:0 7:1 73:1 8943:1 # 20140616195748AA2BAj7 Body NNP Social_Science TOKEN
-0.0067747704240446182666346430778503 2:0 3:58 4:0 5:1 7:0 26:1 19372:1 # 20140608060520AAMzqLw http:##internet-explorer-10-64bit.en.softonic.com#download JJ Yahoo!_Products TOKEN
0.5 2:0 3:5 4:0 5:0 7:1 73:1 5574:1 # 20140618141409AA9yzif Price NNP Entertainment_&_Music PERSON
-0.26293503863448908219879740499891 2:0 3:5 4:0 5:0 7:1 73:1 4109:1 # 20140607141649AANF6Tv Tower NNP Consumer_Electronics TOKEN
-0.26227326072424989034104214624676 2:0 3:5 4:0 5:0 7:1 73:1 263:1 # 20140620035947AAeYEbM Green NNP Local_Businesses TOKEN
-0.5 2:0 3:5 4:0 5:0 7:1 73:1 5574:1 # 20140603215034AABtnxF Price NNP Dining_Out TOKEN
0.5 2:0 3:6 4:0 5:0 7:1 73:1 8186:1 # 20140614170630AA1o9BQ Turkey NNP Politics_&_Government LOCATION
0.5 2:0 3:10 4:0 5:0 7:1 73:1 4198:1 # 20140622140805AAtjqJa Statistics NNP Cars_&_Transportation ORGANIZATION
-0.16290096162461364937001917496673 2:0 3:16 4:0 5:0 7:0 73:1 3950:1 # 20140603005221AAThPnj transfer-Android NNP Consumer_Electronics TOKEN
-0.014352529868004171298423443658976 2:0 3:5 4:0 5:1 7:0 8:1 18455:1 # 20140603150630AAk23z7 brick NN Travel TOKEN
-0.080017539173855567469217930920422 2:0 3:2 4:0 5:1 7:0 73:1 12976:1 # 20140622225954AAAlKMt ti NNP Local_Businesses TOKEN
-0.5 2:0 3:6 4:0 5:0 7:1 73:1 11147:1 # 20140608151316AAZv17m London NNP Travel TOKEN
-0.5 2:0 3:3 4:0 5:0 7:1 73:1 5166:1 # 20140620063230AAXLo9n May NNP Food_&_Drink TOKEN
0.5 2:0 3:7 4:0 5:1 7:0 8:1 5584:1 # 20140605040256AAru12G romance NN Entertainment_&_Music PERSON
0.5 2:0 3:3 4:0 5:0 7:1 73:1 5166:1 # 20140614004826AAWj9IB May NNP Entertainment_&_Music PERSON
0.5 2:0 3:3 4:0 5:0 7:1 73:1 2148:1 # 20140609160711AAprF2f Kay NNP Arts_&_Humanities PERSON
0.5 2:0 3:3 4:0 5:0 7:1 73:1 5259:1 # 20140614004826AAWj9IB Nim NNP Entertainment_&_Music PERSON
-0.091547829394040602934978778648656 2:0 3:2 4:1 5:0 7:0 73:1 6974:1 # 20140616114406AAi0jDN AC NNP Games_&_Recreation TOKEN
0.5 2:0 3:3 4:0 5:0 7:1 73:1 5559:1 # 20140618141409AA9yzif Ray NNP Entertainment_&_Music PERSON
0.5 2:0 3:7 4:0 5:0 7:1 73:1 17039:1 # 20140611192243AAwUpsS Abraham NNP Pregnancy_&_Parenting PERSON
0.5 2:0 3:7 4:0 5:0 7:1 73:1 5515:1 # 20140606053450AAtepIb Lycklig NNP Entertainment_&_Music PERSON
0.5 2:0 3:5 4:0 5:0 7:1 73:1 13729:1 # 20140612075720AAmNq58 Bundy NNP News_&_Events PERSON
0.5 2:0 3:5 4:0 5:0 7:1 73:1 7488:1 # 20140606132641AA7YK9b Yahoo NNP Yahoo!_Products ORGANIZATION
-0.5 2:0 3:5 4:0 5:0 7:1 73:1 7488:1 # 20140601163915AAS8CzR Yahoo NNP Family_&_Relationships TOKEN
-0.5 2:0 3:5 4:0 5:0 7:1 73:1 13729:1 # 20140612075720AAmNq58 Bundy NNP News_&_Events TOKEN
0.5 2:0 3:6 4:0 5:1 7:0 8:1 8740:1 # 20140612145554AAjlhJX europe NN Beauty_&_Style LOCATION
0.5 2:0 3:6 4:1 5:0 7:0 73:1 18073:1 # 20140617213812AAnm3nS DISNEY NNP Travel ORGANIZATION
0.5 2:0 3:3 4:0 5:0 7:1 73:1 12474:1 # 20140605130921AAXKqjH Xtx NNP Home_&_Garden PERSON
-0.014692119894554878101189387962222 2:0 3:5 4:0 5:1 7:0 8:1 2431:1 # 20140608182502AAjjJDR today NN Pregnancy_&_Parenting TOKEN
-0.18410585114185096244909800589085 2:0 3:4 4:0 5:1 7:0 73:1 12999:1 # 20140622225954AAAlKMt dien NNP Local_Businesses TOKEN
-0.091685553706854938660342213552212 2:0 3:2 4:1 5:0 7:0 73:1 15710:1 # 20140601064930AA0dvez CF NNP Politics_&_Government TOKEN
-0.091518329459293001892916663564392 2:0 3:2 4:1 5:0 7:0 73:1 13931:1 # 20140619072135AAeFu7N EU NNP Politics_&_Government TOKEN
-0.091240012040133322557267092633992 2:0 3:2 4:1 5:0 7:0 73:1 7866:1 # 20140603072418AAgZjcN GH NNP Science_&_Mathematics TOKEN
0.5 2:0 3:9 4:1 5:0 7:0 73:1 13026:1 # 20140610194612AA31tgA ENGLEWOOD NNP Local_Businesses LOCATION
-0.014252052615484497866127355791832 2:0 3:2 4:0 5:1 7:0 8:1 8566:1 # 20140626122426AATTDPa ad NN Beauty_&_Style TOKEN
0.5 2:0 3:5 4:0 5:0 7:1 73:1 5574:1 # 20140618141409AA9yzif Price NNP Entertainment_&_Music PERSON
0.5 2:0 3:5 4:0 5:0 7:1 73:1 9142:1 # 20140615215028AAGmoaM Cueto NNP Sports PERSON
0.5 2:0 3:5 4:0 5:0 7:1 73:1 1453:1 # 20140605223141AA4aNVu Scott NNP Arts_&_Humanities PERSON
0.5 2:0 3:5 4:0 5:0 7:1 73:1 9317:1 # 20140616143448AAdU6Ze Jimmy NNP Dining_Out ORGANIZATION
-0.006802402492995129890118732873816 2:0 3:3 4:0 5:1 7:0 26:1 31:1 # 20140615222209AAOSKxY new JJ Entertainment_&_Music TOKEN
0.5 2:0 3:5 4:0 5:0 7:1 73:1 263:1 # 20140608034752AAWHbyf Green NNP Arts_&_Humanities PERSON
0.5 2:0 3:5 4:0 5:0 7:1 73:1 4452:1 # 20140612160340AAE8W0E Jesus NNP Sports PERSON
0.5 2:0 3:5 4:0 5:0 7:1 73:1 8147:1 # 20140612211617AAE6Bis Syria NNP News_&_Events LOCATION
0.5 2:0 3:5 4:0 5:0 7:1 73:1 13960:1 # 20140626120744AAMAD0e North NNP News_&_Events LOCATION
-0.091686683453630735129991080611944 2:0 3:3 4:1 5:0 7:0 73:1 11035:1 # 20140605195407AAKcWWL NYC NNP Local_Businesses TOKEN
-0.09172128007024427098770047450671 2:0 3:3 4:1 5:0 7:0 73:1 9436:1 # 20140623022611AAddTaJ TAG NNP Sports TOKEN
-0.091745557432137303521813009865582 2:0 3:3 4:1 5:0 7:0 73:1 15056:1 # 20140617015321AAEmy38 MPH NNP Politics_&_Government TOKEN
-0.091721280070232502623639447847381 2:0 3:3 4:1 5:0 7:0 73:1 8235:1 # 20140622013948AAZujJH W#V NNP Science_&_Mathematics TOKEN
-0.091721280070246935522959574882407 2:0 3:3 4:1 5:0 7:0 73:1 3339:1 # 20140610164612AA5SkqL CAN NNP Health TOKEN
0.5 2:0 3:5 4:0 5:0 7:1 73:1 807:1 # 20140616143448AAdU6Ze White NNP Dining_Out ORGANIZATION
0.5 2:0 3:5 4:0 5:0 7:1 73:1 11341:1 # 20140616143448AAdU6Ze Kreme NNP Dining_Out ORGANIZATION
-0.5 2:0 3:5 4:0 5:0 7:1 73:1 263:1 # 20140605210007AAoMB1b Green NNP Home_&_Garden TOKEN
-0.5 2:0 3:5 4:0 5:0 7:1 73:1 807:1 # 20140620190356AAdnQme White NNP Entertainment_&_Music TOKEN
-0.262856353295639166844921419397 2:0 3:4 4:0 5:0 7:1 73:1 11249:1 # 20140617213812AAnm3nS Park NNP Travel TOKEN
0.5 2:0 3:5 4:0 5:0 7:1 73:1 2147:1 # 20140609160711AAprF2f Susan NNP Arts_&_Humanities PERSON
0.5 2:0 3:1 4:1 5:0 7:1 8:1 720:1 # 20140616143448AAdU6Ze D NN Dining_Out ORGANIZATION
-0.091763551303593260399793507531285 2:0 3:3 4:1 5:0 7:0 73:1 11780:1 # 20140620063230AAXLo9n BBQ NNP Food_&_Drink TOKEN
-0.091721280070246047344539874757174 2:0 3:3 4:1 5:0 7:0 73:1 18768:1 # 20140609063130AAx8NAT ATI NNP Computer_&_Internet TOKEN
-0.091721280070244048943095549475402 2:0 3:3 4:1 5:0 7:0 73:1 7150:1 # 20140604043842AAcLL5Z BTW NNP Games_&_Recreation TOKEN
-0.091708066422171441445243544876575 2:0 3:3 4:1 5:0 7:0 73:1 9801:1 # 20140608023935AA61Kab FUN NNP Social_Science TOKEN
-0.091671453862076646146306302398443 2:0 3:3 4:1 5:0 7:0 73:1 19078:1 # 20140620170402AA0uGdu SON NNP Pregnancy_&_Parenting TOKEN
0.5 2:0 3:5 4:0 5:0 7:1 73:1 2105:1 # 20140609160711AAprF2f Lloyd NNP Arts_&_Humanities PERSON
0.5 2:0 3:5 4:0 5:0 7:1 73:1 13946:1 # 20140626120744AAMAD0e Putin NNP News_&_Events PERSON
0.5 2:0 3:5 4:0 5:0 7:1 73:1 18479:1 # 20140614114159AAxmnir Dhabi NNP Travel LOCATION
-0.26281089945221169923428305992275 2:0 3:14 4:0 5:0 7:1 73:1 2837:1 # 20140610214206AAA5Std Discrimination NNP Business_&_Finance TOKEN
-0.014606114687362392601244209799916 2:0 3:3 4:0 5:1 7:0 8:1 1770:1 # 20140609214747AADyA9I job NN Local_Businesses TOKEN
-0.26213148823869492076710230321623 2:0 3:5 4:0 5:0 7:1 73:1 4591:1 # 20140608090153AAQx192 Solve NNP Education_&_Reference TOKEN
0.5 2:0 3:5 4:0 5:0 7:1 73:1 14382:1 # 20140613180332AA3jCxr Saudi NNP News_&_Events LOCATION
0.5 2:0 3:5 4:0 5:0 7:1 73:1 1886:1 # 20140605091638AATCTbo Maria NNP Arts_&_Humanities PERSON
0.5 2:0 3:5 4:0 5:0 7:1 73:1 11337:1 # 20140616143448AAdU6Ze Jason NNP Dining_Out ORGANIZATION
0.5 2:0 3:5 4:0 5:0 7:1 73:1 4458:1 # 20140618125641AAGkGpi South NNP Education_&_Reference LOCATION
0.5 2:0 3:5 4:0 5:0 7:1 73:1 3489:1 # 20140625230035AAgGhX2 Apple NNP Consumer_Electronics ORGANIZATION
0.5 2:0 3:5 4:0 5:0 7:1 73:1 14019:1 # 20140609103348AAf8tZ6 Allah NNP News_&_Events PERSON
-0.5 2:0 3:5 4:0 5:0 7:1 73:1 13946:1 # 20140610123048AAZOuhW Putin NNP Politics_&_Government TOKEN
0.5 2:0 3:4 4:0 5:1 7:0 43:1 8877:1 # 20140620015151AAISFRV nike VBP Beauty_&_Style ORGANIZATION
0.5 2:0 3:3 4:0 5:0 7:1 73:1 9458:1 # 20140623022611AAddTaJ Jon NNP Sports PERSON
-0.084859488112249636948547504289309 2:0 3:5 4:0 5:0 7:1 24:1 3366:1 # 20140613124158AAH0KXB Those DT Entertainment_&_Music TOKEN
0.5 2:0 3:5 4:0 5:0 7:1 73:1 11319:1 # 20140613214814AARwXS4 Dairy NNP Local_Businesses ORGANIZATION
0.5 2:0 3:5 4:0 5:0 7:1 73:1 1701:1 # 20140609112801AAnee0x China NNP Arts_&_Humanities LOCATION
0.5 2:0 3:5 4:0 5:0 7:1 73:1 4121:1 # 20140623104914AA6r2dE Intel NNP Computer_&_Internet ORGANIZATION
-0.014694902565044798414817250886699 2:0 3:5 4:0 5:1 7:0 8:1 3826:1 # 20140614154636AAYu9pP earth NN Social_Science TOKEN
-0.044434257244711616863241943065077 2:0 3:3 4:0 5:1 7:0 20:1 219:1 # 20140605200512AAK0eW7 get VBG Family_&_Relationships TOKEN
-0.044844789990449385186366271227598 2:0 3:3 4:0 5:1 7:0 20:1 518:1 # 20140607204711AAtWX4j ask VBG Local_Businesses TOKEN
-0.044823627650917741149783068976831 2:0 3:3 4:0 5:1 7:0 20:1 542:1 # 20140611222016AAhrT1y try VBG Computer_&_Internet TOKEN
0.5 2:0 3:5 4:0 5:0 7:1 73:1 5511:1 # 20140613111207AAD5YgE Wayne NNP Dining_Out PERSON
0.5 2:0 3:5 4:0 5:0 7:1 73:1 15640:1 # 20140614170630AA1o9BQ Sudan NNP Politics_&_Government LOCATION
0.5 2:0 3:5 4:0 5:0 7:1 73:1 5402:1 # 20140620190356AAdnQme Lucky NNP Entertainment_&_Music PERSON
0.5 2:0 3:5 4:0 5:0 7:1 73:1 3137:1 # 20140601131055AAPxhOP Texas NNP Business_&_Finance LOCATION
-0.5 2:0 3:5 4:0 5:0 7:1 73:1 14019:1 # 20140609103954AAB6LY5 Allah NNP News_&_Events TOKEN
-0.49972777005853963316894805757329 2:0 3:5 4:0 5:0 7:1 73:1 4458:1 # 20140601100338AAUfBLz South NNP News_&_Events TOKEN
-0.049432474287243621802190318703651 2:0 3:5 4:0 5:0 7:1 26:1 12174:1 # 20140610121407AAmfyfy Fresh JJ Food_&_Drink TOKEN
0.5 2:0 3:3 4:0 5:0 7:1 73:1 14276:1 # 20140609053527AAHPrln Ian NNP News_&_Events PERSON
0.5 2:0 3:5 4:0 5:0 7:1 73:1 8895:1 # 20140611011232AAoHyfn Allen NNP Sports PERSON
-0.014682201494277791198328486643732 2:0 3:4 4:0 5:1 7:0 8:1 6733:1 # 20140604153959AAylnd6 temp NN Games_&_Recreation TOKEN
-0.5 2:0 3:5 4:0 5:0 7:1 73:1 1886:1 # 20140613184703AAUoqQ4 Maria NNP Science_&_Mathematics TOKEN
-0.26285346601163639412845896004001 2:0 3:5 4:0 5:0 7:1 73:1 13946:1 # 20140610123048AAZOuhW Putin NNP Politics_&_Government TOKEN
0.5 2:0 3:5 4:0 5:0 7:1 73:1 4679:1 # 20140614170630AA1o9BQ Spain NNP Politics_&_Government LOCATION
0.5 2:0 3:5 4:0 5:0 7:1 73:1 10984:1 # 20140603235141AAdqnjl Mazda NNP Cars_&_Transportation ORGANIZATION
0.5 2:0 3:10 4:1 5:0 7:0 73:1 3568:1 # 20140614134845AAVhWeg CYBERPOWER NNP Consumer_Electronics ORGANIZATION
-0.26326061167555836473042063516914 2:0 3:5 4:0 5:0 7:1 73:1 4458:1 # 20140601100338AAUfBLz South NNP News_&_Events TOKEN
-0.5 2:0 3:5 4:0 5:0 7:1 73:1 14019:1 # 20140609103954AAB6LY5 Allah NNP News_&_Events TOKEN
-0.091548529217186036532893922412768 2:0 3:3 4:1 5:0 7:0 73:1 5208:1 # 20140614004826AAWj9IB FTM NNP Entertainment_&_Music TOKEN
0.5 2:0 3:5 4:0 5:0 7:1 73:1 1692:1 # 20140609112801AAnee0x India NNP Arts_&_Humanities LOCATION
0.5 2:0 3:5 4:0 5:0 7:1 73:1 14019:1 # 20140609103348AAf8tZ6 Allah NNP News_&_Events PERSON
-0.26253441061525800703790878287691 2:0 3:5 4:0 5:0 7:1 73:1 1692:1 # 20140614170630AA1o9BQ India NNP Politics_&_Government TOKEN
0.5 2:0 3:5 4:0 5:0 7:1 73:1 13946:1 # 20140626120744AAMAD0e Putin NNP News_&_Events PERSON
-0.014622293981510381399857578799129 2:0 3:3 4:0 5:1 7:0 8:1 1821:1 # 20140623193424AAEouJN fit NN Computer_&_Internet TOKEN
0.5 2:0 3:5 4:0 5:0 7:1 73:1 10525:1 # 20140622140805AAtjqJa Labor NNP Cars_&_Transportation ORGANIZATION
0.5 2:0 3:5 4:0 5:0 7:1 73:1 8718:1 # 20140622131925AAtjtJJ Blair NNP Beauty_&_Style PERSON
0.5 2:0 3:5 4:0 5:0 7:1 73:1 9067:1 # 20140605104442AAFzzy2 Rowen NNP Sports PERSON
0.5 2:0 3:5 4:0 5:0 7:1 73:1 686:1 # 20140605104442AAFzzy2 Bryan NNP Sports PERSON
0.5 2:0 3:5 4:0 5:0 7:1 73:1 5372:1 # 20140621194648AAv7Pxb Izaya NNP Entertainment_&_Music PERSON
0.5 2:0 3:5 4:0 5:0 7:1 73:1 2059:1 # 20140625193136AAUePpR Aaron NNP Arts_&_Humanities PERSON
-0.5 2:0 3:5 4:0 5:0 7:1 73:1 13946:1 # 20140610123048AAZOuhW Putin NNP Politics_&_Government TOKEN
-0.034841488617047389197978191077709 2:0 3:5 4:0 5:0 7:1 26:1 8342:1 # 20140605160251AAlylUY Curly JJ Beauty_&_Style TOKEN
-0.028075375388330492398836213396862 2:0 3:5 4:0 5:0 7:1 30:1 649:1 # 20140614045845AAdu92x After IN Computer_&_Internet TOKEN
0.5 2:0 3:5 4:0 5:0 7:1 73:1 15085:1 # 20140617015321AAEmy38 Eddie NNP Politics_&_Government PERSON
0.5 2:0 3:5 4:0 5:0 7:1 73:1 9438:1 # 20140623022611AAddTaJ Angle NNP Sports PERSON
0.5 2:0 3:5 4:0 5:0 7:1 73:1 18069:1 # 20140617213812AAnm3nS Epcot NNP Travel ORGANIZATION
0.5 2:0 3:5 4:0 5:0 7:1 73:1 4278:1 # 20140610075021AAwlDsA Miami NNP Dining_Out LOCATION
0.5 2:0 3:4 4:0 5:1 7:0 88:1 15152:1 # 20140612200636AAqMBhQ york VB Politics_&_Government LOCATION
-0.00084817337589271346587338484823704 2:0 3:5 4:0 5:0 7:1 40:1 7602:1 # 20140615124053AAji1XJ Hence RB Science_&_Mathematics TOKEN
-0.091736427047815483071246944746235 2:0 3:14 4:1 5:0 7:0 73:1 15095:1 # 20140617015321AAEmy38 ROL_2014-01-27 NNP Politics_&_Government TOKEN
0.5 2:0 3:3 4:0 5:0 7:1 73:1 15512:1 # 20140617193722AA5emAo Abu NNP Politics_&_Government PERSON
0.5 2:0 3:3 4:0 5:0 7:1 73:1 9479:1 # 20140613182418AAAZN2I Zeb NNP Sports PERSON
0.5 2:0 3:3 4:0 5:0 7:1 73:1 9306:1 # 20140626152929AAvb2mt Eck NNP Sports PERSON
0.5 2:0 3:3 4:0 5:0 7:1 73:1 4312:1 # 20140609103954AAB6LY5 San NNP News_&_Events LOCATION
0.5 2:0 3:3 4:0 5:0 7:1 73:1 9156:1 # 20140615215028AAGmoaM Gio NNP Sports PERSON
0.5 2:0 3:6 4:0 5:0 7:1 73:1 5266:1 # 20140622230045AAAI6WE Sydney NNP Travel PERSON
-0.022724332380334999470505863428116 2:0 3:4 4:0 5:1 7:0 20:1 650:1 # 20140620180056AARv7Hs each VBG Social_Science TOKEN
-0.26271759554921914059377741068602 2:0 3:6 4:0 5:0 7:1 73:1 15630:1 # 20140617203723AAnMv8x Marine NNP Politics_&_Government TOKEN
0.5 2:0 3:7 4:0 5:1 7:0 8:1 13566:1 # 20140622053126AAxcj34 lindsay NN Family_&_Relationships PERSON
-0.044829045078391957512842225241911 2:0 3:3 4:0 5:1 7:0 20:1 6445:1 # 20140622170617AATlgRE gon VBG Cars_&_Transportation TOKEN
-0.044901431318383533408677976694889 2:0 3:3 4:0 5:1 7:0 20:1 495:1 # 20140605183929AAMoGA3 pay VBG Politics_&_Government TOKEN
-0.044906411197388251821394078433514 2:0 3:3 4:0 5:1 7:0 20:1 281:1 # 20140613192110AABUd4A put VBG Beauty_&_Style TOKEN
-0.044906411197402462676109280437231 2:0 3:3 4:0 5:1 7:0 20:1 323:1 # 20140603131617AAsXYRf how VBG Education_&_Reference TOKEN
0.5 2:0 3:5 4:0 5:0 7:1 73:1 13487:1 # 20140607071218AAzGtJH Ricky NNP Family_&_Relationships PERSON
0.5 2:0 3:5 4:0 5:0 7:1 73:1 11373:1 # 20140616143448AAdU6Ze Shack NNP Dining_Out ORGANIZATION
0.5 2:0 3:5 4:0 5:0 7:1 73:1 14103:1 # 20140612211617AAE6Bis Qaeda NNP News_&_Events ORGANIZATION
0.5 2:0 3:5 4:0 5:0 7:1 73:1 3466:1 # 20140616143448AAdU6Ze Round NNP Dining_Out ORGANIZATION
-0.26266677845959174320000784064177 2:0 3:13 4:0 5:0 7:1 73:1 8150:1 # 20140625120602AAXWOm0 Mediterranean NNP Science_&_Mathematics TOKEN
-0.26266566454722972689950211133691 2:0 3:13 4:0 5:0 7:1 73:1 3098:1 # 20140622053126AAxcj34 Communication NNP Family_&_Relationships TOKEN
0.5 2:0 3:3 4:0 5:1 7:0 26:1 31:1 # 20140612200636AAqMBhQ new JJ Politics_&_Government LOCATION
0.5 2:0 3:5 4:0 5:0 7:1 73:1 19085:1 # 20140607064609AA5EKx9 Ronan NNP Pregnancy_&_Parenting PERSON
0.5 2:0 3:5 4:0 5:0 7:1 73:1 3704:1 # 20140613162418AAQFhPM Casio NNP Consumer_Electronics ORGANIZATION
0.5 2:0 3:5 4:0 5:0 7:1 73:1 4506:1 # 20140618125641AAGkGpi Jayne NNP Education_&_Reference PERSON
0.5 2:0 3:9 4:0 5:0 7:0 26:1 19499:1 # 20140609172302AAjgqUA non-Yahoo JJ Yahoo!_Products ORGANIZATION
0.076667057112214220815360476990463 2:0 3:7 4:0 5:0 7:1 73:1 5670:1 # 20140607125905AA2JtXv Ukraine NNP Politics_&_Government LOCATION
0.5 2:1 3:3 4:1 5:0 7:0 73:1 14427:1 # 20140617191218AAiEBHA CBS NNP News_&_Events ORGANIZATION
-0.091690697572475277077330702013569 2:0 3:3 4:1 5:0 7:0 73:1 1505:1 # 20140605231104AAm8fzJ NOT NNP Politics_&_Government TOKEN
-0.091695556121539567584477481432259 2:0 3:3 4:1 5:0 7:0 73:1 15124:1 # 20140625201720AA1VzQt E-3 NNP Politics_&_Government TOKEN
-0.091704883272232251556488336063921 2:0 3:3 4:1 5:0 7:0 73:1 4148:1 # 20140607141649AANF6Tv GPU NNP Consumer_Electronics TOKEN
0.5 2:0 3:5 4:0 5:0 7:1 73:1 9440:1 # 20140623022611AAddTaJ Brock NNP Sports PERSON
0.5 2:0 3:5 4:0 5:0 7:1 73:1 688:1 # 20140623100602AAeUxIh Blake NNP Arts_&_Humanities PERSON
0.5 2:0 3:5 4:0 5:0 7:1 73:1 11060:1 # 20140601101734AAAYp2K Cheng NNP Dining_Out ORGANIZATION
0.5 2:0 3:5 4:0 5:0 7:1 73:1 1708:1 # 20140618212015AAM2O4i Delhi NNP Travel LOCATION
0.5 2:0 3:5 4:0 5:0 7:1 73:1 11355:1 # 20140616143448AAdU6Ze Panda NNP Dining_Out ORGANIZATION
0.5 2:0 3:5 4:0 5:0 7:1 73:1 807:1 # 20140617074422AANUT7h White NNP Arts_&_Humanities PERSON
-0.5 2:0 3:5 4:0 5:0 7:1 73:1 3466:1 # 20140625210906AATgayM Round NNP News_&_Events TOKEN
0.5 2:0 3:7 4:0 5:1 7:0 8:1 13879:1 # 20140617033632AAaS0SQ britney NN News_&_Events PERSON
-0.014547009569639612891478464007378 2:0 3:2 4:0 5:1 7:0 8:1 5038:1 # 20140611112422AAvMvFi mg NN Education_&_Reference TOKEN
0.5 2:0 3:7 4:0 5:1 7:0 8:1 11079:1 # 20140616143448AAdU6Ze chicken NN Dining_Out ORGANIZATION
-0.5 2:0 3:5 4:0 5:0 7:1 73:1 807:1 # 20140613125219AA2D0JF White NNP Beauty_&_Style TOKEN
-0.091731390019877068198184133507311 2:0 3:3 4:1 5:0 7:0 73:1 15233:1 # 20140610123048AAZOuhW SOP NNP Politics_&_Government TOKEN
-0.091696364121307993855225504375994 2:0 3:3 4:1 5:0 7:0 73:1 10711:1 # 20140611152558AA4un22 MAF NNP Cars_&_Transportation TOKEN
-0.091709788051176133194530848413706 2:0 3:3 4:1 5:0 7:0 73:1 18328:1 # 20140623010804AATRu9l OT4 NNP Travel TOKEN
-0.091720976715613744545407826080918 2:0 3:3 4:1 5:0 7:0 73:1 4140:1 # 20140612121603AAc09vI CPU NNP Games_&_Recreation TOKEN
-0.091682779810961623212506310665049 2:0 3:3 4:1 5:0 7:0 73:1 14470:1 # 20140621143727AAOCXDZ DSH NNP Pets TOKEN
-0.014454443404712691290114889852703 2:0 3:1 4:0 5:1 7:0 8:1 8717:1 # 20140623173753AAUMZe3 c NN Food_&_Drink TOKEN
-0.014367628494626583091076099663042 2:0 3:1 4:0 5:1 7:0 8:1 7337:1 # 20140623023853AA1SoFR h NN Science_&_Mathematics TOKEN
-0.013812935692600503134741529720486 2:0 3:1 4:0 5:1 7:0 8:1 2330:1 # 20140616230100AA0TniQ e NN Business_&_Finance TOKEN
0.5 2:1 3:3 4:1 5:0 7:0 73:1 9297:1 # 20140626152929AAvb2mt SFS NNP Sports ORGANIZATION
0.5 2:0 3:5 4:0 5:0 7:1 73:1 770:1 # 20140617074422AANUT7h Dante NNP Arts_&_Humanities PERSON
-0.091368185751377506420567442546599 2:0 3:3 4:1 5:0 7:0 73:1 3689:1 # 20140609063130AAx8NAT HDD NNP Computer_&_Internet TOKEN
-0.091696364121290230286831501871347 2:0 3:3 4:1 5:0 7:0 73:1 19268:1 # 20140618114010AAeeGQR STI NNP Pregnancy_&_Parenting TOKEN
-0.091786518299272756848949939012527 2:0 3:3 4:1 5:0 7:0 73:1 6766:1 # 20140625035457AAwYqoP RAM NNP Games_&_Recreation TOKEN
-0.091741194358874622594157699495554 2:0 3:3 4:1 5:0 7:0 73:1 19056:1 # 20140620170402AA0uGdu DAD NNP Pregnancy_&_Parenting TOKEN
-0.091411297509866762389663108478999 2:0 3:3 4:1 5:0 7:0 73:1 13221:1 # 20140611090216AAsNyRd BFF NNP Family_&_Relationships TOKEN
-0.014698443369244029721443212110898 2:0 3:17 4:0 5:1 7:0 8:1 10701:1 # 20140611152558AA4un22 engine#body#frame NN Cars_&_Transportation TOKEN
-0.025107206648736113407949233078398 2:1 3:16 4:0 5:0 7:0 73:1 19236:1 # 20140601140351AAMxHZD Hearing#thinking NNP Pregnancy_&_Parenting TOKEN
-0.011264900879372818920387544494588 2:0 3:4 4:0 5:0 7:1 30:1 1947:1 # 20140623171559AARTbz7 With IN Computer_&_Internet TOKEN
-0.083605132582022179121850058436394 2:1 3:15 4:0 5:0 7:0 73:1 11288:1 # 20140615191331AAdpnmg Fillet-o-Fishes NNP Dining_Out TOKEN
-0.26223620861648300195412275570561 2:0 3:7 4:0 5:0 7:1 73:1 3941:1 # 20140603005221AAThPnj Youtube NNP Consumer_Electronics TOKEN
-0.091562378545973766019727690945729 2:0 3:3 4:1 5:0 7:0 73:1 15125:1 # 20140625201720AA1VzQt PFC NNP Politics_&_Government TOKEN
-0.091705200822439714158917922759429 2:0 3:3 4:1 5:0 7:0 73:1 10433:1 # 20140622053311AA7YtqE DSA NNP Cars_&_Transportation TOKEN
-0.091763551303614576681866310536861 2:0 3:3 4:1 5:0 7:0 73:1 14694:1 # 20140626142532AAHm2Mx AKC NNP Pets TOKEN
-0.091708066422185652299958746880293 2:0 3:3 4:1 5:0 7:0 73:1 15696:1 # 20140614170630AA1o9BQ MI6 NNP Politics_&_Government TOKEN
-0.091731144723681268260406795889139 2:0 3:3 4:1 5:0 7:0 73:1 19099:1 # 20140608111211AAkpqtd DAY NNP Pregnancy_&_Parenting TOKEN
0.5 2:0 3:5 4:0 5:0 7:1 73:1 11361:1 # 20140616143448AAdU6Ze Pizza NNP Dining_Out ORGANIZATION
0.5 2:0 3:5 4:0 5:0 7:1 73:1 5405:1 # 20140620190356AAdnQme Bugsy NNP Entertainment_&_Music PERSON
0.5 2:0 3:2 4:0 5:1 7:0 8:1 13095:1 # 20140620035947AAeYEbM sc NN Local_Businesses LOCATION
-0.26203994789669060594405891606584 2:0 3:5 4:0 5:0 7:1 73:1 11361:1 # 20140618202204AAODcVd Pizza NNP Food_&_Drink TOKEN
-0.2628521432940686963775078766048 2:0 3:4 4:0 5:0 7:1 73:1 5349:1 # 20140613124917AAp8Kiq Code NNP Entertainment_&_Music TOKEN
