SVM-light Version V6.02
0 # kernel type
3 # kernel parameter -d 
1 # kernel parameter -g 
1 # kernel parameter -s 
1 # kernel parameter -r 
empty# kernel parameter -u 
19569 # highest feature index 
69010 # number of training documents 
7331 # number of support vectors plus 1 
1.0435614 # threshold b, each following line is a SV (starting with alpha*y)
-0.010367836385256734565984970686259 2:0 3:5 4:0 5:0 7:1 30:1 5822:1 # 20140623142217AAHjEJM Since IN Politics_&_Government TOKEN
0.5 2:0 3:6 4:0 5:0 7:1 73:1 8540:1 # 20140617213812AAnm3nS Studio NNP Travel ORGANIZATION
0.5 2:0 3:7 4:0 5:0 7:0 73:1 3594:1 # 20140603131617AAsXYRf YouTube NNP Education_&_Reference ORGANIZATION
-0.010527543560370127354031133393164 2:0 3:5 4:0 5:0 7:1 26:1 2848:1 # 20140618215915AAruZzF Small JJ News_&_Events TOKEN
0.5 2:0 3:6 4:0 5:1 7:0 26:1 13789:1 # 20140617203723AAnMv8x muslim JJ Politics_&_Government ORGANIZATION
0.5 2:0 3:4 4:0 5:0 7:1 73:1 13979:1 # 20140614170630AA1o9BQ Bush NNP Politics_&_Government PERSON
-0.048188030019411631776904414437013 2:0 3:4 4:0 5:0 7:1 88:1 9311:1 # 20140626152929AAvb2mt Pack VB Sports TOKEN
-0.5 2:0 3:6 4:0 5:0 7:1 73:1 8540:1 # 20140610100930AAaZ9T3 Studio NNP Beauty_&_Style TOKEN
-0.21462512385322440877644112333655 2:0 3:1 4:1 5:0 7:1 73:1 4291:1 # 20140612212350AAeLl07 U NNP Family_&_Relationships TOKEN
-0.21568301544867107821801255340688 2:0 3:1 4:1 5:0 7:1 73:1 429:1 # 20140604203617AAQJuGv A NNP Games_&_Recreation TOKEN
-0.21522748489748116940134536889673 2:0 3:1 4:1 5:0 7:1 73:1 8228:1 # 20140622013948AAZujJH W NNP Science_&_Mathematics TOKEN
0.5 2:0 3:3 4:0 5:1 7:0 30:1 292:1 # 20140605040256AAru12G out IN Entertainment_&_Music PERSON
-0.00081070891888720963969205968169263 2:0 3:4 4:0 5:0 7:1 49:1 706:1 # 20140612140037AACDVOn Okay UH Social_Science TOKEN
0.5 2:0 3:11 4:0 5:1 7:0 8:1 9169:1 # 20140623155342AAYpGzf bridgestone NN Sports ORGANIZATION
-0.079474573251858582345619197440101 2:0 3:3 4:0 5:0 7:1 204:1 1638:1 # 20140606222934AAKFPKy One CD Social_Science TOKEN
0.5 2:0 3:11 4:0 5:0 7:1 73:1 11052:1 # 20140601101734AAAYp2K Serendipity NNP Dining_Out ORGANIZATION
0.5 2:0 3:11 4:0 5:0 7:1 73:1 775:1 # 20140617074422AANUT7h Shakespeare NNP Arts_&_Humanities PERSON
-0.30851163091365130242138548055664 2:0 3:2 4:0 5:0 7:1 73:1 6782:1 # 20140614172231AAsQkBF Ur NNP Politics_&_Government TOKEN
-0.30850160423925210295692522777244 2:0 3:2 4:0 5:0 7:1 73:1 185:1 # 20140609031322AAZz3r8 So NNP Travel TOKEN
-0.30850748322927290523409737943439 2:0 3:2 4:0 5:0 7:1 73:1 230:1 # 20140621192007AAsQBSf Im NNP Pregnancy_&_Parenting TOKEN
0.5 2:0 3:9 4:0 5:1 7:0 88:1 1266:1 # 20140610075021AAwlDsA hollywood VB Dining_Out LOCATION
0.5 2:1 3:6 4:0 5:1 7:0 123:1 13880:1 # 20140617033632AAaS0SQ spears VBZ News_&_Events PERSON
0.5 2:1 3:2 4:1 5:0 7:0 16:1 2475:1 # 20140617191218AAiEBHA US PRP News_&_Events LOCATION
-0.2319539985749394794822819676483 2:1 3:2 4:0 5:0 7:1 73:1 6889:1 # 20140622223032AAkvyyd Us NNP Games_&_Recreation TOKEN
-0.23167473492003676227568575995974 2:1 3:2 4:0 5:0 7:1 73:1 247:1 # 20140613191324AAysIAb Am NNP Family_&_Relationships TOKEN
-0.22998235598766036957840697141364 2:1 3:3 4:0 5:0 7:1 73:1 15163:1 # 20140610123048AAZOuhW Drs NNP Politics_&_Government TOKEN
0.5 2:0 3:3 4:0 5:1 7:0 30:1 292:1 # 20140605040256AAru12G out IN Entertainment_&_Music PERSON
0.5 2:0 3:6 4:0 5:1 7:0 43:1 1441:1 # 20140617052323AAeXK8h google VBP Cars_&_Transportation ORGANIZATION
0.5 2:1 3:4 4:0 5:0 7:1 73:1 15214:1 # 20140610123048AAZOuhW Rose NNP Politics_&_Government LOCATION
-0.21368234362766713729797629639506 2:0 3:1 4:0 5:1 7:0 73:1 3471:1 # 20140622093907AASVTkE t NNP Business_&_Finance TOKEN
0.5 2:1 3:8 4:0 5:0 7:1 73:1 15513:1 # 20140617193722AA5emAo Khattala NNP Politics_&_Government PERSON
0.5 2:0 3:2 4:1 5:0 7:0 73:1 3408:1 # 20140610222206AAaaj3T UK NNP News_&_Events LOCATION
0.5 2:1 3:9 4:0 5:0 7:1 73:1 8460:1 # 20140612022126AAsUT1R Wayfarers NNP Beauty_&_Style ORGANIZATION
-0.21048422542680478297683066557511 2:0 3:8 4:0 5:0 7:1 73:1 4593:1 # 20140623064734AAHH1Hb Equation NNP Science_&_Mathematics TOKEN
-0.28936267528358783351905003655702 2:0 3:12 4:0 5:0 7:1 73:1 13916:1 # 20140617191218AAiEBHA Conservative NNP News_&_Events TOKEN
-0.16745080811567714107468418660574 2:0 3:4 4:0 5:0 7:1 73:1 13137:1 # 20140607104826AAF23WO Whay NNP Local_Businesses TOKEN
-0.11371091495273333293880568817258 2:0 3:6 4:0 5:0 7:1 8:1 3514:1 # 20140613025817AAIhYP8 Anyone NN Games_&_Recreation TOKEN
0.5 2:0 3:4 4:0 5:0 7:1 73:1 11380:1 # 20140616143448AAdU6Ze Togo NNP Dining_Out ORGANIZATION
0.5 2:1 3:6 4:1 5:0 7:0 73:1 3136:1 # 20140601131055AAPxhOP DALLAS NNP Business_&_Finance LOCATION
-0.5 2:0 3:3 4:0 5:1 7:0 73:1 292:1 # 20140618125641AAGkGpi out NNP Education_&_Reference TOKEN
0.5 1:1 2:0 3:4 4:0 5:0 6:1 7:1 # 20140608034752AAWHbyf Will MD Arts_&_Humanities PERSON
-0.5 2:1 3:2 4:1 5:0 7:0 73:1 2475:1 # 20140607125905AA2JtXv US NNP Politics_&_Government TOKEN
-0.5 2:1 3:2 4:1 5:0 7:0 16:1 2475:1 # 20140609172302AAjgqUA US PRP Yahoo!_Products TOKEN
0.5 2:0 3:9 4:0 5:1 7:0 8:1 7298:1 # 20140606094406AAvjkJW wikipedia NN Games_&_Recreation ORGANIZATION
0.5 2:0 3:2 4:0 5:1 7:0 73:1 149:1 # 20140616143448AAdU6Ze in NNP Dining_Out ORGANIZATION
-0.5 2:0 3:7 4:0 5:0 7:1 73:1 11588:1 # 20140605102530AA17S7s Garland NNP Dining_Out TOKEN
-0.5 2:0 3:7 4:0 5:0 7:1 73:1 3941:1 # 20140603005221AAThPnj Youtube NNP Consumer_Electronics TOKEN
0.5 2:0 3:11 4:0 5:0 7:1 73:1 9108:1 # 20140614220006AA90c02 Springfield NNP Sports LOCATION
-0.30089319515727730447451904183254 2:0 3:6 4:0 5:0 7:1 73:1 14294:1 # 20140621045509AAck6mP Saddam NNP News_&_Events TOKEN
0.5 2:1 3:3 4:1 5:0 7:0 73:1 15277:1 # 20140625082631AAcgyMl IRS NNP Politics_&_Government ORGANIZATION
0.5 2:0 3:11 4:0 5:0 7:1 73:1 15695:1 # 20140614170630AA1o9BQ Brotherhood NNP Politics_&_Government ORGANIZATION
-0.30656402794448789350667539110873 2:0 3:3 4:0 5:0 7:1 73:1 12095:1 # 20140619114039AAjxNQW Law NNP Food_&_Drink TOKEN
-0.020876490517002466162921336945146 2:0 3:4 4:0 5:1 7:0 8:1 1270:1 # 20140617015321AAEmy38 plan NN Politics_&_Government TOKEN
-0.30471081338850325437306310050189 2:0 3:4 4:0 5:0 7:1 73:1 3579:1 # 20140608132523AAWfvBH Home NNP Computer_&_Internet TOKEN
-0.11113443271266265632846170774428 2:0 3:7 4:0 5:0 7:1 8:1 9044:1 # 20140605104442AAFzzy2 Payback NN Sports TOKEN
0.5 2:0 3:6 4:0 5:0 7:1 73:1 5590:1 # 20140601102431AAJe7ZG Hannah NNP Family_&_Relationships PERSON
0.5 2:0 3:6 4:0 5:0 7:1 73:1 271:1 # 20140605140138AAyDVJY Alaska NNP Entertainment_&_Music LOCATION
-0.026630097434810817702555141295306 2:0 3:5 4:0 5:0 7:1 139:1 287:1 # 20140605120055AAFv86q There EX Consumer_Electronics TOKEN
-0.20385594507683413301180053167627 2:0 3:1 4:0 5:0 7:0 73:1 666:1 # 20140617015321AAEmy38 6 NNP Politics_&_Government TOKEN
-0.039113616510279669569172256160527 2:0 3:1 4:0 5:0 7:0 73:1 131:1 # 20140613202053AAONeF7 - NNP Games_&_Recreation TOKEN
-0.018711578360518732466744040721096 2:0 3:5 4:0 5:1 7:0 8:1 723:1 # 20140621092416AArsE0s front NN Social_Science TOKEN
-0.5 2:0 3:2 4:1 5:0 7:0 73:1 3507:1 # 20140603135339AAL5mDP CA NNP Cars_&_Transportation TOKEN
-0.10108536999563813574276593953982 2:0 3:5 4:1 5:0 7:0 73:1 13903:1 # 20140617033632AAaS0SQ BLESS NNP News_&_Events TOKEN
0.11708713058311159826985203835648 2:0 3:7 4:0 5:1 7:0 20:1 3646:1 # 20140617015321AAEmy38 youtube VBG Politics_&_Government ORGANIZATION
-0.10816926040311464207732683462382 2:0 3:2 4:1 5:0 7:0 73:1 4316:1 # 20140604083714AANM1Br SC NNP Education_&_Reference TOKEN
-0.10811498639498662299729403457604 2:0 3:2 4:1 5:0 7:0 73:1 5338:1 # 20140613124917AAp8Kiq RP NNP Entertainment_&_Music TOKEN
0.5 2:0 3:6 4:0 5:0 7:1 73:1 1756:1 # 20140621104938AAA4IC5 Disney NNP Business_&_Finance ORGANIZATION
-0.10817213789497159837083017919213 2:0 3:2 4:1 5:0 7:0 73:1 14746:1 # 20140620141720AAh6NZ6 JR NNP Pets TOKEN
0.5 2:1 3:4 4:0 5:1 7:0 45:1 847:1 # 20140601162630AAuDjDG laid VBN Sports ORGANIZATION
0.5 2:0 3:6 4:1 5:0 7:0 73:1 8317:1 # 20140626034154AAGjZE1 LITTLE NNP Food_&_Drink PERSON
-0.5 2:0 3:6 4:1 5:0 7:0 73:1 8317:1 # 20140614131802AAL6tJW LITTLE NNP Beauty_&_Style TOKEN
-0.5 2:0 3:10 4:0 5:1 7:0 8:1 3309:1 # 20140607140550AAYTiFo university NN Education_&_Reference TOKEN
0.5 2:0 3:11 4:0 5:0 7:1 73:1 4290:1 # 20140604083714AANM1Br Northampton NNP Education_&_Reference LOCATION
-0.30850981614725725421521929092705 2:0 3:2 4:0 5:0 7:1 73:1 5396:1 # 20140614114159AAxmnir Al NNP Travel TOKEN
-0.30851163091364419699402787955478 2:0 3:2 4:0 5:0 7:1 73:1 844:1 # 20140626112013AAPPVIB Ok NNP Consumer_Electronics TOKEN
-0.30850160423927031061452908033971 2:0 3:2 4:0 5:0 7:1 73:1 9627:1 # 20140618192549AAzYXYR Se NNP Social_Science TOKEN
-0.30850160423927119879294878046494 2:0 3:2 4:0 5:0 7:1 73:1 11293:1 # 20140618215915AAruZzF Ya NNP News_&_Events TOKEN
-0.30739857969586914521187281934544 2:0 3:2 4:0 5:0 7:1 73:1 1086:1 # 20140605231104AAm8fzJ He NNP Politics_&_Government TOKEN
-0.29319977832808064022174221463501 2:0 3:10 4:0 5:0 7:1 73:1 18245:1 # 20140609221937AAH7tge Craigslist NNP Travel TOKEN
-0.30845910594913839020136947510764 2:0 3:2 4:0 5:0 7:1 73:1 5832:1 # 20140613124158AAH0KXB Va NNP Entertainment_&_Music TOKEN
-0.30783644834989587479867623187602 2:0 3:2 4:0 5:0 7:1 73:1 11037:1 # 20140616141511AAlZZIn Iv NNP Dining_Out TOKEN
-0.30823482572990101857612899038941 2:0 3:2 4:0 5:0 7:1 73:1 12959:1 # 20140622225954AAAlKMt Ho NNP Local_Businesses TOKEN
-0.3084697946377943367224361281842 2:0 3:2 4:0 5:0 7:1 73:1 755:1 # 20140619012658AAFU8Pz Do NNP Yahoo!_Products TOKEN
-0.30825505105575445874421802727738 2:0 3:2 4:0 5:0 7:1 73:1 11461:1 # 20140603215034AABtnxF Le NNP Dining_Out TOKEN
-0.30777889596582719278217155078892 2:0 3:2 4:0 5:0 7:1 73:1 3010:1 # 20140611204210AAPJj1y Dr NNP Business_&_Finance TOKEN
-0.30740349269326650016864732606336 2:0 3:2 4:0 5:0 7:1 73:1 12930:1 # 20140622225954AAAlKMt Mr NNP Local_Businesses TOKEN
-0.30740349269326294745496852556244 2:0 3:2 4:0 5:0 7:1 73:1 966:1 # 20140607141649AANF6Tv In NNP Consumer_Electronics TOKEN
-0.30830183169942471099744807361276 2:0 3:2 4:0 5:0 7:1 73:1 9659:1 # 20140616160015AAkjHsB La NNP Dining_Out TOKEN
-0.30740349269326650016864732606336 2:0 3:2 4:0 5:0 7:1 73:1 7632:1 # 20140618095228AAKVjIw Ri NNP Science_&_Mathematics TOKEN
-0.30832335256546439250513458318892 2:0 3:2 4:0 5:0 7:1 73:1 9266:1 # 20140617195809AA0PD6g Di NNP Sports TOKEN
0.5 2:0 3:7 4:0 5:1 7:0 26:1 7383:1 # 20140614114159AAxmnir western JJ Travel LOCATION
0.5 2:0 3:9 4:0 5:1 7:0 8:1 5352:1 # 20140621194648AAv7Pxb bertholdt NN Entertainment_&_Music PERSON
-0.48730538947584145503810759691987 2:0 3:7 4:0 5:1 7:0 26:1 7383:1 # 20140622011723AAsDjlo western JJ Games_&_Recreation TOKEN
-0.020687277529222392047358880518004 2:0 3:4 4:0 5:1 7:0 8:1 2801:1 # 20140621115845AAQL7uD test NN Family_&_Relationships TOKEN
-0.021787158353159696844159043394029 2:0 3:1 4:0 5:1 7:0 8:1 3546:1 # 20140606180112AAwWKv0 x NN Pets TOKEN
-0.026228339310096326908450237169745 2:0 3:1 4:0 5:1 7:0 8:1 7684:1 # 20140618170211AA99yVG π NN Science_&_Mathematics TOKEN
-0.02320039320710520769353024661541 2:0 3:1 4:0 5:1 7:0 8:1 3741:1 # 20140622230045AAAI6WE m NN Travel TOKEN
0.5 2:0 3:6 4:0 5:0 7:1 73:1 8902:1 # 20140611011232AAoHyfn Lebron NNP Sports PERSON
0.5 2:0 3:10 4:0 5:1 7:0 8:1 3309:1 # 20140619105821AAuioIb university NN Education_&_Reference ORGANIZATION
-0.026393827532754432496631125104614 2:0 3:1 4:0 5:1 7:0 8:1 7570:1 # 20140615103833AAIK4wa n NN Pets TOKEN
-0.016353695291400641154133666077541 2:0 3:1 4:0 5:0 7:0 8:1 7560:1 # 20140623023853AA1SoFR ≈ NN Science_&_Mathematics TOKEN
-0.30550271382926941221569450135576 2:0 3:3 4:0 5:0 7:1 73:1 1896:1 # 20140605091638AATCTbo Too NNP Arts_&_Humanities TOKEN
-0.0088207125876518244211865749093704 2:0 3:4 4:0 5:1 7:0 8:1 2478:1 # 20140622072140AAPnIrk file NN Food_&_Drink TOKEN
-0.023934247549742604377343013766222 2:0 3:5 4:0 5:0 7:1 26:1 727:1 # 20140609103954AAB6LY5 Sorry JJ News_&_Events TOKEN
-0.014366671470500969043371242150897 2:0 3:7 4:0 5:1 7:0 8:1 965:1 # 20140612050152AA6IWUg success NN Business_&_Finance TOKEN
-0.5 2:0 3:2 4:0 5:1 7:0 8:1 5994:1 # 20140615211937AA9zqfw uk NN Health TOKEN
-0.025311537417827878471143776550889 2:0 3:1 4:0 5:1 7:0 8:1 4815:1 # 20140608001904AAVKEC5 g NN Computer_&_Internet TOKEN
-0.02639382753309216234072209772421 2:0 3:1 4:0 5:1 7:0 8:1 7337:1 # 20140623023853AA1SoFR h NN Science_&_Mathematics TOKEN
-0.026393827532752434095186799822841 2:0 3:1 4:0 5:1 7:0 8:1 2330:1 # 20140616230100AA0TniQ e NN Business_&_Finance TOKEN
-0.01570877835654593823733193858061 2:0 3:6 4:0 5:1 7:0 8:1 5524:1 # 20140617203632AANuG3B batman NN Entertainment_&_Music TOKEN
-0.087002320753029493971553165465593 2:0 3:13 4:1 5:0 7:0 73:1 18668:1 # 20140623171559AARTbz7 GA-F2A88X-D3H NNP Computer_&_Internet TOKEN
-0.23003947893831622195648378692567 2:1 3:3 4:0 5:0 7:1 73:1 11237:1 # 20140610172137AA9hoaq Las NNP Dining_Out TOKEN
-0.11927313345815715450726202107035 2:0 3:3 4:0 5:0 7:1 8:1 7209:1 # 20140615171734AAd4Cuo Hmm NN Yahoo!_Products TOKEN
-0.11899562732838120382439228706062 2:0 3:3 4:0 5:0 7:1 8:1 4433:1 # 20140621041314AA5qW3l Mom NN Education_&_Reference TOKEN
0.5 2:0 3:6 4:0 5:1 7:0 26:1 5214:1 # 20140615171734AAd4Cuo virgin JJ Yahoo!_Products PERSON
0.5 2:0 3:5 4:1 5:0 7:0 73:1 14429:1 # 20140617193722AA5emAo MSNBC NNP Politics_&_Government ORGANIZATION
-0.5 2:0 3:6 4:0 5:1 7:0 26:1 5214:1 # 20140621092416AArsE0s virgin JJ Social_Science TOKEN
-0.5 2:0 3:3 4:0 5:0 7:1 73:1 5166:1 # 20140608132523AAWfvBH May NNP Computer_&_Internet TOKEN
0.5 2:0 3:5 4:0 5:0 7:1 8:1 5440:1 # 20140616143448AAdU6Ze Juice NN Dining_Out ORGANIZATION
-0.2300394789382949056744109839201 2:1 3:3 4:0 5:0 7:1 73:1 3523:1 # 20140614134845AAVhWeg Ops NNP Consumer_Electronics TOKEN
-0.2300406662902885202015568211209 2:1 3:3 4:0 5:0 7:1 73:1 15595:1 # 20140617203723AAnMv8x Hes NNP Politics_&_Government TOKEN
-0.23029077515965859501712031942589 2:1 3:3 4:0 5:0 7:1 73:1 3284:1 # 20140601093053AA6zdEg Ids NNP Business_&_Finance TOKEN
-0.21529598547260775376344099640846 2:1 3:11 4:0 5:0 7:1 73:1 18991:1 # 20140606232017AAQ2iYc Ultrasounds NNP Pregnancy_&_Parenting TOKEN
-0.1339756082595313924077373712862 2:1 3:3 4:0 5:1 7:0 73:1 5285:1 # 20140621035229AASbo9S men NNP Social_Science TOKEN
-0.13385213214199476183807746565435 2:1 3:3 4:0 5:1 7:0 63:1 73:1 # 20140611153520AAksgjY are NNP Computer_&_Internet TOKEN
0.5 2:0 3:5 4:0 5:0 7:1 26:1 11375:1 # 20140616143448AAdU6Ze Sonic JJ Dining_Out ORGANIZATION
-0.091417993326333046866238873917609 2:0 3:3 4:0 5:0 7:1 26:1 1100:1 # 20140611185044AABR6jn Bad JJ Family_&_Relationships TOKEN
-0.0004925505742665592379125882871449 2:0 3:9 4:0 5:1 7:0 8:1 14813:1 # 20140601002604AAq45X7 pregnancy NN Pregnancy_&_Parenting TOKEN
-0.091400941420158865469147713156417 2:0 3:3 4:0 5:0 7:1 26:1 884:1 # 20140608023935AA61Kab Lol JJ Social_Science TOKEN
-0.091557683335021372572626319197298 2:0 3:3 4:0 5:0 7:1 26:1 9931:1 # 20140621092416AArsE0s Due JJ Social_Science TOKEN
0.5 2:1 3:4 4:1 5:0 7:0 73:1 13003:1 # 20140625100949AAuIkTO USPS NNP Local_Businesses ORGANIZATION
-0.012633176835041837193784886039793 2:0 3:3 4:0 5:1 7:0 43:1 13626:1 # 20140617094029AAZ1FwJ blv VBP Family_&_Relationships TOKEN
-0.014122358830119807748815219383687 2:0 3:7 4:0 5:1 7:0 8:1 1217:1 # 20140609221937AAH7tge outside NN Travel TOKEN
-0.014049866322434670373731080417201 2:0 3:7 4:0 5:1 7:0 8:1 2224:1 # 20140612062149AAH8vjl vehicle NN Arts_&_Humanities TOKEN
-0.30465859410723883371474585146643 2:0 3:4 4:0 5:0 7:1 73:1 12913:1 # 20140622225954AAAlKMt Sinh NNP Local_Businesses TOKEN
-0.031638382182933938446822708101536 2:1 3:2 4:1 5:0 7:0 73:1 311:1 # 20140601140351AAMxHZD IS NNP Pregnancy_&_Parenting TOKEN
0.5 2:0 3:7 4:0 5:0 7:1 26:1 8190:1 # 20140625120602AAXWOm0 Kurdish JJ Science_&_Mathematics LOCATION
-0.029373216905364055162586112146528 2:1 3:3 4:1 5:0 7:0 73:1 18070:1 # 20140617213812AAnm3nS DHS NNP Travel TOKEN
-0.029970640550702976057095838768873 2:1 3:3 4:1 5:0 7:0 73:1 18986:1 # 20140617102648AARlmNg PMS NNP Pregnancy_&_Parenting TOKEN
-0.5 2:1 3:3 4:1 5:0 7:0 73:1 15277:1 # 20140617193722AA5emAo IRS NNP Politics_&_Government TOKEN
-0.030104596682704820587161975709023 2:1 3:3 4:1 5:0 7:0 73:1 4171:1 # 20140613230123AAy6rx7 FPS NNP Games_&_Recreation TOKEN
-0.10818463635185082694079028442502 2:0 3:2 4:1 5:0 7:0 73:1 5149:1 # 20140613154011AAJ98M9 I. NNP Politics_&_Government TOKEN
0.5 2:0 3:3 4:0 5:0 7:1 24:1 729:1 # 20140606223938AAjsrL7 The DT News_&_Events ORGANIZATION
-0.035237720816200024387399025727063 2:0 3:4 4:0 5:0 7:1 24:1 3405:1 # 20140603191657AA88Y0T Both DT Pets TOKEN
-0.031770529160669358503810144611634 2:1 3:2 4:1 5:0 7:0 73:1 9229:1 # 20140615215502AAWIjLB SS NNP Local_Businesses TOKEN
-0.029872247316098304859011136613844 2:1 3:3 4:1 5:0 7:0 73:1 13372:1 # 20140605190919AAVV44J DID NNP Family_&_Relationships TOKEN
-0.029469188823284753198095131665468 2:1 3:3 4:1 5:0 7:0 73:1 12814:1 # 20140610174552AAptb2t UPS NNP Local_Businesses TOKEN
-0.0301407589500182204744760383619 2:1 3:3 4:1 5:0 7:0 73:1 11831:1 # 20140611141719AAUaRNh EOS NNP Food_&_Drink TOKEN
0.5 2:0 3:3 4:0 5:0 7:1 24:1 830:1 # 20140605040256AAru12G All DT Entertainment_&_Music PERSON
-0.5 2:0 3:3 4:0 5:0 7:1 24:1 830:1 # 20140623072617AAIXida All DT Dining_Out TOKEN
0.5 2:1 3:3 4:1 5:0 7:0 73:1 9297:1 # 20140626152929AAvb2mt SFS NNP Sports ORGANIZATION
-0.015635550899651518008681705396157 2:0 3:1 4:0 5:1 7:0 12:1 9555:1 # 20140608113007AAoVpt8 q NNS Politics_&_Government TOKEN
-0.029970640550698479653846106884885 2:1 3:3 4:1 5:0 7:0 73:1 18773:1 # 20140609063130AAx8NAT NFS NNP Computer_&_Internet TOKEN
-0.029364253655844413382070001716784 2:1 3:3 4:1 5:0 7:0 73:1 3627:1 # 20140615210245AAjCZ2q VHS NNP Consumer_Electronics TOKEN
-0.029982625516953076427739688369911 2:1 3:3 4:1 5:0 7:0 73:1 18472:1 # 20140614114159AAxmnir UAE NNP Travel TOKEN
0.5 2:0 3:3 4:0 5:0 7:1 24:1 729:1 # 20140606223938AAjsrL7 The DT News_&_Events ORGANIZATION
0.5 2:0 3:5 4:0 5:0 7:1 8:1 5598:1 # 20140605040256AAru12G Panic NN Entertainment_&_Music PERSON
-0.013217084677449975060881115496159 2:0 3:8 4:0 5:1 7:0 8:1 13395:1 # 20140617193722AA5emAo incident NN Politics_&_Government TOKEN
0.5 2:1 3:3 4:1 5:0 7:0 73:1 15277:1 # 20140625082631AAcgyMl IRS NNP Politics_&_Government ORGANIZATION
-0.017203500936659565923037007451057 2:0 3:5 4:0 5:0 7:1 26:1 11647:1 # 20140604112329AAS36PD Whole JJ Dining_Out TOKEN
0.5 2:0 3:7 4:0 5:0 7:1 73:1 11649:1 # 20140604112329AAS36PD Safeway NNP Dining_Out ORGANIZATION
-0.029793657051343208630456160790345 2:1 3:5 4:0 5:0 7:1 12:1 14040:1 # 20140601100338AAUfBLz Scots NNS News_&_Events TOKEN
0.5 2:0 3:3 4:0 5:0 7:1 24:1 830:1 # 20140605040256AAru12G All DT Entertainment_&_Music PERSON
0.5 2:0 3:11 4:0 5:0 7:1 73:1 1454:1 # 20140605223141AA4aNVu Westerfield NNP Arts_&_Humanities PERSON
-0.5 2:0 3:3 4:0 5:0 7:1 24:1 830:1 # 20140619105821AAuioIb All DT Education_&_Reference TOKEN
0.5 2:1 3:6 4:0 5:1 7:0 8:1 5762:1 # 20140605140138AAyDVJY barros NN Entertainment_&_Music PERSON
-0.0087299462459797527724703058993327 2:0 3:3 4:0 5:0 6:1 7:1 1287:1 # 20140607125412AAK3UlI Can MD Games_&_Recreation TOKEN
-0.04713804672070764922864327672869 2:0 3:12 4:0 5:0 7:0 73:1 1614:1 # 20140618141257AAQm1bZ Duotrope.com NNP Arts_&_Humanities TOKEN
0.5 2:0 3:7 4:0 5:0 7:1 73:1 7018:1 # 20140613182418AAAZN2I Swagger NNP Sports PERSON
-0.013272374002259501590827994732535 2:0 3:9 4:0 5:0 7:1 26:1 15718:1 # 20140608113007AAoVpt8 Political JJ Politics_&_Government TOKEN
0.5 2:0 3:6 4:0 5:0 7:1 73:1 9152:1 # 20140615215028AAGmoaM Anibal NNP Sports PERSON
-0.5 2:0 3:4 4:0 5:0 7:1 73:1 13979:1 # 20140610123048AAZOuhW Bush NNP Politics_&_Government TOKEN
0.5 2:1 3:5 4:0 5:1 7:0 12:1 19123:1 # 20140601002604AAq45X7 hicks NNS Pregnancy_&_Parenting PERSON
-0.031268370448706006570205317984801 2:1 3:4 4:0 5:0 7:1 12:1 8743:1 # 20140612145554AAjlhJX Guys NNS Beauty_&_Style TOKEN
-0.02907443943724963286712181798066 2:1 3:5 4:0 5:0 7:1 12:1 11639:1 # 20140604112329AAS36PD Meats NNS Dining_Out TOKEN
-0.02111571999864086945919439131103 2:0 3:5 4:0 5:0 7:1 30:1 4752:1 # 20140603131617AAsXYRf Until IN Education_&_Reference TOKEN
0.5 2:0 3:4 4:0 5:0 7:0 8:1 3200:1 # 20140605231104AAm8fzJ eBay NN Politics_&_Government ORGANIZATION
0.5 2:0 3:4 4:1 5:0 7:0 73:1 1551:1 # 20140625095108AAhxBZ2 W.H. NNP Arts_&_Humanities PERSON
-0.11948117487965936867055916081881 2:0 3:3 4:0 5:0 7:1 8:1 12409:1 # 20140622230045AAAI6WE Bed NN Travel TOKEN
-0.11910458726613359914381362614222 2:0 3:3 4:0 5:0 7:1 8:1 1527:1 # 20140623130828AAGeAiz Any NN Pregnancy_&_Parenting TOKEN
-0.11929369711172554957556712906808 2:0 3:3 4:0 5:0 7:1 8:1 5393:1 # 20140620190356AAdnQme Mob NN Entertainment_&_Music TOKEN
0.5 2:0 3:4 4:0 5:0 7:1 73:1 13979:1 # 20140625082631AAcgyMl Bush NNP Politics_&_Government PERSON
-0.0070153965614256907912249516812153 2:0 3:2 4:0 5:0 7:1 49:1 2122:1 # 20140615171734AAd4Cuo Oh UH Yahoo!_Products TOKEN
-0.41125965517720974862214688982931 2:1 3:4 4:0 5:1 7:0 45:1 847:1 # 20140622020047AAbc35x laid VBN Arts_&_Humanities TOKEN
-0.22849181860631695428764942334965 2:1 3:4 4:0 5:0 7:1 73:1 5065:1 # 20140617094029AAZ1FwJ Kids NNP Family_&_Relationships TOKEN
-0.20388597036025962738747807634354 2:0 3:1 4:0 5:0 7:0 73:1 636:1 # 20140608132523AAWfvBH 1 NNP Computer_&_Internet TOKEN
-0.20477200048198349047190447436151 2:0 3:1 4:0 5:0 7:0 73:1 639:1 # 20140621111444AACBO2L 2 NNP Cars_&_Transportation TOKEN
-0.20386868888782228026457232772373 2:0 3:1 4:0 5:0 7:0 73:1 8795:1 # 20140613125219AA2D0JF | NNP Beauty_&_Style TOKEN
0.5 2:1 3:9 4:0 5:1 7:0 20:1 11112:1 # 20140613111207AAD5YgE mcdonalds VBG Dining_Out ORGANIZATION
0.5 2:1 3:7 4:0 5:0 7:1 123:1 5614:1 # 20140608113007AAoVpt8 Answers VBZ Politics_&_Government ORGANIZATION
-0.5 2:1 3:7 4:0 5:0 7:1 123:1 5614:1 # 20140605081144AAuazx4 Answers VBZ Science_&_Mathematics TOKEN
-0.040956795767714715417184834223008 2:1 3:5 4:0 5:0 7:1 20:1 8360:1 # 20140610112505AAhGjYL Going VBG Dining_Out TOKEN
0.5 2:0 3:2 4:1 5:0 7:0 73:1 3507:1 # 20140604083714AANM1Br CA NNP Education_&_Reference LOCATION
0.5 2:0 3:5 4:1 5:0 7:0 73:1 14379:1 # 20140613180332AA3jCxr ISISL NNP News_&_Events ORGANIZATION
-0.2157466960541608580470551714825 2:0 3:1 4:1 5:0 7:1 73:1 445:1 # 20140615190614AAf5U3D C NNP Education_&_Reference TOKEN
-0.21483605728481514063332724617794 2:0 3:1 4:1 5:0 7:1 73:1 446:1 # 20140622013948AAZujJH V NNP Science_&_Mathematics TOKEN
-0.21571089356055139774070994462818 2:0 3:1 4:1 5:0 7:1 17:1 73:1 # 20140612050152AA6IWUg I NNP Business_&_Finance TOKEN
0.5 2:0 3:12 4:0 5:1 7:0 26:1 3256:1 # 20140601093053AA6zdEg fakeiduk.com JJ Business_&_Finance ORGANIZATION
-0.019934463755611475654916375788162 2:0 3:5 4:0 5:1 7:0 20:1 11216:1 # 20140616160015AAkjHsB miami VBG Dining_Out TOKEN
-0.0034391724636139153759017972333822 2:0 3:13 4:0 5:1 7:0 8:1 4416:1 # 20140608023935AA61Kab entertainment NN Social_Science TOKEN
-0.021202797362307637674128102389659 2:0 3:5 4:0 5:0 7:1 30:1 2048:1 # 20140608155422AAGg2Wt While IN Pregnancy_&_Parenting TOKEN
0.5 2:0 3:4 4:0 5:0 7:1 73:1 6653:1 # 20140612080629AAuyjlx Sean NNP Health PERSON
-0.025270039953316114633707911707461 2:0 3:8 4:0 5:0 7:1 30:1 6838:1 # 20140601132213AALds1o Although IN Beauty_&_Style TOKEN
0.5 2:0 3:1 4:1 5:0 7:1 8:1 720:1 # 20140616143448AAdU6Ze D NN Dining_Out ORGANIZATION
0.5 2:0 3:5 4:1 5:0 7:0 73:1 15732:1 # 20140620134143AA2rxJi YAHOO NNP Yahoo!_Products ORGANIZATION
0.5 2:0 3:5 4:1 5:0 7:0 73:1 15661:1 # 20140614170630AA1o9BQ NAFTA NNP Politics_&_Government ORGANIZATION
-0.5 2:0 3:11 4:0 5:0 7:1 73:1 9108:1 # 20140620105746AAnOLsk Springfield NNP Sports TOKEN
-0.23274338946281547535477329802234 2:0 3:1 4:1 5:0 7:1 15:1 720:1 # 20140623010804AATRu9l D . Travel TOKEN
0.5 2:1 3:7 4:0 5:1 7:0 43:1 7296:1 # 20140610052054AAkNfGL googled VBP Cars_&_Transportation ORGANIZATION
0.5 2:0 3:8 4:0 5:1 7:0 8:1 5833:1 # 20140613124158AAH0KXB michelle NN Entertainment_&_Music PERSON
-0.0013302179129457761264099247000559 2:0 3:4 4:0 5:1 7:0 8:1 1760:1 # 20140625034559AAH3Auf game NN Family_&_Relationships TOKEN
0.5 2:0 3:10 4:0 5:0 7:1 73:1 15558:1 # 20140623142217AAHjEJM Hicksville NNP Politics_&_Government LOCATION
-0.22284538804045173066015195217915 2:1 3:7 4:0 5:0 7:1 73:1 12220:1 # 20140620102728AA6qqJ3 Grilled NNP Food_&_Drink TOKEN
-0.22208146951541082869674426092388 2:1 3:7 4:0 5:0 7:1 73:1 548:1 # 20140604005232AAfI0Ol Anyways NNP Health TOKEN
0.5 2:0 3:10 4:0 5:0 7:1 73:1 4394:1 # 20140619105821AAuioIb University NNP Education_&_Reference ORGANIZATION
-0.5 2:0 3:7 4:0 5:0 7:0 73:1 3594:1 # 20140615210245AAjCZ2q YouTube NNP Consumer_Electronics TOKEN
-0.20357942095972347829047066625208 2:0 3:1 4:0 5:0 7:0 73:1 1052:1 # 20140613202053AAONeF7 ~ NNP Games_&_Recreation TOKEN
-0.20385594507682869291897986840922 2:0 3:1 4:0 5:0 7:0 73:1 657:1 # 20140608132523AAWfvBH 4 NNP Computer_&_Internet TOKEN
-0.5 2:1 3:2 4:1 5:0 7:0 16:1 2475:1 # 20140609172302AAjgqUA US PRP Yahoo!_Products TOKEN
-0.083278413499463965763425221666694 2:0 3:6 4:1 5:0 7:0 73:1 1517:1 # 20140616222816AASXpde IMPACT NNP Arts_&_Humanities TOKEN
-0.10978437092696724519669260189403 2:0 3:8 4:0 5:0 7:1 8:1 11658:1 # 20140622183237AAlmEtx Delivery NN Dining_Out TOKEN
0.5 2:0 3:7 4:0 5:1 7:0 43:1 8739:1 # 20140612145554AAjlhJX america VBP Beauty_&_Style LOCATION
0.5 2:0 3:7 4:0 5:1 7:0 88:1 12548:1 # 20140619063559AA2eks0 florida VB Home_&_Garden LOCATION
-0.0087055199077212819247506558895111 2:0 3:4 4:0 5:1 7:0 8:1 992:1 # 20140619104923AAP4ZDh case NN Home_&_Garden TOKEN
-0.0032606282651086726520617276037228 2:0 3:4 4:0 5:1 7:0 20:1 448:1 # 20140623100602AAeUxIh alot VBG Arts_&_Humanities TOKEN
0.5 2:1 3:2 4:1 5:0 7:0 16:1 2475:1 # 20140605225754AA2LJWC US PRP Consumer_Electronics LOCATION
-0.5 2:1 3:2 4:1 5:0 7:0 73:1 2475:1 # 20140607125905AA2JtXv US NNP Politics_&_Government TOKEN
0.5 2:1 3:4 4:0 5:0 7:1 12:1 8743:1 # 20140616143448AAdU6Ze Guys NNS Dining_Out ORGANIZATION
0.5 2:1 3:2 4:1 5:0 7:0 16:1 2475:1 # 20140613180332AA3jCxr US PRP News_&_Events LOCATION
-0.5 2:0 3:2 4:0 5:1 7:0 73:1 149:1 # 20140608145354AAWyj40 in NNP Business_&_Finance TOKEN
-0.097962080772656889848803984932601 2:0 3:2 4:0 5:0 7:1 16:1 160:1 # 20140617120452AAJQajX It PRP Cars_&_Transportation TOKEN
-0.097962080772848736387459211982787 2:0 3:2 4:0 5:0 7:1 16:1 1538:1 # 20140608012413AAjMA7a We PRP Local_Businesses TOKEN
0.5 2:0 3:4 4:1 5:0 7:0 73:1 9175:1 # 20140623155342AAYpGzf NCAA NNP Sports ORGANIZATION
0.5 2:0 3:2 4:0 5:1 7:0 73:1 149:1 # 20140616143448AAdU6Ze in NNP Dining_Out ORGANIZATION
-0.5 2:1 3:2 4:1 5:0 7:0 16:1 2475:1 # 20140619072135AAeFu7N US PRP Politics_&_Government TOKEN
0.5 2:1 3:2 4:1 5:0 7:0 16:1 2475:1 # 20140605225754AA2LJWC US PRP Consumer_Electronics LOCATION
-0.5 2:1 3:4 4:0 5:0 7:1 12:1 8743:1 # 20140607184544AAxrzQb Guys NNS Beauty_&_Style TOKEN
-0.0037681167905089796299478166474728 2:0 3:6 4:0 5:1 7:0 12:1 232:1 # 20140626101740AADAK0e people NNS Politics_&_Government TOKEN
0.5 2:0 3:4 4:1 5:0 7:0 73:1 3768:1 # 20140605225754AA2LJWC ESPN NNP Consumer_Electronics ORGANIZATION
0.5 2:0 3:4 4:1 5:0 7:0 73:1 12412:1 # 20140601151243AAGeO0l IKEA NNP Home_&_Garden ORGANIZATION
-0.5 2:0 3:2 4:1 5:0 7:0 73:1 3507:1 # 20140608223808AAjHFUR CA NNP Cars_&_Transportation TOKEN
0.5 2:0 3:2 4:0 5:1 7:0 12:1 3151:1 # 20140613111831AABRhzn al NNS News_&_Events ORGANIZATION
0.5 2:1 3:6 4:0 5:0 7:1 61:1 12443:1 # 20140610174552AAptb2t States NNPS Local_Businesses LOCATION
-0.5 2:0 3:6 4:0 5:1 7:0 8:1 1441:1 # 20140607042122AAao04B google NN Yahoo!_Products TOKEN
-0.5 2:1 3:7 4:0 5:0 7:1 123:1 5614:1 # 20140615171734AAd4Cuo Answers VBZ Yahoo!_Products TOKEN
-0.10817213789496982201399077894166 2:0 3:2 4:1 5:0 7:0 73:1 7865:1 # 20140603072418AAgZjcN BC NNP Science_&_Mathematics TOKEN
-0.5 2:0 3:2 4:1 5:0 7:0 73:1 3408:1 # 20140612013350AAX11Xr UK NNP Travel TOKEN
-0.10812267748194559491281552254804 2:0 3:2 4:1 5:0 7:0 73:1 7862:1 # 20140603072418AAgZjcN AB NNP Science_&_Mathematics TOKEN
-0.10817719862811259190493728965521 2:0 3:2 4:1 5:0 7:0 73:1 346:1 # 20140608113007AAoVpt8 YA NNP Politics_&_Government TOKEN
-0.10815497291951892133710089183296 2:0 3:2 4:1 5:0 7:0 73:1 9505:1 # 20140624203758AAyLMD9 NJ NNP Travel TOKEN
-0.10812267748194637206893276015762 2:0 3:2 4:1 5:0 7:0 73:1 4191:1 # 20140614220309AAJTZNt HP NNP Computer_&_Internet TOKEN
0.5 2:0 3:11 4:0 5:1 7:0 8:1 15600:1 # 20140617203723AAnMv8x brotherhood NN Politics_&_Government ORGANIZATION
-0.5 2:0 3:4 4:0 5:1 7:0 73:1 1077:1 # 20140608151316AAZv17m land NNP Travel TOKEN
-0.035936325863050733175896311877295 2:0 3:6 4:1 5:0 7:0 73:1 8306:1 # 20140607150805AAQGSUv JUSSSS NNP Beauty_&_Style TOKEN
0.5 2:1 3:8 4:0 5:0 7:1 73:1 8461:1 # 20140612022126AAsUT1R Aviators NNP Beauty_&_Style ORGANIZATION
-0.017577303200539285549242052297814 2:0 3:5 4:0 5:1 7:0 8:1 2611:1 # 20140605200359AAgJgxT point NN Pregnancy_&_Parenting TOKEN
-0.5 2:0 3:2 4:0 5:1 7:0 73:1 3151:1 # 20140618192549AAzYXYR al NNP Social_Science TOKEN
0.5 2:0 3:10 4:0 5:0 7:1 73:1 10644:1 # 20140625110415AAjpx1n Washington NNP Cars_&_Transportation LOCATION
-0.29124265484951195048779482021928 2:0 3:11 4:0 5:0 7:1 73:1 9108:1 # 20140620105746AAnOLsk Springfield NNP Sports TOKEN
0.5 2:0 3:6 4:0 5:1 7:0 8:1 1441:1 # 20140611144551AAguC6x google NN Games_&_Recreation ORGANIZATION
-0.21368234362469173959198087686673 2:0 3:1 4:0 5:1 7:0 73:1 2518:1 # 20140623023853AA1SoFR y NNP Science_&_Mathematics TOKEN
-0.024666644362093759212939403369091 2:0 3:1 4:0 5:1 7:0 8:1 2284:1 # 20140623023853AA1SoFR f NN Science_&_Mathematics TOKEN
0.5 2:0 3:11 4:0 5:0 7:0 73:1 12865:1 # 20140613214814AARwXS4 Chic-Fill-A NNP Local_Businesses ORGANIZATION
0.5 2:0 3:11 4:0 5:0 7:0 73:1 11315:1 # 20140616143448AAdU6Ze Chick-fil-A NNP Dining_Out ORGANIZATION
-0.20391671269947053701798722613603 2:0 3:1 4:0 5:0 7:0 73:1 352:1 # 20140612233414AAbNPKy : NNP Family_&_Relationships TOKEN
-0.20358054150339555121718149166554 2:0 3:1 4:0 5:0 7:0 73:1 3524:1 # 20140614134845AAVhWeg • NNP Consumer_Electronics TOKEN
-0.20385594507683352238913698784017 2:0 3:1 4:0 5:0 7:0 39:1 73:1 # 20140619060021AAhU4hr . NNP Sports TOKEN
0.5 2:0 3:9 4:0 5:0 7:0 26:1 19499:1 # 20140609172302AAjgqUA non-Yahoo JJ Yahoo!_Products ORGANIZATION
0.5 2:0 3:2 4:0 5:1 7:0 12:1 3151:1 # 20140613111831AABRhzn al NNS News_&_Events ORGANIZATION
0.5 2:0 3:4 4:0 5:0 7:0 8:1 3200:1 # 20140605231104AAm8fzJ eBay NN Politics_&_Government ORGANIZATION
-0.11158733017143518395641876850277 2:0 3:8 4:0 5:0 7:1 73:1 18618:1 # 20140611153520AAksgjY Broadcom NNP Computer_&_Internet TOKEN
-0.16446589306666936636247555725276 2:0 3:1 4:0 5:0 7:0 73:1 131:1 # 20140620003333AAaN90M - NNP Dining_Out TOKEN
-0.20009221432763313330838172987569 2:0 3:3 4:0 5:0 7:0 73:1 6846:1 # 20140612121603AAc09vI GHz NNP Games_&_Recreation TOKEN
0.5 2:0 3:4 4:1 5:0 7:0 73:1 785:1 # 20140617074422AANUT7h H.P. NNP Arts_&_Humanities PERSON
-0.13541308784152761290897615253925 2:0 3:3 4:0 5:0 7:0 51:1 73:1 # 20140614154636AAYu9pP !!! NNP Social_Science TOKEN
0.5 2:0 3:7 4:0 5:1 7:0 8:1 13781:1 # 20140616154757AA3uubn britain NN News_&_Events LOCATION
0.5 2:0 3:7 4:0 5:1 7:0 8:1 10581:1 # 20140607104849AAvstRC hyundai NN Cars_&_Transportation ORGANIZATION
-0.020883300167889334852944216436299 2:0 3:4 4:0 5:1 7:0 8:1 4904:1 # 20140622111757AAuaLOZ role NN Family_&_Relationships TOKEN
-0.020773949016013038004757618182339 2:0 3:4 4:0 5:1 7:0 8:1 481:1 # 20140604082431AAFp8R0 dust NN Arts_&_Humanities TOKEN
-0.02053715842095726884508621878922 2:0 3:4 4:0 5:1 7:0 8:1 12587:1 # 20140610220123AAW30Bg barn NN Home_&_Garden TOKEN
0.5 2:0 3:7 4:0 5:1 7:0 8:1 5584:1 # 20140605040256AAru12G romance NN Entertainment_&_Music PERSON
0.5 2:0 3:7 4:0 5:1 7:0 8:1 18308:1 # 20140622230045AAAI6WE zealand NN Travel LOCATION
-0.20385527495489519367311004316434 2:0 3:1 4:0 5:0 7:0 73:1 7755:1 # 20140620035536AASKdrI _ NNP Computer_&_Internet TOKEN
-0.009021940995342342395346690864244 2:0 3:5 4:1 5:0 7:0 73:1 5159:1 # 20140614004826AAWj9IB TEENS NNP Entertainment_&_Music TOKEN
0.5 2:0 3:9 4:0 5:1 7:0 8:1 4801:1 # 20140620191437AA9D0Nc australia NN Food_&_Drink LOCATION
0.5 2:0 3:9 4:0 5:1 7:0 8:1 10238:1 # 20140609103954AAB6LY5 sociopath NN News_&_Events ORGANIZATION
0.5 2:0 3:4 4:0 5:1 7:0 8:1 6873:1 # 20140613111207AAD5YgE john NN Dining_Out PERSON
-0.19998625242928846912349172271206 2:0 3:3 4:0 5:0 7:0 73:1 5399:1 # 20140620190356AAdnQme St. NNP Entertainment_&_Music TOKEN
-0.0085719609020884490746539086103439 2:0 3:2 4:0 5:1 7:0 73:1 149:1 # 20140617134810AAX61tb in NNP Travel TOKEN
0.5 2:0 3:5 4:0 5:0 7:1 88:1 8800:1 # 20140615215028AAGmoaM Leave VB Sports PERSON
0.5 2:0 3:2 4:1 5:0 7:0 73:1 3408:1 # 20140625120602AAXWOm0 UK NNP Science_&_Mathematics LOCATION
-0.21176935887715941930764529388398 2:0 3:2 4:0 5:1 7:0 55:1 73:1 # 20140606224612AAe7J4W it NNP Computer_&_Internet TOKEN
-0.21164150785198998505620693322271 2:0 3:2 4:0 5:1 7:0 73:1 344:1 # 20140620015151AAISFRV no NNP Beauty_&_Style TOKEN
-0.21173789692716860066923345584655 2:0 3:2 4:0 5:1 7:0 73:1 157:1 # 20140609160711AAprF2f or NNP Arts_&_Humanities TOKEN
-0.21175874505697822591798740177182 2:0 3:2 4:0 5:1 7:0 73:1 470:1 # 20140622210819AARJGLW an NNP Entertainment_&_Music TOKEN
-0.21173037129976224335337064985652 2:0 3:2 4:0 5:1 7:0 37:1 73:1 # 20140601004138AAIxEr7 on NNP Science_&_Mathematics TOKEN
-0.5 2:0 3:2 4:1 5:0 7:0 73:1 3408:1 # 20140608151316AAZv17m UK NNP Travel TOKEN
0.5 2:0 3:3 4:0 5:1 7:0 32:1 33:1 # 20140610083106AA7AAUT and CC Dining_Out ORGANIZATION
0.5 2:0 3:7 4:0 5:1 7:0 8:1 11448:1 # 20140606032555AA8mCFY italian NN Politics_&_Government ORGANIZATION
0.5 2:0 3:2 4:1 5:0 7:0 73:1 3507:1 # 20140604083714AANM1Br CA NNP Education_&_Reference LOCATION
0.5 2:0 3:4 4:1 5:0 7:0 73:1 5654:1 # 20140606075218AAmnm1s U.S. NNP Entertainment_&_Music LOCATION
0.5 2:0 3:4 4:1 5:0 7:0 73:1 4319:1 # 20140610062626AA46ms6 GCSE NNP Education_&_Reference ORGANIZATION
0.5 2:0 3:7 4:0 5:1 7:0 8:1 2520:1 # 20140626223207AABdv8w khalifa NN Business_&_Finance PERSON
0.5 2:0 3:7 4:0 5:1 7:0 8:1 5072:1 # 20140616190348AA6nheU walmart NN Dining_Out ORGANIZATION
0.5 2:0 3:7 4:0 5:1 7:0 8:1 3810:1 # 20140603131218AA1t3hP mission NN Local_Businesses LOCATION
0.5 2:0 3:7 4:0 5:1 7:0 8:1 11079:1 # 20140616143448AAdU6Ze chicken NN Dining_Out ORGANIZATION
0.5 2:0 3:5 4:0 5:0 7:1 73:1 8954:1 # 20140625201720AA1VzQt Guard NNP Politics_&_Government ORGANIZATION
0.5 2:0 3:7 4:0 5:1 7:0 8:1 15221:1 # 20140610123048AAZOuhW taliban NN Politics_&_Government ORGANIZATION
-0.5 2:0 3:5 4:0 5:0 7:1 88:1 8800:1 # 20140611175239AA5u6en Leave VB Family_&_Relationships TOKEN
0.5 2:1 3:9 4:0 5:0 7:0 73:1 7069:1 # 20140615191331AAdpnmg McDonalds NNP Dining_Out ORGANIZATION
-0.5 2:0 3:4 4:1 5:0 7:0 73:1 5654:1 # 20140617015321AAEmy38 U.S. NNP Politics_&_Government TOKEN
0.5 2:0 3:4 4:0 5:1 7:0 88:1 15152:1 # 20140612200636AAqMBhQ york VB Politics_&_Government LOCATION
0.5 2:0 3:6 4:0 5:1 7:0 20:1 14023:1 # 20140601100338AAUfBLz hitler VBG News_&_Events PERSON
0.5 2:0 3:2 4:1 5:0 7:0 73:1 3928:1 # 20140615222209AAOSKxY LG NNP Entertainment_&_Music ORGANIZATION
0.5 2:0 3:2 4:1 5:0 7:0 73:1 15532:1 # 20140609182413AATpjOA GW NNP Politics_&_Government PERSON
0.5 2:0 3:2 4:1 5:0 7:0 73:1 11389:1 # 20140616143448AAdU6Ze DQ NNP Dining_Out ORGANIZATION
-0.047405287703578546931737491831882 2:0 3:4 4:0 5:0 7:1 88:1 3155:1 # 20140608094114AAxPdPq Tell VB Health TOKEN
-0.023945481763010034725880359474104 2:0 3:2 4:0 5:1 7:0 8:1 23:1 # 20140610123048AAZOuhW my NN Politics_&_Government TOKEN
0.5 2:0 3:4 4:1 5:0 7:0 73:1 14238:1 # 20140615161422AAiDhFt KPIG NNP News_&_Events ORGANIZATION
-0.5 2:0 3:4 4:1 5:0 7:0 73:1 4319:1 # 20140610102326AA3pmaG GCSE NNP Education_&_Reference TOKEN
0.5 2:0 3:7 4:0 5:1 7:0 8:1 13566:1 # 20140617033632AAaS0SQ lindsay NN News_&_Events PERSON
0.5 2:0 3:2 4:1 5:0 7:0 73:1 4294:1 # 20140604083714AANM1Br GA NNP Education_&_Reference LOCATION
-0.026393827532761982013198576169088 2:0 3:1 4:0 5:1 7:0 8:1 7845:1 # 20140601162630AAuDjDG p NN Sports TOKEN
-0.5 2:0 3:7 4:0 5:1 7:0 8:1 11079:1 # 20140619114039AAjxNQW chicken NN Food_&_Drink TOKEN
-0.5 1:1 2:0 3:4 4:0 5:0 6:1 7:1 # 20140607184915AAytW6g Will MD Social_Science TOKEN
0.5 2:0 3:10 4:0 5:1 7:0 8:1 3309:1 # 20140619105821AAuioIb university NN Education_&_Reference ORGANIZATION
-0.5 2:0 3:2 4:0 5:1 7:0 73:1 3151:1 # 20140618192549AAzYXYR al NNP Social_Science TOKEN
0.5 2:1 3:7 4:0 5:0 7:1 123:1 5614:1 # 20140620213457AAI59UA Answers VBZ Computer_&_Internet ORGANIZATION
-0.027635925048196841036229898236343 2:0 3:1 4:1 5:0 7:1 8:1 8038:1 # 20140605031016AAsN8GR F NN Science_&_Mathematics TOKEN
-0.020175983981629341812435995962005 2:0 3:4 4:0 5:1 7:0 8:1 2262:1 # 20140626133140AAROz72 fire NN Food_&_Drink TOKEN
-0.21176935887715875317383051879006 2:0 3:2 4:0 5:1 7:0 73:1 147:1 # 20140619183644AAkBDn2 at NNP Pets TOKEN
-0.21173397705412311253780899278354 2:0 3:2 4:0 5:1 7:0 73:1 154:1 # 20140605130921AAXKqjH to NNP Home_&_Garden TOKEN
-0.21175874505696867799997562542558 2:0 3:2 4:0 5:1 7:0 73:1 136:1 # 20140612050152AA6IWUg as NNP Business_&_Finance TOKEN
-0.39124608929535642509733861515997 2:1 3:2 4:1 5:0 7:0 40:1 2475:1 # 20140609170145AAsvd80 US RB Politics_&_Government TOKEN
0.5 2:0 3:7 4:0 5:0 7:1 73:1 11360:1 # 20140616143448AAdU6Ze Station NNP Dining_Out ORGANIZATION
0.5 2:0 3:6 4:0 5:1 7:0 73:1 5370:1 # 20140621194648AAv7Pxb kuroko NNP Entertainment_&_Music PERSON
-0.21169382268066483376856012910139 2:0 3:2 4:0 5:1 7:0 73:1 3742:1 # 20140622225954AAAlKMt ha NNP Local_Businesses TOKEN
-0.21175874505696601346471652504988 2:0 3:2 4:0 5:1 7:0 73:1 416:1 # 20140614045845AAdu92x so NNP Computer_&_Internet TOKEN
-0.21164150785218360795170156052336 2:0 3:2 4:0 5:1 7:0 73:1 12976:1 # 20140622225954AAAlKMt ti NNP Local_Businesses TOKEN
-0.21175874505696723471004361272207 2:0 3:2 4:0 5:1 7:0 73:1 12958:1 # 20140622225954AAAlKMt da NNP Local_Businesses TOKEN
-0.2117718190282593115902898261993 2:0 3:2 4:0 5:1 7:0 73:1 9613:1 # 20140618192549AAzYXYR en NNP Social_Science TOKEN
0.5 2:0 3:4 4:0 5:0 7:1 204:1 11332:1 # 20140616143448AAdU6Ze Five CD Dining_Out ORGANIZATION
-0.010395387312452264438888960285112 2:1 3:5 4:0 5:0 7:1 12:1 11993:1 # 20140611173552AAtQ5Xj Forks NNS Food_&_Drink TOKEN
-0.031584587843024536368830013088882 2:1 3:4 4:0 5:0 7:1 12:1 11791:1 # 20140620063230AAXLo9n Bags NNS Food_&_Drink TOKEN
-0.029631449148281863159581916988827 2:1 3:5 4:0 5:0 7:1 12:1 10844:1 # 20140625110415AAjpx1n Sales NNS Cars_&_Transportation TOKEN
-0.21567923347280537615944240315002 2:0 3:1 4:1 5:0 7:1 73:1 10193:1 # 20140610004054AArTAuM M NNP Social_Science TOKEN
-0.015796445810506799800609911699212 2:0 3:6 4:0 5:1 7:0 8:1 7190:1 # 20140620035947AAeYEbM amazon NN Local_Businesses TOKEN
-0.018191741254362070456807032314828 2:0 3:2 4:0 5:1 7:0 123:1 6555:1 # 20140606081156AANGQrl lo VBZ Health TOKEN
0.5 2:0 3:4 4:1 5:0 7:0 73:1 8905:1 # 20140625083610AAU2r7X FIFA NNP Sports ORGANIZATION
0.5 2:1 3:2 4:1 5:0 7:0 16:1 2475:1 # 20140614170630AA1o9BQ US PRP Politics_&_Government ORGANIZATION
0.5 2:0 3:8 4:0 5:0 7:1 73:1 11374:1 # 20140616143448AAdU6Ze Smoothie NNP Dining_Out ORGANIZATION
0.5 2:1 3:7 4:0 5:0 7:1 73:1 12802:1 # 20140616200702AA6Pms8 Angeles NNP Local_Businesses LOCATION
-0.20418710789346339318228729098337 2:0 3:1 4:0 5:0 7:0 73:1 659:1 # 20140603072418AAgZjcN 5 NNP Science_&_Mathematics TOKEN
-0.5 2:0 3:5 4:0 5:0 7:1 88:1 8800:1 # 20140613125219AA2D0JF Leave VB Beauty_&_Style TOKEN
0.5 2:0 3:5 4:0 5:1 7:0 73:1 172:1 # 20140607125905AA2JtXv &amp; NNP Politics_&_Government ORGANIZATION
0.5 2:0 3:4 4:0 5:1 7:0 73:1 3365:1 # 20140614220309AAJTZNt ebay NNP Computer_&_Internet ORGANIZATION
0.5 2:0 3:2 4:0 5:1 7:0 73:1 149:1 # 20140616143448AAdU6Ze in NNP Dining_Out ORGANIZATION
0.5 2:0 3:6 4:0 5:1 7:0 8:1 2072:1 # 20140613111831AABRhzn middle NN News_&_Events LOCATION
0.5 2:0 3:5 4:0 5:0 7:1 88:1 8800:1 # 20140615215028AAGmoaM Leave VB Sports PERSON
-0.5 2:0 3:2 4:0 5:1 7:0 73:1 149:1 # 20140623022611AAddTaJ in NNP Sports TOKEN
-0.052239051556170618129115723604627 2:0 3:2 4:0 5:0 7:1 88:1 492:1 # 20140610164612AA5SkqL Go VB Health TOKEN
0.5 2:0 3:3 4:0 5:1 7:0 32:1 73:1 # 20140616143448AAdU6Ze and NNP Dining_Out ORGANIZATION
0.5 2:0 3:3 4:0 5:1 7:0 32:1 33:1 # 20140610083106AA7AAUT and CC Dining_Out ORGANIZATION
-0.044319225469747230983230679157714 2:0 3:1 4:0 5:1 7:0 33:1 3382:1 # 20140610062626AA46ms6 d CC Education_&_Reference TOKEN
-0.21367864573514327997116879487294 2:0 3:1 4:0 5:1 7:0 35:1 73:1 # 20140605140138AAyDVJY a NNP Entertainment_&_Music TOKEN
-0.5 2:1 3:7 4:0 5:0 7:1 73:1 12802:1 # 20140608112522AAMjxU9 Angeles NNP Local_Businesses TOKEN
-0.5 2:0 3:7 4:0 5:0 7:1 73:1 15421:1 # 20140617213812AAnm3nS Kingdom NNP Travel TOKEN
-0.12179834514258157385224734525764 2:0 3:3 4:0 5:0 7:1 61:1 19301:1 # 20140621192007AAsQBSf Vid NNPS Pregnancy_&_Parenting TOKEN
0.5 2:0 3:4 4:0 5:0 7:1 73:1 9488:1 # 20140613182418AAAZN2I Jack NNP Sports PERSON
-0.27971761390602978281094692647457 2:0 3:17 4:0 5:0 7:1 73:1 15026:1 # 20140613154011AAJ98M9 Wahhhhhhhhhhhhhhh NNP Politics_&_Government TOKEN
-0.29211944510574783251399821892846 2:0 3:10 4:0 5:0 7:1 73:1 14594:1 # 20140613073945AAjr9GV Ivermectin NNP Pets TOKEN
0.5 2:0 3:1 4:0 5:0 7:0 630:1 631:1 # 20140605034309AAV7PuK # # Consumer_Electronics PERSON
0.5 2:1 3:2 4:1 5:0 7:0 16:1 2475:1 # 20140613214814AARwXS4 US PRP Local_Businesses LOCATION
-0.5 2:0 3:4 4:0 5:1 7:0 8:1 3365:1 # 20140620191437AA9D0Nc ebay NN Food_&_Drink TOKEN
-0.28744800515664969964291231008247 2:0 3:13 4:0 5:0 7:1 73:1 3098:1 # 20140622053126AAxcj34 Communication NNP Family_&_Relationships TOKEN
0.5 2:0 3:2 4:0 5:0 7:1 22:1 608:1 # 20140605040256AAru12G My PRP$ Entertainment_&_Music PERSON
0.5 2:0 3:2 4:0 5:1 7:0 73:1 149:1 # 20140616143448AAdU6Ze in NNP Dining_Out ORGANIZATION
-0.0029169819849387823573749756178586 2:0 3:4 4:0 5:1 7:0 8:1 195:1 # 20140618141409AA9yzif play NN Entertainment_&_Music TOKEN
0.5 2:0 3:7 4:0 5:0 7:1 73:1 15421:1 # 20140617213812AAnm3nS Kingdom NNP Travel ORGANIZATION
-0.11626732799288139186266732849617 2:0 3:8 4:0 5:0 7:1 73:1 14604:1 # 20140605183929AAMoGA3 Internet NNP Politics_&_Government TOKEN
0.5 2:1 3:3 4:0 5:0 7:1 73:1 12801:1 # 20140616200702AA6Pms8 Los NNP Local_Businesses LOCATION
0.5 2:1 3:5 4:0 5:0 7:1 73:1 8897:1 # 20140615224306AASdmOX Spurs NNP Sports ORGANIZATION
-0.016612163322297313072795077459887 2:1 3:7 4:0 5:0 7:1 20:1 18998:1 # 20140609073126AAKKPVv Sharing VBG Pregnancy_&_Parenting TOKEN
0.5 2:1 3:5 4:0 5:0 7:1 73:1 11394:1 # 20140616143448AAdU6Ze Johns NNP Dining_Out ORGANIZATION
-0.30256158635709695658988493960351 2:0 3:5 4:0 5:0 7:1 73:1 13128:1 # 20140620035947AAeYEbM Email NNP Local_Businesses TOKEN
-0.19997627983774951543338715964637 2:0 3:3 4:0 5:0 7:0 73:1 11313:1 # 20140616143448AAdU6Ze Jr. NNP Dining_Out TOKEN
0.5 2:0 3:4 4:0 5:1 7:0 20:1 8143:1 # 20140625120602AAXWOm0 iraq VBG Science_&_Mathematics LOCATION
0.5 2:0 3:4 4:0 5:1 7:0 20:1 3365:1 # 20140616234645AAnbyhx ebay VBG Consumer_Electronics ORGANIZATION
-0.0035561548692399358451154967042385 2:0 3:2 4:0 5:1 7:0 204:1 4594:1 # 20140608090153AAQx192 4x CD Education_&_Reference TOKEN
0.5 2:1 3:7 4:0 5:0 7:1 73:1 3502:1 # 20140614134845AAVhWeg Windows NNP Consumer_Electronics ORGANIZATION
0.5 2:1 3:7 4:0 5:0 7:1 73:1 11368:1 # 20140616143448AAdU6Ze Quiznos NNP Dining_Out ORGANIZATION
0.5 2:1 3:7 4:0 5:0 7:1 73:1 11365:1 # 20140616143448AAdU6Ze Popeyes NNP Dining_Out ORGANIZATION
0.5 2:1 3:7 4:0 5:0 7:1 73:1 19548:1 # 20140619231832AAFqTWm Mikayla NNP Yahoo!_Products PERSON
0.5 2:0 3:6 4:0 5:0 7:1 73:1 5368:1 # 20140621194648AAv7Pxb Akashi NNP Entertainment_&_Music PERSON
-0.13702586724377585625234132749029 2:0 3:4 4:0 5:0 7:1 73:1 13137:1 # 20140607104826AAF23WO Whay NNP Local_Businesses TOKEN
0.5 2:0 3:9 4:0 5:0 7:1 73:1 4313:1 # 20140604083714AANM1Br Francisco NNP Education_&_Reference LOCATION
-0.10329156111657233907408226514235 2:0 3:4 4:1 5:0 7:0 73:1 10305:1 # 20140619140045AAMMZmd RIDE NNP Social_Science TOKEN
-0.49554664073880383412529226916377 2:0 3:3 4:0 5:1 7:0 26:1 3981:1 # 20140622183237AAlmEtx low JJ Dining_Out TOKEN
-0.015587138836294641558444240558856 2:0 3:4 4:0 5:0 7:1 26:1 353:1 # 20140608034752AAWHbyf Same JJ Arts_&_Humanities TOKEN
0.5 2:0 3:4 4:1 5:0 7:0 73:1 4319:1 # 20140610062626AA46ms6 GCSE NNP Education_&_Reference ORGANIZATION
0.5 2:0 3:4 4:1 5:0 7:0 73:1 13985:1 # 20140617203723AAnMv8x ISIS NNP Politics_&_Government ORGANIZATION
-0.5 2:0 3:2 4:1 5:0 7:0 73:1 3408:1 # 20140608120927AA1JZcv UK NNP Travel TOKEN
0.5 2:0 3:2 4:0 5:1 7:0 8:1 5994:1 # 20140621045509AAck6mP uk NN News_&_Events LOCATION
0.5 2:0 3:6 4:0 5:1 7:0 8:1 7190:1 # 20140615220821AAG2puS amazon NN Games_&_Recreation ORGANIZATION
0.5 2:0 3:6 4:0 5:1 7:0 8:1 11397:1 # 20140616143448AAdU6Ze popeye NN Dining_Out ORGANIZATION
0.5 2:0 3:6 4:0 5:1 7:0 8:1 12812:1 # 20140610174552AAptb2t lsland NN Local_Businesses LOCATION
0.5 2:0 3:6 4:0 5:1 7:0 8:1 6484:1 # 20140610094552AAK4gFS palmer NN Health PERSON
-0.5 2:0 3:4 4:0 5:1 7:0 8:1 3365:1 # 20140620191437AA9D0Nc ebay NN Food_&_Drink TOKEN
-0.5 2:0 3:4 4:0 5:1 7:0 8:1 3365:1 # 20140620191437AA9D0Nc ebay NN Food_&_Drink TOKEN
-0.21335467408241037823302121978486 2:1 3:12 4:0 5:0 7:1 73:1 13930:1 # 20140607104637AASvvKI Eurosceptics NNP News_&_Events TOKEN
-0.057261071076680075675469083762437 2:0 3:9 4:0 5:0 7:1 73:1 18035:1 # 20140604115540AAQrGu2 Videotape NNP Travel TOKEN
0.5 2:0 3:2 4:0 5:1 7:0 8:1 18381:1 # 20140617134810AAX61tb nz NN Travel LOCATION
0.5 2:0 3:2 4:0 5:1 7:0 8:1 13064:1 # 20140615091428AA1nGW3 st NN Local_Businesses LOCATION
0.5 2:0 3:3 4:0 5:1 7:0 8:1 11396:1 # 20140616143448AAdU6Ze hut NN Dining_Out ORGANIZATION
-0.088811824384915638574966578744352 2:0 3:12 4:1 5:0 7:0 73:1 4180:1 # 20140607141649AANF6Tv PCPARTPICKER NNP Consumer_Electronics TOKEN
0.5 2:1 3:6 4:0 5:0 7:1 73:1 12442:1 # 20140610123048AAZOuhW United NNP Politics_&_Government LOCATION
0.5 2:1 3:6 4:0 5:0 7:1 73:1 14140:1 # 20140620051059AAvmrsV Coates NNP News_&_Events PERSON
-0.20084966388975056261756435560528 2:0 3:6 4:0 5:0 7:1 73:1 6158:1 # 20140611201334AAFQLgO Sunday NNP Health TOKEN
0.5 2:1 3:6 4:0 5:0 7:1 73:1 4481:1 # 20140618125641AAGkGpi Hughes NNP Education_&_Reference PERSON
0.5 2:1 3:6 4:0 5:0 7:1 73:1 11324:1 # 20140616143448AAdU6Ze Donuts NNP Dining_Out ORGANIZATION
-0.5 2:0 3:4 4:0 5:0 7:1 73:1 9488:1 # 20140603131218AA1t3hP Jack NNP Local_Businesses TOKEN
-0.5 2:0 3:4 4:0 5:0 7:1 73:1 13979:1 # 20140610123048AAZOuhW Bush NNP Politics_&_Government TOKEN
0.5 2:0 3:2 4:1 5:0 7:0 73:1 3408:1 # 20140616063937AAhSsrT UK NNP Business_&_Finance LOCATION
-0.0065606419035413310325566271785647 2:1 3:6 4:0 5:0 7:1 20:1 6593:1 # 20140604115540AAQrGu2 Having VBG Travel TOKEN
0.5 2:1 3:7 4:0 5:0 7:1 73:1 11379:1 # 20140616143448AAdU6Ze Hortons NNP Dining_Out ORGANIZATION
0.5 2:1 3:7 4:0 5:0 7:1 73:1 11348:1 # 20140616143448AAdU6Ze Caesars NNP Dining_Out ORGANIZATION
-0.30421894197578175367269182061136 2:0 3:4 4:0 5:0 7:1 73:1 8923:1 # 20140615190410AAmWDg3 Dude NNP Sports TOKEN
-0.12936158519988677495504703074403 2:1 3:5 4:0 5:1 7:0 73:1 18121:1 # 20140608120927AA1JZcv laden NNP Travel TOKEN
-0.28744800515666923956814571283758 2:0 3:13 4:0 5:0 7:1 73:1 10082:1 # 20140622134748AAtNT9p Schizophrenic NNP Social_Science TOKEN
-0.49815745704285657735610470808751 2:0 3:1 4:0 5:0 7:0 630:1 631:1 # 20140622140805AAtjqJa # # Cars_&_Transportation TOKEN
0.5 2:1 3:5 4:0 5:0 7:1 73:1 14314:1 # 20140606223938AAjsrL7 Times NNP News_&_Events ORGANIZATION
0.5 2:1 3:5 4:0 5:0 7:1 73:1 10357:1 # 20140620180056AARv7Hs Mises NNP Social_Science PERSON
-0.5 2:0 3:7 4:0 5:0 7:1 73:1 5430:1 # 20140617193722AA5emAo America NNP Politics_&_Government TOKEN
-0.5 2:0 3:7 4:0 5:0 7:1 73:1 7018:1 # 20140613182418AAAZN2I Swagger NNP Sports TOKEN
-0.08790021513435870847974484831866 2:0 3:5 4:0 5:0 7:1 26:1 18907:1 # 20140620035536AASKdrI Parse JJ Computer_&_Internet TOKEN
0.5 2:1 3:4 4:0 5:0 7:1 73:1 15214:1 # 20140610123048AAZOuhW Rose NNP Politics_&_Government LOCATION
-0.29604145492998457100952691689599 2:0 3:8 4:0 5:0 7:1 73:1 13022:1 # 20140610194612AA31tgA Facility NNP Local_Businesses TOKEN
0.5 2:0 3:3 4:0 5:0 7:1 73:1 9443:1 # 20140623022611AAddTaJ Mir NNP Sports PERSON
0.5 2:0 3:3 4:0 5:0 7:1 73:1 4312:1 # 20140615224306AASdmOX San NNP Sports PERSON
0.5 2:0 3:3 4:0 5:0 7:1 73:1 2656:1 # 20140606223938AAjsrL7 New NNP News_&_Events ORGANIZATION
0.5 2:0 3:5 4:0 5:1 7:0 8:1 7476:1 # 20140623022611AAddTaJ angle NN Sports PERSON
0.5 2:1 3:6 4:0 5:0 7:1 73:1 11049:1 # 20140610083106AA7AAUT Steaks NNP Dining_Out ORGANIZATION
0.5 2:0 3:9 4:0 5:0 7:1 73:1 3578:1 # 20140614134845AAVhWeg Microsoft NNP Consumer_Electronics ORGANIZATION
-0.28751632228222057108268927549943 2:0 3:13 4:0 5:0 7:1 73:1 14905:1 # 20140611152642AAd7nNQ Dechlorinator NNP Pets TOKEN
0.5 2:1 3:5 4:0 5:0 7:1 73:1 1891:1 # 20140605091638AATCTbo Carla NNP Arts_&_Humanities PERSON
0.5 2:1 3:5 4:0 5:0 7:1 73:1 14128:1 # 20140605150717AAmRFk6 Soros NNP News_&_Events PERSON
-0.28734834880543758117710240185261 2:0 3:13 4:0 5:0 7:1 73:1 8150:1 # 20140625120602AAXWOm0 Mediterranean NNP Science_&_Mathematics TOKEN
0.5 2:0 3:4 4:0 5:1 7:0 8:1 19455:1 # 20140610080957AAEwFfP andy NN Yahoo!_Products PERSON
-0.30467078037011674496170599013567 2:0 3:4 4:0 5:0 7:1 73:1 424:1 # 20140605100701AAbVj3t Open NNP Health TOKEN
-0.30596220963623488309224285330856 2:0 3:3 4:0 5:0 7:1 73:1 12613:1 # 20140626130807AAvZf6J Hot NNP Computer_&_Internet TOKEN
-0.30345468896953409210226482173312 2:0 3:4 4:0 5:0 7:1 73:1 9350:1 # 20140614220006AA90c02 Semi NNP Sports TOKEN
0.5 2:0 3:9 4:0 5:0 7:1 73:1 14137:1 # 20140605150717AAmRFk6 Bloomberg NNP News_&_Events PERSON
-0.28934829178641052749298978596926 2:0 3:12 4:0 5:0 7:1 73:1 19390:1 # 20140608060520AAMzqLw Autocomplete NNP Yahoo!_Products TOKEN
0.5 2:0 3:3 4:0 5:0 7:1 73:1 8845:1 # 20140614131358AALx1CD Sam NNP Beauty_&_Style PERSON
0.5 2:0 3:3 4:0 5:0 7:1 73:1 769:1 # 20140617074422AANUT7h Poe NNP Arts_&_Humanities PERSON
0.5 2:0 3:3 4:0 5:0 7:1 73:1 5166:1 # 20140614004826AAWj9IB May NNP Entertainment_&_Music PERSON
0.5 2:0 3:5 4:0 5:0 7:1 73:1 770:1 # 20140617074422AANUT7h Dante NNP Arts_&_Humanities PERSON
0.5 2:0 3:5 4:0 5:0 7:1 73:1 15085:1 # 20140617015321AAEmy38 Eddie NNP Politics_&_Government PERSON
-0.099545256239191415303935173142236 2:0 3:6 4:1 5:0 7:0 73:1 15065:1 # 20140617015321AAEmy38 DRIVER NNP Politics_&_Government TOKEN
-0.28938572994296674067982166889124 2:0 3:12 4:0 5:0 7:1 73:1 13851:1 # 20140616154757AA3uubn Frankenstein NNP News_&_Events TOKEN
-0.28918224098693912083035684190691 2:0 3:12 4:0 5:0 7:1 73:1 6556:1 # 20140606081156AANGQrl Gynecomastia NNP Health TOKEN
0.5 2:0 3:3 4:0 5:0 7:1 73:1 9136:1 # 20140601101734AAAYp2K Max NNP Dining_Out ORGANIZATION
0.5 2:0 3:3 4:0 5:0 7:1 73:1 15781:1 # 20140611151627AAmAEbQ Ted NNP Politics_&_Government PERSON
0.5 2:0 3:3 4:0 5:0 7:1 73:1 9479:1 # 20140613182418AAAZN2I Zeb NNP Sports PERSON
0.5 2:0 3:3 4:0 5:0 7:1 73:1 5559:1 # 20140618141409AA9yzif Ray NNP Entertainment_&_Music PERSON
0.5 2:0 3:3 4:0 5:0 7:1 73:1 11362:1 # 20140616143448AAdU6Ze Hut NNP Dining_Out ORGANIZATION
-0.087765979212463762770823905157158 2:0 3:5 4:0 5:0 7:1 26:1 8521:1 # 20140621111444AACBO2L Short JJ Cars_&_Transportation TOKEN
-0.28934829178635723678780777845532 2:0 3:12 4:0 5:0 7:1 73:1 5983:1 # 20140615211937AA9zqfw Constipation NNP Health TOKEN
-0.28925841808056418358319206163287 2:0 3:12 4:0 5:0 7:1 73:1 9069:1 # 20140605104442AAFzzy2 Championship NNP Sports TOKEN
0.5 2:0 3:3 4:0 5:0 7:1 73:1 9156:1 # 20140615215028AAGmoaM Gio NNP Sports PERSON
0.5 2:0 3:3 4:0 5:0 7:1 73:1 11351:1 # 20140616143448AAdU6Ze Moe NNP Dining_Out ORGANIZATION
0.5 2:0 3:3 4:0 5:0 7:1 73:1 11310:1 # 20140616143448AAdU6Ze Rio NNP Dining_Out ORGANIZATION
0.5 2:0 3:3 4:0 5:0 7:1 73:1 9209:1 # 20140623022611AAddTaJ Big NNP Sports PERSON
0.5 2:0 3:3 4:0 5:0 7:1 73:1 14276:1 # 20140609053527AAHPrln Ian NNP News_&_Events PERSON
-0.037193800462332685108357566150517 2:0 3:8 4:0 5:0 7:1 73:1 19308:1 # 20140608143112AAz8XEx Customer NNP Yahoo!_Products TOKEN
-0.089063970594850716544499391602585 2:0 3:6 4:1 5:0 7:0 73:1 13240:1 # 20140610102038AAX5RlB REALLY NNP Pets TOKEN
0.5 2:1 3:8 4:0 5:0 7:1 73:1 11040:1 # 20140616141511AAlZZIn Carmines NNP Dining_Out LOCATION
0.5 2:0 3:8 4:0 5:0 7:1 73:1 14247:1 # 20140609053527AAHPrln Woodward NNP News_&_Events PERSON
-0.30209306199322938368823088239878 2:0 3:4 4:0 5:0 7:1 73:1 5439:1 # 20140620190356AAdnQme Hood NNP Entertainment_&_Music TOKEN
-0.2983712306043742046313127502799 2:0 3:3 4:0 5:0 7:1 73:1 14218:1 # 20140605200359AAgJgxT Dad NNP Pregnancy_&_Parenting TOKEN
-0.28935785781740719357912894338369 2:0 3:12 4:0 5:0 7:1 73:1 18898:1 # 20140625171723AAQIRte Explaination NNP Computer_&_Internet TOKEN
-0.28864472746418612381091861607274 2:0 3:12 4:0 5:0 7:1 73:1 9038:1 # 20140605104442AAFzzy2 Professional NNP Sports TOKEN
0.5 2:0 3:3 4:0 5:0 7:1 73:1 2148:1 # 20140609160711AAprF2f Kay NNP Arts_&_Humanities PERSON
0.5 2:0 3:3 4:0 5:0 7:1 73:1 19261:1 # 20140625072412AAUASEG Hun NNP Yahoo!_Products PERSON
0.5 2:0 3:3 4:0 5:0 7:1 73:1 9306:1 # 20140626152929AAvb2mt Eck NNP Sports PERSON
0.5 2:0 3:4 4:0 5:0 7:1 73:1 1541:1 # 20140625095108AAhxBZ2 Paul NNP Arts_&_Humanities PERSON
-0.30279041177434518061772905639373 2:0 3:5 4:0 5:0 7:1 73:1 5745:1 # 20140605140138AAyDVJY Didnt NNP Entertainment_&_Music TOKEN
-0.28744800515664969964291231008247 2:0 3:13 4:0 5:0 7:1 73:1 4724:1 # 20140617102632AAPzLAI Christmastime NNP Education_&_Reference TOKEN
0.5 2:0 3:6 4:0 5:0 7:1 73:1 9455:1 # 20140623022611AAddTaJ Lesanr NNP Sports PERSON
0.5 2:1 3:3 4:0 5:0 7:1 73:1 12801:1 # 20140603004555AAv1K5X Los NNP Politics_&_Government LOCATION
-0.01320629189231858902076055528596 2:0 3:8 4:0 5:1 7:0 8:1 3746:1 # 20140611200230AA2zvuY keyboard NN Computer_&_Internet TOKEN
-0.5 2:1 3:7 4:0 5:0 7:1 123:1 5614:1 # 20140615171734AAd4Cuo Answers VBZ Yahoo!_Products TOKEN
-0.0011935241063067980604728290927596 2:0 3:2 4:0 5:1 7:0 16:1 12852:1 # 20140613214814AARwXS4 em PRP Local_Businesses TOKEN
-0.01579376753512062858675335519365 2:0 3:6 4:0 5:1 7:0 8:1 12362:1 # 20140612113332AApfBo8 strass NN Home_&_Garden TOKEN
-0.29113602052674991682579275220633 2:0 3:11 4:0 5:0 7:1 73:1 12563:1 # 20140610220123AAW30Bg Renaissance NNP Home_&_Garden TOKEN
0.5 2:0 3:1 4:0 5:0 7:0 630:1 631:1 # 20140605034309AAV7PuK # # Consumer_Electronics PERSON
0.5 2:0 3:8 4:0 5:0 7:1 73:1 9157:1 # 20140615215028AAGmoaM Gonzalez NNP Sports PERSON
-0.3047102466148832178305383422412 2:0 3:4 4:0 5:0 7:1 73:1 11765:1 # 20140620063230AAXLo9n Soda NNP Food_&_Drink TOKEN
0.5 2:0 3:8 4:0 5:0 7:1 73:1 2125:1 # 20140609160711AAprF2f Broadway NNP Arts_&_Humanities LOCATION
0.5 2:0 3:8 4:0 5:0 7:1 73:1 4304:1 # 20140604083714AANM1Br Colorado NNP Education_&_Reference ORGANIZATION
0.5 2:0 3:8 4:0 5:0 7:1 73:1 3850:1 # 20140626112013AAPPVIB Facebook NNP Consumer_Electronics ORGANIZATION
-0.1081703125951789523639945400646 2:0 3:2 4:1 5:0 7:0 73:1 3492:1 # 20140601002604AAq45X7 IV NNP Pregnancy_&_Parenting TOKEN
0.5 2:0 3:8 4:0 5:0 7:1 73:1 11385:1 # 20140616143448AAdU6Ze Wingstop NNP Dining_Out ORGANIZATION
-0.0038781358574338370415190979656472 2:0 3:5 4:0 5:1 7:0 43:1 2582:1 # 20140619104923AAP4ZDh doubt VBP Home_&_Garden TOKEN
0.5 2:0 3:8 4:0 5:0 7:1 73:1 14405:1 # 20140620214550AA74tKP Gretchen NNP News_&_Events PERSON
0.5 2:0 3:8 4:0 5:0 7:1 73:1 5593:1 # 20140605040256AAru12G Benjamin NNP Entertainment_&_Music PERSON
-0.21534985646676574333469034172595 2:1 3:11 4:0 5:0 7:1 73:1 19436:1 # 20140609172302AAjgqUA Recommended NNP Yahoo!_Products TOKEN
0.5 2:1 3:5 4:0 5:0 7:1 73:1 14400:1 # 20140620214550AA74tKP Myers NNP News_&_Events PERSON
0.5 2:0 3:4 4:1 5:0 7:0 73:1 785:1 # 20140625193136AAUePpR H.P. NNP Arts_&_Humanities PERSON
0.5 2:1 3:6 4:0 5:0 7:1 73:1 11049:1 # 20140610083106AA7AAUT Steaks NNP Dining_Out ORGANIZATION
0.5 2:0 3:6 4:0 5:0 7:1 73:1 13954:1 # 20140626120744AAMAD0e Russia NNP News_&_Events LOCATION
-0.0022889028226060759152460377663374 2:0 3:5 4:0 5:1 7:0 8:1 7102:1 # 20140610123048AAZOuhW crime NN Politics_&_Government TOKEN
-0.029744345145523265472320417757146 2:1 3:3 4:1 5:0 7:0 73:1 18508:1 # 20140613224357AAigvJR IOS NNP Computer_&_Internet TOKEN
-0.029372215520757194440193416085094 2:1 3:3 4:1 5:0 7:0 73:1 2339:1 # 20140609035939AA1Gfsp TDS NNP Business_&_Finance TOKEN
-0.029515934482825967322128235537093 2:1 3:3 4:1 5:0 7:0 73:1 4730:1 # 20140617102632AAPzLAI SAT NNP Education_&_Reference TOKEN
-0.0043829655239058240567828761413693 2:0 3:2 4:0 5:1 7:0 73:1 149:1 # 20140625095108AAhxBZ2 in NNP Arts_&_Humanities TOKEN
0.5 2:0 3:4 4:1 5:0 7:0 73:1 5061:1 # 20140608162419AAwr1N9 M&M; NNP Entertainment_&_Music ORGANIZATION
0.5 2:0 3:4 4:1 5:0 7:0 73:1 1555:1 # 20140625095108AAhxBZ2 E.A. NNP Arts_&_Humanities PERSON
-0.5 2:1 3:7 4:0 5:0 7:1 73:1 12802:1 # 20140608112522AAMjxU9 Angeles NNP Local_Businesses TOKEN
0.5 2:0 3:3 4:0 5:1 7:0 8:1 4854:1 # 20140601014139AA5Szo2 usa NN Education_&_Reference LOCATION
-0.30215369929499047429999336600304 2:0 3:5 4:0 5:0 7:1 73:1 5426:1 # 20140620190356AAdnQme Enemy NNP Entertainment_&_Music TOKEN
-0.10811498639499017571097283507697 2:0 3:2 4:1 5:0 7:0 73:1 4155:1 # 20140610172137AA9hoaq MB NNP Dining_Out TOKEN
-0.10816046052846856051488089178747 2:0 3:2 4:1 5:0 7:0 73:1 4272:1 # 20140604083714AANM1Br TN NNP Education_&_Reference TOKEN
0.5 2:0 3:3 4:0 5:1 7:0 26:1 9449:1 # 20140623022611AAddTaJ ufc JJ Sports ORGANIZATION
-0.020865145217363212370997871403233 2:0 3:4 4:0 5:1 7:0 8:1 464:1 # 20140607080221AAia755 help NN Science_&_Mathematics TOKEN
-0.088328501045469548502708789783355 2:0 3:5 4:0 5:0 7:1 26:1 14832:1 # 20140611152642AAd7nNQ Large JJ Pets TOKEN
0.5 2:1 3:9 4:0 5:0 7:1 73:1 12377:1 # 20140601134625AAPRFLP Walgreens NNP Home_&_Garden ORGANIZATION
-0.5 2:0 3:3 4:0 5:0 7:1 73:1 2656:1 # 20140604083714AANM1Br New NNP Education_&_Reference TOKEN
-0.5 2:0 3:3 4:0 5:0 7:1 73:1 4312:1 # 20140617213812AAnm3nS San NNP Travel TOKEN
-0.5 2:0 3:3 4:0 5:0 7:1 73:1 9136:1 # 20140625100007AAcadtk Max NNP Politics_&_Government TOKEN
-0.5 2:0 3:2 4:1 5:0 7:0 73:1 3408:1 # 20140608120927AA1JZcv UK NNP Travel TOKEN
-0.5 2:0 3:3 4:0 5:0 7:1 73:1 5559:1 # 20140618215915AAruZzF Ray NNP News_&_Events TOKEN
-0.5 2:0 3:3 4:0 5:0 7:1 73:1 2656:1 # 20140614220006AA90c02 New NNP Sports TOKEN
0.5 2:0 3:8 4:0 5:0 7:1 73:1 13971:1 # 20140613111831AABRhzn Pakistan NNP News_&_Events LOCATION
0.5 2:0 3:8 4:0 5:0 7:1 73:1 4690:1 # 20140626142532AAHm2Mx Canadian NNP Pets ORGANIZATION
0.5 2:0 3:8 4:0 5:0 7:1 73:1 4058:1 # 20140606193910AApjpvz Oblivion NNP Consumer_Electronics LOCATION
-0.30573966108655836748653200629633 2:0 3:3 4:0 5:0 7:1 73:1 9136:1 # 20140625100007AAcadtk Max NNP Politics_&_Government TOKEN
0.5 2:0 3:8 4:0 5:0 7:1 73:1 9137:1 # 20140615215028AAGmoaM Scherzer NNP Sports PERSON
-0.29678732587865397363202646374702 2:0 3:8 4:0 5:0 7:1 73:1 11240:1 # 20140610172137AA9hoaq Rosemont NNP Dining_Out TOKEN
0.5 2:0 3:8 4:0 5:0 7:1 73:1 15273:1 # 20140617193722AA5emAo Benghazi NNP Politics_&_Government LOCATION
0.5 2:0 3:8 4:0 5:0 7:1 73:1 9277:1 # 20140601130859AAHxybZ Martinez NNP Sports PERSON
0.5 2:0 3:8 4:0 5:0 7:1 73:1 15786:1 # 20140611151627AAmAEbQ Gingrich NNP Politics_&_Government PERSON
0.5 2:0 3:8 4:0 5:0 7:1 73:1 4280:1 # 20140610222206AAaaj3T Columbia NNP News_&_Events LOCATION
-0.5 2:0 3:3 4:0 5:0 7:1 73:1 9209:1 # 20140613111207AAD5YgE Big NNP Dining_Out TOKEN
0.5 2:0 3:8 4:0 5:0 7:1 73:1 15211:1 # 20140610123048AAZOuhW Bergdahl NNP Politics_&_Government PERSON
0.5 2:0 3:8 4:0 5:0 7:1 73:1 18418:1 # 20140617134810AAX61tb Aramoana NNP Travel LOCATION
0.5 2:0 3:8 4:0 5:0 7:1 73:1 11091:1 # 20140616143448AAdU6Ze Mcdonald NNP Dining_Out ORGANIZATION
-0.036310597552749734884258714373573 2:1 3:8 4:0 5:0 7:1 61:1 3189:1 # 20140601131055AAPxhOP Pictures NNPS Business_&_Finance TOKEN
-0.0071160375332938730075227340421407 2:1 3:5 4:1 5:0 7:0 73:1 14721:1 # 20140626142532AAHm2Mx RUNTS NNP Pets TOKEN
0.5 2:0 3:3 4:0 5:1 7:0 26:1 31:1 # 20140612200636AAqMBhQ new JJ Politics_&_Government LOCATION
0.5 2:0 3:6 4:0 5:1 7:0 26:1 5214:1 # 20140615171734AAd4Cuo virgin JJ Yahoo!_Products PERSON
0.5 2:0 3:3 4:0 5:1 7:0 26:1 3981:1 # 20140605040256AAru12G low JJ Entertainment_&_Music PERSON
-0.49554664073880072550082331872545 2:0 3:3 4:0 5:1 7:0 26:1 31:1 # 20140604173800AAfa77c new JJ Business_&_Finance TOKEN
0.5 2:0 3:4 4:0 5:0 7:1 73:1 11889:1 # 20140626133140AAROz72 Hati NNP Food_&_Drink LOCATION
0.5 2:0 3:4 4:0 5:0 7:1 73:1 262:1 # 20140605104442AAFzzy2 John NNP Sports PERSON
0.5 2:0 3:4 4:0 5:0 7:1 73:1 9145:1 # 20140615215028AAGmoaM Cole NNP Sports PERSON
0.5 2:0 3:4 4:0 5:0 7:1 73:1 4279:1 # 20140609122525AAYu0rC Ohio NNP Travel LOCATION
0.5 2:0 3:4 4:0 5:0 7:1 73:1 11092:1 # 20140613111207AAD5YgE Gacy NNP Dining_Out PERSON
-0.5 2:0 3:3 4:0 5:0 7:1 73:1 9209:1 # 20140613182418AAAZN2I Big NNP Sports TOKEN
0.5 2:0 3:5 4:0 5:1 7:0 20:1 15566:1 # 20140603004555AAv1K5X steve VBG Politics_&_Government PERSON
-0.21536718563261558756494196131825 2:1 3:11 4:0 5:0 7:1 73:1 2548:1 # 20140608032717AAM9Cvk Registering NNP Business_&_Finance TOKEN
-0.21532091543038234249252127483487 2:1 3:11 4:0 5:0 7:1 73:1 15110:1 # 20140617015321AAEmy38 Definitions NNP Politics_&_Government TOKEN
-0.0052623025192548023021288372547133 2:0 3:3 4:0 5:0 7:1 49:1 8327:1 # 20140612233414AAbNPKy Yea UH Family_&_Relationships TOKEN
-0.21534985646680127047147834673524 2:1 3:11 4:0 5:0 7:1 73:1 7825:1 # 20140618110626AAvIpWH Astronomers NNP Science_&_Mathematics TOKEN
-0.3027306773107993898008771793684 2:0 3:5 4:0 5:0 7:1 73:1 9093:1 # 20140620105746AAnOLsk Eagle NNP Sports TOKEN
-0.5 2:0 3:3 4:1 5:0 7:0 73:1 7172:1 # 20140623022611AAddTaJ WWE NNP Sports TOKEN
0.5 2:0 3:8 4:0 5:0 7:1 73:1 12818:1 # 20140610174552AAptb2t Edgewood NNP Local_Businesses LOCATION
0.5 2:0 3:8 4:0 5:0 7:1 73:1 9126:1 # 20140626150225AAeTpqG Victoria NNP Sports LOCATION
0.5 2:0 3:8 4:0 5:0 7:1 73:1 3930:1 # 20140603005221AAThPnj Motolora NNP Consumer_Electronics ORGANIZATION
0.5 2:0 3:8 4:0 5:0 7:1 73:1 1472:1 # 20140605223141AA4aNVu Blackman NNP Arts_&_Humanities PERSON
0.5 2:0 3:8 4:0 5:0 7:1 73:1 18422:1 # 20140615004107AA0Il4W Istanbul NNP Travel LOCATION
0.5 2:0 3:8 4:0 5:0 7:1 73:1 4274:1 # 20140604083714AANM1Br Davidson NNP Education_&_Reference LOCATION
0.5 2:0 3:8 4:0 5:0 7:1 73:1 9240:1 # 20140604025700AAoSHAT Aberdeen NNP Sports PERSON
0.5 2:0 3:10 4:0 5:0 7:1 73:1 15471:1 # 20140617193722AA5emAo Whitehouse NNP Politics_&_Government PERSON
-0.21536718563257650771447515580803 2:1 3:11 4:0 5:0 7:1 73:1 5981:1 # 20140615211937AA9zqfw Hemerhoidds NNP Health TOKEN
-0.21520890431606476411730000108946 2:1 3:11 4:0 5:0 7:1 73:1 15615:1 # 20140617203723AAnMv8x Transformed NNP Politics_&_Government TOKEN
0.5 2:0 3:3 4:0 5:1 7:0 8:1 14450:1 # 20140617191218AAiEBHA fox NN News_&_Events ORGANIZATION
-0.017658384049730930370758485992155 2:0 3:5 4:0 5:1 7:0 8:1 4936:1 # 20140613063105AA0GFxu space NN Health TOKEN
0.5 2:0 3:5 4:0 5:1 7:0 8:1 7374:1 # 20140606090914AA45noC yahoo NN Yahoo!_Products ORGANIZATION
0.5 2:0 3:4 4:0 5:0 7:1 73:1 3011:1 # 20140611204210AAPJj1y Arun NNP Business_&_Finance PERSON
0.5 2:1 3:7 4:0 5:0 7:1 73:1 12802:1 # 20140616200702AA6Pms8 Angeles NNP Local_Businesses LOCATION
0.5 2:0 3:2 4:1 5:0 7:0 73:1 3408:1 # 20140615131345AAW89pT UK NNP News_&_Events LOCATION
-0.5 2:1 3:7 4:0 5:0 7:1 73:1 3502:1 # 20140626130807AAvZf6J Windows NNP Computer_&_Internet TOKEN
0.5 2:0 3:6 4:0 5:1 7:0 8:1 9335:1 # 20140609172302AAjgqUA canada NN Yahoo!_Products LOCATION
0.5 2:0 3:6 4:0 5:1 7:0 8:1 14956:1 # 20140622080843AAfcL4m selena NN Pets PERSON
0.5 2:1 3:10 4:0 5:0 7:1 73:1 1757:1 # 20140621012549AAOo4ve Dreamworks NNP Arts_&_Humanities ORGANIZATION
-0.22674185934031343414574166672537 2:1 3:5 4:0 5:0 7:1 73:1 8231:1 # 20140622013948AAZujJH Bulbs NNP Science_&_Mathematics TOKEN
0.5 2:0 3:6 4:0 5:1 7:0 8:1 15567:1 # 20140603004555AAv1K5X balmer NN Politics_&_Government PERSON
0.5 2:0 3:6 4:0 5:1 7:0 8:1 5586:1 # 20140605040256AAru12G maiden NN Entertainment_&_Music PERSON
0.5 2:0 3:6 4:0 5:1 7:0 8:1 8749:1 # 20140621092416AArsE0s brazil NN Social_Science LOCATION
0.5 2:0 3:5 4:0 5:1 7:0 8:1 9214:1 # 20140618180738AANfMh9 china NN Sports LOCATION
-0.10781583795045257545552885858342 2:0 3:2 4:1 5:0 7:0 73:1 9091:1 # 20140620105746AAnOLsk SA NNP Sports TOKEN
-0.024075907383726058430539751498145 2:1 3:8 4:0 5:0 7:1 12:1 12315:1 # 20140623142217AAHjEJM Problems NNS Politics_&_Government TOKEN
0.5 2:0 3:3 4:0 5:0 7:1 73:1 4312:1 # 20140619190906AAxXT6l San NNP Local_Businesses LOCATION
-0.2911855640717107007731101475656 2:0 3:11 4:0 5:0 7:1 73:1 13920:1 # 20140607104637AASvvKI Thatcherite NNP News_&_Events TOKEN
-0.29128238114466853403428103774786 2:0 3:11 4:0 5:0 7:1 73:1 18027:1 # 20140604115540AAQrGu2 Fantasyland NNP Travel TOKEN
0.5 2:0 3:3 4:0 5:1 7:0 26:1 3981:1 # 20140605040256AAru12G low JJ Entertainment_&_Music PERSON
-0.0035688666435760296735679730772972 2:0 3:13 4:0 5:1 7:0 8:1 10281:1 # 20140614154636AAYu9pP disabled#sick NN Social_Science TOKEN
0.5 2:0 3:10 4:0 5:0 7:1 73:1 18030:1 # 20140608151316AAZv17m Disneyland NNP Travel ORGANIZATION
0.5 2:1 3:2 4:1 5:0 7:0 16:1 2475:1 # 20140605225754AA2LJWC US PRP Consumer_Electronics LOCATION
-0.11062937839103414994212926103501 2:0 3:2 4:1 5:0 7:0 73:1 3507:1 # 20140604203617AAQJuGv CA NNP Games_&_Recreation TOKEN
-0.0022193578202122088427472590410616 2:0 3:5 4:0 5:1 7:0 8:1 1653:1 # 20140605091638AATCTbo stage NN Arts_&_Humanities TOKEN
-0.11140800684692830913036232232116 2:0 3:7 4:0 5:0 7:1 8:1 15109:1 # 20140617015321AAEmy38 Section NN Politics_&_Government TOKEN
-0.00331734813169592968051802017726 2:0 3:13 4:0 5:1 7:0 8:1 3473:1 # 20140622093907AASVTkE dantheman0506 NN Business_&_Finance TOKEN
-0.0085710101898440818612989744451625 2:1 3:4 4:1 5:0 7:0 73:1 18565:1 # 20140608132523AAWfvBH BIOS NNP Computer_&_Internet TOKEN
-0.012547225266477113336804904974997 2:0 3:5 4:0 5:1 7:0 8:1 6231:1 # 20140604005232AAfI0Ol hymen NN Health TOKEN
0.5 2:0 3:2 4:1 5:0 7:0 73:1 3507:1 # 20140604083714AANM1Br CA NNP Education_&_Reference LOCATION
0.5 2:0 3:7 4:0 5:0 7:1 73:1 5430:1 # 20140613180332AA3jCxr America NNP News_&_Events ORGANIZATION
0.5 2:0 3:7 4:0 5:0 7:1 73:1 15794:1 # 20140605183929AAMoGA3 Trudeau NNP Politics_&_Government PERSON
0.5 2:0 3:7 4:0 5:0 7:1 73:1 11317:1 # 20140616143448AAdU6Ze Chicken NNP Dining_Out ORGANIZATION
-0.5 2:0 3:4 4:0 5:1 7:0 88:1 2990:1 # 20140622131925AAtjtJJ etsy VB Beauty_&_Style TOKEN
0.5 2:0 3:7 4:0 5:0 7:1 73:1 5576:1 # 20140618141409AA9yzif Wagoner NNP Entertainment_&_Music PERSON
0.5 2:0 3:7 4:0 5:0 7:1 73:1 5403:1 # 20140620190356AAdnQme Luciano NNP Entertainment_&_Music PERSON
0.5 2:0 3:5 4:0 5:1 7:0 73:1 172:1 # 20140607125905AA2JtXv &amp; NNP Politics_&_Government ORGANIZATION
0.5 2:0 3:3 4:0 5:1 7:0 26:1 31:1 # 20140622230045AAAI6WE new JJ Travel LOCATION
-0.5 2:0 3:3 4:0 5:1 7:0 26:1 31:1 # 20140615191957AAO9x20 new JJ Computer_&_Internet TOKEN
-0.031770529160670024637624919705559 2:1 3:2 4:1 5:0 7:0 73:1 9777:1 # 20140608023935AA61Kab AM NNP Social_Science TOKEN
-0.5 2:0 3:2 4:1 5:0 7:0 73:1 3507:1 # 20140604203617AAQJuGv CA NNP Games_&_Recreation TOKEN
-0.00038433997883741133350099516974296 2:0 3:5 4:0 5:1 7:0 8:1 7626:1 # 20140626130807AAvZf6J arrow NN Computer_&_Internet TOKEN
0.5 2:0 3:3 4:0 5:0 7:1 73:1 2656:1 # 20140609103954AAB6LY5 New NNP News_&_Events LOCATION
-0.5 2:0 3:10 4:0 5:0 7:1 73:1 10644:1 # 20140625110415AAjpx1n Washington NNP Cars_&_Transportation TOKEN
-0.5 2:0 3:9 4:0 5:0 7:1 73:1 3852:1 # 20140605200512AAK0eW7 Instagram NNP Family_&_Relationships TOKEN
0.5 2:0 3:3 4:0 5:1 7:0 26:1 3981:1 # 20140605040256AAru12G low JJ Entertainment_&_Music PERSON
0.5 2:0 3:4 4:0 5:1 7:0 20:1 3365:1 # 20140616234645AAnbyhx ebay VBG Consumer_Electronics ORGANIZATION
-0.10817031259518028463162409025244 2:0 3:2 4:1 5:0 7:0 73:1 3321:1 # 20140610193547AAHNlOY GE NNP Business_&_Finance TOKEN
-0.5 2:0 3:3 4:0 5:1 7:0 20:1 3981:1 # 20140607135336AADGWCS low VBG Computer_&_Internet TOKEN
0.5 2:0 3:7 4:0 5:0 7:1 73:1 14390:1 # 20140626101740AADAK0e Baghdad NNP Politics_&_Government LOCATION
-0.29121996109272174635407282039523 2:0 3:11 4:0 5:0 7:1 73:1 18614:1 # 20140611153520AAksgjY Silverlight NNP Computer_&_Internet TOKEN
0.5 2:0 3:7 4:0 5:0 7:1 73:1 4118:1 # 20140607141649AANF6Tv Walmart NNP Consumer_Electronics ORGANIZATION
-0.29124265484956168847929802723229 2:0 3:11 4:0 5:0 7:1 73:1 3918:1 # 20140603005221AAThPnj Permanently NNP Consumer_Electronics TOKEN
0.5 2:0 3:3 4:0 5:0 7:1 73:1 9209:1 # 20140623022611AAddTaJ Big NNP Sports PERSON
0.5 2:0 3:3 4:0 5:0 7:1 73:1 2656:1 # 20140620214550AA74tKP New NNP News_&_Events LOCATION
-0.0080848804399580309620887419441715 2:0 3:5 4:0 5:1 7:0 8:1 13101:1 # 20140620035947AAeYEbM grape NN Local_Businesses TOKEN
-0.0060919411256152022904331033714698 2:0 3:6 4:0 5:0 7:1 30:1 12411:1 # 20140601151243AAGeO0l Beyond IN Home_&_Garden TOKEN
-0.0017613782180051773540441217846819 2:0 3:7 4:0 5:0 7:1 73:1 6720:1 # 20140604153959AAylnd6 Sculpey NNP Games_&_Recreation TOKEN
-8.8112690505015578423808619845659e-08 2:0 3:4 4:0 5:0 7:1 73:1 658:1 # 20140618000317AAD1yfB Read NNP Home_&_Garden TOKEN
-0.01468284773258332620571309234947 2:0 3:5 4:0 5:1 7:0 8:1 12180:1 # 20140620035947AAeYEbM syrup NN Local_Businesses TOKEN
-0.29119546962871378781301245908253 2:0 3:11 4:0 5:0 7:1 73:1 13928:1 # 20140607104637AASvvKI Eurosceptic NNP News_&_Events TOKEN
-0.29097029526269801991134045238141 2:0 3:11 4:0 5:0 7:1 73:1 3537:1 # 20140623193424AAEouJN Motherboard NNP Computer_&_Internet TOKEN
0.5 2:0 3:7 4:0 5:0 7:1 73:1 2054:1 # 20140625193136AAUePpR Richard NNP Arts_&_Humanities PERSON
0.5 2:0 3:7 4:0 5:0 7:1 73:1 1574:1 # 20140603115701AA0IaWS Wattpad NNP Arts_&_Humanities ORGANIZATION
0.5 2:0 3:7 4:0 5:0 7:1 73:1 15573:1 # 20140603004555AAv1K5X Ballmer NNP Politics_&_Government PERSON
0.5 2:0 3:7 4:0 5:0 7:1 73:1 802:1 # 20140617074422AANUT7h Johnson NNP Arts_&_Humanities PERSON
-0.10816046052846672864689026027918 2:0 3:2 4:1 5:0 7:0 73:1 5971:1 # 20140615211937AA9zqfw GP NNP Health TOKEN
0.5 2:0 3:5 4:0 5:0 7:1 73:1 686:1 # 20140623100602AAeUxIh Bryan NNP Arts_&_Humanities PERSON
-0.0098237984762930274929004781370168 2:1 3:4 4:1 5:0 7:0 73:1 11164:1 # 20140608075953AADKMro PEAS NNP Dining_Out TOKEN
0.5 2:0 3:7 4:0 5:0 7:1 73:1 14390:1 # 20140626101740AADAK0e Baghdad NNP Politics_&_Government LOCATION
0.5 2:0 3:7 4:0 5:0 7:1 73:1 10982:1 # 20140603235141AAdqnjl Porsche NNP Cars_&_Transportation ORGANIZATION
-0.018880658545751272114898711151909 2:0 3:5 4:0 5:1 7:0 8:1 2729:1 # 20140615100226AACLhyS frame NN Home_&_Garden TOKEN
-0.0011706580063091109877859707921743 2:0 3:14 4:0 5:1 7:0 8:1 15046:1 # 20140625100007AAcadtk infrastructure NN Politics_&_Government TOKEN
0.5 2:0 3:7 4:0 5:0 7:1 73:1 3851:1 # 20140626112013AAPPVIB Twitter NNP Consumer_Electronics ORGANIZATION
0.5 2:0 3:2 4:1 5:0 7:0 73:1 3408:1 # 20140609103348AAf8tZ6 UK NNP News_&_Events LOCATION
-0.29323251534525240913353627547622 2:0 3:10 4:0 5:0 7:1 73:1 15697:1 # 20140614170630AA1o9BQ Eisenhower NNP Politics_&_Government TOKEN
-0.018559261241187563484800193691626 2:0 3:5 4:0 5:1 7:0 8:1 10338:1 # 20140620180056AARv7Hs ofthe NN Social_Science TOKEN
-0.018926324931812898988425786228618 2:0 3:5 4:0 5:1 7:0 8:1 2895:1 # 20140606165846AA1KBRp phone NN Social_Science TOKEN
-0.018880658545748052468127298197942 2:0 3:5 4:0 5:1 7:0 8:1 6779:1 # 20140619104923AAP4ZDh heavy NN Home_&_Garden TOKEN
-0.0073944265662788666304550133645535 2:0 3:11 4:0 5:1 7:0 8:1 2927:1 # 20140614220006AA90c02 reliability NN Sports TOKEN
0.5 2:0 3:7 4:0 5:0 7:1 73:1 3765:1 # 20140605225754AA2LJWC Comcast NNP Consumer_Electronics ORGANIZATION
0.5 2:0 3:8 4:0 5:0 7:1 73:1 11374:1 # 20140616143448AAdU6Ze Smoothie NNP Dining_Out ORGANIZATION
0.5 2:0 3:5 4:0 5:0 7:1 73:1 7488:1 # 20140618154247AAeGMD1 Yahoo NNP Yahoo!_Products ORGANIZATION
-0.018070747036099066296088722083368 2:0 3:5 4:0 5:1 7:0 8:1 2003:1 # 20140613214814AARwXS4 labor NN Local_Businesses TOKEN
-0.018678165403966939805968650034629 2:0 3:5 4:0 5:1 7:0 8:1 19332:1 # 20140612143422AAqa4gB inbox NN Yahoo!_Products TOKEN
0.5 2:1 3:9 4:0 5:0 7:1 73:1 803:1 # 20140617074422AANUT7h Gottfried NNP Arts_&_Humanities PERSON
-0.29042661365997868294641648390098 2:0 3:11 4:0 5:0 7:1 73:1 13807:1 # 20140609182413AATpjOA Immigration NNP Politics_&_Government TOKEN
-0.29060182618486507521993189584464 2:0 3:11 4:0 5:0 7:1 73:1 14629:1 # 20140619183644AAkBDn2 Evaporation NNP Pets TOKEN
-0.018678165403969604341227750410326 2:0 3:5 4:0 5:1 7:0 8:1 12110:1 # 20140623173753AAUMZe3 dairy NN Food_&_Drink TOKEN
0.49976403158883897503983462229371 2:0 3:7 4:0 5:0 7:1 73:1 13744:1 # 20140625082631AAcgyMl Clinton NNP Politics_&_Government PERSON
0.5 2:0 3:7 4:0 5:0 7:1 73:1 10935:1 # 20140603235141AAdqnjl Hyundai NNP Cars_&_Transportation ORGANIZATION
-0.5 2:1 3:7 4:0 5:0 7:1 73:1 3502:1 # 20140606131438AAaBd2m Windows NNP Computer_&_Internet TOKEN
0.5 2:0 3:3 4:0 5:0 7:1 73:1 5559:1 # 20140618141409AA9yzif Ray NNP Entertainment_&_Music PERSON
-0.085461159009008969000831257289974 2:0 3:8 4:0 5:0 7:1 73:1 4593:1 # 20140623064734AAHH1Hb Equation NNP Science_&_Mathematics TOKEN
-0.20559711950353376508360270236153 2:0 3:5 4:0 5:1 7:0 73:1 9642:1 # 20140618192549AAzYXYR larga NNP Social_Science TOKEN
-0.20581586574103827302906211116351 2:0 3:5 4:0 5:1 7:0 73:1 14888:1 # 20140611152642AAd7nNQ pleco NNP Pets TOKEN
-0.20513999763622159377973730443045 2:0 3:5 4:0 5:1 7:0 73:1 9619:1 # 20140618192549AAzYXYR madre NNP Social_Science TOKEN
-0.010475899553509970818510055323713 2:0 3:1 4:0 5:0 7:0 123:1 341:1 # 20140616153138AASJ97g ' VBZ Business_&_Finance TOKEN
0.5 2:0 3:5 4:0 5:1 7:0 73:1 172:1 # 20140607125905AA2JtXv &amp; NNP Politics_&_Government ORGANIZATION
-0.5 2:0 3:5 4:0 5:1 7:0 73:1 172:1 # 20140626031053AAyXCcP &amp; NNP Food_&_Drink TOKEN
-0.042150810288053265628693822009154 2:1 3:5 4:0 5:0 7:1 61:1 8160:1 # 20140625120602AAXWOm0 Arabs NNPS Science_&_Mathematics TOKEN
0.5 2:1 3:7 4:0 5:0 7:1 123:1 5614:1 # 20140620213457AAI59UA Answers VBZ Computer_&_Internet ORGANIZATION
0.5 2:0 3:10 4:0 5:0 7:1 73:1 13951:1 # 20140626120744AAMAD0e Poreshenco NNP News_&_Events LOCATION
0.5 2:0 3:10 4:0 5:0 7:1 73:1 15686:1 # 20140614170630AA1o9BQ Kazakhstan NNP Politics_&_Government LOCATION
-0.5 2:0 3:5 4:0 5:0 7:1 73:1 7488:1 # 20140601163915AAS8CzR Yahoo NNP Family_&_Relationships TOKEN
-0.5 2:0 3:7 4:0 5:0 7:1 73:1 14390:1 # 20140613180332AA3jCxr Baghdad NNP News_&_Events TOKEN
0.5 2:0 3:5 4:0 5:1 7:0 8:1 15250:1 # 20140605231104AAm8fzJ gucci NN Politics_&_Government ORGANIZATION
0.5 2:0 3:5 4:0 5:1 7:0 8:1 7476:1 # 20140623022611AAddTaJ angle NN Sports PERSON
0.5 2:0 3:5 4:0 5:1 7:0 8:1 9567:1 # 20140615224306AASdmOX danny NN Sports PERSON
0.5 2:0 3:5 4:0 5:1 7:0 8:1 13881:1 # 20140617033632AAaS0SQ lohan NN News_&_Events PERSON
0.5 2:1 3:7 4:0 5:0 7:1 73:1 3502:1 # 20140614134845AAVhWeg Windows NNP Consumer_Electronics ORGANIZATION
0.5 2:0 3:5 4:0 5:1 7:0 8:1 1291:1 # 20140614122338AAHL8sn canon NN Arts_&_Humanities ORGANIZATION
0.5 2:0 3:5 4:0 5:1 7:0 8:1 14957:1 # 20140622080843AAfcL4m gomez NN Pets PERSON
0.5 2:0 3:5 4:0 5:1 7:0 8:1 8142:1 # 20140625120602AAXWOm0 syria NN Science_&_Mathematics LOCATION
0.5 2:0 3:5 4:0 5:1 7:0 8:1 11110:1 # 20140613111207AAD5YgE wayne NN Dining_Out PERSON
-0.30273067731070391062075941590592 2:0 3:5 4:0 5:0 7:1 73:1 12774:1 # 20140615215502AAWIjLB Needy NNP Local_Businesses TOKEN
-0.30418383924022540654164004081395 2:0 3:4 4:0 5:0 7:1 73:1 15508:1 # 20140617193722AA5emAo Poor NNP Politics_&_Government TOKEN
0.5 2:0 3:11 4:0 5:1 7:0 8:1 9169:1 # 20140623155342AAYpGzf bridgestone NN Sports ORGANIZATION
-0.018872518740962407335359785065521 2:0 3:5 4:0 5:1 7:0 8:1 6403:1 # 20140609212304AAlJxoJ shape NN Cars_&_Transportation TOKEN
-0.08114277795057489583996357396245 2:0 3:16 4:1 5:0 7:0 73:1 8698:1 # 20140613083238AAZnREA BAHAHAHAHAHAHAHA NNP Beauty_&_Style TOKEN
-0.017687019585263197285485148313455 2:0 3:5 4:0 5:1 7:0 8:1 5203:1 # 20140606222934AAKFPKy bunch NN Social_Science TOKEN
-0.018741658799047516970048832263274 2:0 3:5 4:0 5:1 7:0 8:1 9604:1 # 20140618192549AAzYXYR tengo NN Social_Science TOKEN
0.5 2:0 3:4 4:1 5:0 7:0 73:1 11304:1 # 20140616143448AAdU6Ze A&W; NNP Dining_Out ORGANIZATION
-0.017978266745988236152697936631739 2:0 3:5 4:0 5:1 7:0 8:1 3483:1 # 20140619104923AAP4ZDh model NN Home_&_Garden TOKEN
-0.017597155836407918361175006793928 2:0 3:5 4:0 5:1 7:0 8:1 375:1 # 20140608143112AAz8XEx photo NN Yahoo!_Products TOKEN
-0.0017730991365616510790914617246017 2:0 3:9 4:0 5:1 7:0 8:1 5244:1 # 20140622114710AAQKNXX boyfriend NN Social_Science TOKEN
0.5 2:0 3:5 4:0 5:0 7:1 73:1 7488:1 # 20140610080957AAEwFfP Yahoo NNP Yahoo!_Products ORGANIZATION
0.5 2:0 3:4 4:0 5:1 7:0 8:1 1077:1 # 20140616143448AAdU6Ze land NN Dining_Out ORGANIZATION
0.5 2:0 3:4 4:0 5:1 7:0 8:1 6619:1 # 20140612080629AAuyjlx sean NN Health PERSON
0.5 2:0 3:4 4:0 5:1 7:0 8:1 2990:1 # 20140604131630AAZXrpw etsy NN Business_&_Finance ORGANIZATION
0.5 2:0 3:4 4:0 5:1 7:0 8:1 13833:1 # 20140607125905AA2JtXv army NN Politics_&_Government ORGANIZATION
-0.017657225432434309198015398578718 2:0 3:5 4:0 5:1 7:0 8:1 10396:1 # 20140615174740AA8MA6l idler NN Cars_&_Transportation TOKEN
-0.018070747036164125365331756256637 2:0 3:5 4:0 5:1 7:0 8:1 11402:1 # 20140610230047AA22gW4 print NN Computer_&_Internet TOKEN
-0.017732512212138232948754890117016 2:0 3:5 4:0 5:1 7:0 8:1 3706:1 # 20140615230550AAzCluq speed NN Computer_&_Internet TOKEN
-0.018820472232002671830741746816784 2:0 3:5 4:0 5:1 7:0 8:1 935:1 # 20140622114710AAQKNXX right NN Social_Science TOKEN
-0.017614243016160532895320045554399 2:0 3:5 4:0 5:1 7:0 8:1 10796:1 # 20140621111444AACBO2L digit NN Cars_&_Transportation TOKEN
0.5 2:0 3:2 4:1 5:0 7:0 73:1 3507:1 # 20140604083714AANM1Br CA NNP Education_&_Reference LOCATION
0.5 2:0 3:4 4:0 5:1 7:0 20:1 3365:1 # 20140616234645AAnbyhx ebay VBG Consumer_Electronics ORGANIZATION
-0.020105785476111748266703216359019 2:0 3:5 4:0 5:1 7:0 20:1 9045:1 # 20140605104442AAFzzy2 comin VBG Sports TOKEN
-0.019781360224582544837801378889708 2:0 3:5 4:0 5:1 7:0 20:1 334:1 # 20140616160832AA467zb stand VBG Family_&_Relationships TOKEN
-0.020097702818618112807769193750573 2:0 3:5 4:0 5:1 7:0 20:1 6004:1 # 20140605151444AA6EqVP youre VBG Dining_Out TOKEN
-0.019865867401109404966064175823703 2:0 3:5 4:0 5:1 7:0 20:1 6070:1 # 20140605225313AAAhy4Z bdead VBG Health TOKEN
0.49916567826966884435790916541009 2:0 3:4 4:0 5:0 7:1 73:1 15785:1 # 20140611151627AAmAEbQ Newt NNP Politics_&_Government PERSON
0.5 2:0 3:4 4:0 5:0 7:1 73:1 15779:1 # 20140611151627AAmAEbQ Dick NNP Politics_&_Government PERSON
0.5 2:1 3:8 4:0 5:0 7:1 73:1 11053:1 # 20140601101734AAAYp2K Brenners NNP Dining_Out ORGANIZATION
-0.049226187836403756392655850504525 2:0 3:5 4:0 5:0 7:1 26:1 727:1 # 20140618154247AAeGMD1 Sorry JJ Yahoo!_Products TOKEN
-0.2893712365006035347470003671333 2:0 3:12 4:0 5:0 7:1 73:1 17246:1 # 20140608155422AAGg2Wt Menstruation NNP Pregnancy_&_Parenting TOKEN
0.5 2:0 3:7 4:0 5:0 7:1 73:1 15421:1 # 20140617213812AAnm3nS Kingdom NNP Travel ORGANIZATION
-0.30559913922194570368162658269284 2:0 3:3 4:0 5:0 7:1 73:1 13454:1 # 20140612212350AAeLl07 Ull NNP Family_&_Relationships TOKEN
0.5 2:0 3:9 4:0 5:0 7:1 73:1 3852:1 # 20140626112013AAPPVIB Instagram NNP Consumer_Electronics ORGANIZATION
0.5 2:0 3:9 4:1 5:0 7:0 73:1 13026:1 # 20140610194612AA31tgA ENGLEWOOD NNP Local_Businesses LOCATION
-0.10818091048931940956201458448049 2:0 3:2 4:1 5:0 7:0 73:1 6940:1 # 20140616114406AAi0jDN I7 NNP Games_&_Recreation TOKEN
-0.5 2:0 3:4 4:0 5:0 7:1 73:1 4734:1 # 20140617102632AAPzLAI Fall NNP Education_&_Reference TOKEN
-0.30467934917834860186758305644616 2:0 3:4 4:0 5:0 7:1 73:1 1890:1 # 20140605091638AATCTbo Duet NNP Arts_&_Humanities TOKEN
-0.30359330922716676326444940059446 2:0 3:4 4:0 5:0 7:1 73:1 4209:1 # 20140613123024AAkX1Tt Xscl NNP Education_&_Reference TOKEN
-0.10802734630114158020930403836246 2:0 3:2 4:1 5:0 7:0 73:1 6974:1 # 20140603072418AAgZjcN AC NNP Science_&_Mathematics TOKEN
-0.10811766952344925574180933836033 2:0 3:2 4:1 5:0 7:0 73:1 4749:1 # 20140603131617AAsXYRf LP NNP Education_&_Reference TOKEN
-0.10808861157938309816017863340676 2:0 3:2 4:1 5:0 7:0 73:1 2998:1 # 20140611204210AAPJj1y UC NNP Business_&_Finance TOKEN
-0.10818537274105421985836983367335 2:0 3:2 4:1 5:0 7:0 73:1 15077:1 # 20140613132938AABdKy8 PD NNP Politics_&_Government TOKEN
-0.10816455130371416260004480136558 2:0 3:2 4:1 5:0 7:0 73:1 8034:1 # 20140601094337AAbsB6Z A. NNP Politics_&_Government TOKEN
-0.10816926040311558576689776600688 2:0 3:2 4:1 5:0 7:0 73:1 15710:1 # 20140601064930AA0dvez CF NNP Politics_&_Government TOKEN
0.5 2:0 3:4 4:0 5:0 7:1 73:1 11370:1 # 20140616143448AAdU6Ze Cane NNP Dining_Out ORGANIZATION
-0.10816046052846817193682227298268 2:0 3:2 4:1 5:0 7:0 73:1 7623:1 # 20140618095228AAKVjIw C2 NNP Science_&_Mathematics TOKEN
-0.10796815734413056642182482391945 2:0 3:2 4:1 5:0 7:0 73:1 7866:1 # 20140603072418AAgZjcN GH NNP Science_&_Mathematics TOKEN
-0.10817889928393964460440201946767 2:0 3:2 4:1 5:0 7:0 73:1 9259:1 # 20140617195809AA0PD6g RM NNP Sports TOKEN
-0.5 2:0 3:6 4:0 5:0 7:1 73:1 14294:1 # 20140621045509AAck6mP Saddam NNP News_&_Events TOKEN
-0.1081692604031156412780489972647 2:0 3:2 4:1 5:0 7:0 73:1 8998:1 # 20140612160340AAE8W0E KW NNP Sports TOKEN
-0.10816926040311547474459530349122 2:0 3:2 4:1 5:0 7:0 73:1 12349:1 # 20140619064754AAnYzEU L2 NNP Home_&_Garden TOKEN
-0.010005009347303861488853726768866 2:0 3:2 4:1 5:0 7:0 73:1 7852:1 # 20140605092633AAPkbBp W. NNP Science_&_Mathematics TOKEN
-0.1039072302212744602911698166281 2:0 3:11 4:0 5:0 7:1 8:1 18652:1 # 20140614220309AAJTZNt Replacement NN Computer_&_Internet TOKEN
-0.10818275225752538304391237033997 2:0 3:2 4:1 5:0 7:0 73:1 13119:1 # 20140620035947AAeYEbM OG NNP Local_Businesses TOKEN
-0.10799982018262255234475333054434 2:0 3:2 4:1 5:0 7:0 73:1 6777:1 # 20140615215028AAGmoaM SD NNP Sports TOKEN
-0.10815497291951925440400827937992 2:0 3:2 4:1 5:0 7:0 73:1 10780:1 # 20140621111444AACBO2L O2 NNP Cars_&_Transportation TOKEN
-0.10817392015969606866576668835478 2:0 3:2 4:1 5:0 7:0 73:1 11602:1 # 20140605102530AA17S7s KK NNP Dining_Out TOKEN
-0.011591979068179963929807740896649 2:0 3:2 4:1 5:0 7:0 73:1 10791:1 # 20140609170145AAsvd80 GM NNP Politics_&_Government TOKEN
-0.10817889928393931153749463192071 2:0 3:2 4:1 5:0 7:0 73:1 5107:1 # 20140619113940AAko4f7 S2 NNP Entertainment_&_Music TOKEN
-0.018917254452658682772892007051269 2:0 3:5 4:0 5:1 7:0 8:1 8424:1 # 20140613192110AABUd4A sweat NN Beauty_&_Style TOKEN
-0.015876871816824067451534574502148 2:0 3:6 4:0 5:1 7:0 8:1 4785:1 # 20140610100930AAaZ9T3 doctor NN Beauty_&_Style TOKEN
-0.10475350727969967579156218562275 2:0 3:3 4:1 5:0 7:0 73:1 5818:1 # 20140622080843AAfcL4m Y!A NNP Pets TOKEN
-0.023895638172880817595711278045201 2:0 3:3 4:0 5:1 7:0 20:1 9695:1 # 20140616195748AA2BAj7 iam VBG Social_Science TOKEN
0.5 2:0 3:4 4:0 5:0 7:1 73:1 9488:1 # 20140613182418AAAZN2I Jack NNP Sports PERSON
0.5 2:0 3:4 4:0 5:0 7:1 73:1 14254:1 # 20140609053527AAHPrln Carr NNP News_&_Events PERSON
0.5 2:0 3:4 4:0 5:0 7:1 73:1 11312:1 # 20140616143448AAdU6Ze Carl NNP Dining_Out ORGANIZATION
0.5 2:0 3:4 4:0 5:1 7:0 8:1 487:1 # 20140620035947AAeYEbM area NN Local_Businesses LOCATION
0.5 2:0 3:4 4:0 5:1 7:0 8:1 19455:1 # 20140610080957AAEwFfP andy NN Yahoo!_Products PERSON
-0.10816455130371771531372360186651 2:0 3:2 4:1 5:0 7:0 73:1 15014:1 # 20140613154011AAJ98M9 T. NNP Politics_&_Government TOKEN
-0.087677739295341450276310979461414 2:0 3:5 4:0 5:0 7:1 26:1 9228:1 # 20140611211016AAM5YLk Loser JJ Sports TOKEN
0.20226291905882476385158952325583 2:0 3:7 4:0 5:0 7:1 73:1 13744:1 # 20140612075720AAmNq58 Clinton NNP News_&_Events PERSON
-0.015526674215021962766059004934505 2:0 3:5 4:0 5:1 7:0 20:1 162:1 # 20140618003957AA2mrn7 clean VBG Arts_&_Humanities TOKEN
0.5 2:0 3:3 4:0 5:0 7:0 73:1 9571:1 # 20140615224306AASdmOX NbA NNP Sports ORGANIZATION
-0.30271666233808147694617218803614 2:0 3:5 4:0 5:0 7:1 73:1 19559:1 # 20140626122544AARcT3z Award NNP Yahoo!_Products TOKEN
-0.000761340243388767146798246088224 2:0 3:8 4:0 5:1 7:0 8:1 2921:1 # 20140618125641AAGkGpi approach NN Education_&_Reference TOKEN
-0.01453788987984694358601700514555 2:0 3:1 4:0 5:0 7:0 8:1 1990:1 # 20140613125219AA2D0JF ^ NN Beauty_&_Style TOKEN
-0.016278045344537417360442077551852 2:0 3:1 4:0 5:0 7:0 8:1 7689:1 # 20140618170211AA99yVG √ NN Science_&_Mathematics TOKEN
-0.10917652179993009298186734667979 2:0 3:3 4:0 5:0 7:1 43:1 3745:1 # 20140608113007AAoVpt8 Get VBP Politics_&_Government TOKEN
-0.014691302316027776697637818870135 2:0 3:1 4:0 5:0 7:0 8:1 751:1 # 20140617132235AAkTTzS ; NN Computer_&_Internet TOKEN
-0.11109778250242552388726835488342 2:0 3:7 4:0 5:0 7:1 8:1 2291:1 # 20140612062149AAH8vjl Mystery NN Arts_&_Humanities TOKEN
-0.21335467408241104436683599487878 2:1 3:12 4:0 5:0 7:1 73:1 10678:1 # 20140608223808AAjHFUR Restrictions NNP Cars_&_Transportation TOKEN
-0.016273435205370390121970558539033 2:0 3:1 4:0 5:0 7:0 8:1 6911:1 # 20140611144551AAguC6x \ NN Games_&_Recreation TOKEN
-0.10793278474700540581210361779085 2:0 3:2 4:1 5:0 7:0 73:1 6592:1 # 20140612080629AAuyjlx ER NNP Health TOKEN
-0.49939266947654914474696852266788 2:0 3:4 4:0 5:1 7:0 8:1 487:1 # 20140611132742AAU8vAK area NN Education_&_Reference TOKEN
-0.031355111594597334656597809043888 2:1 3:2 4:1 5:0 7:0 73:1 3695:1 # 20140622223032AAkvyyd PS NNP Games_&_Recreation TOKEN
-0.025422136223134828014735830947757 2:0 3:1 4:0 5:1 7:0 8:1 4443:1 # 20140618170211AA99yVG k NN Science_&_Mathematics TOKEN
-0.10618869476169590093661554419668 2:0 3:3 4:1 5:0 7:0 73:1 2351:1 # 20140609035939AA1Gfsp FDR NNP Business_&_Finance TOKEN
0.14871348648683113680135647882707 2:0 3:9 4:0 5:0 7:1 73:1 4400:1 # 20140623005211AAQ4eOc Australia NNP Local_Businesses LOCATION
-0.018050314257203436962839759871713 2:0 3:5 4:0 5:1 7:0 8:1 116:1 # 20140604184751AAZzDj5 metal NN Beauty_&_Style TOKEN
-0.10741933108555912212978000752628 2:0 3:4 4:0 5:0 7:1 43:1 282:1 # 20140607053946AAkMdTv Have VBP Social_Science TOKEN
-0.10713144262643595205908297884889 2:0 3:2 4:1 5:0 7:0 73:1 10895:1 # 20140617092003AATWcQC GT NNP Cars_&_Transportation TOKEN
0.5 2:0 3:4 4:0 5:1 7:0 8:1 8995:1 # 20140601162630AAuDjDG pepe NN Sports PERSON
0.5 2:0 3:4 4:0 5:1 7:0 8:1 194:1 # 20140605040256AAru12G time NN Entertainment_&_Music PERSON
0.5 2:0 3:5 4:0 5:0 7:1 73:1 18479:1 # 20140614114159AAxmnir Dhabi NNP Travel LOCATION
-0.21641373704442154468630121755268 2:1 3:10 4:0 5:0 7:1 73:1 15370:1 # 20140613132938AABdKy8 Processing NNP Politics_&_Government TOKEN
-0.21705916977989403449100791476667 2:1 3:10 4:0 5:0 7:1 73:1 14172:1 # 20140618215915AAruZzF Portrayals NNP News_&_Events TOKEN
0.5 2:0 3:4 4:1 5:0 7:0 73:1 5061:1 # 20140608162419AAwr1N9 M&M; NNP Entertainment_&_Music ORGANIZATION
-0.018741658799046517769326669622387 2:0 3:5 4:0 5:1 7:0 8:1 102:1 # 20140613191324AAysIAb worry NN Family_&_Relationships TOKEN
-0.10706875904483048600468464428559 2:0 3:2 4:1 5:0 7:0 73:1 7983:1 # 20140622085925AAdFLbE H2 NNP Science_&_Mathematics TOKEN
0.5 2:0 3:4 4:0 5:1 7:0 8:1 14958:1 # 20140622080843AAfcL4m demi NN Pets PERSON
-0.099382835657360529824089212524996 2:0 3:6 4:1 5:0 7:0 73:1 15206:1 # 20140610123048AAZOuhW ANYONE NNP Politics_&_Government TOKEN
0.5 2:0 3:4 4:0 5:0 7:1 73:1 8153:1 # 20140603131218AA1t3hP East NNP Local_Businesses LOCATION
-0.01890125586832613890919674304314 2:0 3:5 4:0 5:1 7:0 8:1 355:1 # 20140610075021AAwlDsA style NN Dining_Out TOKEN
-0.017802866971968978049289944465272 2:0 3:5 4:0 5:1 7:0 8:1 1994:1 # 20140608060520AAMzqLw issue NN Yahoo!_Products TOKEN
-0.015627482945744730624682006236981 2:0 3:5 4:0 5:1 7:0 8:1 1653:1 # 20140605091638AATCTbo stage NN Arts_&_Humanities TOKEN
-0.020681760775327878709717310812266 2:0 3:4 4:0 5:1 7:0 8:1 5017:1 # 20140613180332AA3jCxr junk NN News_&_Events TOKEN
-0.019061096876594296745111023483332 2:0 3:4 4:0 5:0 7:1 24:1 480:1 # 20140603091614AAtZw6A This DT Family_&_Relationships TOKEN
-0.018167436908617329294202136225067 2:0 3:5 4:0 5:1 7:0 8:1 5571:1 # 20140608112522AAMjxU9 devil NN Local_Businesses TOKEN
-0.015720655801514382687855686526746 2:0 3:5 4:0 5:1 7:0 8:1 385:1 # 20140610102038AAX5RlB place NN Pets TOKEN
0.5 2:1 3:8 4:0 5:0 7:1 73:1 3952:1 # 20140603005221AAThPnj Motorola NNP Consumer_Electronics ORGANIZATION
-0.10621839282439060614393611103878 2:0 3:3 4:1 5:0 7:0 73:1 18158:1 # 20140609031322AAZz3r8 TEA NNP Travel TOKEN
-0.10619600680392227154413831158308 2:0 3:3 4:1 5:0 7:0 73:1 6633:1 # 20140612080629AAuyjlx OTC NNP Health TOKEN
-0.016199832202208108711261047574226 2:0 3:1 4:0 5:0 7:0 8:1 253:1 # 20140610112505AAhGjYL % NN Dining_Out TOKEN
-0.018259444263023283383517991751432 2:0 3:5 4:0 5:1 7:0 8:1 3380:1 # 20140625230035AAgGhX2 image NN Consumer_Electronics TOKEN
0.5 2:0 3:4 4:0 5:0 7:1 73:1 15168:1 # 20140610123048AAZOuhW Bowe NNP Politics_&_Government PERSON
0.5 2:0 3:4 4:0 5:0 7:1 73:1 13473:1 # 20140620214550AA74tKP Mike NNP News_&_Events PERSON
0.5 2:0 3:3 4:1 5:0 7:0 73:1 3927:1 # 20140619113940AAko4f7 HTC NNP Entertainment_&_Music ORGANIZATION
0.5 2:0 3:5 4:0 5:0 7:1 73:1 263:1 # 20140608034752AAWHbyf Green NNP Arts_&_Humanities PERSON
-0.1081645513037172712245137518039 2:0 3:2 4:1 5:0 7:0 73:1 10904:1 # 20140617092003AATWcQC CB NNP Cars_&_Transportation TOKEN
-0.3026678772406441453313163947314 2:0 3:3 4:0 5:0 7:1 73:1 735:1 # 20140606112307AAHpG1a Ron NNP Arts_&_Humanities TOKEN
-0.1081692604031141979881169845612 2:0 3:2 4:1 5:0 7:0 73:1 19103:1 # 20140608111211AAkpqtd NA NNP Pregnancy_&_Parenting TOKEN
-0.10500858119887190866847959114239 2:0 3:2 4:1 5:0 7:0 73:1 8939:1 # 20140606003853AAp4Kid M4 NNP Sports TOKEN
-0.21641269070973323529472054360667 2:1 3:10 4:0 5:0 7:1 73:1 12740:1 # 20140621012150AAs9NFo Consulting NNP Home_&_Garden TOKEN
-0.10617923972454287873112832585321 2:0 3:3 4:1 5:0 7:0 73:1 8779:1 # 20140618215915AAruZzF BIG NNP News_&_Events TOKEN
-0.10811498639498751117571373470128 2:0 3:2 4:1 5:0 7:0 73:1 7863:1 # 20140603072418AAgZjcN DG NNP Science_&_Mathematics TOKEN
0.5 2:0 3:9 4:0 5:1 7:0 88:1 1266:1 # 20140610075021AAwlDsA hollywood VB Dining_Out LOCATION
-0.10654066707030085403573593794135 2:0 3:2 4:1 5:0 7:0 73:1 18237:1 # 20140605044942AAisLvo VF NNP Travel TOKEN
-0.10487121318122660795779665932059 2:0 3:2 4:1 5:0 7:0 73:1 8256:1 # 20140626204611AAKagRz PE NNP Science_&_Mathematics TOKEN
-0.10818463635184727422711148392409 2:0 3:2 4:1 5:0 7:0 73:1 13963:1 # 20140626120744AAMAD0e UN NNP News_&_Events TOKEN
-0.10815497291957543168905431230087 2:0 3:2 4:1 5:0 7:0 73:1 7851:1 # 20140623173753AAUMZe3 D. NNP Food_&_Drink TOKEN
-0.19991941449389005747150349634467 2:0 3:3 4:0 5:0 7:0 73:1 6892:1 # 20140613230123AAy6rx7 CoD NNP Games_&_Recreation TOKEN
-0.10626726321809520925398828694597 2:0 3:3 4:1 5:0 7:0 73:1 18746:1 # 20140623193424AAEouJN ATX NNP Computer_&_Internet TOKEN
-0.10619497143230605118446874257643 2:0 3:3 4:1 5:0 7:0 73:1 4270:1 # 20140604083714AANM1Br UNC NNP Education_&_Reference TOKEN
-0.10625276758032087265348764049122 2:0 3:3 4:1 5:0 7:0 73:1 4729:1 # 20140617102632AAPzLAI ACT NNP Education_&_Reference TOKEN
-0.10621595089909052767040975595592 2:0 3:3 4:1 5:0 7:0 73:1 4140:1 # 20140608132523AAWfvBH CPU NNP Computer_&_Internet TOKEN
-0.10626726321809432107556858682074 2:0 3:3 4:1 5:0 7:0 73:1 250:1 # 20140605130921AAXKqjH YES NNP Home_&_Garden TOKEN
-0.10626726321809254471872918657027 2:0 3:3 4:1 5:0 7:0 73:1 4148:1 # 20140623171559AARTbz7 GPU NNP Computer_&_Internet TOKEN
-0.10616711353447705334929196396843 2:0 3:3 4:1 5:0 7:0 73:1 3339:1 # 20140607012308AAXFLrR CAN NNP Yahoo!_Products TOKEN
-0.10627312251938936249473499628948 2:0 3:3 4:1 5:0 7:0 73:1 12606:1 # 20140609175346AAWw6PO TOO NNP Home_&_Garden TOKEN
-0.10626726321809432107556858682074 2:0 3:3 4:1 5:0 7:0 73:1 9148:1 # 20140615215028AAGmoaM STL NNP Sports TOKEN
-0.10625276758029456036780402428121 2:0 3:3 4:1 5:0 7:0 73:1 6628:1 # 20140612080629AAuyjlx CDC NNP Health TOKEN
-0.1061949714323051630060490424512 2:0 3:3 4:1 5:0 7:0 73:1 3443:1 # 20140609170145AAsvd80 THE NNP Politics_&_Government TOKEN
-0.10617208696904123499393790552858 2:0 3:3 4:1 5:0 7:0 73:1 10123:1 # 20140608222755AASVAKO SHE NNP Pets TOKEN
-0.10619852650954975104014010867104 2:0 3:3 4:1 5:0 7:0 73:1 1505:1 # 20140621032104AA5LQDd NOT NNP Entertainment_&_Music TOKEN
-0.10624714506223198462464551994344 2:0 3:3 4:1 5:0 7:0 73:1 10462:1 # 20140610052054AAkNfGL PSI NNP Cars_&_Transportation TOKEN
-0.10626287775864573514894573236234 2:0 3:3 4:1 5:0 7:0 73:1 15125:1 # 20140625201720AA1VzQt PFC NNP Politics_&_Government TOKEN
-0.096359306113633580448407656149357 2:0 3:2 4:1 5:0 7:0 73:1 10791:1 # 20140609170145AAsvd80 GM NNP Politics_&_Government TOKEN
-0.10614549764667113862515179789625 2:0 3:3 4:1 5:0 7:0 73:1 10798:1 # 20140621111444AACBO2L OBD NNP Cars_&_Transportation TOKEN
-0.10627312251938891840552514622686 2:0 3:3 4:1 5:0 7:0 73:1 1872:1 # 20140605091638AATCTbo TIE NNP Arts_&_Humanities TOKEN
-0.10609669329802073889368330128491 2:0 3:3 4:1 5:0 7:0 73:1 3686:1 # 20140610162943AA8McBJ PS3 NNP Games_&_Recreation TOKEN
-0.10616711353447527699245256371796 2:0 3:3 4:1 5:0 7:0 73:1 15056:1 # 20140617015321AAEmy38 MPH NNP Politics_&_Government TOKEN
-0.10619838434609363275740179233253 2:0 3:3 4:1 5:0 7:0 73:1 8680:1 # 20140613083238AAZnREA OWN NNP Beauty_&_Style TOKEN
-0.10615829305652946246141254960094 2:0 3:3 4:1 5:0 7:0 73:1 9475:1 # 20140620035947AAeYEbM AAA NNP Local_Businesses TOKEN
-0.5 2:0 3:7 4:0 5:0 7:1 73:1 5430:1 # 20140617193722AA5emAo America NNP Politics_&_Government TOKEN
-0.02103337552527931308965492007701 2:0 3:4 4:0 5:1 7:0 8:1 487:1 # 20140606224612AAe7J4W area NN Computer_&_Internet TOKEN
-0.10617375987497068567932956284494 2:0 3:3 4:1 5:0 7:0 73:1 7861:1 # 20140603072418AAgZjcN DGH NNP Science_&_Mathematics TOKEN
-0.10618211274866329318911084556021 2:0 3:3 4:1 5:0 7:0 73:1 15657:1 # 20140614170630AA1o9BQ NWO NNP Politics_&_Government TOKEN
-0.050270542119814631831786755356006 2:0 3:3 4:0 5:0 7:1 88:1 8541:1 # 20140605185213AAgsKy3 Fix VB Yahoo!_Products TOKEN
-0.30554802058523589103344875184121 2:0 3:3 4:0 5:0 7:1 73:1 7318:1 # 20140612212350AAeLl07 Ill NNP Family_&_Relationships TOKEN
-0.10615829305654855829743610229343 2:0 3:3 4:1 5:0 7:0 73:1 7875:1 # 20140603072418AAgZjcN X#4 NNP Science_&_Mathematics TOKEN
-0.10613439983232098029475309886038 2:0 3:3 4:1 5:0 7:0 73:1 9105:1 # 20140620105746AAnOLsk SAO NNP Sports TOKEN
-0.10624714506223043031241104472429 2:0 3:3 4:1 5:0 7:0 73:1 1356:1 # 20140614122338AAHL8sn XLR NNP Arts_&_Humanities TOKEN
-0.30281535804979620163379649966373 2:0 3:3 4:0 5:0 7:1 73:1 19143:1 # 20140608155422AAGg2Wt Soi NNP Pregnancy_&_Parenting TOKEN
-0.10604471411466676045165513642132 2:0 3:3 4:1 5:0 7:0 73:1 10781:1 # 20140621111444AACBO2L EGR NNP Cars_&_Transportation TOKEN
-0.10626250161216654888107768783811 2:0 3:3 4:1 5:0 7:0 73:1 7234:1 # 20140613202053AAONeF7 FWG NNP Games_&_Recreation TOKEN
-0.10612604046830875770268676205887 2:0 3:3 4:1 5:0 7:0 73:1 18240:1 # 20140605044942AAisLvo ETA NNP Travel TOKEN
-0.10602388488196465288204706212127 2:0 3:3 4:1 5:0 7:0 73:1 7150:1 # 20140604043842AAcLL5Z BTW NNP Games_&_Recreation TOKEN
-0.10602795590813657300444106112991 2:0 3:3 4:1 5:0 7:0 73:1 3976:1 # 20140614220309AAJTZNt USB NNP Computer_&_Internet TOKEN
-0.10564301424246955174446327418991 2:0 3:3 4:1 5:0 7:0 73:1 18819:1 # 20140625171643AAxjtac X51 NNP Computer_&_Internet TOKEN
-0.10626250161216654888107768783811 2:0 3:3 4:1 5:0 7:0 73:1 2095:1 # 20140613212156AAMXBQH RCM NNP Arts_&_Humanities TOKEN
-0.1061792397245406027739278442823 2:0 3:3 4:1 5:0 7:0 73:1 14030:1 # 20140601100338AAUfBLz WW2 NNP News_&_Events TOKEN
-0.041021648883094785631442391604651 2:0 3:5 4:1 5:0 7:0 73:1 5342:1 # 20140615025730AAsJj6v PROOF NNP Social_Science TOKEN
-0.098167128547671844707167565502459 2:0 3:2 4:1 5:0 7:0 73:1 7852:1 # 20140605092633AAPkbBp W. NNP Science_&_Mathematics TOKEN
-0.016694395573874087901344864803832 2:0 3:2 4:0 5:0 7:0 20:1 2806:1 # 20140612233414AAbNPKy ?! VBG Family_&_Relationships TOKEN
-0.10620869771850705021165595098864 2:0 3:3 4:1 5:0 7:0 73:1 14863:1 # 20140608222755AASVAKO HER NNP Pets TOKEN
-0.10627312251938869636092022119556 2:0 3:3 4:1 5:0 7:0 73:1 9147:1 # 20140615215028AAGmoaM ATL NNP Sports TOKEN
-0.10626250161216521661344813765027 2:0 3:3 4:1 5:0 7:0 73:1 3572:1 # 20140614134845AAVhWeg DVD NNP Consumer_Electronics TOKEN
-0.10621839282438516605111544777174 2:0 3:3 4:1 5:0 7:0 73:1 11663:1 # 20140622183237AAlmEtx VIP NNP Dining_Out TOKEN
-0.10626693568232736808454319543671 2:0 3:3 4:1 5:0 7:0 73:1 9435:1 # 20140623022611AAddTaJ MAN NNP Sports TOKEN
-0.20013275463429680556259881996084 2:0 3:3 4:0 5:0 7:0 73:1 18692:1 # 20140623171559AARTbz7 THe NNP Computer_&_Internet TOKEN
-0.19976156251613044756432202575525 2:0 3:3 4:0 5:0 7:0 73:1 2737:1 # 20140609063130AAx8NAT 500 NNP Computer_&_Internet TOKEN
-0.10816455130371771531372360186651 2:0 3:2 4:1 5:0 7:0 73:1 9378:1 # 20140618215915AAruZzF GI NNP News_&_Events TOKEN
0.5 2:0 3:3 4:0 5:0 7:0 73:1 9571:1 # 20140615224306AASdmOX NbA NNP Sports ORGANIZATION
-0.1061985265095515273969795089215 2:0 3:3 4:1 5:0 7:0 73:1 6766:1 # 20140609063130AAx8NAT RAM NNP Computer_&_Internet TOKEN
-0.1051409577192579103410707830335 2:0 3:3 4:1 5:0 7:0 73:1 8941:1 # 20140606003853AAp4Kid AEG NNP Sports TOKEN
-0.10489990916106395335560819148668 2:0 3:3 4:1 5:0 7:0 73:1 19098:1 # 20140608111211AAkpqtd 4TH NNP Pregnancy_&_Parenting TOKEN
-0.10617375987497068567932956284494 2:0 3:3 4:1 5:0 7:0 73:1 7287:1 # 20140620170402AA0uGdu ITS NNP Pregnancy_&_Parenting TOKEN
-0.10613329623962641790058114565909 2:0 3:3 4:1 5:0 7:0 73:1 18244:1 # 20140609221937AAH7tge NYU NNP Travel TOKEN
-0.069985323773244248468650141603575 2:0 3:3 4:0 5:0 7:0 73:1 7369:1 # 20140607125412AAK3UlI Ps4 NNP Games_&_Recreation TOKEN
-0.12214146164703865160561235825298 2:1 3:4 4:0 5:0 7:0 73:1 10728:1 # 20140611152558AA4un22 RPMs NNP Cars_&_Transportation TOKEN
-0.2002635932659588280380091873667 2:0 3:3 4:0 5:0 7:0 73:1 4620:1 # 20140608090153AAQx192 -26 NNP Education_&_Reference TOKEN
-0.19779487436716181036899797618389 2:0 3:3 4:0 5:0 7:0 73:1 19211:1 # 20140618090750AAlViol Ky. NNP Pregnancy_&_Parenting TOKEN
0.5 2:0 3:4 4:0 5:0 7:1 73:1 4734:1 # 20140605040256AAru12G Fall NNP Entertainment_&_Music PERSON
0.5 2:0 3:8 4:0 5:1 7:0 8:1 5583:1 # 20140605040256AAru12G chemical NN Entertainment_&_Music PERSON
-0.10791635112681664809830550666447 2:0 3:2 4:1 5:0 7:0 73:1 3573:1 # 20140614134845AAVhWeg RW NNP Consumer_Electronics TOKEN
-0.10816046052846750580300749788876 2:0 3:2 4:1 5:0 7:0 73:1 9107:1 # 20140617213812AAnm3nS MK NNP Travel TOKEN
-0.30466908106940593370381975546479 2:0 3:4 4:0 5:0 7:1 73:1 12494:1 # 20140605210007AAoMB1b Wash NNP Home_&_Garden TOKEN
0.5 2:0 3:8 4:0 5:1 7:0 8:1 8911:1 # 20140615190410AAmWDg3 @rolando NN Sports PERSON
-0.29323251534555083708255551755428 2:0 3:10 4:0 5:0 7:1 73:1 14843:1 # 20140615103833AAIK4wa Miaaaoooww NNP Pets TOKEN
-0.17123659233293864190272870473564 2:0 3:23 4:0 5:1 7:0 73:1 5343:1 # 20140615025730AAsJj6v http:##lolfreecode.asia NNP Social_Science TOKEN
-0.5 2:0 3:3 4:0 5:0 7:1 73:1 2656:1 # 20140614220006AA90c02 New NNP Sports TOKEN
-0.5 2:0 3:4 4:0 5:0 7:1 73:1 13473:1 # 20140607071218AAzGtJH Mike NNP Family_&_Relationships TOKEN
-0.5 2:0 3:6 4:0 5:1 7:0 8:1 9335:1 # 20140614220006AA90c02 canada NN Sports TOKEN
-0.5 2:0 3:6 4:0 5:1 7:0 8:1 7190:1 # 20140620035947AAeYEbM amazon NN Local_Businesses TOKEN
0.5 2:1 3:5 4:0 5:1 7:0 12:1 19123:1 # 20140601002604AAq45X7 hicks NNS Pregnancy_&_Parenting PERSON
0.5 2:0 3:6 4:1 5:0 7:0 73:1 8317:1 # 20140626034154AAGjZE1 LITTLE NNP Food_&_Drink PERSON
