SVM-light Version V6.02
0 # kernel type
3 # kernel parameter -d 
1 # kernel parameter -g 
1 # kernel parameter -s 
1 # kernel parameter -r 
empty# kernel parameter -u 
19569 # highest feature index 
69010 # number of training documents 
7322 # number of support vectors plus 1 
1.0171604 # threshold b, each following line is a SV (starting with alpha*y)
-0.26192013903924138418233269476332 2:0 3:4 4:0 5:0 7:1 73:1 2151:1 # 20140605190919AAVV44J Love NNP Family_&_Relationships TOKEN
-0.014430957724297810429447963542771 2:0 3:6 4:0 5:1 7:0 8:1 8912:1 # 20140605130921AAXKqjH garage NN Home_&_Garden TOKEN
-1.2057022047429200029000639915466e-12 2:0 3:4 4:0 5:1 7:0 24:1 70:1 # 20140615222209AAOSKxY that DT Entertainment_&_Music TOKEN
-0.013680208320095865737187068589265 2:0 3:6 4:0 5:1 7:0 8:1 3786:1 # 20140620120056AAFGiXk button NN Yahoo!_Products TOKEN
-0.26417170333155198802543850433722 2:0 3:3 4:0 5:0 7:1 73:1 7191:1 # 20140613202053AAONeF7 Gym NNP Games_&_Recreation TOKEN
0.5 2:0 3:11 4:0 5:0 7:1 73:1 11052:1 # 20140601101734AAAYp2K Serendipity NNP Dining_Out ORGANIZATION
0.5 2:0 3:7 4:0 5:0 7:1 73:1 5403:1 # 20140620190356AAdnQme Luciano NNP Entertainment_&_Music PERSON
0.5 2:0 3:4 4:0 5:0 7:1 73:1 1627:1 # 20140613214814AARwXS4 King NNP Local_Businesses ORGANIZATION
0.5 2:0 3:9 4:0 5:0 7:1 73:1 4459:1 # 20140618125641AAGkGpi Louisiana NNP Education_&_Reference LOCATION
0.5 2:0 3:9 4:0 5:0 7:1 73:1 3967:1 # 20140607132455AAfiY8G Panasonic NNP Consumer_Electronics ORGANIZATION
0.5 2:0 3:5 4:1 5:0 7:0 73:1 15732:1 # 20140608113007AAoVpt8 YAHOO NNP Politics_&_Government ORGANIZATION
0.5 2:1 3:6 4:0 5:1 7:0 8:1 5762:1 # 20140605140138AAyDVJY barros NN Entertainment_&_Music PERSON
0.5 2:0 3:3 4:0 5:0 7:1 73:1 14276:1 # 20140609053527AAHPrln Ian NNP News_&_Events PERSON
-0.05589345813405466323331438616151 2:0 3:4 4:0 5:0 7:1 88:1 13255:1 # 20140616141615AA44wGc Pick VB Family_&_Relationships TOKEN
-0.01605050204970837057771859690547 2:0 3:5 4:0 5:1 7:0 8:1 10620:1 # 20140619064754AAnYzEU meter NN Home_&_Garden TOKEN
-0.095793931560537504132923913857667 2:0 3:4 4:1 5:0 7:0 73:1 18564:1 # 20140608132523AAWfvBH POST NNP Computer_&_Internet TOKEN
0.5 2:1 3:9 4:0 5:1 7:0 20:1 11112:1 # 20140613111207AAD5YgE mcdonalds VBG Dining_Out ORGANIZATION
0.5 2:0 3:11 4:0 5:1 7:0 8:1 9169:1 # 20140623155342AAYpGzf bridgestone NN Sports ORGANIZATION
-0.26321433083290263210685111516796 2:0 3:3 4:0 5:0 7:1 73:1 13148:1 # 20140603131218AA1t3hP Ave NNP Local_Businesses TOKEN
-0.26416690480642102123454151296755 2:0 3:3 4:0 5:0 7:1 73:1 5235:1 # 20140614004826AAWj9IB Die NNP Entertainment_&_Music TOKEN
-0.26427535580366035006250058359001 2:0 3:3 4:0 5:0 7:1 73:1 1598:1 # 20140618140344AAAVwJx Art NNP Arts_&_Humanities TOKEN
0.5 2:0 3:5 4:1 5:0 7:0 73:1 15661:1 # 20140614170630AA1o9BQ NAFTA NNP Politics_&_Government ORGANIZATION
-0.26206411922951744486454117577523 2:0 3:4 4:0 5:0 7:1 73:1 15572:1 # 20140609172302AAjgqUA Care NNP Yahoo!_Products TOKEN
0.5 2:0 3:5 4:0 5:0 7:1 88:1 8800:1 # 20140615215028AAGmoaM Leave VB Sports PERSON
0.5 2:0 3:2 4:1 5:0 7:0 8:1 5530:1 # 20140617203632AANuG3B DC NN Entertainment_&_Music ORGANIZATION
-0.1851303189908546920072751618136 2:1 3:6 4:0 5:0 7:1 73:1 1414:1 # 20140605223141AA4aNVu Enders NNP Arts_&_Humanities TOKEN
0.5 2:0 3:7 4:0 5:0 7:1 73:1 5670:1 # 20140606075218AAmnm1s Ukraine NNP Entertainment_&_Music LOCATION
0.5 2:1 3:4 4:1 5:0 7:0 73:1 13003:1 # 20140610194612AA31tgA USPS NNP Local_Businesses ORGANIZATION
-0.098484960533401721960444774595089 2:1 3:3 4:0 5:0 7:0 73:1 3955:1 # 20140606090914AA45noC iOS NNP Yahoo!_Products TOKEN
-0.098528654710839019825741047498013 2:1 3:3 4:0 5:0 7:0 73:1 6498:1 # 20140610191527AA9b8i0 P.s NNP Health TOKEN
-0.098111048925959620792269788580597 2:1 3:3 4:0 5:0 7:0 73:1 14236:1 # 20140615161422AAiDhFt DJs NNP News_&_Events TOKEN
-0.09811104892595995385917717612756 2:1 3:3 4:0 5:0 7:0 73:1 7030:1 # 20140625193758AANDcbj PTs NNP Games_&_Recreation TOKEN
0.5 2:0 3:3 4:0 5:0 7:1 24:1 729:1 # 20140606223938AAjsrL7 The DT News_&_Events ORGANIZATION
0.5 2:0 3:5 4:0 5:0 7:1 26:1 11375:1 # 20140613214814AARwXS4 Sonic JJ Local_Businesses ORGANIZATION
0.5 2:0 3:4 4:0 5:0 7:1 204:1 11332:1 # 20140616143448AAdU6Ze Five CD Dining_Out ORGANIZATION
0.5 2:1 3:3 4:1 5:0 7:0 73:1 12376:1 # 20140601134625AAPRFLP CVS NNP Home_&_Garden ORGANIZATION
0.5 2:1 3:3 4:1 5:0 7:0 73:1 15277:1 # 20140625082631AAcgyMl IRS NNP Politics_&_Government ORGANIZATION
0.5 2:1 3:3 4:1 5:0 7:0 73:1 14427:1 # 20140617191218AAiEBHA CBS NNP News_&_Events ORGANIZATION
-0.5 2:0 3:3 4:0 5:0 7:1 24:1 729:1 # 20140623072617AAIXida The DT Dining_Out TOKEN
-0.5 2:1 3:3 4:1 5:0 7:0 73:1 15277:1 # 20140617193722AA5emAo IRS NNP Politics_&_Government TOKEN
-0.26216070550876580114163516554981 2:0 3:4 4:0 5:0 7:1 73:1 11249:1 # 20140623010804AATRu9l Park NNP Travel TOKEN
-0.26101166983620693873291429554229 2:0 3:4 4:0 5:0 7:1 73:1 11099:1 # 20140620063230AAXLo9n Food NNP Food_&_Drink TOKEN
-0.26190863165773237142275320366025 2:0 3:4 4:0 5:0 7:1 73:1 14484:1 # 20140621143727AAOCXDZ Bald NNP Pets TOKEN
-0.26215861538927520690833716798807 2:0 3:4 4:0 5:0 7:1 73:1 11722:1 # 20140620063230AAXLo9n Mini NNP Food_&_Drink TOKEN
0.5 2:0 3:3 4:0 5:1 7:0 24:1 25:1 # 20140605040256AAru12G the DT Entertainment_&_Music PERSON
-0.021817807308497076668185599146454 2:0 3:10 4:0 5:0 7:1 26:1 14678:1 # 20140626142532AAHm2Mx Pomeranian JJ Pets TOKEN
0.5 2:1 3:3 4:1 5:0 7:0 73:1 9297:1 # 20140626152929AAvb2mt SFS NNP Sports ORGANIZATION
0.5 2:1 3:12 4:0 5:0 7:0 73:1 814:1 # 20140617074422AANUT7h Jean-Jacques NNP Arts_&_Humanities PERSON
-0.19327501378320999236848365399055 2:1 3:2 4:0 5:0 7:1 73:1 6889:1 # 20140622223032AAkvyyd Us NNP Games_&_Recreation TOKEN
-0.091578149943098097196525486651808 2:1 3:7 4:0 5:0 7:1 73:1 11892:1 # 20140626133140AAROz72 Recipes NNP Food_&_Drink TOKEN
0.5 2:0 3:8 4:0 5:1 7:0 20:1 9584:1 # 20140615224306AASdmOX popovich VBG Sports PERSON
0.5 2:0 3:2 4:0 5:0 7:1 30:1 2509:1 # 20140605040256AAru12G At IN Entertainment_&_Music PERSON
0.5 2:0 3:6 4:0 5:1 7:0 8:1 2991:1 # 20140604131630AAZXrpw yorbin NN Business_&_Finance ORGANIZATION
-0.26217795004551830428951575413521 2:0 3:4 4:0 5:0 7:1 73:1 1161:1 # 20140618215915AAruZzF Many NNP News_&_Events TOKEN
-0.014733084837772913999742740998045 2:0 3:3 4:0 5:0 7:1 241:1 673:1 # 20140613182418AAAZN2I Why WRB Sports TOKEN
-0.013499800704219078184564750699792 2:0 3:6 4:0 5:1 7:0 8:1 2072:1 # 20140605210007AAoMB1b middle NN Home_&_Garden TOKEN
0.5 2:1 3:2 4:1 5:0 7:0 16:1 2475:1 # 20140619105821AAuioIb US PRP Education_&_Reference LOCATION
-0.011412426444267431691059755394235 2:0 3:4 4:0 5:0 7:1 88:1 7317:1 # 20140606094406AAvjkJW Darn VB Games_&_Recreation TOKEN
0.5 2:0 3:3 4:0 5:1 7:0 24:1 25:1 # 20140605040256AAru12G the DT Entertainment_&_Music PERSON
-0.018411252692935420327557949349284 2:0 3:4 4:0 5:1 7:0 8:1 2079:1 # 20140605092633AAPkbBp line NN Science_&_Mathematics TOKEN
0.5 2:0 3:3 4:0 5:0 7:0 204:1 2700:1 # 20140605081144AAuazx4 1#2 CD Science_&_Mathematics PERSON
0.5 2:1 3:6 4:0 5:0 7:1 61:1 12443:1 # 20140617203723AAnMv8x States NNPS Politics_&_Government LOCATION
0.5 2:1 3:6 4:0 5:0 7:1 61:1 15074:1 # 20140617015321AAEmy38 Masons NNPS Politics_&_Government PERSON
-0.49684289918626967086368040327216 2:0 3:3 4:0 5:0 7:0 204:1 2700:1 # 20140601043856AAIunch 1#2 CD Science_&_Mathematics TOKEN
0.5 2:0 3:12 4:0 5:1 7:0 26:1 3256:1 # 20140601093053AA6zdEg fakeiduk.com JJ Business_&_Finance ORGANIZATION
0.5 2:0 3:9 4:0 5:1 7:0 26:1 1875:1 # 20140614170630AA1o9BQ corporate JJ Politics_&_Government ORGANIZATION
-0.48777898497858496185131116362754 2:0 3:9 4:0 5:1 7:0 26:1 1875:1 # 20140612050152AA6IWUg corporate JJ Business_&_Finance TOKEN
0.5 2:0 3:4 4:0 5:0 7:1 73:1 8152:1 # 20140614170630AA1o9BQ Iraq NNP Politics_&_Government LOCATION
0.5 2:0 3:2 4:1 5:0 7:0 73:1 4289:1 # 20140604083714AANM1Br NY NNP Education_&_Reference LOCATION
0.5 2:0 3:12 4:1 5:0 7:0 73:1 3558:1 # 20140614134845AAVhWeg CYBERPOWERPC NNP Consumer_Electronics ORGANIZATION
-0.26187593374279460878284453428932 2:0 3:3 4:0 5:0 7:1 73:1 7723:1 # 20140618201815AAmO6f1 Dec NNP Science_&_Mathematics TOKEN
-0.19493867901821637644843576708809 2:0 3:1 4:1 5:0 7:1 73:1 8228:1 # 20140622013948AAZujJH W NNP Science_&_Mathematics TOKEN
-0.5 2:0 3:3 4:0 5:0 7:1 73:1 2656:1 # 20140614220006AA90c02 New NNP Sports TOKEN
-0.5 2:0 3:3 4:1 5:0 7:0 73:1 3539:1 # 20140601072000AABRvpX AMD NNP Games_&_Recreation TOKEN
-0.1914509709310515672697761146992 2:0 3:1 4:1 5:0 7:1 73:1 3175:1 # 20140603072418AAgZjcN Y NNP Science_&_Mathematics TOKEN
0.5 2:0 3:8 4:0 5:1 7:0 26:1 7068:1 # 20140606032555AA8mCFY american JJ Politics_&_Government ORGANIZATION
0.5 2:0 3:7 4:0 5:1 7:0 26:1 7383:1 # 20140614114159AAxmnir western JJ Travel LOCATION
0.5 2:0 3:7 4:0 5:1 7:0 26:1 2720:1 # 20140611170153AAHPuYj scarlet JJ Education_&_Reference PERSON
-0.49236533224121536989059677580371 2:0 3:7 4:0 5:1 7:0 26:1 2720:1 # 20140621155455AA5YRJ2 scarlet JJ Business_&_Finance TOKEN
-0.095011015375788002157442235784401 2:0 3:4 4:1 5:0 7:0 73:1 14862:1 # 20140608222755AASVAKO FEED NNP Pets TOKEN
-0.054817408728770951331643601633914 2:0 3:4 4:0 5:0 7:1 88:1 6850:1 # 20140609212304AAlJxoJ Turn VB Cars_&_Transportation TOKEN
-0.17275858900185925293158106796909 2:1 3:12 4:0 5:0 7:1 73:1 4733:1 # 20140617102632AAPzLAI Thanksgiving NNP Education_&_Reference TOKEN
-0.17239270135597539734817473799922 2:1 3:12 4:0 5:0 7:1 73:1 13930:1 # 20140607104637AASvvKI Eurosceptics NNP News_&_Events TOKEN
0.5 2:1 3:9 4:0 5:0 7:1 73:1 10548:1 # 20140608182325AAmvy1Q Illionois NNP Cars_&_Transportation LOCATION
-0.5 2:1 3:9 4:0 5:0 7:1 73:1 10548:1 # 20140608182325AAmvy1Q Illionois NNP Cars_&_Transportation TOKEN
-0.19316409589654703893302212236449 2:1 3:2 4:0 5:0 7:1 73:1 2354:1 # 20140609035939AA1Gfsp Rs NNP Business_&_Finance TOKEN
-0.1913954719579538110707517262199 2:1 3:3 4:0 5:0 7:1 73:1 11237:1 # 20140610172137AA9hoaq Las NNP Dining_Out TOKEN
0.5 2:0 3:4 4:0 5:1 7:0 26:1 13974:1 # 20140613111831AABRhzn east JJ News_&_Events LOCATION
0.5 2:0 3:3 4:0 5:1 7:0 26:1 3981:1 # 20140605040256AAru12G low JJ Entertainment_&_Music PERSON
0.5 2:0 3:3 4:0 5:1 7:0 26:1 31:1 # 20140612200636AAqMBhQ new JJ Politics_&_Government LOCATION
-0.5 2:0 3:3 4:0 5:1 7:0 26:1 31:1 # 20140616234645AAnbyhx new JJ Consumer_Electronics TOKEN
0.5 2:0 3:13 4:0 5:0 7:1 73:1 8150:1 # 20140625120602AAXWOm0 Mediterranean NNP Science_&_Mathematics LOCATION
0.5 2:0 3:12 4:0 5:0 7:1 73:1 3079:1 # 20140611204210AAPJj1y Bannerghatta NNP Business_&_Finance LOCATION
0.5 2:0 3:11 4:0 5:0 7:1 73:1 11382:1 # 20140616143448AAdU6Ze Whataburger NNP Dining_Out ORGANIZATION
0.5 2:0 3:11 4:0 5:0 7:1 73:1 775:1 # 20140625193136AAUePpR Shakespeare NNP Arts_&_Humanities PERSON
-0.5 2:0 3:13 4:0 5:0 7:1 73:1 8150:1 # 20140625120602AAXWOm0 Mediterranean NNP Science_&_Mathematics TOKEN
-0.26592542628175158681003154015343 2:0 3:2 4:0 5:0 7:1 73:1 5935:1 # 20140604090916AAD5Lml Oz NNP Health TOKEN
-0.26633045841693947508588280470576 2:0 3:2 4:0 5:0 7:1 73:1 185:1 # 20140609031322AAZz3r8 So NNP Travel TOKEN
-0.26578903759938565798393028671853 2:0 3:2 4:0 5:0 7:1 73:1 230:1 # 20140607204711AAtWX4j Im NNP Local_Businesses TOKEN
-0.096034619498762019418336421949789 2:0 3:4 4:1 5:0 7:0 73:1 4602:1 # 20140608090153AAQx192 EDIT NNP Education_&_Reference TOKEN
-0.098075632830481929147481423569843 2:0 3:3 4:1 5:0 7:0 73:1 18768:1 # 20140609063130AAx8NAT ATI NNP Computer_&_Internet TOKEN
0.5 2:0 3:11 4:0 5:0 7:1 73:1 13821:1 # 20140611151627AAmAEbQ Afghanistan NNP Politics_&_Government LOCATION
0.5 2:0 3:11 4:0 5:0 7:1 73:1 4290:1 # 20140604083714AANM1Br Northampton NNP Education_&_Reference LOCATION
0.5 2:0 3:11 4:0 5:0 7:1 73:1 3281:1 # 20140601093053AA6zdEg Pentonville NNP Business_&_Finance LOCATION
0.5 2:0 3:11 4:0 5:0 7:1 73:1 1454:1 # 20140605223141AA4aNVu Westerfield NNP Arts_&_Humanities PERSON
-0.5 2:0 3:4 4:0 5:1 7:0 26:1 13974:1 # 20140609031322AAZz3r8 east JJ Travel TOKEN
-0.00020828943669742860933524752908852 2:0 3:3 4:0 5:1 7:0 26:1 3981:1 # 20140620214550AA74tKP low JJ News_&_Events TOKEN
-0.26214168231491896676743635907769 2:0 3:4 4:0 5:0 7:1 73:1 8794:1 # 20140613125219AA2D0JF Gold NNP Beauty_&_Style TOKEN
-0.26206223542846451834975596284494 2:0 3:4 4:0 5:0 7:1 73:1 8702:1 # 20140616230524AAedd2r July NNP Beauty_&_Style TOKEN
-0.49209808856650205655114405089989 2:0 3:7 4:0 5:1 7:0 26:1 7383:1 # 20140622011723AAsDjlo western JJ Games_&_Recreation TOKEN
-0.0074502882476281673262974436511286 2:0 3:3 4:0 5:0 7:1 22:1 8024:1 # 20140611165651AAiykAa Her PRP$ Pets TOKEN
-0.0063071266550300819631047488655895 2:0 3:3 4:0 5:0 7:1 22:1 12748:1 # 20140615131345AAW89pT Our PRP$ News_&_Events TOKEN
0.5 2:1 3:2 4:1 5:0 7:0 16:1 2475:1 # 20140613214814AARwXS4 US PRP Local_Businesses LOCATION
-0.33648276747018179833048634463921 2:1 3:2 4:1 5:0 7:0 16:1 2475:1 # 20140617164024AABuVO8 US PRP Food_&_Drink TOKEN
0.5 2:0 3:10 4:0 5:1 7:0 8:1 3309:1 # 20140619105821AAuioIb university NN Education_&_Reference ORGANIZATION
0.5 2:0 3:10 4:0 5:1 7:0 8:1 5172:1 # 20140614004826AAWj9IB wonderland NN Entertainment_&_Music LOCATION
-0.26427982067045263647742103785276 2:0 3:3 4:0 5:0 7:1 73:1 12613:1 # 20140613073945AAjr9GV Hot NNP Pets TOKEN
-0.013634735360858907249337335088057 2:0 3:1 4:0 5:0 7:0 8:1 19465:1 # 20140615171734AAd4Cuo ∇ NN Yahoo!_Products TOKEN
-0.098017104612273503461139512182854 2:0 3:3 4:1 5:0 7:0 73:1 7286:1 # 20140612160340AAE8W0E BUT NNP Sports TOKEN
-0.013896800806420809420993478511264 2:0 3:1 4:0 5:0 7:0 8:1 253:1 # 20140622140805AAtjqJa % NN Cars_&_Transportation TOKEN
-0.01396572882662994175007042940706 2:0 3:1 4:0 5:0 7:0 8:1 751:1 # 20140620105746AAnOLsk ; NN Sports TOKEN
0.5 2:0 3:8 4:0 5:0 7:1 73:1 9240:1 # 20140604025700AAoSHAT Aberdeen NNP Sports PERSON
0.5 2:1 3:5 4:0 5:1 7:0 12:1 19123:1 # 20140601002604AAq45X7 hicks NNS Pregnancy_&_Parenting PERSON
0.5 2:0 3:1 4:0 5:0 7:0 630:1 631:1 # 20140605034309AAV7PuK # # Consumer_Electronics PERSON
-0.5 2:0 3:3 4:0 5:1 7:0 26:1 3981:1 # 20140615224306AASdmOX low JJ Sports TOKEN
0.5 2:0 3:3 4:0 5:0 7:0 204:1 2700:1 # 20140605081144AAuazx4 1#2 CD Science_&_Mathematics PERSON
-0.37020290802737187974003063573036 2:0 3:1 4:0 5:0 7:0 73:1 630:1 # 20140614045845AAdu92x # NNP Computer_&_Internet TOKEN
0.5 2:0 3:3 4:0 5:1 7:0 26:1 31:1 # 20140612200636AAqMBhQ new JJ Politics_&_Government LOCATION
-0.5 2:0 3:3 4:0 5:1 7:0 26:1 31:1 # 20140613124158AAH0KXB new JJ Entertainment_&_Music TOKEN
0.5 2:1 3:8 4:0 5:0 7:1 73:1 11053:1 # 20140601101734AAAYp2K Brenners NNP Dining_Out ORGANIZATION
-0.023707410620370183984562117984751 2:1 3:6 4:0 5:0 7:1 8:1 13039:1 # 20140620172230AAfuPAg Timing NN Local_Businesses TOKEN
0.5 2:0 3:3 4:0 5:1 7:0 26:1 3981:1 # 20140605040256AAru12G low JJ Entertainment_&_Music PERSON
-0.0053037850880581077772646381163213 2:0 3:1 4:0 5:1 7:0 26:1 3382:1 # 20140621104938AAA4IC5 d JJ Business_&_Finance TOKEN
-0.0051564052429933227017500030342489 2:0 3:1 4:0 5:1 7:0 26:1 10037:1 # 20140622012837AAm8vHm w JJ Social_Science TOKEN
-0.050807343895387879761926797073102 2:0 3:3 4:1 5:0 7:0 73:1 10456:1 # 20140610052054AAkNfGL A#C NNP Cars_&_Transportation TOKEN
-0.5 2:1 3:9 4:0 5:0 7:1 73:1 10548:1 # 20140608182325AAmvy1Q Illionois NNP Cars_&_Transportation TOKEN
-0.26205800126505002234367225355527 2:0 3:4 4:0 5:0 7:1 73:1 7050:1 # 20140625193758AANDcbj Wild NNP Games_&_Recreation TOKEN
-0.0051564052429937667909598530968651 2:0 3:1 4:0 5:1 7:0 26:1 3812:1 # 20140612145554AAjlhJX s JJ Beauty_&_Style TOKEN
-0.0320420427659948298115821785359 2:0 3:4 4:0 5:0 7:1 238:1 1059:1 # 20140607132455AAfiY8G More RBR Consumer_Electronics TOKEN
-0.0030997385703988022953581094043329 2:0 3:2 4:0 5:1 7:0 26:1 7167:1 # 20140601072000AABRvpX 1t JJ Games_&_Recreation TOKEN
0.5 2:1 3:8 4:0 5:0 7:1 73:1 11040:1 # 20140616141511AAlZZIn Carmines NNP Dining_Out LOCATION
-0.191479929112460367512937864376 2:1 3:3 4:0 5:0 7:1 73:1 3523:1 # 20140614134845AAVhWeg Ops NNP Consumer_Electronics TOKEN
0.5 2:0 3:3 4:0 5:1 7:0 26:1 31:1 # 20140612200636AAqMBhQ new JJ Politics_&_Government LOCATION
-0.049344579074837024990074496599846 2:0 3:2 4:0 5:1 7:0 73:1 149:1 # 20140604112329AAS36PD in NNP Dining_Out TOKEN
0.5 2:0 3:7 4:0 5:0 7:1 73:1 4118:1 # 20140607141649AANF6Tv Walmart NNP Consumer_Electronics ORGANIZATION
0.5 2:0 3:6 4:0 5:0 7:1 73:1 14686:1 # 20140626142532AAHm2Mx Kennel NNP Pets ORGANIZATION
-0.24542663679844878288349718786776 2:0 3:12 4:0 5:0 7:1 73:1 5983:1 # 20140615211937AA9zqfw Constipation NNP Health TOKEN
-0.26634252974117744727777790103573 2:0 3:2 4:0 5:0 7:1 73:1 9266:1 # 20140617195809AA0PD6g Di NNP Sports TOKEN
0.5 2:1 3:7 4:0 5:1 7:0 43:1 7296:1 # 20140610052054AAkNfGL googled VBP Cars_&_Transportation ORGANIZATION
0.5 2:1 3:5 4:0 5:1 7:0 123:1 2184:1 # 20140615091428AA1nGW3 falls VBZ Local_Businesses LOCATION
-0.26538367346473945573848141066264 2:0 3:2 4:0 5:0 7:1 73:1 844:1 # 20140610172137AA9hoaq Ok NNP Dining_Out TOKEN
-0.10051694137956712626902344709379 2:0 3:4 4:0 5:0 7:1 8:1 4079:1 # 20140606193910AApjpvz Liar NN Consumer_Electronics TOKEN
-0.029195220430377429032819946996824 2:1 3:3 4:0 5:0 7:1 123:1 2665:1 # 20140626122544AARcT3z Has VBZ Yahoo!_Products TOKEN
-0.26192013903923916373628344445024 2:0 3:4 4:0 5:0 7:1 73:1 6903:1 # 20140611144551AAguC6x Arma NNP Games_&_Recreation TOKEN
-0.018835302738564596580772558809258 2:0 3:4 4:0 5:1 7:0 8:1 8685:1 # 20140626120744AAMAD0e hole NN News_&_Events TOKEN
0.5 2:0 3:2 4:0 5:1 7:0 73:1 149:1 # 20140616143448AAdU6Ze in NNP Dining_Out ORGANIZATION
0.5 2:0 3:2 4:0 5:1 7:0 12:1 3151:1 # 20140613111831AABRhzn al NNS News_&_Events ORGANIZATION
-0.5 2:0 3:5 4:0 5:0 7:1 88:1 8800:1 # 20140607125905AA2JtXv Leave VB Politics_&_Government TOKEN
0.5 2:1 3:9 4:0 5:1 7:0 12:1 8260:1 # 20140611151627AAmAEbQ engineers NNS Politics_&_Government ORGANIZATION
0.5 2:0 3:8 4:0 5:1 7:0 8:1 5583:1 # 20140605040256AAru12G chemical NN Entertainment_&_Music PERSON
-0.180334397014018321669936995022 2:0 3:4 4:0 5:1 7:0 73:1 5251:1 # 20140605140138AAyDVJY poor NNP Entertainment_&_Music TOKEN
0.5 2:0 3:9 4:0 5:1 7:0 8:1 7298:1 # 20140606094406AAvjkJW wikipedia NN Games_&_Recreation ORGANIZATION
-0.5 2:0 3:8 4:0 5:1 7:0 8:1 5583:1 # 20140622085925AAdFLbE chemical NN Science_&_Mathematics TOKEN
-0.5 2:0 3:10 4:0 5:1 7:0 8:1 3309:1 # 20140607014708AAKJo8F university NN Pregnancy_&_Parenting TOKEN
-0.26325862631588259343828894998296 2:0 3:3 4:0 5:0 7:1 73:1 8798:1 # 20140613125219AA2D0JF Tan NNP Beauty_&_Style TOKEN
-0.051781671783002636288983921986073 2:0 3:2 4:0 5:1 7:0 73:1 76:1 # 20140625054715AAcJnX8 do NNP Games_&_Recreation TOKEN
0.5 2:1 3:7 4:0 5:0 7:1 73:1 19548:1 # 20140619231832AAFqTWm Mikayla NNP Yahoo!_Products PERSON
0.5 2:1 3:7 4:0 5:0 7:1 73:1 11368:1 # 20140616143448AAdU6Ze Quiznos NNP Dining_Out ORGANIZATION
0.5 2:1 3:7 4:0 5:0 7:1 73:1 15590:1 # 20140613162326AARvh60 Stevens NNP Politics_&_Government PERSON
0.5 2:1 3:7 4:0 5:0 7:1 73:1 3502:1 # 20140614134845AAVhWeg Windows NNP Consumer_Electronics ORGANIZATION
-0.5 2:1 3:7 4:0 5:0 7:1 73:1 3502:1 # 20140607110538AAO6Auo Windows NNP Computer_&_Internet TOKEN
0.5 2:0 3:5 4:0 5:1 7:0 8:1 7374:1 # 20140605122136AAZjfnG yahoo NN Yahoo!_Products ORGANIZATION
-0.025036771968231397167414797877427 2:0 3:1 4:0 5:1 7:0 8:1 8717:1 # 20140623173753AAUMZe3 c NN Food_&_Drink TOKEN
-0.018661831127547268138755498512182 2:0 3:4 4:0 5:1 7:0 8:1 7468:1 # 20140615174740AA8MA6l pump NN Cars_&_Transportation TOKEN
-0.26313611925542856884163711583824 2:0 3:3 4:0 5:0 7:1 73:1 11834:1 # 20140611141719AAUaRNh Elf NNP Food_&_Drink TOKEN
0.5 2:0 3:4 4:0 5:0 7:1 73:1 3012:1 # 20140611204210AAPJj1y Naik NNP Business_&_Finance PERSON
0.5 2:0 3:4 4:0 5:0 7:1 73:1 11358:1 # 20140616143448AAdU6Ze Papa NNP Dining_Out ORGANIZATION
0.5 2:0 3:2 4:1 5:0 7:0 73:1 3928:1 # 20140615222209AAOSKxY LG NNP Entertainment_&_Music ORGANIZATION
0.5 2:0 3:2 4:1 5:0 7:0 73:1 3408:1 # 20140609103348AAf8tZ6 UK NNP News_&_Events LOCATION
0.5 2:0 3:11 4:0 5:0 7:0 73:1 11315:1 # 20140616143448AAdU6Ze Chick-fil-A NNP Dining_Out ORGANIZATION
-0.26546015609842754656710894778371 2:0 3:2 4:0 5:0 7:1 73:1 11037:1 # 20140616141511AAlZZIn Iv NNP Dining_Out TOKEN
-0.26630590329555448025899977437803 2:0 3:2 4:0 5:0 7:1 73:1 9600:1 # 20140618192549AAzYXYR Yo NNP Social_Science TOKEN
-0.2663044591720203912998954365321 2:0 3:2 4:0 5:0 7:1 73:1 11293:1 # 20140615191331AAdpnmg Ya NNP Dining_Out TOKEN
0.49340219052079015149558927078033 2:0 3:4 4:0 5:0 7:0 8:1 3200:1 # 20140617164637AAddgz5 eBay NN Local_Businesses ORGANIZATION
-0.44346336117122436837334475967509 2:1 3:5 4:0 5:1 7:0 123:1 2184:1 # 20140612062149AAH8vjl falls VBZ Arts_&_Humanities TOKEN
0.5 2:0 3:7 4:0 5:0 7:1 26:1 8190:1 # 20140625120602AAXWOm0 Kurdish JJ Science_&_Mathematics LOCATION
0.5 2:0 3:5 4:0 5:0 7:1 8:1 5598:1 # 20140605040256AAru12G Panic NN Entertainment_&_Music PERSON
0.5 2:0 3:7 4:0 5:0 7:0 73:1 2570:1 # 20140620222120AA4p1zz BLS.gov NNP Business_&_Finance ORGANIZATION
-0.26633045841693592237220400420483 2:0 3:2 4:0 5:0 7:1 73:1 11461:1 # 20140603215034AABtnxF Le NNP Dining_Out TOKEN
-0.26565426692903754135599569963233 2:0 3:2 4:0 5:0 7:1 73:1 12959:1 # 20140622225954AAAlKMt Ho NNP Local_Businesses TOKEN
-0.26625872788263649226792040280998 2:0 3:2 4:0 5:0 7:1 73:1 6782:1 # 20140614172231AAsQkBF Ur NNP Politics_&_Government TOKEN
0.5 2:1 3:6 4:0 5:1 7:0 123:1 13880:1 # 20140617033632AAaS0SQ spears VBZ News_&_Events PERSON
-0.25071001574275264545121899573132 2:0 3:3 4:0 5:1 7:0 26:1 31:1 # 20140607184915AAytW6g new JJ Social_Science TOKEN
0.5 2:0 3:5 4:0 5:1 7:0 88:1 13037:1 # 20140620172230AAfuPAg texas VB Local_Businesses LOCATION
-0.055043500700761978372543836712794 2:0 3:4 4:0 5:0 7:1 88:1 8519:1 # 20140612212350AAeLl07 Wait VB Family_&_Relationships TOKEN
-0.0028415156174554506707252699015953 2:0 3:4 4:0 5:0 7:1 80:1 1059:1 # 20140610121407AAmfyfy More JJR Food_&_Drink TOKEN
0.5 2:0 3:4 4:0 5:1 7:0 26:1 13974:1 # 20140613111831AABRhzn east JJ News_&_Events LOCATION
0.5 2:1 3:6 4:0 5:0 7:1 73:1 12442:1 # 20140607191241AAICEVB United NNP Home_&_Garden LOCATION
0.5 2:1 3:6 4:0 5:0 7:1 73:1 11049:1 # 20140610083106AA7AAUT Steaks NNP Dining_Out ORGANIZATION
-0.0039324127466864311486460792366415 2:0 3:2 4:0 5:1 7:0 8:1 3145:1 # 20140601131055AAPxhOP ie NN Business_&_Finance TOKEN
-0.42905966861030142567301481903996 2:0 3:4 4:0 5:1 7:0 26:1 13974:1 # 20140614114159AAxmnir east JJ Travel TOKEN
0.5 2:1 3:7 4:0 5:0 7:1 73:1 11379:1 # 20140616143448AAdU6Ze Hortons NNP Dining_Out ORGANIZATION
0.5 2:1 3:7 4:0 5:0 7:1 73:1 11348:1 # 20140616143448AAdU6Ze Caesars NNP Dining_Out ORGANIZATION
0.5 2:1 3:6 4:0 5:0 7:1 73:1 11324:1 # 20140616143448AAdU6Ze Donuts NNP Dining_Out ORGANIZATION
-0.19137006095918174253256438532844 2:1 3:3 4:0 5:0 7:1 73:1 3284:1 # 20140601093053AA6zdEg Ids NNP Business_&_Finance TOKEN
-0.19096347418694392672477988526225 2:1 3:3 4:0 5:0 7:1 73:1 15595:1 # 20140617203723AAnMv8x Hes NNP Politics_&_Government TOKEN
-0.18946953127687829465664037797978 2:1 3:4 4:0 5:0 7:1 73:1 15155:1 # 20140610123048AAZOuhW Cons NNP Politics_&_Government TOKEN
-0.18962994154192355789056989578967 2:1 3:4 4:0 5:0 7:1 73:1 11772:1 # 20140620063230AAXLo9n Cola NNP Food_&_Drink TOKEN
0.5 2:0 3:7 4:0 5:1 7:0 88:1 12548:1 # 20140619063559AA2eks0 florida VB Home_&_Garden LOCATION
0.5 2:0 3:4 4:0 5:1 7:0 88:1 15152:1 # 20140612200636AAqMBhQ york VB Politics_&_Government LOCATION
-0.25476589504784741269105552419205 2:0 3:7 4:0 5:0 7:1 73:1 2337:1 # 20140620035947AAeYEbM Contact NNP Local_Businesses TOKEN
-0.020010829368233840064306150452467 2:0 3:4 4:0 5:1 7:0 20:1 327:1 # 20140611031137AAH7s7n feel VBG Family_&_Relationships TOKEN
-0.5 2:0 3:3 4:0 5:1 7:0 20:1 3981:1 # 20140607135336AADGWCS low VBG Computer_&_Internet TOKEN
-0.024154619424058942911415215348825 2:0 3:2 4:0 5:1 7:0 12:1 3151:1 # 20140623230739AA9pP9C al NNS News_&_Events TOKEN
-0.30534919977853058892236504107132 2:0 3:1 4:0 5:0 7:0 630:1 631:1 # 20140616072209AARwehs # # Arts_&_Humanities TOKEN
-0.5 2:1 3:7 4:0 5:0 7:1 73:1 3502:1 # 20140606131438AAaBd2m Windows NNP Computer_&_Internet TOKEN
0.5 2:0 3:8 4:0 5:1 7:0 20:1 9289:1 # 20140601130859AAHxybZ martinez VBG Sports PERSON
0.47296139202803655354756529050064 2:0 3:7 4:0 5:1 7:0 20:1 3646:1 # 20140617015321AAEmy38 youtube VBG Politics_&_Government ORGANIZATION
-0.012579884031679200440123622684041 2:0 3:7 4:0 5:1 7:0 8:1 11448:1 # 20140607232759AAzh7sY italian NN Food_&_Drink TOKEN
-0.5 2:0 3:1 4:0 5:0 7:0 630:1 631:1 # 20140616072209AARwehs # # Arts_&_Humanities TOKEN
-0.02304176820677739101483894046396 2:0 3:2 4:0 5:1 7:0 8:1 1773:1 # 20140616190348AA6nheU na NN Dining_Out TOKEN
-0.031393397863441308004439633805305 2:1 3:3 4:0 5:0 7:1 12:1 2076:1 # 20140612145554AAjlhJX Men NNS Beauty_&_Style TOKEN
0.5 2:0 3:1 4:0 5:0 7:0 630:1 631:1 # 20140605034309AAV7PuK # # Consumer_Electronics PERSON
-0.18708029646497159603768523084 2:1 3:5 4:0 5:0 7:1 73:1 6325:1 # 20140616152825AABP2iB Women NNP News_&_Events TOKEN
0.5 2:0 3:7 4:0 5:1 7:0 8:1 18308:1 # 20140622230045AAAI6WE zealand NN Travel LOCATION
0.5 2:0 3:7 4:0 5:1 7:0 8:1 5584:1 # 20140605040256AAru12G romance NN Entertainment_&_Music PERSON
-0.5 2:0 3:2 4:0 5:1 7:0 73:1 3151:1 # 20140618192549AAzYXYR al NNP Social_Science TOKEN
-0.098083099466304002334027245524339 2:0 3:3 4:1 5:0 7:0 73:1 250:1 # 20140608034752AAWHbyf YES NNP Arts_&_Humanities TOKEN
0.5 2:1 3:6 4:0 5:0 7:1 61:1 12380:1 # 20140601134625AAPRFLP Sallys NNPS Home_&_Garden ORGANIZATION
0.5 2:0 3:2 4:1 5:0 7:0 73:1 3408:1 # 20140616063937AAhSsrT UK NNP Business_&_Finance LOCATION
0.5 2:0 3:7 4:0 5:1 7:0 43:1 8739:1 # 20140612145554AAjlhJX america VBP Beauty_&_Style LOCATION
-0.018728705497355946363313705660403 2:0 3:4 4:0 5:1 7:0 8:1 5003:1 # 20140611114023AAQ6gKU flip NN Education_&_Reference TOKEN
0.5 2:1 3:6 4:0 5:0 7:1 73:1 4508:1 # 20140618125641AAGkGpi Isaacs NNP Education_&_Reference PERSON
0.5 2:1 3:6 4:0 5:0 7:1 73:1 14140:1 # 20140620051059AAvmrsV Coates NNP News_&_Events PERSON
-0.2642521309154233222216134890914 2:0 3:3 4:0 5:0 7:1 73:1 7318:1 # 20140612212350AAeLl07 Ill NNP Family_&_Relationships TOKEN
-0.26427982067041844160826258303132 2:0 3:3 4:0 5:0 7:1 73:1 14829:1 # 20140611123045AAMKOWz Pet NNP Pets TOKEN
-0.26359771409993953961148349662835 2:0 3:3 4:0 5:0 7:1 73:1 10923:1 # 20140603235141AAdqnjl Evo NNP Cars_&_Transportation TOKEN
-0.26424631009431021055888777482323 2:0 3:3 4:0 5:0 7:1 73:1 5016:1 # 20140601140351AAMxHZD Guy NNP Pregnancy_&_Parenting TOKEN
-0.5 2:0 3:3 4:0 5:0 7:1 73:1 5559:1 # 20140618215915AAruZzF Ray NNP News_&_Events TOKEN
0.5 2:0 3:3 4:0 5:0 7:1 73:1 5559:1 # 20140618141409AA9yzif Ray NNP Entertainment_&_Music PERSON
0.5 2:0 3:2 4:0 5:1 7:0 12:1 3151:1 # 20140613111831AABRhzn al NNS News_&_Events ORGANIZATION
-0.5 2:0 3:3 4:0 5:0 7:1 73:1 5559:1 # 20140618215915AAruZzF Ray NNP News_&_Events TOKEN
0.5 2:0 3:6 4:1 5:0 7:0 73:1 18073:1 # 20140617213812AAnm3nS DISNEY NNP Travel ORGANIZATION
-0.079346468181363927207883079972817 2:1 3:4 4:0 5:0 7:1 61:1 14007:1 # 20140609103954AAB6LY5 Jews NNPS News_&_Events TOKEN
-0.077341870823708580573452309181448 2:1 3:5 4:0 5:0 7:1 61:1 11155:1 # 20140608075953AADKMro Chips NNPS Dining_Out TOKEN
-0.077108952558281096401060494827107 2:1 3:5 4:0 5:0 7:1 61:1 11648:1 # 20140604112329AAS36PD Foods NNPS Dining_Out TOKEN
-0.077341870823708414039998615407967 2:1 3:5 4:0 5:0 7:1 61:1 8160:1 # 20140625120602AAXWOm0 Arabs NNPS Science_&_Mathematics TOKEN
-0.076618519695696260529693688567932 2:1 3:5 4:0 5:0 7:1 61:1 1411:1 # 20140614134845AAVhWeg Games NNPS Consumer_Electronics TOKEN
0.5 2:0 3:2 4:0 5:0 7:1 73:1 5396:1 # 20140612211617AAE6Bis Al NNP News_&_Events ORGANIZATION
-0.092189206961515779426008521113545 2:0 3:8 4:0 5:0 7:1 8:1 11034:1 # 20140616141511AAlZZIn Birthday NN Dining_Out TOKEN
-0.020729441879456800279513117857277 2:0 3:2 4:0 5:1 7:0 43:1 342:1 # 20140608222755AASVAKO 'm VBP Pets TOKEN
-0.018764249175357738952385489028529 2:0 3:4 4:0 5:1 7:0 8:1 4521:1 # 20140618125641AAGkGpi tune NN Education_&_Reference TOKEN
-0.012395402991931092628874466754496 2:0 3:7 4:0 5:1 7:0 8:1 1214:1 # 20140605185213AAgsKy3 problem NN Yahoo!_Products TOKEN
-0.016816543373787788684392552340796 2:1 3:10 4:0 5:0 7:1 20:1 15754:1 # 20140611151627AAmAEbQ Supporting VBG Politics_&_Government TOKEN
-0.016985967162338022617973365413491 2:1 3:10 4:0 5:0 7:1 20:1 11752:1 # 20140620063230AAXLo9n Decorating VBG Food_&_Drink TOKEN
-0.025101135910204241952214943012223 2:0 3:1 4:0 5:1 7:0 8:1 7337:1 # 20140623023853AA1SoFR h NN Science_&_Mathematics TOKEN
0.5 1:1 2:0 3:4 4:0 5:0 6:1 7:1 # 20140608034752AAWHbyf Will MD Arts_&_Humanities PERSON
0.5 2:1 3:6 4:0 5:0 7:1 61:1 12380:1 # 20140601134625AAPRFLP Sallys NNPS Home_&_Garden ORGANIZATION
-0.078692021668477218909742987307254 2:0 3:5 4:0 5:0 7:1 26:1 727:1 # 20140622072140AAPnIrk Sorry JJ Food_&_Drink TOKEN
-0.018123396102924460571159670507768 2:0 3:4 4:0 5:1 7:0 8:1 6472:1 # 20140623122455AAmdQZw meal NN Dining_Out TOKEN
-0.018539376142242519618363871813926 2:0 3:4 4:0 5:1 7:0 8:1 936:1 # 20140610191527AA9b8i0 show NN Health TOKEN
0.5 2:0 3:5 4:0 5:0 7:1 73:1 7488:1 # 20140606132641AA7YK9b Yahoo NNP Yahoo!_Products ORGANIZATION
0.5 2:0 3:4 4:0 5:0 7:1 73:1 15323:1 # 20140607125905AA2JtXv Navy NNP Politics_&_Government ORGANIZATION
0.5 2:0 3:4 4:0 5:0 7:1 73:1 262:1 # 20140623033506AAfLqxC John NNP Beauty_&_Style PERSON
-0.5 2:0 3:4 4:0 5:0 7:1 73:1 262:1 # 20140613111207AAD5YgE John NNP Dining_Out TOKEN
-0.02097586768178366645187793437799 2:0 3:3 4:0 5:1 7:0 8:1 2497:1 # 20140610123048AAZOuhW bro NN Politics_&_Government TOKEN
-0.088670453502014079383286571101053 2:0 3:7 4:1 5:0 7:0 73:1 10302:1 # 20140619140045AAMMZmd ANXIETY NNP Social_Science TOKEN
-0.018545615047807731401441344587511 2:0 3:4 4:0 5:1 7:0 8:1 509:1 # 20140620141720AAh6NZ6 take NN Pets TOKEN
-0.01045846994816779229608982859645 2:0 3:3 4:0 5:0 6:1 7:1 1287:1 # 20140612231240AAb6Jgs Can MD Consumer_Electronics TOKEN
0.5 2:0 3:4 4:0 5:0 7:1 73:1 262:1 # 20140617074422AANUT7h John NNP Arts_&_Humanities PERSON
-0.5 2:0 3:4 4:0 5:0 7:1 73:1 262:1 # 20140613111207AAD5YgE John NNP Dining_Out TOKEN
-0.18247095301788895937988854711875 2:0 3:4 4:0 5:0 7:1 73:1 1093:1 # 20140620213457AAI59UA Game NNP Computer_&_Internet TOKEN
-0.0088210046174843625976791372522712 2:0 3:4 4:0 5:0 7:0 20:1 18961:1 # 20140605200359AAgJgxT hAve VBG Pregnancy_&_Parenting TOKEN
-0.083333567245019057878607782186009 2:0 3:10 4:1 5:0 7:0 73:1 12070:1 # 20140626034154AAGjZE1 HYPERLASIA NNP Food_&_Drink TOKEN
0.5 2:0 3:3 4:0 5:0 7:1 73:1 5559:1 # 20140618141409AA9yzif Ray NNP Entertainment_&_Music PERSON
-0.24999918945330268371662896242924 2:0 3:3 4:0 5:1 7:0 26:1 31:1 # 20140618003957AA2mrn7 new JJ Arts_&_Humanities TOKEN
-0.26427982067041444480537393246777 2:0 3:3 4:0 5:0 7:1 73:1 11518:1 # 20140613052638AAHwjzY Bar NNP Dining_Out TOKEN
-0.2642886013143082024612340319436 2:0 3:3 4:0 5:0 7:1 73:1 465:1 # 20140604082431AAFp8R0 Btw NNP Arts_&_Humanities TOKEN
0.5 2:0 3:7 4:0 5:1 7:0 8:1 11448:1 # 20140606032555AA8mCFY italian NN Politics_&_Government ORGANIZATION
-0.033029765147311179740441389185435 2:0 3:1 4:1 5:0 7:1 8:1 7987:1 # 20140615171734AAd4Cuo Q NN Yahoo!_Products TOKEN
0.5 2:0 3:6 4:0 5:0 7:0 73:1 4145:1 # 20140607141649AANF6Tv NVidia NNP Consumer_Electronics ORGANIZATION
-0.055932445831812338532529338408494 2:0 3:4 4:0 5:0 7:1 88:1 2584:1 # 20140624203758AAyLMD9 Take VB Travel TOKEN
-0.033009473342540882057072337829595 2:0 3:1 4:1 5:0 7:1 8:1 8038:1 # 20140605031016AAsN8GR F NN Science_&_Mathematics TOKEN
0.5 2:0 3:6 4:0 5:1 7:0 8:1 18077:1 # 20140615020333AAAIUUW disney NN Travel ORGANIZATION
0.5 2:0 3:2 4:1 5:0 7:0 73:1 14378:1 # 20140613180332AA3jCxr AL NNP News_&_Events ORGANIZATION
-0.20901353407511938375940019341215 1:1 2:0 3:4 4:0 5:0 6:1 7:1 # 20140621172401AAOfjCV Will MD Cars_&_Transportation TOKEN
-0.013560022642079734567222004670839 2:0 3:6 4:0 5:1 7:0 8:1 3501:1 # 20140603235141AAdqnjl update NN Cars_&_Transportation TOKEN
-0.18773713234345734690577955916524 2:1 3:4 4:0 5:0 7:1 73:1 3180:1 # 20140601131055AAPxhOP Data NNP Business_&_Finance TOKEN
-0.18949883163831282573141834291164 2:1 3:4 4:0 5:0 7:1 73:1 18310:1 # 20140622230045AAAI6WE Days NNP Travel TOKEN
-0.18957445576784870411302108550444 2:1 3:4 4:0 5:0 7:1 73:1 3844:1 # 20140626112013AAPPVIB Apps NNP Consumer_Electronics TOKEN
-0.18890516118833727832182489692059 2:1 3:4 4:0 5:0 7:1 73:1 6855:1 # 20140620231356AA5VO2N Sims NNP Games_&_Recreation TOKEN
-0.18871864249755532227936782874167 2:1 3:4 4:0 5:0 7:1 73:1 13695:1 # 20140616152825AABP2iB Isla NNP News_&_Events TOKEN
0.5 2:0 3:4 4:0 5:0 7:0 8:1 3200:1 # 20140617164637AAddgz5 eBay NN Local_Businesses ORGANIZATION
-0.025101135911809624445822919369675 2:0 3:1 4:0 5:1 7:0 8:1 8201:1 # 20140608113659AAJ5fVM z NN Science_&_Mathematics TOKEN
-0.10212697677831394926784014387522 2:0 3:3 4:0 5:0 7:1 8:1 1527:1 # 20140623130828AAGeAiz Any NN Pregnancy_&_Parenting TOKEN
-0.26107106055111151121650436834898 2:0 3:4 4:0 5:0 7:1 73:1 11924:1 # 20140620102728AA6qqJ3 Cook NNP Food_&_Drink TOKEN
0.5 2:1 3:5 4:0 5:0 7:1 73:1 819:1 # 20140617074422AANUT7h Jones NNP Arts_&_Humanities PERSON
0.5 2:1 3:5 4:0 5:0 7:1 73:1 14400:1 # 20140620214550AA74tKP Myers NNP News_&_Events PERSON
0.5 2:0 3:2 4:0 5:1 7:0 8:1 5994:1 # 20140621045509AAck6mP uk NN News_&_Events LOCATION
-0.18936755093530521776301611680537 2:1 3:4 4:0 5:0 7:1 73:1 6901:1 # 20140613230123AAy6rx7 Rent NNP Games_&_Recreation TOKEN
-0.18871864249753045328361622523516 2:1 3:4 4:0 5:0 7:1 73:1 12953:1 # 20140622225954AAAlKMt Hung NNP Local_Businesses TOKEN
-0.18893809942770911636245045883697 2:1 3:4 4:0 5:0 7:1 73:1 10318:1 # 20140611090216AAsNyRd Lets NNP Family_&_Relationships TOKEN
0.5 2:0 3:5 4:0 5:0 7:1 73:1 15469:1 # 20140617193722AA5emAo Levin NNP Politics_&_Government PERSON
-0.26428211334501838791766203939915 2:0 3:3 4:0 5:0 7:1 73:1 3583:1 # 20140614134845AAVhWeg Qty NNP Consumer_Electronics TOKEN
0.5 2:0 3:7 4:0 5:1 7:0 8:1 3810:1 # 20140603131218AA1t3hP mission NN Local_Businesses LOCATION
-0.012351942624742040521823582821526 2:0 3:7 4:0 5:1 7:0 8:1 3810:1 # 20140611144551AAguC6x mission NN Games_&_Recreation TOKEN
0.5 2:0 3:7 4:0 5:0 7:0 73:1 3594:1 # 20140603131617AAsXYRf YouTube NNP Education_&_Reference ORGANIZATION
0.5 2:0 3:7 4:0 5:1 7:0 8:1 13566:1 # 20140622053126AAxcj34 lindsay NN Family_&_Relationships PERSON
-0.18889780258255361999886190460529 2:1 3:4 4:0 5:0 7:1 73:1 8234:1 # 20140622013948AAZujJH Amps NNP Science_&_Mathematics TOKEN
0.5 2:0 3:7 4:0 5:0 7:0 73:1 3594:1 # 20140625171723AAQIRte YouTube NNP Computer_&_Internet ORGANIZATION
-0.18886188921113161720555240208341 2:1 3:4 4:0 5:0 7:1 73:1 11774:1 # 20140620063230AAXLo9n Iced NNP Food_&_Drink TOKEN
-0.26427973286610073611058169262833 2:0 3:3 4:0 5:0 7:1 73:1 6870:1 # 20140620231356AA5VO2N Ctr NNP Games_&_Recreation TOKEN
0.5 2:0 3:7 4:0 5:1 7:0 8:1 12137:1 # 20140623173753AAUMZe3 iceland NN Food_&_Drink LOCATION
0.5 2:0 3:4 4:0 5:0 7:1 204:1 11332:1 # 20140616143448AAdU6Ze Five CD Dining_Out ORGANIZATION
-0.43783279714753331468557462358149 2:0 3:2 4:1 5:0 7:0 8:1 5530:1 # 20140617203632AANuG3B DC NN Entertainment_&_Music TOKEN
-0.0057664941357174759328785285106278 2:0 3:3 4:0 5:0 7:1 49:1 6112:1 # 20140621171642AATfemJ Wow UH Games_&_Recreation TOKEN
-0.5 2:0 3:7 4:0 5:1 7:0 8:1 3810:1 # 20140605094920AAfugK5 mission NN Consumer_Electronics TOKEN
0.5 2:1 3:5 4:0 5:0 7:1 73:1 14128:1 # 20140605150717AAmRFk6 Soros NNP News_&_Events PERSON
-0.18718271877914105516538256779313 2:1 3:5 4:0 5:0 7:1 73:1 11600:1 # 20140605102530AA17S7s Kyles NNP Dining_Out TOKEN
-0.1867002676522107607048894806212 2:1 3:5 4:0 5:0 7:1 73:1 5436:1 # 20140620190356AAdnQme Gangs NNP Entertainment_&_Music TOKEN
-0.18718079261978778915498367041437 2:1 3:5 4:0 5:0 7:1 73:1 14048:1 # 20140601100338AAUfBLz Brits NNP News_&_Events TOKEN
-0.18665341096599341597084276145324 2:1 3:5 4:0 5:0 7:1 73:1 9730:1 # 20140607184915AAytW6g Thats NNP Social_Science TOKEN
-0.26428211334502105245292113977484 2:0 3:3 4:0 5:0 7:1 73:1 5220:1 # 20140623153135AAqXQHR Day NNP Travel TOKEN
-0.5 2:0 3:2 4:0 5:1 7:0 8:1 5994:1 # 20140615211937AA9zqfw uk NN Health TOKEN
-0.5 2:0 3:5 4:0 5:0 7:1 73:1 8185:1 # 20140625120602AAXWOm0 River NNP Science_&_Mathematics TOKEN
-0.020552431082693611852363346770289 2:0 3:3 4:0 5:1 7:0 8:1 1821:1 # 20140621092416AArsE0s fit NN Social_Science TOKEN
-0.022991005805398118111426697396382 2:0 3:2 4:0 5:1 7:0 8:1 321:1 # 20140621115845AAQL7uD by NN Family_&_Relationships TOKEN
0.5 2:1 3:5 4:0 5:0 7:1 73:1 15298:1 # 20140613140428AASx2zV Sears NNP Politics_&_Government ORGANIZATION
0.5 2:1 3:5 4:0 5:0 7:1 73:1 1891:1 # 20140605091638AATCTbo Carla NNP Arts_&_Humanities PERSON
-0.18745776184285745102897635661066 2:1 3:5 4:0 5:0 7:1 73:1 11761:1 # 20140620063230AAXLo9n Stars NNP Food_&_Drink TOKEN
-0.18705602247178720887177405529656 2:1 3:5 4:0 5:0 7:1 73:1 4860:1 # 20140620051059AAvmrsV Doing NNP News_&_Events TOKEN
-0.18665341096600762682555796345696 2:1 3:5 4:0 5:0 7:1 73:1 8463:1 # 20140612022126AAsUT1R Shoes NNP Beauty_&_Style TOKEN
-0.18699098630892052597118890844285 2:1 3:5 4:0 5:0 7:1 73:1 12577:1 # 20140610220123AAW30Bg Lowes NNP Home_&_Garden TOKEN
-0.18714344754847589413770947430748 2:1 3:5 4:0 5:0 7:1 73:1 8232:1 # 20140622013948AAZujJH Watts NNP Science_&_Mathematics TOKEN
0.5 2:0 3:7 4:0 5:1 7:0 8:1 13879:1 # 20140617033632AAaS0SQ britney NN News_&_Events PERSON
-0.023029986142796943227040173951536 2:0 3:2 4:0 5:1 7:0 8:1 12993:1 # 20140622225954AAAlKMt ky NN Local_Businesses TOKEN
-0.023041768206772506033530589775182 2:0 3:2 4:0 5:1 7:0 8:1 13317:1 # 20140612212350AAeLl07 wk NN Family_&_Relationships TOKEN
-0.023029986142813818617014476330951 2:0 3:2 4:0 5:1 7:0 8:1 4765:1 # 20140626114755AAx0yWm 5x NN Education_&_Reference TOKEN
-0.023029986142802716386768224765547 2:0 3:2 4:0 5:1 7:0 8:1 9029:1 # 20140612160340AAE8W0E sh NN Sports TOKEN
0.5 2:1 3:5 4:0 5:0 7:1 73:1 11394:1 # 20140616143448AAdU6Ze Johns NNP Dining_Out ORGANIZATION
0.5 2:1 3:5 4:0 5:0 7:1 73:1 10357:1 # 20140620180056AARv7Hs Mises NNP Social_Science PERSON
-0.19472774800199488254293100908399 2:1 3:5 4:0 5:0 7:1 73:1 14314:1 # 20140625210906AATgayM Times NNP News_&_Events TOKEN
-0.18758462619492508038909761580726 2:1 3:5 4:0 5:0 7:1 73:1 5025:1 # 20140613083238AAZnREA Girls NNP Beauty_&_Style TOKEN
-0.18686806932975894013360118606215 2:1 3:5 4:0 5:0 7:1 73:1 10885:1 # 20140614231842AApn3VH Rules NNP Cars_&_Transportation TOKEN
-0.18765769856899305878528139146511 2:1 3:5 4:0 5:0 7:1 73:1 10634:1 # 20140612075124AA6dIcl Towed NNP Cars_&_Transportation TOKEN
0.5 2:0 3:9 4:0 5:1 7:0 8:1 10238:1 # 20140609103954AAB6LY5 sociopath NN News_&_Events ORGANIZATION
-0.023043671775793583833547018002719 2:0 3:2 4:0 5:1 7:0 8:1 12951:1 # 20140622225954AAAlKMt vu NN Local_Businesses TOKEN
-0.023041768206794266404813242843375 2:0 3:2 4:0 5:1 7:0 8:1 11195:1 # 20140620063230AAXLo9n oz NN Food_&_Drink TOKEN
-0.023013686386269993633391095499974 2:0 3:2 4:0 5:1 7:0 8:1 2753:1 # 20140602000015AAQvMYZ ya NN Consumer_Electronics TOKEN
-0.023029986142801384119138674577698 2:0 3:2 4:0 5:1 7:0 8:1 859:1 # 20140615205410AAihwS8 we NN Family_&_Relationships TOKEN
0.5 2:1 3:5 4:0 5:0 7:1 73:1 14314:1 # 20140606223938AAjsrL7 Times NNP News_&_Events ORGANIZATION
0.5 2:1 3:4 4:0 5:0 7:1 73:1 15214:1 # 20140610123048AAZOuhW Rose NNP Politics_&_Government LOCATION
-0.49238703913729775507590602501296 2:1 3:5 4:0 5:0 7:1 73:1 14314:1 # 20140625210906AATgayM Times NNP News_&_Events TOKEN
-0.18702843446144068462189125057193 2:1 3:5 4:0 5:0 7:1 73:1 5705:1 # 20140605140138AAyDVJY Whats NNP Entertainment_&_Music TOKEN
-0.18758462619492233258711166854482 2:1 3:5 4:0 5:0 7:1 73:1 14726:1 # 20140626142532AAHm2Mx Mills NNP Pets TOKEN
-0.18740845860935917421841168106766 2:1 3:5 4:0 5:0 7:1 73:1 13145:1 # 20140603131218AA1t3hP Techs NNP Local_Businesses TOKEN
-0.5 2:0 3:7 4:0 5:1 7:0 8:1 11448:1 # 20140607232759AAzh7sY italian NN Food_&_Drink TOKEN
0.5 2:1 3:9 4:0 5:0 7:1 73:1 10548:1 # 20140608182325AAmvy1Q Illionois NNP Cars_&_Transportation LOCATION
0.5 2:1 3:7 4:0 5:0 7:1 73:1 3502:1 # 20140614134845AAVhWeg Windows NNP Consumer_Electronics ORGANIZATION
-0.10019852138103771399535446562368 2:0 3:2 4:1 5:0 7:0 73:1 2998:1 # 20140611204210AAPJj1y UC NNP Business_&_Finance TOKEN
0.5 2:0 3:3 4:0 5:1 7:0 8:1 5596:1 # 20140605040256AAru12G cab NN Entertainment_&_Music PERSON
0.5 2:1 3:9 4:0 5:0 7:0 73:1 7069:1 # 20140615191331AAdpnmg McDonalds NNP Dining_Out ORGANIZATION
-0.18680128653239724823009737519897 2:1 3:5 4:0 5:0 7:1 73:1 8233:1 # 20140622013948AAZujJH Volts NNP Science_&_Mathematics TOKEN
-0.18665341096600940318239736370742 2:1 3:5 4:0 5:0 7:1 73:1 5346:1 # 20140615025730AAsJj6v Skins NNP Social_Science TOKEN
-0.18679731506312435840300167910755 2:1 3:5 4:0 5:0 7:1 73:1 5340:1 # 20140613124158AAH0KXB Codes NNP Entertainment_&_Music TOKEN
0.5 2:0 3:6 4:0 5:1 7:0 8:1 1441:1 # 20140611144551AAguC6x google NN Games_&_Recreation ORGANIZATION
0.5 2:0 3:6 4:0 5:1 7:0 8:1 2072:1 # 20140613111831AABRhzn middle NN News_&_Events LOCATION
-0.5 2:0 3:6 4:0 5:1 7:0 8:1 1441:1 # 20140614114159AAxmnir google NN Travel TOKEN
-0.18746333132518400166333094603033 2:1 3:5 4:0 5:0 7:1 73:1 11972:1 # 20140607232759AAzh7sY Baked NNP Food_&_Drink TOKEN
-0.49968981864231748479809880336688 2:0 3:3 4:1 5:0 7:0 73:1 7172:1 # 20140623022611AAddTaJ WWE NNP Sports TOKEN
-0.18721799794819848905547132744687 2:1 3:5 4:0 5:0 7:1 73:1 11951:1 # 20140626031053AAyXCcP Voila NNP Food_&_Drink TOKEN
-0.18690629637623082381914230154507 2:1 3:5 4:0 5:0 7:1 73:1 9342:1 # 20140614220006AA90c02 Armed NNP Sports TOKEN
-0.5 2:0 3:6 4:0 5:1 7:0 8:1 1441:1 # 20140604115540AAQrGu2 google NN Travel TOKEN
0.5 2:1 3:8 4:0 5:0 7:1 73:1 8461:1 # 20140612022126AAsUT1R Aviators NNP Beauty_&_Style ORGANIZATION
-0.5 2:1 3:7 4:0 5:0 7:1 73:1 3502:1 # 20140608132523AAWfvBH Windows NNP Computer_&_Internet TOKEN
-0.5 2:0 3:6 4:0 5:1 7:0 8:1 2072:1 # 20140625193136AAUePpR middle NN Arts_&_Humanities TOKEN
0.5 2:0 3:6 4:0 5:1 7:0 43:1 1441:1 # 20140617052323AAeXK8h google VBP Cars_&_Transportation ORGANIZATION
-0.5 2:0 3:6 4:0 5:1 7:0 43:1 1441:1 # 20140616063937AAhSsrT google VBP Business_&_Finance TOKEN
-0.028251899254353673995865392498672 2:1 3:3 4:0 5:0 7:1 43:1 991:1 # 20140604184751AAZzDj5 Are VBP Beauty_&_Style TOKEN
0.5 2:0 3:6 4:0 5:1 7:0 8:1 9335:1 # 20140609172302AAjgqUA canada NN Yahoo!_Products LOCATION
0.5 2:0 3:6 4:0 5:1 7:0 8:1 7190:1 # 20140615220821AAG2puS amazon NN Games_&_Recreation ORGANIZATION
-0.5 2:0 3:6 4:0 5:1 7:0 8:1 7190:1 # 20140620035947AAeYEbM amazon NN Local_Businesses TOKEN
-0.5 2:0 3:2 4:0 5:1 7:0 73:1 3151:1 # 20140618192549AAzYXYR al NNP Social_Science TOKEN
-0.0024812805108683777532974090718199 2:0 3:2 4:0 5:1 7:0 43:1 9008:1 # 20140612160340AAE8W0E kw VBP Sports TOKEN
-0.020891909248219056594031428630842 2:0 3:2 4:0 5:1 7:0 43:1 9511:1 # 20140615120927AAPeVv5 ed VBP Sports TOKEN
-0.020729441879458576636352518107742 2:0 3:2 4:0 5:1 7:0 43:1 5528:1 # 20140617203632AANuG3B wa VBP Entertainment_&_Music TOKEN
-0.020891909248219556194392509951285 2:0 3:2 4:0 5:1 7:0 43:1 3707:1 # 20140607024930AAQZT27 sa VBP Travel TOKEN
-0.18454160485305459715732467884663 2:0 3:2 4:0 5:1 7:0 73:1 147:1 # 20140604203617AAQJuGv at NNP Games_&_Recreation TOKEN
-0.098096245436490647762184380553663 2:0 3:3 4:1 5:0 7:0 73:1 8367:1 # 20140625140958AAG0wQK SPF NNP Beauty_&_Style TOKEN
0.5 2:0 3:6 4:0 5:1 7:0 8:1 1441:1 # 20140611144551AAguC6x google NN Games_&_Recreation ORGANIZATION
-0.18455146368763619690867017197888 2:0 3:2 4:0 5:1 7:0 73:1 237:1 # 20140608155422AAGg2Wt im NNP Pregnancy_&_Parenting TOKEN
-0.25172398125186390416274662129581 2:0 3:9 4:0 5:0 7:1 73:1 5169:1 # 20140614004826AAWj9IB Albatross NNP Entertainment_&_Music TOKEN
-0.18370387853271052946979580156039 2:0 3:2 4:0 5:1 7:0 73:1 9613:1 # 20140618192549AAzYXYR en NNP Social_Science TOKEN
0.5 2:0 3:6 4:0 5:1 7:0 8:1 15567:1 # 20140603004555AAv1K5X balmer NN Politics_&_Government PERSON
0.5 2:0 3:6 4:0 5:1 7:0 8:1 1441:1 # 20140609115257AAXrpdb google NN Cars_&_Transportation ORGANIZATION
-0.015089511776544606291849959234241 2:0 3:1 4:0 5:0 7:0 14:1 20:1 # 20140625101557AAZ5Rvq ? VBG Social_Science TOKEN
-0.023043671773725904472485126461834 2:0 3:2 4:0 5:1 7:0 8:1 5738:1 # 20140605140138AAyDVJY ta NN Entertainment_&_Music TOKEN
-0.022716944512885639539945259457454 2:0 3:2 4:0 5:1 7:0 8:1 6223:1 # 20140617094029AAZ1FwJ bf NN Family_&_Relationships TOKEN
-0.022723141508410371613990719197318 2:0 3:2 4:0 5:1 7:0 8:1 5038:1 # 20140611112422AAvMvFi mg NN Education_&_Reference TOKEN
0.5 2:1 3:7 4:0 5:0 7:1 73:1 3502:1 # 20140614134845AAVhWeg Windows NNP Consumer_Electronics ORGANIZATION
0.5 2:0 3:5 4:1 5:0 7:0 73:1 14379:1 # 20140613180332AA3jCxr ISISL NNP News_&_Events ORGANIZATION
0.5 2:0 3:5 4:1 5:0 7:0 73:1 13972:1 # 20140613111831AABRhzn COBRA NNP News_&_Events ORGANIZATION
0.5 2:0 3:4 4:1 5:0 7:0 73:1 5654:1 # 20140606075218AAmnm1s U.S. NNP Entertainment_&_Music LOCATION
-0.5 2:0 3:2 4:0 5:0 7:1 30:1 2509:1 # 20140607071218AAzGtJH At IN Family_&_Relationships TOKEN
-0.5 2:0 3:4 4:1 5:0 7:0 73:1 5654:1 # 20140607125905AA2JtXv U.S. NNP Politics_&_Government TOKEN
0.5 2:0 3:3 4:0 5:1 7:0 32:1 33:1 # 20140610083106AA7AAUT and CC Dining_Out ORGANIZATION
0.5 2:0 3:10 4:0 5:1 7:0 8:1 3309:1 # 20140619105821AAuioIb university NN Education_&_Reference ORGANIZATION
-0.10019852138103801930668623754173 2:0 3:2 4:1 5:0 7:0 73:1 3321:1 # 20140610193547AAHNlOY GE NNP Business_&_Finance TOKEN
-0.5 2:0 3:6 4:0 5:1 7:0 8:1 1441:1 # 20140622072140AAPnIrk google NN Food_&_Drink TOKEN
0.5 2:1 3:3 4:0 5:0 7:1 73:1 12801:1 # 20140608112522AAMjxU9 Los NNP Local_Businesses LOCATION
-0.18535810288912202281608188059181 2:1 3:6 4:0 5:0 7:1 73:1 13212:1 # 20140611090216AAsNyRd Ladies NNP Family_&_Relationships TOKEN
0.5 2:0 3:6 4:0 5:1 7:0 8:1 1441:1 # 20140605223141AA4aNVu google NN Arts_&_Humanities ORGANIZATION
-0.18679731506311991751090317848139 2:1 3:5 4:0 5:0 7:1 73:1 8801:1 # 20140613214814AARwXS4 Links NNP Local_Businesses TOKEN
-0.18539993296169876568768586366787 2:1 3:6 4:0 5:0 7:1 73:1 13701:1 # 20140616152825AABP2iB Aspies NNP News_&_Events TOKEN
-0.18552937465150876050756778568029 2:1 3:6 4:0 5:0 7:1 73:1 1384:1 # 20140623100810AA4EYqD Quotes NNP Arts_&_Humanities TOKEN
-0.022988960726864765549137814559799 2:0 3:2 4:0 5:1 7:0 8:1 12948:1 # 20140622225954AAAlKMt su NN Local_Businesses TOKEN
-0.5 2:0 3:6 4:0 5:1 7:0 8:1 1441:1 # 20140614114159AAxmnir google NN Travel TOKEN
-0.33802513521214183622731752620894 2:0 3:2 4:1 5:0 7:0 73:1 3408:1 # 20140608151316AAZv17m UK NNP Travel TOKEN
0.5 2:0 3:6 4:0 5:0 7:1 8:1 11349:1 # 20140616143448AAdU6Ze Silver NN Dining_Out ORGANIZATION
-0.01257988403198018190209950262215 2:0 3:7 4:0 5:1 7:0 8:1 4740:1 # 20140617102632AAPzLAI eariler NN Education_&_Reference TOKEN
0.5 2:0 3:12 4:0 5:1 7:0 26:1 3256:1 # 20140601093053AA6zdEg fakeiduk.com JJ Business_&_Finance ORGANIZATION
-0.5 2:0 3:2 4:1 5:0 7:0 73:1 3408:1 # 20140608120927AA1JZcv UK NNP Travel TOKEN
0.5 2:0 3:8 4:0 5:0 7:1 73:1 1542:1 # 20140625095108AAhxBZ2 Laurence NNP Arts_&_Humanities PERSON
-0.069454399959592849622680432730704 2:0 3:4 4:0 5:1 7:0 26:1 13974:1 # 20140601100338AAUfBLz east JJ News_&_Events TOKEN
0.5 2:0 3:6 4:0 5:1 7:0 43:1 1441:1 # 20140617052323AAeXK8h google VBP Cars_&_Transportation ORGANIZATION
0.5 2:0 3:6 4:0 5:1 7:0 8:1 2991:1 # 20140604131630AAZXrpw yorbin NN Business_&_Finance ORGANIZATION
-0.24868426815136740470890686083294 2:0 3:10 4:0 5:0 7:1 73:1 1456:1 # 20140605223141AA4aNVu Incarceron NNP Arts_&_Humanities TOKEN
-0.10055746095185119637349657750747 2:0 3:3 4:0 5:0 7:1 43:1 3745:1 # 20140608113007AAoVpt8 Get VBP Politics_&_Government TOKEN
-0.09795315717745534112026462025824 2:0 3:4 4:0 5:0 7:1 43:1 282:1 # 20140621155455AA5YRJ2 Have VBP Business_&_Finance TOKEN
-0.014423971985198846823550411500037 2:0 3:5 4:0 5:1 7:0 8:1 758:1 # 20140615222209AAOSKxY thing NN Entertainment_&_Music TOKEN
-0.068680772920869631592566406652622 2:1 3:9 4:0 5:0 7:1 61:1 12021:1 # 20140608120927AA1JZcv Europeans NNPS Travel TOKEN
-0.020046907645852041213174743461423 2:0 3:4 4:0 5:1 7:0 20:1 1045:1 # 20140618215915AAruZzF turn VBG News_&_Events TOKEN
-0.0018232245370415900431737554754363 2:0 3:4 4:0 5:1 7:0 8:1 1503:1 # 20140619140045AAMMZmd stop NN Social_Science TOKEN
0.5 2:0 3:11 4:0 5:0 7:1 73:1 1454:1 # 20140605223141AA4aNVu Westerfield NNP Arts_&_Humanities PERSON
-0.5 2:0 3:6 4:0 5:0 7:1 73:1 11349:1 # 20140620003333AAaN90M Silver NNP Dining_Out TOKEN
-0.49985810767645943997194990515709 2:0 3:2 4:0 5:1 7:0 73:1 149:1 # 20140611153520AAksgjY in NNP Computer_&_Internet TOKEN
0.5 2:0 3:6 4:0 5:1 7:0 8:1 5586:1 # 20140605040256AAru12G maiden NN Entertainment_&_Music PERSON
0.5 2:0 3:6 4:0 5:1 7:0 8:1 7190:1 # 20140615220821AAG2puS amazon NN Games_&_Recreation ORGANIZATION
-0.5 2:0 3:6 4:0 5:1 7:0 8:1 7190:1 # 20140620035947AAeYEbM amazon NN Local_Businesses TOKEN
0.5 2:0 3:4 4:0 5:1 7:0 43:1 8877:1 # 20140620015151AAISFRV nike VBP Beauty_&_Style ORGANIZATION
-0.097839928126524394746965640479175 2:0 3:3 4:1 5:0 7:0 73:1 14030:1 # 20140601100338AAUfBLz WW2 NNP News_&_Events TOKEN
-0.018747633320350010066590584756341 2:0 3:4 4:0 5:1 7:0 8:1 1296:1 # 20140616120632AA6Yeah long NN Sports TOKEN
-0.17631037346505296081744518232881 2:1 3:10 4:0 5:0 7:1 73:1 12740:1 # 20140621012150AAs9NFo Consulting NNP Home_&_Garden TOKEN
0.5 2:0 3:2 4:1 5:0 7:0 73:1 4289:1 # 20140604083714AANM1Br NY NNP Education_&_Reference LOCATION
0.5 2:0 3:9 4:0 5:0 7:1 73:1 786:1 # 20140625193136AAUePpR Lovecraft NNP Arts_&_Humanities PERSON
-0.16654512749913341629337537597166 2:0 3:2 4:0 5:0 7:1 30:1 2509:1 # 20140625175128AAldtwC At IN Food_&_Drink TOKEN
0.5 2:0 3:4 4:1 5:0 7:0 73:1 12412:1 # 20140601151243AAGeO0l IKEA NNP Home_&_Garden ORGANIZATION
0.5 2:0 3:4 4:1 5:0 7:0 73:1 5061:1 # 20140608162419AAwr1N9 M&M; NNP Entertainment_&_Music ORGANIZATION
0.5 2:0 3:4 4:1 5:0 7:0 73:1 785:1 # 20140617074422AANUT7h H.P. NNP Arts_&_Humanities PERSON
0.5 2:0 3:4 4:1 5:0 7:0 73:1 1555:1 # 20140625095108AAhxBZ2 E.A. NNP Arts_&_Humanities PERSON
0.5 2:0 3:4 4:1 5:0 7:0 73:1 8905:1 # 20140625083610AAU2r7X FIFA NNP Sports ORGANIZATION
0.5 2:0 3:4 4:0 5:0 7:1 73:1 262:1 # 20140605104442AAFzzy2 John NNP Sports PERSON
-0.49987908220323351571323655662127 2:0 3:3 4:0 5:1 7:0 32:1 73:1 # 20140617134810AAX61tb and NNP Travel TOKEN
-0.5 2:0 3:4 4:0 5:1 7:0 8:1 8877:1 # 20140620192235AA5KHXm nike NN Travel TOKEN
-0.29934152582903550410264870151877 1:1 2:0 3:4 4:0 5:0 6:1 7:1 # 20140607184915AAytW6g Will MD Social_Science TOKEN
-0.02072944187946923477738891961053 2:0 3:2 4:0 5:1 7:0 43:1 189:1 # 20140620015151AAISFRV ok VBP Beauty_&_Style TOKEN
0.5 2:0 3:4 4:1 5:0 7:0 73:1 9175:1 # 20140623155342AAYpGzf NCAA NNP Sports ORGANIZATION
0.5 2:0 3:4 4:1 5:0 7:0 73:1 4319:1 # 20140610062626AA46ms6 GCSE NNP Education_&_Reference ORGANIZATION
0.5 2:0 3:4 4:1 5:0 7:0 73:1 15255:1 # 20140605231104AAm8fzJ EBAY NNP Politics_&_Government ORGANIZATION
-0.10014871987783446893871541760745 2:0 3:2 4:1 5:0 7:0 73:1 5149:1 # 20140619101954AAAy1Zi I. NNP Entertainment_&_Music TOKEN
0.5 2:1 3:3 4:0 5:0 7:1 73:1 12801:1 # 20140608112522AAMjxU9 Los NNP Local_Businesses LOCATION
-0.10017059311205669946964746941376 2:0 3:2 4:1 5:0 7:0 73:1 7865:1 # 20140603072418AAgZjcN BC NNP Science_&_Mathematics TOKEN
0.5 2:0 3:10 4:0 5:0 7:1 73:1 10644:1 # 20140625110415AAjpx1n Washington NNP Cars_&_Transportation LOCATION
0.5 2:0 3:5 4:0 5:1 7:0 8:1 7374:1 # 20140606132641AA7YK9b yahoo NN Yahoo!_Products ORGANIZATION
0.5 2:0 3:5 4:0 5:1 7:0 8:1 3986:1 # 20140617165924AASLrlc apple NN Consumer_Electronics ORGANIZATION
-0.01630324980329753148389215766656 2:0 3:5 4:0 5:1 7:0 8:1 2967:1 # 20140612121603AAc09vI offer NN Games_&_Recreation TOKEN
-0.25516444275312499812002897670027 2:0 3:7 4:0 5:0 7:1 73:1 1705:1 # 20140616154757AA3uubn Islamic NNP News_&_Events TOKEN
-0.020729441879449694852155516855419 2:0 3:2 4:0 5:1 7:0 43:1 10198:1 # 20140606153641AAjtBgn ar VBP Social_Science TOKEN
-0.5 2:0 3:3 4:0 5:1 7:0 32:1 73:1 # 20140605102530AA17S7s and NNP Dining_Out TOKEN
-0.18454644084934335168668440019246 2:0 3:2 4:0 5:1 7:0 73:1 3742:1 # 20140622225954AAAlKMt ha NNP Local_Businesses TOKEN
0.5 2:0 3:9 4:0 5:1 7:0 88:1 1266:1 # 20140610075021AAwlDsA hollywood VB Dining_Out LOCATION
0.5 2:0 3:3 4:0 5:1 7:0 32:1 73:1 # 20140616143448AAdU6Ze and NNP Dining_Out ORGANIZATION
0.5 2:0 3:5 4:0 5:1 7:0 8:1 15776:1 # 20140611151627AAmAEbQ corps NN Politics_&_Government ORGANIZATION
0.5 2:0 3:5 4:0 5:1 7:0 8:1 15447:1 # 20140606032555AA8mCFY mafia NN Politics_&_Government ORGANIZATION
0.5 2:0 3:5 4:0 5:1 7:0 8:1 7155:1 # 20140625171643AAxjtac intel NN Computer_&_Internet ORGANIZATION
-0.5 2:0 3:5 4:0 5:1 7:0 8:1 7155:1 # 20140601072000AABRvpX intel NN Games_&_Recreation TOKEN
-0.5 2:0 3:6 4:0 5:1 7:0 8:1 1441:1 # 20140607042122AAao04B google NN Yahoo!_Products TOKEN
-0.5 2:0 3:3 4:0 5:1 7:0 8:1 5596:1 # 20140604150349AA6PQh8 cab NN Pregnancy_&_Parenting TOKEN
0.5 2:0 3:3 4:0 5:1 7:0 32:1 73:1 # 20140616143448AAdU6Ze and NNP Dining_Out ORGANIZATION
0.5 2:0 3:5 4:0 5:0 7:1 73:1 15469:1 # 20140617193722AA5emAo Levin NNP Politics_&_Government PERSON
-0.49961588895117065023399050005537 2:0 3:3 4:0 5:1 7:0 32:1 73:1 # 20140605102530AA17S7s and NNP Dining_Out TOKEN
-0.17499054776912825737156254035654 2:0 3:1 4:0 5:0 7:0 73:1 668:1 # 20140614134845AAVhWeg 7 NNP Consumer_Electronics TOKEN
-0.17543201232539576417401860908285 2:0 3:1 4:0 5:0 7:0 73:1 7755:1 # 20140620035536AASKdrI _ NNP Computer_&_Internet TOKEN
0.24529627925216118677909094003553 2:0 3:7 4:0 5:0 7:1 73:1 2727:1 # 20140621155455AA5YRJ2 Charlie NNP Business_&_Finance PERSON
-0.5 2:0 3:3 4:0 5:1 7:0 8:1 5596:1 # 20140616073715AA0e9si cab NN Cars_&_Transportation TOKEN
-0.028529228891294389214294824341778 2:0 3:3 4:0 5:1 7:0 8:1 2189:1 # 20140612062149AAH8vjl boy NN Arts_&_Humanities TOKEN
-0.5 2:0 3:2 4:1 5:0 7:0 73:1 3408:1 # 20140608151316AAZv17m UK NNP Travel TOKEN
0.5 2:0 3:3 4:0 5:1 7:0 8:1 2189:1 # 20140605040256AAru12G boy NN Entertainment_&_Music PERSON
-0.5 2:0 3:3 4:0 5:1 7:0 8:1 2189:1 # 20140607064609AA5EKx9 boy NN Pregnancy_&_Parenting TOKEN
0.5 2:0 3:3 4:1 5:0 7:0 73:1 14311:1 # 20140611214724AASfT7e GOP NNP News_&_Events ORGANIZATION
0.5 2:0 3:2 4:1 5:0 7:0 73:1 3408:1 # 20140616063937AAhSsrT UK NNP Business_&_Finance LOCATION
-0.023344827618977603833627654239535 2:0 3:79 4:0 5:1 7:0 73:1 19374:1 # 20140608060520AAMzqLw https:##help.yahoo.com#kb#limitations-internet-explorer-yahoo-mail-sln5918.html NNP Yahoo!_Products TOKEN
-0.5 2:0 3:2 4:1 5:0 7:0 73:1 3408:1 # 20140612013350AAX11Xr UK NNP Travel TOKEN
0.5 2:0 3:7 4:0 5:1 7:0 8:1 11448:1 # 20140606032555AA8mCFY italian NN Politics_&_Government ORGANIZATION
-0.26198678139222764116311736870557 2:0 3:3 4:0 5:0 7:1 73:1 19299:1 # 20140621192007AAsQBSf Ohh NNP Pregnancy_&_Parenting TOKEN
-0.098049139737042878550710156559944 2:0 3:3 4:1 5:0 7:0 73:1 4148:1 # 20140625035457AAwYqoP GPU NNP Games_&_Recreation TOKEN
-0.2641578054370499195613319898257 2:0 3:3 4:0 5:0 7:1 73:1 2604:1 # 20140622124553AAjprED Idk NNP Business_&_Finance TOKEN
0.5 2:0 3:3 4:1 5:0 7:0 73:1 2568:1 # 20140612022126AAsUT1R USA NNP Beauty_&_Style LOCATION
0.5 2:0 3:3 4:1 5:0 7:0 73:1 9434:1 # 20140623022611AAddTaJ UFC NNP Sports ORGANIZATION
-0.25712755431815426110375710777589 2:0 3:6 4:0 5:0 7:1 73:1 8159:1 # 20140625120602AAXWOm0 Arabic NNP Science_&_Mathematics TOKEN
-0.5 2:0 3:3 4:1 5:0 7:0 73:1 2568:1 # 20140622140805AAtjqJa USA NNP Cars_&_Transportation TOKEN
-0.10016024549822710731916686199838 2:0 3:2 4:1 5:0 7:0 73:1 3573:1 # 20140614134845AAVhWeg RW NNP Consumer_Electronics TOKEN
-0.10019852138103793603995939065499 2:0 3:2 4:1 5:0 7:0 73:1 7866:1 # 20140603072418AAgZjcN GH NNP Science_&_Mathematics TOKEN
-0.10021708799389861255235700809862 2:0 3:2 4:1 5:0 7:0 73:1 19103:1 # 20140608111211AAkpqtd NA NNP Pregnancy_&_Parenting TOKEN
-0.1001487198778358012063449677953 2:0 3:2 4:1 5:0 7:0 73:1 4439:1 # 20140607211424AAdLIHO EX NNP Education_&_Reference TOKEN
0.5 2:0 3:2 4:1 5:0 7:0 73:1 3408:1 # 20140616063937AAhSsrT UK NNP Business_&_Finance LOCATION
0.5 2:0 3:6 4:0 5:0 7:1 73:1 683:1 # 20140616143448AAdU6Ze Church NNP Dining_Out ORGANIZATION
0.5 2:1 3:5 4:0 5:1 7:0 12:1 19123:1 # 20140601002604AAq45X7 hicks NNS Pregnancy_&_Parenting PERSON
-0.024154619424059831089834915474057 2:0 3:2 4:0 5:1 7:0 12:1 1089:1 # 20140611152642AAd7nNQ he NNS Pets TOKEN
-0.024154619424051837484057614346966 2:0 3:2 4:0 5:1 7:0 12:1 9410:1 # 20140622111757AAuaLOZ ex NNS Family_&_Relationships TOKEN
-0.26217277423370172195760119393526 2:0 3:2 4:1 5:0 7:0 73:1 3408:1 # 20140608151316AAZv17m UK NNP Travel TOKEN
-0.5 2:0 3:7 4:0 5:0 7:1 73:1 14423:1 # 20140625210906AATgayM Journal NNP News_&_Events TOKEN
-0.26188503965153575592239576508291 2:0 3:4 4:0 5:0 7:1 73:1 12931:1 # 20140622225954AAAlKMt Hưng NNP Local_Businesses TOKEN
-0.26206411922951300397244267514907 2:0 3:4 4:0 5:0 7:1 73:1 6244:1 # 20140611201334AAFQLgO Lose NNP Health TOKEN
-0.26206529072348472286790865837247 2:0 3:4 4:0 5:0 7:1 73:1 5348:1 # 20140615025730AAsJj6v Riot NNP Social_Science TOKEN
-0.18656280750163833914712085970677 2:0 3:1 4:0 5:1 7:0 73:1 2284:1 # 20140601034548AAxsbgI f NNP Science_&_Mathematics TOKEN
-0.10019342357758238837295294842988 2:0 3:2 4:1 5:0 7:0 73:1 8256:1 # 20140626204611AAKagRz PE NNP Science_&_Mathematics TOKEN
-0.10020740280446116532431233281386 2:0 3:2 4:1 5:0 7:0 73:1 5338:1 # 20140613124158AAH0KXB RP NNP Entertainment_&_Music TOKEN
0.5 2:0 3:6 4:0 5:1 7:0 43:1 1441:1 # 20140617052323AAeXK8h google VBP Cars_&_Transportation ORGANIZATION
0.5 2:0 3:7 4:0 5:0 7:1 73:1 5576:1 # 20140618141409AA9yzif Wagoner NNP Entertainment_&_Music PERSON
-0.078638162169354541841670425128541 2:0 3:5 4:0 5:0 7:1 26:1 14832:1 # 20140611152642AAd7nNQ Large JJ Pets TOKEN
-0.018886672585531449897189304465428 2:0 3:3 4:0 5:1 7:0 43:1 3743:1 # 20140615174740AA8MA6l don VBP Cars_&_Transportation TOKEN
-0.018592083149148841414444177644327 2:0 3:3 4:0 5:1 7:0 43:1 104:1 # 20140620213457AAI59UA 're VBP Computer_&_Internet TOKEN
0.5 2:0 3:3 4:0 5:1 7:0 8:1 2189:1 # 20140605040256AAru12G boy NN Entertainment_&_Music PERSON
-0.5 2:0 3:4 4:0 5:0 7:1 73:1 262:1 # 20140613111207AAD5YgE John NNP Dining_Out TOKEN
-0.5 2:0 3:3 4:0 5:0 7:1 73:1 5559:1 # 20140618215915AAruZzF Ray NNP News_&_Events TOKEN
-0.26215835430039252651468473231944 2:0 3:3 4:0 5:0 7:1 73:1 6674:1 # 20140612080629AAuyjlx Tea NNP Health TOKEN
-0.26428917503358029250648542074487 2:0 3:3 4:0 5:0 7:1 73:1 3601:1 # 20140606223938AAjsrL7 Pro NNP News_&_Events TOKEN
0.5 2:0 3:3 4:0 5:1 7:0 8:1 5596:1 # 20140605040256AAru12G cab NN Entertainment_&_Music PERSON
-0.5 2:0 3:7 4:0 5:1 7:0 8:1 11448:1 # 20140607232759AAzh7sY italian NN Food_&_Drink TOKEN
0.5 2:0 3:4 4:0 5:0 7:1 73:1 262:1 # 20140623033506AAfLqxC John NNP Beauty_&_Style PERSON
-0.03285309044227080477185154450126 2:0 3:1 4:1 5:0 7:1 8:1 445:1 # 20140618170211AA99yVG C NN Science_&_Mathematics TOKEN
0.5 2:0 3:7 4:0 5:0 7:1 73:1 14423:1 # 20140603004555AAv1K5X Journal NNP Politics_&_Government ORGANIZATION
0.5 2:0 3:3 4:1 5:0 7:0 73:1 2568:1 # 20140610112505AAhGjYL USA NNP Dining_Out LOCATION
0.5 2:0 3:2 4:1 5:0 7:0 73:1 809:1 # 20140617074422AANUT7h J. NNP Arts_&_Humanities PERSON
-0.10446351531279574054167369467905 2:0 3:2 4:0 5:0 7:1 8:1 664:1 # 20140626142532AAHm2Mx No NN Pets TOKEN
-0.10468882843922600045516446698457 2:0 3:2 4:0 5:0 7:1 8:1 13621:1 # 20140617094029AAZ1FwJ Id NN Family_&_Relationships TOKEN
-0.10009123992200841257727006450295 2:0 3:2 4:1 5:0 7:0 73:1 4749:1 # 20140603131617AAsXYRf LP NNP Education_&_Reference TOKEN
-0.10015009610926761673965756926918 2:0 3:2 4:1 5:0 7:0 73:1 6940:1 # 20140616114406AAi0jDN I7 NNP Games_&_Recreation TOKEN
-0.10012085787432278838338106652373 2:0 3:2 4:1 5:0 7:0 73:1 6974:1 # 20140616114406AAi0jDN AC NNP Games_&_Recreation TOKEN
-0.10019342357758503903042424099112 2:0 3:2 4:1 5:0 7:0 73:1 3492:1 # 20140612231240AAb6Jgs IV NNP Consumer_Electronics TOKEN
-0.10020962403232663850971562169434 2:0 3:2 4:1 5:0 7:0 73:1 10780:1 # 20140621111444AACBO2L O2 NNP Cars_&_Transportation TOKEN
0.5 2:0 3:5 4:0 5:1 7:0 8:1 9588:1 # 20140615224306AASdmOX james NN Sports PERSON
0.5 2:0 3:5 4:0 5:1 7:0 8:1 11110:1 # 20140613111207AAD5YgE wayne NN Dining_Out PERSON
0.5 2:0 3:2 4:1 5:0 7:0 73:1 4507:1 # 20140618125641AAGkGpi C. NNP Education_&_Reference PERSON
-0.49243441591128467305082949678763 2:0 3:3 4:0 5:1 7:0 8:1 2189:1 # 20140620141720AAh6NZ6 boy NN Pets TOKEN
0.5 2:0 3:10 4:0 5:0 7:1 73:1 4198:1 # 20140622140805AAtjqJa Statistics NNP Cars_&_Transportation ORGANIZATION
0.5 2:0 3:3 4:0 5:0 7:1 73:1 5166:1 # 20140614004826AAWj9IB May NNP Entertainment_&_Music PERSON
-0.18242546095057532440364411741029 2:0 3:3 4:0 5:1 7:0 73:1 12850:1 # 20140622225954AAAlKMt van NNP Local_Businesses TOKEN
-0.10019342357758244388410417968771 2:0 3:2 4:1 5:0 7:0 73:1 18237:1 # 20140605044942AAisLvo VF NNP Travel TOKEN
0.5 2:0 3:9 4:0 5:0 7:0 73:1 11391:1 # 20140616143448AAdU6Ze FatBurger NNP Dining_Out ORGANIZATION
0.5 2:0 3:9 4:0 5:0 7:0 73:1 18950:1 # 20140611001634AAefV9p AnnaMaria NNP Pregnancy_&_Parenting PERSON
0.5 2:0 3:9 4:0 5:0 7:0 73:1 791:1 # 20140617074422AANUT7h DuMaurier NNP Arts_&_Humanities PERSON
0.5 2:0 3:3 4:1 5:0 7:0 73:1 14319:1 # 20140606223938AAjsrL7 AFC NNP News_&_Events ORGANIZATION
-0.10018654627679901558678920991952 2:0 3:2 4:1 5:0 7:0 73:1 9515:1 # 20140607024930AAQZT27 AZ NNP Travel TOKEN
-0.10018684937482634500494071971843 2:0 3:2 4:1 5:0 7:0 73:1 10791:1 # 20140621111444AACBO2L GM NNP Cars_&_Transportation TOKEN
-0.10014871987783668938476466792054 2:0 3:2 4:1 5:0 7:0 73:1 9505:1 # 20140610194612AA31tgA NJ NNP Local_Businesses TOKEN
-0.10017431346987792917246906654327 2:0 3:2 4:1 5:0 7:0 73:1 6777:1 # 20140625035457AAwYqoP SD NNP Games_&_Recreation TOKEN
-0.10018130151062942800876953697298 2:0 3:2 4:1 5:0 7:0 73:1 9109:1 # 20140620105746AAnOLsk XD NNP Sports TOKEN
0.5 2:0 3:5 4:0 5:1 7:0 8:1 15519:1 # 20140609182413AATpjOA obama NN Politics_&_Government PERSON
0.5 2:0 3:5 4:0 5:1 7:0 8:1 9214:1 # 20140618180738AANfMh9 china NN Sports LOCATION
0.5 2:0 3:5 4:0 5:1 7:0 8:1 10766:1 # 20140609115257AAXrpdb skoda NN Cars_&_Transportation ORGANIZATION
0.5 2:0 3:5 4:0 5:1 7:0 8:1 15250:1 # 20140605231104AAm8fzJ gucci NN Politics_&_Government ORGANIZATION
-0.022706956598377514566777790605556 2:0 3:2 4:0 5:1 7:0 8:1 1912:1 # 20140601105234AA3ANDN pt NN Arts_&_Humanities TOKEN
-0.10014871987783546813943758024834 2:0 3:2 4:1 5:0 7:0 73:1 7975:1 # 20140622230045AAAI6WE B. NNP Travel TOKEN
-0.10019814891534273293416390515631 2:0 3:2 4:1 5:0 7:0 73:1 7154:1 # 20140613083238AAZnREA MY NNP Beauty_&_Style TOKEN
-0.10018130151063209254402863734867 2:0 3:2 4:1 5:0 7:0 73:1 5097:1 # 20140608132523AAWfvBH GB NNP Computer_&_Internet TOKEN
-0.10017431346987826223937645409023 2:0 3:2 4:1 5:0 7:0 73:1 3507:1 # 20140612231240AAb6Jgs CA NNP Consumer_Electronics TOKEN
-0.10012085787432195571611259765632 2:0 3:2 4:1 5:0 7:0 73:1 5971:1 # 20140605225313AAAhy4Z GP NNP Health TOKEN
0.5 2:0 3:4 4:0 5:1 7:0 8:1 6619:1 # 20140612080629AAuyjlx sean NN Health PERSON
0.5 2:0 3:4 4:0 5:1 7:0 8:1 6873:1 # 20140620231356AA5VO2N john NN Games_&_Recreation PERSON
-0.023049272200381318298489929929929 2:0 3:2 4:0 5:1 7:0 8:1 2416:1 # 20140607053946AAkMdTv tv NN Social_Science TOKEN
-0.021847399952268253819909205049044 2:0 3:2 4:0 5:1 7:0 8:1 6450:1 # 20140610164612AA5SkqL ab NN Health TOKEN
-0.022391139431704010220869349723216 2:0 3:2 4:0 5:1 7:0 8:1 4833:1 # 20140615174740AA8MA6l id NN Cars_&_Transportation TOKEN
-0.022908502762521654183558439399349 2:0 3:2 4:0 5:1 7:0 8:1 12941:1 # 20140622225954AAAlKMt ổn NN Local_Businesses TOKEN
0.5 2:0 3:3 4:1 5:0 7:0 73:1 7172:1 # 20140623022611AAddTaJ WWE NNP Sports ORGANIZATION
0.5 2:0 3:3 4:1 5:0 7:0 73:1 15192:1 # 20140610123048AAZOuhW KGB NNP Politics_&_Government ORGANIZATION
0.5 2:0 3:3 4:0 5:1 7:0 8:1 5596:1 # 20140605040256AAru12G cab NN Entertainment_&_Music PERSON
-0.5 2:0 3:3 4:1 5:0 7:0 73:1 7172:1 # 20140605104442AAFzzy2 WWE NNP Sports TOKEN
0.5 2:0 3:5 4:0 5:1 7:0 8:1 8142:1 # 20140625120602AAXWOm0 syria NN Science_&_Mathematics LOCATION
0.5 2:0 3:5 4:0 5:1 7:0 8:1 1291:1 # 20140614122338AAHL8sn canon NN Arts_&_Humanities ORGANIZATION
0.5 2:0 3:5 4:0 5:1 7:0 8:1 7155:1 # 20140625171643AAxjtac intel NN Computer_&_Internet ORGANIZATION
-0.022991005805400505090929641482944 2:0 3:2 4:0 5:1 7:0 8:1 3102:1 # 20140614172231AAsQkBF ur NN Politics_&_Government TOKEN
0.5 2:0 3:4 4:0 5:1 7:0 8:1 13833:1 # 20140611151627AAmAEbQ army NN Politics_&_Government ORGANIZATION
0.5 2:0 3:4 4:0 5:1 7:0 8:1 8995:1 # 20140601162630AAuDjDG pepe NN Sports PERSON
0.5 2:0 3:3 4:0 5:1 7:0 32:1 73:1 # 20140616143448AAdU6Ze and NNP Dining_Out ORGANIZATION
-0.17581496243711569604784017428756 2:0 3:6 4:0 5:1 7:0 73:1 903:1 # 20140617102632AAPzLAI and#or NNP Education_&_Reference TOKEN
0.5 2:0 3:4 4:0 5:1 7:0 8:1 1077:1 # 20140616143448AAdU6Ze land NN Dining_Out ORGANIZATION
-0.10019852138103702010596407490084 2:0 3:2 4:1 5:0 7:0 73:1 4191:1 # 20140607141649AANF6Tv HP NNP Consumer_Electronics TOKEN
-0.10017067510360755377973873692099 2:0 3:2 4:1 5:0 7:0 73:1 9378:1 # 20140618215915AAruZzF GI NNP News_&_Events TOKEN
-0.10018130151063187049942371231737 2:0 3:2 4:1 5:0 7:0 73:1 14746:1 # 20140620141720AAh6NZ6 JR NNP Pets TOKEN
-0.099956408221506087841135013150051 2:0 3:2 4:1 5:0 7:0 73:1 13306:1 # 20140609053527AAHPrln DM NNP News_&_Events TOKEN
-0.10021208658127853108332772080757 2:0 3:2 4:1 5:0 7:0 73:1 2213:1 # 20140612062149AAH8vjl HQ NNP Arts_&_Humanities TOKEN
-0.5 2:0 3:2 4:0 5:0 7:1 30:1 2509:1 # 20140610193547AAHNlOY At IN Business_&_Finance TOKEN
-0.4994777801790402094184173620306 2:0 3:3 4:0 5:0 7:0 204:1 2700:1 # 20140601043856AAIunch 1#2 CD Science_&_Mathematics TOKEN
0.5 2:0 3:3 4:1 5:0 7:0 73:1 7172:1 # 20140613182418AAAZN2I WWE NNP Sports ORGANIZATION
0.5 2:0 3:3 4:1 5:0 7:0 73:1 3539:1 # 20140614134845AAVhWeg AMD NNP Consumer_Electronics ORGANIZATION
0.5 2:0 3:3 4:1 5:0 7:0 73:1 4154:1 # 20140607141649AANF6Tv MSI NNP Consumer_Electronics ORGANIZATION
0.5 2:0 3:4 4:0 5:1 7:0 8:1 194:1 # 20140605040256AAru12G time NN Entertainment_&_Music PERSON
0.5 2:0 3:4 4:0 5:1 7:0 8:1 14958:1 # 20140622080843AAfcL4m demi NN Pets PERSON
0.5 2:0 3:4 4:0 5:1 7:0 8:1 9454:1 # 20140623022611AAddTaJ kurt NN Sports PERSON
-0.49941058063265719724199698248412 2:0 3:3 4:1 5:0 7:0 73:1 3539:1 # 20140601072000AABRvpX AMD NNP Games_&_Recreation TOKEN
-0.49987561143389669382486317772418 2:0 3:3 4:1 5:0 7:0 73:1 7172:1 # 20140605104442AAFzzy2 WWE NNP Sports TOKEN
-0.5 2:0 3:4 4:0 5:1 7:0 8:1 1077:1 # 20140603020037AAlyzyA land NN Travel TOKEN
-0.02301184922359356122001372568775 2:0 3:2 4:0 5:1 7:0 8:1 712:1 # 20140622225954AAAlKMt de NN Local_Businesses TOKEN
-0.022877840225267842555467723286711 2:0 3:2 4:0 5:1 7:0 8:1 13000:1 # 20140622225954AAAlKMt tu NN Local_Businesses TOKEN
-0.022908502762521987250465826946311 2:0 3:2 4:0 5:1 7:0 8:1 13095:1 # 20140620035947AAeYEbM sc NN Local_Businesses TOKEN
-0.074901290101815565236620386713184 2:0 3:14 4:1 5:0 7:0 73:1 15097:1 # 20140617015321AAEmy38 ROL_2014_03_24 NNP Politics_&_Government TOKEN
0.5 2:0 3:6 4:0 5:0 7:0 73:1 4145:1 # 20140607141649AANF6Tv NVidia NNP Consumer_Electronics ORGANIZATION
-0.26192013903923866413592236312979 2:0 3:4 4:0 5:0 7:1 73:1 1908:1 # 20140613214814AARwXS4 Hope NNP Local_Businesses TOKEN
0.5 2:0 3:10 4:0 5:0 7:0 73:1 12866:1 # 20140613214814AARwXS4 Winn-Dixie NNP Local_Businesses ORGANIZATION
-0.5 2:1 3:9 4:0 5:0 7:0 73:1 7069:1 # 20140610162943AA8McBJ McDonalds NNP Games_&_Recreation TOKEN
-0.17569144872755704245292918130872 2:0 3:1 4:0 5:0 7:0 73:1 666:1 # 20140617015321AAEmy38 6 NNP Politics_&_Government TOKEN
-0.17569144872754866026909326137684 2:0 3:1 4:0 5:0 7:0 73:1 352:1 # 20140612233414AAbNPKy : NNP Family_&_Relationships TOKEN
0.5 2:0 3:4 4:0 5:1 7:0 8:1 1077:1 # 20140616143448AAdU6Ze land NN Dining_Out ORGANIZATION
0.5 2:0 3:4 4:0 5:1 7:0 8:1 19455:1 # 20140610080957AAEwFfP andy NN Yahoo!_Products PERSON
-0.49659280918401427218356047887937 2:0 3:4 4:0 5:1 7:0 8:1 194:1 # 20140616030742AAiRtlk time NN Local_Businesses TOKEN
-0.023049551111252120083605632316903 2:0 3:2 4:0 5:1 7:0 8:1 4212:1 # 20140613123024AAkX1Tt a. NN Education_&_Reference TOKEN
-0.023005441212585964194659027270973 2:0 3:2 4:0 5:1 7:0 8:1 12919:1 # 20140622225954AAAlKMt vẻ NN Local_Businesses TOKEN
-0.02304860378649076224633063247893 2:0 3:2 4:0 5:1 7:0 8:1 7844:1 # 20140605092633AAPkbBp p. NN Science_&_Mathematics TOKEN
-0.023043671773718799045127525459975 2:0 3:2 4:0 5:1 7:0 8:1 7537:1 # 20140623023853AA1SoFR dx NN Science_&_Mathematics TOKEN
-0.021791386472656881778675597161055 2:0 3:2 4:0 5:1 7:0 8:1 15300:1 # 20140618090750AAlViol xx NN Pregnancy_&_Parenting TOKEN
0.5 2:0 3:3 4:1 5:0 7:0 73:1 3927:1 # 20140619113940AAko4f7 HTC NNP Entertainment_&_Music ORGANIZATION
0.5 2:0 3:3 4:1 5:0 7:0 73:1 3953:1 # 20140603005221AAThPnj ZET NNP Consumer_Electronics ORGANIZATION
0.5 2:0 3:3 4:1 5:0 7:0 73:1 11339:1 # 20140616143448AAdU6Ze KFC NNP Dining_Out ORGANIZATION
0.5 2:0 3:3 4:1 5:0 7:0 73:1 15694:1 # 20140614170630AA1o9BQ CIA NNP Politics_&_Government ORGANIZATION
-0.0069234232351564894969442320871167 2:0 3:6 4:0 5:0 7:1 88:1 3921:1 # 20140603005221AAThPnj Decide VB Consumer_Electronics TOKEN
-0.018898525475230520953573432052508 2:0 3:4 4:0 5:1 7:0 8:1 2329:1 # 20140616141615AA44wGc note NN Family_&_Relationships TOKEN
-0.0020311328130099282063270038634073 2:0 3:5 4:0 5:0 7:0 8:1 3062:1 # 20140611204210AAPJj1y عربية NN Business_&_Finance TOKEN
0.5 2:0 3:4 4:0 5:0 7:0 8:1 3200:1 # 20140617164637AAddgz5 eBay NN Local_Businesses ORGANIZATION
-0.17843747106242349720339745999809 2:1 3:9 4:0 5:0 7:1 73:1 10548:1 # 20140608182325AAmvy1Q Illionois NNP Cars_&_Transportation TOKEN
-0.17569144872754782760182479250943 2:0 3:1 4:0 5:0 7:0 73:1 3524:1 # 20140614134845AAVhWeg • NNP Consumer_Electronics TOKEN
-0.17542768511995598945674146307283 2:0 3:1 4:0 5:0 7:0 73:1 636:1 # 20140608132523AAWfvBH 1 NNP Computer_&_Internet TOKEN
-0.17473730966870060221651783649577 2:0 3:1 4:0 5:0 7:0 73:1 639:1 # 20140601043856AAIunch 2 NNP Science_&_Mathematics TOKEN
-0.5 2:0 3:10 4:0 5:0 7:1 73:1 4198:1 # 20140613123024AAkX1Tt Statistics NNP Education_&_Reference TOKEN
0.5 2:0 3:3 4:0 5:1 7:0 8:1 14450:1 # 20140617191218AAiEBHA fox NN News_&_Events ORGANIZATION
-0.031441201106531480036210268735886 2:0 3:1 4:1 5:0 7:1 8:1 3174:1 # 20140620120056AAFGiXk X NN Yahoo!_Products TOKEN
0.5 2:1 3:12 4:0 5:0 7:0 73:1 814:1 # 20140617074422AANUT7h Jean-Jacques NNP Arts_&_Humanities PERSON
-0.18506138416832140780599047502619 2:1 3:6 4:0 5:0 7:1 73:1 11700:1 # 20140620063230AAXLo9n Drinks NNP Food_&_Drink TOKEN
-0.25175144718825492873293114826083 2:0 3:9 4:0 5:0 7:1 73:1 1452:1 # 20140605223141AA4aNVu Leviathan NNP Arts_&_Humanities TOKEN
-0.013295089948451410677421336004045 2:0 3:1 4:0 5:0 7:0 8:1 7410:1 # 20140605092633AAPkbBp ² NN Science_&_Mathematics TOKEN
-0.19424822204174302386903150363651 2:0 3:1 4:1 5:0 7:1 17:1 73:1 # 20140603115526AAQmGXN I NNP Cars_&_Transportation TOKEN
-0.013965728829695045476455561583862 2:0 3:1 4:0 5:0 7:0 8:1 6911:1 # 20140611144551AAguC6x \ NN Games_&_Recreation TOKEN
-0.5 2:0 3:4 4:0 5:1 7:0 73:1 1077:1 # 20140608151316AAZv17m land NNP Travel TOKEN
0.5 2:0 3:11 4:0 5:0 7:0 73:1 11315:1 # 20140616143448AAdU6Ze Chick-fil-A NNP Dining_Out ORGANIZATION
-0.01694642553603176171606037314632 2:1 3:10 4:0 5:0 7:1 20:1 10431:1 # 20140611123045AAMKOWz Increasing VBG Pets TOKEN
-0.0013738451664995210421693627722561 2:0 3:2 4:0 5:1 7:0 204:1 10658:1 # 20140608055758AAOvsJ1 mm CD Cars_&_Transportation TOKEN
-0.26198288862912688657047510787379 2:0 3:4 4:0 5:0 7:1 73:1 15720:1 # 20140608113007AAoVpt8 Word NNP Politics_&_Government TOKEN
0.5 2:0 3:3 4:1 5:0 7:0 73:1 3933:1 # 20140603005221AAThPnj ZTE NNP Consumer_Electronics ORGANIZATION
0.5 2:0 3:3 4:1 5:0 7:0 73:1 14320:1 # 20140606223938AAjsrL7 NFC NNP News_&_Events ORGANIZATION
0.5 2:0 3:3 4:1 5:0 7:0 73:1 4270:1 # 20140604083714AANM1Br UNC NNP Education_&_Reference ORGANIZATION
0.5 2:0 3:4 4:1 5:0 7:0 73:1 5654:1 # 20140622140805AAtjqJa U.S. NNP Cars_&_Transportation ORGANIZATION
-0.19218389288922765878453446930507 2:0 3:1 4:1 5:0 7:1 73:1 446:1 # 20140622013948AAZujJH V NNP Science_&_Mathematics TOKEN
-0.5 2:0 3:4 4:1 5:0 7:0 73:1 5654:1 # 20140617203723AAnMv8x U.S. NNP Politics_&_Government TOKEN
-0.06470944785398824450339816394262 2:1 3:11 4:0 5:0 7:1 61:1 14038:1 # 20140601100338AAUfBLz Northerners NNPS News_&_Events TOKEN
-0.02321335519089728904873481951654 2:1 3:7 4:0 5:0 7:1 20:1 7332:1 # 20140625054715AAcJnX8 Failing VBG Games_&_Recreation TOKEN
-0.075022600191989141649173689074814 2:0 3:14 4:1 5:0 7:0 73:1 15096:1 # 20140617015321AAEmy38 ROL_2014_01_06 NNP Politics_&_Government TOKEN
-0.046480676511862384359119459986687 2:1 3:28 4:0 5:0 7:0 73:1 7224:1 # 20140613202053AAONeF7 Electric#Flying#Dragon-thing NNP Games_&_Recreation TOKEN
-0.16479885988623410586484396844753 2:0 3:6 4:0 5:0 7:0 73:1 7302:1 # 20140606094406AAvjkJW OpenGL NNP Games_&_Recreation TOKEN
0.5 2:0 3:2 4:0 5:0 7:1 30:1 2509:1 # 20140605040256AAru12G At IN Entertainment_&_Music PERSON
0.5 2:0 3:2 4:0 5:1 7:0 8:1 5994:1 # 20140621045509AAck6mP uk NN News_&_Events LOCATION
0.5 2:0 3:6 4:0 5:0 7:1 73:1 9048:1 # 20140605104442AAFzzy2 Daniel NNP Sports PERSON
0.5 2:0 3:3 4:1 5:0 7:0 73:1 7172:1 # 20140613182418AAAZN2I WWE NNP Sports ORGANIZATION
0.5 2:0 3:3 4:1 5:0 7:0 73:1 3539:1 # 20140614134845AAVhWeg AMD NNP Consumer_Electronics ORGANIZATION
-0.20955525133922225933247318607755 2:0 3:3 4:1 5:0 7:0 73:1 7172:1 # 20140621171642AATfemJ WWE NNP Games_&_Recreation TOKEN
-0.071794348168748634009261877508834 2:1 3:16 4:0 5:0 7:0 73:1 19236:1 # 20140601140351AAMxHZD Hearing#thinking NNP Pregnancy_&_Parenting TOKEN
-0.16623393061829228045667150581721 2:1 3:15 4:0 5:0 7:1 73:1 19388:1 # 20140606090914AA45noC Troubleshooting NNP Yahoo!_Products TOKEN
0.49999864258957948948136618128046 2:0 3:2 4:0 5:0 7:1 73:1 12930:1 # 20140614113251AA3Y1WB Mr NNP News_&_Events PERSON
-0.18549766973594827845772670116276 2:0 3:1 4:0 5:1 7:0 73:1 896:1 # 20140615210245AAjCZ2q u NNP Consumer_Electronics TOKEN
-0.022976938864895046776837261859328 2:0 3:2 4:0 5:1 7:0 8:1 13299:1 # 20140611185044AABR6jn gf NN Family_&_Relationships TOKEN
-0.021896503566132707874203333631158 2:0 3:2 4:0 5:1 7:0 8:1 11733:1 # 20140620063230AAXLo9n dj NN Food_&_Drink TOKEN
-0.01854225319677760275283162627602 2:0 3:2 4:0 5:1 7:0 8:1 3145:1 # 20140601131055AAPxhOP ie NN Business_&_Finance TOKEN
-0.073878391218391570305357163306326 2:1 3:15 4:0 5:0 7:0 73:1 11288:1 # 20140615191331AAdpnmg Fillet-o-Fishes NNP Dining_Out TOKEN
0.5 2:0 3:2 4:0 5:0 7:1 30:1 2509:1 # 20140605040256AAru12G At IN Entertainment_&_Music PERSON
-0.076016664418482093878992600366473 2:1 3:14 4:0 5:0 7:0 73:1 8664:1 # 20140613083238AAZnREA Nuts-Destroyed NNP Beauty_&_Style TOKEN
0.5 2:0 3:3 4:0 5:0 7:1 73:1 9156:1 # 20140615215028AAGmoaM Gio NNP Sports PERSON
-0.19474961442012328483031069481513 2:0 3:1 4:1 5:0 7:1 73:1 1278:1 # 20140601094337AAbsB6Z B NNP Politics_&_Government TOKEN
-0.24848482668053928357210224930895 2:0 3:10 4:0 5:0 7:1 73:1 9078:1 # 20140620105746AAnOLsk Billennium NNP Sports TOKEN
0.5 2:1 3:9 4:0 5:0 7:0 73:1 7069:1 # 20140613111207AAD5YgE McDonalds NNP Dining_Out ORGANIZATION
-0.062396814667079247840320022078231 2:1 3:12 4:0 5:0 7:1 61:1 15700:1 # 20140614170630AA1o9BQ Palestinians NNPS Politics_&_Government TOKEN
-0.18244133598255718453629015129991 2:0 3:3 4:0 5:1 7:0 73:1 599:1 # 20140605094015AALUoSd lot NNP Consumer_Electronics TOKEN
0.5 2:0 3:3 4:0 5:1 7:0 8:1 11396:1 # 20140616143448AAdU6Ze hut NN Dining_Out ORGANIZATION
0.5 2:1 3:9 4:0 5:0 7:1 73:1 12377:1 # 20140601134625AAPRFLP Walgreens NNP Home_&_Garden ORGANIZATION
0.5 2:1 3:9 4:0 5:0 7:1 73:1 11307:1 # 20140616143448AAdU6Ze Bojangles NNP Dining_Out ORGANIZATION
-0.18448770530030333958393384818919 2:0 3:2 4:0 5:1 7:0 73:1 12958:1 # 20140622225954AAAlKMt da NNP Local_Businesses TOKEN
-0.19304187516757131959366233786568 2:0 3:1 4:1 5:0 7:1 73:1 429:1 # 20140609103348AAf8tZ6 A NNP News_&_Events TOKEN
-0.19151558807746404955452135254745 2:0 3:1 4:1 5:0 7:1 73:1 4291:1 # 20140612212350AAeLl07 U NNP Family_&_Relationships TOKEN
-0.18446259741338444371194782434031 2:0 3:2 4:0 5:1 7:0 73:1 416:1 # 20140611153520AAksgjY so NNP Computer_&_Internet TOKEN
-0.17620910635852571335391303364304 2:0 3:6 4:0 5:1 7:0 73:1 8079:1 # 20140601043856AAIunch g#mole NNP Science_&_Mathematics TOKEN
0.5 2:0 3:4 4:0 5:1 7:0 8:1 8143:1 # 20140612211617AAE6Bis iraq NN News_&_Events LOCATION
0.5 2:0 3:4 4:0 5:1 7:0 8:1 4391:1 # 20140619105821AAuioIb kean NN Education_&_Reference ORGANIZATION
0.5 2:0 3:3 4:0 5:0 7:1 73:1 5559:1 # 20140618141409AA9yzif Ray NNP Entertainment_&_Music PERSON
0.5 2:0 3:3 4:0 5:0 7:1 73:1 9458:1 # 20140623022611AAddTaJ Jon NNP Sports PERSON
0.5 2:0 3:3 4:0 5:0 7:1 73:1 2656:1 # 20140620214550AA74tKP New NNP News_&_Events LOCATION
0.5 2:0 3:3 4:0 5:0 7:1 73:1 5166:1 # 20140614004826AAWj9IB May NNP Entertainment_&_Music PERSON
0.5 2:0 3:3 4:0 5:0 7:1 73:1 8845:1 # 20140614131358AALx1CD Sam NNP Beauty_&_Style PERSON
-0.5 2:0 3:3 4:0 5:0 7:1 73:1 5166:1 # 20140617094029AAZ1FwJ May NNP Family_&_Relationships TOKEN
-0.5 2:0 3:3 4:0 5:0 7:1 73:1 2656:1 # 20140604083714AANM1Br New NNP Education_&_Reference TOKEN
-0.021894945711828484036232111975551 2:0 3:2 4:0 5:1 7:0 8:1 12393:1 # 20140608232829AAA2063 ft NN Home_&_Garden TOKEN
-0.022906267898887611167424438463058 2:0 3:2 4:0 5:1 7:0 8:1 7742:1 # 20140605081144AAuazx4 r5 NN Science_&_Mathematics TOKEN
-0.02302998614379703212762251496315 2:0 3:2 4:0 5:1 7:0 8:1 4133:1 # 20140607141649AANF6Tv i5 NN Consumer_Electronics TOKEN
-0.022733199607127718699928209389327 2:0 3:2 4:0 5:1 7:0 8:1 747:1 # 20140606112307AAHpG1a zj NN Arts_&_Humanities TOKEN
-0.023043671773709029082510824082419 2:0 3:2 4:0 5:1 7:0 8:1 8566:1 # 20140623230739AA9pP9C ad NN News_&_Events TOKEN
-0.021129847850989147417521962779574 2:1 3:8 4:0 5:0 7:1 20:1 9055:1 # 20140605104442AAFzzy2 Standing VBG Sports TOKEN
-0.5 2:0 3:3 4:0 5:0 7:1 73:1 5166:1 # 20140608132523AAWfvBH May NNP Computer_&_Internet TOKEN
-0.019047009240209744618255172099452 2:1 3:9 4:0 5:0 7:1 20:1 7665:1 # 20140605092633AAPkbBp Expanding VBG Science_&_Mathematics TOKEN
-0.09174050887816820321063460141886 2:0 3:6 4:1 5:0 7:0 73:1 7097:1 # 20140610162943AA8McBJ CD#DVD NNP Games_&_Recreation TOKEN
-0.039686344819804264538731786160497 2:0 3:5 4:0 5:0 7:1 24:1 2949:1 # 20140603020037AAlyzyA These DT Travel TOKEN
-0.090841865516227027210760525122168 2:0 3:6 4:1 5:0 7:0 73:1 3863:1 # 20140610102038AAX5RlB PLEASE NNP Pets TOKEN
0.5 2:0 3:3 4:1 5:0 7:0 73:1 7172:1 # 20140613182418AAAZN2I WWE NNP Sports ORGANIZATION
-0.18235616140730570577943581156433 2:0 3:3 4:0 5:1 7:0 73:1 292:1 # 20140618125641AAGkGpi out NNP Education_&_Reference TOKEN
-0.5 2:0 3:3 4:0 5:1 7:0 25:1 73:1 # 20140609122525AAYu0rC the NNP Travel TOKEN
-0.18246039739621888742249211645685 2:0 3:3 4:0 5:1 7:0 73:1 12979:1 # 20140622225954AAAlKMt pha NNP Local_Businesses TOKEN
0.5 2:0 3:4 4:1 5:0 7:0 73:1 5654:1 # 20140606075218AAmnm1s U.S. NNP Entertainment_&_Music LOCATION
-0.3886695657018099936408361827489 2:0 3:3 4:1 5:0 7:0 73:1 7172:1 # 20140623022611AAddTaJ WWE NNP Sports TOKEN
-0.10020740280446127634661479532951 2:0 3:2 4:1 5:0 7:0 73:1 9406:1 # 20140614220006AA90c02 NM NNP Sports TOKEN
-0.18912583544078315211933727368887 2:1 3:4 4:0 5:0 7:1 73:1 13978:1 # 20140610123048AAZOuhW Libs NNP Politics_&_Government TOKEN
-0.12540509459616835941098145212891 2:1 3:8 4:0 5:0 7:1 73:1 13374:1 # 20140605190919AAVV44J Congrats NNP Family_&_Relationships TOKEN
-0.26219808829238022696017651469447 2:0 3:4 4:0 5:0 7:1 73:1 9310:1 # 20140626152929AAvb2mt Wolf NNP Sports TOKEN
-0.10005097414668351341049401526107 2:0 3:2 4:1 5:0 7:0 73:1 6973:1 # 20140616120632AA6Yeah AA NNP Sports TOKEN
-0.5 2:0 3:3 4:0 5:1 7:0 32:1 73:1 # 20140605102530AA17S7s and NNP Dining_Out TOKEN
0.5 2:0 3:3 4:0 5:1 7:0 32:1 73:1 # 20140616143448AAdU6Ze and NNP Dining_Out ORGANIZATION
-0.016543162059770466498775931540877 2:0 3:5 4:0 5:1 7:0 8:1 2504:1 # 20140616153138AASJ97g candy NN Business_&_Finance TOKEN
-0.073623454894394535497070819474175 2:0 3:3 4:0 5:0 7:1 16:1 437:1 # 20140611204210AAPJj1y You PRP Business_&_Finance TOKEN
0.5 2:0 3:4 4:0 5:0 7:1 73:1 15779:1 # 20140611151627AAmAEbQ Dick NNP Politics_&_Government PERSON
-0.24960373438383953725860919803381 2:0 3:10 4:0 5:0 7:1 73:1 14843:1 # 20140615103833AAIK4wa Miaaaoooww NNP Pets TOKEN
-0.26427535580366168233013013377786 2:0 3:3 4:0 5:0 7:1 73:1 12382:1 # 20140601134625AAPRFLP Rub NNP Home_&_Garden TOKEN
-0.26420846119578644817238455289043 2:0 3:3 4:0 5:0 7:1 73:1 10630:1 # 20140603135339AAL5mDP Thx NNP Cars_&_Transportation TOKEN
-0.26345957745497727842121093999594 2:0 3:3 4:0 5:0 7:1 73:1 2459:1 # 20140614113251AA3Y1WB God NNP News_&_Events TOKEN
-0.26249449049984541204594279406592 2:0 3:3 4:0 5:0 7:1 73:1 6989:1 # 20140625193758AANDcbj Lvl NNP Games_&_Recreation TOKEN
-0.18233634347296634459212327783462 2:0 3:3 4:0 5:1 7:0 73:1 4242:1 # 20140609063130AAx8NAT 3rd NNP Computer_&_Internet TOKEN
-0.004324246868058878590090898796916 2:0 3:8 4:0 5:1 7:0 20:1 8683:1 # 20140613083238AAZnREA trollish VBG Beauty_&_Style TOKEN
-0.011679414940255483656983415130526 2:0 3:8 4:0 5:1 7:0 20:1 15254:1 # 20140605231104AAm8fzJ togather VBG Politics_&_Government TOKEN
-0.016646505103867781372173340059817 2:0 3:5 4:0 5:1 7:0 8:1 19427:1 # 20140605185213AAgsKy3 cyber NN Yahoo!_Products TOKEN
-0.26429053528076540402480532065965 2:0 3:3 4:0 5:0 7:1 73:1 2579:1 # 20140618201815AAmO6f1 Sun NNP Science_&_Mathematics TOKEN
-0.26420017727210698410544864600524 2:0 3:3 4:0 5:0 7:1 73:1 15474:1 # 20140617193722AA5emAo Key NNP Politics_&_Government TOKEN
-0.26428963376626857240125900716521 2:0 3:3 4:0 5:0 7:1 73:1 14659:1 # 20140622163515AA7A77e Yep NNP Travel TOKEN
-0.26428860131433484781382503570057 2:0 3:3 4:0 5:0 7:1 73:1 5924:1 # 20140610164612AA5SkqL Eat NNP Health TOKEN
-0.26265382399316727912719215964898 2:0 3:3 4:0 5:0 7:1 73:1 12095:1 # 20140619114039AAjxNQW Law NNP Food_&_Drink TOKEN
-0.26429053528091983604753067993443 2:0 3:3 4:0 5:0 7:1 73:1 3854:1 # 20140610222206AAaaj3T Run NNP News_&_Events TOKEN
-0.26416786428382477147636109293671 2:0 3:3 4:0 5:0 7:1 73:1 14435:1 # 20140617191218AAiEBHA Fox NNP News_&_Events TOKEN
-0.26428139537520323187891335692257 2:0 3:3 4:0 5:0 7:1 73:1 5432:1 # 20140609221937AAH7tge Don NNP Travel TOKEN
-0.26425213091545218802025374316145 2:0 3:3 4:0 5:0 7:1 73:1 19143:1 # 20140608155422AAGg2Wt Soi NNP Pregnancy_&_Parenting TOKEN
-0.26411649763150002456768561387435 2:0 3:3 4:0 5:0 7:1 73:1 1896:1 # 20140605091638AATCTbo Too NNP Arts_&_Humanities TOKEN
-0.26411259336625780846929956169333 2:0 3:3 4:0 5:0 7:1 73:1 11690:1 # 20140625175128AAldtwC Red NNP Food_&_Drink TOKEN
-0.2642463100944603127118170959875 2:0 3:3 4:0 5:0 7:1 73:1 7485:1 # 20140618024923AAR6gIm Age NNP Science_&_Mathematics TOKEN
-0.26423880356094614496598182995513 2:0 3:3 4:0 5:0 7:1 41:1 73:1 # 20140622223032AAkvyyd Now NNP Games_&_Recreation TOKEN
-0.26428963376627034875809840741567 2:0 3:3 4:0 5:0 7:1 73:1 13158:1 # 20140610040156AAtbQ4M Sry NNP Local_Businesses TOKEN
-0.26322759078807234089936173404567 2:0 3:3 4:0 5:0 7:1 73:1 8245:1 # 20140622013948AAZujJH Ohm NNP Science_&_Mathematics TOKEN
0.5 2:0 3:7 4:0 5:1 7:0 8:1 3646:1 # 20140615060824AA0aRHm youtube NN Computer_&_Internet ORGANIZATION
-0.10265257622774698331724607669457 2:0 3:3 4:0 5:0 7:1 8:1 13198:1 # 20140625034559AAH3Auf Bag NN Family_&_Relationships TOKEN
-0.10266258094345381834955333033577 2:0 3:3 4:0 5:0 7:1 8:1 5207:1 # 20140605200359AAgJgxT Cry NN Pregnancy_&_Parenting TOKEN
-0.10265316141353686418824509019032 2:0 3:3 4:0 5:0 7:1 8:1 12409:1 # 20140601151243AAGeO0l Bed NN Home_&_Garden TOKEN
-0.10265316141354219325876329094172 2:0 3:3 4:0 5:0 7:1 8:1 4013:1 # 20140617183415AA9ok49 Mod NN Consumer_Electronics TOKEN
-0.24544435661996288899899809621274 2:0 3:12 4:0 5:0 7:1 73:1 4455:1 # 20140610062626AA46ms6 Christianity NNP Education_&_Reference TOKEN
-0.10265257622774576207191898902238 2:0 3:3 4:0 5:0 7:1 8:1 5263:1 # 20140614004826AAWj9IB Man NN Entertainment_&_Music TOKEN
-0.18245790680164031272170177544467 2:0 3:3 4:0 5:1 7:0 73:1 357:1 # 20140607071218AAzGtJH end NNP Family_&_Relationships TOKEN
-0.18238060964012631215425130903895 2:0 3:3 4:0 5:1 7:0 73:1 6202:1 # 20140608155422AAGg2Wt ive NNP Pregnancy_&_Parenting TOKEN
-0.18239598942391094249515504088777 2:0 3:3 4:0 5:1 7:0 73:1 5353:1 # 20140615004107AA0Il4W aka NNP Travel TOKEN
-0.080118470319114010180783225223422 2:1 3:12 4:0 5:0 7:0 73:1 7227:1 # 20140613202053AAONeF7 Dragon-types NNP Games_&_Recreation TOKEN
-0.1824100769705676583498643594794 2:0 3:3 4:0 5:1 7:0 73:1 4194:1 # 20140607141649AANF6Tv 15t NNP Consumer_Electronics TOKEN
-0.021818821817028322129772277548909 2:0 3:2 4:0 5:1 7:0 8:1 7159:1 # 20140625171643AAxjtac hd NN Computer_&_Internet TOKEN
-0.022906267898887500145121975947404 2:0 3:2 4:0 5:1 7:0 8:1 13275:1 # 20140621115845AAQL7uD rd NN Family_&_Relationships TOKEN
-0.18241007697056854652828405960463 2:0 3:3 4:0 5:1 7:0 73:1 93:1 # 20140603135339AAL5mDP for NNP Cars_&_Transportation TOKEN
-0.022991005805398756489665856861393 2:0 3:2 4:0 5:1 7:0 8:1 3748:1 # 20140602000015AAQvMYZ 5c NN Consumer_Electronics TOKEN
-0.17542768511993014901584331255435 2:0 3:1 4:0 5:0 7:0 39:1 73:1 # 20140604112329AAS36PD . NNP Dining_Out TOKEN
-0.023003264422019498169902362860739 2:0 3:2 4:0 5:1 7:0 8:1 13452:1 # 20140612212350AAeLl07 u. NN Family_&_Relationships TOKEN
-0.023011056823274891186548174459858 2:0 3:2 4:0 5:1 7:0 8:1 9124:1 # 20140626150225AAeTpqG tx NN Sports TOKEN
-0.023052186243788241881702560931444 2:0 3:2 4:0 5:1 7:0 8:1 12984:1 # 20140622225954AAAlKMt vi NN Local_Businesses TOKEN
-0.02271694451289185678888316033408 2:0 3:2 4:0 5:1 7:0 8:1 5040:1 # 20140606184121AAh0zjp ml NN Food_&_Drink TOKEN
0.5 2:0 3:2 4:1 5:0 7:0 73:1 4507:1 # 20140618125641AAGkGpi C. NNP Education_&_Reference PERSON
-0.10051694137956845853665299728164 2:0 3:4 4:0 5:0 7:1 8:1 1463:1 # 20140622124551AAdVqpC Name NN Local_Businesses TOKEN
-0.10040847439829114762233075452968 2:0 3:4 4:0 5:0 7:1 8:1 820:1 # 20140610062626AA46ms6 Help NN Education_&_Reference TOKEN
-0.10050028526984602916805044969806 2:0 3:4 4:0 5:0 7:1 8:1 2743:1 # 20140622140805AAtjqJa Make NN Cars_&_Transportation TOKEN
-0.017823937071986595270800535217859 2:0 3:4 4:0 5:1 7:0 8:1 2623:1 # 20140623125518AAtlQpd bill NN Dining_Out TOKEN
-0.016635656071568694081008743523853 2:0 3:5 4:0 5:1 7:0 8:1 2313:1 # 20140619231832AAFqTWm close NN Yahoo!_Products TOKEN
-0.016771470679678657234035199508071 2:0 3:5 4:0 5:1 7:0 8:1 11455:1 # 20140603215034AABtnxF vodka NN Dining_Out TOKEN
-0.18478246872537540390624144492904 2:1 3:6 4:0 5:0 7:1 73:1 13188:1 # 20140616160832AA467zb Asking NNP Family_&_Relationships TOKEN
-0.18488032674724497184115534764715 2:1 3:6 4:0 5:0 7:1 73:1 7915:1 # 20140612212350AAeLl07 Living NNP Family_&_Relationships TOKEN
-0.18557019327372425987476844966295 2:1 3:6 4:0 5:0 7:1 73:1 18607:1 # 20140611153520AAksgjY Extras NNP Computer_&_Internet TOKEN
-0.014493640071302493765870167408139 2:0 3:5 4:0 5:1 7:0 8:1 2851:1 # 20140613132938AABdKy8 state NN Politics_&_Government TOKEN
0.5 2:0 3:3 4:0 5:0 7:1 73:1 11343:1 # 20140616143448AAdU6Ze Lee NNP Dining_Out ORGANIZATION
0.5 2:0 3:3 4:0 5:0 7:1 73:1 9443:1 # 20140623022611AAddTaJ Mir NNP Sports PERSON
0.5 2:0 3:3 4:0 5:0 7:1 73:1 11351:1 # 20140616143448AAdU6Ze Moe NNP Dining_Out ORGANIZATION
-0.26400281359560651139872788917273 2:0 3:3 4:0 5:0 7:1 73:1 5166:1 # 20140620063230AAXLo9n May NNP Food_&_Drink TOKEN
-0.5 2:0 3:4 4:0 5:0 7:1 73:1 9488:1 # 20140603131218AA1t3hP Jack NNP Local_Businesses TOKEN
0.5 2:0 3:3 4:0 5:0 7:1 73:1 9209:1 # 20140623022611AAddTaJ Big NNP Sports PERSON
0.5 2:0 3:3 4:0 5:0 7:1 73:1 2656:1 # 20140617134810AAX61tb New NNP Travel LOCATION
0.5 2:0 3:3 4:0 5:0 7:1 73:1 5259:1 # 20140614004826AAWj9IB Nim NNP Entertainment_&_Music PERSON
-0.19425307887820364438624665126554 2:0 3:1 4:1 5:0 7:1 73:1 10193:1 # 20140603020037AAlyzyA M NNP Travel TOKEN
-0.18033333956471864212289801798761 2:0 3:4 4:0 5:1 7:0 73:1 426:1 # 20140601162630AAuDjDG &gt; NNP Sports TOKEN
0.5 2:0 3:3 4:0 5:0 7:1 73:1 11362:1 # 20140616143448AAdU6Ze Hut NNP Dining_Out ORGANIZATION
-0.10265316141353686418824509019032 2:0 3:3 4:0 5:0 7:1 8:1 7209:1 # 20140607104637AASvvKI Hmm NN News_&_Events TOKEN
-0.10020740280446038816819509520428 2:0 3:2 4:1 5:0 7:0 73:1 7623:1 # 20140618095228AAKVjIw C2 NNP Science_&_Mathematics TOKEN
-0.10030484247554902199617288260924 2:0 3:4 4:0 5:0 7:1 8:1 5229:1 # 20140614004826AAWj9IB Kind NN Entertainment_&_Music TOKEN
-0.10041969804627726148282818030566 2:0 3:4 4:0 5:0 7:1 8:1 5111:1 # 20140619113940AAko4f7 Note NN Entertainment_&_Music TOKEN
-0.10050028526984908228136816887854 2:0 3:4 4:0 5:0 7:1 8:1 681:1 # 20140623100602AAeUxIh Hand NN Arts_&_Humanities TOKEN
-0.099948751422981985115256975404918 2:0 3:4 4:0 5:0 7:1 8:1 1445:1 # 20140609160711AAprF2f Look NN Arts_&_Humanities TOKEN
-0.10021181509915777496644295752048 2:0 3:2 4:1 5:0 7:0 73:1 13669:1 # 20140610222206AAaaj3T QC NNP News_&_Events TOKEN
0.5 2:0 3:8 4:0 5:0 7:1 73:1 4058:1 # 20140606193910AApjpvz Oblivion NNP Consumer_Electronics LOCATION
-0.023011849223591784863174325437285 2:0 3:2 4:0 5:1 7:0 8:1 4215:1 # 20140622001343AA8tgia d. NN Science_&_Mathematics TOKEN
-0.021896503566129155160524533130229 2:0 3:2 4:0 5:1 7:0 8:1 3739:1 # 20140607110538AAO6Auo pc NN Computer_&_Internet TOKEN
-0.00032965851283517366709929774515331 2:0 3:7 4:0 5:1 7:0 8:1 982:1 # 20140616072209AARwehs context NN Arts_&_Humanities TOKEN
0.5 2:0 3:6 4:0 5:1 7:0 8:1 2071:1 # 20140625193136AAUePpR stoker NN Arts_&_Humanities PERSON
0.5 2:0 3:3 4:0 5:0 7:1 73:1 769:1 # 20140625193136AAUePpR Poe NNP Arts_&_Humanities PERSON
-0.18037803297483989695138006936759 2:0 3:4 4:0 5:1 7:0 73:1 164:1 # 20140618141257AAQm1bZ even NNP Arts_&_Humanities TOKEN
-0.18001598408190311317866871831939 2:0 3:4 4:0 5:1 7:0 73:1 11823:1 # 20140611152642AAd7nNQ tank NNP Pets TOKEN
-0.18028292393495215506504791846965 2:0 3:4 4:0 5:1 7:0 73:1 12999:1 # 20140622225954AAAlKMt dien NNP Local_Businesses TOKEN
-0.18027413422875404602763182992931 2:0 3:4 4:0 5:1 7:0 73:1 11862:1 # 20140619055300AA9BUOc 21st NNP Food_&_Drink TOKEN
0.5 2:0 3:4 4:0 5:0 7:1 73:1 9488:1 # 20140616143448AAdU6Ze Jack NNP Dining_Out ORGANIZATION
-0.018045670884985653970034036319703 2:0 3:4 4:0 5:0 7:1 24:1 4070:1 # 20140615131345AAW89pT Each DT News_&_Events TOKEN
-0.088734723135981824482243496277079 2:0 3:7 4:1 5:0 7:0 73:1 5146:1 # 20140619101954AAAy1Zi WHOEVER NNP Entertainment_&_Music TOKEN
-0.020980544957444724474271424696781 2:1 3:8 4:0 5:0 7:1 20:1 9407:1 # 20140611153858AAK05v1 Climbing VBG Sports TOKEN
-0.050737439187183985822571230528411 2:0 3:6 4:0 5:0 7:1 88:1 6523:1 # 20140605100701AAbVj3t Secure VB Health TOKEN
-0.018707790713731409226738833240233 2:0 3:4 4:0 5:1 7:0 8:1 11898:1 # 20140620102728AA6qqJ3 salt NN Food_&_Drink TOKEN
-0.088875091165295572182003525085747 2:0 3:7 4:1 5:0 7:0 73:1 8514:1 # 20140606094425AAJm5yJ POKEMON NNP Beauty_&_Style TOKEN
-0.079125824608276662530670364503749 2:0 3:12 4:1 5:0 7:0 73:1 15390:1 # 20140609170145AAsvd80 CO-INCIDENCE NNP Politics_&_Government TOKEN
-0.023227815106509286380287448992021 2:1 3:7 4:0 5:0 7:1 20:1 3754:1 # 20140615120927AAPeVv5 Getting VBG Sports TOKEN
-0.023213355190894624513475719140843 2:1 3:7 4:0 5:0 7:1 20:1 18284:1 # 20140603020037AAlyzyA Dealing VBG Travel TOKEN
0.5 2:0 3:4 4:0 5:0 7:1 73:1 3929:1 # 20140603005221AAThPnj Sony NNP Consumer_Electronics ORGANIZATION
0.5 2:0 3:4 4:0 5:0 7:1 73:1 13979:1 # 20140611151627AAmAEbQ Bush NNP Politics_&_Government PERSON
-0.5 2:0 3:4 4:0 5:0 7:1 73:1 13979:1 # 20140610123048AAZOuhW Bush NNP Politics_&_Government TOKEN
-0.26429053528090296065755637755501 2:0 3:3 4:0 5:0 7:1 73:1 9209:1 # 20140618180738AANfMh9 Big NNP Sports TOKEN
-0.26183456240654123803324182517827 2:0 3:3 4:0 5:0 7:1 73:1 10892:1 # 20140617092003AATWcQC Owe NNP Cars_&_Transportation TOKEN
-0.17981951486321756661368453933392 2:0 3:4 4:0 5:1 7:0 73:1 6195:1 # 20140603072418AAgZjcN &lt; NNP Science_&_Mathematics TOKEN
-0.18025444022293513057775271590799 2:0 3:4 4:0 5:1 7:0 73:1 931:1 # 20140606224612AAe7J4W site NNP Computer_&_Internet TOKEN
-0.18038194553469943937074049244984 2:0 3:4 4:0 5:1 7:0 73:1 1575:1 # 20140613124917AAp8Kiq free NNP Entertainment_&_Music TOKEN
-0.17989965481702277494413522163086 2:0 3:4 4:0 5:1 7:0 73:1 3990:1 # 20140615025730AAsJj6v code NNP Social_Science TOKEN
-0.18026649179615894524886243743822 2:0 3:4 4:0 5:1 7:0 73:1 225:1 # 20140626112013AAPPVIB book NNP Consumer_Electronics TOKEN
-0.5 2:0 3:3 4:0 5:0 7:1 73:1 2656:1 # 20140614220006AA90c02 New NNP Sports TOKEN
-0.26424631009445898044418754579965 2:0 3:3 4:0 5:0 7:1 73:1 11182:1 # 20140608075953AADKMro Pot NNP Dining_Out TOKEN
-0.26399103530926748550911042912048 2:0 3:3 4:0 5:0 7:1 73:1 11942:1 # 20140626031053AAyXCcP Ham NNP Food_&_Drink TOKEN
-0.020849219815359254504016917053377 2:0 3:3 4:0 5:1 7:0 8:1 5508:1 # 20140612085831AAz7B4T pop NN Home_&_Garden TOKEN
-0.020803625745332565699641236278694 2:0 3:3 4:0 5:1 7:0 8:1 10819:1 # 20140604163858AAhNFOq cap NN Cars_&_Transportation TOKEN
-0.020967503724120262198482578241965 2:0 3:3 4:0 5:1 7:0 8:1 557:1 # 20140606132641AA7YK9b any NN Yahoo!_Products TOKEN
-0.020956567180925311788541876012459 2:0 3:3 4:0 5:1 7:0 8:1 196:1 # 20140601115304AAcEyR8 not NN Social_Science TOKEN
-0.02304176820677739101483894046396 2:0 3:2 4:0 5:1 7:0 8:1 2808:1 # 20140610214206AAA5Std co NN Business_&_Finance TOKEN
-0.079633940767535160709655883692903 2:1 3:12 4:0 5:0 7:0 73:1 6610:1 # 20140612080629AAuyjlx Bloating#Gas NNP Health TOKEN
-0.10021708799389816846314715803601 2:0 3:2 4:1 5:0 7:0 73:1 19352:1 # 20140601160702AAOGVk4 IE NNP Yahoo!_Products TOKEN
0.5 2:0 3:3 4:0 5:0 7:1 73:1 12474:1 # 20140605130921AAXKqjH Xtx NNP Home_&_Garden PERSON
0.5 2:0 3:3 4:0 5:0 7:1 73:1 19261:1 # 20140625072412AAUASEG Hun NNP Yahoo!_Products PERSON
0.5 2:0 3:3 4:0 5:0 7:1 73:1 4312:1 # 20140619190906AAxXT6l San NNP Local_Businesses LOCATION
0.5 2:0 3:3 4:0 5:0 7:1 73:1 9306:1 # 20140626152929AAvb2mt Eck NNP Sports PERSON
-0.17811794948487791323543660837458 2:0 3:5 4:0 5:1 7:0 73:1 14888:1 # 20140611152642AAd7nNQ pleco NNP Pets TOKEN
-0.5 2:0 3:5 4:0 5:1 7:0 73:1 172:1 # 20140620105746AAnOLsk &amp; NNP Sports TOKEN
-0.033009473342547612784159127841122 2:0 3:1 4:1 5:0 7:1 8:1 10939:1 # 20140617194830AAHJTRC T NN Dining_Out TOKEN
0.5 2:0 3:3 4:0 5:0 7:1 73:1 2656:1 # 20140617134810AAX61tb New NNP Travel LOCATION
0.5 2:0 3:3 4:0 5:0 7:1 73:1 9136:1 # 20140601101734AAAYp2K Max NNP Dining_Out ORGANIZATION
-0.10009123044912993094612829736434 2:0 3:2 4:1 5:0 7:0 73:1 19280:1 # 20140604150349AA6PQh8 IB NNP Pregnancy_&_Parenting TOKEN
-0.099831679931920547232948592863977 2:0 3:2 4:1 5:0 7:0 73:1 18513:1 # 20140615060824AA0aRHm WP NNP Computer_&_Internet TOKEN
-0.10015080082284200102549220900983 2:0 3:2 4:1 5:0 7:0 73:1 346:1 # 20140608113007AAoVpt8 YA NNP Politics_&_Government TOKEN
-0.1777387527975859971007821513922 2:0 3:5 4:0 5:1 7:0 73:1 9642:1 # 20140618192549AAzYXYR larga NNP Social_Science TOKEN
-0.020962330002065154843648997484706 2:0 3:3 4:0 5:1 7:0 8:1 6977:1 # 20140616114406AAi0jDN loo NN Games_&_Recreation TOKEN
-0.020932598605146512937835723278113 2:0 3:3 4:0 5:1 7:0 8:1 18278:1 # 20140603020037AAlyzyA yep NN Travel TOKEN
-0.020877791654429156409378265379928 2:0 3:3 4:0 5:1 7:0 8:1 2792:1 # 20140613154011AAJ98M9 fix NN Politics_&_Government TOKEN
-0.10021708799389816846314715803601 2:0 3:2 4:1 5:0 7:0 73:1 9107:1 # 20140620105746AAnOLsk MK NNP Sports TOKEN
-0.10016440261448678050726357469102 2:0 3:2 4:1 5:0 7:0 73:1 4281:1 # 20140604083714AANM1Br MO NNP Education_&_Reference TOKEN
-0.091555106482611919860303828500037 2:0 3:3 4:0 5:0 7:1 33:1 300:1 # 20140605190919AAVV44J But CC Family_&_Relationships TOKEN
-0.18493425120997625255014895628847 2:1 3:6 4:0 5:0 7:1 73:1 11741:1 # 20140620063230AAXLo9n Spoons NNP Food_&_Drink TOKEN
-0.018312438863341218286961975536542 2:0 3:4 4:0 5:1 7:0 8:1 2350:1 # 20140618170211AA99yVG rate NN Science_&_Mathematics TOKEN
0.5 2:0 3:3 4:0 5:0 7:1 73:1 2148:1 # 20140609160711AAprF2f Kay NNP Arts_&_Humanities PERSON
-0.021629983024997599672101245005251 2:1 3:7 4:0 5:0 7:1 8:1 11571:1 # 20140610112505AAhGjYL Tipping NN Dining_Out TOKEN
-0.0216299830249989319397307951931 2:1 3:7 4:0 5:0 7:1 8:1 11014:1 # 20140617194830AAHJTRC Meaning NN Dining_Out TOKEN
-0.098081694116663120652788165898528 2:0 3:3 4:1 5:0 7:0 73:1 9158:1 # 20140615215028AAGmoaM HOU NNP Sports TOKEN
-0.24952864234519478436880035587819 2:0 3:10 4:0 5:0 7:1 73:1 7198:1 # 20140613202053AAONeF7 Chandelure NNP Games_&_Recreation TOKEN
-0.18453690728739746695907797402469 2:0 3:2 4:0 5:1 7:0 73:1 13121:1 # 20140620035947AAeYEbM op NNP Local_Businesses TOKEN
0.5 2:0 3:10 4:0 5:0 7:1 73:1 15558:1 # 20140623142217AAHjEJM Hicksville NNP Politics_&_Government LOCATION
0.5 2:0 3:10 4:0 5:0 7:1 73:1 8727:1 # 20140622131925AAtjtJJ Fabricland NNP Beauty_&_Style ORGANIZATION
-0.24858293246192886272183386608958 2:0 3:10 4:0 5:0 7:1 73:1 12773:1 # 20140615215502AAWIjLB Assistance NNP Local_Businesses TOKEN
-0.24961586416070247196330456063151 2:0 3:10 4:0 5:0 7:1 73:1 7616:1 # 20140618095228AAKVjIw Projectile NNP Science_&_Mathematics TOKEN
-0.24892536867670406186547893412353 2:0 3:10 4:0 5:0 7:1 73:1 14594:1 # 20140613073945AAjr9GV Ivermectin NNP Pets TOKEN
-0.2494755413147231593029573559761 2:0 3:10 4:0 5:0 7:1 73:1 14327:1 # 20140614113251AA3Y1WB Sisterhood NNP News_&_Events TOKEN
0.5 2:0 3:7 4:0 5:1 7:0 8:1 2520:1 # 20140626223207AABdv8w khalifa NN Business_&_Finance PERSON
0.5 2:0 3:8 4:0 5:1 7:0 8:1 8911:1 # 20140615190410AAmWDg3 @rolando NN Sports PERSON
0.5 2:0 3:9 4:0 5:1 7:0 8:1 4801:1 # 20140620191437AA9D0Nc australia NN Food_&_Drink LOCATION
-0.013965728829695045476455561583862 2:0 3:1 4:0 5:0 7:0 8:1 7689:1 # 20140618170211AA99yVG √ NN Science_&_Mathematics TOKEN
-0.013965728829695933654875261709094 2:0 3:1 4:0 5:0 7:0 8:1 1990:1 # 20140605081144AAuazx4 ^ NN Science_&_Mathematics TOKEN
-0.007134400046040732801255757067338 2:0 3:4 4:0 5:1 7:0 8:1 5517:1 # 20140617002506AAFEf5T hint NN Beauty_&_Style TOKEN
-0.5 2:0 3:3 4:0 5:0 7:1 73:1 9209:1 # 20140623072617AAIXida Big NNP Dining_Out TOKEN
-0.00052177832593969242225284688174725 2:0 3:90 4:0 5:1 7:0 73:1 15761:1 # 20140611151627AAmAEbQ https:##publicintelligence.net#usnato-troops-patrolling-opium-poppy-fields-in-afghanistan# NNP Politics_&_Government TOKEN
0.5 2:0 3:2 4:0 5:1 7:0 8:1 5994:1 # 20140621045509AAck6mP uk NN News_&_Events LOCATION
-0.10021646766054204125140358883073 2:0 3:4 4:0 5:0 7:1 8:1 4036:1 # 20140616073715AA0e9si Auto NN Cars_&_Transportation TOKEN
-0.10060248102885349652524382690899 2:0 3:4 4:0 5:0 7:1 8:1 11170:1 # 20140608075953AADKMro Beef NN Dining_Out TOKEN
-0.10029041218839224169911972239788 2:0 3:4 4:0 5:0 7:1 8:1 18640:1 # 20140625234425AA5mIb9 Scam NN Computer_&_Internet TOKEN
-0.0060254635945313772538156626978889 2:0 3:7 4:0 5:1 7:0 8:1 8319:1 # 20140605210007AAoMB1b remover NN Home_&_Garden TOKEN
-0.10051694137956734831362837212509 2:0 3:4 4:0 5:0 7:1 8:1 11695:1 # 20140618202204AAODcVd Date NN Food_&_Drink TOKEN
-0.014477778976094812790620380837936 2:0 3:5 4:0 5:1 7:0 43:1 273:1 # 20140607071218AAzGtJH agree VBP Family_&_Relationships TOKEN
-0.00067520162137452469867243687318137 2:0 3:11 4:0 5:1 7:0 8:1 4430:1 # 20140617015321AAEmy38 description NN Politics_&_Government TOKEN
-0.00016533729532497432046511676162481 2:0 3:5 4:0 5:0 7:0 8:1 9860:1 # 20140601100338AAUfBLz 40-50 NN News_&_Events TOKEN
