SVM-light Version V6.02
0 # kernel type
3 # kernel parameter -d 
1 # kernel parameter -g 
1 # kernel parameter -s 
1 # kernel parameter -r 
empty# kernel parameter -u 
19572 # highest feature index 
69010 # number of training documents 
7100 # number of support vectors plus 1 
1.0602161 # threshold b, each following line is a SV (starting with alpha*y)
-0.017840566579513848777249762633801 2:0 3:4 4:0 5:0 7:1 30:1 5344:1 # 20140613124917AAp8Kiq Over IN Entertainment_&_Music TOKEN
-0.2230354317710008249520114986808 2:1 3:4 4:0 5:0 7:1 73:1 1795:1 # 20140621012549AAOo4ve Arts NNP Arts_&_Humanities TOKEN
-0.049619893268853097756387882100171 2:1 3:5 4:1 5:0 7:0 73:1 19069:1 # 20140620170402AA0uGdu THATS NNP Pregnancy_&_Parenting TOKEN
-0.017789219425238478322626178851351 2:0 3:4 4:0 5:1 7:0 8:1 5611:1 # 20140601130859AAHxybZ shit NN Sports TOKEN
-0.020345634454916883271380356745794 2:0 3:3 4:0 5:1 7:0 8:1 236:1 # 20140608055758AAOvsJ1 use NN Cars_&_Transportation TOKEN
0.5 2:1 3:5 4:0 5:0 7:1 73:1 14128:1 # 20140605150717AAmRFk6 Soros NNP News_&_Events PERSON
0.5 2:0 3:3 4:0 5:0 7:1 73:1 2656:1 # 20140620214550AA74tKP New NNP News_&_Events LOCATION
0.5 2:0 3:12 4:0 5:1 7:0 26:1 3256:1 # 20140601093053AA6zdEg fakeiduk.com JJ Business_&_Finance ORGANIZATION
0.5 2:0 3:5 4:0 5:1 7:0 8:1 7374:1 # 20140606090914AA45noC yahoo NN Yahoo!_Products ORGANIZATION
0.5 2:0 3:4 4:0 5:0 7:1 73:1 1541:1 # 20140625095108AAhxBZ2 Paul NNP Arts_&_Humanities PERSON
0.5 2:1 3:6 4:0 5:1 7:0 8:1 5762:1 # 20140605140138AAyDVJY barros NN Entertainment_&_Music PERSON
0.5 2:0 3:2 4:0 5:1 7:0 8:1 13064:1 # 20140615091428AA1nGW3 st NN Local_Businesses LOCATION
-0.5 2:0 3:3 4:0 5:0 7:1 73:1 2656:1 # 20140604083714AANM1Br New NNP Education_&_Reference TOKEN
0.5 2:0 3:4 4:0 5:0 7:1 73:1 3011:1 # 20140611204210AAPJj1y Arun NNP Business_&_Finance PERSON
-0.22619699493936096246216038707644 2:1 3:2 4:0 5:0 7:1 73:1 247:1 # 20140608034752AAWHbyf Am NNP Arts_&_Humanities TOKEN
-0.22594409801556381012233032379299 2:1 3:2 4:0 5:0 7:1 73:1 6889:1 # 20140613230123AAy6rx7 Us NNP Games_&_Recreation TOKEN
0.5 2:0 3:7 4:0 5:1 7:0 43:1 8739:1 # 20140612145554AAjlhJX america VBP Beauty_&_Style LOCATION
0.5 2:0 3:7 4:0 5:1 7:0 88:1 12548:1 # 20140619063559AA2eks0 florida VB Home_&_Garden LOCATION
-0.22244764388343796213121095206589 2:1 3:4 4:0 5:0 7:1 73:1 6901:1 # 20140613230123AAy6rx7 Rent NNP Games_&_Recreation TOKEN
-0.072610023586637761905393517736229 2:0 3:1 4:1 5:0 7:1 8:1 445:1 # 20140618170211AA99yVG C NN Science_&_Mathematics TOKEN
-0.041830088106533769298778224765556 2:0 3:4 4:0 5:0 7:1 26:1 9852:1 # 20140623072617AAIXida True JJ Dining_Out TOKEN
-0.052846406066284684621692235850787 2:1 3:10 4:0 5:0 7:1 8:1 11631:1 # 20140604112329AAS36PD Gorgonzola NN Dining_Out TOKEN
0.5 2:1 3:4 4:0 5:0 7:1 12:1 8743:1 # 20140616143448AAdU6Ze Guys NNS Dining_Out ORGANIZATION
0.5 2:0 3:2 4:1 5:0 7:0 8:1 5530:1 # 20140617203632AANuG3B DC NN Entertainment_&_Music ORGANIZATION
-0.22300237294457936343405890511349 2:1 3:4 4:0 5:0 7:1 73:1 18310:1 # 20140622230045AAAI6WE Days NNP Travel TOKEN
0.47935688962135836188593884799047 2:0 3:7 4:0 5:1 7:0 20:1 3646:1 # 20140617015321AAEmy38 youtube VBG Politics_&_Government ORGANIZATION
-0.018976522111087745781077273932169 2:0 3:4 4:1 5:0 7:0 73:1 19340:1 # 20140608060520AAMzqLw AUTO NNP Yahoo!_Products TOKEN
-0.010827588115171010718640332015639 2:0 3:4 4:0 5:0 7:1 241:1 383:1 # 20140617015321AAEmy38 When WRB Politics_&_Government TOKEN
0.5 2:1 3:9 4:0 5:1 7:0 12:1 8260:1 # 20140611151627AAmAEbQ engineers NNS Politics_&_Government ORGANIZATION
0.5 2:0 3:2 4:1 5:0 7:0 73:1 11389:1 # 20140616143448AAdU6Ze DQ NNP Dining_Out ORGANIZATION
0.5 2:0 3:2 4:1 5:0 7:0 73:1 4300:1 # 20140604083714AANM1Br TX NNP Education_&_Reference LOCATION
-0.036578062151426338211024358315626 2:1 3:12 4:1 5:0 7:0 73:1 11931:1 # 20140626031053AAyXCcP ALTERNATIVES NNP Food_&_Drink TOKEN
-0.0084819632736014526075418729078592 2:0 3:5 4:0 5:0 7:1 88:1 8708:1 # 20140616230524AAedd2r Relax VB Beauty_&_Style TOKEN
-0.0061339202730330555368709610775113 2:0 3:6 4:0 5:0 7:1 88:1 5803:1 # 20140613023120AA7XyZ8 Choose VB Entertainment_&_Music TOKEN
0.5 2:1 3:6 4:1 5:0 7:0 73:1 3136:1 # 20140601131055AAPxhOP DALLAS NNP Business_&_Finance LOCATION
-0.085206593550307241358154897170607 2:0 3:5 4:0 5:0 7:1 204:1 5112:1 # 20140611175239AA5u6en Three CD Family_&_Relationships TOKEN
-0.071593340576113106976663402747363 2:1 3:5 4:0 5:0 7:1 20:1 5014:1 # 20140619114039AAjxNQW Being VBG Food_&_Drink TOKEN
0.5 2:1 3:6 4:0 5:0 7:1 61:1 12443:1 # 20140610174552AAptb2t States NNPS Local_Businesses LOCATION
-0.081357771786026766847044200403616 2:0 3:7 4:0 5:0 7:1 61:1 15285:1 # 20140625082631AAcgyMl Liberal NNPS Politics_&_Government TOKEN
-0.13210589202760558702465232272516 2:1 3:2 4:0 5:1 7:0 73:1 108:1 # 20140613111831AABRhzn is NNP News_&_Events TOKEN
-0.13182951085958860559799177281093 2:1 3:2 4:0 5:1 7:0 73:1 1285:1 # 20140614170630AA1o9BQ us NNP Politics_&_Government TOKEN
0.5 2:0 3:11 4:0 5:0 7:1 73:1 9108:1 # 20140614220006AA90c02 Springfield NNP Sports LOCATION
-0.13210125258963145711277320515364 2:1 3:2 4:0 5:1 7:0 73:1 8920:1 # 20140615215028AAGmoaM vs NNP Sports TOKEN
-0.5 2:0 3:2 4:0 5:0 7:1 30:1 2509:1 # 20140605153821AAI7Zn5 At IN Family_&_Relationships TOKEN
0.5 2:0 3:1 4:0 5:0 7:0 630:1 631:1 # 20140605034309AAV7PuK # # Consumer_Electronics PERSON
-0.11481045684782520410749384609517 2:0 3:3 4:0 5:0 7:1 8:1 13198:1 # 20140625034559AAH3Auf Bag NN Family_&_Relationships TOKEN
-0.15019968053922916340070514706895 2:0 3:1 4:0 5:0 7:0 73:1 3524:1 # 20140614134845AAVhWeg • NNP Consumer_Electronics TOKEN
-0.15028663363757033266665530391037 2:0 3:1 4:0 5:0 7:0 73:1 7755:1 # 20140620035536AASKdrI _ NNP Computer_&_Internet TOKEN
-0.15085631111558328587562982647796 2:0 3:1 4:0 5:0 7:0 73:1 639:1 # 20140618095228AAKVjIw 2 NNP Science_&_Mathematics TOKEN
-0.15050317581335306837964083115367 2:0 3:1 4:0 5:0 7:0 73:1 636:1 # 20140608132523AAWfvBH 1 NNP Computer_&_Internet TOKEN
-0.15028663363756322723929770290852 2:0 3:1 4:0 5:0 7:0 73:1 259:1 # 20140614154636AAYu9pP ! NNP Social_Science TOKEN
0.5 2:0 3:2 4:1 5:0 7:0 73:1 14378:1 # 20140613180332AA3jCxr AL NNP News_&_Events ORGANIZATION
0.5 2:0 3:2 4:1 5:0 7:0 73:1 3408:1 # 20140616063937AAhSsrT UK NNP Business_&_Finance LOCATION
-0.41596824097239676332193880625709 2:1 3:4 4:0 5:0 7:1 12:1 8743:1 # 20140612145554AAjlhJX Guys NNS Beauty_&_Style TOKEN
-0.5 2:1 3:2 4:1 5:0 7:0 73:1 2475:1 # 20140619105821AAuioIb US NNP Education_&_Reference TOKEN
-0.055748619727256809586179997495492 2:1 3:2 4:1 5:0 7:0 73:1 9777:1 # 20140608023935AA61Kab AM NNP Social_Science TOKEN
0.5 2:0 3:11 4:0 5:0 7:1 73:1 11382:1 # 20140616143448AAdU6Ze Whataburger NNP Dining_Out ORGANIZATION
-0.15028663363756677995297650340945 2:0 3:1 4:0 5:0 7:0 73:1 659:1 # 20140603072418AAgZjcN 5 NNP Science_&_Mathematics TOKEN
-0.024233088974914718249920042580925 2:0 3:1 4:0 5:0 7:0 39:1 73:1 # 20140614045845AAdu92x . NNP Computer_&_Internet TOKEN
-0.022523132132950138273308482439461 2:1 3:12 4:0 5:0 7:1 61:1 15700:1 # 20140614170630AA1o9BQ Palestinians NNPS Politics_&_Government TOKEN
0.5 2:0 3:11 4:0 5:1 7:0 8:1 9169:1 # 20140623155342AAYpGzf bridgestone NN Sports ORGANIZATION
-0.02402125435783086793151142046554 2:0 3:1 4:0 5:1 7:0 8:1 3471:1 # 20140615174740AA8MA6l t NN Cars_&_Transportation TOKEN
0.5 2:0 3:10 4:0 5:1 7:0 8:1 2204:1 # 20140614170630AA1o9BQ government NN Politics_&_Government ORGANIZATION
0.5 2:0 3:10 4:0 5:1 7:0 8:1 8927:1 # 20140615190410AAmWDg3 wristwatch NN Sports PERSON
-0.23168323973211690791629280283814 2:0 3:3 4:0 5:0 7:1 73:1 12613:1 # 20140609175346AAWw6PO Hot NNP Home_&_Garden TOKEN
0.5 2:1 3:3 4:1 5:0 7:0 73:1 14427:1 # 20140617191218AAiEBHA CBS NNP News_&_Events ORGANIZATION
-0.15019968053922561068702634656802 2:0 3:1 4:0 5:0 7:0 73:1 666:1 # 20140617015321AAEmy38 6 NNP Politics_&_Government TOKEN
-0.016546286098673590458929538726807 2:0 3:5 4:0 5:1 7:0 8:1 11413:1 # 20140623072617AAIXida patty NN Dining_Out TOKEN
-0.0037000556706548448637761339341523 2:0 3:7 4:0 5:1 7:0 8:1 7997:1 # 20140622085925AAdFLbE enthapy NN Science_&_Mathematics TOKEN
-0.0074781662880650801028536989178974 2:0 3:6 4:0 5:1 7:0 8:1 11007:1 # 20140616073715AA0e9si filler NN Cars_&_Transportation TOKEN
0.5 2:0 3:1 4:1 5:0 7:1 8:1 720:1 # 20140616143448AAdU6Ze D NN Dining_Out ORGANIZATION
0.5 2:0 3:7 4:0 5:0 7:1 73:1 11588:1 # 20140605102530AA17S7s Garland NNP Dining_Out PERSON
-0.072610023586637498227425169261551 2:0 3:1 4:1 5:0 7:1 8:1 7987:1 # 20140615171734AAd4Cuo Q NN Yahoo!_Products TOKEN
-0.072610023586636332493249312847183 2:0 3:1 4:1 5:0 7:1 8:1 10939:1 # 20140617194830AAHJTRC T NN Dining_Out TOKEN
-0.5 2:1 3:9 4:0 5:1 7:0 12:1 8260:1 # 20140608143112AAz8XEx engineers NNS Yahoo!_Products TOKEN
-0.059193452885777819716395242721774 2:0 3:4 4:1 5:0 7:0 73:1 3548:1 # 20140614134845AAVhWeg DDR3 NNP Consumer_Electronics TOKEN
0.5 2:1 3:2 4:1 5:0 7:0 16:1 2475:1 # 20140622210819AARJGLW US PRP Entertainment_&_Music LOCATION
-0.36259127032278470892379118595272 2:0 3:1 4:0 5:0 7:0 73:1 630:1 # 20140603072418AAgZjcN # NNP Science_&_Mathematics TOKEN
-0.11674246542679089788663304716465 2:0 3:2 4:0 5:0 7:1 8:1 664:1 # 20140626142532AAHm2Mx No NN Pets TOKEN
-0.1167424654258887306568226449599 2:0 3:2 4:0 5:0 7:1 8:1 13621:1 # 20140617094029AAZ1FwJ Id NN Family_&_Relationships TOKEN
-0.11495444454489955887765972875059 2:0 3:3 4:0 5:0 7:1 8:1 5263:1 # 20140614004826AAWj9IB Man NN Entertainment_&_Music TOKEN
-0.5 2:0 3:2 4:1 5:0 7:0 73:1 3408:1 # 20140608120927AA1JZcv UK NNP Travel TOKEN
-0.40478985985729831753587859566323 2:1 3:2 4:1 5:0 7:0 16:1 2475:1 # 20140603020037AAlyzyA US PRP Travel TOKEN
0.5 2:0 3:2 4:0 5:0 7:1 30:1 2509:1 # 20140605040256AAru12G At IN Entertainment_&_Music PERSON
-0.015827104268991393221099883703573 2:0 3:4 4:0 5:0 7:1 30:1 5429:1 # 20140620190356AAdnQme Upon IN Entertainment_&_Music TOKEN
-0.060881831953669252044392123934813 2:0 3:5 4:0 5:0 7:1 26:1 7036:1 # 20140625193758AANDcbj Toxic JJ Games_&_Recreation TOKEN
-0.0024654462434475776788644907355774 2:0 3:4 4:0 5:0 7:1 30:1 5429:1 # 20140620190356AAdnQme Upon IN Entertainment_&_Music TOKEN
-0.15019968053922738704386574681848 2:0 3:1 4:0 5:0 7:0 73:1 352:1 # 20140612233414AAbNPKy : NNP Family_&_Relationships TOKEN
-0.15028663363755612181194010190666 2:0 3:1 4:0 5:0 7:0 73:1 1052:1 # 20140603091614AAtZw6A ~ NNP Family_&_Relationships TOKEN
0.5 2:0 3:4 4:0 5:1 7:0 8:1 11101:1 # 20140613111207AAD5YgE gacy NN Dining_Out PERSON
0.074190042153830959570370850997278 2:0 3:3 4:0 5:0 7:1 73:1 4312:1 # 20140619190906AAxXT6l San NNP Local_Businesses LOCATION
-0.016490551488935523138934513553977 2:0 3:5 4:0 5:1 7:0 8:1 937:1 # 20140616072209AARwehs mercy NN Arts_&_Humanities TOKEN
-0.10016924584431946554374803781684 2:0 3:4 4:1 5:0 7:0 73:1 8450:1 # 20140612022126AAsUT1R HERE NNP Beauty_&_Style TOKEN
0.5 2:0 3:10 4:1 5:0 7:0 73:1 3568:1 # 20140614134845AAVhWeg CYBERPOWER NNP Consumer_Electronics ORGANIZATION
0.5 2:0 3:2 4:0 5:0 7:1 22:1 608:1 # 20140605040256AAru12G My PRP$ Entertainment_&_Music PERSON
-0.23195911629638255035956717620138 2:0 3:1 4:1 5:0 7:1 73:1 4291:1 # 20140616195748AA2BAj7 U NNP Social_Science TOKEN
-0.22490602545029991787828294036444 2:1 3:3 4:0 5:0 7:1 73:1 11237:1 # 20140610172137AA9hoaq Las NNP Dining_Out TOKEN
-0.2249538813257403457868122131913 2:1 3:3 4:0 5:0 7:1 73:1 15595:1 # 20140617203723AAnMv8x Hes NNP Politics_&_Government TOKEN
-0.0094677305807273626214737305417657 2:0 3:8 4:0 5:1 7:0 8:1 13542:1 # 20140607014708AAKJo8F attitude NN Pregnancy_&_Parenting TOKEN
0.5 2:0 3:11 4:0 5:0 7:1 73:1 775:1 # 20140625193136AAUePpR Shakespeare NNP Arts_&_Humanities PERSON
0.5 2:0 3:5 4:0 5:0 7:1 73:1 1552:1 # 20140625095108AAhxBZ2 Auden NNP Arts_&_Humanities PERSON
0.5 2:0 3:11 4:0 5:0 7:1 73:1 4290:1 # 20140604083714AANM1Br Northampton NNP Education_&_Reference LOCATION
-0.49999867438012929321544675076439 2:0 3:2 4:0 5:0 7:1 22:1 608:1 # 20140620170402AA0uGdu My PRP$ Pregnancy_&_Parenting TOKEN
-0.23195911629638121809193762601353 2:0 3:1 4:1 5:0 7:1 73:1 10193:1 # 20140603020037AAlyzyA M NNP Travel TOKEN
0.5 2:0 3:7 4:0 5:0 7:1 73:1 14380:1 # 20140613180332AA3jCxr Wahhabi NNP News_&_Events LOCATION
-0.23195911629638255035956717620138 2:0 3:1 4:1 5:0 7:1 73:1 3175:1 # 20140603072418AAgZjcN Y NNP Science_&_Mathematics TOKEN
-0.084980754778428035933757200837135 2:0 3:52 4:0 5:1 7:0 73:1 12320:1 # 20140618083118AAt93Sw http:##fyi.uwex.edu#bugbites#2012#04#10#clovermites# NNP Home_&_Garden TOKEN
0.5 2:0 3:3 4:0 5:0 7:1 73:1 2656:1 # 20140603115526AAQmGXN New NNP Cars_&_Transportation LOCATION
-0.23192155090512400761326716747135 2:0 3:1 4:1 5:0 7:1 73:1 1278:1 # 20140601094337AAbsB6Z B NNP Politics_&_Government TOKEN
-0.11970863324447472697542593778053 2:0 3:2 4:0 5:0 7:1 73:1 11293:1 # 20140618215915AAruZzF Ya NNP News_&_Events TOKEN
-0.25443111308565846684359712526202 2:0 3:13 4:0 5:0 7:1 73:1 4724:1 # 20140617102632AAPzLAI Christmastime NNP Education_&_Reference TOKEN
0.5 2:1 3:2 4:1 5:0 7:0 16:1 2475:1 # 20140614170630AA1o9BQ US PRP Politics_&_Government ORGANIZATION
-0.22201069618551727558042330201715 2:1 3:4 4:0 5:0 7:1 73:1 11774:1 # 20140620063230AAXLo9n Iced NNP Food_&_Drink TOKEN
-0.051214068931271783391423468856374 2:0 3:2 4:0 5:0 7:1 88:1 644:1 # 20140623171559AARTbz7 Be VB Computer_&_Internet TOKEN
0.5 2:0 3:3 4:0 5:1 7:0 30:1 292:1 # 20140605040256AAru12G out IN Entertainment_&_Music PERSON
0.5 2:0 3:6 4:0 5:1 7:0 26:1 5214:1 # 20140615171734AAd4Cuo virgin JJ Yahoo!_Products PERSON
0.5 2:1 3:4 4:0 5:0 7:1 73:1 15214:1 # 20140610123048AAZOuhW Rose NNP Politics_&_Government LOCATION
0.5 2:0 3:1 4:0 5:0 7:0 630:1 631:1 # 20140605034309AAV7PuK # # Consumer_Electronics PERSON
0.5 2:0 3:3 4:0 5:1 7:0 8:1 11396:1 # 20140616143448AAdU6Ze hut NN Dining_Out ORGANIZATION
-0.010495402753183835642403209931217 2:0 3:2 4:0 5:0 7:1 22:1 608:1 # 20140613121148AAUGduQ My PRP$ Social_Science TOKEN
0.5 2:0 3:3 4:0 5:1 7:0 26:1 9449:1 # 20140623022611AAddTaJ ufc JJ Sports ORGANIZATION
-0.28769536331481898594475410391169 2:0 3:1 4:0 5:0 7:0 630:1 631:1 # 20140614131358AALx1CD # # Beauty_&_Style TOKEN
0.5 2:1 3:4 4:0 5:0 7:1 73:1 11048:1 # 20140610083106AA7AAUT Ribs NNP Dining_Out ORGANIZATION
-0.051214068931299872033946485316847 2:0 3:2 4:0 5:0 7:1 88:1 492:1 # 20140620035536AASKdrI Go VB Computer_&_Internet TOKEN
0.5 2:0 3:3 4:0 5:1 7:0 26:1 31:1 # 20140622230045AAAI6WE new JJ Travel LOCATION
0.5 2:0 3:3 4:0 5:0 7:1 24:1 729:1 # 20140606223938AAjsrL7 The DT News_&_Events ORGANIZATION
0.5 2:1 3:3 4:0 5:0 7:1 73:1 12801:1 # 20140603004555AAv1K5X Los NNP Politics_&_Government LOCATION
0.5 2:0 3:3 4:0 5:1 7:0 8:1 4854:1 # 20140601014139AA5Szo2 usa NN Education_&_Reference LOCATION
0.5 2:0 3:6 4:0 5:0 7:1 8:1 11349:1 # 20140616143448AAdU6Ze Silver NN Dining_Out ORGANIZATION
0.5 2:0 3:6 4:0 5:0 7:1 8:1 11347:1 # 20140616143448AAdU6Ze Choice NN Dining_Out ORGANIZATION
0.5 2:1 3:3 4:1 5:0 7:0 73:1 14427:1 # 20140617191218AAiEBHA CBS NNP News_&_Events ORGANIZATION
0.5 2:1 3:3 4:1 5:0 7:0 73:1 12376:1 # 20140601134625AAPRFLP CVS NNP Home_&_Garden ORGANIZATION
0.5 2:1 3:3 4:1 5:0 7:0 73:1 15277:1 # 20140625082631AAcgyMl IRS NNP Politics_&_Government ORGANIZATION
0.5 2:0 3:2 4:0 5:1 7:0 73:1 149:1 # 20140616143448AAdU6Ze in NNP Dining_Out ORGANIZATION
-0.024021254357832866332955745747313 2:0 3:1 4:0 5:1 7:0 8:1 7845:1 # 20140621192007AAsQBSf p NN Pregnancy_&_Parenting TOKEN
0.5 2:0 3:3 4:0 5:1 7:0 32:1 73:1 # 20140616143448AAdU6Ze and NNP Dining_Out ORGANIZATION
0.5 2:0 3:3 4:0 5:0 7:1 73:1 12474:1 # 20140605130921AAXKqjH Xtx NNP Home_&_Garden PERSON
0.5 2:0 3:3 4:0 5:0 7:0 204:1 2700:1 # 20140605081144AAuazx4 1#2 CD Science_&_Mathematics PERSON
-0.22021169654880878852054593153298 2:1 3:5 4:0 5:0 7:1 73:1 3557:1 # 20140614134845AAVhWeg Cards NNP Consumer_Electronics TOKEN
-0.22303543177100393357648044911912 2:1 3:4 4:0 5:0 7:1 73:1 5065:1 # 20140608162419AAwr1N9 Kids NNP Entertainment_&_Music TOKEN
-0.22235858625596338633556570130168 2:1 3:4 4:0 5:0 7:1 73:1 3844:1 # 20140626112013AAPPVIB Apps NNP Consumer_Electronics TOKEN
0.5 2:0 3:2 4:1 5:0 7:0 73:1 4507:1 # 20140618125641AAGkGpi C. NNP Education_&_Reference PERSON
-0.043551920860168680249557837669272 2:0 3:6 4:0 5:0 7:1 88:1 397:1 # 20140619055300AA9BUOc Please VB Food_&_Drink TOKEN
0.5 2:0 3:6 4:0 5:0 7:1 73:1 14294:1 # 20140621045509AAck6mP Saddam NNP News_&_Events PERSON
-0.5 2:0 3:1 4:0 5:0 7:0 630:1 631:1 # 20140617033632AAaS0SQ # # News_&_Events TOKEN
0.5 2:0 3:4 4:0 5:0 7:1 73:1 3932:1 # 20140603005221AAThPnj Acer NNP Consumer_Electronics ORGANIZATION
0.5 2:0 3:4 4:0 5:0 7:1 73:1 8152:1 # 20140617203723AAnMv8x Iraq NNP Politics_&_Government LOCATION
0.5 2:0 3:3 4:0 5:1 7:0 24:1 25:1 # 20140605040256AAru12G the DT Entertainment_&_Music PERSON
-0.2221014464791934983622923027724 2:1 3:4 4:0 5:0 7:1 73:1 10318:1 # 20140611090216AAsNyRd Lets NNP Family_&_Relationships TOKEN
-0.018512865838638647986158503044862 2:0 3:4 4:0 5:1 7:0 8:1 194:1 # 20140603115526AAQmGXN time NN Cars_&_Transportation TOKEN
-0.0095832088802078312789189951104163 2:0 3:8 4:0 5:1 7:0 8:1 19180:1 # 20140608155422AAGg2Wt go?again NN Pregnancy_&_Parenting TOKEN
0.5 2:0 3:2 4:1 5:0 7:0 73:1 9505:1 # 20140623125801AASUucg NJ NNP Food_&_Drink LOCATION
-0.5 2:0 3:3 4:0 5:0 7:1 73:1 2656:1 # 20140614220006AA90c02 New NNP Sports TOKEN
-0.10164951152830781211378052830696 2:0 3:27 4:0 5:0 7:0 73:1 2402:1 # 20140608145354AAWyj40 Www.credit-vit.blogspot.com NNP Business_&_Finance TOKEN
0.5 2:0 3:3 4:0 5:0 7:1 73:1 9443:1 # 20140623022611AAddTaJ Mir NNP Sports PERSON
0.5 2:0 3:3 4:0 5:0 7:1 73:1 5166:1 # 20140614004826AAWj9IB May NNP Entertainment_&_Music PERSON
-0.5 2:0 3:3 4:0 5:0 7:1 73:1 2656:1 # 20140623153135AAqXQHR New NNP Travel TOKEN
-0.032949291746248832168930675834417 2:0 3:63 4:0 5:0 7:0 73:1 19431:1 # 20140609172302AAjgqUA https:##io.help.yahoo.com#contact#index?page=home&locale;=en_US NNP Yahoo!_Products TOKEN
0.5 2:0 3:3 4:0 5:0 7:1 73:1 15781:1 # 20140611151627AAmAEbQ Ted NNP Politics_&_Government PERSON
0.5 2:0 3:4 4:0 5:0 7:1 73:1 11587:1 # 20140605102530AA17S7s Kyle NNP Dining_Out PERSON
-0.25633309281142757640736817847937 2:0 3:12 4:0 5:0 7:1 73:1 9038:1 # 20140605104442AAFzzy2 Professional NNP Sports TOKEN
-0.25526704024837332251962607188034 2:0 3:12 4:0 5:0 7:1 73:1 6666:1 # 20140612080629AAuyjlx Multivitamin NNP Health TOKEN
-0.25634321356077371945048071211204 2:0 3:12 4:0 5:0 7:1 73:1 13916:1 # 20140617191218AAiEBHA Conservative NNP News_&_Events TOKEN
-0.25552316324569290806323351716856 2:0 3:12 4:0 5:0 7:1 73:1 6556:1 # 20140606081156AANGQrl Gynecomastia NNP Health TOKEN
0.5 2:0 3:3 4:0 5:0 7:1 73:1 2656:1 # 20140622230045AAAI6WE New NNP Travel LOCATION
-0.25535385333750254543971891507681 2:0 3:12 4:0 5:0 7:1 73:1 5983:1 # 20140615211937AA9zqfw Constipation NNP Health TOKEN
0.5 2:0 3:3 4:0 5:1 7:0 32:1 33:1 # 20140610083106AA7AAUT and CC Dining_Out ORGANIZATION
-0.23192155089999344497186939406674 2:0 3:1 4:1 5:0 7:1 73:1 8228:1 # 20140622013948AAZujJH W NNP Science_&_Mathematics TOKEN
-0.25433428546483283216872450793744 2:0 3:13 4:0 5:0 7:1 73:1 3098:1 # 20140622053126AAxcj34 Communication NNP Family_&_Relationships TOKEN
0.5 2:0 3:4 4:0 5:0 7:1 73:1 4448:1 # 20140610062626AA46ms6 Mark NNP Education_&_Reference PERSON
0.5 2:0 3:4 4:0 5:0 7:1 73:1 9145:1 # 20140615215028AAGmoaM Cole NNP Sports PERSON
0.5 2:0 3:4 4:0 5:0 7:1 73:1 13993:1 # 20140617191218AAiEBHA News NNP News_&_Events ORGANIZATION
0.5 2:0 3:4 4:0 5:0 7:1 73:1 13979:1 # 20140614170630AA1o9BQ Bush NNP Politics_&_Government PERSON
0.5 2:0 3:10 4:0 5:1 7:0 8:1 3309:1 # 20140619105821AAuioIb university NN Education_&_Reference ORGANIZATION
0.5 2:0 3:10 4:0 5:1 7:0 8:1 5172:1 # 20140614004826AAWj9IB wonderland NN Entertainment_&_Music LOCATION
0.5 2:0 3:2 4:0 5:0 7:1 73:1 12930:1 # 20140614113251AA3Y1WB Mr NNP News_&_Events PERSON
0.5 2:0 3:3 4:0 5:0 7:1 73:1 11351:1 # 20140616143448AAdU6Ze Moe NNP Dining_Out ORGANIZATION
-0.22304703774804313098911734414287 2:1 3:4 4:0 5:0 7:1 73:1 3180:1 # 20140601131055AAPxhOP Data NNP Business_&_Finance TOKEN
0.5 2:0 3:2 4:0 5:1 7:0 8:1 13064:1 # 20140615091428AA1nGW3 st NN Local_Businesses LOCATION
0.5 2:0 3:3 4:0 5:0 7:1 73:1 9479:1 # 20140613182418AAAZN2I Zeb NNP Sports PERSON
0.5 2:1 3:2 4:1 5:0 7:0 16:1 2475:1 # 20140619105821AAuioIb US PRP Education_&_Reference LOCATION
0.5 2:0 3:3 4:0 5:0 7:1 73:1 12379:1 # 20140601134625AAPRFLP Aid NNP Home_&_Garden ORGANIZATION
0.5 2:0 3:3 4:0 5:0 7:1 73:1 4312:1 # 20140615224306AASdmOX San NNP Sports PERSON
0.5 2:0 3:2 4:0 5:1 7:0 73:1 149:1 # 20140616143448AAdU6Ze in NNP Dining_Out ORGANIZATION
0.5 2:0 3:2 4:1 5:0 7:0 73:1 3408:1 # 20140615131345AAW89pT UK NNP News_&_Events LOCATION
-0.22254867178542742101043927505089 2:1 3:4 4:0 5:0 7:1 73:1 1871:1 # 20140605091638AATCTbo Xmas NNP Arts_&_Humanities TOKEN
-0.10723677144491872148535094311228 2:0 3:3 4:0 5:0 7:1 43:1 3745:1 # 20140608113007AAoVpt8 Get VBP Politics_&_Government TOKEN
-0.0091361227895816743416190774951247 2:0 3:3 4:0 5:0 7:1 40:1 2588:1 # 20140626141035AAHkuAS Not RB Beauty_&_Style TOKEN
-0.2319215509051528734119074215414 2:0 3:1 4:1 5:0 7:1 73:1 429:1 # 20140625072412AAUASEG A NNP Yahoo!_Products TOKEN
0.5 2:0 3:3 4:0 5:1 7:0 8:1 4854:1 # 20140601014139AA5Szo2 usa NN Education_&_Reference LOCATION
0.5 2:0 3:3 4:0 5:0 7:1 73:1 769:1 # 20140625193136AAUePpR Poe NNP Arts_&_Humanities PERSON
0.5 2:0 3:3 4:0 5:0 7:1 73:1 19261:1 # 20140625072412AAUASEG Hun NNP Yahoo!_Products PERSON
0.5 2:0 3:3 4:0 5:0 7:1 73:1 5559:1 # 20140618141409AA9yzif Ray NNP Entertainment_&_Music PERSON
0.5 2:0 3:3 4:0 5:0 7:1 73:1 14276:1 # 20140609053527AAHPrln Ian NNP News_&_Events PERSON
0.5 2:0 3:3 4:1 5:0 7:0 73:1 15430:1 # 20140619072135AAeFu7N U.K NNP Politics_&_Government LOCATION
-0.055153817153160700215153156023007 2:0 3:8 4:0 5:0 7:1 26:1 13801:1 # 20140616154757AA3uubn Possible JJ News_&_Events TOKEN
0.5 2:0 3:3 4:0 5:0 7:1 73:1 2656:1 # 20140625120602AAXWOm0 New NNP Science_&_Mathematics LOCATION
0.5 2:0 3:3 4:0 5:0 7:1 73:1 11362:1 # 20140616143448AAdU6Ze Hut NNP Dining_Out ORGANIZATION
0.5 2:0 3:3 4:0 5:0 7:1 73:1 9458:1 # 20140623022611AAddTaJ Jon NNP Sports PERSON
0.5 2:0 3:3 4:0 5:1 7:0 24:1 25:1 # 20140605040256AAru12G the DT Entertainment_&_Music PERSON
0.5 2:0 3:3 4:0 5:0 7:1 73:1 8845:1 # 20140614131358AALx1CD Sam NNP Beauty_&_Style PERSON
0.5 2:0 3:3 4:0 5:0 7:1 73:1 9306:1 # 20140626152929AAvb2mt Eck NNP Sports PERSON
0.5 2:0 3:3 4:0 5:0 7:1 73:1 9209:1 # 20140623022611AAddTaJ Big NNP Sports PERSON
-0.2230470377480413546322779438924 2:1 3:4 4:0 5:0 7:1 73:1 13978:1 # 20140610123048AAZOuhW Libs NNP Politics_&_Government TOKEN
0.5 2:0 3:2 4:1 5:0 7:0 73:1 3507:1 # 20140604083714AANM1Br CA NNP Education_&_Reference LOCATION
0.5 2:0 3:3 4:0 5:0 7:1 73:1 2148:1 # 20140609160711AAprF2f Kay NNP Arts_&_Humanities PERSON
-0.22300237294457669889879980473779 2:1 3:4 4:0 5:0 7:1 73:1 8466:1 # 20140612022126AAsUT1R Accs NNP Beauty_&_Style TOKEN
-0.22304703774804224281069764401764 2:1 3:4 4:0 5:0 7:1 73:1 14585:1 # 20140613073945AAjr9GV Vets NNP Pets TOKEN
0.5 2:0 3:6 4:0 5:1 7:0 8:1 8749:1 # 20140612145554AAjlhJX brazil NN Beauty_&_Style LOCATION
-0.5 2:0 3:3 4:0 5:1 7:0 16:1 25:1 # 20140609053527AAHPrln the PRP News_&_Events TOKEN
0.5 2:1 3:6 4:0 5:1 7:0 8:1 5762:1 # 20140605140138AAyDVJY barros NN Entertainment_&_Music PERSON
-0.098478298867721747456016601063311 2:0 3:5 4:1 5:0 7:0 73:1 7880:1 # 20140603072418AAgZjcN AB#DG NNP Science_&_Mathematics TOKEN
0.5 2:1 3:7 4:0 5:0 7:1 73:1 11352:1 # 20140616143448AAdU6Ze Noodles NNP Dining_Out ORGANIZATION
-0.049469363022703660703882633242756 2:0 3:11 4:0 5:0 7:1 26:1 7936:1 # 20140608075953AADKMro Traditional JJ Dining_Out TOKEN
-0.32821855302202485038520762827829 2:0 3:3 4:0 5:0 7:1 24:1 729:1 # 20140623072617AAIXida The DT Dining_Out TOKEN
0.5 2:0 3:5 4:0 5:1 7:0 88:1 13037:1 # 20140620172230AAfuPAg texas VB Local_Businesses LOCATION
0.5 2:0 3:2 4:1 5:0 7:0 8:1 5530:1 # 20140617203632AANuG3B DC NN Entertainment_&_Music ORGANIZATION
0.5 2:0 3:5 4:0 5:0 7:1 73:1 4679:1 # 20140614170630AA1o9BQ Spain NNP Politics_&_Government LOCATION
-0.49999965329535278613093396415934 2:0 3:3 4:0 5:1 7:0 32:1 73:1 # 20140617164024AABuVO8 and NNP Food_&_Drink TOKEN
0.5 2:0 3:7 4:0 5:0 7:1 26:1 14010:1 # 20140609103954AAB6LY5 Zionist JJ News_&_Events ORGANIZATION
0.5 2:0 3:7 4:0 5:0 7:1 26:1 8190:1 # 20140625120602AAXWOm0 Kurdish JJ Science_&_Mathematics LOCATION
-0.5 2:0 3:3 4:0 5:1 7:0 8:1 4854:1 # 20140617203723AAnMv8x usa NN Politics_&_Government TOKEN
-0.5 2:0 3:3 4:0 5:0 7:0 204:1 2700:1 # 20140620123248AAQq23H 1#2 CD Business_&_Finance TOKEN
0.5 2:0 3:6 4:0 5:1 7:0 20:1 14023:1 # 20140601100338AAUfBLz hitler VBG News_&_Events PERSON
0.5 2:0 3:6 4:0 5:1 7:0 20:1 359:1 # 20140622080843AAfcL4m tumblr VBG Pets ORGANIZATION
-0.5 2:0 3:6 4:0 5:0 7:1 73:1 11349:1 # 20140620003333AAaN90M Silver NNP Dining_Out TOKEN
-0.094576708152954935826528526376933 2:0 3:7 4:1 5:0 7:0 73:1 12053:1 # 20140626034154AAGjZE1 MEDUCAL NNP Food_&_Drink TOKEN
-0.5 2:1 3:2 4:1 5:0 7:0 16:1 2475:1 # 20140622223032AAkvyyd US PRP Games_&_Recreation TOKEN
0.5 2:0 3:9 4:0 5:1 7:0 43:1 2989:1 # 20140604131630AAZXrpw list#sell VBP Business_&_Finance ORGANIZATION
0.5 2:0 3:5 4:0 5:0 7:1 26:1 11375:1 # 20140616143448AAdU6Ze Sonic JJ Dining_Out ORGANIZATION
0.5 2:0 3:4 4:0 5:1 7:0 8:1 487:1 # 20140620035947AAeYEbM area NN Local_Businesses LOCATION
0.5 2:0 3:4 4:0 5:1 7:0 8:1 9454:1 # 20140623022611AAddTaJ kurt NN Sports PERSON
0.5 2:0 3:4 4:0 5:1 7:0 8:1 1077:1 # 20140616143448AAdU6Ze land NN Dining_Out ORGANIZATION
0.5 2:0 3:4 4:0 5:1 7:0 8:1 194:1 # 20140605040256AAru12G time NN Entertainment_&_Music PERSON
0.5 2:0 3:4 4:0 5:1 7:0 8:1 13833:1 # 20140607125905AA2JtXv army NN Politics_&_Government ORGANIZATION
-0.5 2:0 3:4 4:0 5:0 7:1 73:1 11587:1 # 20140605102530AA17S7s Kyle NNP Dining_Out TOKEN
-0.5 2:0 3:4 4:0 5:0 7:1 73:1 8152:1 # 20140614170630AA1o9BQ Iraq NNP Politics_&_Government TOKEN
-0.018206998523665696154694160213694 2:0 3:6 4:0 5:0 7:1 88:1 647:1 # 20140618135311AATMAF9 Revise VB Arts_&_Humanities TOKEN
-0.5 2:0 3:4 4:0 5:0 7:1 73:1 8152:1 # 20140616154757AA3uubn Iraq NNP News_&_Events TOKEN
0.5 2:0 3:7 4:0 5:1 7:0 26:1 2720:1 # 20140611170153AAHPuYj scarlet JJ Education_&_Reference PERSON
0.5 2:1 3:9 4:0 5:0 7:1 73:1 11307:1 # 20140616143448AAdU6Ze Bojangles NNP Dining_Out ORGANIZATION
0.5 2:0 3:4 4:1 5:0 7:0 73:1 11304:1 # 20140616143448AAdU6Ze A&W; NNP Dining_Out ORGANIZATION
-0.5 2:0 3:2 4:1 5:0 7:0 73:1 3507:1 # 20140604203617AAQJuGv CA NNP Games_&_Recreation TOKEN
-0.5 2:0 3:3 4:0 5:0 7:1 73:1 5559:1 # 20140618215915AAruZzF Ray NNP News_&_Events TOKEN
-0.5 2:0 3:3 4:0 5:1 7:0 25:1 73:1 # 20140601130859AAHxybZ the NNP Sports TOKEN
0.5 2:0 3:4 4:0 5:0 7:1 204:1 11332:1 # 20140616143448AAdU6Ze Five CD Dining_Out ORGANIZATION
0.5 2:0 3:4 4:0 5:1 7:0 8:1 6873:1 # 20140613111207AAD5YgE john NN Dining_Out PERSON
0.5 2:0 3:4 4:0 5:1 7:0 8:1 19455:1 # 20140610080957AAEwFfP andy NN Yahoo!_Products PERSON
0.5 2:0 3:4 4:0 5:1 7:0 8:1 4391:1 # 20140619105821AAuioIb kean NN Education_&_Reference ORGANIZATION
-0.25944210746801737998978865107347 2:0 3:1 4:1 5:0 7:1 15:1 720:1 # 20140606153641AAjtBgn D . Social_Science TOKEN
-0.0027836065937586473850728907564189 2:0 3:5 4:0 5:1 7:0 8:1 5923:1 # 20140625175128AAldtwC habit NN Food_&_Drink TOKEN
-0.5 2:0 3:3 4:0 5:0 7:1 73:1 5559:1 # 20140618215915AAruZzF Ray NNP News_&_Events TOKEN
-0.5 2:0 3:3 4:1 5:0 7:0 73:1 7172:1 # 20140605104442AAFzzy2 WWE NNP Sports TOKEN
0.5 2:0 3:5 4:0 5:1 7:0 20:1 15566:1 # 20140603004555AAv1K5X steve VBG Politics_&_Government PERSON
-0.5 2:0 3:2 4:0 5:0 7:1 73:1 12930:1 # 20140622225954AAAlKMt Mr NNP Local_Businesses TOKEN
-0.5 2:1 3:2 4:1 5:0 7:0 16:1 2475:1 # 20140622223032AAkvyyd US PRP Games_&_Recreation TOKEN
0.5 2:1 3:8 4:0 5:0 7:1 73:1 11040:1 # 20140616141511AAlZZIn Carmines NNP Dining_Out LOCATION
0.5 2:0 3:5 4:0 5:1 7:0 40:1 5659:1 # 20140619063559AA2eks0 south RB Home_&_Garden LOCATION
0.5 2:1 3:4 4:1 5:0 7:0 73:1 13003:1 # 20140617164637AAddgz5 USPS NNP Local_Businesses ORGANIZATION
-0.5 2:0 3:2 4:1 5:0 7:0 73:1 9505:1 # 20140615120927AAPeVv5 NJ NNP Sports TOKEN
-0.10381665293074249234450689982623 2:0 3:2 4:1 5:0 7:0 73:1 3507:1 # 20140612231240AAb6Jgs CA NNP Consumer_Electronics TOKEN
0.5 2:0 3:4 4:0 5:0 7:1 710:1 18942:1 # 20140611001634AAefV9p Maya FW Pregnancy_&_Parenting PERSON
0.5 1:1 2:0 3:4 4:0 5:0 6:1 7:1 # 20140608034752AAWHbyf Will MD Arts_&_Humanities PERSON
-0.5 2:0 3:4 4:0 5:0 7:1 73:1 13993:1 # 20140623230739AA9pP9C News NNP News_&_Events TOKEN
-0.5 2:0 3:4 4:0 5:0 7:1 73:1 13979:1 # 20140610123048AAZOuhW Bush NNP Politics_&_Government TOKEN
-0.5 2:0 3:4 4:0 5:0 7:1 73:1 8152:1 # 20140616154757AA3uubn Iraq NNP News_&_Events TOKEN
-0.014076170862524217675115778547479 2:0 3:6 4:0 5:1 7:0 8:1 19467:1 # 20140615171734AAd4Cuo sponge NN Yahoo!_Products TOKEN
0.5 2:0 3:8 4:0 5:1 7:0 8:1 5833:1 # 20140613124158AAH0KXB michelle NN Entertainment_&_Music PERSON
0.5 2:0 3:6 4:0 5:1 7:0 73:1 5370:1 # 20140621194648AAv7Pxb kuroko NNP Entertainment_&_Music PERSON
-0.059601250300763075617993536070571 2:1 3:11 4:0 5:0 7:1 20:1 18528:1 # 20140620213457AAI59UA Considering VBG Computer_&_Internet TOKEN
-0.5 2:0 3:3 4:0 5:1 7:0 32:1 73:1 # 20140617213812AAnm3nS and NNP Travel TOKEN
0.5 2:0 3:4 4:0 5:1 7:0 8:1 8143:1 # 20140612211617AAE6Bis iraq NN News_&_Events LOCATION
-0.5 2:0 3:3 4:0 5:1 7:0 8:1 4854:1 # 20140617203723AAnMv8x usa NN Politics_&_Government TOKEN
0.5 2:0 3:8 4:0 5:1 7:0 8:1 5583:1 # 20140605040256AAru12G chemical NN Entertainment_&_Music PERSON
-0.08902844517692365400307608069852 2:0 3:10 4:1 5:0 7:0 73:1 8513:1 # 20140606094425AAJm5yJ MARSHBADGE NNP Beauty_&_Style TOKEN
-0.5 2:0 3:2 4:1 5:0 7:0 73:1 3408:1 # 20140612013350AAX11Xr UK NNP Travel TOKEN
0.5 2:0 3:5 4:1 5:0 7:0 73:1 10760:1 # 20140609115257AAXrpdb SKODA NNP Cars_&_Transportation ORGANIZATION
-0.012504200651940022837038668512832 2:0 3:3 4:0 5:1 7:0 20:1 6445:1 # 20140615120927AAPeVv5 gon VBG Sports TOKEN
0.5 2:1 3:9 4:0 5:0 7:1 73:1 12377:1 # 20140601134625AAPRFLP Walgreens NNP Home_&_Garden ORGANIZATION
-0.017600004270662994443341631267685 2:0 3:3 4:0 5:0 7:1 206:1 1610:1 # 20140610162943AA8McBJ Who WP Games_&_Recreation TOKEN
-0.36632356526424558751386939547956 2:0 3:6 4:0 5:1 7:0 12:1 5214:1 # 20140601140351AAMxHZD virgin NNS Pregnancy_&_Parenting TOKEN
0.5 2:0 3:5 4:1 5:0 7:0 73:1 14379:1 # 20140613180332AA3jCxr ISISL NNP News_&_Events ORGANIZATION
0.5 2:0 3:5 4:1 5:0 7:0 73:1 13972:1 # 20140613111831AABRhzn COBRA NNP News_&_Events ORGANIZATION
-0.094359033519575863380168812000193 2:0 3:7 4:1 5:0 7:0 73:1 18250:1 # 20140609221937AAH7tge SAT#ACT NNP Travel TOKEN
0.5 2:0 3:4 4:0 5:1 7:0 8:1 14958:1 # 20140622080843AAfcL4m demi NN Pets PERSON
0.5 2:0 3:4 4:0 5:1 7:0 8:1 6619:1 # 20140612080629AAuyjlx sean NN Health PERSON
-0.040120355667018992029682067368412 2:1 3:10 4:1 5:0 7:0 73:1 15025:1 # 20140613154011AAJ98M9 COMPLAINTS NNP Politics_&_Government TOKEN
-0.5 2:0 3:3 4:1 5:0 7:0 73:1 2568:1 # 20140622140805AAtjqJa USA NNP Cars_&_Transportation TOKEN
-0.0058478898060884132448222771927249 2:0 3:8 4:0 5:1 7:0 24:1 1282:1 # 20140616234645AAnbyhx whatever DT Consumer_Electronics TOKEN
-0.5 2:0 3:2 4:1 5:0 7:0 73:1 4507:1 # 20140607181926AAii9kA C. NNP Pets TOKEN
0.5 2:0 3:5 4:0 5:0 7:1 88:1 8800:1 # 20140615215028AAGmoaM Leave VB Sports PERSON
0.5 2:0 3:4 4:0 5:0 7:1 88:1 5589:1 # 20140605040256AAru12G Kill VB Entertainment_&_Music PERSON
-0.10496184952059608996854933593568 2:0 3:7 4:0 5:0 7:1 24:1 5546:1 # 20140610162943AA8McBJ Another DT Games_&_Recreation TOKEN
0.5 2:0 3:2 4:1 5:0 7:0 73:1 3408:1 # 20140619072135AAeFu7N UK NNP Politics_&_Government LOCATION
-0.19396980600146196405120235795039 2:1 3:5 4:0 5:0 7:1 73:1 18919:1 # 20140620035536AASKdrI Peeps NNP Computer_&_Internet TOKEN
0.5 2:0 3:3 4:0 5:1 7:0 24:1 25:1 # 20140605040256AAru12G the DT Entertainment_&_Music PERSON
0.5 2:0 3:4 4:0 5:1 7:0 20:1 3365:1 # 20140616234645AAnbyhx ebay VBG Consumer_Electronics ORGANIZATION
-0.5 2:0 3:4 4:1 5:0 7:0 73:1 5654:1 # 20140617015321AAEmy38 U.S. NNP Politics_&_Government TOKEN
-0.021060693898138832524935537549027 2:0 3:5 4:0 5:0 7:1 71:1 5350:1 # 20140622230045AAAI6WE Which WDT Travel TOKEN
0.5 2:0 3:4 4:1 5:0 7:0 73:1 4319:1 # 20140610062626AA46ms6 GCSE NNP Education_&_Reference ORGANIZATION
-0.11944029821549767556021492964646 2:0 3:3 4:0 5:1 7:0 24:1 25:1 # 20140611135954AABR99L the DT Sports TOKEN
-0.010065814194799571623661904595792 2:0 3:8 4:0 5:1 7:0 16:1 947:1 # 20140603131617AAsXYRf yourself PRP Education_&_Reference TOKEN
0.5 2:1 3:8 4:0 5:0 7:1 73:1 15513:1 # 20140617193722AA5emAo Khattala NNP Politics_&_Government PERSON
0.5 2:1 3:9 4:0 5:1 7:0 12:1 8260:1 # 20140611151627AAmAEbQ engineers NNS Politics_&_Government ORGANIZATION
0.5 2:1 3:8 4:0 5:0 7:1 73:1 11353:1 # 20140616143448AAdU6Ze Oberweis NNP Dining_Out ORGANIZATION
-0.5 2:0 3:2 4:0 5:1 7:0 73:1 149:1 # 20140625140958AAG0wQK in NNP Beauty_&_Style TOKEN
-0.5 2:0 3:2 4:1 5:0 7:0 73:1 3408:1 # 20140608151316AAZv17m UK NNP Travel TOKEN
-0.33502104975103830231120127791655 2:0 3:2 4:0 5:1 7:0 73:1 149:1 # 20140621032104AA5LQDd in NNP Entertainment_&_Music TOKEN
-0.5 2:0 3:6 4:0 5:1 7:0 8:1 359:1 # 20140608034752AAWHbyf tumblr NN Arts_&_Humanities TOKEN
-0.16898125060992441603957558982074 2:0 3:8 4:0 5:1 7:0 73:1 6927:1 # 20140611144551AAguC6x wheeled2 NNP Games_&_Recreation TOKEN
0.5 2:0 3:3 4:1 5:0 7:0 73:1 3927:1 # 20140619113940AAko4f7 HTC NNP Entertainment_&_Music ORGANIZATION
0.5 2:0 3:3 4:1 5:0 7:0 73:1 3769:1 # 20140605225754AA2LJWC ABC NNP Consumer_Electronics ORGANIZATION
0.5 2:0 3:3 4:1 5:0 7:0 73:1 2568:1 # 20140604112329AAS36PD USA NNP Dining_Out LOCATION
0.5 2:0 3:3 4:1 5:0 7:0 73:1 7172:1 # 20140623022611AAddTaJ WWE NNP Sports ORGANIZATION
0.5 2:0 3:3 4:1 5:0 7:0 73:1 14311:1 # 20140611214724AASfT7e GOP NNP News_&_Events ORGANIZATION
0.5 2:0 3:5 4:0 5:1 7:0 73:1 9557:1 # 20140615224306AASdmOX kawhi NNP Sports PERSON
0.5 2:0 3:5 4:0 5:1 7:0 73:1 172:1 # 20140607125905AA2JtXv &amp; NNP Politics_&_Government ORGANIZATION
-0.5 2:0 3:3 4:1 5:0 7:0 73:1 2568:1 # 20140622140805AAtjqJa USA NNP Cars_&_Transportation TOKEN
0.5 2:0 3:2 4:1 5:0 7:0 73:1 3408:1 # 20140616063937AAhSsrT UK NNP Business_&_Finance LOCATION
-0.5 2:0 3:4 4:0 5:1 7:0 8:1 3365:1 # 20140605231104AAm8fzJ ebay NN Politics_&_Government TOKEN
-0.5 2:0 3:3 4:1 5:0 7:0 73:1 3769:1 # 20140603072418AAgZjcN ABC NNP Science_&_Mathematics TOKEN
-0.16853703667853725534087061532773 2:0 3:8 4:0 5:1 7:0 73:1 3516:1 # 20140614045845AAdu92x download NNP Computer_&_Internet TOKEN
0.5 2:0 3:5 4:0 5:1 7:0 26:1 5739:1 # 20140615224306AASdmOX green JJ Sports PERSON
0.5 2:0 3:7 4:0 5:1 7:0 8:1 11079:1 # 20140616143448AAdU6Ze chicken NN Dining_Out ORGANIZATION
0.5 2:1 3:8 4:0 5:0 7:1 73:1 9447:1 # 20140623022611AAddTaJ Fighting NNP Sports ORGANIZATION
0.5 2:1 3:8 4:0 5:0 7:1 73:1 3952:1 # 20140603005221AAThPnj Motorola NNP Consumer_Electronics ORGANIZATION
-0.094060590874043281672811644966714 2:0 3:7 4:1 5:0 7:0 73:1 17330:1 # 20140608111211AAkpqtd BECAUSE NNP Pregnancy_&_Parenting TOKEN
0.5 2:0 3:4 4:1 5:0 7:0 73:1 9175:1 # 20140623155342AAYpGzf NCAA NNP Sports ORGANIZATION
0.5 2:0 3:4 4:1 5:0 7:0 73:1 5654:1 # 20140622140805AAtjqJa U.S. NNP Cars_&_Transportation ORGANIZATION
0.5 2:0 3:4 4:1 5:0 7:0 73:1 785:1 # 20140617074422AANUT7h H.P. NNP Arts_&_Humanities PERSON
0.5 2:0 3:3 4:0 5:1 7:0 32:1 33:1 # 20140610083106AA7AAUT and CC Dining_Out ORGANIZATION
0.5 2:1 3:5 4:0 5:0 7:1 73:1 9139:1 # 20140615215028AAGmoaM Jered NNP Sports PERSON
0.5 2:0 3:3 4:1 5:0 7:0 73:1 3933:1 # 20140603005221AAThPnj ZTE NNP Consumer_Electronics ORGANIZATION
-0.16874224177042229655398841714486 2:0 3:8 4:0 5:1 7:0 73:1 18542:1 # 20140608132523AAWfvBH bad#dead NNP Computer_&_Internet TOKEN
-0.10035665000811244684797429727041 2:0 3:4 4:1 5:0 7:0 73:1 10005:1 # 20140613121148AAUGduQ LIFE NNP Social_Science TOKEN
-0.044747705206992442750202343404453 2:0 3:5 4:0 5:0 7:1 88:1 2049:1 # 20140625193136AAUePpR Knock VB Arts_&_Humanities TOKEN
-0.096490669791876371164107695221901 2:0 3:6 4:1 5:0 7:0 73:1 18265:1 # 20140609221937AAH7tge FACTOR NNP Travel TOKEN
-0.018198754120310578485941732651554 2:0 3:4 4:0 5:1 7:0 8:1 190:1 # 20140611011232AAoHyfn keep NN Sports TOKEN
0.5 2:0 3:5 4:0 5:0 7:1 73:1 7911:1 # 20140618024923AAR6gIm Rosen NNP Science_&_Mathematics PERSON
0.5 2:0 3:2 4:1 5:0 7:0 73:1 3408:1 # 20140616063937AAhSsrT UK NNP Business_&_Finance LOCATION
-0.5 2:0 3:4 4:0 5:0 7:1 73:1 13993:1 # 20140625210906AATgayM News NNP News_&_Events TOKEN
0.5 2:0 3:3 4:1 5:0 7:0 73:1 7172:1 # 20140613182418AAAZN2I WWE NNP Sports ORGANIZATION
0.5 2:0 3:3 4:1 5:0 7:0 73:1 14320:1 # 20140606223938AAjsrL7 NFC NNP News_&_Events ORGANIZATION
0.5 2:0 3:3 4:1 5:0 7:0 73:1 14319:1 # 20140606223938AAjsrL7 AFC NNP News_&_Events ORGANIZATION
-0.27043329846493552315322972390277 2:0 3:4 4:0 5:0 7:1 73:1 18608:1 # 20140611153520AAksgjY Wine NNP Computer_&_Internet TOKEN
0.5 2:0 3:4 4:1 5:0 7:0 73:1 6079:1 # 20140605225313AAAhy4Z A&E; NNP Health ORGANIZATION
-0.09467602897992488664158372557722 2:0 3:7 4:1 5:0 7:0 73:1 18262:1 # 20140609221937AAH7tge ACT#SAT NNP Travel TOKEN
-0.098507281582074668335735623259097 2:0 3:5 4:1 5:0 7:0 73:1 18930:1 # 20140617132235AAkTTzS WHERE NNP Computer_&_Internet TOKEN
0.5 2:0 3:4 4:1 5:0 7:0 73:1 13985:1 # 20140626101740AADAK0e ISIS NNP Politics_&_Government ORGANIZATION
0.5 2:0 3:4 4:1 5:0 7:0 73:1 12412:1 # 20140601151243AAGeO0l IKEA NNP Home_&_Garden ORGANIZATION
0.5 2:0 3:4 4:1 5:0 7:0 73:1 3768:1 # 20140605225754AA2LJWC ESPN NNP Consumer_Electronics ORGANIZATION
-0.5 2:0 3:4 4:1 5:0 7:0 73:1 13985:1 # 20140623230739AA9pP9C ISIS NNP News_&_Events TOKEN
-0.5 2:0 3:3 4:1 5:0 7:0 73:1 7172:1 # 20140605104442AAFzzy2 WWE NNP Sports TOKEN
0.5 2:0 3:3 4:1 5:0 7:0 73:1 13982:1 # 20140623230739AA9pP9C BBC NNP News_&_Events ORGANIZATION
-0.2731338284412954120483618680737 2:0 3:3 4:0 5:0 7:1 73:1 9209:1 # 20140613182418AAAZN2I Big NNP Sports TOKEN
-0.094033877164467288833904490275017 2:0 3:7 4:1 5:0 7:0 73:1 12052:1 # 20140626034154AAGjZE1 FURTHER NNP Food_&_Drink TOKEN
0.5 2:0 3:3 4:1 5:0 7:0 73:1 9434:1 # 20140623022611AAddTaJ UFC NNP Sports ORGANIZATION
0.5 2:0 3:3 4:1 5:0 7:0 73:1 19533:1 # 20140625072412AAUASEG LA. NNP Yahoo!_Products LOCATION
0.5 2:0 3:3 4:1 5:0 7:0 73:1 15192:1 # 20140610123048AAZOuhW KGB NNP Politics_&_Government ORGANIZATION
-0.5 2:0 3:3 4:0 5:0 7:1 73:1 5166:1 # 20140620063230AAXLo9n May NNP Food_&_Drink TOKEN
-0.5 2:0 3:3 4:0 5:0 7:1 73:1 4312:1 # 20140617213812AAnm3nS San NNP Travel TOKEN
0.5 2:0 3:3 4:1 5:0 7:0 73:1 2568:1 # 20140617130308AAqDdcG USA NNP Travel LOCATION
0.5 2:1 3:7 4:0 5:0 7:1 73:1 11348:1 # 20140616143448AAdU6Ze Caesars NNP Dining_Out ORGANIZATION
0.5 2:0 3:4 4:0 5:0 7:1 73:1 783:1 # 20140617074422AANUT7h Sade NNP Arts_&_Humanities PERSON
0.5 2:1 3:3 4:1 5:0 7:0 73:1 12376:1 # 20140601134625AAPRFLP CVS NNP Home_&_Garden ORGANIZATION
0.5 2:0 3:5 4:0 5:1 7:0 8:1 11110:1 # 20140613111207AAD5YgE wayne NN Dining_Out PERSON
0.5 2:0 3:4 4:0 5:0 7:1 73:1 8153:1 # 20140603131218AA1t3hP East NNP Local_Businesses LOCATION
-0.16701870044150357585976962582208 2:0 3:9 4:0 5:1 7:0 73:1 4193:1 # 20140607141649AANF6Tv 700-210xt NNP Consumer_Electronics TOKEN
0.5 2:1 3:9 4:0 5:0 7:1 73:1 11376:1 # 20140623125801AASUucg Starbucks NNP Food_&_Drink ORGANIZATION
0.5 2:0 3:5 4:0 5:1 7:0 8:1 14957:1 # 20140622080843AAfcL4m gomez NN Pets PERSON
-0.22194228024787315822763389405736 2:0 3:2 4:0 5:0 7:1 73:1 230:1 # 20140610190716AAGOR0h Im NNP Dining_Out TOKEN
0.5 2:0 3:11 4:0 5:0 7:1 73:1 3281:1 # 20140601093053AA6zdEg Pentonville NNP Business_&_Finance LOCATION
0.5 2:0 3:11 4:0 5:0 7:1 73:1 11052:1 # 20140601101734AAAYp2K Serendipity NNP Dining_Out ORGANIZATION
-0.5 2:0 3:4 4:1 5:0 7:0 73:1 5654:1 # 20140617203723AAnMv8x U.S. NNP Politics_&_Government TOKEN
-0.5 2:0 3:3 4:0 5:0 7:1 73:1 9209:1 # 20140623072617AAIXida Big NNP Dining_Out TOKEN
0.5 2:0 3:5 4:0 5:1 7:0 8:1 13881:1 # 20140617033632AAaS0SQ lohan NN News_&_Events PERSON
0.5 2:1 3:7 4:0 5:0 7:1 73:1 11368:1 # 20140616143448AAdU6Ze Quiznos NNP Dining_Out ORGANIZATION
0.5 2:0 3:3 4:0 5:0 7:1 73:1 4312:1 # 20140604083714AANM1Br San NNP Education_&_Reference LOCATION
-0.094668418391131048394981917226687 2:0 3:7 4:1 5:0 7:0 73:1 3553:1 # 20140614134845AAVhWeg CPHD500 NNP Consumer_Electronics TOKEN
0.5 2:0 3:4 4:1 5:0 7:0 73:1 5654:1 # 20140606075218AAmnm1s U.S. NNP Entertainment_&_Music LOCATION
0.5 2:0 3:3 4:1 5:0 7:0 73:1 14316:1 # 20140606223938AAjsrL7 NFL NNP News_&_Events ORGANIZATION
-0.5 2:0 3:4 4:1 5:0 7:0 73:1 5654:1 # 20140617203723AAnMv8x U.S. NNP Politics_&_Government TOKEN
0.5 2:1 3:5 4:0 5:0 7:1 73:1 9342:1 # 20140616154757AA3uubn Armed NNP News_&_Events ORGANIZATION
0.5 2:1 3:5 4:0 5:0 7:1 73:1 1891:1 # 20140605091638AATCTbo Carla NNP Arts_&_Humanities PERSON
-0.17455647067310225972747161904408 2:0 3:5 4:0 5:1 7:0 73:1 172:1 # 20140618095228AAKVjIw &amp; NNP Science_&_Mathematics TOKEN
0.5 2:0 3:10 4:0 5:0 7:0 73:1 12866:1 # 20140613214814AARwXS4 Winn-Dixie NNP Local_Businesses ORGANIZATION
-0.094676028979920445749485224951059 2:0 3:7 4:1 5:0 7:0 73:1 19518:1 # 20140620134143AA2rxJi SUPPORT NNP Yahoo!_Products TOKEN
0.5 2:0 3:3 4:0 5:0 7:1 73:1 5559:1 # 20140618141409AA9yzif Ray NNP Entertainment_&_Music PERSON
-0.05815170987087309173446669774421 2:1 3:3 4:0 5:0 7:1 43:1 991:1 # 20140612160340AAE8W0E Are VBP Sports TOKEN
0.5 2:0 3:3 4:1 5:0 7:0 73:1 7172:1 # 20140613182418AAAZN2I WWE NNP Sports ORGANIZATION
0.5 2:0 3:3 4:1 5:0 7:0 73:1 3539:1 # 20140612121603AAc09vI AMD NNP Games_&_Recreation ORGANIZATION
-0.093799329652130225554174103308469 2:0 3:7 4:1 5:0 7:0 73:1 3541:1 # 20140614134845AAVhWeg FX-4300 NNP Consumer_Electronics TOKEN
0.5 2:1 3:5 4:0 5:0 7:1 73:1 14400:1 # 20140620214550AA74tKP Myers NNP News_&_Events PERSON
0.5 2:1 3:5 4:0 5:0 7:1 73:1 819:1 # 20140617074422AANUT7h Jones NNP Arts_&_Humanities PERSON
0.5 2:1 3:5 4:0 5:0 7:1 73:1 8897:1 # 20140611011232AAoHyfn Spurs NNP Sports ORGANIZATION
-0.22303543177099838246135732333641 2:1 3:4 4:0 5:0 7:1 73:1 13695:1 # 20140616152825AABP2iB Isla NNP News_&_Events TOKEN
0.5 2:0 3:4 4:0 5:0 7:0 8:1 3200:1 # 20140605231104AAm8fzJ eBay NN Politics_&_Government ORGANIZATION
-0.17034574514298028713454868920962 2:0 3:7 4:0 5:1 7:0 73:1 8962:1 # 20140606003853AAp4Kid airsoft NNP Sports TOKEN
-0.093886505290066812889904213079717 2:0 3:7 4:1 5:0 7:0 73:1 15425:1 # 20140619072135AAeFu7N CANNIOT NNP Politics_&_Government TOKEN
0.5 2:0 3:3 4:1 5:0 7:0 73:1 4270:1 # 20140604083714AANM1Br UNC NNP Education_&_Reference ORGANIZATION
0.5 2:0 3:3 4:1 5:0 7:0 73:1 4154:1 # 20140607141649AANF6Tv MSI NNP Consumer_Electronics ORGANIZATION
-0.2209596311941517399191070580855 2:1 3:5 4:0 5:0 7:1 73:1 12577:1 # 20140610220123AAW30Bg Lowes NNP Home_&_Garden TOKEN
-0.22082361340743617006410204339772 2:1 3:5 4:0 5:0 7:1 73:1 5436:1 # 20140620190356AAdnQme Gangs NNP Entertainment_&_Music TOKEN
-0.22101996429768472340882112803229 2:1 3:5 4:0 5:0 7:1 73:1 18017:1 # 20140604152901AACS3Yj Treks NNP Travel TOKEN
-0.17071780135361969144014437915757 2:0 3:7 4:0 5:1 7:0 73:1 11235:1 # 20140610172137AA9hoaq chicago NNP Dining_Out TOKEN
-0.5 2:0 3:3 4:1 5:0 7:0 73:1 3539:1 # 20140608132523AAWfvBH AMD NNP Computer_&_Internet TOKEN
-0.5 2:0 3:3 4:1 5:0 7:0 73:1 7172:1 # 20140621171642AATfemJ WWE NNP Games_&_Recreation TOKEN
0.5 2:1 3:9 4:0 5:0 7:1 73:1 8460:1 # 20140612022126AAsUT1R Wayfarers NNP Beauty_&_Style ORGANIZATION
-0.17083066580486594432386482367292 2:0 3:7 4:0 5:1 7:0 73:1 5831:1 # 20140613124158AAH0KXB english NNP Entertainment_&_Music TOKEN
-0.094652707015015824509873709757812 2:0 3:7 4:1 5:0 7:0 73:1 6467:1 # 20140610164612AA5SkqL KITCHEN NNP Health TOKEN
-0.5 2:0 3:3 4:1 5:0 7:0 73:1 3539:1 # 20140608132523AAWfvBH AMD NNP Computer_&_Internet TOKEN
-0.10038343728841248037042532814667 2:0 3:4 4:1 5:0 7:0 73:1 13985:1 # 20140623230739AA9pP9C ISIS NNP News_&_Events TOKEN
-0.014265615142603702003576415791031 2:0 3:5 4:0 5:0 7:1 88:1 11133:1 # 20140605151444AA6EqVP Shake VB Dining_Out TOKEN
-0.22107708539078840814795512415003 2:1 3:5 4:0 5:0 7:1 73:1 5346:1 # 20140613124917AAp8Kiq Skins NNP Entertainment_&_Music TOKEN
-0.10414305610437907256837775094027 2:0 3:2 4:1 5:0 7:0 73:1 9515:1 # 20140615120927AAPeVv5 AZ NNP Sports TOKEN
-0.5 1:1 2:0 3:4 4:0 5:0 6:1 7:1 # 20140614070914AAwpQqi Will MD Consumer_Electronics TOKEN
-0.10419159547769440976594523817766 2:0 3:2 4:1 5:0 7:0 73:1 7865:1 # 20140610222206AAaaj3T BC NNP News_&_Events TOKEN
0.5 2:0 3:3 4:1 5:0 7:0 73:1 2568:1 # 20140604112329AAS36PD USA NNP Dining_Out LOCATION
-0.10420199458302104034146395861171 2:0 3:2 4:1 5:0 7:0 73:1 14746:1 # 20140620141720AAh6NZ6 JR NNP Pets TOKEN
-0.22197202288448525386854726093588 2:1 3:4 4:0 5:0 7:1 73:1 6855:1 # 20140620231356AA5VO2N Sims NNP Games_&_Recreation TOKEN
-0.018697448643109737531631253659725 2:1 3:5 4:0 5:0 7:1 73:1 19300:1 # 20140621192007AAsQBSf Vines NNP Pregnancy_&_Parenting TOKEN
-0.22104544323995778398739275871776 2:1 3:5 4:0 5:0 7:1 73:1 13560:1 # 20140622053126AAxcj34 Found NNP Family_&_Relationships TOKEN
-0.22070354929357183237925710272975 2:1 3:5 4:0 5:0 7:1 73:1 14048:1 # 20140601100338AAUfBLz Brits NNP News_&_Events TOKEN
-0.22115222666260336836785427294672 2:1 3:5 4:0 5:0 7:1 73:1 5025:1 # 20140613083238AAZnREA Girls NNP Beauty_&_Style TOKEN
-0.10408544665880103963218061835505 2:0 3:2 4:1 5:0 7:0 73:1 7975:1 # 20140601094337AAbsB6Z B. NNP Politics_&_Government TOKEN
-0.10408544665880103963218061835505 2:0 3:2 4:1 5:0 7:0 73:1 5338:1 # 20140613124917AAp8Kiq RP NNP Entertainment_&_Music TOKEN
-0.10330573972726997400428672335693 2:0 3:2 4:1 5:0 7:0 73:1 7851:1 # 20140623173753AAUMZe3 D. NNP Food_&_Drink TOKEN
-0.10424311150237475231961070676334 2:0 3:2 4:1 5:0 7:0 73:1 5149:1 # 20140619101954AAAy1Zi I. NNP Entertainment_&_Music TOKEN
-0.14818957259215892463544150814414 2:0 3:19 4:0 5:1 7:0 73:1 8010:1 # 20140621084721AANldDd comparison#contrast NNP Science_&_Mathematics TOKEN
-0.27154931062307507971809172886424 2:0 3:4 4:0 5:0 7:1 73:1 12511:1 # 20140605210007AAoMB1b Gran NNP Home_&_Garden TOKEN
-0.22115222666260536676929859822849 2:1 3:5 4:0 5:0 7:1 73:1 11972:1 # 20140607232759AAzh7sY Baked NNP Food_&_Drink TOKEN
-0.22070399985519406627076932636555 2:1 3:5 4:0 5:0 7:1 73:1 9730:1 # 20140606231225AAaaTGf Thats NNP Social_Science TOKEN
-0.25908417925038551565819489042042 2:0 3:10 4:0 5:0 7:1 73:1 4394:1 # 20140616160015AAkjHsB University NNP Dining_Out TOKEN
-0.22003630309334454295822069980204 2:1 3:5 4:0 5:0 7:1 73:1 11213:1 # 20140616160015AAkjHsB Pines NNP Dining_Out TOKEN
-0.22100406593776344976731706992723 2:1 3:5 4:0 5:0 7:1 73:1 18259:1 # 20140609221937AAH7tge Rides NNP Travel TOKEN
-0.22099647355550899874288006685674 2:1 3:5 4:0 5:0 7:1 73:1 11434:1 # 20140623072617AAIXida Kings NNP Dining_Out TOKEN
-0.22002599104195219581470155389979 2:1 3:5 4:0 5:0 7:1 73:1 11761:1 # 20140620063230AAXLo9n Stars NNP Food_&_Drink TOKEN
-0.18183484016223117052390989556443 2:1 3:5 4:0 5:0 7:1 73:1 8801:1 # 20140613125219AA2D0JF Links NNP Beauty_&_Style TOKEN
0.5 2:1 3:9 4:0 5:1 7:0 8:1 11112:1 # 20140622003739AAdUNRt mcdonalds NN Dining_Out ORGANIZATION
-0.093683538787712336559643233613315 2:0 3:7 4:1 5:0 7:0 73:1 5146:1 # 20140619101954AAAy1Zi WHOEVER NNP Entertainment_&_Music TOKEN
-0.34569788730352435379700182238594 2:0 3:2 4:0 5:1 7:0 73:1 149:1 # 20140625095108AAhxBZ2 in NNP Arts_&_Humanities TOKEN
-0.094712420952053566480799418059178 2:0 3:7 4:1 5:0 7:0 73:1 19075:1 # 20140620170402AA0uGdu HIM#HER NNP Pregnancy_&_Parenting TOKEN
-0.22009063257282046599527802754892 2:1 3:5 4:0 5:0 7:1 73:1 8558:1 # 20140610100930AAaZ9T3 Clogs NNP Beauty_&_Style TOKEN
-0.22039063646367695881167492188979 2:1 3:5 4:0 5:0 7:1 73:1 5340:1 # 20140613124158AAH0KXB Codes NNP Entertainment_&_Music TOKEN
-0.027134548644250244819886574987322 2:1 3:5 4:0 5:0 7:1 73:1 18919:1 # 20140620035536AASKdrI Peeps NNP Computer_&_Internet TOKEN
-0.018362487365672697237073407450225 2:0 3:4 4:0 5:0 7:1 124:1 3819:1 # 20140603084904AAsQGUA Best JJS Consumer_Electronics TOKEN
-0.22114067819338312226307152741356 2:1 3:5 4:0 5:0 7:1 73:1 14314:1 # 20140625210906AATgayM Times NNP News_&_Events TOKEN
-0.22113744874494400960429629776627 2:1 3:5 4:0 5:0 7:1 73:1 8233:1 # 20140622013948AAZujJH Volts NNP Science_&_Mathematics TOKEN
-0.22113744874493868053377809701487 2:1 3:5 4:0 5:0 7:1 73:1 13145:1 # 20140603131218AA1t3hP Techs NNP Local_Businesses TOKEN
-0.09376564785630114862158279720461 2:0 3:7 4:1 5:0 7:0 73:1 255:1 # 20140608034752AAWHbyf FINALLY NNP Arts_&_Humanities TOKEN
-0.10046333196207402060906588303624 2:0 3:4 4:1 5:0 7:0 73:1 9082:1 # 20140620105746AAnOLsk P-35 NNP Sports TOKEN
-0.10040925013745649607699306216091 2:0 3:4 4:1 5:0 7:0 73:1 3432:1 # 20140610094552AAK4gFS VERY NNP Health TOKEN
-0.10036670690812177220152534573572 2:0 3:4 4:1 5:0 7:0 73:1 6367:1 # 20140611193450AAnqGcc LOSE NNP Health TOKEN
-0.10030650654485989692332736922253 2:0 3:4 4:1 5:0 7:0 73:1 15164:1 # 20140610123048AAZOuhW PTSD NNP Politics_&_Government TOKEN
-0.093683538787707895667544732987153 2:0 3:7 4:1 5:0 7:0 73:1 15006:1 # 20140613154011AAJ98M9 CONTROL NNP Politics_&_Government TOKEN
-0.094715569096758045475326071027666 2:0 3:7 4:1 5:0 7:0 73:1 8514:1 # 20140606094425AAJm5yJ POKEMON NNP Beauty_&_Style TOKEN
-0.25633309281080940422725689131767 2:0 3:12 4:0 5:0 7:1 73:1 9069:1 # 20140605104442AAFzzy2 Championship NNP Sports TOKEN
-0.0945934988270324961234791771858 2:0 3:7 4:1 5:0 7:0 73:1 4135:1 # 20140607141649AANF6Tv FX-6350 NNP Consumer_Electronics TOKEN
-0.038839506434653225941389109721058 2:1 3:5 4:0 5:0 7:1 73:1 8801:1 # 20140613214814AARwXS4 Links NNP Local_Businesses TOKEN
-0.27498911556284177937214963094448 2:0 3:2 4:0 5:0 7:1 73:1 12930:1 # 20140622225954AAAlKMt Mr NNP Local_Businesses TOKEN
-0.17241766509933703632739820932329 2:0 3:6 4:0 5:1 7:0 73:1 12967:1 # 20140622225954AAAlKMt chuyen NNP Local_Businesses TOKEN
-0.11501525092924569371177767607151 2:0 3:3 4:0 5:0 7:1 8:1 4433:1 # 20140621041314AA5qW3l Mom NN Education_&_Reference TOKEN
-0.11491905475527897095844309660606 2:0 3:3 4:0 5:0 7:1 8:1 12409:1 # 20140601151243AAGeO0l Bed NN Home_&_Garden TOKEN
-0.023436983251634568858889906550758 2:0 3:3 4:0 5:0 7:1 8:1 1527:1 # 20140616073715AA0e9si Any NN Cars_&_Transportation TOKEN
0.5 2:1 3:2 4:1 5:0 7:0 16:1 2475:1 # 20140612145554AAjlhJX US PRP Beauty_&_Style LOCATION
0.5 2:0 3:4 4:0 5:1 7:0 8:1 13833:1 # 20140607125905AA2JtXv army NN Politics_&_Government ORGANIZATION
-0.25634321356022482518710603471845 2:0 3:12 4:0 5:0 7:1 73:1 19390:1 # 20140608060520AAMzqLw Autocomplete NNP Yahoo!_Products TOKEN
0.5 2:0 3:13 4:0 5:0 7:1 73:1 8150:1 # 20140625120602AAXWOm0 Mediterranean NNP Science_&_Mathematics LOCATION
0.5 2:0 3:12 4:0 5:0 7:1 73:1 3079:1 # 20140611204210AAPJj1y Bannerghatta NNP Business_&_Finance LOCATION
0.5 2:0 3:12 4:1 5:0 7:0 73:1 3558:1 # 20140614134845AAVhWeg CYBERPOWERPC NNP Consumer_Electronics ORGANIZATION
-0.5 2:0 3:4 4:0 5:0 7:1 73:1 8153:1 # 20140601100338AAUfBLz East NNP News_&_Events TOKEN
-0.5 2:1 3:9 4:0 5:0 7:1 73:1 10548:1 # 20140608182325AAmvy1Q Illionois NNP Cars_&_Transportation TOKEN
-0.27431970710072128838419303065166 2:0 3:2 4:0 5:0 7:1 73:1 844:1 # 20140617152905AAraW4N Ok NNP Education_&_Reference TOKEN
-0.17116474533079314990224872872204 2:0 3:2 4:0 5:0 7:1 73:1 185:1 # 20140617015321AAEmy38 So NNP Politics_&_Government TOKEN
0.5 2:0 3:7 4:0 5:1 7:0 26:1 7383:1 # 20140614114159AAxmnir western JJ Travel LOCATION
0.5 2:0 3:6 4:0 5:1 7:0 26:1 13789:1 # 20140617203723AAnMv8x muslim JJ Politics_&_Government ORGANIZATION
0.5 2:0 3:3 4:0 5:0 7:0 204:1 2700:1 # 20140605081144AAuazx4 1#2 CD Science_&_Mathematics PERSON
-0.0047907584033251016109034026158042 2:0 3:10 4:0 5:1 7:0 8:1 2204:1 # 20140601094337AAbsB6Z government NN Politics_&_Government TOKEN
0.5 2:0 3:4 4:0 5:0 7:1 73:1 8152:1 # 20140614170630AA1o9BQ Iraq NNP Politics_&_Government LOCATION
0.5 2:0 3:10 4:0 5:0 7:1 73:1 15686:1 # 20140614170630AA1o9BQ Kazakhstan NNP Politics_&_Government LOCATION
0.5 2:0 3:11 4:0 5:0 7:1 73:1 775:1 # 20140617074422AANUT7h Shakespeare NNP Arts_&_Humanities PERSON
-0.0030801590554544455713426032161806 2:0 3:5 4:0 5:1 7:0 43:1 273:1 # 20140617145448AAyyT2q agree VBP Pets TOKEN
-0.023274331717728108381848528551927 2:0 3:1 4:0 5:1 7:0 8:1 2330:1 # 20140616230100AA0TniQ e NN Business_&_Finance TOKEN
-0.024021254357811328006278017710429 2:0 3:1 4:0 5:1 7:0 8:1 7337:1 # 20140623023853AA1SoFR h NN Science_&_Mathematics TOKEN
0.5 2:1 3:10 4:0 5:0 7:1 73:1 1757:1 # 20140621012549AAOo4ve Dreamworks NNP Arts_&_Humanities ORGANIZATION
-0.22389244971950184037723374785855 2:1 3:3 4:0 5:0 7:1 73:1 3523:1 # 20140614134845AAVhWeg Ops NNP Consumer_Electronics TOKEN
-0.069782778647431875640450016362593 2:1 3:6 4:0 5:0 7:1 20:1 13856:1 # 20140617015321AAEmy38 Making VBG Politics_&_Government TOKEN
-0.069782778647424548168487490329426 2:1 3:6 4:0 5:0 7:1 20:1 6593:1 # 20140612080629AAuyjlx Having VBG Health TOKEN
-0.068871458197417703694931390145939 2:1 3:6 4:0 5:0 7:1 20:1 836:1 # 20140612085831AAz7B4T Taking VBG Home_&_Garden TOKEN
0.5 2:0 3:6 4:0 5:0 7:1 73:1 7788:1 # 20140614170630AA1o9BQ France NNP Politics_&_Government LOCATION
0.5 2:0 3:4 4:0 5:0 7:1 73:1 13993:1 # 20140617191218AAiEBHA News NNP News_&_Events ORGANIZATION
-0.46866765223558382036372904622112 2:0 3:3 4:0 5:1 7:0 26:1 31:1 # 20140607053946AAkMdTv new JJ Social_Science TOKEN
0.5 2:1 3:7 4:0 5:0 7:1 73:1 12802:1 # 20140616200702AA6Pms8 Angeles NNP Local_Businesses LOCATION
0.5 2:1 3:7 4:0 5:0 7:1 73:1 11379:1 # 20140616143448AAdU6Ze Hortons NNP Dining_Out ORGANIZATION
0.5 2:1 3:7 4:0 5:0 7:1 73:1 3502:1 # 20140614134845AAVhWeg Windows NNP Consumer_Electronics ORGANIZATION
-0.5 2:0 3:5 4:0 5:1 7:0 26:1 5739:1 # 20140617002506AAFEf5T green JJ Beauty_&_Style TOKEN
0.5 2:0 3:3 4:1 5:0 7:0 73:1 3539:1 # 20140612121603AAc09vI AMD NNP Games_&_Recreation ORGANIZATION
0.5 2:0 3:4 4:1 5:0 7:0 73:1 5654:1 # 20140606075218AAmnm1s U.S. NNP Entertainment_&_Music LOCATION
0.5 2:0 3:11 4:0 5:0 7:0 73:1 12865:1 # 20140613214814AARwXS4 Chic-Fill-A NNP Local_Businesses ORGANIZATION
-0.052522749303143712040764512494206 2:0 3:2 4:0 5:0 7:1 73:1 230:1 # 20140607204711AAtWX4j Im NNP Local_Businesses TOKEN
-0.27465809514932892909655492985621 2:0 3:2 4:0 5:0 7:1 73:1 7632:1 # 20140618095228AAKVjIw Ri NNP Science_&_Mathematics TOKEN
-0.023190464673397137573829240864143 2:0 3:2 4:0 5:0 7:1 73:1 1086:1 # 20140605231104AAm8fzJ He NNP Politics_&_Government TOKEN
0.5 2:0 3:7 4:0 5:1 7:0 43:1 8739:1 # 20140612145554AAjlhJX america VBP Beauty_&_Style LOCATION
0.5 2:1 3:2 4:1 5:0 7:0 16:1 2475:1 # 20140613180332AA3jCxr US PRP News_&_Events LOCATION
-0.49801280120138180507183278677985 2:0 3:3 4:0 5:1 7:0 8:1 11396:1 # 20140608112522AAMjxU9 hut NN Local_Businesses TOKEN
-0.26392479408874969237785990117118 2:0 3:8 4:0 5:0 7:1 73:1 4491:1 # 20140618125641AAGkGpi Research NNP Education_&_Reference TOKEN
-0.27431970710078434905199173954315 2:0 3:2 4:0 5:0 7:1 73:1 3010:1 # 20140611204210AAPJj1y Dr NNP Business_&_Finance TOKEN
-0.27514307759398759500868436589371 2:0 3:2 4:0 5:0 7:1 73:1 5832:1 # 20140613124158AAH0KXB Va NNP Entertainment_&_Music TOKEN
-0.27498688102673651822982492376468 2:0 3:2 4:0 5:0 7:1 73:1 9659:1 # 20140616160015AAkjHsB La NNP Dining_Out TOKEN
0.5 2:0 3:3 4:0 5:0 7:0 204:1 2700:1 # 20140605081144AAuazx4 1#2 CD Science_&_Mathematics PERSON
-0.27261786261621745452998766268138 2:0 3:3 4:0 5:0 7:1 73:1 1896:1 # 20140605091638AATCTbo Too NNP Arts_&_Humanities TOKEN
-0.27470248510371431116539042704972 2:0 3:2 4:0 5:0 7:1 73:1 9266:1 # 20140617195809AA0PD6g Di NNP Sports TOKEN
-0.27470248510375788741910696444393 2:0 3:2 4:0 5:0 7:1 73:1 7204:1 # 20140613202053AAONeF7 Hm NNP Games_&_Recreation TOKEN
-0.27255181644545112273902986999019 2:0 3:3 4:0 5:0 7:1 73:1 14856:1 # 20140608222755AASVAKO Tia NNP Pets TOKEN
-0.27226367317018485003643490927061 2:0 3:3 4:0 5:0 7:1 73:1 15329:1 # 20140611151627AAmAEbQ War NNP Politics_&_Government TOKEN
-0.022808534738722130441601620987058 2:0 3:1 4:0 5:1 7:0 8:1 5829:1 # 20140609205506AAfzAT8 r NN Home_&_Garden TOKEN
-0.17272825641995404044592987702345 2:0 3:6 4:0 5:1 7:0 73:1 903:1 # 20140619101954AAAy1Zi and#or NNP Entertainment_&_Music TOKEN
0.5 2:0 3:8 4:0 5:0 7:0 73:1 10495:1 # 20140623072617AAIXida McDonald NNP Dining_Out ORGANIZATION
-0.26859935891561426135609735865728 2:0 3:5 4:0 5:0 7:1 73:1 15672:1 # 20140614170630AA1o9BQ Stasi NNP Politics_&_Government TOKEN
-0.27310335534417129466078222321812 2:0 3:3 4:0 5:0 7:1 73:1 6072:1 # 20140605225313AAAhy4Z Huh NNP Health TOKEN
0.5 2:1 3:9 4:0 5:0 7:1 73:1 10548:1 # 20140608182325AAmvy1Q Illionois NNP Cars_&_Transportation LOCATION
0.5 2:0 3:7 4:0 5:1 7:0 26:1 7383:1 # 20140614114159AAxmnir western JJ Travel LOCATION
-0.5 2:0 3:8 4:0 5:1 7:0 8:1 5583:1 # 20140622085925AAdFLbE chemical NN Science_&_Mathematics TOKEN
0.5 2:0 3:9 4:0 5:1 7:0 26:1 1875:1 # 20140614170630AA1o9BQ corporate JJ Politics_&_Government ORGANIZATION
-0.5 2:0 3:5 4:0 5:1 7:0 73:1 172:1 # 20140625140958AAG0wQK &amp; NNP Beauty_&_Style TOKEN
-0.023805815608660907400917494669557 2:0 3:6 4:0 5:1 7:0 8:1 2072:1 # 20140625193136AAUePpR middle NN Arts_&_Humanities TOKEN
-0.5 2:0 3:7 4:0 5:1 7:0 8:1 11079:1 # 20140622072140AAPnIrk chicken NN Food_&_Drink TOKEN
0.5 2:0 3:3 4:1 5:0 7:0 73:1 7172:1 # 20140613182418AAAZN2I WWE NNP Sports ORGANIZATION
0.5 2:0 3:12 4:1 5:0 7:0 73:1 3558:1 # 20140614134845AAVhWeg CYBERPOWERPC NNP Consumer_Electronics ORGANIZATION
-0.096574037193175144011547672562301 2:0 3:6 4:1 5:0 7:0 73:1 928:1 # 20140617123215AAwmmE0 :-RRB- NNP Consumer_Electronics TOKEN
-0.10318016136476990118886476466287 2:0 3:2 4:1 5:0 7:0 73:1 10895:1 # 20140617092003AATWcQC GT NNP Cars_&_Transportation TOKEN
-0.050021996415840624949922244013578 2:1 3:5 4:1 5:0 7:0 73:1 11885:1 # 20140619055300AA9BUOc MOLDS NNP Food_&_Drink TOKEN
-0.0024328410515552789661342103499919 2:0 3:12 4:0 5:1 7:0 8:1 4499:1 # 20140611031137AAH7s7n conversation NN Family_&_Relationships TOKEN
-0.0031749576786523903138004243373871 2:0 3:12 4:0 5:1 7:0 8:1 7786:1 # 20140605081144AAuazx4 mademoiselle NN Science_&_Mathematics TOKEN
-0.5 2:0 3:6 4:0 5:0 7:1 73:1 4399:1 # 20140607125905AA2JtXv Canada NNP Politics_&_Government TOKEN
0.5 2:0 3:10 4:0 5:0 7:1 73:1 15686:1 # 20140614170630AA1o9BQ Kazakhstan NNP Politics_&_Government LOCATION
-0.5 2:0 3:4 4:0 5:1 7:0 8:1 1077:1 # 20140603020037AAlyzyA land NN Travel TOKEN
0.5 2:0 3:5 4:0 5:0 7:1 73:1 14382:1 # 20140613180332AA3jCxr Saudi NNP News_&_Events LOCATION
0.5 2:1 3:6 4:0 5:0 7:1 73:1 12442:1 # 20140619072135AAeFu7N United NNP Politics_&_Government LOCATION
0.5 2:1 3:6 4:0 5:0 7:1 73:1 11049:1 # 20140610083106AA7AAUT Steaks NNP Dining_Out ORGANIZATION
-0.023195595190195206214411882683635 2:0 3:1 4:0 5:1 7:0 8:1 4443:1 # 20140618170211AA99yVG k NN Science_&_Mathematics TOKEN
-0.0033183582751291629264756011252757 2:0 3:3 4:0 5:1 7:0 20:1 5353:1 # 20140621194648AAv7Pxb aka VBG Entertainment_&_Music TOKEN
-0.024021254357815324809166668273974 2:0 3:1 4:0 5:1 7:0 8:1 8201:1 # 20140608113659AAJ5fVM z NN Science_&_Mathematics TOKEN
-0.012775095117122603483039711136371 2:0 3:7 4:0 5:1 7:0 8:1 6336:1 # 20140608094114AAxPdPq calcium NN Health TOKEN
-0.27299455314731702060271345544606 2:0 3:3 4:0 5:0 7:1 73:1 8810:1 # 20140613125219AA2D0JF Aww NNP Beauty_&_Style TOKEN
-0.49944699455143837241166693274863 2:0 3:4 4:0 5:1 7:0 8:1 194:1 # 20140623171559AARTbz7 time NN Computer_&_Internet TOKEN
0.5 2:0 3:4 4:1 5:0 7:0 73:1 5654:1 # 20140622140805AAtjqJa U.S. NNP Cars_&_Transportation ORGANIZATION
-0.27227334258726804128158960338624 2:0 3:3 4:0 5:0 7:1 73:1 7283:1 # 20140606094406AAvjkJW Tom NNP Games_&_Recreation TOKEN
-0.14106903755468813699280872242525 2:0 3:3 4:0 5:0 7:1 73:1 465:1 # 20140611200230AA2zvuY Btw NNP Computer_&_Internet TOKEN
0.5 2:1 3:2 4:1 5:0 7:0 16:1 2475:1 # 20140622210819AARJGLW US PRP Entertainment_&_Music LOCATION
-0.5 2:0 3:4 4:0 5:1 7:0 8:1 487:1 # 20140612080629AAuyjlx area NN Health TOKEN
-0.26955431304206722842309318366461 2:0 3:5 4:0 5:0 7:1 73:1 3606:1 # 20140618213123AAbc65y Video NNP Games_&_Recreation TOKEN
-0.27342561529928421926172177336412 2:0 3:3 4:0 5:0 7:1 41:1 73:1 # 20140622223032AAkvyyd Now NNP Games_&_Recreation TOKEN
-0.27222913457766495515244287162204 2:0 3:3 4:0 5:0 7:1 73:1 9101:1 # 20140620105746AAnOLsk Sig NNP Sports TOKEN
-0.5 2:1 3:2 4:1 5:0 7:0 16:1 2475:1 # 20140622223032AAkvyyd US PRP Games_&_Recreation TOKEN
0.5 2:0 3:7 4:0 5:0 7:1 73:1 5194:1 # 20140614004826AAWj9IB Vietnam NNP Entertainment_&_Music LOCATION
-0.27309448685046988636315745679894 2:0 3:3 4:0 5:0 7:1 73:1 12095:1 # 20140619114039AAjxNQW Law NNP Food_&_Drink TOKEN
0.5 2:0 3:4 4:0 5:0 7:1 73:1 8152:1 # 20140614170630AA1o9BQ Iraq NNP Politics_&_Government LOCATION
-0.27229077665041856448624457698315 2:0 3:3 4:0 5:0 7:1 73:1 2604:1 # 20140615124053AAji1XJ Idk NNP Science_&_Mathematics TOKEN
-0.27288183227869255986774987832177 2:0 3:3 4:0 5:0 7:1 73:1 6674:1 # 20140612080629AAuyjlx Tea NNP Health TOKEN
-0.2727965183024125828126216219971 2:0 3:3 4:0 5:0 7:1 73:1 3854:1 # 20140601072000AABRvpX Run NNP Games_&_Recreation TOKEN
-0.17261970522417691142891271738335 2:0 3:6 4:0 5:1 7:0 73:1 2960:1 # 20140614045845AAdu92x search NNP Computer_&_Internet TOKEN
-0.1726192726727462378732980141649 2:0 3:6 4:0 5:1 7:0 73:1 18785:1 # 20140609063130AAx8NAT lenovo NNP Computer_&_Internet TOKEN
-0.17290756534251983111971640028059 2:0 3:6 4:0 5:1 7:0 73:1 6908:1 # 20140608132523AAWfvBH 64-bit NNP Computer_&_Internet TOKEN
-0.018136828105036251201909180963412 2:0 3:4 4:0 5:1 7:0 8:1 487:1 # 20140611165651AAiykAa area NN Pets TOKEN
-0.065389566594596715276566101238132 2:0 3:4 4:1 5:0 7:0 73:1 4057:1 # 20140606193910AApjpvz TESV NNP Consumer_Electronics TOKEN
-0.069213162966680175092193394448259 2:1 3:6 4:0 5:0 7:1 20:1 15578:1 # 20140603004555AAv1K5X Moving VBG Politics_&_Government TOKEN
-0.054766377575241165232000639662147 2:1 3:9 4:0 5:0 7:1 8:1 4516:1 # 20140618125641AAGkGpi Listening NN Education_&_Reference TOKEN
-0.031463220082152715262324704781349 2:0 3:4 4:1 5:0 7:0 73:1 19340:1 # 20140608060520AAMzqLw AUTO NNP Yahoo!_Products TOKEN
-0.27031205904679506124566046310065 2:0 3:4 4:0 5:0 7:1 73:1 8794:1 # 20140613125219AA2D0JF Gold NNP Beauty_&_Style TOKEN
-0.26579427228329333132705869502388 2:0 3:7 4:0 5:0 7:1 73:1 11803:1 # 20140612135609AAxFMMn October NNP Food_&_Drink TOKEN
-0.0095794336592770965022047846559872 2:0 3:8 4:0 5:1 7:0 8:1 2427:1 # 20140608145354AAWyj40 loan?and NN Business_&_Finance TOKEN
-0.091578267680129776806552399648353 2:0 3:3 4:0 5:0 7:1 8:1 1527:1 # 20140616073715AA0e9si Any NN Cars_&_Transportation TOKEN
0.5 2:0 3:7 4:0 5:0 7:1 73:1 3570:1 # 20140607132455AAfiY8G Samsung NNP Consumer_Electronics ORGANIZATION
0.5 2:0 3:7 4:0 5:0 7:1 73:1 12416:1 # 20140605150717AAmRFk6 Michael NNP News_&_Events PERSON
0.5 2:0 3:6 4:0 5:0 7:1 73:1 13954:1 # 20140626120744AAMAD0e Russia NNP News_&_Events LOCATION
0.5 2:0 3:8 4:0 5:0 7:0 73:1 11334:1 # 20140616143448AAdU6Ze In-N-Out NNP Dining_Out ORGANIZATION
0.5 2:0 3:5 4:0 5:1 7:0 88:1 13037:1 # 20140620172230AAfuPAg texas VB Local_Businesses LOCATION
-0.5 2:0 3:6 4:0 5:0 7:1 73:1 13954:1 # 20140617203723AAnMv8x Russia NNP Politics_&_Government TOKEN
0.5 2:0 3:7 4:0 5:1 7:0 88:1 12548:1 # 20140619063559AA2eks0 florida VB Home_&_Garden LOCATION
-0.26970998108557697747755810269155 2:0 3:5 4:0 5:0 7:1 73:1 1716:1 # 20140609103348AAf8tZ6 Islam NNP News_&_Events TOKEN
-0.045341750970435246159695452661254 2:0 3:5 4:0 5:0 7:1 88:1 8800:1 # 20140611175239AA5u6en Leave VB Family_&_Relationships TOKEN
0.5 2:0 3:6 4:0 5:0 7:1 73:1 13954:1 # 20140614170630AA1o9BQ Russia NNP Politics_&_Government LOCATION
-0.17288405224908792723326200757583 2:0 3:6 4:0 5:1 7:0 73:1 8919:1 # 20140615190410AAmWDg3 mexico NNP Sports TOKEN
-0.26961577288011895348063262645155 2:0 3:5 4:0 5:0 7:1 73:1 10914:1 # 20140614131911AAPXlGW Hilux NNP Cars_&_Transportation TOKEN
-0.26864222490037192869749560486525 2:0 3:5 4:0 5:0 7:1 73:1 3371:1 # 20140621104938AAA4IC5 Cease NNP Business_&_Finance TOKEN
0.5 2:0 3:3 4:0 5:1 7:0 32:1 73:1 # 20140616143448AAdU6Ze and NNP Dining_Out ORGANIZATION
-0.048484008426131847135920338587312 2:0 3:11 4:0 5:0 7:1 26:1 13920:1 # 20140607104637AASvvKI Thatcherite JJ News_&_Events TOKEN
-0.096535081250445742284682637546211 2:0 3:6 4:1 5:0 7:0 73:1 10763:1 # 20140609115257AAXrpdb YEARLY NNP Cars_&_Transportation TOKEN
-0.096606942386837424407985963625833 2:0 3:6 4:1 5:0 7:0 73:1 7097:1 # 20140610162943AA8McBJ CD#DVD NNP Games_&_Recreation TOKEN
-0.096535081250442189571003837045282 2:0 3:6 4:1 5:0 7:0 73:1 18902:1 # 20140625171723AAQIRte UPLOAD NNP Computer_&_Internet TOKEN
0.5 2:1 3:6 4:0 5:0 7:1 73:1 11324:1 # 20140616143448AAdU6Ze Donuts NNP Dining_Out ORGANIZATION
0.5 2:1 3:6 4:0 5:0 7:1 73:1 4481:1 # 20140618125641AAGkGpi Hughes NNP Education_&_Reference PERSON
0.5 2:0 3:7 4:0 5:0 7:0 73:1 118:1 # 20140618003957AA2mrn7 TommyMc NNP Arts_&_Humanities PERSON
0.5 2:0 3:7 4:0 5:0 7:0 73:1 2570:1 # 20140611204210AAPJj1y BLS.gov NNP Business_&_Finance ORGANIZATION
-0.096456214859669708872047522163484 2:0 3:6 4:1 5:0 7:0 73:1 13240:1 # 20140610102038AAX5RlB REALLY NNP Pets TOKEN
-0.096660125960843168435587813291932 2:0 3:6 4:1 5:0 7:0 73:1 9780:1 # 20140608023935AA61Kab EXCEPT NNP Social_Science TOKEN
0.5 2:1 3:6 4:0 5:0 7:1 73:1 14140:1 # 20140620051059AAvmrsV Coates NNP News_&_Events PERSON
-0.20193722046921325219415166429826 2:1 3:5 4:0 5:0 7:1 73:1 19300:1 # 20140621192007AAsQBSf Vines NNP Pregnancy_&_Parenting TOKEN
0.5 2:0 3:5 4:0 5:0 7:1 73:1 9275:1 # 20140601130859AAHxybZ Cotto NNP Sports PERSON
-0.15527824778224186275110696442425 2:0 3:2 4:0 5:0 7:1 73:1 11293:1 # 20140615191331AAdpnmg Ya NNP Dining_Out TOKEN
-0.10300336280206989769681058533024 2:0 3:4 4:0 5:0 7:1 73:1 2929:1 # 20140611141719AAUaRNh List NNP Food_&_Drink TOKEN
-0.049456099835253342078544847026933 2:0 3:3 4:0 5:0 7:1 88:1 10626:1 # 20140609212304AAlJxoJ Tie VB Cars_&_Transportation TOKEN
-0.048562802446453300075912551392321 2:0 3:3 4:0 5:0 7:1 88:1 5968:1 # 20140609063130AAx8NAT See VB Computer_&_Internet TOKEN
-0.049059606796111210336164276668569 2:0 3:3 4:0 5:0 7:1 88:1 1548:1 # 20140615100226AACLhyS Try VB Home_&_Garden TOKEN
-0.10014407016643583903103831289627 2:0 3:6 4:0 5:0 7:1 73:1 8180:1 # 20140614170630AA1o9BQ Muslim NNP Politics_&_Government TOKEN
0.5 2:0 3:8 4:0 5:0 7:1 73:1 11091:1 # 20140616143448AAdU6Ze Mcdonald NNP Dining_Out ORGANIZATION
-0.26945818026181811433161783497781 2:0 3:5 4:0 5:0 7:1 73:1 9104:1 # 20140625034559AAH3Auf Carry NNP Family_&_Relationships TOKEN
-0.27227334258726609839129650936229 2:0 3:3 4:0 5:0 7:1 73:1 11182:1 # 20140608075953AADKMro Pot NNP Dining_Out TOKEN
-0.27224328593115293406512478213699 2:0 3:3 4:0 5:0 7:1 73:1 10892:1 # 20140617092003AATWcQC Owe NNP Cars_&_Transportation TOKEN
0.5 2:0 3:8 4:0 5:0 7:1 73:1 9157:1 # 20140615215028AAGmoaM Gonzalez NNP Sports PERSON
-0.27229077665041895306430319578794 2:0 3:3 4:0 5:0 7:1 73:1 6993:1 # 20140625193758AANDcbj Mud NNP Games_&_Recreation TOKEN
-0.5 2:0 3:4 4:0 5:0 7:1 73:1 4734:1 # 20140617102632AAPzLAI Fall NNP Education_&_Reference TOKEN
0.5 2:0 3:8 4:0 5:0 7:1 73:1 4690:1 # 20140626142532AAHm2Mx Canadian NNP Pets ORGANIZATION
-0.2695624261526621268103554029949 2:0 3:5 4:0 5:0 7:1 73:1 7305:1 # 20140606094406AAvjkJW Linux NNP Games_&_Recreation TOKEN
-0.27317050929502251221947517478839 2:0 3:3 4:0 5:0 7:1 73:1 15474:1 # 20140617193722AA5emAo Key NNP Politics_&_Government TOKEN
0.5 2:0 3:8 4:0 5:0 7:1 73:1 4280:1 # 20140610222206AAaaj3T Columbia NNP News_&_Events LOCATION
0.5 2:0 3:8 4:0 5:0 7:1 73:1 4304:1 # 20140604083714AANM1Br Colorado NNP Education_&_Reference ORGANIZATION
0.5 2:0 3:8 4:0 5:0 7:1 73:1 13945:1 # 20140626120744AAMAD0e Vladimir NNP News_&_Events PERSON
-0.2722893963215470836125575715414 2:0 3:3 4:0 5:0 7:1 73:1 18736:1 # 20140623104914AA6r2dE Amd NNP Computer_&_Internet TOKEN
-0.5 2:0 3:5 4:0 5:0 7:1 73:1 3489:1 # 20140601073120AActdQD Apple NNP Food_&_Drink TOKEN
-0.26876657563792338834218753618188 2:0 3:5 4:0 5:0 7:1 73:1 1692:1 # 20140609031322AAZz3r8 India NNP Travel TOKEN
0.5 2:0 3:6 4:0 5:0 7:1 73:1 14253:1 # 20140609053527AAHPrln Maxine NNP News_&_Events PERSON
-0.27239122749672828316391814951203 2:0 3:3 4:0 5:0 7:1 73:1 2459:1 # 20140621045509AAck6mP God NNP News_&_Events TOKEN
-0.27095433239653843315863923635334 2:0 3:4 4:0 5:0 7:1 73:1 18790:1 # 20140607135336AADGWCS Edge NNP Computer_&_Internet TOKEN
-0.26970526513466275275732186855748 2:0 3:5 4:0 5:0 7:1 73:1 11781:1 # 20140620063230AAXLo9n Cream NNP Food_&_Drink TOKEN
0.5 2:0 3:8 4:0 5:0 7:1 73:1 9240:1 # 20140604025700AAoSHAT Aberdeen NNP Sports PERSON
-0.27261884028181482264585611119401 2:0 3:3 4:0 5:0 7:1 73:1 13302:1 # 20140611185044AABR6jn Act NNP Family_&_Relationships TOKEN
0.5 2:0 3:7 4:0 5:0 7:1 73:1 15421:1 # 20140617213812AAnm3nS Kingdom NNP Travel ORGANIZATION
-0.42091561182004155750036034078221 2:0 3:7 4:0 5:0 7:1 73:1 5430:1 # 20140610112505AAhGjYL America NNP Dining_Out TOKEN
-0.27033592838734987751081462192815 2:0 3:4 4:0 5:0 7:1 73:1 3614:1 # 20140613124158AAH0KXB Free NNP Entertainment_&_Music TOKEN
0.5 2:0 3:7 4:0 5:0 7:0 73:1 3594:1 # 20140603131617AAsXYRf YouTube NNP Education_&_Reference ORGANIZATION
-0.27250086999581957236671314603882 2:0 3:3 4:0 5:0 7:1 73:1 270:1 # 20140609212304AAlJxoJ For NNP Cars_&_Transportation TOKEN
0.5 2:0 3:8 4:0 5:0 7:1 73:1 15211:1 # 20140610123048AAZOuhW Bergdahl NNP Politics_&_Government PERSON
0.5 2:0 3:8 4:0 5:0 7:1 73:1 15273:1 # 20140625082631AAcgyMl Benghazi NNP Politics_&_Government LOCATION
0.5 2:0 3:8 4:0 5:0 7:1 73:1 19285:1 # 20140611150705AAPCzDc Beatrice NNP Pregnancy_&_Parenting PERSON
-0.27242526328319982553693989757448 2:0 3:3 4:0 5:0 7:1 73:1 1598:1 # 20140614004826AAWj9IB Art NNP Entertainment_&_Music TOKEN
0.5 2:0 3:8 4:0 5:0 7:1 73:1 4058:1 # 20140606193910AApjpvz Oblivion NNP Consumer_Electronics LOCATION
0.5 2:0 3:8 4:0 5:0 7:1 73:1 5593:1 # 20140605040256AAru12G Benjamin NNP Entertainment_&_Music PERSON
0.5 2:0 3:8 4:0 5:0 7:1 73:1 13971:1 # 20140613111831AABRhzn Pakistan NNP News_&_Events LOCATION
-0.27228939632154292027621522720437 2:0 3:3 4:0 5:0 7:1 73:1 18031:1 # 20140604115540AAQrGu2 Pan NNP Travel TOKEN
0.5 2:0 3:8 4:0 5:0 7:1 73:1 9126:1 # 20140626150225AAeTpqG Victoria NNP Sports LOCATION
-0.20204798642960852816941041965038 2:1 3:15 4:0 5:0 7:1 73:1 19388:1 # 20140606090914AA45noC Troubleshooting NNP Yahoo!_Products TOKEN
-0.26951686314090839147183942259289 2:0 3:5 4:0 5:0 7:1 73:1 13729:1 # 20140612075720AAmNq58 Bundy NNP News_&_Events TOKEN
-0.26915697539202332322361144179013 2:0 3:5 4:0 5:0 7:1 73:1 5426:1 # 20140620190356AAdnQme Enemy NNP Entertainment_&_Music TOKEN
0.5 2:0 3:9 4:0 5:0 7:1 73:1 4271:1 # 20140604083714AANM1Br Nashville NNP Education_&_Reference LOCATION
-0.27342493619417496120149735361338 2:0 3:3 4:0 5:0 7:1 73:1 11942:1 # 20140626031053AAyXCcP Ham NNP Food_&_Drink TOKEN
-0.27241608140322171038860687986016 2:0 3:3 4:0 5:0 7:1 73:1 8847:1 # 20140607184544AAxrzQb Jaw NNP Beauty_&_Style TOKEN
-0.27349027673832804197218138142489 2:0 3:3 4:0 5:0 7:1 73:1 5924:1 # 20140604090916AAD5Lml Eat NNP Health TOKEN
0.5 2:0 3:7 4:0 5:0 7:1 73:1 13744:1 # 20140612075720AAmNq58 Clinton NNP News_&_Events PERSON
-0.27242397470513801671643250301713 2:0 3:3 4:0 5:0 7:1 73:1 5432:1 # 20140609221937AAH7tge Don NNP Travel TOKEN
0.5 2:0 3:7 4:0 5:0 7:1 73:1 1870:1 # 20140616143448AAdU6Ze Express NNP Dining_Out ORGANIZATION
0.5 2:0 3:7 4:0 5:0 7:1 73:1 5430:1 # 20140613180332AA3jCxr America NNP News_&_Events ORGANIZATION
0.5 2:0 3:7 4:0 5:0 7:1 73:1 19288:1 # 20140611150705AAPCzDc Beatriz NNP Pregnancy_&_Parenting PERSON
-0.2715627098024135932519129710272 2:0 3:4 4:0 5:0 7:1 73:1 12274:1 # 20140617002938AAFtSKV Rain NNP Home_&_Garden TOKEN
0.5 2:0 3:4 4:0 5:0 7:1 73:1 9042:1 # 20140605104442AAFzzy2 Cena NNP Sports PERSON
0.5 2:0 3:4 4:0 5:0 7:1 73:1 262:1 # 20140613154011AAJ98M9 John NNP Politics_&_Government PERSON
-0.27138359332624828468283340043854 2:0 3:4 4:0 5:0 7:1 73:1 6999:1 # 20140625193758AANDcbj Link NNP Games_&_Recreation TOKEN
-0.27335301506649400948845141101629 2:0 3:3 4:0 5:0 7:1 73:1 13454:1 # 20140612212350AAeLl07 Ull NNP Family_&_Relationships TOKEN
0.5 2:0 3:7 4:0 5:0 7:1 73:1 11360:1 # 20140616143448AAdU6Ze Station NNP Dining_Out ORGANIZATION
0.5 2:0 3:7 4:0 5:0 7:1 73:1 802:1 # 20140605223141AA4aNVu Johnson NNP Arts_&_Humanities PERSON
-0.5 2:0 3:7 4:0 5:0 7:1 73:1 11360:1 # 20140624203758AAyLMD9 Station NNP Travel TOKEN
0.5 2:0 3:7 4:0 5:0 7:1 73:1 15470:1 # 20140617193722AA5emAo Sheldon NNP Politics_&_Government PERSON
0.5 2:0 3:7 4:0 5:0 7:1 73:1 11317:1 # 20140616143448AAdU6Ze Chicken NNP Dining_Out ORGANIZATION
-0.27228939632154458561075216493919 2:0 3:3 4:0 5:0 7:1 73:1 19299:1 # 20140621192007AAsQBSf Ohh NNP Pregnancy_&_Parenting TOKEN
-0.27229077665042394906791400899237 2:0 3:3 4:0 5:0 7:1 73:1 14684:1 # 20140626142532AAHm2Mx Toy NNP Pets TOKEN
-0.27224581739833020321839285315946 2:0 3:3 4:0 5:0 7:1 73:1 2651:1 # 20140623135519AAuth3K Lab NNP Business_&_Finance TOKEN
-0.12885893719125007805814675521106 2:0 3:3 4:0 5:0 7:1 73:1 7318:1 # 20140606094406AAvjkJW Ill NNP Games_&_Recreation TOKEN
0.5 2:0 3:7 4:0 5:0 7:1 73:1 808:1 # 20140617074422AANUT7h William NNP Arts_&_Humanities PERSON
-0.27226394183175678387343054964731 2:0 3:3 4:0 5:0 7:1 73:1 18142:1 # 20140609031322AAZz3r8 Eco NNP Travel TOKEN
0.5 2:0 3:7 4:0 5:0 7:1 73:1 2727:1 # 20140621032104AA5LQDd Charlie NNP Entertainment_&_Music PERSON
-0.27224581739833197957523225340992 2:0 3:3 4:0 5:0 7:1 73:1 5220:1 # 20140614113251AA3Y1WB Day NNP News_&_Events TOKEN
0.5 2:0 3:7 4:0 5:0 7:1 73:1 15794:1 # 20140605183929AAMoGA3 Trudeau NNP Politics_&_Government PERSON
0.5 2:0 3:7 4:0 5:0 7:1 73:1 5403:1 # 20140620190356AAdnQme Luciano NNP Entertainment_&_Music PERSON
0.5 2:0 3:7 4:0 5:0 7:1 73:1 4178:1 # 20140607141649AANF6Tv Holzman NNP Consumer_Electronics PERSON
0.5 2:0 3:7 4:0 5:0 7:1 73:1 14390:1 # 20140626101740AADAK0e Baghdad NNP Politics_&_Government LOCATION
-0.049343036920103167108919706151937 2:0 3:3 4:0 5:0 7:1 88:1 640:1 # 20140622001343AA8tgia Let VB Science_&_Mathematics TOKEN
0.5 2:0 3:7 4:0 5:0 7:1 73:1 812:1 # 20140617074422AANUT7h Penzler NNP Arts_&_Humanities PERSON
0.5 2:0 3:7 4:0 5:0 7:1 73:1 816:1 # 20140617074422AANUT7h Malcolm NNP Arts_&_Humanities PERSON
-0.096632647793042814043928956380114 2:0 3:6 4:1 5:0 7:0 73:1 19097:1 # 20140608111211AAkpqtd CONDOM NNP Pregnancy_&_Parenting TOKEN
0.5 2:0 3:7 4:0 5:0 7:1 73:1 3851:1 # 20140626112013AAPPVIB Twitter NNP Consumer_Electronics ORGANIZATION
0.5 2:0 3:7 4:0 5:0 7:1 73:1 3765:1 # 20140605225754AA2LJWC Comcast NNP Consumer_Electronics ORGANIZATION
-0.5 2:0 3:7 4:0 5:0 7:1 73:1 3851:1 # 20140609172302AAjgqUA Twitter NNP Yahoo!_Products TOKEN
-0.27244331018155309998007851390867 2:0 3:3 4:0 5:0 7:1 73:1 3267:1 # 20140623023853AA1SoFR Use NNP Science_&_Mathematics TOKEN
-0.27349027673836623364422848680988 2:0 3:3 4:0 5:0 7:1 73:1 12382:1 # 20140601134625AAPRFLP Rub NNP Home_&_Garden TOKEN
-0.27266195338108001333665697529796 2:0 3:3 4:0 5:0 7:1 73:1 7485:1 # 20140610004054AArTAuM Age NNP Social_Science TOKEN
-0.27228939632158472017309236434812 2:0 3:3 4:0 5:0 7:1 73:1 13992:1 # 20140623230739AA9pP9C Sky NNP News_&_Events TOKEN
0.5 2:0 3:7 4:0 5:0 7:0 73:1 14240:1 # 20140615161422AAiDhFt K-Earth NNP News_&_Events ORGANIZATION
0.5 2:0 3:5 4:1 5:0 7:0 73:1 10760:1 # 20140609115257AAXrpdb SKODA NNP Cars_&_Transportation ORGANIZATION
0.5 2:0 3:4 4:1 5:0 7:0 73:1 11304:1 # 20140616143448AAdU6Ze A&W; NNP Dining_Out ORGANIZATION
-0.096381770523552567908609489677474 2:0 3:6 4:1 5:0 7:0 73:1 3863:1 # 20140608060520AAMzqLw PLEASE NNP Yahoo!_Products TOKEN
0.5 2:0 3:4 4:0 5:0 7:1 73:1 13979:1 # 20140625082631AAcgyMl Bush NNP Politics_&_Government PERSON
0.5 2:0 3:4 4:0 5:0 7:1 73:1 795:1 # 20140617074422AANUT7h Faye NNP Arts_&_Humanities PERSON
-0.26531662323889382282260385181871 2:0 3:7 4:0 5:0 7:1 73:1 1207:1 # 20140604190316AAF0wYE Minolta NNP Arts_&_Humanities TOKEN
-0.096616823875400825727410847321153 2:0 3:6 4:1 5:0 7:0 73:1 8306:1 # 20140607150805AAQGSUv JUSSSS NNP Beauty_&_Style TOKEN
0.5 2:0 3:7 4:0 5:0 7:1 73:1 4292:1 # 20140604083714AANM1Br Georgia NNP Education_&_Reference LOCATION
0.5 2:0 3:7 4:0 5:0 7:1 73:1 13797:1 # 20140609103954AAB6LY5 Britain NNP News_&_Events LOCATION
0.5 2:0 3:2 4:1 5:0 7:0 73:1 4300:1 # 20140604083714AANM1Br TX NNP Education_&_Reference LOCATION
-0.5 2:0 3:7 4:0 5:0 7:1 73:1 4292:1 # 20140617203723AAnMv8x Georgia NNP Politics_&_Government TOKEN
-0.272230255002462673274976623361 2:0 3:3 4:0 5:0 7:1 73:1 6989:1 # 20140625193758AANDcbj Lvl NNP Games_&_Recreation TOKEN
-0.27226394183175250951478574279463 2:0 3:3 4:0 5:0 7:1 73:1 12982:1 # 20140622225954AAAlKMt Xin NNP Local_Businesses TOKEN
-0.27305244166252751192303094285307 2:0 3:3 4:0 5:0 7:1 73:1 9864:1 # 20140621092416AArsE0s Jan NNP Social_Science TOKEN
-0.27224581739833375593207165366039 2:0 3:3 4:0 5:0 7:1 73:1 9344:1 # 20140614220006AA90c02 Nam NNP Sports TOKEN
0.5 2:0 3:7 4:0 5:0 7:0 73:1 11323:1 # 20140616143448AAdU6Ze Dunkin' NNP Dining_Out ORGANIZATION
0.5 2:0 3:4 4:0 5:0 7:1 73:1 5268:1 # 20140614004826AAWj9IB Snow NNP Entertainment_&_Music PERSON
-0.053091458617819720089414659014437 2:1 3:3 4:1 5:0 7:0 73:1 4730:1 # 20140617102632AAPzLAI SAT NNP Education_&_Reference TOKEN
-0.0087440862096315186136052943766117 2:0 3:4 4:1 5:0 7:0 73:1 18564:1 # 20140608132523AAWfvBH POST NNP Computer_&_Internet TOKEN
-0.26939628075465815726374785299413 2:0 3:5 4:0 5:0 7:1 73:1 18527:1 # 20140620213457AAI59UA Cache NNP Computer_&_Internet TOKEN
-0.26878618508574758649842806335073 2:0 3:5 4:0 5:0 7:1 73:1 13683:1 # 20140610222206AAaaj3T Truck NNP News_&_Events TOKEN
-0.003501710391348389350696379551664 2:0 3:7 4:0 5:0 7:1 124:1 15276:1 # 20140625082631AAcgyMl Biggest JJS Politics_&_Government TOKEN
-0.03373851680971892696980773962423 2:0 3:5 4:1 5:0 7:0 73:1 15008:1 # 20140613154011AAJ98M9 BINKY NNP Politics_&_Government TOKEN
-0.059859471933346064531633601291105 2:0 3:2 4:1 5:0 7:0 73:1 10791:1 # 20140621111444AACBO2L GM NNP Cars_&_Transportation TOKEN
-0.14419024587616666166489665101835 2:0 3:3 4:0 5:0 7:1 73:1 7318:1 # 20140606094406AAvjkJW Ill NNP Games_&_Recreation TOKEN
-0.014389022822787200794891759869643 2:0 3:6 4:0 5:1 7:0 8:1 18535:1 # 20140608132523AAWfvBH prompt NN Computer_&_Internet TOKEN
-0.26586424541538633548043435439467 2:0 3:7 4:0 5:0 7:1 73:1 5123:1 # 20140622210819AARJGLW Request NNP Entertainment_&_Music TOKEN
-0.1318086540351549040828160741512 2:0 3:3 4:0 5:0 7:1 73:1 465:1 # 20140622080843AAfcL4m Btw NNP Pets TOKEN
0.5 2:0 3:7 4:0 5:0 7:1 73:1 2161:1 # 20140609160711AAprF2f Swanson NNP Arts_&_Humanities PERSON
-0.21251898144985129079920227468392 2:1 3:9 4:0 5:0 7:1 73:1 10548:1 # 20140608182325AAmvy1Q Illionois NNP Cars_&_Transportation TOKEN
-0.2725749306463688403923129044415 2:0 3:3 4:0 5:0 7:1 73:1 8551:1 # 20140610100930AAaZ9T3 Bay NNP Beauty_&_Style TOKEN
-0.27278134922442909271467215148732 2:0 3:3 4:0 5:0 7:1 73:1 9136:1 # 20140625100007AAcadtk Max NNP Politics_&_Government TOKEN
-0.27227334258726970661612654112105 2:0 3:3 4:0 5:0 7:1 73:1 8798:1 # 20140613125219AA2D0JF Tan NNP Beauty_&_Style TOKEN
-0.27300223669344236832046135532437 2:0 3:3 4:0 5:0 7:1 73:1 2579:1 # 20140618201815AAmO6f1 Sun NNP Science_&_Mathematics TOKEN
0.5 2:0 3:7 4:0 5:0 7:1 73:1 9153:1 # 20140615215028AAGmoaM Sanchez NNP Sports PERSON
0.5 2:0 3:7 4:0 5:0 7:1 73:1 9493:1 # 20140618123245AAiwouS Uruguay NNP Sports LOCATION
-0.15288547895263865372683653731656 2:0 3:3 4:0 5:0 7:1 710:1 14896:1 # 20140611152642AAd7nNQ Non FW Pets TOKEN
-0.049449387604320493849741069425363 2:0 3:3 4:0 5:0 7:1 88:1 4401:1 # 20140612121603AAc09vI Add VB Games_&_Recreation TOKEN
-0.049293692211289152904640786800883 2:0 3:3 4:0 5:0 7:1 88:1 11635:1 # 20140604112329AAS36PD Buy VB Dining_Out TOKEN
-0.048986015801678661762963429282536 2:0 3:3 4:0 5:0 7:1 88:1 8541:1 # 20140605185213AAgsKy3 Fix VB Yahoo!_Products TOKEN
0.5 2:0 3:7 4:0 5:0 7:1 73:1 3941:1 # 20140626111642AAP80Gv Youtube NNP Computer_&_Internet ORGANIZATION
0.5 2:0 3:7 4:0 5:0 7:1 73:1 4275:1 # 20140604083714AANM1Br College NNP Education_&_Reference ORGANIZATION
0.5 2:0 3:7 4:0 5:0 7:1 73:1 4118:1 # 20140607141649AANF6Tv Walmart NNP Consumer_Electronics ORGANIZATION
0.5 2:0 3:7 4:0 5:0 7:1 73:1 9134:1 # 20140615215028AAGmoaM Iwakuma NNP Sports PERSON
-0.019788129760770736126351820871605 2:0 3:3 4:0 5:1 7:0 16:1 361:1 # 20140601140351AAMxHZD him PRP Pregnancy_&_Parenting TOKEN
0.5 2:0 3:7 4:0 5:0 7:1 73:1 5576:1 # 20140618141409AA9yzif Wagoner NNP Entertainment_&_Music PERSON
0.5 2:0 3:7 4:0 5:0 7:1 73:1 10890:1 # 20140617092003AATWcQC Houston NNP Cars_&_Transportation LOCATION
0.5 2:0 3:7 4:0 5:0 7:1 73:1 5670:1 # 20140607125905AA2JtXv Ukraine NNP Politics_&_Government LOCATION
0.5 2:0 3:7 4:0 5:0 7:1 73:1 14380:1 # 20140613180332AA3jCxr Wahhabi NNP News_&_Events LOCATION
-0.27280505708254898511455621701316 2:0 3:3 4:0 5:0 7:1 73:1 12996:1 # 20140622225954AAAlKMt Luc NNP Local_Businesses TOKEN
-0.2722733425872663204359014343936 2:0 3:3 4:0 5:0 7:1 73:1 1622:1 # 20140618141257AAQm1bZ Tip NNP Arts_&_Humanities TOKEN
-0.27267427906657726310868383734487 2:0 3:3 4:0 5:0 7:1 73:1 19214:1 # 20140618090750AAlViol Cai NNP Pregnancy_&_Parenting TOKEN
-0.27347432959899720117391552776098 2:0 3:3 4:0 5:0 7:1 73:1 5235:1 # 20140614004826AAWj9IB Die NNP Entertainment_&_Music TOKEN
-0.27302042246044283535510999172402 2:0 3:3 4:0 5:0 7:1 73:1 19143:1 # 20140608155422AAGg2Wt Soi NNP Pregnancy_&_Parenting TOKEN
0.5 2:1 3:4 4:1 5:0 7:0 73:1 13003:1 # 20140610194612AA31tgA USPS NNP Local_Businesses ORGANIZATION
0.5 2:0 3:4 4:0 5:0 7:1 73:1 11312:1 # 20140616143448AAdU6Ze Carl NNP Dining_Out ORGANIZATION
-0.096535081250449294998361438047141 2:0 3:6 4:1 5:0 7:0 73:1 1517:1 # 20140616222816AASXpde IMPACT NNP Arts_&_Humanities TOKEN
0.5 2:0 3:3 4:1 5:0 7:0 73:1 15430:1 # 20140619072135AAeFu7N U.K NNP Politics_&_Government LOCATION
0.5 2:0 3:3 4:1 5:0 7:0 73:1 2568:1 # 20140622140805AAtjqJa USA NNP Cars_&_Transportation LOCATION
-0.22009063257281635817008691446972 2:1 3:5 4:0 5:0 7:1 73:1 4860:1 # 20140601014139AA5Szo2 Doing NNP Education_&_Reference TOKEN
0.5 2:0 3:6 4:0 5:0 7:0 73:1 4145:1 # 20140607141649AANF6Tv NVidia NNP Consumer_Electronics ORGANIZATION
0.5 2:0 3:6 4:0 5:0 7:0 73:1 4282:1 # 20140604083714AANM1Br MIzzou NNP Education_&_Reference LOCATION
0.5 2:0 3:6 4:0 5:0 7:0 73:1 12297:1 # 20140615100226AACLhyS C-list NNP Home_&_Garden ORGANIZATION
0.5 2:0 3:4 4:0 5:0 7:1 73:1 11358:1 # 20140616143448AAdU6Ze Papa NNP Dining_Out ORGANIZATION
0.5 2:0 3:7 4:0 5:0 7:1 73:1 4392:1 # 20140619105821AAuioIb Alabama NNP Education_&_Reference ORGANIZATION
-0.27227934565796185761854530937853 2:0 3:3 4:0 5:0 7:1 73:1 14435:1 # 20140617191218AAiEBHA Fox NNP News_&_Events TOKEN
-0.27349027673832848606139123148751 2:0 3:3 4:0 5:0 7:1 73:1 13109:1 # 20140620035947AAeYEbM Top NNP Local_Businesses TOKEN
-0.27295743158255236782139263596036 2:0 3:3 4:0 5:0 7:1 73:1 14659:1 # 20140622163515AA7A77e Yep NNP Travel TOKEN
-0.27224328593115715291261835773184 2:0 3:3 4:0 5:0 7:1 73:1 3583:1 # 20140614134845AAVhWeg Qty NNP Consumer_Electronics TOKEN
0.5 2:0 3:7 4:0 5:0 7:1 73:1 19122:1 # 20140601002604AAq45X7 Braxton NNP Pregnancy_&_Parenting PERSON
-0.27228939632153903449562903915648 2:0 3:3 4:0 5:0 7:1 73:1 11487:1 # 20140620003333AAaN90M Air NNP Dining_Out TOKEN
0.5 2:0 3:7 4:0 5:0 7:1 73:1 15321:1 # 20140607125905AA2JtXv Narwahl NNP Politics_&_Government ORGANIZATION
0.5 2:0 3:7 4:0 5:0 7:1 73:1 266:1 # 20140608034752AAWHbyf Grayson NNP Arts_&_Humanities PERSON
0.5 2:0 3:7 4:0 5:0 7:1 73:1 11342:1 # 20140613214814AARwXS4 Krystal NNP Local_Businesses ORGANIZATION
-0.27226394183175517405004484317033 2:0 3:3 4:0 5:0 7:1 73:1 7723:1 # 20140618201815AAmO6f1 Dec NNP Science_&_Mathematics TOKEN
0.5 2:0 3:7 4:0 5:0 7:1 73:1 18939:1 # 20140611001634AAefV9p Brynlee NNP Pregnancy_&_Parenting PERSON
0.5 2:0 3:7 4:0 5:0 7:1 73:1 10824:1 # 20140617213812AAnm3nS Florida NNP Travel LOCATION
0.5 2:0 3:7 4:0 5:0 7:1 73:1 15159:1 # 20140610123048AAZOuhW Taliban NNP Politics_&_Government ORGANIZATION
0.5 2:0 3:7 4:0 5:0 7:1 73:1 13139:1 # 20140603131218AA1t3hP Mission NNP Local_Businesses LOCATION
0.5 2:0 3:7 4:0 5:0 7:1 73:1 13743:1 # 20140625082631AAcgyMl Hillary NNP Politics_&_Government PERSON
0.5 2:0 3:7 4:0 5:0 7:1 73:1 2054:1 # 20140625193136AAUePpR Richard NNP Arts_&_Humanities PERSON
-0.0025723597031256997813564169064193 2:0 3:12 4:0 5:1 7:0 8:1 18460:1 # 20140617130308AAqDdcG confirmation NN Travel TOKEN
-0.27226394183175506302774238065467 2:0 3:3 4:0 5:0 7:1 73:1 3545:1 # 20140620063230AAXLo9n Kit NNP Food_&_Drink TOKEN
0.5 2:0 3:7 4:0 5:0 7:1 73:1 5371:1 # 20140621194648AAv7Pxb Orihara NNP Entertainment_&_Music PERSON
-0.27227334258727681204348414212291 2:0 3:3 4:0 5:0 7:1 73:1 3601:1 # 20140606223938AAjsrL7 Pro NNP News_&_Events TOKEN
-0.27064434110273805078605846574646 2:0 3:4 4:0 5:0 7:1 73:1 3179:1 # 20140615120927AAPeVv5 Luck NNP Sports TOKEN
-0.27255181644544335117785749389441 2:0 3:3 4:0 5:0 7:1 73:1 11690:1 # 20140625175128AAldtwC Red NNP Food_&_Drink TOKEN
-0.27257653184334007523403897721437 2:0 3:3 4:0 5:0 7:1 73:1 10378:1 # 20140610052054AAkNfGL Car NNP Cars_&_Transportation TOKEN
0.5 2:0 3:8 4:0 5:0 7:1 73:1 18422:1 # 20140615004107AA0Il4W Istanbul NNP Travel LOCATION
-0.26842700569297428536685856670374 2:0 3:5 4:0 5:0 7:1 73:1 3612:1 # 20140617222051AA6Qnkk Movie NNP Entertainment_&_Music TOKEN
-0.29997051639762151165058412516373 2:0 3:4 4:0 5:0 7:1 73:1 5268:1 # 20140604115540AAQrGu2 Snow NNP Travel TOKEN
-0.5 2:0 3:4 4:0 5:0 7:1 73:1 5268:1 # 20140604115540AAQrGu2 Snow NNP Travel TOKEN
-0.27156833043829475826669295202009 2:0 3:4 4:0 5:0 7:1 73:1 1908:1 # 20140625171723AAQIRte Hope NNP Computer_&_Internet TOKEN
0.5 2:0 3:6 4:0 5:0 7:1 73:1 1482:1 # 20140621083713AAPz2WJ Robert NNP Business_&_Finance PERSON
-0.27159532495376592642344348860206 2:0 3:4 4:0 5:0 7:1 73:1 5103:1 # 20140619113940AAko4f7 Palm NNP Entertainment_&_Music TOKEN
-0.27160653051157090942524519050494 2:0 3:4 4:0 5:0 7:1 73:1 1910:1 # 20140601105234AA3ANDN Farm NNP Arts_&_Humanities TOKEN
-0.2706975441037675622624192328658 2:0 3:4 4:0 5:0 7:1 73:1 5063:1 # 20140608162419AAwr1N9 Sour NNP Entertainment_&_Music TOKEN
-0.27159570431647672705821605632082 2:0 3:4 4:0 5:0 7:1 73:1 4447:1 # 20140604150422AAIDveZ Cant NNP Education_&_Reference TOKEN
-0.49938793111184204276398190813779 2:0 3:6 4:0 5:1 7:0 8:1 2072:1 # 20140611200230AA2zvuY middle NN Computer_&_Internet TOKEN
-0.27143969831356395960852978532785 2:0 3:4 4:0 5:0 7:1 73:1 5138:1 # 20140619101954AAAy1Zi Show NNP Entertainment_&_Music TOKEN
-0.27142863974754227740504575194791 2:0 3:4 4:0 5:0 7:1 73:1 5600:1 # 20140611153858AAK05v1 Feel NNP Sports TOKEN
-0.27050098640675424022106199117843 2:0 3:4 4:0 5:0 7:1 73:1 2445:1 # 20140608145354AAWyj40 Ring NNP Business_&_Finance TOKEN
-0.27034083685137233477036033946206 2:0 3:4 4:0 5:0 7:1 73:1 11765:1 # 20140620063230AAXLo9n Soda NNP Food_&_Drink TOKEN
-0.27031992041651764502319110761164 2:0 3:4 4:0 5:0 7:1 73:1 14897:1 # 20140611152642AAd7nNQ Dang NNP Pets TOKEN
-0.27032149067399924291521529085003 2:0 3:4 4:0 5:0 7:1 73:1 15572:1 # 20140609172302AAjgqUA Care NNP Yahoo!_Products TOKEN
-0.27032195292933813846047996776178 2:0 3:4 4:0 5:0 7:1 73:1 12433:1 # 20140607191241AAICEVB Weed NNP Home_&_Garden TOKEN
0.5 2:0 3:6 4:0 5:0 7:1 73:1 1756:1 # 20140621104938AAA4IC5 Disney NNP Business_&_Finance ORGANIZATION
0.5 2:0 3:6 4:0 5:0 7:1 73:1 15699:1 # 20140614170630AA1o9BQ Israel NNP Politics_&_Government LOCATION
-0.5 2:0 3:6 4:0 5:0 7:1 73:1 1756:1 # 20140621104938AAA4IC5 Disney NNP Business_&_Finance TOKEN
-0.27154179203087291938345515518449 2:0 3:4 4:0 5:0 7:1 73:1 516:1 # 20140605140138AAyDVJY What NNP Entertainment_&_Music TOKEN
-0.27157201261800789637845809920691 2:0 3:4 4:0 5:0 7:1 73:1 5820:1 # 20140612160340AAE8W0E Edit NNP Sports TOKEN
-0.27098039928217765304196973374928 2:0 3:4 4:0 5:0 7:1 73:1 9534:1 # 20140615120927AAPeVv5 Deer NNP Sports TOKEN
0.5 2:0 3:6 4:0 5:0 7:1 73:1 5860:1 # 20140617033632AAaS0SQ Justin NNP News_&_Events PERSON
0.5 2:0 3:6 4:0 5:0 7:1 73:1 8902:1 # 20140611011232AAoHyfn Lebron NNP Sports PERSON
-0.27148143020542470083000807790086 2:0 3:4 4:0 5:0 7:1 73:1 2151:1 # 20140609160711AAprF2f Love NNP Arts_&_Humanities TOKEN
-0.27158261034129616007248841924593 2:0 3:4 4:0 5:0 7:1 73:1 424:1 # 20140612201710AACVW6f Open NNP Arts_&_Humanities TOKEN
-0.27122418642746437544843729483546 2:0 3:4 4:0 5:0 7:1 73:1 5427:1 # 20140625193758AANDcbj Heat NNP Games_&_Recreation TOKEN
-0.27159785098842892381298952386715 2:0 3:4 4:0 5:0 7:1 73:1 5715:1 # 20140606153641AAjtBgn Life NNP Social_Science TOKEN
-0.27037964255186575091016720762127 2:0 3:4 4:0 5:0 7:1 73:1 7053:1 # 20140625193758AANDcbj Wave NNP Games_&_Recreation TOKEN
-0.27050443500689880238496698439121 2:0 3:4 4:0 5:0 7:1 73:1 14550:1 # 20140613073945AAjr9GV Worm NNP Pets TOKEN
-0.17462696577919478713170065020677 2:0 3:5 4:0 5:1 7:0 73:1 14888:1 # 20140611152642AAd7nNQ pleco NNP Pets TOKEN
-0.27033592838736669738963769304974 2:0 3:4 4:0 5:0 7:1 73:1 14753:1 # 20140623154545AAikPvj Welp NNP Pets TOKEN
-0.12014336023616975501759895905707 2:0 3:4 4:0 5:0 7:1 73:1 12815:1 # 20140605185213AAgsKy3 Mail NNP Yahoo!_Products TOKEN
-0.27159359675789396249001583782956 2:0 3:4 4:0 5:0 7:1 73:1 695:1 # 20140603053113AAVRR5O Good NNP Local_Businesses TOKEN
-0.060983041541552651665369921829551 2:0 3:4 4:0 5:0 7:1 73:1 7937:1 # 20140618024923AAR6gIm Folk NNP Science_&_Mathematics TOKEN
-0.25294528675822203211964733782224 2:0 3:4 4:0 5:0 7:1 73:1 5349:1 # 20140615025730AAsJj6v Code NNP Social_Science TOKEN
-0.24859552028316223015735886292532 2:0 3:4 4:0 5:0 7:1 73:1 2107:1 # 20140609160711AAprF2f Mine NNP Arts_&_Humanities TOKEN
-0.27154830007296837379726639483124 2:0 3:4 4:0 5:0 7:1 73:1 12410:1 # 20140601151243AAGeO0l Bath NNP Home_&_Garden TOKEN
-0.27156833043825479023780644638464 2:0 3:4 4:0 5:0 7:1 73:1 9079:1 # 20140620105746AAnOLsk Colt NNP Sports TOKEN
-0.27156877611438812181177127058618 2:0 3:4 4:0 5:0 7:1 73:1 3579:1 # 20140611123045AAMKOWz Home NNP Pets TOKEN
-0.27159797884576963866720689111389 2:0 3:4 4:0 5:0 7:1 73:1 7315:1 # 20140626130807AAvZf6J Live NNP Computer_&_Internet TOKEN
-0.27151807316289344740312117210124 2:0 3:4 4:0 5:0 7:1 73:1 658:1 # 20140606175359AAkwiJH Read NNP Beauty_&_Style TOKEN
-0.27095433239652599866076343460009 2:0 3:4 4:0 5:0 7:1 73:1 5348:1 # 20140613124917AAp8Kiq Riot NNP Entertainment_&_Music TOKEN
0.5 2:0 3:8 4:0 5:0 7:1 73:1 4686:1 # 20140626142532AAHm2Mx American NNP Pets ORGANIZATION
-0.27032149067400113029435715361615 2:0 3:4 4:0 5:0 7:1 73:1 1095:1 # 20140616072209AARwehs Song NNP Arts_&_Humanities TOKEN
-0.27034086896752979045643883182493 2:0 3:4 4:0 5:0 7:1 73:1 4734:1 # 20140618083118AAt93Sw Fall NNP Home_&_Garden TOKEN
-0.2711731245731876516202873972361 2:0 3:4 4:0 5:0 7:1 73:1 18334:1 # 20140608183101AAll62c Hoku NNP Travel TOKEN
-0.2705961602203623139750732207176 2:0 3:4 4:0 5:0 7:1 73:1 14562:1 # 20140613073945AAjr9GV Rash NNP Pets TOKEN
-0.27154744722409951407371409004554 2:0 3:4 4:0 5:0 7:1 73:1 11286:1 # 20140603140146AAA2DGN Casa NNP Dining_Out TOKEN
-0.27160653051161620652464989689179 2:0 3:4 4:0 5:0 7:1 73:1 1464:1 # 20140620035947AAeYEbM Star NNP Local_Businesses TOKEN
-0.27159451554047042698414315964328 2:0 3:4 4:0 5:0 7:1 73:1 7093:1 # 20140610162943AA8McBJ Kong NNP Games_&_Recreation TOKEN
-0.27154830007274277647866256302223 2:0 3:4 4:0 5:0 7:1 73:1 8848:1 # 20140607184544AAxrzQb Line NNP Beauty_&_Style TOKEN
-0.27145719370188459151904680766165 2:0 3:4 4:0 5:0 7:1 73:1 1093:1 # 20140618213123AAbc65y Game NNP Games_&_Recreation TOKEN
0.5 2:0 3:8 4:0 5:0 7:1 73:1 1476:1 # 20140605223141AA4aNVu Bradford NNP Arts_&_Humanities PERSON
0.5 2:0 3:8 4:0 5:0 7:1 73:1 3930:1 # 20140603005221AAThPnj Motolora NNP Consumer_Electronics ORGANIZATION
0.5 2:0 3:8 4:0 5:0 7:1 73:1 9277:1 # 20140601130859AAHxybZ Martinez NNP Sports PERSON
0.5 2:0 3:4 4:0 5:0 7:1 73:1 4734:1 # 20140605040256AAru12G Fall NNP Entertainment_&_Music PERSON
-0.5 2:0 3:4 4:0 5:0 7:1 73:1 4268:1 # 20140609031322AAZz3r8 Hill NNP Travel TOKEN
0.5 2:0 3:8 4:0 5:0 7:1 73:1 1648:1 # 20140618141257AAQm1bZ Arikatou NNP Arts_&_Humanities PERSON
-0.27157622665182268306693913473282 2:0 3:4 4:0 5:0 7:1 73:1 18322:1 # 20140623010804AATRu9l Kpop NNP Travel TOKEN
-0.2715595989933135001592745538801 2:0 3:4 4:0 5:0 7:1 73:1 8789:1 # 20140613125219AA2D0JF Heyo NNP Beauty_&_Style TOKEN
-0.27160738164024245122618594905362 2:0 3:4 4:0 5:0 7:1 73:1 3551:1 # 20140617123215AAwmmE0 Hard NNP Consumer_Electronics TOKEN
-0.27136448841354443572981836041436 2:0 3:4 4:0 5:0 7:1 73:1 15257:1 # 20140605231104AAm8fzJ Heck NNP Politics_&_Government TOKEN
-0.27159797884577185911325614142697 2:0 3:4 4:0 5:0 7:1 73:1 10564:1 # 20140617213812AAnm3nS City NNP Travel TOKEN
0.5 2:0 3:4 4:0 5:0 7:1 73:1 4268:1 # 20140604083714AANM1Br Hill NNP Education_&_Reference LOCATION
0.5 2:0 3:5 4:0 5:0 7:1 73:1 4506:1 # 20140618125641AAGkGpi Jayne NNP Education_&_Reference PERSON
0.5 2:0 3:5 4:0 5:0 7:1 73:1 8147:1 # 20140626101740AADAK0e Syria NNP Politics_&_Government LOCATION
0.5 2:0 3:5 4:0 5:0 7:1 73:1 4954:1 # 20140611132742AAU8vAK Costa NNP Education_&_Reference LOCATION
0.5 2:0 3:5 4:0 5:0 7:1 73:1 4278:1 # 20140610075021AAwlDsA Miami NNP Dining_Out LOCATION
-0.5 2:0 3:5 4:0 5:0 7:1 73:1 4278:1 # 20140616160015AAkjHsB Miami NNP Dining_Out TOKEN
-0.2715199448161591533335013082251 2:0 3:4 4:0 5:0 7:1 73:1 11722:1 # 20140620063230AAXLo9n Mini NNP Food_&_Drink TOKEN
-0.27159797884577208115786106645828 2:0 3:4 4:0 5:0 7:1 73:1 11099:1 # 20140620063230AAXLo9n Food NNP Food_&_Drink TOKEN
-0.27120550946681659665316033169802 2:0 3:4 4:0 5:0 7:1 73:1 18340:1 # 20140608183101AAll62c Kono NNP Travel TOKEN
0.5 2:0 3:5 4:0 5:0 7:1 73:1 10525:1 # 20140622140805AAtjqJa Labor NNP Cars_&_Transportation ORGANIZATION
0.5 2:0 3:5 4:0 5:0 7:1 73:1 9317:1 # 20140616143448AAdU6Ze Jimmy NNP Dining_Out ORGANIZATION
0.5 2:0 3:5 4:0 5:0 7:1 73:1 13142:1 # 20140603131218AA1t3hP Diego NNP Local_Businesses LOCATION
0.5 2:0 3:5 4:0 5:0 7:1 73:1 9438:1 # 20140623022611AAddTaJ Angle NNP Sports PERSON
0.5 2:0 3:5 4:0 5:0 7:1 73:1 11326:1 # 20140616143448AAdU6Ze Pollo NNP Dining_Out ORGANIZATION
-0.27124352540148599643998750252649 2:0 3:4 4:0 5:0 7:1 73:1 2392:1 # 20140623142217AAHjEJM June NNP Politics_&_Government TOKEN
-0.27089760181074540312806675501633 2:0 3:4 4:0 5:0 7:1 73:1 11698:1 # 20140618202204AAODcVd Main NNP Food_&_Drink TOKEN
-0.27154830007297636740304369595833 2:0 3:4 4:0 5:0 7:1 73:1 4534:1 # 20140618125641AAGkGpi Play NNP Education_&_Reference TOKEN
-0.27034783562160491499071213183925 2:0 3:4 4:0 5:0 7:1 73:1 11249:1 # 20140617213812AAnm3nS Park NNP Travel TOKEN
0.5 2:0 3:4 4:0 5:0 7:1 73:1 5268:1 # 20140614004826AAWj9IB Snow NNP Entertainment_&_Music PERSON
0.5 2:0 3:3 4:1 5:0 7:0 73:1 14319:1 # 20140606223938AAjsrL7 AFC NNP News_&_Events ORGANIZATION
0.5 2:0 3:3 4:1 5:0 7:0 73:1 14320:1 # 20140606223938AAjsrL7 NFC NNP News_&_Events ORGANIZATION
0.5 2:0 3:3 4:1 5:0 7:0 73:1 13982:1 # 20140623230739AA9pP9C BBC NNP News_&_Events ORGANIZATION
-0.0012596993952031787511458560402389 2:0 3:4 4:0 5:0 7:1 30:1 5344:1 # 20140613124158AAH0KXB Over IN Entertainment_&_Music TOKEN
-0.47037032045374616018307278864086 2:0 3:4 4:0 5:0 7:1 73:1 5268:1 # 20140617223537AAdlxEL Snow NNP Sports TOKEN
-0.11304080140415351252158870920539 2:1 3:12 4:0 5:1 7:0 73:1 18709:1 # 20140611200230AA2zvuY reinstalling NNP Computer_&_Internet TOKEN
-0.042391431917120137029542092932388 2:0 3:3 4:0 5:1 7:0 33:1 7489:1 # 20140611031137AAH7s7n nor CC Family_&_Relationships TOKEN
0.5 2:0 3:5 4:0 5:0 7:1 73:1 14019:1 # 20140609103348AAf8tZ6 Allah NNP News_&_Events PERSON
0.5 2:0 3:5 4:0 5:0 7:1 73:1 18321:1 # 20140622230045AAAI6WE Roger NNP Travel PERSON
-0.5 2:0 3:4 4:0 5:0 7:1 73:1 2023:1 # 20140621143727AAOCXDZ Long NNP Pets TOKEN
-0.0032417863531765123141781259619165 2:0 3:11 4:0 5:1 7:0 8:1 4402:1 # 20140615215502AAWIjLB application NN Local_Businesses TOKEN
-0.010212130727426937948365548436414 2:0 3:8 4:0 5:1 7:0 8:1 2345:1 # 20140609035939AA1Gfsp interest NN Business_&_Finance TOKEN
-0.096520950059520327357631686027162 2:0 3:6 4:1 5:0 7:0 73:1 13608:1 # 20140618162920AAgLQhv S.O.L. NNP Family_&_Relationships TOKEN
-0.2697045239416233641804865328595 2:0 3:5 4:0 5:0 7:1 73:1 14872:1 # 20140621125811AAzEWHP Cause NNP Pets TOKEN
0.5 2:0 3:5 4:0 5:0 7:1 73:1 1419:1 # 20140605223141AA4aNVu Harry NNP Arts_&_Humanities PERSON
0.5 2:0 3:5 4:0 5:0 7:1 73:1 19085:1 # 20140607064609AA5EKx9 Ronan NNP Pregnancy_&_Parenting PERSON
0.5 2:0 3:5 4:0 5:0 7:1 73:1 11357:1 # 20140616143448AAdU6Ze Bread NNP Dining_Out ORGANIZATION
-0.5 2:0 3:7 4:0 5:0 7:1 73:1 11588:1 # 20140605102530AA17S7s Garland NNP Dining_Out TOKEN
-0.5 2:0 3:7 4:0 5:0 7:1 73:1 14390:1 # 20140613180332AA3jCxr Baghdad NNP News_&_Events TOKEN
0.5 2:0 3:4 4:0 5:0 7:1 73:1 2023:1 # 20140616143448AAdU6Ze Long NNP Dining_Out ORGANIZATION
-0.22105334185976743821555601243745 2:1 3:5 4:0 5:0 7:1 73:1 14726:1 # 20140626142532AAHm2Mx Mills NNP Pets TOKEN
-0.5 2:0 3:7 4:0 5:0 7:1 73:1 10824:1 # 20140616160015AAkjHsB Florida NNP Dining_Out TOKEN
-0.27154744722417234470412950031459 2:0 3:4 4:0 5:0 7:1 73:1 8952:1 # 20140606003853AAp4Kid Grip NNP Sports TOKEN
-0.011740845870704230691217162529938 2:0 3:3 4:0 5:1 7:0 8:1 6997:1 # 20140625193758AANDcbj lvl NN Games_&_Recreation TOKEN
-0.5 2:0 3:4 4:0 5:0 7:1 73:1 9488:1 # 20140603131218AA1t3hP Jack NNP Local_Businesses TOKEN
-0.27159481440078891978373576421291 2:0 3:4 4:0 5:0 7:1 73:1 4707:1 # 20140620190356AAdnQme Time NNP Entertainment_&_Music TOKEN
-0.2714391665684585674966911028605 2:0 3:4 4:0 5:0 7:1 73:1 9310:1 # 20140626152929AAvb2mt Wolf NNP Sports TOKEN
-0.27143916656844968571249410160817 2:0 3:4 4:0 5:0 7:1 73:1 12231:1 # 20140620102728AA6qqJ3 Beat NNP Food_&_Drink TOKEN
-0.27131191511191232734745426569134 2:0 3:4 4:0 5:0 7:1 73:1 14743:1 # 20140620141720AAh6NZ6 Bull NNP Pets TOKEN
0.5 2:0 3:4 4:0 5:0 7:1 73:1 9488:1 # 20140613182418AAAZN2I Jack NNP Sports PERSON
-0.078960421800528757252379818964982 2:0 3:4 4:0 5:0 7:1 73:1 8923:1 # 20140615190410AAmWDg3 Dude NNP Sports TOKEN
-0.26861967705733469369278054728056 2:0 3:5 4:0 5:0 7:1 73:1 1807:1 # 20140622210819AARJGLW Manga NNP Entertainment_&_Music TOKEN
-0.013574643774233896564851420407649 2:0 3:4 4:1 5:0 7:0 73:1 6455:1 # 20140610164612AA5SkqL SPOT NNP Health TOKEN
-0.26843067070932241646730176398705 2:0 3:5 4:0 5:0 7:1 73:1 3466:1 # 20140622093907AASVTkE Round NNP Business_&_Finance TOKEN
-0.27122521903358265404904159368016 2:0 3:4 4:0 5:0 7:1 73:1 4127:1 # 20140607141649AANF6Tv Sale NNP Consumer_Electronics TOKEN
-0.271225219033581099736807118461 2:0 3:4 4:0 5:0 7:1 73:1 15707:1 # 20140614170630AA1o9BQ Arab NNP Politics_&_Government TOKEN
-0.061281100333157256798699563660193 2:0 3:4 4:0 5:0 7:1 73:1 8183:1 # 20140625120602AAXWOm0 Gulf NNP Science_&_Mathematics TOKEN
-0.054969448655896313571389555363567 2:0 3:4 4:0 5:0 7:1 73:1 9593:1 # 20140618192549AAzYXYR Nose NNP Social_Science TOKEN
-0.2705095066053476160483626244968 2:0 3:4 4:0 5:0 7:1 73:1 364:1 # 20140621155455AA5YRJ2 Plus NNP Business_&_Finance TOKEN
-0.27133829908378581663441764249001 2:0 3:4 4:0 5:0 7:1 73:1 4209:1 # 20140613123024AAkX1Tt Xscl NNP Education_&_Reference TOKEN
-0.21636432331128008232923320974805 2:0 3:4 4:0 5:0 7:1 73:1 9593:1 # 20140618192549AAzYXYR Nose NNP Social_Science TOKEN
-0.27151994481615560061982250772417 2:0 3:4 4:0 5:0 7:1 73:1 4195:1 # 20140607141649AANF6Tv Quad NNP Consumer_Electronics TOKEN
-0.27156755484327632643726246897131 2:0 3:4 4:0 5:0 7:1 73:1 5740:1 # 20140605140138AAyDVJY Spit NNP Entertainment_&_Music TOKEN
