SVM-light Version V6.02
0 # kernel type
3 # kernel parameter -d 
1 # kernel parameter -g 
1 # kernel parameter -s 
1 # kernel parameter -r 
empty# kernel parameter -u 
19572 # highest feature index 
69010 # number of training documents 
6933 # number of support vectors plus 1 
1.0307406 # threshold b, each following line is a SV (starting with alpha*y)
-0.0081830021137454522772713971789926 2:0 3:2 4:0 5:0 7:1 22:1 608:1 # 20140608005945AABaB4R My PRP$ Education_&_Reference TOKEN
-0.096140609827466971815113083721371 2:0 3:2 4:1 5:0 7:0 73:1 9515:1 # 20140615120927AAPeVv5 AZ NNP Sports TOKEN
-0.0054825701743499433149509059148841 2:0 3:1 4:0 5:1 7:0 35:1 73:1 # 20140618194342AAqG5NH a NNP Family_&_Relationships TOKEN
-0.097707163124684887067772365298879 2:0 3:6 4:0 5:0 7:1 12:1 1105:1 # 20140616072209AARwehs People NNS Arts_&_Humanities TOKEN
-0.19501870365081153124720003688708 2:0 3:2 4:0 5:1 7:0 37:1 73:1 # 20140607132455AAfiY8G on NNP Consumer_Electronics TOKEN
0.5 2:0 3:4 4:0 5:1 7:0 8:1 6873:1 # 20140620231356AA5VO2N john NN Games_&_Recreation PERSON
0.5 2:0 3:6 4:0 5:0 7:1 73:1 1543:1 # 20140625095108AAhxBZ2 Dunbar NNP Arts_&_Humanities PERSON
0.5 2:0 3:5 4:0 5:0 7:1 88:1 8800:1 # 20140615215028AAGmoaM Leave VB Sports PERSON
0.5 2:0 3:2 4:1 5:0 7:0 73:1 3408:1 # 20140625120602AAXWOm0 UK NNP Science_&_Mathematics LOCATION
0.5 2:0 3:5 4:0 5:0 7:1 73:1 8663:1 # 20140613083238AAZnREA Brian NNP Beauty_&_Style PERSON
0.5 2:0 3:6 4:1 5:0 7:0 73:1 18073:1 # 20140617213812AAnm3nS DISNEY NNP Travel ORGANIZATION
0.5 2:1 3:8 4:0 5:1 7:0 12:1 10150:1 # 20140605150717AAmRFk6 brothers NNS News_&_Events ORGANIZATION
-0.18881827955954400000138093673741 2:0 3:1 4:1 5:0 7:1 73:1 10193:1 # 20140610004054AArTAuM M NNP Social_Science TOKEN
-0.18881827955954433306828832428437 2:0 3:1 4:1 5:0 7:1 17:1 73:1 # 20140608111211AAkpqtd I NNP Pregnancy_&_Parenting TOKEN
-0.18881827955954566533591787447222 2:0 3:1 4:1 5:0 7:1 73:1 445:1 # 20140615190614AAf5U3D C NNP Education_&_Reference TOKEN
0.5 2:0 3:89 4:0 5:1 7:0 26:1 10552:1 # 20140608182325AAmvy1Q http:##www.cyberdriveillinois.com#departments#drivers#drivers_license#drlicid.html#mcylic JJ Cars_&_Transportation LOCATION
-0.27559431364380415629966591950506 2:0 3:3 4:0 5:0 7:1 73:1 9692:1 # 20140614154636AAYu9pP Coz NNP Social_Science TOKEN
-0.27644096755850355862094147596508 2:0 3:2 4:0 5:0 7:1 73:1 9627:1 # 20140618192549AAzYXYR Se NNP Social_Science TOKEN
0.5 2:0 3:2 4:0 5:0 7:1 22:1 608:1 # 20140605040256AAru12G My PRP$ Entertainment_&_Music PERSON
-0.085450582018204102041636360809207 2:0 3:14 4:1 5:0 7:0 73:1 15095:1 # 20140617015321AAEmy38 ROL_2014-01-27 NNP Politics_&_Government TOKEN
0.5 2:0 3:4 4:0 5:0 7:1 73:1 8152:1 # 20140613180332AA3jCxr Iraq NNP News_&_Events LOCATION
0.5 2:1 3:2 4:1 5:0 7:0 16:1 2475:1 # 20140622210819AARJGLW US PRP Entertainment_&_Music LOCATION
-0.5 2:0 3:2 4:0 5:0 7:1 22:1 608:1 # 20140606151952AAnJYJg My PRP$ Pregnancy_&_Parenting TOKEN
0.5 2:0 3:89 4:0 5:1 7:0 26:1 10552:1 # 20140608182325AAmvy1Q http:##www.cyberdriveillinois.com#departments#drivers#drivers_license#drlicid.html#mcylic JJ Cars_&_Transportation LOCATION
0.5 2:1 3:6 4:1 5:0 7:0 73:1 3136:1 # 20140601131055AAPxhOP DALLAS NNP Business_&_Finance LOCATION
0.5 2:1 3:4 4:1 5:0 7:0 73:1 13003:1 # 20140617164637AAddgz5 USPS NNP Local_Businesses ORGANIZATION
-0.12169281264079323534588183974847 2:1 3:2 4:0 5:1 7:0 73:1 201:1 # 20140613030213AAZi4zH am NNP Travel TOKEN
-0.12166702797586781414906909049023 2:1 3:2 4:0 5:1 7:0 73:1 1285:1 # 20140618090750AAlViol us NNP Pregnancy_&_Parenting TOKEN
-0.12084876597771876394205037286156 2:1 3:2 4:0 5:1 7:0 73:1 8920:1 # 20140615215028AAGmoaM vs NNP Sports TOKEN
0.5 2:0 3:2 4:0 5:0 7:1 22:1 608:1 # 20140605040256AAru12G My PRP$ Entertainment_&_Music PERSON
0.5 2:0 3:5 4:0 5:0 7:1 8:1 5440:1 # 20140616143448AAdU6Ze Juice NN Dining_Out ORGANIZATION
0.5 2:1 3:4 4:0 5:1 7:0 45:1 847:1 # 20140601162630AAuDjDG laid VBN Sports ORGANIZATION
-0.5 2:0 3:2 4:0 5:0 7:1 22:1 608:1 # 20140612080629AAuyjlx My PRP$ Health TOKEN
-0.5 2:1 3:4 4:0 5:1 7:0 45:1 847:1 # 20140610102038AAX5RlB laid VBN Pets TOKEN
-0.27279082826636091851923993090168 2:0 3:6 4:0 5:0 7:1 73:1 3853:1 # 20140626112013AAPPVIB Temple NNP Consumer_Electronics TOKEN
0.5 2:0 3:10 4:0 5:0 7:1 73:1 10644:1 # 20140625110415AAjpx1n Washington NNP Cars_&_Transportation LOCATION
0.5 2:0 3:11 4:0 5:0 7:1 73:1 15695:1 # 20140614170630AA1o9BQ Brotherhood NNP Politics_&_Government ORGANIZATION
-0.27223094787503088198832301713992 2:0 3:6 4:0 5:0 7:1 73:1 5175:1 # 20140614004826AAWj9IB Violet NNP Entertainment_&_Music TOKEN
0.5 2:1 3:8 4:0 5:0 7:1 73:1 15468:1 # 20140617193722AA5emAo Cummings NNP Politics_&_Government PERSON
0.5 2:1 3:4 4:0 5:0 7:1 12:1 8743:1 # 20140616143448AAdU6Ze Guys NNS Dining_Out ORGANIZATION
-0.5 2:0 3:5 4:0 5:0 7:1 88:1 8800:1 # 20140605130921AAXKqjH Leave VB Home_&_Garden TOKEN
-0.039861745887059318871337154632783 2:1 3:7 4:0 5:0 7:1 20:1 7534:1 # 20140623023853AA1SoFR Solving VBG Science_&_Mathematics TOKEN
-0.054568445763583994789769349154085 2:0 3:2 4:0 5:1 7:0 20:1 1773:1 # 20140615120927AAPeVv5 na VBG Sports TOKEN
0.5 2:1 3:8 4:0 5:0 7:1 73:1 8461:1 # 20140612022126AAsUT1R Aviators NNP Beauty_&_Style ORGANIZATION
-0.5 2:0 3:2 4:1 5:0 7:0 73:1 3408:1 # 20140612013350AAX11Xr UK NNP Travel TOKEN
-0.42436835253048166283207365268026 2:1 3:4 4:0 5:1 7:0 45:1 847:1 # 20140610102038AAX5RlB laid VBN Pets TOKEN
0.5 2:0 3:4 4:0 5:0 7:1 88:1 5589:1 # 20140605040256AAru12G Kill VB Entertainment_&_Music PERSON
0.5 2:0 3:3 4:0 5:0 7:1 24:1 729:1 # 20140606223938AAjsrL7 The DT News_&_Events ORGANIZATION
0.5 2:0 3:2 4:0 5:1 7:0 8:1 13064:1 # 20140615091428AA1nGW3 st NN Local_Businesses LOCATION
0.5 2:0 3:2 4:0 5:1 7:0 12:1 3151:1 # 20140613111831AABRhzn al NNS News_&_Events ORGANIZATION
0.5 2:1 3:6 4:0 5:0 7:1 61:1 12380:1 # 20140601134625AAPRFLP Sallys NNPS Home_&_Garden ORGANIZATION
-0.058320551442774259953694127034396 2:0 3:2 4:0 5:0 7:1 88:1 492:1 # 20140615220821AAG2puS Go VB Games_&_Recreation TOKEN
0.5 2:0 3:6 4:0 5:1 7:0 73:1 5370:1 # 20140621194648AAv7Pxb kuroko NNP Entertainment_&_Music PERSON
-0.016485285352189293917035683989525 2:0 3:2 4:0 5:1 7:0 8:1 859:1 # 20140612080629AAuyjlx we NN Health TOKEN
0.5 2:0 3:3 4:0 5:0 7:1 73:1 5166:1 # 20140614004826AAWj9IB May NNP Entertainment_&_Music PERSON
-0.20301985896446694823680445551872 2:1 3:2 4:0 5:0 7:1 73:1 2354:1 # 20140609063130AAx8NAT Rs NNP Computer_&_Internet TOKEN
-0.20301985896443852652737405151129 2:1 3:2 4:0 5:0 7:1 73:1 247:1 # 20140613191324AAysIAb Am NNP Family_&_Relationships TOKEN
0.5 2:1 3:4 4:0 5:1 7:0 45:1 847:1 # 20140601162630AAuDjDG laid VBN Sports ORGANIZATION
0.5 2:0 3:5 4:0 5:0 7:1 88:1 8800:1 # 20140615215028AAGmoaM Leave VB Sports PERSON
-0.020832640880022262885873374216317 2:0 3:1 4:0 5:1 7:0 12:1 9555:1 # 20140608113007AAoVpt8 q NNS Politics_&_Government TOKEN
0.5 2:0 3:4 4:1 5:0 7:0 73:1 13985:1 # 20140617203723AAnMv8x ISIS NNP Politics_&_Government ORGANIZATION
-0.013146512612641991779582895105705 2:0 3:8 4:0 5:1 7:0 8:1 18029:1 # 20140604115540AAQrGu2 overhaul NN Travel TOKEN
0.5 2:1 3:4 4:0 5:0 7:1 12:1 8743:1 # 20140616143448AAdU6Ze Guys NNS Dining_Out ORGANIZATION
0.5 2:0 3:2 4:1 5:0 7:0 73:1 14378:1 # 20140613180332AA3jCxr AL NNP News_&_Events ORGANIZATION
0.5 2:0 3:2 4:1 5:0 7:0 73:1 9505:1 # 20140623125801AASUucg NJ NNP Food_&_Drink LOCATION
0.5 2:1 3:2 4:1 5:0 7:0 16:1 2475:1 # 20140617191218AAiEBHA US PRP News_&_Events LOCATION
-0.083381011722206466174611705355346 2:0 3:16 4:1 5:0 7:0 73:1 8698:1 # 20140613083238AAZnREA BAHAHAHAHAHAHAHA NNP Beauty_&_Style TOKEN
0.5 2:0 3:5 4:1 5:0 7:0 73:1 15661:1 # 20140614170630AA1o9BQ NAFTA NNP Politics_&_Government ORGANIZATION
0.5 2:0 3:5 4:1 5:0 7:0 73:1 13972:1 # 20140613111831AABRhzn COBRA NNP News_&_Events ORGANIZATION
0.5 2:0 3:7 4:0 5:0 7:1 26:1 14010:1 # 20140609103954AAB6LY5 Zionist JJ News_&_Events ORGANIZATION
0.5 2:1 3:7 4:0 5:0 7:1 123:1 5614:1 # 20140608113007AAoVpt8 Answers VBZ Politics_&_Government ORGANIZATION
-0.27644096755827973765917704440653 2:0 3:2 4:0 5:0 7:1 73:1 11461:1 # 20140603215034AABtnxF Le NNP Dining_Out TOKEN
-0.27644096755827263223181944340467 2:0 3:2 4:0 5:0 7:1 73:1 230:1 # 20140622011040AAZ0TjA Im NNP Education_&_Reference TOKEN
-0.27624810037305558285680717744981 2:0 3:2 4:0 5:0 7:1 73:1 5832:1 # 20140613124158AAH0KXB Va NNP Entertainment_&_Music TOKEN
-0.27626403537451393876978045227588 2:0 3:2 4:0 5:0 7:1 73:1 11293:1 # 20140618215915AAruZzF Ya NNP News_&_Events TOKEN
-0.056489144973957822193355582385266 2:1 3:8 4:0 5:0 7:1 20:1 19438:1 # 20140607012308AAXFLrR Counting VBG Yahoo!_Products TOKEN
0.5 2:0 3:4 4:1 5:0 7:0 73:1 14238:1 # 20140615161422AAiDhFt KPIG NNP News_&_Events ORGANIZATION
0.5 2:0 3:3 4:0 5:1 7:0 8:1 5596:1 # 20140605040256AAru12G cab NN Entertainment_&_Music PERSON
0.5 2:0 3:5 4:0 5:0 7:0 73:1 4284:1 # 20140604083714AANM1Br UMass NNP Education_&_Reference ORGANIZATION
-0.27276996760943106323793472256511 2:0 3:6 4:0 5:0 7:1 73:1 6374:1 # 20140611193450AAnqGcc Common NNP Health TOKEN
-0.5 2:1 3:7 4:0 5:0 7:1 123:1 5614:1 # 20140601163915AAS8CzR Answers VBZ Family_&_Relationships TOKEN
0.5 2:0 3:3 4:0 5:1 7:0 8:1 11396:1 # 20140616143448AAdU6Ze hut NN Dining_Out ORGANIZATION
-0.020154212741106847239791477477411 2:0 3:2 4:0 5:1 7:0 12:1 344:1 # 20140618024923AAR6gIm no NNS Science_&_Mathematics TOKEN
-0.05780565254979172506999418601481 2:1 3:7 4:0 5:0 7:1 20:1 18284:1 # 20140603020037AAlyzyA Dealing VBG Travel TOKEN
-0.046000801835505811254733998794109 2:0 3:9 4:0 5:0 7:1 26:1 8420:1 # 20140613192110AABUd4A Alternate JJ Beauty_&_Style TOKEN
-0.020107958042232032536134056499577 2:0 3:2 4:0 5:1 7:0 12:1 151:1 # 20140611153858AAK05v1 of NNS Sports TOKEN
-0.026403214181698761442440570590406 2:1 3:4 4:0 5:0 7:1 12:1 14559:1 # 20140613073945AAjr9GV Dogs NNS Pets TOKEN
-0.057687980893653567626699896209175 2:1 3:5 4:0 5:0 7:1 61:1 1411:1 # 20140614134845AAVhWeg Games NNPS Consumer_Electronics TOKEN
-0.057728690657663908614161130117282 2:1 3:5 4:0 5:0 7:1 61:1 11155:1 # 20140608075953AADKMro Chips NNPS Dining_Out TOKEN
-0.5 2:1 3:2 4:1 5:0 7:0 16:1 2475:1 # 20140617152905AAraW4N US PRP Education_&_Reference TOKEN
-0.033695477104405568979927920736372 2:1 3:7 4:0 5:0 7:1 20:1 14362:1 # 20140614113251AA3Y1WB Feeling VBG News_&_Events TOKEN
0.5 2:1 3:6 4:0 5:0 7:1 61:1 9343:1 # 20140616154757AA3uubn Forces NNPS News_&_Events ORGANIZATION
-0.5 2:1 3:6 4:0 5:0 7:1 61:1 9343:1 # 20140614220006AA90c02 Forces NNPS Sports TOKEN
0.5 2:1 3:7 4:0 5:0 7:1 123:1 5614:1 # 20140620213457AAI59UA Answers VBZ Computer_&_Internet ORGANIZATION
-0.26766027400338998631923459470272 2:0 3:12 4:0 5:0 7:1 73:1 9038:1 # 20140605104442AAFzzy2 Professional NNP Sports TOKEN
0.5 2:1 3:6 4:0 5:0 7:1 61:1 12443:1 # 20140617203723AAnMv8x States NNPS Politics_&_Government LOCATION
-0.057623407363177781004281996501959 2:1 3:5 4:0 5:0 7:1 61:1 8160:1 # 20140625120602AAXWOm0 Arabs NNPS Science_&_Mathematics TOKEN
-0.057035306902914584270547493360937 2:1 3:5 4:0 5:0 7:1 61:1 11648:1 # 20140604112329AAS36PD Foods NNPS Dining_Out TOKEN
-0.057710791474852918270244117593393 2:1 3:5 4:0 5:0 7:1 61:1 14120:1 # 20140612211617AAE6Bis Turks NNPS News_&_Events TOKEN
-0.016334144380259374429442686960101 2:0 3:4 4:0 5:1 7:0 8:1 14621:1 # 20140619183644AAkBDn2 gulp NN Pets TOKEN
-0.5 2:1 3:7 4:0 5:0 7:1 123:1 5614:1 # 20140601163915AAS8CzR Answers VBZ Family_&_Relationships TOKEN
-0.26854079425277177506359294056892 2:0 3:11 4:0 5:0 7:1 73:1 18614:1 # 20140611153520AAksgjY Silverlight NNP Computer_&_Internet TOKEN
-0.33289657817930118355320701084565 2:1 3:2 4:1 5:0 7:0 16:1 2475:1 # 20140622223032AAkvyyd US PRP Games_&_Recreation TOKEN
0.5 2:0 3:5 4:0 5:1 7:0 88:1 13037:1 # 20140620172230AAfuPAg texas VB Local_Businesses LOCATION
-0.018536004613849854649743065237999 2:1 3:13 4:0 5:0 7:1 12:1 14131:1 # 20140625082631AAcgyMl Conservatives NNS Politics_&_Government TOKEN
-0.11405690568784976335336978081614 2:0 3:2 4:0 5:1 7:0 73:1 157:1 # 20140601160702AAOGVk4 or NNP Yahoo!_Products TOKEN
-0.27163825202481639564666693331674 2:0 3:7 4:0 5:0 7:1 73:1 13797:1 # 20140608120927AA1JZcv Britain NNP Travel TOKEN
-0.13982778024362119140278082340956 2:0 3:2 4:0 5:0 7:1 73:1 755:1 # 20140619012658AAFU8Pz Do NNP Yahoo!_Products TOKEN
-0.0084887752164223284623290055606049 2:0 3:13 4:0 5:1 7:0 8:1 10281:1 # 20140614154636AAYu9pP disabled#sick NN Social_Science TOKEN
-0.091825235884694933474747813306749 2:0 3:12 4:0 5:0 7:1 8:1 3687:1 # 20140617123215AAwmmE0 Installation NN Consumer_Electronics TOKEN
-0.07512738438427754572579431169288 2:0 3:2 4:0 5:1 7:0 73:1 136:1 # 20140620141720AAh6NZ6 as NNP Pets TOKEN
0.5 2:1 3:7 4:0 5:0 7:1 123:1 5614:1 # 20140608113007AAoVpt8 Answers VBZ Politics_&_Government ORGANIZATION
-0.5 2:0 3:5 4:0 5:0 7:1 88:1 8800:1 # 20140607125905AA2JtXv Leave VB Politics_&_Government TOKEN
0.5 2:1 3:7 4:0 5:1 7:0 43:1 7296:1 # 20140610052054AAkNfGL googled VBP Cars_&_Transportation ORGANIZATION
0.5 2:0 3:9 4:0 5:1 7:0 26:1 1875:1 # 20140614170630AA1o9BQ corporate JJ Politics_&_Government ORGANIZATION
0.5 2:0 3:3 4:0 5:0 7:1 24:1 729:1 # 20140606223938AAjsrL7 The DT News_&_Events ORGANIZATION
0.5 2:0 3:3 4:0 5:0 7:1 24:1 830:1 # 20140605040256AAru12G All DT Entertainment_&_Music PERSON
-0.49785500513570468683610670268536 2:0 3:3 4:0 5:0 7:1 24:1 830:1 # 20140622020047AAbc35x All DT Arts_&_Humanities TOKEN
0.5 2:0 3:6 4:0 5:1 7:0 43:1 1441:1 # 20140617052323AAeXK8h google VBP Cars_&_Transportation ORGANIZATION
-0.5 2:0 3:6 4:0 5:1 7:0 8:1 1441:1 # 20140604115540AAQrGu2 google NN Travel TOKEN
-0.5 2:0 3:3 4:0 5:0 7:1 24:1 729:1 # 20140606094425AAJm5yJ The DT Beauty_&_Style TOKEN
-0.01738002671881466731917953438824 2:0 3:4 4:0 5:1 7:0 8:1 10367:1 # 20140622170617AATlgRE nano NN Cars_&_Transportation TOKEN
0.5 2:1 3:5 4:0 5:1 7:0 12:1 19123:1 # 20140601002604AAq45X7 hicks NNS Pregnancy_&_Parenting PERSON
-0.18190650012060843865313586320553 2:0 3:5 4:0 5:0 7:0 73:1 19209:1 # 20140618090750AAlViol Ky-us NNP Pregnancy_&_Parenting TOKEN
0.5 2:0 3:9 4:0 5:0 7:1 73:1 2972:1 # 20140604131630AAZXrpw Pinterest NNP Business_&_Finance ORGANIZATION
0.5 2:0 3:9 4:0 5:1 7:0 26:1 1875:1 # 20140614170630AA1o9BQ corporate JJ Politics_&_Government ORGANIZATION
0.5 2:0 3:7 4:0 5:0 7:1 73:1 18040:1 # 20140617213812AAnm3nS Orlando NNP Travel LOCATION
0.5 2:0 3:6 4:0 5:0 7:1 8:1 11347:1 # 20140616143448AAdU6Ze Choice NN Dining_Out ORGANIZATION
0.5 2:0 3:6 4:0 5:1 7:0 8:1 1441:1 # 20140605214704AAzq0fk google NN Health ORGANIZATION
0.5 2:0 3:5 4:0 5:0 7:1 73:1 2105:1 # 20140609160711AAprF2f Lloyd NNP Arts_&_Humanities PERSON
0.5 2:0 3:3 4:0 5:1 7:0 24:1 25:1 # 20140605040256AAru12G the DT Entertainment_&_Music PERSON
0.5 2:0 3:6 4:0 5:1 7:0 8:1 14956:1 # 20140622080843AAfcL4m selena NN Pets PERSON
0.5 2:0 3:5 4:0 5:0 7:1 73:1 4452:1 # 20140612160340AAE8W0E Jesus NNP Sports PERSON
-0.019862147034519661570328707966837 2:0 3:2 4:0 5:1 7:0 12:1 3151:1 # 20140623230739AA9pP9C al NNS News_&_Events TOKEN
-0.012680723797027226851241721305996 2:0 3:5 4:0 5:1 7:0 20:1 1371:1 # 20140603235141AAdqnjl lower VBG Cars_&_Transportation TOKEN
-0.021986659596496579971436347022973 2:1 3:4 4:0 5:0 7:1 12:1 9272:1 # 20140601130859AAHxybZ Fans NNS Sports TOKEN
-0.5 2:0 3:7 4:0 5:0 7:1 73:1 5430:1 # 20140617203723AAnMv8x America NNP Politics_&_Government TOKEN
0.5 2:0 3:7 4:0 5:0 7:1 73:1 11588:1 # 20140605102530AA17S7s Garland NNP Dining_Out PERSON
0.5 2:1 3:8 4:0 5:0 7:1 73:1 11053:1 # 20140601101734AAAYp2K Brenners NNP Dining_Out ORGANIZATION
-0.26931087811473364279635234197485 2:0 3:9 4:0 5:0 7:1 73:1 17184:1 # 20140618114010AAeeGQR Christian NNP Pregnancy_&_Parenting TOKEN
-0.1955378679411148290512301173294 2:0 3:1 4:0 5:1 7:0 73:1 1159:1 # 20140601100338AAUfBLz b NNP News_&_Events TOKEN
-0.2702098554345297998224850744009 2:0 3:9 4:0 5:0 7:1 73:1 1473:1 # 20140605223141AA4aNVu Bodyguard NNP Arts_&_Humanities TOKEN
-0.19595601895745207166044110635994 2:0 3:1 4:0 5:1 7:0 73:1 2518:1 # 20140623023853AA1SoFR y NNP Science_&_Mathematics TOKEN
0.5 2:0 3:5 4:0 5:1 7:0 40:1 5659:1 # 20140619063559AA2eks0 south RB Home_&_Garden LOCATION
0.5 2:0 3:9 4:0 5:0 7:1 73:1 15476:1 # 20140617193722AA5emAo Attkisson NNP Politics_&_Government PERSON
-0.12693873483786433098430279642344 2:0 3:79 4:0 5:1 7:0 73:1 19374:1 # 20140608060520AAMzqLw https:##help.yahoo.com#kb#limitations-internet-explorer-yahoo-mail-sln5918.html NNP Yahoo!_Products TOKEN
0.5 2:0 3:3 4:1 5:0 7:0 73:1 3927:1 # 20140619113940AAko4f7 HTC NNP Entertainment_&_Music ORGANIZATION
-0.18142138853702061140893420088105 2:0 3:1 4:0 5:0 7:0 73:1 131:1 # 20140613202053AAONeF7 - NNP Games_&_Recreation TOKEN
-0.18550206232998678324008778872667 2:0 3:1 4:0 5:0 7:0 73:1 3524:1 # 20140614134845AAVhWeg • NNP Consumer_Electronics TOKEN
-0.18550206233003013744919940108957 2:0 3:1 4:0 5:0 7:0 39:1 73:1 # 20140611090216AAsNyRd . NNP Family_&_Relationships TOKEN
-0.5 2:1 3:2 4:1 5:0 7:0 16:1 2475:1 # 20140603053113AAVRR5O US PRP Local_Businesses TOKEN
-0.0078421964050262027434712308604503 2:0 3:2 4:0 5:1 7:0 43:1 342:1 # 20140618114010AAeeGQR 'm VBP Pregnancy_&_Parenting TOKEN
0.5 2:1 3:9 4:0 5:0 7:0 73:1 7069:1 # 20140615191331AAdpnmg McDonalds NNP Dining_Out ORGANIZATION
-0.49478958836251507591441622935236 2:0 3:3 4:0 5:1 7:0 8:1 2189:1 # 20140612062149AAH8vjl boy NN Arts_&_Humanities TOKEN
0.5 2:0 3:2 4:0 5:1 7:0 8:1 13095:1 # 20140620035947AAeYEbM sc NN Local_Businesses LOCATION
0.5 2:0 3:4 4:0 5:1 7:0 8:1 4391:1 # 20140619105821AAuioIb kean NN Education_&_Reference ORGANIZATION
0.5 2:0 3:5 4:0 5:0 7:1 73:1 1479:1 # 20140605223141AA4aNVu Smith NNP Arts_&_Humanities PERSON
-0.18197167861129415200593939516693 2:0 3:5 4:0 5:0 7:0 73:1 4078:1 # 20140606193910AApjpvz M'aiq NNP Consumer_Electronics TOKEN
0.5 2:0 3:7 4:0 5:1 7:0 26:1 2720:1 # 20140611170153AAHPuYj scarlet JJ Education_&_Reference PERSON
0.5 2:0 3:7 4:0 5:0 7:1 73:1 5219:1 # 20140614004826AAWj9IB Bueller NNP Entertainment_&_Music PERSON
-0.018840225514021868846725737967063 2:0 3:2 4:0 5:1 7:0 8:1 321:1 # 20140623011420AA1Rko5 by NN Pregnancy_&_Parenting TOKEN
-0.091082496693503545159842360590119 2:0 3:2 4:0 5:1 7:0 73:1 147:1 # 20140620102728AA6qqJ3 at NNP Food_&_Drink TOKEN
0.5 2:1 3:7 4:0 5:0 7:1 73:1 11352:1 # 20140616143448AAdU6Ze Noodles NNP Dining_Out ORGANIZATION
-0.18854767044018672095262445509434 2:0 3:1 4:1 5:0 7:1 73:1 4291:1 # 20140616195748AA2BAj7 U NNP Social_Science TOKEN
0.5 2:0 3:2 4:1 5:0 7:0 73:1 14378:1 # 20140613180332AA3jCxr AL NNP News_&_Events ORGANIZATION
0.5 2:0 3:7 4:0 5:1 7:0 8:1 2520:1 # 20140626223207AABdv8w khalifa NN Business_&_Finance PERSON
0.5 2:0 3:10 4:0 5:0 7:1 73:1 15558:1 # 20140623142217AAHjEJM Hicksville NNP Politics_&_Government LOCATION
0.5 2:0 3:10 4:0 5:0 7:1 73:1 15218:1 # 20140610123048AAZOuhW Guantanamo NNP Politics_&_Government LOCATION
-0.016657924842313764912660190020688 2:0 3:5 4:0 5:1 7:0 8:1 5985:1 # 20140605130921AAXKqjH fiber NN Home_&_Garden TOKEN
-0.016598398718745244195815757848322 2:0 3:5 4:0 5:1 7:0 8:1 453:1 # 20140625210906AATgayM video NN News_&_Events TOKEN
-0.016298825551851692239324620459229 2:0 3:5 4:0 5:1 7:0 8:1 13615:1 # 20140617094029AAZ1FwJ daddy NN Family_&_Relationships TOKEN
-0.044331622451969643350366823142394 2:0 3:11 4:0 5:0 7:1 26:1 13920:1 # 20140607104637AASvvKI Thatcherite JJ News_&_Events TOKEN
-0.018031919097414750297048158245161 2:0 3:3 4:0 5:1 7:0 8:1 8302:1 # 20140623010804AATRu9l jay NN Travel TOKEN
0.5 2:0 3:7 4:0 5:0 7:1 73:1 13139:1 # 20140603131218AA1t3hP Mission NNP Local_Businesses LOCATION
0.5 2:0 3:4 4:0 5:1 7:0 8:1 9454:1 # 20140623022611AAddTaJ kurt NN Sports PERSON
0.5 2:0 3:6 4:0 5:0 7:1 73:1 3931:1 # 20140619110535AAA13D9 Google NNP Local_Businesses ORGANIZATION
0.5 2:1 3:4 4:1 5:0 7:0 73:1 13003:1 # 20140610194612AA31tgA USPS NNP Local_Businesses ORGANIZATION
0.5 2:0 3:8 4:0 5:0 7:1 73:1 15786:1 # 20140611151627AAmAEbQ Gingrich NNP Politics_&_Government PERSON
-0.18881827955954011422079474868951 2:0 3:1 4:1 5:0 7:1 73:1 3175:1 # 20140603072418AAgZjcN Y NNP Science_&_Mathematics TOKEN
-0.27293425318691877379251309321262 2:0 3:6 4:0 5:0 7:1 73:1 12768:1 # 20140615215502AAWIjLB Social NNP Local_Businesses TOKEN
0.5 2:0 3:5 4:0 5:0 7:0 73:1 4284:1 # 20140604083714AANM1Br UMass NNP Education_&_Reference ORGANIZATION
-0.5 2:0 3:6 4:0 5:0 7:1 73:1 3931:1 # 20140603215034AABtnxF Google NNP Dining_Out TOKEN
0.5 2:0 3:5 4:0 5:1 7:0 88:1 13037:1 # 20140620172230AAfuPAg texas VB Local_Businesses LOCATION
0.5 2:0 3:2 4:0 5:0 7:1 73:1 5396:1 # 20140612211617AAE6Bis Al NNP News_&_Events ORGANIZATION
-0.0011886238070779597819637274369597 2:0 3:3 4:0 5:0 7:1 49:1 6112:1 # 20140621171642AATfemJ Wow UH Games_&_Recreation TOKEN
-0.017302099523278435810880182543769 2:0 3:4 4:0 5:1 7:0 8:1 2507:1 # 20140614220006AA90c02 item NN Sports TOKEN
-0.096133338577178317763127779471688 2:0 3:2 4:1 5:0 7:0 73:1 10745:1 # 20140606145613AArNENe PB NNP Cars_&_Transportation TOKEN
-0.01753516292552781408176088007167 2:0 3:4 4:0 5:1 7:0 8:1 11848:1 # 20140613193928AAaFgh0 chex NN Food_&_Drink TOKEN
0.5 2:0 3:6 4:0 5:0 7:1 73:1 3931:1 # 20140610062626AA46ms6 Google NNP Education_&_Reference ORGANIZATION
-0.42219709084999257342474265897181 2:0 3:5 4:0 5:1 7:0 40:1 5659:1 # 20140603020037AAlyzyA south RB Travel TOKEN
-0.27594774147509593120730642112903 2:0 3:2 4:0 5:0 7:1 73:1 5396:1 # 20140614114159AAxmnir Al NNP Travel TOKEN
0.5 2:1 3:9 4:0 5:0 7:1 73:1 12377:1 # 20140601134625AAPRFLP Walgreens NNP Home_&_Garden ORGANIZATION
-0.27625891035717725641163156069524 2:0 3:2 4:0 5:0 7:1 73:1 1086:1 # 20140605231104AAm8fzJ He NNP Politics_&_Government TOKEN
0.5 2:0 3:5 4:0 5:1 7:0 26:1 5739:1 # 20140615224306AASdmOX green JJ Sports PERSON
-0.5 2:0 3:6 4:0 5:0 7:1 73:1 3931:1 # 20140613030213AAZi4zH Google NNP Travel TOKEN
-0.016463696417779338787568121915683 2:0 3:5 4:0 5:1 7:0 8:1 9984:1 # 20140604085754AAaequj piano NN Social_Science TOKEN
0.5 2:0 3:9 4:0 5:0 7:1 73:1 1483:1 # 20140605223141AA4aNVu Muchamore NNP Arts_&_Humanities PERSON
-0.088203721224882514206910855136812 2:0 3:11 4:1 5:0 7:0 73:1 10761:1 # 20140609115257AAXrpdb SUPERB.WANT NNP Cars_&_Transportation TOKEN
0.5 2:0 3:10 4:0 5:1 7:0 8:1 3309:1 # 20140619105821AAuioIb university NN Education_&_Reference ORGANIZATION
-0.5 2:0 3:10 4:0 5:1 7:0 8:1 3309:1 # 20140623125518AAtlQpd university NN Dining_Out TOKEN
0.5 2:0 3:10 4:0 5:0 7:1 73:1 15471:1 # 20140617193722AA5emAo Whitehouse NNP Politics_&_Government PERSON
-0.08642135367524694800067663891241 2:0 3:13 4:1 5:0 7:0 73:1 18668:1 # 20140623171559AARTbz7 GA-F2A88X-D3H NNP Computer_&_Internet TOKEN
0.5 2:0 3:6 4:0 5:0 7:1 73:1 3931:1 # 20140615100226AACLhyS Google NNP Home_&_Garden ORGANIZATION
-0.5 2:0 3:5 4:0 5:0 7:1 88:1 8800:1 # 20140605130921AAXKqjH Leave VB Home_&_Garden TOKEN
0.5 2:0 3:9 4:0 5:1 7:0 26:1 1875:1 # 20140614170630AA1o9BQ corporate JJ Politics_&_Government ORGANIZATION
0.5 2:0 3:6 4:1 5:0 7:0 73:1 8317:1 # 20140626034154AAGjZE1 LITTLE NNP Food_&_Drink PERSON
-0.46803631100976367251931264945597 2:0 3:5 4:0 5:1 7:0 26:1 5739:1 # 20140626031053AAyXCcP green JJ Food_&_Drink TOKEN
0.5 2:0 3:3 4:1 5:0 7:0 73:1 19533:1 # 20140625072412AAUASEG LA. NNP Yahoo!_Products LOCATION
0.5 2:0 3:5 4:0 5:0 7:1 88:1 8800:1 # 20140615215028AAGmoaM Leave VB Sports PERSON
0.5 2:0 3:5 4:1 5:0 7:0 73:1 10760:1 # 20140609115257AAXrpdb SKODA NNP Cars_&_Transportation ORGANIZATION
-0.094183991491327279099721181410132 2:0 3:3 4:1 5:0 7:0 73:1 3443:1 # 20140609170145AAsvd80 THE NNP Politics_&_Government TOKEN
-0.46490372158812842684483257471584 2:0 3:8 4:0 5:1 7:0 26:1 7068:1 # 20140603235141AAdqnjl american JJ Cars_&_Transportation TOKEN
0.5 2:0 3:4 4:0 5:1 7:0 8:1 13833:1 # 20140611151627AAmAEbQ army NN Politics_&_Government ORGANIZATION
0.5 2:1 3:9 4:0 5:0 7:1 73:1 805:1 # 20140617074422AANUT7h Euripides NNP Arts_&_Humanities PERSON
-0.5 2:0 3:5 4:0 5:1 7:0 8:1 3986:1 # 20140626034154AAGjZE1 apple NN Food_&_Drink TOKEN
-0.5 2:0 3:5 4:0 5:1 7:0 8:1 7155:1 # 20140601072000AABRvpX intel NN Games_&_Recreation TOKEN
-0.19292821796250037014175404692651 2:0 3:4 4:0 5:1 7:0 73:1 3990:1 # 20140613124158AAH0KXB code NNP Entertainment_&_Music TOKEN
0.5 2:0 3:2 4:1 5:0 7:0 73:1 11389:1 # 20140616143448AAdU6Ze DQ NNP Dining_Out ORGANIZATION
-0.031356749770256958642633549061429 2:0 3:6 4:0 5:0 7:1 30:1 3194:1 # 20140605210007AAoMB1b Before IN Home_&_Garden TOKEN
-0.016313903659966655368407373316586 2:0 3:5 4:0 5:1 7:0 8:1 8305:1 # 20140607150805AAQGSUv strip NN Beauty_&_Style TOKEN
0.5 2:0 3:2 4:1 5:0 7:0 73:1 4289:1 # 20140604083714AANM1Br NY NNP Education_&_Reference LOCATION
0.5 2:0 3:2 4:1 5:0 7:0 73:1 11527:1 # 20140608112522AAMjxU9 LA NNP Local_Businesses LOCATION
0.5 2:0 3:2 4:1 5:0 7:0 73:1 4294:1 # 20140604083714AANM1Br GA NNP Education_&_Reference LOCATION
0.5 2:0 3:2 4:1 5:0 7:0 73:1 4507:1 # 20140618125641AAGkGpi C. NNP Education_&_Reference PERSON
0.5 2:0 3:2 4:1 5:0 7:0 73:1 15532:1 # 20140609182413AATpjOA GW NNP Politics_&_Government PERSON
-0.49933732138943653922069643158466 2:0 3:2 4:1 5:0 7:0 73:1 11527:1 # 20140608112522AAMjxU9 LA NNP Local_Businesses TOKEN
-0.49957112178895868304095984058222 2:0 3:2 4:1 5:0 7:0 73:1 4507:1 # 20140607181926AAii9kA C. NNP Pets TOKEN
0.5 2:1 3:6 4:0 5:1 7:0 8:1 5762:1 # 20140605140138AAyDVJY barros NN Entertainment_&_Music PERSON
-0.27628357262661729087938056181883 2:0 3:2 4:0 5:0 7:1 73:1 9600:1 # 20140618192549AAzYXYR Yo NNP Social_Science TOKEN
-0.27593402647292464280326385051012 2:0 3:2 4:0 5:0 7:1 73:1 12959:1 # 20140622225954AAAlKMt Ho NNP Local_Businesses TOKEN
-0.017410404682854263569424801971763 2:0 3:4 4:0 5:1 7:0 8:1 2829:1 # 20140613083238AAZnREA jerk NN Beauty_&_Style TOKEN
-0.5 2:0 3:5 4:0 5:0 7:1 73:1 3489:1 # 20140603131218AA1t3hP Apple NNP Local_Businesses TOKEN
0.5 2:0 3:3 4:0 5:1 7:0 8:1 2189:1 # 20140605040256AAru12G boy NN Entertainment_&_Music PERSON
-0.49928389107943393909749829617795 2:0 3:2 4:1 5:0 7:0 73:1 4289:1 # 20140610174552AAptb2t NY NNP Local_Businesses TOKEN
-0.096802603468726600155491723853629 2:0 3:2 4:1 5:0 7:0 73:1 11527:1 # 20140608112522AAMjxU9 LA NNP Local_Businesses TOKEN
0.5 2:0 3:3 4:0 5:1 7:0 24:1 25:1 # 20140605040256AAru12G the DT Entertainment_&_Music PERSON
0.5 2:1 3:3 4:1 5:0 7:0 73:1 9297:1 # 20140626152929AAvb2mt SFS NNP Sports ORGANIZATION
0.5 2:1 3:3 4:1 5:0 7:0 73:1 14427:1 # 20140617191218AAiEBHA CBS NNP News_&_Events ORGANIZATION
0.5 2:1 3:3 4:1 5:0 7:0 73:1 15277:1 # 20140625082631AAcgyMl IRS NNP Politics_&_Government ORGANIZATION
-0.5 2:1 3:2 4:1 5:0 7:0 73:1 2475:1 # 20140619105821AAuioIb US NNP Education_&_Reference TOKEN
-0.099429341564421847010635246988386 2:0 3:3 4:0 5:0 7:1 8:1 7209:1 # 20140613202053AAONeF7 Hmm NN Games_&_Recreation TOKEN
-0.02279754629813623978407122194767 2:1 3:2 4:1 5:0 7:0 73:1 311:1 # 20140620170402AA0uGdu IS NNP Pregnancy_&_Parenting TOKEN
-0.022775614119012382863260768317559 2:1 3:2 4:1 5:0 7:0 73:1 9229:1 # 20140611211016AAM5YLk SS NNP Sports TOKEN
0.5 2:0 3:7 4:0 5:1 7:0 8:1 3810:1 # 20140603131218AA1t3hP mission NN Local_Businesses LOCATION
0.5 2:0 3:7 4:0 5:1 7:0 8:1 15221:1 # 20140610123048AAZOuhW taliban NN Politics_&_Government ORGANIZATION
-1.7150256496206717216068682319019e-08 2:0 3:10 4:0 5:1 7:0 8:1 13620:1 # 20140617094029AAZ1FwJ assumption NN Family_&_Relationships TOKEN
-0.20174035526077460644955863244832 2:1 3:3 4:0 5:0 7:1 73:1 3284:1 # 20140601093053AA6zdEg Ids NNP Business_&_Finance TOKEN
-0.20193961396710202738091766150319 2:1 3:3 4:0 5:0 7:1 73:1 15163:1 # 20140610123048AAZOuhW Drs NNP Politics_&_Government TOKEN
-0.2021279733786798260553041473031 2:1 3:3 4:0 5:0 7:1 73:1 15595:1 # 20140617203723AAnMv8x Hes NNP Politics_&_Government TOKEN
-0.20212797337858745549965533427894 2:1 3:3 4:0 5:0 7:1 73:1 3523:1 # 20140614134845AAVhWeg Ops NNP Consumer_Electronics TOKEN
0.5 2:0 3:7 4:0 5:1 7:0 8:1 5584:1 # 20140605040256AAru12G romance NN Entertainment_&_Music PERSON
-0.09709144867402841327930218540132 2:0 3:6 4:0 5:0 7:1 8:1 18894:1 # 20140610230047AA22gW4 Reflex NN Computer_&_Internet TOKEN
-0.10938267542374885410438878352579 2:1 3:4 4:0 5:0 7:0 73:1 10728:1 # 20140611152558AA4un22 RPMs NNP Cars_&_Transportation TOKEN
0.5 2:0 3:7 4:0 5:1 7:0 20:1 3646:1 # 20140617015321AAEmy38 youtube VBG Politics_&_Government ORGANIZATION
-0.27227141423564388267308800095634 2:0 3:6 4:0 5:0 7:1 73:1 7213:1 # 20140613202053AAONeF7 Forest NNP Games_&_Recreation TOKEN
-0.27287614772673851604167793993838 2:0 3:6 4:0 5:0 7:1 73:1 5428:1 # 20140609221937AAH7tge Street NNP Travel TOKEN
0.5 2:1 3:7 4:0 5:0 7:1 73:1 3502:1 # 20140614134845AAVhWeg Windows NNP Consumer_Electronics ORGANIZATION
0.5 2:1 3:7 4:0 5:0 7:1 73:1 11365:1 # 20140616143448AAdU6Ze Popeyes NNP Dining_Out ORGANIZATION
0.5 2:1 3:7 4:0 5:0 7:1 73:1 19548:1 # 20140619231832AAFqTWm Mikayla NNP Yahoo!_Products PERSON
-0.053935629407691476622233039961429 2:0 3:6 4:0 5:0 7:1 88:1 12499:1 # 20140605210007AAoMB1b Vanish VB Home_&_Garden TOKEN
0.5 2:0 3:4 4:0 5:1 7:0 73:1 3365:1 # 20140614220309AAJTZNt ebay NNP Computer_&_Internet ORGANIZATION
0.5 2:0 3:3 4:0 5:1 7:0 26:1 9449:1 # 20140623022611AAddTaJ ufc JJ Sports ORGANIZATION
0.5 2:0 3:3 4:0 5:1 7:0 26:1 3981:1 # 20140605040256AAru12G low JJ Entertainment_&_Music PERSON
-0.040759457393268444524991878097353 2:0 3:6 4:0 5:0 7:1 26:1 5243:1 # 20140614004826AAWj9IB Blonde JJ Entertainment_&_Music TOKEN
0.5 2:0 3:5 4:0 5:1 7:0 20:1 15566:1 # 20140603004555AAv1K5X steve VBG Politics_&_Government PERSON
0.5 2:0 3:5 4:0 5:1 7:0 26:1 5739:1 # 20140615224306AASdmOX green JJ Sports PERSON
0.5 2:1 3:7 4:0 5:0 7:1 73:1 12802:1 # 20140608112522AAMjxU9 Angeles NNP Local_Businesses LOCATION
-0.5 2:0 3:6 4:0 5:1 7:0 8:1 1441:1 # 20140607042122AAao04B google NN Yahoo!_Products TOKEN
0.5 2:0 3:8 4:0 5:1 7:0 26:1 7068:1 # 20140606032555AA8mCFY american JJ Politics_&_Government ORGANIZATION
-0.5 2:0 3:5 4:0 5:1 7:0 26:1 5739:1 # 20140610191527AA9b8i0 green JJ Health TOKEN
-0.0071283854265615786971466150134802 2:0 3:6 4:0 5:0 7:1 26:1 5243:1 # 20140614004826AAWj9IB Blonde JJ Entertainment_&_Music TOKEN
-0.048577609267109078672319810721092 2:0 3:5 4:0 5:0 7:1 26:1 7036:1 # 20140625193758AANDcbj Toxic JJ Games_&_Recreation TOKEN
-0.014775919042233631728322507115081 2:0 3:6 4:0 5:1 7:0 8:1 12209:1 # 20140607071218AAzGtJH coffee NN Family_&_Relationships TOKEN
-0.029338997288566925902841830975376 2:0 3:6 4:0 5:0 7:1 26:1 2580:1 # 20140606165846AA1KBRp Simple JJ Social_Science TOKEN
-0.018249340412012315937317907810211 2:0 3:2 4:0 5:1 7:0 8:1 5738:1 # 20140605140138AAyDVJY ta NN Entertainment_&_Music TOKEN
-0.0173470587104631590591452550143 2:0 3:4 4:0 5:1 7:0 8:1 961:1 # 20140613073945AAjr9GV loss NN Pets TOKEN
0.5 2:0 3:2 4:0 5:0 7:1 30:1 2509:1 # 20140605040256AAru12G At IN Entertainment_&_Music PERSON
-0.2736957263218023350681562533282 2:0 3:4 4:0 5:0 7:1 73:1 18206:1 # 20140613030213AAZi4zH Pass NNP Travel TOKEN
-0.41470786781263430098576350246731 2:0 3:5 4:0 5:1 7:0 12:1 7476:1 # 20140622001343AA8tgia angle NNS Science_&_Mathematics TOKEN
0.5 2:0 3:3 4:0 5:0 7:1 73:1 19261:1 # 20140625072412AAUASEG Hun NNP Yahoo!_Products PERSON
0.5 2:0 3:3 4:0 5:0 7:1 24:1 729:1 # 20140606223938AAjsrL7 The DT News_&_Events ORGANIZATION
-0.48532857501291515323060821174295 2:0 3:3 4:0 5:0 7:1 24:1 729:1 # 20140610080957AAEwFfP The DT Yahoo!_Products TOKEN
-0.5 2:1 3:2 4:1 5:0 7:0 16:1 2475:1 # 20140609172302AAjgqUA US PRP Yahoo!_Products TOKEN
0.5 2:0 3:1 4:0 5:0 7:0 630:1 631:1 # 20140605034309AAV7PuK # # Consumer_Electronics PERSON
-0.5 2:0 3:4 4:0 5:1 7:0 8:1 3365:1 # 20140605231104AAm8fzJ ebay NN Politics_&_Government TOKEN
0.5 2:1 3:7 4:0 5:0 7:1 73:1 15590:1 # 20140613162326AARvh60 Stevens NNP Politics_&_Government PERSON
0.5 2:0 3:2 4:1 5:0 7:0 8:1 5530:1 # 20140617203632AANuG3B DC NN Entertainment_&_Music ORGANIZATION
-0.096123567221173544794510235078633 2:0 3:2 4:1 5:0 7:0 73:1 4191:1 # 20140610230047AA22gW4 HP NNP Computer_&_Internet TOKEN
-0.5 2:0 3:2 4:0 5:1 7:0 8:1 13095:1 # 20140620035947AAeYEbM sc NN Local_Businesses TOKEN
-0.5 2:0 3:3 4:0 5:0 7:1 24:1 729:1 # 20140615100226AACLhyS The DT Home_&_Garden TOKEN
-0.49893999380935794007996264554095 2:0 3:3 4:0 5:1 7:0 8:1 2189:1 # 20140615100226AACLhyS boy NN Home_&_Garden TOKEN
0.5 2:0 3:3 4:0 5:1 7:0 26:1 3981:1 # 20140605040256AAru12G low JJ Entertainment_&_Music PERSON
0.5 2:0 3:2 4:0 5:1 7:0 8:1 18381:1 # 20140617134810AAX61tb nz NN Travel LOCATION
0.5 2:0 3:2 4:0 5:1 7:0 8:1 5994:1 # 20140621045509AAck6mP uk NN News_&_Events LOCATION
-0.46983937601305614251145925663877 2:0 3:3 4:0 5:1 7:0 26:1 3981:1 # 20140617091125AAL4eiR low JJ Pregnancy_&_Parenting TOKEN
0.5 2:0 3:3 4:0 5:1 7:0 8:1 2189:1 # 20140605040256AAru12G boy NN Entertainment_&_Music PERSON
0.5 2:0 3:4 4:1 5:0 7:0 73:1 5061:1 # 20140608162419AAwr1N9 M&M; NNP Entertainment_&_Music ORGANIZATION
-0.49932281247921483924301355727948 2:0 3:2 4:1 5:0 7:0 73:1 3507:1 # 20140604203617AAQJuGv CA NNP Games_&_Recreation TOKEN
-0.096988547862851604008938011247665 2:0 3:6 4:0 5:0 7:1 8:1 10025:1 # 20140618215915AAruZzF Plenty NN News_&_Events TOKEN
-0.5 2:0 3:5 4:0 5:0 7:1 8:1 5440:1 # 20140620190356AAdnQme Juice NN Entertainment_&_Music TOKEN
-0.024531123193381354496978019597009 2:0 3:3 4:0 5:1 7:0 8:1 2189:1 # 20140607064609AA5EKx9 boy NN Pregnancy_&_Parenting TOKEN
-0.19295576151548332610730085434625 2:0 3:4 4:0 5:1 7:0 73:1 11862:1 # 20140619055300AA9BUOc 21st NNP Food_&_Drink TOKEN
0.5 2:0 3:4 4:0 5:0 7:1 73:1 11092:1 # 20140613111207AAD5YgE Gacy NNP Dining_Out PERSON
0.5 2:0 3:4 4:0 5:0 7:0 8:1 3200:1 # 20140605231104AAm8fzJ eBay NN Politics_&_Government ORGANIZATION
0.5 2:0 3:1 4:1 5:0 7:1 8:1 720:1 # 20140616143448AAdU6Ze D NN Dining_Out ORGANIZATION
-0.27381088962560173882820890867151 2:0 3:5 4:0 5:0 7:1 73:1 7056:1 # 20140625193758AANDcbj Route NNP Games_&_Recreation TOKEN
-0.27210851429527593836610321886837 2:0 3:6 4:0 5:0 7:1 73:1 2719:1 # 20140621155455AA5YRJ2 Parrot NNP Business_&_Finance TOKEN
-0.2736316853802647219850996407331 2:0 3:5 4:0 5:0 7:1 73:1 3137:1 # 20140617203723AAnMv8x Texas NNP Politics_&_Government TOKEN
-0.040598077875763249888763084527454 2:1 3:6 4:0 5:0 7:1 20:1 836:1 # 20140612085831AAz7B4T Taking VBG Home_&_Garden TOKEN
-0.3995462054346603508747648447752 2:0 3:1 4:0 5:0 7:0 73:1 630:1 # 20140603072418AAgZjcN # NNP Science_&_Mathematics TOKEN
-0.23598693243588564349977332312847 2:0 3:1 4:1 5:0 7:1 15:1 720:1 # 20140611201334AAFQLgO D . Health TOKEN
0.5 2:0 3:3 4:0 5:1 7:0 32:1 73:1 # 20140616143448AAdU6Ze and NNP Dining_Out ORGANIZATION
-0.27242988136113410746474983170629 2:0 3:6 4:0 5:0 7:1 73:1 10251:1 # 20140616052040AAmxXBJ Captor NNP Social_Science TOKEN
-0.5 2:0 3:3 4:0 5:1 7:0 32:1 73:1 # 20140618123245AAiwouS and NNP Sports TOKEN
-0.18520975075557366551493032602593 2:0 3:1 4:0 5:0 7:0 73:1 668:1 # 20140614134845AAVhWeg 7 NNP Consumer_Electronics TOKEN
-0.18534713151857853952186871993035 2:0 3:1 4:0 5:0 7:0 73:1 8795:1 # 20140620003333AAaN90M | NNP Dining_Out TOKEN
-0.18550206233003063704956048241002 2:0 3:1 4:0 5:0 7:0 73:1 639:1 # 20140621111444AACBO2L 2 NNP Cars_&_Transportation TOKEN
-0.18550398691073530232920063554047 2:0 3:1 4:0 5:0 7:0 73:1 1052:1 # 20140603091614AAtZw6A ~ NNP Family_&_Relationships TOKEN
0.5 2:0 3:5 4:0 5:0 7:1 8:1 5440:1 # 20140616143448AAdU6Ze Juice NN Dining_Out ORGANIZATION
-0.5 2:0 3:6 4:0 5:0 7:1 73:1 3931:1 # 20140611234202AAi9C6B Google NNP Dining_Out TOKEN
-0.5 2:0 3:2 4:0 5:0 7:1 30:1 2509:1 # 20140608151316AAZv17m At IN Travel TOKEN
-0.004487156939744441075390568585135 2:1 3:4 4:0 5:0 7:1 12:1 9272:1 # 20140601130859AAHxybZ Fans NNS Sports TOKEN
0.5 2:0 3:11 4:0 5:0 7:1 73:1 11052:1 # 20140601101734AAAYp2K Serendipity NNP Dining_Out ORGANIZATION
-0.022815211154068038013065233826637 2:1 3:2 4:1 5:0 7:0 73:1 3695:1 # 20140607125412AAK3UlI PS NNP Games_&_Recreation TOKEN
-0.022815211147896974352988763712347 2:1 3:2 4:1 5:0 7:0 73:1 9777:1 # 20140608132523AAWfvBH AM NNP Computer_&_Internet TOKEN
0.5 2:0 3:3 4:0 5:1 7:0 30:1 292:1 # 20140605040256AAru12G out IN Entertainment_&_Music PERSON
-0.2722808178133937495601912814891 2:0 3:6 4:0 5:0 7:1 73:1 11497:1 # 20140620003333AAaN90M Design NNP Dining_Out TOKEN
0.5 2:0 3:8 4:0 5:0 7:0 73:1 10495:1 # 20140623072617AAIXida McDonald NNP Dining_Out ORGANIZATION
-0.1919537834438136414405562391039 2:0 3:5 4:0 5:1 7:0 73:1 9642:1 # 20140618192549AAzYXYR larga NNP Social_Science TOKEN
0.5 2:1 3:2 4:1 5:0 7:0 16:1 2475:1 # 20140613180332AA3jCxr US PRP News_&_Events LOCATION
0.4505360427670936362964937416109 2:0 3:7 4:0 5:1 7:0 20:1 3646:1 # 20140617015321AAEmy38 youtube VBG Politics_&_Government ORGANIZATION
-0.5 2:0 3:3 4:0 5:1 7:0 73:1 292:1 # 20140618125641AAGkGpi out NNP Education_&_Reference TOKEN
0.5 2:0 3:6 4:0 5:0 7:1 73:1 5861:1 # 20140611084109AAK6h31 Bieber NNP Entertainment_&_Music PERSON
0.5 2:0 3:3 4:0 5:1 7:0 32:1 33:1 # 20140610083106AA7AAUT and CC Dining_Out ORGANIZATION
0.5 2:1 3:9 4:0 5:0 7:1 73:1 11307:1 # 20140616143448AAdU6Ze Bojangles NNP Dining_Out ORGANIZATION
-0.017315290393634663601574175118003 2:0 3:4 4:0 5:1 7:0 8:1 4374:1 # 20140622190334AAbgB4J bone NN Education_&_Reference TOKEN
-0.19502316472554093174096578877652 2:0 3:2 4:0 5:1 7:0 73:1 9613:1 # 20140618192549AAzYXYR en NNP Social_Science TOKEN
-0.05605737611873351511349028442055 2:1 3:7 4:0 5:0 7:1 61:1 18724:1 # 20140609172302AAjgqUA Options NNPS Yahoo!_Products TOKEN
-0.017272699920601652934237790759653 2:0 3:4 4:0 5:1 7:0 8:1 4885:1 # 20140607071218AAzGtJH numb NN Family_&_Relationships TOKEN
-0.012809429443625397482264816062525 2:0 3:1 4:1 5:0 7:1 8:1 8037:1 # 20140605031016AAsN8GR E NN Science_&_Mathematics TOKEN
0.5 2:0 3:4 4:0 5:0 7:1 73:1 8972:1 # 20140601162630AAuDjDG Mert NNP Sports PERSON
-0.5 2:0 3:3 4:0 5:1 7:0 32:1 73:1 # 20140625140958AAG0wQK and NNP Beauty_&_Style TOKEN
0.5 2:0 3:5 4:0 5:0 7:1 88:1 8800:1 # 20140615215028AAGmoaM Leave VB Sports PERSON
0.5 2:0 3:6 4:0 5:1 7:0 20:1 359:1 # 20140622080843AAfcL4m tumblr VBG Pets ORGANIZATION
-0.058225909178434065438523248303682 2:0 3:2 4:0 5:0 7:1 88:1 644:1 # 20140605190919AAVV44J Be VB Family_&_Relationships TOKEN
0.5 2:0 3:6 4:0 5:1 7:0 20:1 14023:1 # 20140601100338AAUfBLz hitler VBG News_&_Events PERSON
0.5 2:1 3:2 4:1 5:0 7:0 16:1 2475:1 # 20140614170630AA1o9BQ US PRP Politics_&_Government ORGANIZATION
-0.49911631898503827642343821935356 2:0 3:3 4:0 5:1 7:0 8:1 292:1 # 20140609221937AAH7tge out NN Travel TOKEN
0.5 2:0 3:6 4:0 5:0 7:1 73:1 3931:1 # 20140607080221AAia755 Google NNP Science_&_Mathematics ORGANIZATION
-0.5 2:0 3:5 4:0 5:0 7:1 88:1 8800:1 # 20140611175239AA5u6en Leave VB Family_&_Relationships TOKEN
0.5 2:0 3:7 4:0 5:1 7:0 8:1 18308:1 # 20140622230045AAAI6WE zealand NN Travel LOCATION
0.5 2:0 3:4 4:1 5:0 7:0 73:1 11304:1 # 20140616143448AAdU6Ze A&W; NNP Dining_Out ORGANIZATION
0.5 2:0 3:7 4:0 5:1 7:0 8:1 13063:1 # 20140615091428AA1nGW3 niagara NN Local_Businesses LOCATION
0.5 2:0 3:2 4:1 5:0 7:0 73:1 4300:1 # 20140604083714AANM1Br TX NNP Education_&_Reference LOCATION
-0.5 2:0 3:2 4:1 5:0 7:0 73:1 9505:1 # 20140610194612AA31tgA NJ NNP Local_Businesses TOKEN
-0.09970642599325074684202263597399 2:0 3:3 4:0 5:0 7:1 8:1 4433:1 # 20140621041314AA5qW3l Mom NN Education_&_Reference TOKEN
-0.041511813181645207393444252375048 2:0 3:4 4:0 5:0 7:0 20:1 18961:1 # 20140605200359AAgJgxT hAve VBG Pregnancy_&_Parenting TOKEN
-0.5 2:0 3:6 4:1 5:0 7:0 73:1 8317:1 # 20140614131802AAL6tJW LITTLE NNP Beauty_&_Style TOKEN
-0.043226970278792187230010313214734 2:0 3:2 4:0 5:0 7:0 20:1 1396:1 # 20140617091125AAL4eiR !? VBG Pregnancy_&_Parenting TOKEN
-0.28428786543131540076601027067227 2:0 3:1 4:0 5:0 7:0 630:1 631:1 # 20140625201720AA1VzQt # # Politics_&_Government TOKEN
-0.1888182795594519625126395112602 2:0 3:1 4:1 5:0 7:1 73:1 429:1 # 20140609103348AAf8tZ6 A NNP News_&_Events TOKEN
-0.099706425993248970485183235723525 2:0 3:3 4:0 5:0 7:1 8:1 12409:1 # 20140601151243AAGeO0l Bed NN Home_&_Garden TOKEN
-0.099697209585775103946048147918191 2:0 3:3 4:0 5:0 7:1 8:1 1527:1 # 20140623130828AAGeAiz Any NN Pregnancy_&_Parenting TOKEN
0.5 2:0 3:3 4:0 5:1 7:0 30:1 292:1 # 20140605040256AAru12G out IN Entertainment_&_Music PERSON
0.5 2:1 3:7 4:0 5:0 7:1 73:1 11348:1 # 20140616143448AAdU6Ze Caesars NNP Dining_Out ORGANIZATION
-0.042696887757545806674208677122806 2:0 3:3 4:0 5:0 7:0 20:1 51:1 # 20140611151627AAmAEbQ !!! VBG Politics_&_Government TOKEN
0.5 2:0 3:5 4:1 5:0 7:0 73:1 15683:1 # 20140614170630AA1o9BQ SWIFT NNP Politics_&_Government ORGANIZATION
0.5 2:0 3:2 4:1 5:0 7:0 73:1 3507:1 # 20140604083714AANM1Br CA NNP Education_&_Reference LOCATION
-0.015625795536262643281588680110872 2:0 3:6 4:0 5:1 7:0 8:1 3331:1 # 20140619060021AAhU4hr couple NN Sports TOKEN
0.5 2:0 3:2 4:1 5:0 7:0 73:1 3408:1 # 20140616063937AAhSsrT UK NNP Business_&_Finance LOCATION
-0.49927684846639408533519599586725 2:0 3:6 4:0 5:1 7:0 8:1 359:1 # 20140608034752AAWHbyf tumblr NN Arts_&_Humanities TOKEN
-0.015784349776985173718912847107276 2:0 3:6 4:0 5:1 7:0 8:1 1429:1 # 20140618215915AAruZzF moment NN News_&_Events TOKEN
-0.060720438407387611334797838935629 2:0 3:7 4:1 5:0 7:0 73:1 18548:1 # 20140608132523AAWfvBH A6-3600 NNP Computer_&_Internet TOKEN
0.5 2:1 3:6 4:0 5:0 7:1 73:1 4481:1 # 20140618125641AAGkGpi Hughes NNP Education_&_Reference PERSON
0.5 2:1 3:6 4:0 5:0 7:1 73:1 4508:1 # 20140618125641AAGkGpi Isaacs NNP Education_&_Reference PERSON
0.5 2:1 3:6 4:0 5:0 7:1 73:1 12442:1 # 20140626142532AAHm2Mx United NNP Pets ORGANIZATION
-0.040214038965449797058404612926097 2:1 3:7 4:0 5:0 7:1 20:1 14756:1 # 20140623154545AAikPvj Warming VBG Pets TOKEN
-0.013279566776205217748518805365165 2:0 3:2 4:0 5:1 7:0 73:1 149:1 # 20140622230045AAAI6WE in NNP Travel TOKEN
-0.054814463684142430976997673042206 2:0 3:5 4:0 5:0 7:1 88:1 1604:1 # 20140615155610AAUXENK Enjoy VB Home_&_Garden TOKEN
-0.054568445763582273944081180161447 2:0 3:2 4:0 5:1 7:0 20:1 13195:1 # 20140616160832AA467zb y' VBG Family_&_Relationships TOKEN
-0.054568445763584216834374274185393 2:0 3:2 4:0 5:1 7:0 20:1 5876:1 # 20140605214704AAzq0fk nt VBG Health TOKEN
-0.19411710681524141364207025617361 2:1 3:12 4:0 5:0 7:1 73:1 13915:1 # 20140607104637AASvvKI Thatcherites NNP News_&_Events TOKEN
-0.024193063248433177570007046597311 2:1 3:6 4:0 5:0 7:1 12:1 11303:1 # 20140618103521AAfeF87 Prices NNS Dining_Out TOKEN
0.5 2:0 3:11 4:0 5:0 7:1 73:1 775:1 # 20140625193136AAUePpR Shakespeare NNP Arts_&_Humanities PERSON
0.5 2:1 3:2 4:1 5:0 7:0 16:1 2475:1 # 20140605225754AA2LJWC US PRP Consumer_Electronics LOCATION
-0.016496919478505830958248168371938 2:0 3:2 4:0 5:1 7:0 8:1 1089:1 # 20140614161425AAk1Avb he NN Business_&_Finance TOKEN
-0.5 2:0 3:2 4:1 5:0 7:0 73:1 4300:1 # 20140626150225AAeTpqG TX NNP Sports TOKEN
-0.27296883006723149378558446187526 2:0 3:6 4:0 5:0 7:1 73:1 4054:1 # 20140606193910AApjpvz Skyrim NNP Consumer_Electronics TOKEN
-0.5 2:0 3:2 4:1 5:0 7:0 73:1 3408:1 # 20140608120927AA1JZcv UK NNP Travel TOKEN
0.5 2:1 3:5 4:0 5:0 7:1 73:1 8897:1 # 20140611011232AAoHyfn Spurs NNP Sports ORGANIZATION
0.5 2:1 3:5 4:0 5:0 7:1 73:1 10357:1 # 20140620180056AARv7Hs Mises NNP Social_Science PERSON
0.5 2:1 3:5 4:0 5:0 7:1 73:1 1891:1 # 20140605091638AATCTbo Carla NNP Arts_&_Humanities PERSON
0.5 2:1 3:5 4:0 5:0 7:1 73:1 15298:1 # 20140613140428AASx2zV Sears NNP Politics_&_Government ORGANIZATION
-0.096830978045143956123297357407864 2:0 3:2 4:1 5:0 7:0 73:1 4289:1 # 20140610174552AAptb2t NY NNP Local_Businesses TOKEN
-0.099429341564416517940117046236992 2:0 3:3 4:0 5:0 7:1 8:1 5263:1 # 20140614004826AAWj9IB Man NN Entertainment_&_Music TOKEN
-0.09969720958577754643670232326258 2:0 3:3 4:0 5:0 7:1 8:1 5393:1 # 20140620190356AAdnQme Mob NN Entertainment_&_Music TOKEN
0.5 2:0 3:6 4:0 5:1 7:0 8:1 1441:1 # 20140607053946AAkMdTv google NN Social_Science ORGANIZATION
-0.5 2:1 3:2 4:1 5:0 7:0 16:1 2475:1 # 20140609172302AAjgqUA US PRP Yahoo!_Products TOKEN
0.5 2:0 3:7 4:0 5:1 7:0 8:1 11079:1 # 20140616143448AAdU6Ze chicken NN Dining_Out ORGANIZATION
-0.5 2:0 3:6 4:0 5:1 7:0 8:1 1441:1 # 20140604115540AAQrGu2 google NN Travel TOKEN
0.5 2:1 3:3 4:0 5:0 7:1 73:1 12801:1 # 20140616200702AA6Pms8 Los NNP Local_Businesses LOCATION
0.5 2:0 3:3 4:0 5:0 7:1 73:1 11351:1 # 20140616143448AAdU6Ze Moe NNP Dining_Out ORGANIZATION
0.5 2:0 3:3 4:0 5:0 7:1 73:1 5559:1 # 20140618141409AA9yzif Ray NNP Entertainment_&_Music PERSON
0.5 2:0 3:3 4:0 5:0 7:1 73:1 15781:1 # 20140611151627AAmAEbQ Ted NNP Politics_&_Government PERSON
0.5 2:1 3:5 4:0 5:0 7:1 73:1 819:1 # 20140617074422AANUT7h Jones NNP Arts_&_Humanities PERSON
-0.021663667349357318414604378631338 2:1 3:3 4:1 5:0 7:0 73:1 12814:1 # 20140610174552AAptb2t UPS NNP Local_Businesses TOKEN
-0.02195084706397032459079809996183 2:1 3:3 4:1 5:0 7:0 73:1 18909:1 # 20140620035536AASKdrI PLS NNP Computer_&_Internet TOKEN
-0.021950847063971101746915337571409 2:1 3:3 4:1 5:0 7:0 73:1 4171:1 # 20140606003853AAp4Kid FPS NNP Sports TOKEN
-0.021943543234433704469665826763958 2:1 3:3 4:1 5:0 7:0 73:1 3627:1 # 20140615210245AAjCZ2q VHS NNP Consumer_Electronics TOKEN
-0.021944878762247710390909105626633 2:1 3:3 4:1 5:0 7:0 73:1 11831:1 # 20140611141719AAUaRNh EOS NNP Food_&_Drink TOKEN
0.5 2:0 3:6 4:0 5:1 7:0 8:1 1441:1 # 20140607053946AAkMdTv google NN Social_Science ORGANIZATION
-0.016421358705294042401590104418574 2:0 3:6 4:0 5:1 7:0 8:1 359:1 # 20140608034752AAWHbyf tumblr NN Arts_&_Humanities TOKEN
-0.047663129371324247651742211928649 2:0 3:6 4:0 5:0 7:1 26:1 2539:1 # 20140612075720AAmNq58 Second JJ News_&_Events TOKEN
0.5 2:0 3:3 4:0 5:1 7:0 32:1 73:1 # 20140616143448AAdU6Ze and NNP Dining_Out ORGANIZATION
0.5 2:0 3:6 4:0 5:1 7:0 8:1 6484:1 # 20140610094552AAK4gFS palmer NN Health PERSON
0.5 2:0 3:6 4:0 5:1 7:0 8:1 15149:1 # 20140626101740AADAK0e obongo NN Politics_&_Government PERSON
0.5 2:0 3:6 4:0 5:1 7:0 8:1 2072:1 # 20140613111831AABRhzn middle NN News_&_Events LOCATION
0.5 2:0 3:6 4:0 5:1 7:0 8:1 10383:1 # 20140615174740AA8MA6l malibu NN Cars_&_Transportation LOCATION
-0.5 2:1 3:2 4:1 5:0 7:0 16:1 2475:1 # 20140603020037AAlyzyA US PRP Travel TOKEN
0.5 2:0 3:4 4:0 5:1 7:0 20:1 3365:1 # 20140616234645AAnbyhx ebay VBG Consumer_Electronics ORGANIZATION
0.5 2:0 3:2 4:1 5:0 7:0 73:1 3408:1 # 20140625120602AAXWOm0 UK NNP Science_&_Mathematics LOCATION
-0.017488052342749277334732482813706 2:0 3:4 4:0 5:1 7:0 8:1 6711:1 # 20140619203951AAsYSB5 porn NN Politics_&_Government TOKEN
0.5 2:0 3:9 4:0 5:1 7:0 88:1 1266:1 # 20140610075021AAwlDsA hollywood VB Dining_Out LOCATION
0.5 2:0 3:6 4:0 5:1 7:0 8:1 18077:1 # 20140615020333AAAIUUW disney NN Travel ORGANIZATION
0.5 2:1 3:2 4:1 5:0 7:0 16:1 2475:1 # 20140617191218AAiEBHA US PRP News_&_Events LOCATION
-0.5 2:0 3:6 4:0 5:1 7:0 8:1 2072:1 # 20140617191218AAiEBHA middle NN News_&_Events TOKEN
0.5 2:0 3:6 4:0 5:1 7:0 8:1 8740:1 # 20140612145554AAjlhJX europe NN Beauty_&_Style LOCATION
0.5 2:0 3:6 4:0 5:1 7:0 8:1 9335:1 # 20140609172302AAjgqUA canada NN Yahoo!_Products LOCATION
0.5 2:0 3:6 4:0 5:1 7:0 8:1 2071:1 # 20140625193136AAUePpR stoker NN Arts_&_Humanities PERSON
-0.19954166219042221430690631223115 2:1 3:6 4:0 5:0 7:1 73:1 19426:1 # 20140605185213AAgsKy3 Yahoos NNP Yahoo!_Products TOKEN
0.5 2:0 3:3 4:0 5:1 7:0 8:1 4854:1 # 20140601014139AA5Szo2 usa NN Education_&_Reference LOCATION
0.5 2:0 3:4 4:0 5:1 7:0 8:1 8995:1 # 20140601162630AAuDjDG pepe NN Sports PERSON
0.5 2:0 3:4 4:0 5:1 7:0 8:1 19455:1 # 20140610080957AAEwFfP andy NN Yahoo!_Products PERSON
0.5 2:1 3:5 4:0 5:0 7:1 73:1 11394:1 # 20140616143448AAdU6Ze Johns NNP Dining_Out ORGANIZATION
-0.27375791951490180409223285096232 2:0 3:5 4:0 5:0 7:1 73:1 428:1 # 20140609172302AAjgqUA Click NNP Yahoo!_Products TOKEN
-0.5 2:0 3:5 4:0 5:0 7:1 73:1 807:1 # 20140620190356AAdnQme White NNP Entertainment_&_Music TOKEN
-0.27381923982319733568147057667375 2:0 3:5 4:0 5:0 7:1 73:1 3612:1 # 20140615230550AAzCluq Movie NNP Computer_&_Internet TOKEN
-0.27369109283828674250571566517465 2:0 3:5 4:0 5:0 7:1 73:1 14104:1 # 20140612211617AAE6Bis Sunni NNP News_&_Events TOKEN
0.5 2:0 3:6 4:0 5:1 7:0 8:1 2072:1 # 20140613111831AABRhzn middle NN News_&_Events LOCATION
0.5 2:0 3:6 4:0 5:1 7:0 8:1 9451:1 # 20140623022611AAddTaJ lesnar NN Sports PERSON
-0.5 2:0 3:6 4:0 5:1 7:0 8:1 2072:1 # 20140625193136AAUePpR middle NN Arts_&_Humanities TOKEN
0.5 2:0 3:3 4:0 5:0 7:1 73:1 2656:1 # 20140606223938AAjsrL7 New NNP News_&_Events ORGANIZATION
0.5 2:0 3:3 4:0 5:0 7:1 73:1 9156:1 # 20140615215028AAGmoaM Gio NNP Sports PERSON
-0.19927521310181101066305586755334 2:1 3:6 4:0 5:0 7:1 73:1 11495:1 # 20140620003333AAaN90M Exudes NNP Dining_Out TOKEN
-0.19869268249251834101976044166804 2:1 3:6 4:0 5:0 7:1 73:1 11700:1 # 20140620063230AAXLo9n Drinks NNP Food_&_Drink TOKEN
-0.19889993080576839901141283917241 2:1 3:6 4:0 5:0 7:1 73:1 3532:1 # 20140625035457AAwYqoP Gaming NNP Games_&_Recreation TOKEN
0.5 2:1 3:4 4:0 5:0 7:1 73:1 11048:1 # 20140610083106AA7AAUT Ribs NNP Dining_Out ORGANIZATION
0.5 2:1 3:4 4:0 5:0 7:1 73:1 15214:1 # 20140610123048AAZOuhW Rose NNP Politics_&_Government LOCATION
-0.19310214641695133686027929798001 2:0 3:4 4:0 5:1 7:0 73:1 164:1 # 20140618141257AAQm1bZ even NNP Arts_&_Humanities TOKEN
-0.01628622934669099464599639759399 2:0 3:5 4:0 5:1 7:0 8:1 385:1 # 20140610040156AAtbQ4M place NN Local_Businesses TOKEN
-0.015333631379477907774599998447229 2:0 3:6 4:0 5:1 7:0 8:1 4785:1 # 20140608182502AAjjJDR doctor NN Pregnancy_&_Parenting TOKEN
-0.017480330623994261296516583570337 2:0 3:5 4:0 5:1 7:0 12:1 332:1 # 20140614220006AA90c02 round NNS Sports TOKEN
-0.007522694848031363790141767822206 2:0 3:14 4:0 5:1 7:0 8:1 4415:1 # 20140617213812AAnm3nS transportation NN Travel TOKEN
-0.01660643889444024523527332348749 2:0 3:5 4:0 5:1 7:0 8:1 5486:1 # 20140609175346AAWw6PO dryer NN Home_&_Garden TOKEN
0.5 2:0 3:4 4:0 5:1 7:0 8:1 6619:1 # 20140612080629AAuyjlx sean NN Health PERSON
0.5 2:0 3:4 4:0 5:1 7:0 8:1 487:1 # 20140620035947AAeYEbM area NN Local_Businesses LOCATION
0.5 2:0 3:4 4:0 5:1 7:0 8:1 11101:1 # 20140613111207AAD5YgE gacy NN Dining_Out PERSON
0.5 2:0 3:4 4:0 5:1 7:0 8:1 14958:1 # 20140622080843AAfcL4m demi NN Pets PERSON
0.5 2:0 3:3 4:0 5:1 7:0 30:1 292:1 # 20140605040256AAru12G out IN Entertainment_&_Music PERSON
-0.021107098803771151551700313575566 2:0 3:6 4:0 5:0 7:1 30:1 4476:1 # 20140618125641AAGkGpi Toward IN Education_&_Reference TOKEN
0.5 2:0 3:5 4:0 5:0 7:1 73:1 807:1 # 20140617074422AANUT7h White NNP Arts_&_Humanities PERSON
-0.5 2:0 3:5 4:0 5:0 7:1 73:1 807:1 # 20140616154757AA3uubn White NNP News_&_Events TOKEN
0.5 2:0 3:11 4:0 5:1 7:0 8:1 9169:1 # 20140623155342AAYpGzf bridgestone NN Sports ORGANIZATION
0.5 2:0 3:11 4:0 5:1 7:0 8:1 15600:1 # 20140617203723AAnMv8x brotherhood NN Politics_&_Government ORGANIZATION
0.5 2:0 3:4 4:0 5:1 7:0 20:1 8143:1 # 20140625120602AAXWOm0 iraq VBG Science_&_Mathematics LOCATION
-0.2738260202084594752136581519153 2:0 3:5 4:0 5:0 7:1 73:1 14872:1 # 20140621125811AAzEWHP Cause NNP Pets TOKEN
-0.0011816790408261113043408840894699 2:0 3:1 4:0 5:0 7:0 73:1 352:1 # 20140614045845AAdu92x : NNP Computer_&_Internet TOKEN
0.5 2:0 3:3 4:0 5:0 7:1 73:1 4312:1 # 20140615224306AASdmOX San NNP Sports PERSON
-0.27369109283816417388379704789259 2:0 3:5 4:0 5:0 7:1 73:1 19151:1 # 20140608155422AAGg2Wt Delay NNP Pregnancy_&_Parenting TOKEN
-0.27337383888825428357449709437788 2:0 3:5 4:0 5:0 7:1 73:1 7849:1 # 20140613214814AARwXS4 Apply NNP Local_Businesses TOKEN
-0.27384454755157605632120976224542 2:0 3:5 4:0 5:0 7:1 73:1 11651:1 # 20140604112329AAS36PD Coast NNP Dining_Out TOKEN
-0.27361326109598171907322239349014 2:0 3:5 4:0 5:0 7:1 73:1 10566:1 # 20140603115526AAQmGXN Lance NNP Cars_&_Transportation TOKEN
-0.27379866458498725023673614487052 2:0 3:5 4:0 5:0 7:1 73:1 14961:1 # 20140622080843AAfcL4m Weezy NNP Pets TOKEN
0.5 2:0 3:11 4:0 5:0 7:1 73:1 1454:1 # 20140605223141AA4aNVu Westerfield NNP Arts_&_Humanities PERSON
0.5 2:0 3:11 4:0 5:0 7:1 73:1 11382:1 # 20140616143448AAdU6Ze Whataburger NNP Dining_Out ORGANIZATION
-0.5 2:0 3:5 4:0 5:0 7:1 73:1 263:1 # 20140620063230AAXLo9n Green NNP Food_&_Drink TOKEN
-0.27277122739277004370705981273204 2:0 3:5 4:0 5:0 7:1 73:1 18132:1 # 20140608120927AA1JZcv Japan NNP Travel TOKEN
-0.5 2:0 3:5 4:0 5:0 7:1 73:1 11361:1 # 20140618202204AAODcVd Pizza NNP Food_&_Drink TOKEN
-0.27342705413503498590443996363319 2:0 3:5 4:0 5:0 7:1 73:1 7430:1 # 20140615112034AAukyhJ Jamie NNP Science_&_Mathematics TOKEN
-0.016612217580511234871210035635158 2:0 3:5 4:0 5:1 7:0 8:1 2431:1 # 20140613230250AAiwZOf today NN Family_&_Relationships TOKEN
-0.016607271620601382622339770023245 2:0 3:5 4:0 5:1 7:0 8:1 4460:1 # 20140618125641AAGkGpi wazoo NN Education_&_Reference TOKEN
-0.016283544609192013297160883666947 2:0 3:5 4:0 5:1 7:0 8:1 2473:1 # 20140622072140AAPnIrk proof NN Food_&_Drink TOKEN
-0.016593608733592279946833514259197 2:0 3:5 4:0 5:1 7:0 8:1 2851:1 # 20140625110415AAjpx1n state NN Cars_&_Transportation TOKEN
-0.0166596096052717967950229649432 2:0 3:5 4:0 5:1 7:0 8:1 1502:1 # 20140612080629AAuyjlx cover NN Health TOKEN
0.5 2:1 3:8 4:0 5:0 7:1 73:1 15513:1 # 20140617193722AA5emAo Khattala NNP Politics_&_Government PERSON
0.5 2:0 3:6 4:0 5:1 7:0 8:1 5586:1 # 20140605040256AAru12G maiden NN Entertainment_&_Music PERSON
-0.19134601665329320496766740689054 2:0 3:6 4:0 5:1 7:0 73:1 903:1 # 20140617102632AAPzLAI and#or NNP Education_&_Reference TOKEN
-0.19126472086403545347366161877289 2:0 3:6 4:0 5:1 7:0 73:1 18785:1 # 20140609063130AAx8NAT lenovo NNP Computer_&_Internet TOKEN
-0.19052968699432906718449487470934 2:0 3:6 4:0 5:1 7:0 73:1 6842:1 # 20140612121603AAc09vI 8-core NNP Games_&_Recreation TOKEN
0.5 2:1 3:2 4:1 5:0 7:0 16:1 2475:1 # 20140619105821AAuioIb US PRP Education_&_Reference LOCATION
0.5 2:0 3:5 4:0 5:0 7:1 73:1 807:1 # 20140616143448AAdU6Ze White NNP Dining_Out ORGANIZATION
-0.018292611494495125690207260049647 2:0 3:4 4:0 5:1 7:0 12:1 14498:1 # 20140611231438AAUamVg hiss NNS Pets TOKEN
-0.016269670971511995816172202466987 2:0 3:5 4:0 5:1 7:0 8:1 19552:1 # 20140619231832AAFqTWm poppy NN Yahoo!_Products TOKEN
0.5 2:0 3:6 4:0 5:1 7:0 8:1 2072:1 # 20140613111831AABRhzn middle NN News_&_Events LOCATION
0.5 2:0 3:6 4:0 5:1 7:0 8:1 15567:1 # 20140603004555AAv1K5X balmer NN Politics_&_Government PERSON
0.5 2:1 3:2 4:1 5:0 7:0 16:1 2475:1 # 20140617191218AAiEBHA US PRP News_&_Events LOCATION
-0.097080108747320981166240017046221 2:0 3:6 4:0 5:0 7:1 8:1 10444:1 # 20140614045845AAdu92x Source NN Computer_&_Internet TOKEN
-0.09708106294236262812091808882542 2:0 3:6 4:0 5:0 7:1 8:1 3536:1 # 20140614134845AAVhWeg Bundle NN Consumer_Electronics TOKEN
-0.096953755476445913075167482020333 2:0 3:6 4:0 5:0 7:1 8:1 14824:1 # 20140611123045AAMKOWz Nation NN Pets TOKEN
-0.27227141423564554800762493869115 2:0 3:6 4:0 5:0 7:1 73:1 9095:1 # 20140620105746AAnOLsk Wesson NNP Sports TOKEN
-0.015697267069066711542291159275919 2:0 3:6 4:0 5:1 7:0 8:1 3726:1 # 20140622072140AAPnIrk survey NN Food_&_Drink TOKEN
0.5 2:0 3:5 4:0 5:0 7:1 73:1 263:1 # 20140605040256AAru12G Green NNP Entertainment_&_Music PERSON
-0.5 2:1 3:2 4:1 5:0 7:0 16:1 2475:1 # 20140609172302AAjgqUA US PRP Yahoo!_Products TOKEN
-0.015775624246825659113824258383829 2:0 3:6 4:0 5:1 7:0 8:1 214:1 # 20140601122025AA5ROAo friend NN Family_&_Relationships TOKEN
0.5 2:0 3:5 4:0 5:0 7:1 73:1 11361:1 # 20140616143448AAdU6Ze Pizza NNP Dining_Out ORGANIZATION
-0.1906786278075021101585662108846 2:0 3:6 4:0 5:1 7:0 73:1 12967:1 # 20140622225954AAAlKMt chuyen NNP Local_Businesses TOKEN
-0.35521811634877864527481960976729 2:0 3:6 4:0 5:0 7:1 73:1 2705:1 # 20140601004138AAIxEr7 Hawaii NNP Science_&_Mathematics TOKEN
-0.096982134480096959805450751446187 2:0 3:6 4:0 5:0 7:1 8:1 13704:1 # 20140616152825AABP2iB Nobody NN News_&_Events TOKEN
0.5 2:1 3:2 4:1 5:0 7:0 16:1 2475:1 # 20140617191218AAiEBHA US PRP News_&_Events LOCATION
0.5 2:0 3:5 4:0 5:1 7:0 8:1 7374:1 # 20140623012422AAMYwQO yahoo NN Yahoo!_Products ORGANIZATION
0.5 2:0 3:5 4:0 5:1 7:0 8:1 14957:1 # 20140622080843AAfcL4m gomez NN Pets PERSON
0.5 2:0 3:5 4:0 5:1 7:0 8:1 1291:1 # 20140614122338AAHL8sn canon NN Arts_&_Humanities ORGANIZATION
-0.19125376173867181250898283906281 2:0 3:6 4:0 5:1 7:0 73:1 2960:1 # 20140614045845AAdu92x search NNP Computer_&_Internet TOKEN
-0.1911066677770598687402525683865 2:0 3:6 4:0 5:1 7:0 73:1 8079:1 # 20140601043856AAIunch g#mole NNP Science_&_Mathematics TOKEN
0.5 2:0 3:3 4:0 5:0 7:1 73:1 12474:1 # 20140605130921AAXKqjH Xtx NNP Home_&_Garden PERSON
0.5 2:0 3:3 4:0 5:0 7:1 73:1 11362:1 # 20140616143448AAdU6Ze Hut NNP Dining_Out ORGANIZATION
0.5 2:0 3:3 4:0 5:0 7:1 73:1 15512:1 # 20140614114159AAxmnir Abu NNP Travel LOCATION
0.5 2:0 3:3 4:0 5:0 7:1 73:1 9479:1 # 20140613182418AAAZN2I Zeb NNP Sports PERSON
0.5 2:0 3:5 4:0 5:1 7:0 8:1 7476:1 # 20140623022611AAddTaJ angle NN Sports PERSON
-0.096872392278797514464372397924308 2:0 3:6 4:0 5:0 7:1 8:1 5042:1 # 20140605102530AA17S7s Answer NN Dining_Out TOKEN
-0.097044858343881656992380158044398 2:0 3:6 4:0 5:0 7:1 8:1 3514:1 # 20140616200702AA6Pms8 Anyone NN Local_Businesses TOKEN
0.5 2:0 3:3 4:0 5:0 7:1 73:1 14276:1 # 20140609053527AAHPrln Ian NNP News_&_Events PERSON
0.5 2:1 3:9 4:0 5:1 7:0 8:1 11112:1 # 20140622003739AAdUNRt mcdonalds NN Dining_Out ORGANIZATION
-0.2724023143265199564666545484215 2:0 3:6 4:0 5:0 7:1 73:1 3560:1 # 20140614134845AAVhWeg Radeon NNP Consumer_Electronics TOKEN
-0.27272576769846423871967999730259 2:0 3:6 4:0 5:0 7:1 73:1 13655:1 # 20140610222206AAaaj3T Kinder NNP News_&_Events TOKEN
0.5 2:0 3:5 4:0 5:0 7:1 73:1 9438:1 # 20140623022611AAddTaJ Angle NNP Sports PERSON
0.5 2:0 3:5 4:0 5:0 7:1 73:1 5398:1 # 20140620190356AAdnQme Nitti NNP Entertainment_&_Music PERSON
0.5 2:0 3:5 4:0 5:0 7:1 73:1 1692:1 # 20140618212015AAM2O4i India NNP Travel LOCATION
0.5 2:0 3:3 4:0 5:0 7:1 73:1 769:1 # 20140617074422AANUT7h Poe NNP Arts_&_Humanities PERSON
-0.015386171340933785245397302787751 2:0 3:6 4:0 5:1 7:0 8:1 3409:1 # 20140608151316AAZv17m travel NN Travel TOKEN
-0.015352328413707594378934118140023 2:0 3:6 4:0 5:1 7:0 8:1 12368:1 # 20140601134625AAPRFLP carpet NN Home_&_Garden TOKEN
0.5 2:0 3:3 4:0 5:0 7:1 73:1 19261:1 # 20140625072412AAUASEG Hun NNP Yahoo!_Products PERSON
0.5 2:0 3:5 4:0 5:1 7:0 8:1 13881:1 # 20140617033632AAaS0SQ lohan NN News_&_Events PERSON
0.5 2:0 3:5 4:0 5:1 7:0 8:1 3986:1 # 20140617165924AASLrlc apple NN Consumer_Electronics ORGANIZATION
-0.5 2:1 3:2 4:1 5:0 7:0 16:1 2475:1 # 20140617152905AAraW4N US PRP Education_&_Reference TOKEN
0.5 2:0 3:5 4:0 5:1 7:0 8:1 10766:1 # 20140609115257AAXrpdb skoda NN Cars_&_Transportation ORGANIZATION
-0.053765183920033134123972473616959 2:0 3:3 4:0 5:1 7:0 20:1 323:1 # 20140623023853AA1SoFR how VBG Science_&_Mathematics TOKEN
-0.053205227978942559730057837441564 2:0 3:3 4:0 5:1 7:0 20:1 4746:1 # 20140613121148AAUGduQ eat VBG Social_Science TOKEN
-0.053721193514173926075727649731562 2:0 3:3 4:0 5:1 7:0 20:1 495:1 # 20140605183929AAMoGA3 pay VBG Politics_&_Government TOKEN
0.5 2:1 3:2 4:1 5:0 7:0 16:1 2475:1 # 20140617191218AAiEBHA US PRP News_&_Events LOCATION
0.5 2:0 3:3 4:1 5:0 7:0 73:1 4154:1 # 20140607141649AANF6Tv MSI NNP Consumer_Electronics ORGANIZATION
0.5 2:0 3:5 4:0 5:1 7:0 8:1 15250:1 # 20140605231104AAm8fzJ gucci NN Politics_&_Government ORGANIZATION
-0.27272576769846423871967999730259 2:0 3:6 4:0 5:0 7:1 73:1 2606:1 # 20140611201334AAFQLgO Monday NNP Health TOKEN
-0.27281325650254473202949156984687 2:0 3:6 4:0 5:0 7:1 73:1 18714:1 # 20140606224612AAe7J4W Router NNP Computer_&_Internet TOKEN
-0.27187464336708183632040913835226 2:0 3:6 4:0 5:0 7:1 73:1 7912:1 # 20140618024923AAR6gIm Bridge NNP Science_&_Mathematics TOKEN
0.5 2:0 3:5 4:0 5:0 7:1 73:1 3466:1 # 20140616143448AAdU6Ze Round NNP Dining_Out ORGANIZATION
0.5 2:0 3:5 4:0 5:0 7:1 73:1 11320:1 # 20140616143448AAdU6Ze Queen NNP Dining_Out ORGANIZATION
0.5 2:0 3:5 4:0 5:0 7:1 73:1 18096:1 # 20140608151316AAZv17m Paris NNP Travel ORGANIZATION
0.5 2:0 3:3 4:0 5:0 7:1 73:1 5166:1 # 20140614004826AAWj9IB May NNP Entertainment_&_Music PERSON
0.5 2:0 3:3 4:0 5:0 7:1 73:1 9443:1 # 20140623022611AAddTaJ Mir NNP Sports PERSON
-0.27288006489276739330307464115322 2:0 3:6 4:0 5:0 7:1 73:1 18465:1 # 20140617130308AAqDdcG Ensure NNP Travel TOKEN
-0.27265896054379723523197753820568 2:0 3:6 4:0 5:0 7:1 73:1 832:1 # 20140621092416AArsE0s Update NNP Social_Science TOKEN
-0.27297411690739536993532965425402 2:0 3:6 4:0 5:0 7:1 73:1 18150:1 # 20140609031322AAZz3r8 Ceylon NNP Travel TOKEN
0.5 2:1 3:2 4:1 5:0 7:0 16:1 2475:1 # 20140612145554AAjlhJX US PRP Beauty_&_Style LOCATION
-0.5 2:1 3:2 4:1 5:0 7:0 16:1 2475:1 # 20140603020037AAlyzyA US PRP Travel TOKEN
0.5 2:0 3:5 4:0 5:0 7:1 73:1 8185:1 # 20140610222206AAaaj3T River NNP News_&_Events LOCATION
0.5 2:0 3:5 4:0 5:0 7:1 73:1 9125:1 # 20140626150225AAeTpqG Cuero NNP Sports LOCATION
0.5 2:0 3:5 4:0 5:0 7:1 73:1 9317:1 # 20140607094147AAMHfCN Jimmy NNP Sports PERSON
0.5 2:0 3:5 4:0 5:0 7:1 73:1 8954:1 # 20140625201720AA1VzQt Guard NNP Politics_&_Government ORGANIZATION
0.5 2:0 3:3 4:0 5:0 7:1 73:1 9306:1 # 20140626152929AAvb2mt Eck NNP Sports PERSON
0.5 2:0 3:3 4:0 5:0 7:1 73:1 12379:1 # 20140601134625AAPRFLP Aid NNP Home_&_Garden ORGANIZATION
-0.5 2:0 3:5 4:0 5:0 7:1 73:1 18096:1 # 20140608151316AAZv17m Paris NNP Travel TOKEN
-0.27261562401726280313596362248063 2:0 3:6 4:0 5:0 7:1 73:1 3855:1 # 20140617194830AAHJTRC Subway NNP Dining_Out TOKEN
0.5 2:0 3:3 4:0 5:0 7:1 73:1 5259:1 # 20140614004826AAWj9IB Nim NNP Entertainment_&_Music PERSON
-0.057956280221094252924629586232186 2:0 3:5 4:1 5:0 7:0 73:1 5300:1 # 20140621032104AA5LQDd SCENE NNP Entertainment_&_Music TOKEN
0.5 2:0 3:5 4:1 5:0 7:0 73:1 14379:1 # 20140613180332AA3jCxr ISISL NNP News_&_Events ORGANIZATION
-0.27294460417425447928962967125699 2:0 3:6 4:0 5:0 7:1 73:1 14728:1 # 20140626142532AAHm2Mx Yorkie NNP Pets TOKEN
-0.27294801744360341899664490483701 2:0 3:6 4:0 5:0 7:1 73:1 18130:1 # 20140615004107AA0Il4W Orakle NNP Travel TOKEN
-0.27293129606225841055078262797906 2:0 3:6 4:0 5:0 7:1 73:1 9206:1 # 20140620192235AA5KHXm Soccer NNP Travel TOKEN
0.5 2:0 3:3 4:1 5:0 7:0 73:1 3769:1 # 20140617191218AAiEBHA ABC NNP News_&_Events ORGANIZATION
0.5 2:0 3:5 4:0 5:0 7:1 73:1 2073:1 # 20140625193136AAUePpR Anton NNP Arts_&_Humanities PERSON
-0.5 2:0 3:5 4:0 5:0 7:1 73:1 1692:1 # 20140614170630AA1o9BQ India NNP Politics_&_Government TOKEN
-0.5 2:0 3:5 4:0 5:0 7:1 73:1 8185:1 # 20140625120602AAXWOm0 River NNP Science_&_Mathematics TOKEN
-0.5 2:0 3:5 4:0 5:0 7:1 73:1 8954:1 # 20140625201720AA1VzQt Guard NNP Politics_&_Government TOKEN
0.5 2:0 3:11 4:0 5:0 7:0 73:1 11315:1 # 20140616143448AAdU6Ze Chick-fil-A NNP Dining_Out ORGANIZATION
0.5 2:0 3:5 4:1 5:0 7:0 73:1 15732:1 # 20140608113007AAoVpt8 YAHOO NNP Politics_&_Government ORGANIZATION
-0.27278601073042541003133010235615 2:0 3:6 4:0 5:0 7:1 73:1 7029:1 # 20140625193758AANDcbj Shadow NNP Games_&_Recreation TOKEN
-0.27278601073021757628112027305178 2:0 3:6 4:0 5:0 7:1 73:1 6158:1 # 20140612233000AAOudfw Sunday NNP News_&_Events TOKEN
-0.5 2:0 3:6 4:0 5:0 7:1 73:1 4399:1 # 20140607125905AA2JtXv Canada NNP Politics_&_Government TOKEN
0.5 2:0 3:3 4:1 5:0 7:0 73:1 2568:1 # 20140622140805AAtjqJa USA NNP Cars_&_Transportation LOCATION
0.5 2:0 3:3 4:1 5:0 7:0 73:1 3933:1 # 20140603005221AAThPnj ZTE NNP Consumer_Electronics ORGANIZATION
0.5 2:0 3:3 4:1 5:0 7:0 73:1 3539:1 # 20140614134845AAVhWeg AMD NNP Consumer_Electronics ORGANIZATION
-0.5 2:1 3:2 4:1 5:0 7:0 16:1 2475:1 # 20140609172302AAjgqUA US PRP Yahoo!_Products TOKEN
0.5 2:0 3:5 4:0 5:1 7:0 8:1 7476:1 # 20140623022611AAddTaJ angle NN Sports PERSON
-0.27269447932769125264584886281227 2:0 3:6 4:0 5:0 7:1 73:1 5409:1 # 20140620190356AAdnQme Bonnie NNP Entertainment_&_Music TOKEN
-0.2719351104565414511959886567638 2:0 3:6 4:0 5:0 7:1 73:1 11623:1 # 20140604112329AAS36PD Stater NNP Dining_Out TOKEN
-0.27279222378850209729250764212338 2:0 3:6 4:0 5:0 7:1 73:1 8577:1 # 20140617002506AAFEf5T Beauty NNP Beauty_&_Style TOKEN
-0.49241227607480020367347606224939 2:0 3:5 4:0 5:1 7:0 8:1 7476:1 # 20140601190018AAbNBjr angle NN Science_&_Mathematics TOKEN
-0.27328268846153136450993770267814 2:0 3:5 4:0 5:0 7:1 73:1 5310:1 # 20140622230045AAAI6WE Great NNP Travel TOKEN
-0.015255572589820465267962390498724 2:0 3:6 4:0 5:1 7:0 8:1 10:1 # 20140607104849AAvstRC damage NN Cars_&_Transportation TOKEN
-0.006402646926844113295373972505331 2:0 3:3 4:0 5:0 7:1 22:1 3107:1 # 20140619113940AAko4f7 Its PRP$ Entertainment_&_Music TOKEN
-0.014493849210658993342804023995996 2:0 3:5 4:0 5:1 7:0 8:1 698:1 # 20140609161733AAfnIuB drink NN Food_&_Drink TOKEN
-0.016221374530756671461517726129387 2:0 3:5 4:0 5:1 7:0 8:1 2895:1 # 20140615222209AAOSKxY phone NN Entertainment_&_Music TOKEN
0.5 2:0 3:3 4:1 5:0 7:0 73:1 7172:1 # 20140623022611AAddTaJ WWE NNP Sports ORGANIZATION
0.5 2:0 3:4 4:0 5:0 7:1 73:1 11587:1 # 20140605102530AA17S7s Kyle NNP Dining_Out PERSON
0.5 2:0 3:5 4:0 5:1 7:0 8:1 7155:1 # 20140625171643AAxjtac intel NN Computer_&_Internet ORGANIZATION
0.5 2:0 3:5 4:0 5:1 7:0 8:1 9567:1 # 20140615224306AASdmOX danny NN Sports PERSON
0.5 2:0 3:5 4:0 5:1 7:0 8:1 15776:1 # 20140611151627AAmAEbQ corps NN Politics_&_Government ORGANIZATION
-0.27297411690740069900584785500541 2:0 3:6 4:0 5:0 7:1 73:1 8159:1 # 20140625120602AAXWOm0 Arabic NNP Science_&_Mathematics TOKEN
-0.19303676373893940976245175988879 2:0 3:4 4:0 5:1 7:0 73:1 1575:1 # 20140613124917AAp8Kiq free NNP Entertainment_&_Music TOKEN
-0.5 2:0 3:4 4:0 5:0 7:1 73:1 11587:1 # 20140605102530AA17S7s Kyle NNP Dining_Out TOKEN
-0.27266409612047659560829515612568 2:0 3:6 4:0 5:0 7:1 73:1 4299:1 # 20140604083714AANM1Br Austin NNP Education_&_Reference TOKEN
-0.016974670897145216486023855395615 2:0 3:4 4:0 5:1 7:0 8:1 5821:1 # 20140614164536AAHVllV duck NN Food_&_Drink TOKEN
-0.017529625264906478765425390520249 2:0 3:4 4:0 5:1 7:0 8:1 19276:1 # 20140623130828AAGeAiz snot NN Pregnancy_&_Parenting TOKEN
-0.024612994444152547224291538441321 2:1 3:6 4:0 5:0 7:1 12:1 1310:1 # 20140607211424AAdLIHO Events NNS Education_&_Reference TOKEN
0.5 2:0 3:3 4:1 5:0 7:0 73:1 18052:1 # 20140617213812AAnm3nS WDW NNP Travel ORGANIZATION
0.5 2:0 3:3 4:1 5:0 7:0 73:1 14320:1 # 20140606223938AAjsrL7 NFC NNP News_&_Events ORGANIZATION
0.5 2:0 3:3 4:1 5:0 7:0 73:1 14316:1 # 20140606223938AAjsrL7 NFL NNP News_&_Events ORGANIZATION
0.5 2:0 3:3 4:1 5:0 7:0 73:1 15192:1 # 20140610123048AAZOuhW KGB NNP Politics_&_Government ORGANIZATION
-0.5 2:0 3:5 4:0 5:0 7:1 73:1 3466:1 # 20140625210906AATgayM Round NNP News_&_Events TOKEN
0.5 2:0 3:4 4:0 5:0 7:1 73:1 795:1 # 20140617074422AANUT7h Faye NNP Arts_&_Humanities PERSON
-0.5 2:0 3:5 4:0 5:0 7:1 73:1 807:1 # 20140613202053AAONeF7 White NNP Games_&_Recreation TOKEN
-0.27374158785879987298983451182721 2:0 3:5 4:0 5:0 7:1 73:1 15111:1 # 20140617015321AAEmy38 Motor NNP Politics_&_Government TOKEN
-0.0048116716009496407480128254974261 2:0 3:6 4:0 5:0 7:0 8:1 9844:1 # 20140606222934AAKFPKy @Lemon NN Social_Science TOKEN
-0.0052701868827146891582913212914718 2:0 3:6 4:0 5:0 7:0 8:1 19136:1 # 20140617075804AAbhubH shut.I NN Pregnancy_&_Parenting TOKEN
0.5 2:0 3:5 4:0 5:1 7:0 8:1 15519:1 # 20140609182413AATpjOA obama NN Politics_&_Government PERSON
0.5 2:0 3:5 4:0 5:1 7:0 8:1 9214:1 # 20140618180738AANfMh9 china NN Sports LOCATION
0.5 2:0 3:5 4:0 5:1 7:0 8:1 3986:1 # 20140617165924AASLrlc apple NN Consumer_Electronics ORGANIZATION
0.5 2:0 3:4 4:0 5:0 7:1 88:1 5589:1 # 20140605040256AAru12G Kill VB Entertainment_&_Music PERSON
0.5 2:0 3:3 4:1 5:0 7:0 73:1 9434:1 # 20140623022611AAddTaJ UFC NNP Sports ORGANIZATION
-0.5 2:0 3:6 4:0 5:0 7:1 73:1 1986:1 # 20140620063230AAXLo9n Joseph NNP Food_&_Drink TOKEN
0.5 2:0 3:8 4:0 5:1 7:0 20:1 9584:1 # 20140615224306AASdmOX popovich VBG Sports PERSON
-0.19269986099454478045700511756877 2:0 3:4 4:0 5:1 7:0 73:1 1077:1 # 20140608151316AAZv17m land NNP Travel TOKEN
-0.27262705306877343947036251847749 2:0 3:6 4:0 5:0 7:1 73:1 18611:1 # 20140611153520AAksgjY Center NNP Computer_&_Internet TOKEN
-0.27294801744333874182757426751778 2:0 3:6 4:0 5:0 7:1 73:1 8951:1 # 20140606003853AAp4Kid Pistol NNP Sports TOKEN
0.5 2:0 3:4 4:0 5:1 7:0 20:1 3365:1 # 20140616234645AAnbyhx ebay VBG Consumer_Electronics ORGANIZATION
-0.012105064460203429632656479952857 2:0 3:1 4:1 5:0 7:1 8:1 8038:1 # 20140605031016AAsN8GR F NN Science_&_Mathematics TOKEN
-0.27306947501274914102964430639986 2:0 3:5 4:0 5:0 7:1 73:1 9093:1 # 20140620105746AAnOLsk Eagle NNP Sports TOKEN
-0.27332603213830308774845434527379 2:0 3:5 4:0 5:0 7:1 73:1 4712:1 # 20140617152905AAraW4N Study NNP Education_&_Reference TOKEN
0.5 2:0 3:10 4:0 5:0 7:1 73:1 15686:1 # 20140614170630AA1o9BQ Kazakhstan NNP Politics_&_Government LOCATION
-0.27344350592394262022821749269497 2:0 3:5 4:0 5:0 7:1 73:1 11948:1 # 20140626031053AAyXCcP Sauté NNP Food_&_Drink TOKEN
-0.19310214641694023463003304641461 2:0 3:4 4:0 5:1 7:0 73:1 11823:1 # 20140611152642AAd7nNQ tank NNP Pets TOKEN
-0.19255912090136639847059996100143 2:0 3:4 4:0 5:1 7:0 73:1 12957:1 # 20140622225954AAAlKMt minh NNP Local_Businesses TOKEN
-0.5 2:0 3:3 4:0 5:0 7:1 73:1 2656:1 # 20140623153135AAqXQHR New NNP Travel TOKEN
-0.19130712541781591529144179730793 2:0 3:5 4:0 5:1 7:0 73:1 172:1 # 20140625140958AAG0wQK &amp; NNP Beauty_&_Style TOKEN
-0.097044858343597439898076117970049 2:0 3:6 4:0 5:0 7:1 8:1 11929:1 # 20140613030213AAZi4zH Season NN Travel TOKEN
-0.096773226235486120572204526979476 2:0 3:6 4:0 5:0 7:1 8:1 6120:1 # 20140604081141AAka3pg Weight NN Health TOKEN
-0.09623949324451830378279737487901 2:0 3:6 4:0 5:0 7:1 8:1 7617:1 # 20140618095228AAKVjIw Launch NN Science_&_Mathematics TOKEN
-0.19179916036334021534059957048157 2:0 3:5 4:0 5:1 7:0 73:1 10811:1 # 20140604163858AAhNFOq 5w-40 NNP Cars_&_Transportation TOKEN
-0.19230277378183391334687257767655 2:0 3:5 4:0 5:1 7:0 73:1 14888:1 # 20140611152642AAd7nNQ pleco NNP Pets TOKEN
-0.096915987055304242403508396819234 2:0 3:6 4:0 5:0 7:1 8:1 18725:1 # 20140606224612AAe7J4W Window NN Computer_&_Internet TOKEN
-0.096206289933537914027539272865397 2:0 3:6 4:0 5:0 7:1 8:1 15311:1 # 20140613140428AASx2zV Demand NN Politics_&_Government TOKEN
-0.19311556601573443003871943801641 2:0 3:4 4:0 5:1 7:0 73:1 426:1 # 20140609063130AAx8NAT &gt; NNP Computer_&_Internet TOKEN
-0.19303779365386475319610326550901 2:0 3:4 4:0 5:1 7:0 73:1 931:1 # 20140606224612AAe7J4W site NNP Computer_&_Internet TOKEN
0.5 2:0 3:7 4:0 5:1 7:0 8:1 10581:1 # 20140607104849AAvstRC hyundai NN Cars_&_Transportation ORGANIZATION
-0.055813318329839489706500899046659 2:0 3:3 4:0 5:0 7:1 73:1 9209:1 # 20140613182418AAAZN2I Big NNP Sports TOKEN
-0.27238944375019236154855661879992 2:0 3:6 4:0 5:0 7:1 73:1 18699:1 # 20140611200230AA2zvuY Roblox NNP Computer_&_Internet TOKEN
-0.2727579441096077417228116246406 2:0 3:6 4:0 5:0 7:1 73:1 3622:1 # 20140615210245AAjCZ2q Elgato NNP Consumer_Electronics TOKEN
-0.014882995163049583808856368705165 2:0 3:6 4:0 5:1 7:0 8:1 5524:1 # 20140617203632AANuG3B batman NN Entertainment_&_Music TOKEN
-0.5 2:0 3:2 4:0 5:1 7:0 73:1 3151:1 # 20140618192549AAzYXYR al NNP Social_Science TOKEN
-0.015697267069055609312044907710515 2:0 3:6 4:0 5:1 7:0 8:1 18627:1 # 20140625234425AA5mIb9 bypass NN Computer_&_Internet TOKEN
-0.015651143837546621639944532944355 2:0 3:6 4:0 5:1 7:0 8:1 1982:1 # 20140625100007AAcadtk leader NN Politics_&_Government TOKEN
-0.014547519714146972535928625802626 2:0 3:6 4:0 5:1 7:0 8:1 2126:1 # 20140605183929AAMoGA3 return NN Politics_&_Government TOKEN
0.5 2:0 3:4 4:0 5:0 7:1 73:1 5165:1 # 20140614004826AAWj9IB Macy NNP Entertainment_&_Music PERSON
0.5 2:0 3:4 4:0 5:0 7:1 73:1 9412:1 # 20140611153858AAK05v1 Pete NNP Sports LOCATION
0.5 2:0 3:4 4:0 5:0 7:1 73:1 11346:1 # 20140613214814AARwXS4 Lion NNP Local_Businesses ORGANIZATION
0.5 2:0 3:4 4:0 5:0 7:1 73:1 9040:1 # 20140605104442AAFzzy2 Bray NNP Sports PERSON
-0.27347371066527159655379364266992 2:0 3:5 4:0 5:0 7:1 73:1 19086:1 # 20140607064609AA5EKx9 Felix NNP Pregnancy_&_Parenting TOKEN
-0.27377402180730975311817587680707 2:0 3:5 4:0 5:0 7:1 73:1 1794:1 # 20140607110538AAO6Auo Media NNP Computer_&_Internet TOKEN
-0.27337745387862527612909957497322 2:0 3:5 4:0 5:0 7:1 73:1 6191:1 # 20140611055725AAKXJ4n Major NNP Health TOKEN
-0.27337745387872003366425133208395 2:0 3:5 4:0 5:0 7:1 73:1 7168:1 # 20140621171642AATfemJ Sting NNP Games_&_Recreation TOKEN
-0.27312262012043964087837366605527 2:0 3:5 4:0 5:0 7:1 73:1 14725:1 # 20140626142532AAHm2Mx Puppy NNP Pets TOKEN
-0.5 2:0 3:5 4:0 5:0 7:1 73:1 1479:1 # 20140620105746AAnOLsk Smith NNP Sports TOKEN
-0.27384272273957677157341095153242 2:0 3:5 4:0 5:0 7:1 73:1 15310:1 # 20140613140428AASx2zV Civil NNP Politics_&_Government TOKEN
-0.27353746549395502318802186891844 2:0 3:5 4:0 5:0 7:1 73:1 619:1 # 20140617213812AAnm3nS March NNP Travel TOKEN
-0.015611089947066725258650876639877 2:0 3:6 4:0 5:1 7:0 8:1 463:1 # 20140623072617AAIXida anyone NN Dining_Out TOKEN
-0.007037700369345145645638694986701 2:0 3:6 4:0 5:1 7:0 8:1 6702:1 # 20140610172137AA9hoaq dinner NN Dining_Out TOKEN
-0.014872734214161464905146203818731 2:0 3:6 4:0 5:1 7:0 8:1 5294:1 # 20140613083238AAZnREA symbol NN Beauty_&_Style TOKEN
0.5 2:0 3:4 4:0 5:0 7:1 73:1 2510:1 # 20140626223207AABdv8w Ross NNP Business_&_Finance ORGANIZATION
0.5 2:0 3:4 4:0 5:0 7:1 73:1 14258:1 # 20140609053527AAHPrln Knox NNP News_&_Events PERSON
0.5 2:0 3:4 4:0 5:0 7:1 73:1 15779:1 # 20140611151627AAmAEbQ Dick NNP Politics_&_Government PERSON
0.5 2:0 3:4 4:0 5:0 7:1 73:1 9437:1 # 20140623022611AAddTaJ Kurt NNP Sports PERSON
0.5 2:0 3:4 4:0 5:0 7:1 73:1 10600:1 # 20140609212304AAlJxoJ Ford NNP Cars_&_Transportation ORGANIZATION
-0.27379273975888240855169897258747 2:0 3:5 4:0 5:0 7:1 73:1 1706:1 # 20140612212350AAeLl07 First NNP Family_&_Relationships TOKEN
-0.27380529007836429400413180701435 2:0 3:5 4:0 5:0 7:1 73:1 1888:1 # 20140605091638AATCTbo Night NNP Arts_&_Humanities TOKEN
-0.27366720663781846090145677408145 2:0 3:5 4:0 5:0 7:1 73:1 11654:1 # 20140618202204AAODcVd Order NNP Food_&_Drink TOKEN
-0.27358289997941520610424959158991 2:0 3:5 4:0 5:0 7:1 73:1 10241:1 # 20140616052040AAmxXBJ Uncle NNP Social_Science TOKEN
-0.27370082368677017825575603637844 2:0 3:5 4:0 5:0 7:1 73:1 9087:1 # 20140620105746AAnOLsk Luger NNP Sports TOKEN
-0.27384768138011494897909869905561 2:0 3:5 4:0 5:0 7:1 73:1 7206:1 # 20140613202053AAONeF7 Burgh NNP Games_&_Recreation TOKEN
-0.27336366326692307371359902390395 2:0 3:5 4:0 5:0 7:1 73:1 1814:1 # 20140611151627AAmAEbQ Money NNP Politics_&_Government TOKEN
-0.27384272273947285469830603688024 2:0 3:5 4:0 5:0 7:1 73:1 12098:1 # 20140619114039AAjxNQW Karma NNP Food_&_Drink TOKEN
-0.014510089514269353117015270981938 2:0 3:6 4:0 5:1 7:0 8:1 8614:1 # 20140604184751AAZzDj5 corpse NN Beauty_&_Style TOKEN
-0.015100434785865941150762026268239 2:0 3:6 4:0 5:1 7:0 8:1 7832:1 # 20140605092633AAPkbBp vertex NN Science_&_Mathematics TOKEN
-0.015736871222007842163748136954382 2:0 3:6 4:0 5:1 7:0 8:1 18601:1 # 20140611153520AAksgjY router NN Computer_&_Internet TOKEN
0.5 2:0 3:4 4:0 5:0 7:1 73:1 11370:1 # 20140616143448AAdU6Ze Cane NNP Dining_Out ORGANIZATION
0.5 2:0 3:4 4:0 5:0 7:1 73:1 4955:1 # 20140611132742AAU8vAK Rica NNP Education_&_Reference LOCATION
0.5 2:0 3:4 4:0 5:0 7:1 73:1 13979:1 # 20140611151627AAmAEbQ Bush NNP Politics_&_Government PERSON
0.5 2:0 3:4 4:0 5:0 7:1 73:1 9071:1 # 20140605104442AAFzzy2 Seth NNP Sports PERSON
-0.27340273805351245073325117118657 2:0 3:5 4:0 5:0 7:1 73:1 9104:1 # 20140625034559AAH3Auf Carry NNP Family_&_Relationships TOKEN
-0.27376210238512932448884384939447 2:0 3:5 4:0 5:0 7:1 73:1 15758:1 # 20140611151627AAmAEbQ Opium NNP Politics_&_Government TOKEN
-0.27375770598315851689363853438408 2:0 3:5 4:0 5:0 7:1 73:1 1718:1 # 20140609112801AAnee0x Human NNP Arts_&_Humanities TOKEN
-0.27352888797863822434308644915291 2:0 3:5 4:0 5:0 7:1 73:1 11673:1 # 20140614164536AAHVllV Quail NNP Food_&_Drink TOKEN
-0.015776716397186252294204678037204 2:0 3:6 4:0 5:1 7:0 8:1 18852:1 # 20140614045845AAdu92x farcry NN Computer_&_Internet TOKEN
-0.096982134480091630734932550694793 2:0 3:6 4:0 5:0 7:1 8:1 8721:1 # 20140622131925AAtjtJJ Gossip NN Beauty_&_Style TOKEN
-0.097087695938314233501387207070366 2:0 3:6 4:0 5:0 7:1 8:1 6328:1 # 20140608094114AAxPdPq Repeat NN Health TOKEN
-0.015381735073933366919618492829613 2:0 3:6 4:0 5:1 7:0 8:1 2590:1 # 20140622124553AAjprED credit NN Business_&_Finance TOKEN
0.5 2:0 3:4 4:0 5:0 7:1 73:1 9042:1 # 20140605104442AAFzzy2 Cena NNP Sports PERSON
0.5 2:0 3:4 4:0 5:0 7:1 73:1 9145:1 # 20140615215028AAGmoaM Cole NNP Sports PERSON
0.5 2:0 3:4 4:0 5:0 7:1 73:1 13473:1 # 20140620214550AA74tKP Mike NNP News_&_Events PERSON
0.5 2:0 3:4 4:0 5:0 7:1 73:1 9456:1 # 20140623022611AAddTaJ Cain NNP Sports PERSON
-0.27275944654299344449555064784363 2:0 3:6 4:0 5:0 7:1 73:1 2535:1 # 20140608032717AAM9Cvk Option NNP Business_&_Finance TOKEN
-0.27205274579608773599659343744861 2:0 3:6 4:0 5:0 7:1 73:1 8180:1 # 20140614170630AA1o9BQ Muslim NNP Politics_&_Government TOKEN
0.5 2:0 3:4 4:0 5:0 7:1 73:1 262:1 # 20140623033506AAfLqxC John NNP Beauty_&_Style PERSON
0.5 2:0 3:4 4:0 5:0 7:1 73:1 11312:1 # 20140616143448AAdU6Ze Carl NNP Dining_Out ORGANIZATION
0.5 2:0 3:5 4:0 5:0 7:1 73:1 807:1 # 20140616072209AARwehs White NNP Arts_&_Humanities PERSON
-0.27384454755146792059861127199838 2:0 3:5 4:0 5:0 7:1 73:1 807:1 # 20140604115540AAQrGu2 White NNP Travel TOKEN
-0.18101318907499630572743853917927 2:0 3:5 4:0 5:0 7:0 73:1 14826:1 # 20140611123045AAMKOWz PetCo NNP Pets TOKEN
-0.18119571332383599404636242979905 2:0 3:5 4:0 5:0 7:0 73:1 18786:1 # 20140609063130AAx8NAT Y510p NNP Computer_&_Internet TOKEN
-0.27381923982327371902556478744373 2:0 3:5 4:0 5:0 7:1 73:1 13946:1 # 20140610123048AAZOuhW Putin NNP Politics_&_Government TOKEN
-0.27370112490159304030612474889494 2:0 3:5 4:0 5:0 7:1 73:1 13144:1 # 20140603131218AA1t3hP Buddy NNP Local_Businesses TOKEN
-0.5 2:0 3:5 4:0 5:0 7:1 73:1 14382:1 # 20140614170630AA1o9BQ Saudi NNP Politics_&_Government TOKEN
-0.27326777099832000317292113322765 2:0 3:5 4:0 5:0 7:1 73:1 13531:1 # 20140610093017AAXZ1nc Space NNP Family_&_Relationships TOKEN
-0.27371766312583289959547983016819 2:0 3:5 4:0 5:0 7:1 73:1 8797:1 # 20140613125219AA2D0JF Beige NNP Beauty_&_Style TOKEN
0.5 2:0 3:5 4:0 5:0 7:1 73:1 14382:1 # 20140614114159AAxmnir Saudi NNP Travel LOCATION
-0.5 2:0 3:5 4:0 5:0 7:1 73:1 807:1 # 20140604115540AAQrGu2 White NNP Travel TOKEN
-0.014615020542778772716374646734039 2:0 3:6 4:0 5:1 7:0 8:1 12479:1 # 20140605130921AAXKqjH cement NN Home_&_Garden TOKEN
-0.015126943454856989212942153244512 2:0 3:6 4:0 5:1 7:0 8:1 3196:1 # 20140616160015AAkjHsB county NN Dining_Out TOKEN
-0.014743838866643432794489854131825 2:0 3:6 4:0 5:1 7:0 8:1 11798:1 # 20140613213722AAj4ujF liquor NN Food_&_Drink TOKEN
-0.015231029830072628783455002121627 2:0 3:6 4:0 5:1 7:0 8:1 1354:1 # 20140605130921AAXKqjH matter NN Home_&_Garden TOKEN
-0.015332777547139686546984194137622 2:0 3:6 4:0 5:1 7:0 8:1 9828:1 # 20140601100338AAUfBLz flight NN News_&_Events TOKEN
-0.015332777547135911788700468605384 2:0 3:6 4:0 5:1 7:0 8:1 14656:1 # 20140626142532AAHm2Mx litter NN Pets TOKEN
0.5 2:0 3:5 4:0 5:0 7:1 73:1 807:1 # 20140616072209AARwehs White NNP Arts_&_Humanities PERSON
0.5 2:0 3:10 4:0 5:0 7:1 73:1 9439:1 # 20140623022611AAddTaJ Undertaker NNP Sports PERSON
-0.18125981236102581273250677895703 2:0 3:5 4:0 5:0 7:0 73:1 15242:1 # 20140610123048AAZOuhW Pres. NNP Politics_&_Government TOKEN
-0.27298935823435060976649424446805 2:0 3:5 4:0 5:0 7:1 73:1 18654:1 # 20140614220309AAJTZNt Arrow NNP Computer_&_Internet TOKEN
0.5 2:0 3:5 4:0 5:0 7:1 73:1 15057:1 # 20140617015321AAEmy38 Perry NNP Politics_&_Government PERSON
0.5 2:0 3:4 4:0 5:0 7:1 73:1 5211:1 # 20140626142532AAHm2Mx Club NNP Pets ORGANIZATION
0.5 2:0 3:4 4:0 5:0 7:1 73:1 15323:1 # 20140607125905AA2JtXv Navy NNP Politics_&_Government ORGANIZATION
0.5 2:0 3:10 4:0 5:1 7:0 8:1 8927:1 # 20140615190410AAmWDg3 wristwatch NN Sports PERSON
0.5 2:0 3:9 4:0 5:1 7:0 8:1 3603:1 # 20140615210245AAjCZ2q microsoft NN Consumer_Electronics ORGANIZATION
-0.01533277754714101881461374432547 2:0 3:6 4:0 5:1 7:0 8:1 588:1 # 20140601102431AAJe7ZG result NN Family_&_Relationships TOKEN
-0.015332777547137466100934943824541 2:0 3:6 4:0 5:1 7:0 8:1 1620:1 # 20140618141257AAQm1bZ fellow NN Arts_&_Humanities TOKEN
-0.01491352272119928629168228439994 2:0 3:6 4:0 5:1 7:0 8:1 6757:1 # 20140614045845AAdu92x bottom NN Computer_&_Internet TOKEN
-0.015465347739430423956719096167944 2:0 3:6 4:0 5:1 7:0 8:1 3774:1 # 20140611200230AA2zvuY system NN Computer_&_Internet TOKEN
-0.01546534773941932172647284460254 2:0 3:6 4:0 5:1 7:0 8:1 2414:1 # 20140616152825AABP2iB police NN News_&_Events TOKEN
0.5 2:0 3:10 4:0 5:0 7:1 73:1 4394:1 # 20140619105821AAuioIb University NNP Education_&_Reference ORGANIZATION
-0.2726324487728941647901592659764 2:0 3:6 4:0 5:0 7:1 73:1 11196:1 # 20140616160015AAkjHsB Cowboy NNP Dining_Out TOKEN
-0.017497470276361060115277723525651 2:0 3:4 4:0 5:1 7:0 8:1 15585:1 # 20140613162326AARvh60 kffe NN Politics_&_Government TOKEN
-0.018434650466872426477493718266487 2:0 3:4 4:0 5:1 7:0 12:1 6916:1 # 20140621012150AAs9NFo boot NNS Home_&_Garden TOKEN
-0.017530941840554259414375337655656 2:0 3:4 4:0 5:1 7:0 8:1 15545:1 # 20140614172231AAsQkBF puta NN Politics_&_Government TOKEN
-0.0036128702820341640489232304389589 2:0 3:5 4:0 5:1 7:0 43:1 10708:1 # 20140611152558AA4un22 5volt VBP Cars_&_Transportation TOKEN
-0.018438186933854461280191117111826 2:0 3:4 4:0 5:1 7:0 12:1 19545:1 # 20140619231832AAFqTWm tick NNS Yahoo!_Products TOKEN
0.5 2:0 3:5 4:0 5:0 7:1 73:1 3466:1 # 20140616143448AAdU6Ze Round NNP Dining_Out ORGANIZATION
0.5 2:0 3:5 4:0 5:0 7:1 73:1 1692:1 # 20140618212015AAM2O4i India NNP Travel LOCATION
0.5 2:0 3:5 4:0 5:0 7:1 73:1 18096:1 # 20140608151316AAZv17m Paris NNP Travel ORGANIZATION
-0.5 2:0 3:5 4:0 5:0 7:1 73:1 1692:1 # 20140603053113AAVRR5O India NNP Local_Businesses TOKEN
0.5 2:1 3:3 4:0 5:0 7:1 73:1 12801:1 # 20140603004555AAv1K5X Los NNP Politics_&_Government LOCATION
-0.015446917192342368707613786682487 2:0 3:6 4:0 5:1 7:0 8:1 2415:1 # 20140613140428AASx2zV person NN Politics_&_Government TOKEN
-0.015044930415326840389411700016353 2:0 3:6 4:0 5:1 7:0 8:1 12087:1 # 20140619114039AAjxNQW paneer NN Food_&_Drink TOKEN
-0.015303646297733782682959358112385 2:0 3:6 4:0 5:1 7:0 8:1 5910:1 # 20140604163858AAhNFOq weight NN Cars_&_Transportation TOKEN
-0.01577105855373162057730951346457 2:0 3:6 4:0 5:1 7:0 8:1 8329:1 # 20140601132213AALds1o hairdo NN Beauty_&_Style TOKEN
-0.015594429322244973690203551086597 2:0 3:6 4:0 5:1 7:0 8:1 874:1 # 20140619105821AAuioIb number NN Education_&_Reference TOKEN
0.5 2:0 3:5 4:0 5:0 7:1 73:1 686:1 # 20140605104442AAFzzy2 Bryan NNP Sports PERSON
0.5 2:0 3:5 4:0 5:0 7:1 73:1 13960:1 # 20140626120744AAMAD0e North NNP News_&_Events LOCATION
-0.5 2:0 3:5 4:0 5:0 7:1 73:1 3466:1 # 20140623023853AA1SoFR Round NNP Science_&_Mathematics TOKEN
-0.27377880515999564181583991739899 2:0 3:5 4:0 5:0 7:1 73:1 18096:1 # 20140622025924AAbvcWQ Paris NNP Travel TOKEN
0.5 2:0 3:9 4:0 5:1 7:0 8:1 7298:1 # 20140606094406AAvjkJW wikipedia NN Games_&_Recreation ORGANIZATION
-0.014376974536164155438200396019965 2:0 3:6 4:0 5:1 7:0 8:1 2738:1 # 20140611152558AA4un22 charge NN Cars_&_Transportation TOKEN
-0.015659852407726049250413780100644 2:0 3:6 4:0 5:1 7:0 8:1 1117:1 # 20140610123048AAZOuhW family NN Politics_&_Government TOKEN
-0.015266437142164177021008697465732 2:0 3:6 4:0 5:1 7:0 8:1 1304:1 # 20140614122338AAHL8sn memory NN Arts_&_Humanities TOKEN
-0.015266437142165556126172099027372 2:0 3:6 4:0 5:1 7:0 8:1 4798:1 # 20140615120927AAPeVv5 safety NN Sports TOKEN
-0.015205268753708978124450368341058 2:0 3:6 4:0 5:1 7:0 8:1 10729:1 # 20140611152558AA4un22 tester NN Cars_&_Transportation TOKEN
0.5 2:0 3:5 4:0 5:0 7:1 73:1 7488:1 # 20140605111442AA4wyqx Yahoo NNP Science_&_Mathematics ORGANIZATION
-0.015316107129949740883745334940613 2:0 3:6 4:0 5:1 7:0 8:1 2526:1 # 20140613214814AARwXS4 policy NN Local_Businesses TOKEN
-0.015753207091350418522779364138842 2:0 3:6 4:0 5:1 7:0 8:1 1272:1 # 20140621083713AAPz2WJ decade NN Business_&_Finance TOKEN
-0.015490957352618295317370211705565 2:0 3:6 4:0 5:1 7:0 8:1 6604:1 # 20140619114039AAjxNQW cheese NN Food_&_Drink TOKEN
-0.015395463138022980054131494398462 2:0 3:6 4:0 5:1 7:0 8:1 2686:1 # 20140606094406AAvjkJW action NN Games_&_Recreation TOKEN
-0.015418520760920984002950717695057 2:0 3:6 4:0 5:1 7:0 8:1 1230:1 # 20140608132523AAWfvBH amount NN Computer_&_Internet TOKEN
0.5 2:0 3:4 4:1 5:0 7:0 73:1 6079:1 # 20140605225313AAAhy4Z A&E; NNP Health ORGANIZATION
0.5 2:0 3:4 4:1 5:0 7:0 73:1 4319:1 # 20140610062626AA46ms6 GCSE NNP Education_&_Reference ORGANIZATION
0.5 2:0 3:4 4:1 5:0 7:0 73:1 12412:1 # 20140601151243AAGeO0l IKEA NNP Home_&_Garden ORGANIZATION
0.5 2:0 3:4 4:1 5:0 7:0 73:1 8905:1 # 20140625083610AAU2r7X FIFA NNP Sports ORGANIZATION
0.5 2:0 3:11 4:0 5:1 7:0 8:1 15600:1 # 20140617203723AAnMv8x brotherhood NN Politics_&_Government ORGANIZATION
0.5 2:0 3:4 4:1 5:0 7:0 73:1 13985:1 # 20140626101740AADAK0e ISIS NNP Politics_&_Government ORGANIZATION
0.5 2:0 3:4 4:1 5:0 7:0 73:1 9175:1 # 20140623155342AAYpGzf NCAA NNP Sports ORGANIZATION
0.5 2:0 3:4 4:1 5:0 7:0 73:1 3768:1 # 20140605225754AA2LJWC ESPN NNP Consumer_Electronics ORGANIZATION
-0.27382180058542804346188859199174 2:0 3:5 4:0 5:0 7:1 73:1 5202:1 # 20140614004826AAWj9IB Bling NNP Entertainment_&_Music TOKEN
-0.01472157402197779227370766363947 2:0 3:6 4:0 5:1 7:0 8:1 10230:1 # 20140609221937AAH7tge nation NN Travel TOKEN
-0.27278409417550641968830404948676 2:0 3:5 4:0 5:0 7:1 73:1 1692:1 # 20140603053113AAVRR5O India NNP Local_Businesses TOKEN
-0.5 2:0 3:5 4:0 5:0 7:1 73:1 18096:1 # 20140622025924AAbvcWQ Paris NNP Travel TOKEN
0.5 2:0 3:7 4:0 5:1 7:0 8:1 7797:1 # 20140605081144AAuazx4 michael NN Science_&_Mathematics PERSON
0.5 2:0 3:7 4:0 5:1 7:0 8:1 13566:1 # 20140622053126AAxcj34 lindsay NN Family_&_Relationships PERSON
-0.015329118492906523840701993322 2:0 3:6 4:0 5:1 7:0 8:1 5257:1 # 20140610100930AAaZ9T3 sister NN Beauty_&_Style TOKEN
-0.015647136766538061181108787423 2:0 3:6 4:0 5:1 7:0 8:1 4939:1 # 20140611132742AAU8vAK stroll NN Education_&_Reference TOKEN
-0.015647136766538061181108787423 2:0 3:6 4:0 5:1 7:0 8:1 609:1 # 20140615210245AAjCZ2q editor NN Consumer_Electronics TOKEN
-0.27368121371804488006773681263439 2:0 3:5 4:0 5:0 7:1 73:1 15507:1 # 20140617193722AA5emAo Nixon NNP Politics_&_Government TOKEN
-0.27361349037281829099654828496568 2:0 3:5 4:0 5:0 7:1 73:1 11764:1 # 20140620063230AAXLo9n Grape NNP Food_&_Drink TOKEN
-0.27251075882553621454462700057775 2:0 3:6 4:0 5:0 7:1 73:1 14779:1 # 20140612145904AAGEvSO Lizard NNP Pets TOKEN
-0.27276525998671985462351585738361 2:0 3:6 4:0 5:0 7:1 73:1 3397:1 # 20140616063937AAhSsrT Thanku NNP Business_&_Finance TOKEN
-0.27245979068037096126886353886221 2:0 3:6 4:0 5:0 7:1 73:1 7977:1 # 20140622085925AAdFLbE Enthap NNP Science_&_Mathematics TOKEN
-0.27286870452483213966843322850764 2:0 3:6 4:0 5:0 7:1 73:1 1413:1 # 20140605223141AA4aNVu Runner NNP Arts_&_Humanities TOKEN
-0.27206604375981885413082750346803 2:0 3:6 4:0 5:0 7:1 73:1 12790:1 # 20140617134810AAX61tb Winter NNP Travel TOKEN
-0.27177648203233739643280841846718 2:0 3:6 4:0 5:0 7:1 73:1 2541:1 # 20140608032717AAM9Cvk Branch NNP Business_&_Finance TOKEN
-0.015613256837617939254414523020387 2:0 3:6 4:0 5:1 7:0 8:1 654:1 # 20140616141615AA44wGc course NN Family_&_Relationships TOKEN
-0.014917116148062625757830801376258 2:0 3:6 4:0 5:1 7:0 8:1 18535:1 # 20140608132523AAWfvBH prompt NN Computer_&_Internet TOKEN
-0.015203570385845743828667764319107 2:0 3:6 4:0 5:1 7:0 8:1 4920:1 # 20140617094029AAZ1FwJ window NN Family_&_Relationships TOKEN
-0.015281102618130835979481929598478 2:0 3:6 4:0 5:1 7:0 8:1 14079:1 # 20140609103348AAf8tZ6 frenzy NN News_&_Events TOKEN
-0.015517921953452251671023987000808 2:0 3:6 4:0 5:1 7:0 8:1 2236:1 # 20140617203632AANuG3B battle NN Entertainment_&_Music TOKEN
-0.27275668188295831839695892995223 2:0 3:6 4:0 5:0 7:1 73:1 1417:1 # 20140605223141AA4aNVu Prince NNP Arts_&_Humanities TOKEN
-0.27283865359363046465546176477801 2:0 3:6 4:0 5:0 7:1 73:1 2460:1 # 20140608145354AAWyj40 Surest NNP Business_&_Finance TOKEN
-0.27278756765572698128607953549363 2:0 3:6 4:0 5:0 7:1 73:1 11192:1 # 20140616160015AAkjHsB Weston NNP Dining_Out TOKEN
-0.01544415587464698091935133561492 2:0 3:6 4:0 5:1 7:0 8:1 10042:1 # 20140606165846AA1KBRp purity NN Social_Science TOKEN
-0.0085377705729374753218507976271212 2:0 3:13 4:0 5:1 7:0 8:1 7491:1 # 20140605111442AA4wyqx communication NN Science_&_Mathematics TOKEN
-0.015444155874653198168289236491546 2:0 3:6 4:0 5:1 7:0 8:1 10933:1 # 20140603235141AAdqnjl luxury NN Cars_&_Transportation TOKEN
-0.014559318533645670967757723701652 2:0 3:6 4:0 5:1 7:0 8:1 106:1 # 20140625171723AAQIRte change NN Computer_&_Internet TOKEN
-0.013391569606618247689766576513648 2:0 3:6 4:0 5:1 7:0 8:1 1067:1 # 20140616072209AARwehs desire NN Arts_&_Humanities TOKEN
-0.27284302146995464966039435239509 2:0 3:6 4:0 5:0 7:1 73:1 5425:1 # 20140625171723AAQIRte Public NNP Computer_&_Internet TOKEN
-0.27292500389305729413536028005183 2:0 3:6 4:0 5:0 7:1 73:1 15630:1 # 20140617203723AAnMv8x Marine NNP Politics_&_Government TOKEN
-0.27231031153798346267080887628254 2:0 3:6 4:0 5:0 7:1 73:1 11734:1 # 20140620063230AAXLo9n Dollar NNP Food_&_Drink TOKEN
-0.015757407259954891998177117784508 2:0 3:6 4:0 5:1 7:0 8:1 1845:1 # 20140622072140AAPnIrk future NN Food_&_Drink TOKEN
-0.01256995237194722010720671079298 2:0 3:6 4:0 5:1 7:0 8:1 335:1 # 20140607191241AAICEVB reason NN Home_&_Garden TOKEN
-0.015208339650781610430385626386851 2:0 3:6 4:0 5:1 7:0 8:1 1591:1 # 20140617094029AAZ1FwJ choice NN Family_&_Relationships TOKEN
-0.015737355905358185736986342817545 2:0 3:6 4:0 5:1 7:0 8:1 761:1 # 20140605153821AAI7Zn5 school NN Family_&_Relationships TOKEN
-0.014542184259722645833790011238307 2:0 3:6 4:0 5:1 7:0 8:1 2458:1 # 20140601140351AAMxHZD crisis NN Pregnancy_&_Parenting TOKEN
-0.27295993703343768288505089003593 2:0 3:6 4:0 5:0 7:1 73:1 6257:1 # 20140611201334AAFQLgO Record NNP Health TOKEN
-0.27286870452460831870666879694909 2:0 3:6 4:0 5:0 7:1 73:1 5423:1 # 20140615222209AAOSKxY Little NNP Entertainment_&_Music TOKEN
-0.27265844822792484336559937219135 2:0 3:6 4:0 5:0 7:1 73:1 7813:1 # 20140618110626AAvIpWH Zeeman NNP Science_&_Mathematics TOKEN
-0.015438257867897627398368065598788 2:0 3:6 4:0 5:1 7:0 8:1 3692:1 # 20140620190632AAMJvEj laptop NN Computer_&_Internet TOKEN
-0.015438257867898517311511241700828 2:0 3:6 4:0 5:1 7:0 8:1 4753:1 # 20140610040156AAtbQ4M sample NN Local_Businesses TOKEN
-0.015292026061244870516198091081606 2:0 3:6 4:0 5:1 7:0 8:1 387:1 # 20140610222206AAaaj3T effect NN News_&_Events TOKEN
-0.015292026061243399470690462749189 2:0 3:6 4:0 5:1 7:0 8:1 5972:1 # 20140615211937AA9zqfw pimple NN Health TOKEN
-0.015768628617414182091494012638577 2:0 3:6 4:0 5:1 7:0 8:1 2667:1 # 20140620123248AAQq23H report NN Business_&_Finance TOKEN
-0.2728724855823125849951793497894 2:0 3:6 4:0 5:0 7:1 73:1 13343:1 # 20140605190919AAVV44J Advice NNP Family_&_Relationships TOKEN
-0.27276846032336665714979062613565 2:0 3:6 4:0 5:0 7:1 73:1 15793:1 # 20140608183101AAll62c Pierre NNP Travel TOKEN
-0.27269966927280187007909262320027 2:0 3:6 4:0 5:0 7:1 73:1 12365:1 # 20140612113332AApfBo8 Strass NNP Home_&_Garden TOKEN
-0.015768628617409685688244280754589 2:0 3:6 4:0 5:1 7:0 8:1 18356:1 # 20140622025924AAbvcWQ jersey NN Travel TOKEN
-0.014437191769702650834261703494121 2:0 3:6 4:0 5:1 7:0 8:1 8586:1 # 20140617002506AAFEf5T doodoo NN Beauty_&_Style TOKEN
-0.01490351918243504325545245592366 2:0 3:6 4:0 5:1 7:0 8:1 2987:1 # 20140605225313AAAhy4Z nobody NN Health TOKEN
-0.01490351918243765227956032504153 2:0 3:6 4:0 5:1 7:0 8:1 4408:1 # 20140617194830AAHJTRC health NN Dining_Out TOKEN
-0.015308981867004245458474542829208 2:0 3:6 4:0 5:1 7:0 8:1 11949:1 # 20140626031053AAyXCcP butter NN Food_&_Drink TOKEN
-0.27309211269926736420643464953173 2:0 3:5 4:0 5:0 7:1 73:1 422:1 # 20140616141615AA44wGc Right NNP Family_&_Relationships TOKEN
-0.015308981867005799770709018048365 2:0 3:6 4:0 5:1 7:0 8:1 6005:1 # 20140605031016AAsN8GR period NN Science_&_Mathematics TOKEN
-0.014775919042230523103853556676768 2:0 3:6 4:0 5:1 7:0 8:1 7089:1 # 20140623011420AA1Rko5 aspect NN Pregnancy_&_Parenting TOKEN
-0.015762731840865740196022670716047 2:0 3:6 4:0 5:1 7:0 8:1 6790:1 # 20140622072140AAPnIrk member NN Food_&_Drink TOKEN
-0.27309211269879907213464775850298 2:0 3:5 4:0 5:0 7:1 73:1 18940:1 # 20140611001634AAefV9p Haven NNP Pregnancy_&_Parenting TOKEN
-0.27293578226331205449639583093813 2:0 3:5 4:0 5:0 7:1 73:1 6156:1 # 20140610172137AA9hoaq Vegas NNP Dining_Out TOKEN
-0.5 2:0 3:5 4:0 5:0 7:1 73:1 4393:1 # 20140608182325AAmvy1Q State NNP Cars_&_Transportation TOKEN
-0.01559521912041716973362781573087 2:0 3:6 4:0 5:1 7:0 8:1 4095:1 # 20140622212808AAkLGsg budget NN Entertainment_&_Music TOKEN
-0.276440967558281514016016444657 2:0 3:2 4:0 5:0 7:1 73:1 7204:1 # 20140613202053AAONeF7 Hm NNP Games_&_Recreation TOKEN
-0.27285695032458567865774057281669 2:0 3:6 4:0 5:0 7:1 73:1 2549:1 # 20140608032717AAM9Cvk Online NNP Business_&_Finance TOKEN
-0.27231133862483980490054591427906 2:0 3:6 4:0 5:0 7:1 73:1 14407:1 # 20140620214550AA74tKP Artist NNP News_&_Events TOKEN
-0.27263219586552089879205595934764 2:0 3:6 4:0 5:0 7:1 73:1 18330:1 # 20140623010804AATRu9l Eminem NNP Travel TOKEN
0.5 2:0 3:4 4:0 5:1 7:0 8:1 19455:1 # 20140610080957AAEwFfP andy NN Yahoo!_Products PERSON
0.5 2:0 3:4 4:0 5:1 7:0 8:1 8995:1 # 20140601162630AAuDjDG pepe NN Sports PERSON
0.5 2:0 3:4 4:0 5:1 7:0 8:1 6619:1 # 20140612080629AAuyjlx sean NN Health PERSON
-0.088174211683515579807135509327054 2:0 3:11 4:1 5:0 7:0 73:1 10764:1 # 20140609115257AAXrpdb MAINTAINECE NNP Cars_&_Transportation TOKEN
0.5 2:0 3:10 4:0 5:0 7:1 73:1 2770:1 # 20140603135339AAL5mDP California NNP Cars_&_Transportation LOCATION
-0.27244422466771478497093994519673 2:0 3:6 4:0 5:0 7:1 73:1 11399:1 # 20140611234202AAi9C6B Indian NNP Dining_Out TOKEN
-0.5 2:0 3:6 4:0 5:0 7:1 73:1 11147:1 # 20140612013350AAX11Xr London NNP Travel TOKEN
-0.27215492187495871068136921167024 2:0 3:6 4:0 5:0 7:1 73:1 11300:1 # 20140615191331AAdpnmg Fillet NNP Dining_Out TOKEN
-0.27273564947496264920800967956893 2:0 3:6 4:0 5:0 7:1 73:1 11349:1 # 20140620003333AAaN90M Silver NNP Dining_Out TOKEN
-0.27279432738742670494502817746252 2:0 3:6 4:0 5:0 7:1 73:1 18782:1 # 20140609063130AAx8NAT Webcam NNP Computer_&_Internet TOKEN
-0.27292500389305818231377998017706 2:0 3:6 4:0 5:0 7:1 73:1 18769:1 # 20140609063130AAx8NAT Sunpro NNP Computer_&_Internet TOKEN
-0.5 2:0 3:6 4:0 5:0 7:1 73:1 10918:1 # 20140617120452AAJQajX Subaru NNP Cars_&_Transportation TOKEN
-0.27195117371362087510533456224948 2:0 3:6 4:0 5:0 7:1 73:1 8371:1 # 20140625140958AAG0wQK Action NNP Beauty_&_Style TOKEN
-0.27281213727484754372198949567974 2:0 3:6 4:0 5:0 7:1 73:1 3607:1 # 20140615210245AAjCZ2q Editor NNP Consumer_Electronics TOKEN
0.5 2:0 3:10 4:0 5:1 7:0 8:1 5172:1 # 20140614004826AAWj9IB wonderland NN Entertainment_&_Music LOCATION
-0.27368377647687003317855669592973 2:0 3:5 4:0 5:0 7:1 73:1 12151:1 # 20140623173753AAUMZe3 Fruit NNP Food_&_Drink TOKEN
-0.273697681607984355522944497352 2:0 3:5 4:0 5:0 7:1 73:1 5124:1 # 20140622210819AARJGLW Comic NNP Entertainment_&_Music TOKEN
-0.27380122200708889579345850506797 2:0 3:5 4:0 5:0 7:1 73:1 6562:1 # 20140612080629AAuyjlx April NNP Health TOKEN
-0.27366343098770551378606796788517 2:0 3:5 4:0 5:0 7:1 73:1 5767:1 # 20140613023120AA7XyZ8 Shrek NNP Entertainment_&_Music TOKEN
-0.27282648739018822148238996305736 2:0 3:5 4:0 5:0 7:1 73:1 14920:1 # 20140601213644AAZ1tNs Multi NNP Pets TOKEN
-0.27374258475578017169027589261532 2:0 3:5 4:0 5:0 7:1 73:1 5414:1 # 20140620190356AAdnQme Gotti NNP Entertainment_&_Music TOKEN
-0.27278055248119459363920213945676 2:0 3:5 4:0 5:0 7:1 73:1 13808:1 # 20140616154757AA3uubn Birth NNP News_&_Events TOKEN
-0.27282869913779350667937251273543 2:0 3:5 4:0 5:0 7:1 73:1 7731:1 # 20140618024923AAR6gIm Earth NNP Science_&_Mathematics TOKEN
-0.27374691835595854616514088775148 2:0 3:5 4:0 5:0 7:1 73:1 9106:1 # 20140620105746AAnOLsk Ruger NNP Sports TOKEN
-0.27382180058553551305067230714485 2:0 3:5 4:0 5:0 7:1 73:1 4554:1 # 20140618125641AAGkGpi Basic NNP Education_&_Reference TOKEN
-0.27381923982316713761520077241585 2:0 3:5 4:0 5:0 7:1 73:1 3533:1 # 20140608132523AAWfvBH Power NNP Computer_&_Internet TOKEN
-0.012809429443626285660684516187757 2:0 3:1 4:1 5:0 7:1 8:1 10939:1 # 20140617194830AAHJTRC T NN Dining_Out TOKEN
-0.5 2:0 3:6 4:0 5:0 7:1 73:1 15531:1 # 20140617203723AAnMv8x Reagan NNP Politics_&_Government TOKEN
-0.2728397969599960504183400189504 2:0 3:6 4:0 5:0 7:1 73:1 13817:1 # 20140616154757AA3uubn Trojan NNP News_&_Events TOKEN
-0.27283979696002802484144922345877 2:0 3:6 4:0 5:0 7:1 73:1 7382:1 # 20140622011723AAsDjlo Author NNP Games_&_Recreation TOKEN
-0.27293960577636156017433677334338 2:0 3:6 4:0 5:0 7:1 73:1 12672:1 # 20140615155610AAUXENK Cotton NNP Home_&_Garden TOKEN
-0.27268899992761852502098918193951 2:0 3:6 4:0 5:0 7:1 73:1 11776:1 # 20140620063230AAXLo9n Flavor NNP Food_&_Drink TOKEN
-0.27289277686863044891651952639222 2:0 3:6 4:0 5:0 7:1 73:1 5482:1 # 20140615222209AAOSKxY Sprint NNP Entertainment_&_Music TOKEN
-0.27359717210918432783728349022567 2:0 3:5 4:0 5:0 7:1 73:1 3280:1 # 20140620021441AAIMW14 Hotel NNP Games_&_Recreation TOKEN
-0.27309775580446338238971293321811 2:0 3:5 4:0 5:0 7:1 73:1 11729:1 # 20140620063230AAXLo9n Mardi NNP Food_&_Drink TOKEN
-0.015352328413680949026343114383053 2:0 3:6 4:0 5:1 7:0 8:1 9758:1 # 20140607053946AAkMdTv biopsy NN Social_Science TOKEN
-0.5 2:0 3:3 4:1 5:0 7:0 73:1 2568:1 # 20140622140805AAtjqJa USA NNP Cars_&_Transportation TOKEN
-0.5 2:0 3:3 4:1 5:0 7:0 73:1 3769:1 # 20140603072418AAgZjcN ABC NNP Science_&_Mathematics TOKEN
-0.097431556795123996916885289465426 2:0 3:3 4:1 5:0 7:0 73:1 3539:1 # 20140608132523AAWfvBH AMD NNP Computer_&_Internet TOKEN
0.5 2:0 3:6 4:0 5:0 7:1 73:1 15531:1 # 20140617203723AAnMv8x Reagan NNP Politics_&_Government PERSON
0.5 2:0 3:6 4:0 5:0 7:1 73:1 2705:1 # 20140621155455AA5YRJ2 Hawaii NNP Business_&_Finance LOCATION
0.5 2:0 3:6 4:0 5:0 7:1 73:1 1986:1 # 20140601105234AA3ANDN Joseph NNP Arts_&_Humanities PERSON
0.5 2:0 3:6 4:0 5:0 7:1 73:1 10918:1 # 20140614131911AAPXlGW Subaru NNP Cars_&_Transportation ORGANIZATION
-0.096114869124699797708899495773949 2:0 3:2 4:1 5:0 7:0 73:1 9259:1 # 20140617195809AA0PD6g RM NNP Sports TOKEN
-0.5 2:0 3:3 4:1 5:0 7:0 73:1 18052:1 # 20140617213812AAnm3nS WDW NNP Travel TOKEN
-0.49938532904122978628436158032855 2:0 3:3 4:1 5:0 7:0 73:1 7172:1 # 20140621171642AATfemJ WWE NNP Games_&_Recreation TOKEN
0.5 2:0 3:6 4:0 5:0 7:1 73:1 11147:1 # 20140622025924AAbvcWQ London NNP Travel LOCATION
-0.19445134041162320803763918775076 2:1 3:11 4:0 5:0 7:1 73:1 4173:1 # 20140626204611AAKagRz Engineering NNP Science_&_Mathematics TOKEN
-0.5 2:0 3:3 4:0 5:0 7:1 73:1 4312:1 # 20140617213812AAnm3nS San NNP Travel TOKEN
-0.5 2:0 3:3 4:0 5:0 7:1 73:1 2656:1 # 20140623153135AAqXQHR New NNP Travel TOKEN
-0.5 2:0 3:3 4:0 5:0 7:1 73:1 5166:1 # 20140617094029AAZ1FwJ May NNP Family_&_Relationships TOKEN
0.5 2:0 3:8 4:0 5:1 7:0 20:1 9289:1 # 20140601130859AAHxybZ martinez VBG Sports PERSON
-0.094086287793025302761407147045247 2:0 3:4 4:1 5:0 7:0 73:1 6367:1 # 20140611193450AAnqGcc LOSE NNP Health TOKEN
0.5 2:0 3:6 4:0 5:0 7:1 73:1 15749:1 # 20140611151627AAmAEbQ Norway NNP Politics_&_Government LOCATION
-0.085450582018204102041636360809207 2:0 3:14 4:1 5:0 7:0 73:1 15097:1 # 20140617015321AAEmy38 ROL_2014_03_24 NNP Politics_&_Government TOKEN
-0.08545058201818633847324235830456 2:0 3:14 4:1 5:0 7:0 73:1 15096:1 # 20140617015321AAEmy38 ROL_2014_01_06 NNP Politics_&_Government TOKEN
-0.5 2:1 3:7 4:0 5:0 7:1 73:1 12802:1 # 20140608112522AAMjxU9 Angeles NNP Local_Businesses TOKEN
-0.5 2:1 3:7 4:0 5:0 7:1 73:1 3502:1 # 20140611153520AAksgjY Windows NNP Computer_&_Internet TOKEN
0.5 2:0 3:9 4:0 5:0 7:0 73:1 791:1 # 20140617074422AANUT7h DuMaurier NNP Arts_&_Humanities PERSON
0.5 2:0 3:9 4:0 5:0 7:0 73:1 11391:1 # 20140616143448AAdU6Ze FatBurger NNP Dining_Out ORGANIZATION
