SVM-light Version V6.02
0 # kernel type
3 # kernel parameter -d 
1 # kernel parameter -g 
1 # kernel parameter -s 
1 # kernel parameter -r 
empty# kernel parameter -u 
19568 # highest feature index 
69010 # number of training documents 
7955 # number of support vectors plus 1 
1.0805864 # threshold b, each following line is a SV (starting with alpha*y)
-0.0032373969730419838164436896477127 2:0 3:4 4:0 5:0 7:1 40:1 193:1 # 20140606231225AAaaTGf Just RB Social_Science TOKEN
-0.016165405988370906698037288151681 2:0 3:3 4:0 5:1 7:0 8:1 5163:1 # 20140614004826AAWj9IB luv NN Entertainment_&_Music TOKEN
-0.0037447511486745632680595008423552 2:0 3:1 4:1 5:0 7:1 15:1 7647:1 # 20140618095228AAKVjIw R . Science_&_Mathematics TOKEN
-0.5 2:0 3:2 4:1 5:0 7:0 73:1 3408:1 # 20140608120927AA1JZcv UK NNP Travel TOKEN
0.5 2:0 3:8 4:0 5:0 7:1 73:1 14247:1 # 20140609053527AAHPrln Woodward NNP News_&_Events PERSON
0.5 2:0 3:4 4:0 5:0 7:1 73:1 5268:1 # 20140614004826AAWj9IB Snow NNP Entertainment_&_Music PERSON
0.5 2:1 3:4 4:0 5:0 7:1 73:1 11048:1 # 20140610083106AA7AAUT Ribs NNP Dining_Out ORGANIZATION
0.5 2:0 3:4 4:0 5:0 7:1 73:1 5585:1 # 20140605040256AAru12G Iron NNP Entertainment_&_Music PERSON
0.5 2:1 3:9 4:0 5:0 7:1 73:1 8460:1 # 20140612022126AAsUT1R Wayfarers NNP Beauty_&_Style ORGANIZATION
0.5 2:0 3:6 4:0 5:0 7:1 73:1 5590:1 # 20140605040256AAru12G Hannah NNP Entertainment_&_Music PERSON
-0.015072051958026744244989458820783 2:0 3:3 4:0 5:1 7:0 8:1 6570:1 # 20140614113251AA3Y1WB hip NN News_&_Events TOKEN
-0.016452953331731912101076886756346 2:0 3:3 4:0 5:1 7:0 8:1 599:1 # 20140609205506AAfzAT8 lot NN Home_&_Garden TOKEN
-0.015895220587069602835583737032721 2:0 3:3 4:0 5:1 7:0 8:1 5114:1 # 20140609212304AAlJxoJ car NN Cars_&_Transportation TOKEN
0.5 2:0 3:5 4:0 5:1 7:0 40:1 5659:1 # 20140619063559AA2eks0 south RB Home_&_Garden LOCATION
0.5 2:1 3:6 4:0 5:1 7:0 8:1 5762:1 # 20140605140138AAyDVJY barros NN Entertainment_&_Music PERSON
0.5 2:1 3:2 4:1 5:0 7:0 16:1 2475:1 # 20140605225754AA2LJWC US PRP Consumer_Electronics LOCATION
-0.25460249757519115565429501657491 2:0 3:1 4:1 5:0 7:1 73:1 1278:1 # 20140601094337AAbsB6Z B NNP Politics_&_Government TOKEN
0.5 2:0 3:4 4:0 5:1 7:0 8:1 194:1 # 20140605040256AAru12G time NN Entertainment_&_Music PERSON
0.5 2:0 3:9 4:0 5:1 7:0 8:1 4801:1 # 20140620191437AA9D0Nc australia NN Food_&_Drink LOCATION
0.5 2:0 3:5 4:0 5:1 7:0 8:1 10766:1 # 20140609115257AAXrpdb skoda NN Cars_&_Transportation ORGANIZATION
-0.49979729692893393178110272856429 2:0 3:3 4:0 5:0 7:1 24:1 830:1 # 20140619105821AAuioIb All DT Education_&_Reference TOKEN
-0.28719912585454920872507500462234 2:0 3:2 4:0 5:0 7:1 73:1 844:1 # 20140612233414AAbNPKy Ok NNP Family_&_Relationships TOKEN
-0.38499113646324900628314935602248 2:1 3:4 4:0 5:0 7:1 12:1 8743:1 # 20140612145554AAjlhJX Guys NNS Beauty_&_Style TOKEN
0.5 2:0 3:5 4:0 5:1 7:0 73:1 172:1 # 20140607125905AA2JtXv &amp; NNP Politics_&_Government ORGANIZATION
-0.28726985607185895332804648205638 2:0 3:2 4:0 5:0 7:1 73:1 230:1 # 20140608182325AAmvy1Q Im NNP Cars_&_Transportation TOKEN
0.5 2:1 3:7 4:0 5:0 7:1 123:1 5614:1 # 20140608113007AAoVpt8 Answers VBZ Politics_&_Government ORGANIZATION
-0.28726985607184474247333128005266 2:0 3:2 4:0 5:0 7:1 73:1 11293:1 # 20140615191331AAdpnmg Ya NNP Dining_Out TOKEN
-0.28717138440471678961785073624924 2:0 3:2 4:0 5:0 7:1 73:1 185:1 # 20140603005221AAThPnj So NNP Consumer_Electronics TOKEN
-0.28701224497658683887379993393552 2:0 3:2 4:0 5:0 7:1 73:1 9600:1 # 20140618192549AAzYXYR Yo NNP Social_Science TOKEN
-0.28722974704713699622971034841612 2:0 3:2 4:0 5:0 7:1 73:1 5396:1 # 20140611153520AAksgjY Al NNP Computer_&_Internet TOKEN
-0.28735017463559486827762157190591 2:0 3:2 4:0 5:0 7:1 73:1 12930:1 # 20140622225954AAAlKMt Mr NNP Local_Businesses TOKEN
0.5 2:0 3:5 4:0 5:0 7:1 73:1 8718:1 # 20140622131925AAtjtJJ Blair NNP Beauty_&_Style PERSON
-0.10934787114108956984637188725173 2:0 3:9 4:1 5:0 7:0 73:1 4190:1 # 20140607141649AANF6Tv CM1740-04 NNP Consumer_Electronics TOKEN
0.5 2:0 3:5 4:0 5:0 7:1 88:1 8800:1 # 20140615215028AAGmoaM Leave VB Sports PERSON
0.5 2:0 3:5 4:0 5:0 7:1 26:1 11375:1 # 20140613214814AARwXS4 Sonic JJ Local_Businesses ORGANIZATION
-0.28722974704699666403939772862941 2:0 3:2 4:0 5:0 7:1 73:1 5832:1 # 20140613124158AAH0KXB Va NNP Entertainment_&_Music TOKEN
-0.28728636230583504129754146561027 2:0 3:2 4:0 5:0 7:1 73:1 6782:1 # 20140614172231AAsQkBF Ur NNP Politics_&_Government TOKEN
-0.28726985608513189163204515352845 2:0 3:2 4:0 5:0 7:1 73:1 9659:1 # 20140616160015AAkjHsB La NNP Dining_Out TOKEN
-0.2872698560718731641827616840601 2:0 3:2 4:0 5:0 7:1 73:1 11037:1 # 20140616141511AAlZZIn Iv NNP Dining_Out TOKEN
0.5 2:0 3:3 4:0 5:1 7:0 26:1 31:1 # 20140612200636AAqMBhQ new JJ Politics_&_Government LOCATION
0.5 2:0 3:3 4:0 5:1 7:0 26:1 3981:1 # 20140605040256AAru12G low JJ Entertainment_&_Music PERSON
0.5 2:0 3:2 4:0 5:0 7:1 22:1 608:1 # 20140605040256AAru12G My PRP$ Entertainment_&_Music PERSON
-0.5 2:0 3:3 4:0 5:1 7:0 26:1 31:1 # 20140610052054AAkNfGL new JJ Cars_&_Transportation TOKEN
-0.0005752301460688613587990403175354 2:0 3:2 4:0 5:1 7:0 8:1 859:1 # 20140612080629AAuyjlx we NN Health TOKEN
-0.18582615160828552802740887273103 2:1 3:3 4:0 5:0 7:1 73:1 15595:1 # 20140617203723AAnMv8x Hes NNP Politics_&_Government TOKEN
-0.18579385295029204883121565217152 2:1 3:3 4:0 5:0 7:1 73:1 15163:1 # 20140610123048AAZOuhW Drs NNP Politics_&_Government TOKEN
-0.18558516529981855525122114158876 2:1 3:3 4:0 5:0 7:1 73:1 11237:1 # 20140610172137AA9hoaq Las NNP Dining_Out TOKEN
-0.0038847506339045878576143877580762 2:0 3:3 4:0 5:1 7:0 26:1 3981:1 # 20140615224306AASdmOX low JJ Sports TOKEN
-0.5 2:1 3:2 4:1 5:0 7:0 16:1 2475:1 # 20140603020037AAlyzyA US PRP Travel TOKEN
-0.5 2:1 3:2 4:1 5:0 7:0 73:1 2475:1 # 20140619105821AAuioIb US NNP Education_&_Reference TOKEN
0.5 2:0 3:9 4:0 5:1 7:0 26:1 1875:1 # 20140614170630AA1o9BQ corporate JJ Politics_&_Government ORGANIZATION
0.5 2:0 3:3 4:0 5:1 7:0 26:1 31:1 # 20140612200636AAqMBhQ new JJ Politics_&_Government LOCATION
-0.49495778702907489154938502906589 2:0 3:3 4:0 5:1 7:0 26:1 31:1 # 20140607125905AA2JtXv new JJ Politics_&_Government TOKEN
-0.017155144228615665236148402073013 2:0 3:6 4:0 5:1 7:0 20:1 2663:1 # 20140611201334AAFQLgO approx VBG Health TOKEN
0.5 2:1 3:2 4:1 5:0 7:0 16:1 2475:1 # 20140613214814AARwXS4 US PRP Local_Businesses LOCATION
-0.30073405697113803070052995281003 2:1 3:2 4:1 5:0 7:0 16:1 2475:1 # 20140609172302AAjgqUA US PRP Yahoo!_Products TOKEN
-0.48157697791327452874199366306129 2:1 3:7 4:0 5:0 7:1 123:1 5614:1 # 20140615171734AAd4Cuo Answers VBZ Yahoo!_Products TOKEN
0.5 2:0 3:3 4:0 5:1 7:0 26:1 9449:1 # 20140623022611AAddTaJ ufc JJ Sports ORGANIZATION
0.5 2:0 3:3 4:0 5:1 7:0 26:1 3981:1 # 20140605040256AAru12G low JJ Entertainment_&_Music PERSON
-0.016439214062222706758120693848468 2:0 3:3 4:0 5:1 7:0 8:1 2519:1 # 20140626223207AABdv8w wiz NN Business_&_Finance TOKEN
-0.0030224583080098454956896603107452 2:0 3:1 4:0 5:1 7:0 26:1 7569:1 # 20140618095228AAKVjIw j JJ Science_&_Mathematics TOKEN
-0.0035630539878184208646416664123535 2:0 3:1 4:0 5:1 7:0 26:1 3812:1 # 20140612145554AAjlhJX s JJ Beauty_&_Style TOKEN
-0.014342679136343367690686889659446 2:0 3:11 4:0 5:1 7:0 8:1 18488:1 # 20140609122525AAYu0rC preferrably NN Travel TOKEN
0.5 2:0 3:3 4:0 5:0 7:1 73:1 9209:1 # 20140623022611AAddTaJ Big NNP Sports PERSON
0.5 2:0 3:9 4:0 5:1 7:0 43:1 2989:1 # 20140604131630AAZXrpw list#sell VBP Business_&_Finance ORGANIZATION
0.5 2:1 3:2 4:1 5:0 7:0 16:1 2475:1 # 20140622210819AARJGLW US PRP Entertainment_&_Music LOCATION
-0.5 2:0 3:9 4:0 5:1 7:0 26:1 1875:1 # 20140612050152AA6IWUg corporate JJ Business_&_Finance TOKEN
0.5 2:0 3:3 4:0 5:0 7:1 24:1 830:1 # 20140605040256AAru12G All DT Entertainment_&_Music PERSON
0.5 2:0 3:3 4:0 5:0 7:1 24:1 729:1 # 20140623022611AAddTaJ The DT Sports PERSON
-0.072557300559331849854061147198081 2:0 3:1 4:1 5:0 7:1 8:1 7987:1 # 20140615171734AAd4Cuo Q NN Yahoo!_Products TOKEN
-0.078743706218659781370661221444607 2:0 3:4 4:0 5:0 7:1 26:1 9852:1 # 20140607002126AA0cFXN True JJ Social_Science TOKEN
-0.072557300559331849854061147198081 2:0 3:1 4:1 5:0 7:1 8:1 8037:1 # 20140605031016AAsN8GR E NN Science_&_Mathematics TOKEN
-0.5 2:0 3:7 4:0 5:0 7:1 73:1 18939:1 # 20140611001634AAefV9p Brynlee NNP Pregnancy_&_Parenting TOKEN
-0.004971693762982454245502594858408 2:1 3:7 4:0 5:0 7:1 20:1 269:1 # 20140616154757AA3uubn Looking VBG News_&_Events TOKEN
-0.097354928788591088562043296406046 2:1 3:2 4:0 5:1 7:0 73:1 1285:1 # 20140618090750AAlViol us NNP Pregnancy_&_Parenting TOKEN
-0.097354928784808336672540463041514 2:1 3:2 4:0 5:1 7:0 73:1 108:1 # 20140618212015AAM2O4i is NNP Travel TOKEN
0.5 2:0 3:2 4:1 5:0 7:0 8:1 5530:1 # 20140617203632AANuG3B DC NN Entertainment_&_Music ORGANIZATION
0.5 2:0 3:2 4:1 5:0 7:0 73:1 3408:1 # 20140616063937AAhSsrT UK NNP Business_&_Finance LOCATION
0.5 2:0 3:2 4:1 5:0 7:0 73:1 15532:1 # 20140609182413AATpjOA GW NNP Politics_&_Government PERSON
0.5 2:0 3:2 4:1 5:0 7:0 73:1 809:1 # 20140617074422AANUT7h J. NNP Arts_&_Humanities PERSON
-0.5 2:0 3:2 4:1 5:0 7:0 73:1 3408:1 # 20140612013350AAX11Xr UK NNP Travel TOKEN
0.5 2:0 3:3 4:0 5:1 7:0 26:1 31:1 # 20140622230045AAAI6WE new JJ Travel LOCATION
-0.5 2:0 3:5 4:0 5:0 7:1 88:1 8800:1 # 20140613125219AA2D0JF Leave VB Beauty_&_Style TOKEN
-0.015931400918216098716584383510053 2:0 3:5 4:0 5:1 7:0 8:1 7707:1 # 20140618201815AAmO6f1 orbit NN Science_&_Mathematics TOKEN
0.5 2:0 3:6 4:0 5:0 7:1 73:1 11147:1 # 20140622025924AAbvcWQ London NNP Travel LOCATION
-0.5 2:0 3:3 4:0 5:1 7:0 26:1 31:1 # 20140610214206AAA5Std new JJ Business_&_Finance TOKEN
-0.5 2:1 3:2 4:1 5:0 7:0 16:1 2475:1 # 20140617152905AAraW4N US PRP Education_&_Reference TOKEN
-0.10872528855515925516606046130619 2:0 3:6 4:1 5:0 7:0 73:1 8317:1 # 20140614131802AAL6tJW LITTLE NNP Beauty_&_Style TOKEN
-0.5 2:0 3:4 4:0 5:0 7:1 73:1 9488:1 # 20140603131218AA1t3hP Jack NNP Local_Businesses TOKEN
-0.14011835066757782897184370085597 2:0 3:1 4:0 5:0 7:0 73:1 3524:1 # 20140614134845AAVhWeg • NNP Consumer_Electronics TOKEN
-0.5 2:0 3:5 4:0 5:1 7:0 40:1 5659:1 # 20140614114159AAxmnir south RB Travel TOKEN
-0.14200872183413904004112282564165 2:0 3:1 4:0 5:0 7:0 73:1 352:1 # 20140612233414AAbNPKy : NNP Family_&_Relationships TOKEN
-0.142008721834138929018820363126 2:0 3:1 4:0 5:0 7:0 39:1 73:1 # 20140605092633AAPkbBp . NNP Science_&_Mathematics TOKEN
0.5 2:0 3:3 4:0 5:1 7:0 26:1 31:1 # 20140622230045AAAI6WE new JJ Travel LOCATION
-0.14200872183413920657457651941513 2:0 3:1 4:0 5:0 7:0 73:1 131:1 # 20140614045845AAdu92x - NNP Computer_&_Internet TOKEN
-0.011137209747616783062085232813843 2:0 3:7 4:0 5:1 7:0 8:1 4543:1 # 20140608151316AAZv17m express NN Travel TOKEN
0.5 2:0 3:2 4:1 5:0 7:0 73:1 11389:1 # 20140616143448AAdU6Ze DQ NNP Dining_Out ORGANIZATION
-0.5 2:0 3:3 4:0 5:1 7:0 26:1 31:1 # 20140606075218AAmnm1s new JJ Entertainment_&_Music TOKEN
0.5 2:0 3:2 4:1 5:0 7:0 73:1 3928:1 # 20140615222209AAOSKxY LG NNP Entertainment_&_Music ORGANIZATION
0.5 2:0 3:2 4:1 5:0 7:0 73:1 4507:1 # 20140618125641AAGkGpi C. NNP Education_&_Reference PERSON
0.5 2:0 3:2 4:1 5:0 7:0 73:1 11527:1 # 20140608112522AAMjxU9 LA NNP Local_Businesses LOCATION
0.5 2:0 3:4 4:1 5:0 7:0 73:1 785:1 # 20140625193136AAUePpR H.P. NNP Arts_&_Humanities PERSON
-0.5 2:0 3:2 4:1 5:0 7:0 73:1 11527:1 # 20140608112522AAMjxU9 LA NNP Local_Businesses TOKEN
0.5 2:0 3:2 4:0 5:1 7:0 8:1 13064:1 # 20140615091428AA1nGW3 st NN Local_Businesses LOCATION
0.5 2:0 3:2 4:0 5:1 7:0 8:1 13095:1 # 20140620035947AAeYEbM sc NN Local_Businesses LOCATION
-0.5 2:0 3:2 4:0 5:1 7:0 8:1 13095:1 # 20140620035947AAeYEbM sc NN Local_Businesses TOKEN
0.5 2:0 3:2 4:1 5:0 7:0 73:1 3408:1 # 20140616063937AAhSsrT UK NNP Business_&_Finance LOCATION
-0.5 2:0 3:2 4:1 5:0 7:0 73:1 3408:1 # 20140612013350AAX11Xr UK NNP Travel TOKEN
-0.49996258175661090206176595529541 2:0 3:2 4:1 5:0 7:0 73:1 4507:1 # 20140607181926AAii9kA C. NNP Pets TOKEN
0.5 2:0 3:3 4:0 5:1 7:0 26:1 9449:1 # 20140623022611AAddTaJ ufc JJ Sports ORGANIZATION
-0.016626677976720571905389078892767 2:0 3:1 4:0 5:1 7:0 8:1 3741:1 # 20140622230045AAAI6WE m NN Travel TOKEN
-0.016471858000713712755214146454819 2:0 3:1 4:0 5:1 7:0 8:1 8717:1 # 20140623173753AAUMZe3 c NN Food_&_Drink TOKEN
-0.016471858000770112084865104407072 2:0 3:1 4:0 5:1 7:0 8:1 2330:1 # 20140616230100AA0TniQ e NN Business_&_Finance TOKEN
-0.5 2:0 3:2 4:1 5:0 7:0 73:1 3408:1 # 20140608120927AA1JZcv UK NNP Travel TOKEN
0.5 2:0 3:2 4:0 5:1 7:0 8:1 13095:1 # 20140620035947AAeYEbM sc NN Local_Businesses LOCATION
-0.10427468062918054947374457697151 2:0 3:2 4:0 5:0 7:1 8:1 664:1 # 20140626142532AAHm2Mx No NN Pets TOKEN
-0.10476212795454370452219450271514 2:0 3:3 4:0 5:0 7:1 8:1 5263:1 # 20140614004826AAWj9IB Man NN Entertainment_&_Music TOKEN
-0.10425589036039095702790291397832 2:0 3:3 4:0 5:0 7:1 8:1 7209:1 # 20140613202053AAONeF7 Hmm NN Games_&_Recreation TOKEN
-0.10394386829410962036490673199296 2:0 3:3 4:0 5:0 7:1 8:1 4433:1 # 20140621041314AA5qW3l Mom NN Education_&_Reference TOKEN
0.5 2:0 3:2 4:1 5:0 7:0 73:1 3408:1 # 20140609103348AAf8tZ6 UK NNP News_&_Events LOCATION
-0.016414484665133712015805400596946 2:0 3:7 4:0 5:0 7:1 26:1 6762:1 # 20140625035457AAwYqoP Harmful JJ Games_&_Recreation TOKEN
-0.002664361473340426389455615208135 2:0 3:5 4:0 5:1 7:0 43:1 345:1 # 20140622131925AAtjtJJ enjoy VBP Beauty_&_Style TOKEN
-0.080088176286764678479812573641539 2:0 3:5 4:0 5:0 7:1 24:1 3366:1 # 20140621104938AAA4IC5 Those DT Business_&_Finance TOKEN
0.5 2:0 3:1 4:0 5:0 7:0 630:1 631:1 # 20140605034309AAV7PuK # # Consumer_Electronics PERSON
-0.015990093290792158076119022780404 2:0 3:3 4:0 5:1 7:0 8:1 3827:1 # 20140603020037AAlyzyA dog NN Travel TOKEN
0.5 2:0 3:3 4:1 5:0 7:0 73:1 7172:1 # 20140613182418AAAZN2I WWE NNP Sports ORGANIZATION
-0.5 2:0 3:2 4:1 5:0 7:0 73:1 3408:1 # 20140608120927AA1JZcv UK NNP Travel TOKEN
-0.5 2:0 3:2 4:0 5:0 7:1 22:1 608:1 # 20140620213457AAI59UA My PRP$ Computer_&_Internet TOKEN
0.5 2:1 3:2 4:1 5:0 7:0 16:1 2475:1 # 20140612145554AAjlhJX US PRP Beauty_&_Style LOCATION
-0.27884162346288299261232168646529 2:0 3:1 4:0 5:0 7:0 630:1 631:1 # 20140618141257AAQm1bZ # # Arts_&_Humanities TOKEN
0.5 2:0 3:2 4:1 5:0 7:0 73:1 3408:1 # 20140625120602AAXWOm0 UK NNP Science_&_Mathematics LOCATION
0.5 2:0 3:2 4:0 5:0 7:1 22:1 608:1 # 20140605040256AAru12G My PRP$ Entertainment_&_Music PERSON
-0.050624823669073865106682319492393 2:0 3:9 4:0 5:0 7:1 26:1 8420:1 # 20140613192110AABUd4A Alternate JJ Beauty_&_Style TOKEN
-0.028351565253511790132279202225618 2:0 3:8 4:0 5:0 7:1 26:1 14714:1 # 20140626142532AAHm2Mx Official JJ Pets TOKEN
0.5 2:1 3:2 4:1 5:0 7:0 16:1 2475:1 # 20140622210819AARJGLW US PRP Entertainment_&_Music LOCATION
-0.057315049791405725532200676752836 2:0 3:3 4:0 5:0 7:1 16:1 729:1 # 20140601163915AAS8CzR The PRP Family_&_Relationships TOKEN
-0.5 2:1 3:2 4:1 5:0 7:0 16:1 2475:1 # 20140619072135AAeFu7N US PRP Politics_&_Government TOKEN
-0.0045547995877310842871565910172649 2:0 3:7 4:0 5:1 7:0 8:1 12255:1 # 20140618193911AA3NARn harvest NN Home_&_Garden TOKEN
0.5 2:0 3:2 4:1 5:0 7:0 73:1 3408:1 # 20140625120602AAXWOm0 UK NNP Science_&_Mathematics LOCATION
-0.5 2:0 3:2 4:0 5:0 7:1 22:1 608:1 # 20140610102038AAX5RlB My PRP$ Pets TOKEN
0.5 2:0 3:2 4:0 5:1 7:0 8:1 13064:1 # 20140615091428AA1nGW3 st NN Local_Businesses LOCATION
-0.11020733039852004253589257132262 2:0 3:2 4:1 5:0 7:0 73:1 9116:1 # 20140620105746AAnOLsk FN NNP Sports TOKEN
-0.11020733039889829552038236215594 2:0 3:2 4:1 5:0 7:0 73:1 9107:1 # 20140617213812AAnm3nS MK NNP Travel TOKEN
-0.11020733039890595605925227573607 2:0 3:2 4:1 5:0 7:0 73:1 4191:1 # 20140607110538AAO6Auo HP NNP Computer_&_Internet TOKEN
-0.10311955708868936198996379971504 2:0 3:3 4:0 5:0 7:1 8:1 12409:1 # 20140622230045AAAI6WE Bed NN Travel TOKEN
0.5 2:0 3:2 4:1 5:0 7:0 73:1 11389:1 # 20140616143448AAdU6Ze DQ NNP Dining_Out ORGANIZATION
0.5 2:0 3:2 4:1 5:0 7:0 73:1 15532:1 # 20140609182413AATpjOA GW NNP Politics_&_Government PERSON
-0.11020733039889873960959221221856 2:0 3:2 4:1 5:0 7:0 73:1 4286:1 # 20140604083714AANM1Br MA NNP Education_&_Reference TOKEN
-0.10910773050665056871366687119007 2:0 3:2 4:1 5:0 7:0 73:1 3507:1 # 20140603135339AAL5mDP CA NNP Cars_&_Transportation TOKEN
-0.11011644219920491138964280253276 2:0 3:2 4:1 5:0 7:0 73:1 6974:1 # 20140603072418AAgZjcN AC NNP Science_&_Mathematics TOKEN
-0.10888245161440579522604821249843 2:0 3:2 4:1 5:0 7:0 73:1 7862:1 # 20140610222206AAaaj3T AB NNP News_&_Events TOKEN
0.5 2:0 3:2 4:1 5:0 7:0 73:1 809:1 # 20140617074422AANUT7h J. NNP Arts_&_Humanities PERSON
-0.11005646248528902497731962739635 2:0 3:3 4:1 5:0 7:0 73:1 1505:1 # 20140620170402AA0uGdu NOT NNP Pregnancy_&_Parenting TOKEN
-0.25558297252317885295269661583006 2:0 3:1 4:1 5:0 7:1 73:1 446:1 # 20140622013948AAZujJH V NNP Science_&_Mathematics TOKEN
-0.2555829725220126746876303514 2:0 3:1 4:1 5:0 7:1 73:1 10193:1 # 20140610004054AArTAuM M NNP Social_Science TOKEN
-0.016439214062792473214358324185014 2:0 3:3 4:0 5:1 7:0 8:1 13218:1 # 20140611090216AAsNyRd juz NN Family_&_Relationships TOKEN
-0.016424518251844655303273157187505 2:0 3:3 4:0 5:1 7:0 8:1 3342:1 # 20140618192549AAzYXYR mom NN Social_Science TOKEN
-0.016428086325553481472638850391377 2:0 3:3 4:0 5:1 7:0 8:1 7157:1 # 20140623171559AARTbz7 ghz NN Computer_&_Internet TOKEN
-0.016387502972251381805346426290271 2:0 3:3 4:0 5:1 7:0 8:1 2699:1 # 20140611132742AAU8vAK age NN Education_&_Reference TOKEN
-0.016471804711560622536126174964011 2:0 3:3 4:0 5:1 7:0 8:1 2235:1 # 20140606003853AAp4Kid gun NN Sports TOKEN
0.5 2:0 3:3 4:0 5:1 7:0 24:1 25:1 # 20140605040256AAru12G the DT Entertainment_&_Music PERSON
0.5 2:0 3:4 4:0 5:0 7:1 710:1 18942:1 # 20140611001634AAefV9p Maya FW Pregnancy_&_Parenting PERSON
0.5 2:1 3:9 4:0 5:0 7:1 73:1 11376:1 # 20140623125801AASUucg Starbucks NNP Food_&_Drink ORGANIZATION
0.5 2:0 3:3 4:0 5:1 7:0 8:1 5596:1 # 20140605040256AAru12G cab NN Entertainment_&_Music PERSON
0.5 2:0 3:3 4:0 5:1 7:0 8:1 2189:1 # 20140605040256AAru12G boy NN Entertainment_&_Music PERSON
0.5 2:0 3:3 4:0 5:1 7:0 8:1 4854:1 # 20140601014139AA5Szo2 usa NN Education_&_Reference LOCATION
-0.5 2:0 3:3 4:0 5:0 7:1 24:1 729:1 # 20140609160711AAprF2f The DT Arts_&_Humanities TOKEN
0.5 2:1 3:4 4:0 5:1 7:0 45:1 847:1 # 20140601162630AAuDjDG laid VBN Sports ORGANIZATION
0.5 2:1 3:6 4:1 5:0 7:0 73:1 3136:1 # 20140601131055AAPxhOP DALLAS NNP Business_&_Finance LOCATION
0.5 2:0 3:2 4:0 5:0 7:1 73:1 12930:1 # 20140614113251AA3Y1WB Mr NNP News_&_Events PERSON
0.5 2:0 3:2 4:0 5:0 7:1 73:1 11325:1 # 20140616143448AAdU6Ze El NNP Dining_Out ORGANIZATION
0.5 2:1 3:3 4:1 5:0 7:0 73:1 15277:1 # 20140625082631AAcgyMl IRS NNP Politics_&_Government ORGANIZATION
0.5 2:1 3:3 4:1 5:0 7:0 73:1 14427:1 # 20140617191218AAiEBHA CBS NNP News_&_Events ORGANIZATION
0.5 2:1 3:3 4:1 5:0 7:0 73:1 9297:1 # 20140626152929AAvb2mt SFS NNP Sports ORGANIZATION
-0.11017609547043472062455293780658 2:0 3:2 4:1 5:0 7:0 73:1 3624:1 # 20140607094147AAMHfCN HD NNP Sports TOKEN
-0.11017571103351864181263408681843 2:0 3:2 4:1 5:0 7:0 73:1 19352:1 # 20140608060520AAMzqLw IE NNP Yahoo!_Products TOKEN
-0.11017630434863878718942942214198 2:0 3:2 4:1 5:0 7:0 73:1 6940:1 # 20140616114406AAi0jDN I7 NNP Games_&_Recreation TOKEN
0.5 2:0 3:4 4:0 5:1 7:0 88:1 15152:1 # 20140612200636AAqMBhQ york VB Politics_&_Government LOCATION
0.5 2:0 3:4 4:0 5:1 7:0 26:1 13974:1 # 20140613111831AABRhzn east JJ News_&_Events LOCATION
0.5 2:0 3:2 4:0 5:1 7:0 73:1 149:1 # 20140616143448AAdU6Ze in NNP Dining_Out ORGANIZATION
-0.4999171265462649671462713740766 2:0 3:2 4:0 5:0 7:1 73:1 12930:1 # 20140622225954AAAlKMt Mr NNP Local_Businesses TOKEN
-0.015321790422186065683263223036192 2:0 3:3 4:0 5:1 7:0 8:1 2327:1 # 20140605100701AAbVj3t pad NN Health TOKEN
0.5 2:1 3:6 4:0 5:0 7:1 61:1 12443:1 # 20140607191241AAICEVB States NNPS Home_&_Garden LOCATION
0.5 2:1 3:6 4:0 5:0 7:1 61:1 15074:1 # 20140617015321AAEmy38 Masons NNPS Politics_&_Government PERSON
0.5 2:0 3:3 4:0 5:0 7:0 204:1 2700:1 # 20140605081144AAuazx4 1#2 CD Science_&_Mathematics PERSON
0.5 2:0 3:3 4:0 5:1 7:0 30:1 292:1 # 20140605040256AAru12G out IN Entertainment_&_Music PERSON
-0.5 2:0 3:3 4:0 5:1 7:0 73:1 292:1 # 20140618125641AAGkGpi out NNP Education_&_Reference TOKEN
-0.20346672921562825031571719591739 2:0 3:2 4:0 5:1 7:0 73:1 149:1 # 20140625193758AANDcbj in NNP Games_&_Recreation TOKEN
0.5 2:1 3:4 4:0 5:0 7:1 12:1 8743:1 # 20140616143448AAdU6Ze Guys NNS Dining_Out ORGANIZATION
0.5 2:0 3:4 4:0 5:1 7:0 8:1 9454:1 # 20140623022611AAddTaJ kurt NN Sports PERSON
0.5 2:0 3:4 4:0 5:1 7:0 26:1 13974:1 # 20140613111831AABRhzn east JJ News_&_Events LOCATION
-0.49843363995496220431036249465251 2:0 3:3 4:0 5:1 7:0 8:1 5596:1 # 20140616073715AA0e9si cab NN Cars_&_Transportation TOKEN
-0.4951346481919939312987821722345 2:0 3:2 4:0 5:1 7:0 73:1 149:1 # 20140618192549AAzYXYR in NNP Social_Science TOKEN
0.5 2:0 3:5 4:0 5:1 7:0 8:1 13881:1 # 20140617033632AAaS0SQ lohan NN News_&_Events PERSON
0.5 2:0 3:5 4:0 5:1 7:0 8:1 1291:1 # 20140614122338AAHL8sn canon NN Arts_&_Humanities ORGANIZATION
-0.030429944037134504242203547619283 2:0 3:2 4:0 5:0 7:1 30:1 96:1 # 20140617092003AATWcQC If IN Cars_&_Transportation TOKEN
-0.28533537583514778646076592849568 2:0 3:11 4:0 5:0 7:1 73:1 4572:1 # 20140605115942AAHijoB Trustworthy NNP Education_&_Reference TOKEN
-0.026988780721958427477602526778355 2:0 3:3 4:0 5:0 7:1 204:1 1638:1 # 20140612062149AAH8vjl One CD Arts_&_Humanities TOKEN
0.5 2:0 3:4 4:0 5:1 7:0 20:1 3365:1 # 20140616234645AAnbyhx ebay VBG Consumer_Electronics ORGANIZATION
0.5 2:1 3:6 4:0 5:0 7:1 61:1 9343:1 # 20140616154757AA3uubn Forces NNPS News_&_Events ORGANIZATION
-0.5 2:0 3:3 4:0 5:1 7:0 8:1 4854:1 # 20140617203723AAnMv8x usa NN Politics_&_Government TOKEN
-0.5 2:0 3:3 4:0 5:1 7:0 20:1 3981:1 # 20140607135336AADGWCS low VBG Computer_&_Internet TOKEN
-0.11017630434862590860234377032612 2:0 3:2 4:1 5:0 7:0 73:1 10745:1 # 20140606145613AArNENe PB NNP Cars_&_Transportation TOKEN
-0.11018543390185753239052246499341 2:0 3:2 4:1 5:0 7:0 73:1 5149:1 # 20140619101954AAAy1Zi I. NNP Entertainment_&_Music TOKEN
-0.11017571103391643472235728040687 2:0 3:2 4:1 5:0 7:0 73:1 5338:1 # 20140613124158AAH0KXB RP NNP Entertainment_&_Music TOKEN
0.5 2:0 3:4 4:0 5:0 7:0 8:1 3200:1 # 20140617164637AAddgz5 eBay NN Local_Businesses ORGANIZATION
0.5 2:0 3:3 4:0 5:1 7:0 30:1 292:1 # 20140605040256AAru12G out IN Entertainment_&_Music PERSON
0.5 2:0 3:3 4:1 5:0 7:0 73:1 2568:1 # 20140618180738AANfMh9 USA NNP Sports LOCATION
0.5 2:0 3:3 4:1 5:0 7:0 73:1 15694:1 # 20140614170630AA1o9BQ CIA NNP Politics_&_Government ORGANIZATION
-0.5 2:0 3:3 4:1 5:0 7:0 73:1 2568:1 # 20140622140805AAtjqJa USA NNP Cars_&_Transportation TOKEN
-0.1101791679400833112723034901137 2:0 3:2 4:1 5:0 7:0 73:1 9109:1 # 20140620105746AAnOLsk XD NNP Sports TOKEN
-0.5 2:0 3:3 4:0 5:1 7:0 8:1 292:1 # 20140607104637AASvvKI out NN News_&_Events TOKEN
-0.10903725440280032099593654493219 2:0 3:2 4:1 5:0 7:0 73:1 13119:1 # 20140620035947AAeYEbM OG NNP Local_Businesses TOKEN
0.5 2:0 3:5 4:0 5:1 7:0 8:1 7374:1 # 20140605122136AAZjfnG yahoo NN Yahoo!_Products ORGANIZATION
0.5 2:0 3:5 4:0 5:1 7:0 8:1 15519:1 # 20140609182413AATpjOA obama NN Politics_&_Government PERSON
-0.11017630434862613064694869535742 2:0 3:2 4:1 5:0 7:0 73:1 15014:1 # 20140613154011AAJ98M9 T. NNP Politics_&_Government TOKEN
-0.030429944037109635246451944112778 2:0 3:2 4:0 5:0 7:1 30:1 587:1 # 20140618215915AAruZzF As IN News_&_Events TOKEN
-0.1101034445406856576710197259672 2:0 3:3 4:1 5:0 7:0 73:1 11035:1 # 20140616141511AAlZZIn NYC NNP Dining_Out TOKEN
-0.10969147342944951528664887518971 2:0 3:3 4:1 5:0 7:0 73:1 2551:1 # 20140620222120AA4p1zz EKG NNP Business_&_Finance TOKEN
-0.11007217058200247095101076411083 2:0 3:3 4:1 5:0 7:0 73:1 14510:1 # 20140617145448AAyyT2q SOO NNP Pets TOKEN
0.5 2:1 3:7 4:0 5:1 7:0 43:1 7296:1 # 20140610052054AAkNfGL googled VBP Cars_&_Transportation ORGANIZATION
0.5 2:0 3:3 4:0 5:1 7:0 8:1 4854:1 # 20140601014139AA5Szo2 usa NN Education_&_Reference LOCATION
0.5 2:1 3:6 4:0 5:0 7:1 61:1 12380:1 # 20140601134625AAPRFLP Sallys NNPS Home_&_Garden ORGANIZATION
-0.18573599459466128003271023771958 2:1 3:2 4:0 5:0 7:1 73:1 247:1 # 20140608034752AAWHbyf Am NNP Arts_&_Humanities TOKEN
-0.5 2:0 3:3 4:0 5:1 7:0 8:1 2189:1 # 20140612062149AAH8vjl boy NN Arts_&_Humanities TOKEN
0.5 2:0 3:3 4:1 5:0 7:0 73:1 11339:1 # 20140616143448AAdU6Ze KFC NNP Dining_Out ORGANIZATION
0.5 2:0 3:3 4:1 5:0 7:0 73:1 14320:1 # 20140606223938AAjsrL7 NFC NNP News_&_Events ORGANIZATION
0.5 2:0 3:3 4:1 5:0 7:0 73:1 3539:1 # 20140614134845AAVhWeg AMD NNP Consumer_Electronics ORGANIZATION
0.5 2:0 3:3 4:1 5:0 7:0 73:1 2568:1 # 20140617130308AAqDdcG USA NNP Travel LOCATION
-0.030429944043945056364464107900858 2:0 3:2 4:0 5:0 7:1 30:1 966:1 # 20140622170617AATlgRE In IN Cars_&_Transportation TOKEN
-0.030383651018855428738163482194068 2:0 3:2 4:0 5:0 7:1 30:1 2509:1 # 20140607071218AAzGtJH At IN Family_&_Relationships TOKEN
0.5 2:0 3:5 4:0 5:1 7:0 8:1 9588:1 # 20140615224306AASdmOX james NN Sports PERSON
0.5 2:0 3:3 4:1 5:0 7:0 73:1 7172:1 # 20140613182418AAAZN2I WWE NNP Sports ORGANIZATION
0.5 2:0 3:3 4:1 5:0 7:0 73:1 4270:1 # 20140604083714AANM1Br UNC NNP Education_&_Reference ORGANIZATION
0.5 2:0 3:3 4:1 5:0 7:0 73:1 15192:1 # 20140610123048AAZOuhW KGB NNP Politics_&_Government ORGANIZATION
0.5 2:0 3:3 4:1 5:0 7:0 73:1 10551:1 # 20140608182325AAmvy1Q DMV NNP Cars_&_Transportation ORGANIZATION
0.5 2:0 3:3 4:1 5:0 7:0 73:1 3769:1 # 20140617191218AAiEBHA ABC NNP News_&_Events ORGANIZATION
-0.5 2:0 3:3 4:1 5:0 7:0 73:1 2568:1 # 20140622140805AAtjqJa USA NNP Cars_&_Transportation TOKEN
-0.5 2:0 3:3 4:1 5:0 7:0 73:1 3539:1 # 20140601072000AABRvpX AMD NNP Games_&_Recreation TOKEN
0.5 2:1 3:9 4:0 5:0 7:1 73:1 805:1 # 20140617074422AANUT7h Euripides NNP Arts_&_Humanities PERSON
0.5 2:1 3:9 4:0 5:0 7:1 73:1 12377:1 # 20140601134625AAPRFLP Walgreens NNP Home_&_Garden ORGANIZATION
0.5 2:1 3:9 4:0 5:0 7:1 73:1 11307:1 # 20140616143448AAdU6Ze Bojangles NNP Dining_Out ORGANIZATION
-0.040005925892779709007740507331619 2:1 3:3 4:0 5:0 7:0 73:1 3955:1 # 20140606090914AA45noC iOS NNP Yahoo!_Products TOKEN
-0.040096973875745928195257761217363 2:1 3:3 4:0 5:0 7:0 73:1 7030:1 # 20140625193758AANDcbj PTs NNP Games_&_Recreation TOKEN
0.5 2:0 3:3 4:0 5:1 7:0 8:1 2189:1 # 20140605040256AAru12G boy NN Entertainment_&_Music PERSON
-0.5 2:0 3:3 4:0 5:1 7:0 8:1 2189:1 # 20140607064609AA5EKx9 boy NN Pregnancy_&_Parenting TOKEN
0.5 2:1 3:4 4:1 5:0 7:0 73:1 13003:1 # 20140617164637AAddgz5 USPS NNP Local_Businesses ORGANIZATION
-9.0778674105979062503024579200428e-05 2:0 3:7 4:0 5:1 7:0 43:1 6370:1 # 20140611193450AAnqGcc include VBP Health TOKEN
0.5 2:0 3:3 4:1 5:0 7:0 73:1 3927:1 # 20140619113940AAko4f7 HTC NNP Entertainment_&_Music ORGANIZATION
0.5 2:0 3:3 4:1 5:0 7:0 73:1 2568:1 # 20140604112329AAS36PD USA NNP Dining_Out LOCATION
-0.5 2:0 3:3 4:1 5:0 7:0 73:1 7172:1 # 20140605104442AAFzzy2 WWE NNP Sports TOKEN
0.5 2:0 3:5 4:0 5:1 7:0 8:1 15250:1 # 20140605231104AAm8fzJ gucci NN Politics_&_Government ORGANIZATION
0.5 2:0 3:5 4:0 5:1 7:0 8:1 9567:1 # 20140615224306AASdmOX danny NN Sports PERSON
0.5 2:0 3:5 4:0 5:1 7:0 8:1 8142:1 # 20140625120602AAXWOm0 syria NN Science_&_Mathematics LOCATION
-0.072557300559337178924579347949475 2:0 3:1 4:1 5:0 7:1 8:1 8038:1 # 20140605031016AAsN8GR F NN Science_&_Mathematics TOKEN
0.5 2:0 3:89 4:0 5:1 7:0 26:1 10552:1 # 20140608182325AAmvy1Q http:##www.cyberdriveillinois.com#departments#drivers#drivers_license#drlicid.html#mcylic JJ Cars_&_Transportation LOCATION
0.5 2:0 3:5 4:0 5:0 7:1 73:1 1701:1 # 20140614220006AA90c02 China NNP Sports LOCATION
-0.19825176602260796698828926309943 2:0 3:3 4:0 5:1 7:0 32:1 73:1 # 20140618123245AAiwouS and NNP Sports TOKEN
-0.19833717599299960365755168822943 2:0 3:3 4:0 5:1 7:0 73:1 186:1 # 20140626101740AADAK0e can NNP Politics_&_Government TOKEN
-0.19846016674376509847377292317105 2:0 3:3 4:0 5:1 7:0 73:1 12850:1 # 20140622225954AAAlKMt van NNP Local_Businesses TOKEN
0.5 2:0 3:3 4:0 5:1 7:0 8:1 2189:1 # 20140605040256AAru12G boy NN Entertainment_&_Music PERSON
0.5 2:0 3:4 4:0 5:0 7:1 73:1 13979:1 # 20140613111831AABRhzn Bush NNP News_&_Events PERSON
-0.5 2:0 3:3 4:0 5:1 7:0 8:1 2189:1 # 20140621115845AAQL7uD boy NN Family_&_Relationships TOKEN
0.5 2:0 3:3 4:1 5:0 7:0 73:1 19533:1 # 20140625072412AAUASEG LA. NNP Yahoo!_Products LOCATION
-0.01635236140031182117127173114568 2:0 3:3 4:0 5:1 7:0 8:1 406:1 # 20140620141720AAh6NZ6 way NN Pets TOKEN
-0.01641394003702717485637663230591 2:0 3:3 4:0 5:1 7:0 8:1 2874:1 # 20140604005232AAfI0Ol sex NN Health TOKEN
-0.00078089908033207588999857762246393 2:0 3:8 4:0 5:1 7:0 8:1 690:1 # 20140609172302AAjgqUA question NN Yahoo!_Products TOKEN
-0.5 2:0 3:4 4:1 5:0 7:0 73:1 13985:1 # 20140612211617AAE6Bis ISIS NNP News_&_Events TOKEN
-0.03187942444702596134220584644936 2:0 3:8 4:0 5:0 7:1 26:1 13995:1 # 20140625072412AAUASEG Hispanic JJ Yahoo!_Products TOKEN
-0.023051680810187435977098857620149 2:1 3:10 4:0 5:0 7:1 61:1 14082:1 # 20140609103348AAf8tZ6 Christians NNPS News_&_Events TOKEN
0.5 2:0 3:4 4:0 5:1 7:0 26:1 13974:1 # 20140613111831AABRhzn east JJ News_&_Events LOCATION
0.5 2:0 3:5 4:0 5:1 7:0 8:1 11110:1 # 20140613111207AAD5YgE wayne NN Dining_Out PERSON
0.5 2:0 3:5 4:0 5:1 7:0 8:1 3986:1 # 20140617165924AASLrlc apple NN Consumer_Electronics ORGANIZATION
0.5 2:0 3:3 4:1 5:0 7:0 73:1 13982:1 # 20140623230739AA9pP9C BBC NNP News_&_Events ORGANIZATION
0.5 2:0 3:3 4:1 5:0 7:0 73:1 9434:1 # 20140623022611AAddTaJ UFC NNP Sports ORGANIZATION
0.5 2:0 3:3 4:1 5:0 7:0 73:1 14319:1 # 20140606223938AAjsrL7 AFC NNP News_&_Events ORGANIZATION
0.5 2:0 3:3 4:1 5:0 7:0 73:1 18052:1 # 20140617213812AAnm3nS WDW NNP Travel ORGANIZATION
-0.015410251463128687987591547425836 2:0 3:3 4:0 5:1 7:0 8:1 292:1 # 20140609221937AAH7tge out NN Travel TOKEN
0.5 2:1 3:7 4:0 5:0 7:1 73:1 3502:1 # 20140614134845AAVhWeg Windows NNP Consumer_Electronics ORGANIZATION
0.5 2:1 3:7 4:0 5:0 7:1 73:1 19548:1 # 20140619231832AAFqTWm Mikayla NNP Yahoo!_Products PERSON
0.5 2:0 3:3 4:1 5:0 7:0 73:1 4154:1 # 20140607141649AANF6Tv MSI NNP Consumer_Electronics ORGANIZATION
0.5 2:0 3:3 4:1 5:0 7:0 73:1 3953:1 # 20140603005221AAThPnj ZET NNP Consumer_Electronics ORGANIZATION
0.5 2:1 3:7 4:0 5:0 7:1 73:1 11368:1 # 20140616143448AAdU6Ze Quiznos NNP Dining_Out ORGANIZATION
0.5 2:1 3:7 4:0 5:0 7:1 73:1 15590:1 # 20140613162326AARvh60 Stevens NNP Politics_&_Government PERSON
-0.5 2:0 3:3 4:1 5:0 7:0 73:1 7172:1 # 20140623022611AAddTaJ WWE NNP Sports TOKEN
0.5 2:0 3:4 4:0 5:1 7:0 8:1 1077:1 # 20140616143448AAdU6Ze land NN Dining_Out ORGANIZATION
0.5 2:0 3:4 4:0 5:1 7:0 8:1 11101:1 # 20140613111207AAD5YgE gacy NN Dining_Out PERSON
0.5 2:1 3:7 4:0 5:0 7:1 73:1 11365:1 # 20140616143448AAdU6Ze Popeyes NNP Dining_Out ORGANIZATION
0.5 2:1 3:7 4:0 5:0 7:1 73:1 11352:1 # 20140616143448AAdU6Ze Noodles NNP Dining_Out ORGANIZATION
-0.01167147893524755897232125789742 2:0 3:10 4:0 5:0 7:1 26:1 12901:1 # 20140608012413AAjMA7a Vietnamese JJ Local_Businesses TOKEN
-0.062794739713081915155612477974501 2:0 3:10 4:0 5:0 7:1 26:1 5341:1 # 20140613124158AAH0KXB Successful JJ Entertainment_&_Music TOKEN
0.5 2:1 3:9 4:0 5:0 7:0 73:1 7069:1 # 20140613111207AAD5YgE McDonalds NNP Dining_Out ORGANIZATION
-0.015835929097717388325250453817716 2:0 3:3 4:0 5:1 7:0 8:1 2189:1 # 20140615100226AACLhyS boy NN Home_&_Garden TOKEN
-0.5 2:0 3:3 4:1 5:0 7:0 73:1 7172:1 # 20140605104442AAFzzy2 WWE NNP Sports TOKEN
0.5 2:0 3:4 4:0 5:1 7:0 8:1 8995:1 # 20140601162630AAuDjDG pepe NN Sports PERSON
0.5 2:0 3:4 4:0 5:1 7:0 8:1 6619:1 # 20140612080629AAuyjlx sean NN Health PERSON
0.5 2:0 3:4 4:0 5:1 7:0 8:1 4391:1 # 20140619105821AAuioIb kean NN Education_&_Reference ORGANIZATION
-0.016626677971160574998066294938326 2:0 3:1 4:0 5:1 7:0 8:1 7337:1 # 20140623023853AA1SoFR h NN Science_&_Mathematics TOKEN
-0.016666821656009744856419274583459 2:0 3:1 4:0 5:1 7:0 8:1 7845:1 # 20140603090420AAhFUM7 p NN Science_&_Mathematics TOKEN
-1.2744191981162167337515711551532e-06 2:0 3:7 4:0 5:1 7:0 26:1 18850:1 # 20140614045845AAdu92x tedious JJ Computer_&_Internet TOKEN
-0.016369168669554123862752703644219 2:0 3:4 4:0 5:1 7:0 8:1 5699:1 # 20140601163915AAS8CzR pain NN Family_&_Relationships TOKEN
-0.02623488995158854142353277438815 2:0 3:5 4:0 5:0 7:1 204:1 5112:1 # 20140611175239AA5u6en Three CD Family_&_Relationships TOKEN
0.5 2:0 3:4 4:0 5:1 7:0 8:1 8143:1 # 20140612211617AAE6Bis iraq NN News_&_Events LOCATION
-0.19592151733938578672677977010608 2:0 3:23 4:0 5:1 7:0 73:1 5343:1 # 20140615025730AAsJj6v http:##lolfreecode.asia NNP Social_Science TOKEN
0.5 2:0 3:5 4:0 5:1 7:0 8:1 14957:1 # 20140622080843AAfcL4m gomez NN Pets PERSON
0.5 2:0 3:5 4:0 5:1 7:0 8:1 9214:1 # 20140618180738AANfMh9 china NN Sports LOCATION
-0.00051295932352571349532865951914573 2:0 3:7 4:0 5:1 7:0 26:1 4959:1 # 20140613073945AAjr9GV natural JJ Pets TOKEN
-0.016494764510699866377763100899756 2:0 3:3 4:0 5:1 7:0 8:1 28:1 # 20140603115526AAQmGXN day NN Cars_&_Transportation TOKEN
-0.016242700476155835787039904971607 2:0 3:3 4:0 5:1 7:0 8:1 1770:1 # 20140614170630AA1o9BQ job NN Politics_&_Government TOKEN
-0.1984128564766560742782530724071 2:0 3:3 4:0 5:1 7:0 73:1 357:1 # 20140607071218AAzGtJH end NNP Family_&_Relationships TOKEN
-0.19849594761016486899052324588411 2:0 3:3 4:0 5:1 7:0 73:1 6202:1 # 20140608155422AAGg2Wt ive NNP Pregnancy_&_Parenting TOKEN
-0.19847533104012299309815148262715 2:0 3:3 4:0 5:1 7:0 73:1 7409:1 # 20140623064734AAHH1Hb x-0 NNP Science_&_Mathematics TOKEN
-0.19850573096092549718605368980207 2:0 3:3 4:0 5:1 7:0 73:1 93:1 # 20140603135339AAL5mDP for NNP Cars_&_Transportation TOKEN
-0.5 2:0 3:3 4:0 5:1 7:0 25:1 73:1 # 20140609122525AAYu0rC the NNP Travel TOKEN
0.5 2:0 3:3 4:1 5:0 7:0 73:1 7172:1 # 20140623022611AAddTaJ WWE NNP Sports ORGANIZATION
-0.016443109820708623480811638728483 2:0 3:3 4:0 5:1 7:0 8:1 431:1 # 20140621074614AAdjycU bar NN Computer_&_Internet TOKEN
-0.016352361400297610316556529141963 2:0 3:3 4:0 5:1 7:0 8:1 1133:1 # 20140603091614AAtZw6A cry NN Family_&_Relationships TOKEN
-0.049544042597721188458947949584399 2:0 3:7 4:0 5:0 7:1 26:1 13888:1 # 20140617033632AAaS0SQ Jealous JJ News_&_Events TOKEN
-0.016116979392311492347289458848536 2:0 3:3 4:0 5:1 7:0 8:1 1781:1 # 20140621012549AAOo4ve soo NN Arts_&_Humanities TOKEN
-0.01632757980653720686348151502898 2:0 3:3 4:0 5:1 7:0 8:1 6700:1 # 20140617194830AAHJTRC egg NN Dining_Out TOKEN
-0.18583894772528297689717646790086 2:1 3:2 4:0 5:0 7:1 73:1 2354:1 # 20140609035939AA1Gfsp Rs NNP Business_&_Finance TOKEN
-0.18553169846006412058159185107797 2:1 3:2 4:0 5:0 7:1 73:1 6889:1 # 20140622223032AAkvyyd Us NNP Games_&_Recreation TOKEN
-0.016369382713314450938923982903361 2:0 3:3 4:0 5:1 7:0 8:1 15185:1 # 20140610123048AAZOuhW rug NN Politics_&_Government TOKEN
-0.016433115227643568800885987002403 2:0 3:3 4:0 5:1 7:0 8:1 10769:1 # 20140609115257AAXrpdb cng NN Cars_&_Transportation TOKEN
-0.01643311522473389629794837674126 2:0 3:3 4:0 5:1 7:0 8:1 2749:1 # 20140615120927AAPeVv5 ton NN Sports TOKEN
-0.015419150595729291808311245404184 2:0 3:3 4:0 5:1 7:0 8:1 9245:1 # 20140604025700AAoSHAT wit NN Sports TOKEN
-0.016368925142083712298557429676293 2:0 3:3 4:0 5:1 7:0 8:1 5806:1 # 20140613023120AA7XyZ8 cod NN Entertainment_&_Music TOKEN
-0.016494764510703419091441901400685 2:0 3:3 4:0 5:1 7:0 8:1 9596:1 # 20140606145613AArNENe air NN Cars_&_Transportation TOKEN
-0.016116979392300834206253057345748 2:0 3:3 4:0 5:1 7:0 8:1 4889:1 # 20140617094029AAZ1FwJ bed NN Family_&_Relationships TOKEN
-0.016430469034430739139196475662175 2:0 3:3 4:0 5:1 7:0 8:1 1583:1 # 20140612080629AAuyjlx run NN Health TOKEN
-0.016499990390432373033036128617823 2:0 3:3 4:0 5:1 7:0 8:1 4719:1 # 20140615120927AAPeVv5 dad NN Sports TOKEN
-0.016477195857525828159850789234042 2:0 3:3 4:0 5:1 7:0 8:1 1603:1 # 20140603115526AAQmGXN fun NN Cars_&_Transportation TOKEN
-0.015742003436319595977010976639576 2:0 3:3 4:0 5:1 7:0 8:1 11218:1 # 20140610123048AAZOuhW bus NN Politics_&_Government TOKEN
-0.017657911354353371391479043950312 2:0 3:3 4:0 5:1 7:0 20:1 542:1 # 20140605200359AAgJgxT try VBG Pregnancy_&_Parenting TOKEN
-0.016496269901758786602385953301564 2:0 3:3 4:0 5:1 7:0 8:1 9210:1 # 20140618180738AANfMh9 nfl NN Sports TOKEN
-0.015529325548925498878816142678261 2:0 3:1 4:0 5:1 7:0 8:1 896:1 # 20140610112505AAhGjYL u NN Dining_Out TOKEN
-0.0037447511486101703326312417630106 2:0 3:1 4:1 5:0 7:1 15:1 1779:1 # 20140601115304AAcEyR8 P . Social_Science TOKEN
-0.01722762395368704346765298396349 2:0 3:6 4:0 5:1 7:0 20:1 9127:1 # 20140626150225AAeTpqG fishin VBG Sports TOKEN
-0.016083390182261559503418268946007 2:0 3:11 4:0 5:1 7:0 20:1 8392:1 # 20140612233010AAQv1vu long#medium VBG Beauty_&_Style TOKEN
-0.01644234807696420830325223505497 2:0 3:3 4:0 5:1 7:0 8:1 2752:1 # 20140606032555AA8mCFY tax NN Politics_&_Government TOKEN
-0.01641394003702772996788894488418 2:0 3:3 4:0 5:1 7:0 8:1 4124:1 # 20140607141649AANF6Tv cpu NN Consumer_Electronics TOKEN
-0.015597946096344739164152315424872 2:0 3:3 4:0 5:1 7:0 8:1 10925:1 # 20140603235141AAdqnjl sti NN Cars_&_Transportation TOKEN
-0.014915185011250553515083083766513 2:0 3:12 4:0 5:1 7:0 8:1 7309:1 # 20140618095228AAKVjIw acceleration NN Science_&_Mathematics TOKEN
-0.016476253013015695891851919441251 2:0 3:3 4:0 5:1 7:0 8:1 2300:1 # 20140605195407AAKcWWL guy NN Local_Businesses TOKEN
-0.20394516796236164535294221877848 2:0 3:4 4:1 5:0 7:0 73:1 5654:1 # 20140617015321AAEmy38 U.S. NNP Politics_&_Government TOKEN
-0.19848667891224591741661242849659 2:0 3:3 4:0 5:1 7:0 73:1 4242:1 # 20140609063130AAx8NAT 3rd NNP Computer_&_Internet TOKEN
-0.19837525176261694426216308784205 2:0 3:3 4:0 5:1 7:0 73:1 4194:1 # 20140607141649AANF6Tv 15t NNP Consumer_Electronics TOKEN
-0.016413940037025731566444619602407 2:0 3:3 4:0 5:1 7:0 8:1 7958:1 # 20140618024923AAR6gIm bat NN Science_&_Mathematics TOKEN
-0.016433573802654422024716041050851 2:0 3:3 4:0 5:1 7:0 8:1 951:1 # 20140619072135AAeFu7N let NN Politics_&_Government TOKEN
-0.016489033935741304048860911279917 2:0 3:3 4:0 5:1 7:0 8:1 8189:1 # 20140606145613AArNENe oil NN Cars_&_Transportation TOKEN
-0.00033458462995300530806730421318207 2:0 3:4 4:0 5:0 7:1 73:1 7003:1 # 20140625193758AANDcbj Tail NNP Games_&_Recreation TOKEN
-0.015833645420352482346970646176487 2:0 3:3 4:0 5:1 7:0 8:1 5508:1 # 20140617041235AAokv04 pop NN Entertainment_&_Music TOKEN
-0.25558297252316819481166021432728 2:0 3:1 4:1 5:0 7:1 73:1 429:1 # 20140604203617AAQJuGv A NNP Games_&_Recreation TOKEN
0.5 2:0 3:4 4:0 5:1 7:0 8:1 8995:1 # 20140601162630AAuDjDG pepe NN Sports PERSON
-0.19834489400567711925305047770962 2:0 3:3 4:0 5:1 7:0 73:1 5353:1 # 20140615004107AA0Il4W aka NNP Travel TOKEN
-0.016439214062785811876210573245771 2:0 3:3 4:0 5:1 7:0 8:1 10725:1 # 20140611152558AA4un22 cca NN Cars_&_Transportation TOKEN
-0.016428538401449088723893510177732 2:0 3:3 4:0 5:1 7:0 8:1 8997:1 # 20140625082631AAcgyMl lie NN Politics_&_Government TOKEN
-0.01644462377009681119943707017228 2:0 3:3 4:0 5:1 7:0 8:1 8400:1 # 20140606175359AAkwiJH lip NN Beauty_&_Style TOKEN
-0.016326768840956573658473871546448 2:0 3:3 4:0 5:1 7:0 8:1 376:1 # 20140604131630AAZXrpw see NN Business_&_Finance TOKEN
-0.015993354898403699948516987205949 2:0 3:3 4:0 5:1 7:0 8:1 9519:1 # 20140615120927AAPeVv5 tag NN Sports TOKEN
-0.016087148290419600593637028396188 2:0 3:3 4:0 5:1 7:0 8:1 5133:1 # 20140622210819AARJGLW zip NN Entertainment_&_Music TOKEN
-0.010802995008491356188073950761463 2:0 3:3 4:0 5:1 7:0 8:1 236:1 # 20140607110538AAO6Auo use NN Computer_&_Internet TOKEN
-0.016471804711606807813950581476092 2:0 3:3 4:0 5:1 7:0 8:1 1103:1 # 20140609122525AAYu0rC man NN Travel TOKEN
-0.015209959384585580721704900497571 2:0 3:3 4:0 5:1 7:0 8:1 3869:1 # 20140626112013AAPPVIB pic NN Consumer_Electronics TOKEN
-0.015209959384581583918816249934025 2:0 3:3 4:0 5:1 7:0 8:1 1834:1 # 20140617164024AABuVO8 tap NN Food_&_Drink TOKEN
-0.25558297252324191362049532472156 2:0 3:1 4:1 5:0 7:1 17:1 73:1 # 20140603115526AAQmGXN I NNP Cars_&_Transportation TOKEN
-0.01642451825184754188313718259451 2:0 3:3 4:0 5:1 7:0 8:1 2527:1 # 20140612050152AA6IWUg no. NN Business_&_Finance TOKEN
-0.016432492040745927397438208572567 2:0 3:3 4:0 5:1 7:0 8:1 3500:1 # 20140612231240AAb6Jgs uot NN Consumer_Electronics TOKEN
-0.00068938890661668361659053516632412 2:0 3:3 4:0 5:0 7:1 73:1 465:1 # 20140622080843AAfcL4m Btw NNP Pets TOKEN
-0.016490807965454656880410766461864 2:0 3:3 4:0 5:1 7:0 8:1 11205:1 # 20140616160015AAkjHsB ham NN Dining_Out TOKEN
-0.016477195857533821765628090361133 2:0 3:3 4:0 5:1 7:0 8:1 10423:1 # 20140611152558AA4un22 rev NN Cars_&_Transportation TOKEN
-0.01641929187841606463393873127643 2:0 3:3 4:0 5:1 7:0 8:1 2827:1 # 20140601093053AA6zdEg law NN Business_&_Finance TOKEN
-0.19391966229663637477642623707652 2:0 3:3 4:0 5:0 7:1 61:1 19301:1 # 20140621192007AAsQBSf Vid NNPS Pregnancy_&_Parenting TOKEN
-0.016147317052667392589526684787415 2:0 3:3 4:0 5:1 7:0 8:1 2776:1 # 20140601185015AAA7Bes max NN Pets TOKEN
-0.015277660011441873688653458884801 2:0 3:3 4:0 5:1 7:0 8:1 12998:1 # 20140622225954AAAlKMt goi NN Local_Businesses TOKEN
-0.016101823495885625447954225819558 2:0 3:3 4:0 5:1 7:0 8:1 12983:1 # 20140622225954AAAlKMt loi NN Local_Businesses TOKEN
-0.01644310982070606996785500086844 2:0 3:3 4:0 5:1 7:0 8:1 3764:1 # 20140620063230AAXLo9n cup NN Food_&_Drink TOKEN
-0.0054854911435464615010459965560585 2:0 3:3 4:0 5:1 7:0 8:1 236:1 # 20140618194342AAqG5NH use NN Family_&_Relationships TOKEN
-0.19837931957053456244466360658407 2:0 3:2 4:0 5:1 7:0 73:1 136:1 # 20140613214814AARwXS4 as NNP Local_Businesses TOKEN
-0.016288486152041814492008597881068 2:0 3:3 4:0 5:1 7:0 8:1 557:1 # 20140605195407AAKcWWL any NN Local_Businesses TOKEN
-0.016476253013015251802642069378635 2:0 3:3 4:0 5:1 7:0 8:1 9397:1 # 20140614220006AA90c02 mag NN Sports TOKEN
-0.016500003149893416320992400869727 2:0 3:3 4:0 5:1 7:0 8:1 2035:1 # 20140617075804AAbhubH eye NN Pregnancy_&_Parenting TOKEN
-0.016486647329612580392677045892924 2:0 3:3 4:0 5:1 7:0 8:1 1821:1 # 20140623193424AAEouJN fit NN Computer_&_Internet TOKEN
-0.015883586515935910199459613068029 2:0 3:3 4:0 5:1 7:0 8:1 2792:1 # 20140613154011AAJ98M9 fix NN Politics_&_Government TOKEN
-0.029581850300065271053284732261091 2:0 3:3 4:0 5:0 7:1 30:1 5221:1 # 20140614004826AAWj9IB Off IN Entertainment_&_Music TOKEN
-0.016442348076963320124832534929737 2:0 3:3 4:0 5:1 7:0 8:1 5707:1 # 20140621125811AAzEWHP pet NN Pets TOKEN
-0.016490634560053507584598264656961 2:0 3:3 4:0 5:1 7:0 8:1 6910:1 # 20140611144551AAguC6x bin NN Games_&_Recreation TOKEN
-0.016494764510703419091441901400685 2:0 3:3 4:0 5:1 7:0 8:1 15333:1 # 20140607125905AA2JtXv yea NN Politics_&_Government TOKEN
-0.016490634560128114571853075176477 2:0 3:3 4:0 5:1 7:0 8:1 10712:1 # 20140611152558AA4un22 maf NN Cars_&_Transportation TOKEN
-0.016490807965476861340903269592673 2:0 3:3 4:0 5:1 7:0 8:1 6529:1 # 20140608120927AA1JZcv arm NN Travel TOKEN
-0.19859258567013959861924377037212 2:0 3:2 4:0 5:1 7:0 73:1 154:1 # 20140625120602AAXWOm0 to NNP Science_&_Mathematics TOKEN
-0.19852006213811435042515540772001 2:0 3:2 4:0 5:1 7:0 73:1 416:1 # 20140617015321AAEmy38 so NNP Politics_&_Government TOKEN
-0.19860321389027313365716054249788 2:0 3:2 4:0 5:1 7:0 73:1 76:1 # 20140605225754AA2LJWC do NNP Consumer_Electronics TOKEN
-0.016419368827547201061811676936486 2:0 3:3 4:0 5:1 7:0 8:1 878:1 # 20140618152135AAfsqHx fan NN Dining_Out TOKEN
-0.016230323961174519808992045000196 2:0 3:3 4:0 5:1 7:0 8:1 1262:1 # 20140606231225AAaaTGf kid NN Social_Science TOKEN
-0.016131633684927093597138991754036 2:0 3:3 4:0 5:1 7:0 8:1 10871:1 # 20140601122025AA5ROAo pot NN Family_&_Relationships TOKEN
-0.016352361400318926598629332147539 2:0 3:3 4:0 5:1 7:0 8:1 2893:1 # 20140611152642AAd7nNQ pin NN Pets TOKEN
-0.016327579806537539930388902575942 2:0 3:3 4:0 5:1 7:0 8:1 1746:1 # 20140621012549AAOo4ve box NN Arts_&_Humanities TOKEN
-0.016176681247158875009972689440474 2:0 3:3 4:0 5:1 7:0 8:1 15375:1 # 20140613132938AABdKy8 ror NN Politics_&_Government TOKEN
0.5 2:0 3:5 4:0 5:1 7:0 8:1 9588:1 # 20140615224306AASdmOX james NN Sports PERSON
0.5 2:0 3:5 4:0 5:1 7:0 8:1 9567:1 # 20140615224306AASdmOX danny NN Sports PERSON
-0.25460249757518865765248960997269 2:0 3:1 4:1 5:0 7:1 73:1 3175:1 # 20140603072418AAgZjcN Y NNP Science_&_Mathematics TOKEN
0.5 2:0 3:5 4:0 5:1 7:0 8:1 7374:1 # 20140606132641AA7YK9b yahoo NN Yahoo!_Products ORGANIZATION
0.5 2:0 3:5 4:0 5:1 7:0 8:1 3986:1 # 20140617165924AASLrlc apple NN Consumer_Electronics ORGANIZATION
0.5 2:0 3:5 4:0 5:1 7:0 8:1 14957:1 # 20140622080843AAfcL4m gomez NN Pets PERSON
-0.016212731070942953959246324302512 2:0 3:3 4:0 5:1 7:0 8:1 12939:1 # 20140622225954AAAlKMt này NN Local_Businesses TOKEN
-0.016452953331742570242113288259134 2:0 3:3 4:0 5:1 7:0 8:1 4142:1 # 20140603020037AAlyzyA cut NN Travel TOKEN
-0.2542865732732657590986491413787 2:0 3:1 4:1 5:0 7:1 73:1 4291:1 # 20140614172231AAsQkBF U NNP Politics_&_Government TOKEN
0.5 2:0 3:5 4:0 5:1 7:0 8:1 11110:1 # 20140613111207AAD5YgE wayne NN Dining_Out PERSON
0.5 2:0 3:5 4:0 5:1 7:0 8:1 1291:1 # 20140614122338AAHL8sn canon NN Arts_&_Humanities ORGANIZATION
0.5 2:0 3:5 4:0 5:1 7:0 8:1 13881:1 # 20140617033632AAaS0SQ lohan NN News_&_Events PERSON
0.5 2:0 3:6 4:0 5:1 7:0 20:1 359:1 # 20140622080843AAfcL4m tumblr VBG Pets ORGANIZATION
0.5 2:0 3:7 4:0 5:0 7:1 73:1 8156:1 # 20140622230045AAAI6WE Zealand NNP Travel LOCATION
0.5 2:0 3:6 4:0 5:1 7:0 20:1 14023:1 # 20140601100338AAUfBLz hitler VBG News_&_Events PERSON
-0.5 2:0 3:5 4:0 5:1 7:0 8:1 3986:1 # 20140626034154AAGjZE1 apple NN Food_&_Drink TOKEN
0.5 2:0 3:5 4:0 5:1 7:0 88:1 13037:1 # 20140620172230AAfuPAg texas VB Local_Businesses LOCATION
-0.40323925172078034506739641074091 2:1 3:4 4:0 5:1 7:0 45:1 847:1 # 20140610102038AAX5RlB laid VBN Pets TOKEN
-0.5 2:1 3:9 4:0 5:0 7:0 73:1 7069:1 # 20140610162943AA8McBJ McDonalds NNP Games_&_Recreation TOKEN
0.5 2:0 3:10 4:1 5:0 7:0 73:1 3568:1 # 20140614134845AAVhWeg CYBERPOWER NNP Consumer_Electronics ORGANIZATION
0.5 2:0 3:7 4:0 5:1 7:0 88:1 12548:1 # 20140619063559AA2eks0 florida VB Home_&_Garden LOCATION
0.5 2:0 3:7 4:0 5:0 7:1 26:1 14010:1 # 20140609103954AAB6LY5 Zionist JJ News_&_Events ORGANIZATION
-0.5 2:0 3:4 4:0 5:1 7:0 26:1 13974:1 # 20140609031322AAZz3r8 east JJ Travel TOKEN
-0.19497057274229356860217876601382 2:0 3:30 4:0 5:1 7:0 73:1 9320:1 # 20140607094147AAMHfCN http:##www.watchtheboxing.net# NNP Sports TOKEN
0.5 2:0 3:4 4:0 5:0 7:1 73:1 8152:1 # 20140613180332AA3jCxr Iraq NNP News_&_Events LOCATION
0.5 2:0 3:13 4:0 5:0 7:1 73:1 8150:1 # 20140625120602AAXWOm0 Mediterranean NNP Science_&_Mathematics LOCATION
0.5 2:0 3:6 4:0 5:1 7:0 8:1 8749:1 # 20140621092416AArsE0s brazil NN Social_Science LOCATION
0.5 2:0 3:6 4:0 5:1 7:0 8:1 1441:1 # 20140604163858AAhNFOq google NN Cars_&_Transportation ORGANIZATION
-0.5 2:0 3:3 4:1 5:0 7:0 73:1 18052:1 # 20140617213812AAnm3nS WDW NNP Travel TOKEN
0.5 2:0 3:7 4:0 5:0 7:1 73:1 13738:1 # 20140612075720AAmNq58 Supreme NNP News_&_Events ORGANIZATION
-0.0081411053028830338007537648081779 2:1 3:2 4:1 5:0 7:0 73:1 9433:1 # 20140623022611AAddTaJ VS NNP Sports TOKEN
0.5 2:0 3:9 4:0 5:1 7:0 26:1 1875:1 # 20140614170630AA1o9BQ corporate JJ Politics_&_Government ORGANIZATION
0.5 2:0 3:11 4:0 5:1 7:0 8:1 15600:1 # 20140617203723AAnMv8x brotherhood NN Politics_&_Government ORGANIZATION
0.5 2:0 3:10 4:1 5:0 7:0 73:1 3568:1 # 20140614134845AAVhWeg CYBERPOWER NNP Consumer_Electronics ORGANIZATION
-0.5 2:0 3:4 4:0 5:1 7:0 26:1 13974:1 # 20140601100338AAUfBLz east JJ News_&_Events TOKEN
-0.5 2:0 3:5 4:0 5:1 7:0 8:1 3986:1 # 20140626034154AAGjZE1 apple NN Food_&_Drink TOKEN
-0.034501691968016778844230429967865 2:0 3:3 4:0 5:1 7:0 710:1 4405:1 # 20140604153959AAylnd6 etc FW Games_&_Recreation TOKEN
-0.033404662042635570318172000270351 2:0 3:3 4:0 5:1 7:0 710:1 9871:1 # 20140615230550AAzCluq pro FW Computer_&_Internet TOKEN
-0.10437179534873441966169593797531 2:0 3:4 4:0 5:0 7:1 8:1 1445:1 # 20140604115540AAQrGu2 Look NN Travel TOKEN
0.5 2:0 3:3 4:0 5:1 7:0 24:1 25:1 # 20140605040256AAru12G the DT Entertainment_&_Music PERSON
-0.38147563499561493172151926955848 2:0 3:3 4:0 5:0 7:0 204:1 2700:1 # 20140620035947AAeYEbM 1#2 CD Local_Businesses TOKEN
-0.5 2:1 3:7 4:0 5:0 7:1 73:1 3502:1 # 20140608001904AAVKEC5 Windows NNP Computer_&_Internet TOKEN
0.5 2:0 3:9 4:0 5:0 7:0 26:1 19499:1 # 20140609172302AAjgqUA non-Yahoo JJ Yahoo!_Products ORGANIZATION
0.5 2:0 3:8 4:0 5:1 7:0 26:1 7068:1 # 20140606032555AA8mCFY american JJ Politics_&_Government ORGANIZATION
0.5 2:0 3:7 4:0 5:1 7:0 26:1 7383:1 # 20140614114159AAxmnir western JJ Travel LOCATION
0.5 2:0 3:10 4:0 5:1 7:0 8:1 2204:1 # 20140614170630AA1o9BQ government NN Politics_&_Government ORGANIZATION
0.5 2:0 3:3 4:0 5:0 7:1 73:1 5559:1 # 20140618141409AA9yzif Ray NNP Entertainment_&_Music PERSON
0.5 2:0 3:3 4:0 5:0 7:1 73:1 19261:1 # 20140625072412AAUASEG Hun NNP Yahoo!_Products PERSON
0.5 2:0 3:3 4:0 5:0 7:1 73:1 9209:1 # 20140623022611AAddTaJ Big NNP Sports PERSON
0.5 2:0 3:3 4:0 5:0 7:1 73:1 11351:1 # 20140616143448AAdU6Ze Moe NNP Dining_Out ORGANIZATION
0.5 2:0 3:3 4:0 5:0 7:1 73:1 15512:1 # 20140617193722AA5emAo Abu NNP Politics_&_Government PERSON
0.5 2:0 3:3 4:0 5:0 7:1 73:1 9458:1 # 20140623022611AAddTaJ Jon NNP Sports PERSON
0.5 2:0 3:6 4:1 5:0 7:0 73:1 18073:1 # 20140617213812AAnm3nS DISNEY NNP Travel ORGANIZATION
0.5 2:0 3:6 4:1 5:0 7:0 73:1 8317:1 # 20140626034154AAGjZE1 LITTLE NNP Food_&_Drink PERSON
-0.10845471066989134656388671373861 2:0 3:8 4:1 5:0 7:0 73:1 19367:1 # 20140608060520AAMzqLw INTERNET NNP Yahoo!_Products TOKEN
-0.10943826056814032199326902627945 2:0 3:8 4:1 5:0 7:0 73:1 15011:1 # 20140613154011AAJ98M9 LIBERATE NNP Politics_&_Government TOKEN
-0.10873309064461525452749413034326 2:0 3:8 4:1 5:0 7:0 73:1 7793:1 # 20140612160340AAE8W0E QUESTION NNP Sports TOKEN
-0.10944953378356103712576441466808 2:0 3:8 4:1 5:0 7:0 73:1 12463:1 # 20140605130921AAXKqjH ASBESTOS NNP Home_&_Garden TOKEN
-0.0051889586314045263448768707803538 2:1 3:5 4:0 5:0 7:1 20:1 5014:1 # 20140619114039AAjxNQW Being VBG Food_&_Drink TOKEN
-0.0050061065228614864963674335740507 2:1 3:5 4:0 5:0 7:1 20:1 4002:1 # 20140617183415AA9ok49 Using VBG Consumer_Electronics TOKEN
-0.49779713271424430587330789421685 2:0 3:4 4:0 5:1 7:0 20:1 194:1 # 20140607204711AAtWX4j time VBG Local_Businesses TOKEN
0.5 2:0 3:5 4:1 5:0 7:0 73:1 14429:1 # 20140617193722AA5emAo MSNBC NNP Politics_&_Government ORGANIZATION
0.5 2:0 3:5 4:1 5:0 7:0 73:1 15732:1 # 20140608113007AAoVpt8 YAHOO NNP Politics_&_Government ORGANIZATION
-0.28557679879698683045319285156438 2:0 3:10 4:0 5:0 7:1 73:1 12532:1 # 20140619104923AAP4ZDh Simplecase NNP Home_&_Garden TOKEN
-0.10917212111058915979810990393162 2:0 3:8 4:1 5:0 7:0 73:1 4813:1 # 20140607140550AAYTiFo DRANSCOG NNP Education_&_Reference TOKEN
-0.10850015458045680905030394569621 2:0 3:8 4:1 5:0 7:0 73:1 5329:1 # 20140613124917AAp8Kiq JYP#CUBE NNP Entertainment_&_Music TOKEN
-0.10950488026597327007038984447718 2:0 3:8 4:1 5:0 7:0 73:1 13079:1 # 20140625001351AA0XSyr YOURSELF NNP Local_Businesses TOKEN
0.5 2:0 3:5 4:0 5:1 7:0 40:1 5659:1 # 20140619063559AA2eks0 south RB Home_&_Garden LOCATION
0.5 2:0 3:8 4:0 5:1 7:0 20:1 9289:1 # 20140601130859AAHxybZ martinez VBG Sports PERSON
0.10100972039035438498899566184264 2:0 3:7 4:0 5:1 7:0 20:1 3646:1 # 20140617015321AAEmy38 youtube VBG Politics_&_Government ORGANIZATION
0.5 2:0 3:11 4:0 5:0 7:0 73:1 11315:1 # 20140616143448AAdU6Ze Chick-fil-A NNP Dining_Out ORGANIZATION
0.5 2:0 3:9 4:0 5:1 7:0 8:1 3603:1 # 20140615210245AAjCZ2q microsoft NN Consumer_Electronics ORGANIZATION
0.5 2:0 3:4 4:0 5:0 7:1 73:1 11387:1 # 20140616143448AAdU6Ze Zoup NNP Dining_Out ORGANIZATION
0.5 2:0 3:9 4:0 5:1 7:0 8:1 6620:1 # 20140612080629AAuyjlx brookwood NN Health PERSON
-0.10951435421199917641388310585171 2:0 3:8 4:1 5:0 7:0 73:1 19368:1 # 20140608060520AAMzqLw EXPLORER NNP Yahoo!_Products TOKEN
0.5 2:0 3:4 4:1 5:0 7:0 73:1 9175:1 # 20140623155342AAYpGzf NCAA NNP Sports ORGANIZATION
0.5 2:0 3:5 4:0 5:0 7:1 73:1 11355:1 # 20140616143448AAdU6Ze Panda NNP Dining_Out ORGANIZATION
0.5 2:0 3:5 4:0 5:0 7:1 73:1 263:1 # 20140608034752AAWHbyf Green NNP Arts_&_Humanities PERSON
0.5 2:0 3:3 4:0 5:0 7:1 73:1 12474:1 # 20140605130921AAXKqjH Xtx NNP Home_&_Garden PERSON
0.5 2:0 3:3 4:0 5:0 7:1 73:1 14276:1 # 20140609053527AAHPrln Ian NNP News_&_Events PERSON
0.5 2:0 3:3 4:0 5:0 7:1 73:1 2656:1 # 20140609103954AAB6LY5 New NNP News_&_Events LOCATION
0.5 2:0 3:3 4:0 5:0 7:1 73:1 8845:1 # 20140614131358AALx1CD Sam NNP Beauty_&_Style PERSON
0.5 2:0 3:3 4:0 5:0 7:1 73:1 12379:1 # 20140601134625AAPRFLP Aid NNP Home_&_Garden ORGANIZATION
0.5 2:0 3:3 4:0 5:0 7:1 73:1 4312:1 # 20140619190906AAxXT6l San NNP Local_Businesses LOCATION
0.5 2:0 3:3 4:0 5:0 7:1 73:1 9479:1 # 20140613182418AAAZN2I Zeb NNP Sports PERSON
0.5 2:0 3:3 4:0 5:0 7:1 73:1 11362:1 # 20140616143448AAdU6Ze Hut NNP Dining_Out ORGANIZATION
-0.034414299661304992294930116258911 2:0 3:4 4:0 5:1 7:0 710:1 2047:1 # 20140625035457AAwYqoP etc. FW Games_&_Recreation TOKEN
-0.034414299661304340038903148979443 2:0 3:4 4:0 5:1 7:0 710:1 3234:1 # 20140610083106AA7AAUT i.e. FW Dining_Out TOKEN
0.5 2:0 3:5 4:0 5:0 7:1 8:1 5440:1 # 20140616143448AAdU6Ze Juice NN Dining_Out ORGANIZATION
0.5 1:1 2:0 3:4 4:0 5:0 6:1 7:1 # 20140608034752AAWHbyf Will MD Arts_&_Humanities PERSON
0.5 2:1 3:5 4:0 5:0 7:1 73:1 9342:1 # 20140616154757AA3uubn Armed NNP News_&_Events ORGANIZATION
-0.13980332843943799048247456084937 2:0 3:17 4:0 5:0 7:0 73:1 4472:1 # 20140618125641AAGkGpi November#December NNP Education_&_Reference TOKEN
0.5 2:1 3:5 4:0 5:0 7:1 73:1 10357:1 # 20140620180056AARv7Hs Mises NNP Social_Science PERSON
0.5 2:0 3:6 4:0 5:0 7:1 73:1 5860:1 # 20140617033632AAaS0SQ Justin NNP News_&_Events PERSON
-0.014268654692478732748384118167451 2:0 3:13 4:0 5:1 7:0 8:1 19404:1 # 20140619012658AAFU8Pz visualization NN Yahoo!_Products TOKEN
0.5 2:0 3:5 4:0 5:0 7:1 73:1 7488:1 # 20140610080957AAEwFfP Yahoo NNP Yahoo!_Products ORGANIZATION
0.5 2:0 3:5 4:0 5:0 7:1 73:1 1692:1 # 20140609170145AAsvd80 India NNP Politics_&_Government LOCATION
0.5 2:0 3:7 4:0 5:1 7:0 8:1 13781:1 # 20140616154757AA3uubn britain NN News_&_Events LOCATION
0.5 2:0 3:7 4:0 5:0 7:0 73:1 3594:1 # 20140625171723AAQIRte YouTube NNP Computer_&_Internet ORGANIZATION
-0.28726985607186605875540408305824 2:0 3:2 4:0 5:0 7:1 73:1 12959:1 # 20140622225954AAAlKMt Ho NNP Local_Businesses TOKEN
0.5 2:0 3:10 4:0 5:1 7:0 8:1 8927:1 # 20140615190410AAmWDg3 wristwatch NN Sports PERSON
0.5 2:0 3:3 4:0 5:0 7:1 73:1 11343:1 # 20140616143448AAdU6Ze Lee NNP Dining_Out ORGANIZATION
0.5 2:0 3:3 4:0 5:0 7:1 73:1 15781:1 # 20140611151627AAmAEbQ Ted NNP Politics_&_Government PERSON
-0.41400215799241668612751254840987 2:1 3:7 4:0 5:1 7:0 8:1 7296:1 # 20140617075804AAbhubH googled NN Pregnancy_&_Parenting TOKEN
0.5 2:0 3:9 4:1 5:0 7:0 73:1 13026:1 # 20140610194612AA31tgA ENGLEWOOD NNP Local_Businesses LOCATION
-0.19867813445941528982530144276097 2:0 3:1 4:0 5:1 7:0 73:1 3471:1 # 20140622093907AASVTkE t NNP Business_&_Finance TOKEN
-0.1395642478026990485062697189278 2:0 3:14 4:0 5:0 7:0 73:1 1571:1 # 20140603115701AA0IaWS Fanfiction.net NNP Arts_&_Humanities TOKEN
-0.13935963865221506763347747437365 2:0 3:14 4:0 5:0 7:0 73:1 12094:1 # 20140619114039AAjxNQW Laws#Spiritual NNP Food_&_Drink TOKEN
-0.13964477540803135746649843440537 2:0 3:14 4:0 5:0 7:0 73:1 3698:1 # 20140617123215AAwmmE0 Stan_Marsh1000 NNP Consumer_Electronics TOKEN
-0.017574849205183262768059648806229 2:0 3:4 4:0 5:1 7:0 20:1 4884:1 # 20140613121148AAUGduQ grow VBG Social_Science TOKEN
0.5 2:1 3:8 4:0 5:0 7:1 73:1 11053:1 # 20140601101734AAAYp2K Brenners NNP Dining_Out ORGANIZATION
0.5 2:0 3:6 4:0 5:1 7:0 8:1 2071:1 # 20140625193136AAUePpR stoker NN Arts_&_Humanities PERSON
0.5 2:1 3:8 4:0 5:0 7:1 73:1 15513:1 # 20140617193722AA5emAo Khattala NNP Politics_&_Government PERSON
0.5 2:0 3:5 4:1 5:0 7:0 73:1 13972:1 # 20140613111831AABRhzn COBRA NNP News_&_Events ORGANIZATION
0.5 2:0 3:5 4:1 5:0 7:0 73:1 14379:1 # 20140613180332AA3jCxr ISISL NNP News_&_Events ORGANIZATION
0.5 2:0 3:4 4:1 5:0 7:0 73:1 3768:1 # 20140605225754AA2LJWC ESPN NNP Consumer_Electronics ORGANIZATION
0.5 2:0 3:9 4:0 5:1 7:0 26:1 1875:1 # 20140614170630AA1o9BQ corporate JJ Politics_&_Government ORGANIZATION
0.5 2:0 3:7 4:0 5:1 7:0 26:1 2720:1 # 20140611170153AAHPuYj scarlet JJ Education_&_Reference PERSON
0.5 2:1 3:8 4:0 5:0 7:1 73:1 11040:1 # 20140616141511AAlZZIn Carmines NNP Dining_Out LOCATION
0.5 2:0 3:4 4:1 5:0 7:0 73:1 15255:1 # 20140605231104AAm8fzJ EBAY NNP Politics_&_Government ORGANIZATION
0.5 2:0 3:4 4:1 5:0 7:0 73:1 13985:1 # 20140626101740AADAK0e ISIS NNP Politics_&_Government ORGANIZATION
-0.093085543654785704581478000818606 2:1 3:4 4:0 5:0 7:1 61:1 14007:1 # 20140609103954AAB6LY5 Jews NNPS News_&_Events TOKEN
-0.092865395605354339458870072121499 2:1 3:5 4:0 5:0 7:1 61:1 11648:1 # 20140604112329AAS36PD Foods NNPS Dining_Out TOKEN
-0.092952056543726513382353004999459 2:1 3:5 4:0 5:0 7:1 61:1 1411:1 # 20140614134845AAVhWeg Games NNPS Consumer_Electronics TOKEN
-0.092927253867894243910541263176128 2:1 3:5 4:0 5:0 7:1 61:1 10029:1 # 20140622012837AAm8vHm Males NNPS Social_Science TOKEN
-0.092680379630384557287925417767838 2:1 3:5 4:0 5:0 7:1 61:1 14117:1 # 20140617203723AAnMv8x Kurds NNPS Politics_&_Government TOKEN
0.5 2:0 3:4 4:1 5:0 7:0 73:1 8905:1 # 20140625083610AAU2r7X FIFA NNP Sports ORGANIZATION
0.5 2:0 3:4 4:1 5:0 7:0 73:1 11304:1 # 20140616143448AAdU6Ze A&W; NNP Dining_Out ORGANIZATION
0.5 2:0 3:13 4:0 5:0 7:1 73:1 8150:1 # 20140625120602AAXWOm0 Mediterranean NNP Science_&_Mathematics LOCATION
0.5 2:0 3:11 4:0 5:0 7:1 73:1 13821:1 # 20140611151627AAmAEbQ Afghanistan NNP Politics_&_Government LOCATION
0.5 2:0 3:11 4:0 5:0 7:1 73:1 15695:1 # 20140614170630AA1o9BQ Brotherhood NNP Politics_&_Government ORGANIZATION
0.5 2:0 3:7 4:0 5:1 7:0 8:1 7797:1 # 20140605081144AAuazx4 michael NN Science_&_Mathematics PERSON
-0.2871054424914749603203745209612 2:0 3:2 4:0 5:0 7:1 73:1 7204:1 # 20140613202053AAONeF7 Hm NNP Games_&_Recreation TOKEN
0.5 2:0 3:6 4:0 5:1 7:0 26:1 5214:1 # 20140615171734AAd4Cuo virgin JJ Yahoo!_Products PERSON
-0.091310336101022571142493688967079 2:0 3:11 4:0 5:0 7:1 26:1 5612:1 # 20140610222206AAaaj3T Alternative JJ News_&_Events TOKEN
0.5 2:0 3:9 4:0 5:0 7:0 73:1 791:1 # 20140617074422AANUT7h DuMaurier NNP Arts_&_Humanities PERSON
0.5 2:0 3:11 4:0 5:0 7:1 73:1 11382:1 # 20140616143448AAdU6Ze Whataburger NNP Dining_Out ORGANIZATION
0.5 2:0 3:7 4:0 5:1 7:0 8:1 15221:1 # 20140610123048AAZOuhW taliban NN Politics_&_Government ORGANIZATION
0.5 2:0 3:7 4:0 5:1 7:0 8:1 13566:1 # 20140617033632AAaS0SQ lindsay NN News_&_Events PERSON
-0.016291298422714428628665928044938 2:0 3:5 4:0 5:1 7:0 8:1 7476:1 # 20140601190018AAbNBjr angle NN Science_&_Mathematics TOKEN
0.49836305172396178075899797477177 2:0 3:6 4:0 5:0 7:1 73:1 2118:1 # 20140615100226AACLhyS Amazon NNP Home_&_Garden ORGANIZATION
0.5 2:0 3:7 4:0 5:1 7:0 8:1 5072:1 # 20140616190348AA6nheU walmart NN Dining_Out ORGANIZATION
0.5 2:0 3:7 4:0 5:1 7:0 8:1 11079:1 # 20140616143448AAdU6Ze chicken NN Dining_Out ORGANIZATION
0.5 2:0 3:5 4:0 5:1 7:0 20:1 15566:1 # 20140603004555AAv1K5X steve VBG Politics_&_Government PERSON
-0.18526647902015014324206276796758 2:1 3:5 4:0 5:0 7:1 73:1 10885:1 # 20140614231842AApn3VH Rules NNP Cars_&_Transportation TOKEN
0.5 2:0 3:7 4:0 5:1 7:0 8:1 18308:1 # 20140622230045AAAI6WE zealand NN Travel LOCATION
-0.5 2:1 3:7 4:0 5:0 7:1 73:1 3502:1 # 20140608132523AAWfvBH Windows NNP Computer_&_Internet TOKEN
0.5 2:0 3:7 4:0 5:1 7:0 8:1 13063:1 # 20140615091428AA1nGW3 niagara NN Local_Businesses LOCATION
0.5 2:0 3:6 4:0 5:1 7:0 8:1 15567:1 # 20140603004555AAv1K5X balmer NN Politics_&_Government PERSON
0.5 2:0 3:6 4:0 5:1 7:0 8:1 12812:1 # 20140610174552AAptb2t lsland NN Local_Businesses LOCATION
0.5 2:0 3:4 4:1 5:0 7:0 73:1 785:1 # 20140625193136AAUePpR H.P. NNP Arts_&_Humanities PERSON
-0.13489758744885715913142121280544 2:0 3:63 4:0 5:0 7:0 73:1 19431:1 # 20140609172302AAjgqUA https:##io.help.yahoo.com#contact#index?page=home&locale;=en_US NNP Yahoo!_Products TOKEN
-0.1092858455078192791987135024101 2:0 3:8 4:1 5:0 7:0 73:1 12047:1 # 20140626034154AAGjZE1 SECONDLY NNP Food_&_Drink TOKEN
-0.10944137890985006222877018444706 2:0 3:8 4:1 5:0 7:0 73:1 8673:1 # 20140613083238AAZnREA HAHHAHAH NNP Beauty_&_Style TOKEN
0.5 2:0 3:6 4:0 5:0 7:1 8:1 11349:1 # 20140616143448AAdU6Ze Silver NN Dining_Out ORGANIZATION
0.5 2:0 3:6 4:0 5:1 7:0 8:1 8740:1 # 20140612145554AAjlhJX europe NN Beauty_&_Style LOCATION
0.5 2:0 3:6 4:0 5:1 7:0 8:1 5586:1 # 20140605040256AAru12G maiden NN Entertainment_&_Music PERSON
0.5 2:0 3:6 4:0 5:1 7:0 8:1 9335:1 # 20140609172302AAjgqUA canada NN Yahoo!_Products LOCATION
0.5 2:0 3:6 4:0 5:1 7:0 8:1 2072:1 # 20140613111831AABRhzn middle NN News_&_Events LOCATION
0.5 2:0 3:5 4:0 5:0 7:1 73:1 9317:1 # 20140616143448AAdU6Ze Jimmy NNP Dining_Out ORGANIZATION
0.5 2:0 3:4 4:1 5:0 7:0 73:1 4319:1 # 20140610062626AA46ms6 GCSE NNP Education_&_Reference ORGANIZATION
0.5 2:0 3:4 4:1 5:0 7:0 73:1 5654:1 # 20140606075218AAmnm1s U.S. NNP Entertainment_&_Music LOCATION
-0.017463781356183205595300478307763 2:0 3:4 4:0 5:1 7:0 20:1 12549:1 # 20140621125811AAzEWHP liek VBG Pets TOKEN
0.5 2:0 3:8 4:0 5:0 7:0 73:1 11334:1 # 20140616143448AAdU6Ze In-N-Out NNP Dining_Out ORGANIZATION
-0.01511857010321193683921592310071 2:0 3:12 4:0 5:1 7:0 8:1 12206:1 # 20140623064647AA1AeLu intoxication NN Food_&_Drink TOKEN
0.5 2:0 3:6 4:0 5:1 7:0 8:1 18077:1 # 20140615020333AAAIUUW disney NN Travel ORGANIZATION
-0.10897032648316717917680307436967 2:0 3:10 4:1 5:0 7:0 73:1 19051:1 # 20140620170402AA0uGdu DISCIPLINE NNP Pregnancy_&_Parenting TOKEN
-0.10916924100737368519276060396805 2:0 3:10 4:1 5:0 7:0 73:1 6426:1 # 20140601022509AAalkZo EVERYTHING NNP Health TOKEN
-0.004901316676331868293914340029005 2:0 3:3 4:0 5:1 7:0 43:1 19311:1 # 20140606132641AA7YK9b sux VBP Yahoo!_Products TOKEN
0.5 2:0 3:6 4:0 5:1 7:0 8:1 6484:1 # 20140610094552AAK4gFS palmer NN Health PERSON
0.5 2:0 3:6 4:0 5:1 7:0 8:1 14956:1 # 20140622080843AAfcL4m selena NN Pets PERSON
-0.10910138348450293399594102083938 2:0 3:10 4:1 5:0 7:0 73:1 8513:1 # 20140606094425AAJm5yJ MARSHBADGE NNP Beauty_&_Style TOKEN
-0.13536163325813385660545407063182 2:0 3:56 4:0 5:0 7:0 73:1 19397:1 # 20140606090914AA45noC https:##help.yahoo.com#kb#mail-app-for-ios#SLN14676.html NNP Yahoo!_Products TOKEN
-0.10933143395461186742068093735725 2:0 3:9 4:1 5:0 7:0 73:1 3969:1 # 20140607132455AAfiY8G TX-L32E6B NNP Consumer_Electronics TOKEN
-0.10860488245925925543389212180045 2:0 3:9 4:1 5:0 7:0 73:1 18554:1 # 20140608132523AAWfvBH PC3-12800 NNP Computer_&_Internet TOKEN
0.5 2:0 3:5 4:0 5:1 7:0 8:1 3986:1 # 20140617165924AASLrlc apple NN Consumer_Electronics ORGANIZATION
-0.1858334619070489690528802384506 2:1 3:5 4:0 5:0 7:1 73:1 11434:1 # 20140623072617AAIXida Kings NNP Dining_Out TOKEN
-0.18574441285295328896154387621209 2:1 3:5 4:0 5:0 7:1 73:1 6325:1 # 20140607184915AAytW6g Women NNP Social_Science TOKEN
-0.18534526508509496789400827765348 2:1 3:5 4:0 5:0 7:1 73:1 8232:1 # 20140622013948AAZujJH Watts NNP Science_&_Mathematics TOKEN
-0.18570366340037802732609861777746 2:1 3:5 4:0 5:0 7:1 73:1 5705:1 # 20140615112034AAukyhJ Whats NNP Science_&_Mathematics TOKEN
-0.18561820487427205250696715665981 2:1 3:5 4:0 5:0 7:1 73:1 3557:1 # 20140614134845AAVhWeg Cards NNP Consumer_Electronics TOKEN
-0.092870197888807126673782477155328 2:1 3:6 4:0 5:0 7:1 61:1 3945:1 # 20140603005221AAThPnj Videos NNPS Consumer_Electronics TOKEN
-0.09279804561495352821509641216835 2:1 3:6 4:0 5:0 7:1 61:1 3796:1 # 20140613124917AAp8Kiq Points NNPS Entertainment_&_Music TOKEN
-0.092299710334288520563461588608334 2:1 3:6 4:0 5:0 7:1 61:1 11544:1 # 20140617194830AAHJTRC Whites NNPS Dining_Out TOKEN
0.5 2:0 3:7 4:0 5:0 7:0 73:1 11323:1 # 20140616143448AAdU6Ze Dunkin' NNP Dining_Out ORGANIZATION
0.5 2:0 3:7 4:0 5:0 7:0 73:1 15019:1 # 20140613154011AAJ98M9 McCaine NNP Politics_&_Government PERSON
-0.10839727638812991783456851635492 2:0 3:10 4:1 5:0 7:0 73:1 12070:1 # 20140626034154AAGjZE1 HYPERLASIA NNP Food_&_Drink TOKEN
-0.1087469825587845662084873765707 2:0 3:11 4:1 5:0 7:0 73:1 19376:1 # 20140608060520AAMzqLw INFORMATION NNP Yahoo!_Products TOKEN
0.5 2:0 3:7 4:0 5:0 7:1 73:1 802:1 # 20140605223141AA4aNVu Johnson NNP Arts_&_Humanities PERSON
-0.10915345322442249198502395302057 2:0 3:11 4:1 5:0 7:0 73:1 10764:1 # 20140609115257AAXrpdb MAINTAINECE NNP Cars_&_Transportation TOKEN
-0.10934787114099719929072307422757 2:0 3:9 4:1 5:0 7:0 73:1 4585:1 # 20140605115942AAHijoB TESL#TEFL NNP Education_&_Reference TOKEN
0.5 2:0 3:3 4:1 5:0 7:0 73:1 3927:1 # 20140619113940AAko4f7 HTC NNP Entertainment_&_Music ORGANIZATION
0.5 2:0 3:8 4:0 5:1 7:0 8:1 5833:1 # 20140613124158AAH0KXB michelle NN Entertainment_&_Music PERSON
0.5 2:0 3:8 4:0 5:1 7:0 8:1 8911:1 # 20140615190410AAmWDg3 @rolando NN Sports PERSON
0.5 2:0 3:8 4:0 5:1 7:0 8:1 5583:1 # 20140605040256AAru12G chemical NN Entertainment_&_Music PERSON
-0.015370818382166362425778061151505 2:0 3:13 4:0 5:1 7:0 8:1 3473:1 # 20140622093907AASVTkE dantheman0506 NN Business_&_Finance TOKEN
-0.25460249757518771396291867858963 2:0 3:1 4:1 5:0 7:1 73:1 445:1 # 20140615190614AAf5U3D C NNP Education_&_Reference TOKEN
-0.14012012264187131971304722810601 2:0 3:16 4:0 5:0 7:0 73:1 3950:1 # 20140603005221AAThPnj transfer-Android NNP Consumer_Electronics TOKEN
-0.041511944007716294890997232869267 2:0 3:2 4:0 5:0 7:1 16:1 1538:1 # 20140613050748AAyyMmZ We PRP Health TOKEN
-0.016293569844883393216150579974055 2:0 3:5 4:0 5:1 7:0 8:1 2894:1 # 20140619110535AAA13D9 check NN Local_Businesses TOKEN
-0.10830742902554080231425359670538 2:0 3:14 4:1 5:0 7:0 73:1 15093:1 # 20140617015321AAEmy38 ROL_2014-04-28 NNP Politics_&_Government TOKEN
-0.0049407506385250599123537540435791 2:0 3:3 4:0 5:1 7:0 43:1 10307:1 # 20140617213812AAnm3nS fly VBP Travel TOKEN
-0.014553430874965744834526049089618 2:0 3:13 4:0 5:1 7:0 8:1 9379:1 # 20140614220006AA90c02 craftsmanship NN Sports TOKEN
-0.016939815710586003660864662379026 2:0 3:9 4:0 5:1 7:0 20:1 14535:1 # 20140613073945AAjr9GV frontline VBG Pets TOKEN
0.5 2:0 3:6 4:0 5:0 7:1 73:1 8540:1 # 20140617213812AAnm3nS Studio NNP Travel ORGANIZATION
-0.016624704547365531936975457938388 2:0 3:8 4:0 5:1 7:0 20:1 3516:1 # 20140607125412AAK3UlI download VBG Games_&_Recreation TOKEN
-0.0153033026969779939463478513062 2:0 3:13 4:0 5:1 7:0 8:1 2426:1 # 20140608145354AAWyj40 loan?business NN Business_&_Finance TOKEN
-0.18495137193503125017102206584241 2:1 3:9 4:0 5:0 7:1 73:1 9039:1 # 20140623022611AAddTaJ Wrestling NNP Sports TOKEN
-0.10878089548240427175684885696683 2:0 3:8 4:1 5:0 7:0 73:1 9709:1 # 20140606084250AAVT7QA ANYTHING NNP Pregnancy_&_Parenting TOKEN
0.5 2:0 3:9 4:0 5:1 7:0 8:1 5352:1 # 20140621194648AAv7Pxb bertholdt NN Entertainment_&_Music PERSON
0.5 2:0 3:9 4:0 5:1 7:0 8:1 10238:1 # 20140609103954AAB6LY5 sociopath NN News_&_Events ORGANIZATION
-0.19868175483036587536389561137185 2:0 3:1 4:0 5:1 7:0 35:1 73:1 # 20140620190356AAdnQme a NNP Entertainment_&_Music TOKEN
0.5 2:1 3:7 4:0 5:0 7:1 73:1 3502:1 # 20140614134845AAVhWeg Windows NNP Consumer_Electronics ORGANIZATION
-0.18532687156310601039876928552985 2:1 3:8 4:0 5:0 7:1 73:1 3567:1 # 20140614134845AAVhWeg Graphics NNP Consumer_Electronics TOKEN
-0.18552233980391719114777515642345 2:1 3:8 4:0 5:0 7:1 73:1 5415:1 # 20140620190356AAdnQme Mobsters NNP Entertainment_&_Music TOKEN
-0.020129127285668957370035059284419 2:0 3:6 4:1 5:0 7:0 73:1 18265:1 # 20140609221937AAH7tge FACTOR NNP Travel TOKEN
-0.5 2:0 3:6 4:0 5:1 7:0 43:1 1441:1 # 20140616063937AAhSsrT google VBP Business_&_Finance TOKEN
0.5 2:1 3:9 4:0 5:1 7:0 12:1 8260:1 # 20140611151627AAmAEbQ engineers NNS Politics_&_Government ORGANIZATION
0.5 2:1 3:6 4:0 5:0 7:1 61:1 12443:1 # 20140607191241AAICEVB States NNPS Home_&_Garden LOCATION
-0.5 2:0 3:5 4:0 5:0 7:1 73:1 7488:1 # 20140601163915AAS8CzR Yahoo NNP Family_&_Relationships TOKEN
-0.5 2:0 3:5 4:0 5:0 7:1 73:1 1692:1 # 20140603053113AAVRR5O India NNP Local_Businesses TOKEN
0.5 2:1 3:6 4:0 5:1 7:0 8:1 5762:1 # 20140605140138AAyDVJY barros NN Entertainment_&_Music PERSON
0.5 2:1 3:4 4:1 5:0 7:0 73:1 13003:1 # 20140625100949AAuIkTO USPS NNP Local_Businesses ORGANIZATION
-0.19115997028890130415845760580851 2:0 3:64 4:0 5:1 7:0 73:1 7718:1 # 20140618201815AAmO6f1 http:##www.nysedregents.org#earthscience#114#esci12014-examw.pdf NNP Science_&_Mathematics TOKEN
0.5 2:0 3:4 4:0 5:0 7:1 73:1 8154:1 # 20140625120602AAXWOm0 Iran NNP Science_&_Mathematics LOCATION
0.49886299922243060311899398584501 2:0 3:4 4:0 5:0 7:1 73:1 13473:1 # 20140620214550AA74tKP Mike NNP News_&_Events PERSON
0.5 2:0 3:4 4:0 5:0 7:1 73:1 13979:1 # 20140614170630AA1o9BQ Bush NNP Politics_&_Government PERSON
0.5 2:0 3:7 4:0 5:1 7:0 8:1 15221:1 # 20140610123048AAZOuhW taliban NN Politics_&_Government ORGANIZATION
0.5 2:0 3:5 4:0 5:0 7:1 73:1 13960:1 # 20140601100338AAUfBLz North NNP News_&_Events LOCATION
0.5 2:0 3:5 4:0 5:0 7:1 73:1 4679:1 # 20140614170630AA1o9BQ Spain NNP Politics_&_Government LOCATION
0.5 2:0 3:5 4:0 5:0 7:1 73:1 12022:1 # 20140614170630AA1o9BQ Egypt NNP Politics_&_Government LOCATION
0.5 2:0 3:5 4:0 5:0 7:1 73:1 1716:1 # 20140616154757AA3uubn Islam NNP News_&_Events ORGANIZATION
-0.13370081063109856556181398445915 2:0 3:71 4:0 5:0 7:0 73:1 18495:1 # 20140609122525AAYu0rC https:##www.cedarpoint.com#rides#Fun-on-the-Water#The-Cedar-Point-Beach NNP Travel TOKEN
0.5 2:0 3:4 4:0 5:0 7:1 73:1 15168:1 # 20140610123048AAZOuhW Bowe NNP Politics_&_Government PERSON
0.5 2:0 3:4 4:0 5:0 7:1 73:1 8152:1 # 20140612211617AAE6Bis Iraq NNP News_&_Events LOCATION
0.5 2:0 3:5 4:0 5:0 7:1 73:1 4679:1 # 20140617195809AA0PD6g Spain NNP Sports LOCATION
-0.5 2:0 3:6 4:0 5:0 7:1 73:1 11349:1 # 20140620003333AAaN90M Silver NNP Dining_Out TOKEN
-0.5 2:0 3:7 4:0 5:0 7:0 73:1 3594:1 # 20140622080843AAfcL4m YouTube NNP Pets TOKEN
0.5 2:0 3:5 4:0 5:0 7:1 26:1 11375:1 # 20140613214814AARwXS4 Sonic JJ Local_Businesses ORGANIZATION
-0.5 2:0 3:8 4:0 5:1 7:0 8:1 5583:1 # 20140622085925AAdFLbE chemical NN Science_&_Mathematics TOKEN
-0.5 2:0 3:5 4:0 5:0 7:1 73:1 1479:1 # 20140620105746AAnOLsk Smith NNP Sports TOKEN
0.5 2:0 3:4 4:0 5:0 7:1 73:1 11587:1 # 20140605102530AA17S7s Kyle NNP Dining_Out PERSON
-0.28582523460130071502049986520433 2:0 3:5 4:0 5:0 7:1 73:1 11361:1 # 20140618202204AAODcVd Pizza NNP Food_&_Drink TOKEN
0.5 2:0 3:4 4:0 5:0 7:1 73:1 1541:1 # 20140625095108AAhxBZ2 Paul NNP Arts_&_Humanities PERSON
-0.0074530205177840147534595871547936 2:0 3:6 4:0 5:0 6:1 7:1 496:1 # 20140608094114AAxPdPq Should MD Health TOKEN
0.5 2:0 3:4 4:0 5:0 7:1 73:1 4734:1 # 20140605040256AAru12G Fall NNP Entertainment_&_Music PERSON
0.5 2:0 3:4 4:0 5:0 7:1 73:1 2510:1 # 20140626223207AABdv8w Ross NNP Business_&_Finance ORGANIZATION
0.5 2:0 3:4 4:0 5:0 7:1 73:1 11358:1 # 20140616143448AAdU6Ze Papa NNP Dining_Out ORGANIZATION
0.5 2:0 3:4 4:0 5:0 7:1 73:1 8972:1 # 20140601162630AAuDjDG Mert NNP Sports PERSON
-0.5 2:0 3:6 4:1 5:0 7:0 73:1 8317:1 # 20140614131802AAL6tJW LITTLE NNP Beauty_&_Style TOKEN
-0.5 2:0 3:5 4:0 5:0 7:1 73:1 1692:1 # 20140603053113AAVRR5O India NNP Local_Businesses TOKEN
-0.5 2:0 3:5 4:0 5:0 7:1 73:1 7488:1 # 20140601163915AAS8CzR Yahoo NNP Family_&_Relationships TOKEN
0.5 2:1 3:5 4:0 5:0 7:1 73:1 8897:1 # 20140615224306AASdmOX Spurs NNP Sports ORGANIZATION
0.5 2:1 3:5 4:0 5:0 7:1 73:1 14314:1 # 20140606223938AAjsrL7 Times NNP News_&_Events ORGANIZATION
0.5 2:1 3:5 4:0 5:0 7:1 73:1 15298:1 # 20140613140428AASx2zV Sears NNP Politics_&_Government ORGANIZATION
0.5 2:0 3:4 4:0 5:0 7:1 73:1 18436:1 # 20140618212015AAM2O4i Axis NNP Travel ORGANIZATION
0.5 2:0 3:4 4:0 5:0 7:1 73:1 9071:1 # 20140605104442AAFzzy2 Seth NNP Sports PERSON
0.5 2:0 3:4 4:0 5:0 7:1 73:1 9456:1 # 20140623022611AAddTaJ Cain NNP Sports PERSON
0.5 2:0 3:4 4:0 5:0 7:1 73:1 811:1 # 20140617074422AANUT7h Otto NNP Arts_&_Humanities PERSON
0.5 2:0 3:4 4:0 5:0 7:1 73:1 4448:1 # 20140610062626AA46ms6 Mark NNP Education_&_Reference PERSON
0.5 2:0 3:4 4:0 5:0 7:1 73:1 2023:1 # 20140616143448AAdU6Ze Long NNP Dining_Out ORGANIZATION
0.5 2:0 3:4 4:0 5:0 7:1 73:1 9412:1 # 20140611153858AAK05v1 Pete NNP Sports LOCATION
0.5 2:1 3:5 4:0 5:0 7:1 73:1 1891:1 # 20140605091638AATCTbo Carla NNP Arts_&_Humanities PERSON
0.5 2:0 3:5 4:0 5:0 7:1 73:1 19085:1 # 20140607064609AA5EKx9 Ronan NNP Pregnancy_&_Parenting PERSON
0.5 2:0 3:5 4:0 5:0 7:1 73:1 4278:1 # 20140610075021AAwlDsA Miami NNP Dining_Out LOCATION
0.5 2:0 3:5 4:0 5:0 7:1 73:1 15639:1 # 20140614170630AA1o9BQ Libya NNP Politics_&_Government LOCATION
0.5 2:0 3:5 4:0 5:0 7:1 73:1 807:1 # 20140616143448AAdU6Ze White NNP Dining_Out ORGANIZATION
0.5 2:0 3:5 4:0 5:0 7:1 73:1 14375:1 # 20140613180332AA3jCxr Lohan NNP News_&_Events PERSON
-0.5 2:0 3:5 4:0 5:0 7:1 73:1 1692:1 # 20140603053113AAVRR5O India NNP Local_Businesses TOKEN
0.5 2:1 3:3 4:1 5:0 7:0 73:1 15277:1 # 20140625082631AAcgyMl IRS NNP Politics_&_Government ORGANIZATION
0.5 2:1 3:3 4:1 5:0 7:0 73:1 14427:1 # 20140617191218AAiEBHA CBS NNP News_&_Events ORGANIZATION
0.5 2:0 3:4 4:0 5:0 7:1 73:1 4268:1 # 20140604083714AANM1Br Hill NNP Education_&_Reference LOCATION
0.5 2:0 3:5 4:0 5:0 7:1 73:1 13196:1 # 20140625034559AAH3Auf Korea NNP Family_&_Relationships LOCATION
0.5 2:0 3:3 4:0 5:0 7:1 73:1 5166:1 # 20140614004826AAWj9IB May NNP Entertainment_&_Music PERSON
0.5 2:0 3:5 4:0 5:0 7:1 73:1 18479:1 # 20140614114159AAxmnir Dhabi NNP Travel LOCATION
0.5 2:0 3:5 4:0 5:0 7:1 73:1 4452:1 # 20140615171734AAd4Cuo Jesus NNP Yahoo!_Products PERSON
0.5 2:0 3:5 4:0 5:0 7:1 73:1 18096:1 # 20140608151316AAZv17m Paris NNP Travel ORGANIZATION
0.5 2:0 3:5 4:0 5:0 7:1 73:1 2147:1 # 20140609160711AAprF2f Susan NNP Arts_&_Humanities PERSON
0.5 2:0 3:5 4:0 5:0 7:1 73:1 8895:1 # 20140611011232AAoHyfn Allen NNP Sports PERSON
-0.096250913534740689669888524804264 2:1 3:10 4:0 5:1 7:0 73:1 14809:1 # 20140610102038AAX5RlB c-sections NNP Pets TOKEN
0.5 2:0 3:5 4:0 5:0 7:1 73:1 12794:1 # 20140609111240AAvCNqw Worth NNP Local_Businesses LOCATION
0.5 2:0 3:5 4:0 5:0 7:1 73:1 14103:1 # 20140612211617AAE6Bis Qaeda NNP News_&_Events ORGANIZATION
0.5 2:0 3:5 4:0 5:0 7:1 73:1 14019:1 # 20140609103348AAf8tZ6 Allah NNP News_&_Events PERSON
0.5 2:0 3:5 4:0 5:0 7:1 73:1 9442:1 # 20140623022611AAddTaJ Frank NNP Sports PERSON
0.5 2:0 3:5 4:0 5:0 7:1 73:1 1552:1 # 20140625095108AAhxBZ2 Auden NNP Arts_&_Humanities PERSON
0.5 2:0 3:5 4:0 5:0 7:1 73:1 8925:1 # 20140615190410AAmWDg3 Patek NNP Sports PERSON
0.5 2:0 3:5 4:0 5:0 7:1 73:1 15640:1 # 20140614170630AA1o9BQ Sudan NNP Politics_&_Government LOCATION
0.5 2:0 3:5 4:0 5:0 7:1 73:1 18426:1 # 20140615004107AA0Il4W Spice NNP Travel ORGANIZATION
0.5 2:1 3:6 4:0 5:0 7:1 61:1 12443:1 # 20140610174552AAptb2t States NNPS Local_Businesses LOCATION
0.5 2:0 3:5 4:0 5:0 7:1 73:1 1692:1 # 20140609170145AAsvd80 India NNP Politics_&_Government LOCATION
-0.041626470116788910624805453153385 2:0 3:3 4:1 5:0 7:0 73:1 10716:1 # 20140611152558AA4un22 MAP NNP Cars_&_Transportation TOKEN
-0.5 2:0 3:3 4:0 5:0 7:1 73:1 4312:1 # 20140617213812AAnm3nS San NNP Travel TOKEN
0.5 2:0 3:6 4:0 5:1 7:0 43:1 1441:1 # 20140617052323AAeXK8h google VBP Cars_&_Transportation ORGANIZATION
-0.5 2:0 3:3 4:0 5:0 7:1 73:1 2656:1 # 20140623153135AAqXQHR New NNP Travel TOKEN
-0.5 2:0 3:3 4:0 5:0 7:1 73:1 4312:1 # 20140617213812AAnm3nS San NNP Travel TOKEN
-0.5 2:0 3:5 4:0 5:0 7:1 73:1 807:1 # 20140625072412AAUASEG White NNP Yahoo!_Products TOKEN
0.5 2:0 3:7 4:0 5:1 7:0 43:1 8739:1 # 20140612145554AAjlhJX america VBP Beauty_&_Style LOCATION
0.5 2:0 3:6 4:0 5:1 7:0 8:1 1441:1 # 20140617134810AAX61tb google NN Travel ORGANIZATION
-0.079745850751111846399510341143468 2:0 3:7 4:0 5:0 7:1 24:1 5546:1 # 20140603191657AA88Y0T Another DT Pets TOKEN
0.5 2:0 3:12 4:1 5:0 7:0 73:1 3558:1 # 20140614134845AAVhWeg CYBERPOWERPC NNP Consumer_Electronics ORGANIZATION
0.5 2:0 3:5 4:0 5:0 7:1 73:1 7488:1 # 20140620213457AAI59UA Yahoo NNP Computer_&_Internet ORGANIZATION
-0.5 2:1 3:5 4:0 5:0 7:1 73:1 14314:1 # 20140625210906AATgayM Times NNP News_&_Events TOKEN
-0.5 2:1 3:5 4:0 5:0 7:1 73:1 9342:1 # 20140614220006AA90c02 Armed NNP Sports TOKEN
-0.5 2:0 3:4 4:0 5:0 7:1 73:1 4268:1 # 20140609031322AAZz3r8 Hill NNP Travel TOKEN
0.5 2:0 3:7 4:0 5:1 7:0 8:1 12137:1 # 20140623173753AAUMZe3 iceland NN Food_&_Drink LOCATION
0.5 2:0 3:7 4:0 5:1 7:0 8:1 13879:1 # 20140617033632AAaS0SQ britney NN News_&_Events PERSON
0.5 2:0 3:6 4:0 5:1 7:0 8:1 1441:1 # 20140605223141AA4aNVu google NN Arts_&_Humanities ORGANIZATION
0.5 2:0 3:7 4:0 5:0 7:0 73:1 3594:1 # 20140625171723AAQIRte YouTube NNP Computer_&_Internet ORGANIZATION
0.5 2:0 3:5 4:0 5:0 7:1 73:1 807:1 # 20140616143448AAdU6Ze White NNP Dining_Out ORGANIZATION
-0.28654320926295495652880163106602 2:0 3:3 4:0 5:0 7:1 73:1 5166:1 # 20140620063230AAXLo9n May NNP Food_&_Drink TOKEN
0.5 2:0 3:5 4:0 5:0 7:1 73:1 1692:1 # 20140609112801AAnee0x India NNP Arts_&_Humanities LOCATION
-0.10396281484801850325538907782175 2:0 3:3 4:0 5:0 7:1 8:1 1527:1 # 20140616073715AA0e9si Any NN Cars_&_Transportation TOKEN
0.5 2:0 3:3 4:0 5:0 7:1 73:1 4312:1 # 20140619190906AAxXT6l San NNP Local_Businesses LOCATION
-0.5 2:0 3:3 4:0 5:0 7:1 73:1 5559:1 # 20140618215915AAruZzF Ray NNP News_&_Events TOKEN
-0.19273748342213847806192461575847 2:0 3:52 4:0 5:1 7:0 73:1 12320:1 # 20140618083118AAt93Sw http:##fyi.uwex.edu#bugbites#2012#04#10#clovermites# NNP Home_&_Garden TOKEN
-0.18555870677050589900858312830678 2:1 3:4 4:0 5:0 7:1 73:1 18310:1 # 20140606232017AAQ2iYc Days NNP Pregnancy_&_Parenting TOKEN
-0.10400167831103779292334365891293 2:0 3:3 4:0 5:0 7:1 8:1 13198:1 # 20140625034559AAH3Auf Bag NN Family_&_Relationships TOKEN
-0.10425589036154292443825397640467 2:0 3:3 4:0 5:0 7:1 8:1 5393:1 # 20140620190356AAdnQme Mob NN Entertainment_&_Music TOKEN
-0.10406115047802622086692281300202 2:0 3:3 4:0 5:0 7:1 8:1 4013:1 # 20140617183415AA9ok49 Mod NN Consumer_Electronics TOKEN
0.5 2:0 3:6 4:0 5:1 7:0 73:1 5370:1 # 20140621194648AAv7Pxb kuroko NNP Entertainment_&_Music PERSON
-0.10358721130671043331172853640965 2:0 3:8 4:0 5:0 7:1 8:1 11658:1 # 20140622183237AAlmEtx Delivery NN Dining_Out TOKEN
0.5 2:0 3:3 4:0 5:0 7:1 73:1 5559:1 # 20140618141409AA9yzif Ray NNP Entertainment_&_Music PERSON
-0.0042980340728089316826299182139337 2:0 3:7 4:0 5:1 7:0 43:1 9800:1 # 20140617194830AAHJTRC suppose VBP Dining_Out TOKEN
-0.0081374224658367355633714623763808 2:0 3:5 4:1 5:0 7:0 73:1 19104:1 # 20140608111211AAkpqtd EARLY NNP Pregnancy_&_Parenting TOKEN
0.5 2:0 3:5 4:0 5:1 7:0 20:1 15566:1 # 20140603004555AAv1K5X steve VBG Politics_&_Government PERSON
0.5 2:0 3:5 4:0 5:1 7:0 40:1 5659:1 # 20140619063559AA2eks0 south RB Home_&_Garden LOCATION
0.5 2:0 3:4 4:0 5:1 7:0 73:1 3365:1 # 20140614220309AAJTZNt ebay NNP Computer_&_Internet ORGANIZATION
-0.10406423355047733636524753819685 2:0 3:3 4:0 5:0 7:1 8:1 14027:1 # 20140601100338AAUfBLz End NN News_&_Events TOKEN
0.5 2:1 3:9 4:0 5:0 7:0 73:1 7069:1 # 20140615191331AAdpnmg McDonalds NNP Dining_Out ORGANIZATION
-0.1041061483357552663875367215951 2:0 3:4 4:0 5:0 7:1 8:1 820:1 # 20140604150422AAIDveZ Help NN Education_&_Reference TOKEN
-0.28693205965153456560301492572762 2:0 3:5 4:0 5:0 7:1 73:1 18096:1 # 20140622025924AAbvcWQ Paris NNP Travel TOKEN
0.5 2:0 3:4 4:0 5:0 7:1 73:1 15457:1 # 20140617193722AA5emAo Lois NNP Politics_&_Government PERSON
-0.10414384273098642452737294661347 2:0 3:4 4:0 5:0 7:1 8:1 1463:1 # 20140622124551AAdVqpC Name NN Local_Businesses TOKEN
0.5 2:0 3:8 4:0 5:1 7:0 8:1 5583:1 # 20140605040256AAru12G chemical NN Entertainment_&_Music PERSON
-0.5 2:0 3:4 4:0 5:0 7:1 73:1 2023:1 # 20140621143727AAOCXDZ Long NNP Pets TOKEN
-0.28525332905701361596584320068359 2:0 3:17 4:0 5:0 7:1 73:1 15026:1 # 20140613154011AAJ98M9 Wahhhhhhhhhhhhhhh NNP Politics_&_Government TOKEN
-0.5 2:0 3:4 4:0 5:0 7:1 73:1 2023:1 # 20140621143727AAOCXDZ Long NNP Pets TOKEN
0.5 2:0 3:3 4:1 5:0 7:0 73:1 11339:1 # 20140616143448AAdU6Ze KFC NNP Dining_Out ORGANIZATION
-0.18473393650538838528518681414425 2:1 3:15 4:0 5:0 7:1 73:1 19388:1 # 20140608060520AAMzqLw Troubleshooting NNP Yahoo!_Products TOKEN
0.5 2:0 3:3 4:1 5:0 7:0 73:1 14320:1 # 20140606223938AAjsrL7 NFC NNP News_&_Events ORGANIZATION
0.5 2:0 3:3 4:1 5:0 7:0 73:1 2568:1 # 20140620180056AARv7Hs USA NNP Social_Science LOCATION
0.5 2:0 3:4 4:0 5:0 7:1 73:1 1468:1 # 20140605223141AA4aNVu Ness NNP Arts_&_Humanities PERSON
0.5 2:0 3:4 4:0 5:0 7:1 73:1 9254:1 # 20140617195809AA0PD6g Real NNP Sports ORGANIZATION
-0.5 2:0 3:3 4:0 5:0 7:1 73:1 2656:1 # 20140604083714AANM1Br New NNP Education_&_Reference TOKEN
-0.5 2:0 3:4 4:1 5:0 7:0 73:1 4319:1 # 20140610102326AA3pmaG GCSE NNP Education_&_Reference TOKEN
-0.10367356001156685652020428278774 2:0 3:6 4:0 5:0 7:1 8:1 3514:1 # 20140619185107AALfFwR Anyone NN Beauty_&_Style TOKEN
-0.10407178085494783736919544026023 2:0 3:6 4:0 5:0 7:1 8:1 2936:1 # 20140621083713AAPz2WJ Stress NN Business_&_Finance TOKEN
-0.10389162414104813336734878248535 2:0 3:6 4:0 5:0 7:1 8:1 10444:1 # 20140626130807AAvZf6J Source NN Computer_&_Internet TOKEN
-0.10387983064806283195480318681803 2:0 3:6 4:0 5:0 7:1 8:1 14289:1 # 20140609053527AAHPrln Murder NN News_&_Events TOKEN
0.5 2:1 3:14 4:0 5:0 7:0 73:1 11306:1 # 20140616143448AAdU6Ze Baskin-Robbins NNP Dining_Out ORGANIZATION
-0.5 2:0 3:4 4:0 5:0 7:1 73:1 8152:1 # 20140614170630AA1o9BQ Iraq NNP Politics_&_Government TOKEN
0.5 2:0 3:5 4:0 5:0 7:1 73:1 15469:1 # 20140617193722AA5emAo Levin NNP Politics_&_Government PERSON
0.5 2:0 3:5 4:0 5:0 7:1 73:1 797:1 # 20140607064609AA5EKx9 James NNP Pregnancy_&_Parenting PERSON
0.5 2:0 3:5 4:0 5:0 7:1 73:1 10857:1 # 20140617203723AAnMv8x Obama NNP Politics_&_Government PERSON
0.5 2:0 3:5 4:0 5:0 7:1 73:1 5199:1 # 20140614004826AAWj9IB Benny NNP Entertainment_&_Music PERSON
0.5 2:0 3:5 4:0 5:0 7:1 73:1 5372:1 # 20140621194648AAv7Pxb Izaya NNP Entertainment_&_Music PERSON
0.5 2:0 3:5 4:0 5:0 7:1 73:1 11319:1 # 20140613214814AARwXS4 Dairy NNP Local_Businesses ORGANIZATION
0.5 2:0 3:5 4:0 5:0 7:1 73:1 4177:1 # 20140607141649AANF6Tv Carey NNP Consumer_Electronics PERSON
-0.28695976171117365538520971313119 2:0 3:6 4:0 5:0 7:1 73:1 11147:1 # 20140605102530AA17S7s London NNP Dining_Out TOKEN
-0.28567062130715487056065171600494 2:0 3:8 4:0 5:0 7:1 73:1 18071:1 # 20140617213812AAnm3nS Downtown NNP Travel TOKEN
-0.28698643933054768240253906697035 2:0 3:5 4:0 5:0 7:1 73:1 12906:1 # 20140605190919AAVV44J Abuse NNP Family_&_Relationships TOKEN
0.5 2:0 3:5 4:0 5:0 7:1 73:1 1692:1 # 20140618212015AAM2O4i India NNP Travel LOCATION
0.5 2:0 3:5 4:0 5:0 7:1 73:1 13946:1 # 20140626120744AAMAD0e Putin NNP News_&_Events PERSON
0.5 2:0 3:5 4:0 5:0 7:1 73:1 10984:1 # 20140603235141AAdqnjl Mazda NNP Cars_&_Transportation ORGANIZATION
0.5 2:0 3:5 4:0 5:0 7:1 73:1 3137:1 # 20140601131055AAPxhOP Texas NNP Business_&_Finance LOCATION
0.5 2:0 3:4 4:0 5:0 7:1 73:1 8152:1 # 20140614170630AA1o9BQ Iraq NNP Politics_&_Government LOCATION
0.5 2:0 3:5 4:0 5:0 7:1 73:1 18069:1 # 20140617213812AAnm3nS Epcot NNP Travel ORGANIZATION
-0.5 2:0 3:4 4:0 5:0 7:1 73:1 11587:1 # 20140605102530AA17S7s Kyle NNP Dining_Out TOKEN
0.5 2:0 3:5 4:0 5:0 7:1 73:1 807:1 # 20140617074422AANUT7h White NNP Arts_&_Humanities PERSON
0.5 2:0 3:5 4:0 5:0 7:1 73:1 5330:1 # 20140611151627AAmAEbQ Italy NNP Politics_&_Government LOCATION
-0.5 2:0 3:5 4:0 5:0 7:1 73:1 18096:1 # 20140622025924AAbvcWQ Paris NNP Travel TOKEN
0.5 2:1 3:12 4:0 5:0 7:0 73:1 814:1 # 20140617074422AANUT7h Jean-Jacques NNP Arts_&_Humanities PERSON
0.5 2:0 3:4 4:0 5:0 7:1 73:1 2023:1 # 20140616143448AAdU6Ze Long NNP Dining_Out ORGANIZATION
-0.28681573889834055535175139084458 2:0 3:6 4:0 5:0 7:1 73:1 3855:1 # 20140617194830AAHJTRC Subway NNP Dining_Out TOKEN
-0.2858294124834046545657884053071 2:0 3:6 4:0 5:0 7:1 73:1 5816:1 # 20140617112511AAZ4ux3 Remind NNP Entertainment_&_Music TOKEN
-0.28682889010001133556215791031718 2:0 3:6 4:0 5:0 7:1 73:1 743:1 # 20140607125905AA2JtXv French NNP Politics_&_Government TOKEN
-0.28684718559648203495271445717663 2:0 3:6 4:0 5:0 7:1 73:1 13823:1 # 20140616154757AA3uubn Racist NNP News_&_Events TOKEN
0.5 2:0 3:5 4:0 5:0 7:1 73:1 3599:1 # 20140615210245AAjCZ2q Adobe NNP Consumer_Electronics ORGANIZATION
0.5 2:0 3:5 4:0 5:0 7:1 73:1 8147:1 # 20140623230739AA9pP9C Syria NNP News_&_Events LOCATION
0.5 2:0 3:5 4:0 5:0 7:1 73:1 9067:1 # 20140605104442AAFzzy2 Rowen NNP Sports PERSON
0.5 2:0 3:5 4:0 5:0 7:1 73:1 9142:1 # 20140615215028AAGmoaM Cueto NNP Sports PERSON
0.5 2:0 3:5 4:0 5:0 7:1 73:1 4506:1 # 20140618125641AAGkGpi Jayne NNP Education_&_Reference PERSON
0.5 2:0 3:5 4:0 5:0 7:1 73:1 6805:1 # 20140604203617AAQJuGv Skype NNP Games_&_Recreation ORGANIZATION
0.5 2:0 3:5 4:0 5:0 7:1 73:1 5405:1 # 20140620190356AAdnQme Bugsy NNP Entertainment_&_Music PERSON
0.5 2:0 3:5 4:0 5:0 7:1 73:1 11361:1 # 20140616143448AAdU6Ze Pizza NNP Dining_Out ORGANIZATION
0.5 2:0 3:6 4:0 5:1 7:0 26:1 5214:1 # 20140615171734AAd4Cuo virgin JJ Yahoo!_Products PERSON
0.5 2:0 3:7 4:0 5:1 7:0 26:1 7383:1 # 20140614114159AAxmnir western JJ Travel LOCATION
-0.2867822247904694421549720573239 2:0 3:6 4:0 5:0 7:1 73:1 10748:1 # 20140606145613AArNENe Wrench NNP Cars_&_Transportation TOKEN
0.5 2:0 3:5 4:0 5:0 7:1 73:1 3704:1 # 20140613162418AAQFhPM Casio NNP Consumer_Electronics ORGANIZATION
0.5 2:0 3:5 4:0 5:0 7:1 73:1 13729:1 # 20140612075720AAmNq58 Bundy NNP News_&_Events PERSON
0.5 2:0 3:5 4:0 5:0 7:1 73:1 14382:1 # 20140613180332AA3jCxr Saudi NNP News_&_Events LOCATION
0.5 2:0 3:5 4:0 5:0 7:1 73:1 4393:1 # 20140619105821AAuioIb State NNP Education_&_Reference ORGANIZATION
-0.28583982215077785582479918957688 2:0 3:14 4:0 5:0 7:1 73:1 2837:1 # 20140610214206AAA5Std Discrimination NNP Business_&_Finance TOKEN
0.5 2:0 3:5 4:0 5:0 7:1 73:1 11326:1 # 20140616143448AAdU6Ze Pollo NNP Dining_Out ORGANIZATION
0.5 2:0 3:5 4:0 5:0 7:1 73:1 1479:1 # 20140605223141AA4aNVu Smith NNP Arts_&_Humanities PERSON
0.5 2:0 3:5 4:0 5:0 7:1 73:1 9569:1 # 20140615224306AASdmOX Kawhi NNP Sports PERSON
0.5 2:0 3:5 4:0 5:0 7:1 73:1 4954:1 # 20140611132742AAU8vAK Costa NNP Education_&_Reference LOCATION
-0.28681573889797817855651373974979 2:0 3:6 4:0 5:0 7:1 73:1 12768:1 # 20140615215502AAWIjLB Social NNP Local_Businesses TOKEN
-0.28610451162741473707384898261807 2:0 3:6 4:0 5:0 7:1 73:1 8956:1 # 20140606003853AAp4Kid Change NNP Sports TOKEN
-0.28689298382766814654587506083772 2:0 3:6 4:0 5:0 7:1 73:1 6138:1 # 20140604085754AAaequj Doctor NNP Social_Science TOKEN
-0.2861130518583765436346766364295 2:0 3:6 4:0 5:0 7:1 73:1 18886:1 # 20140626111642AAP80Gv Agenda NNP Computer_&_Internet TOKEN
0.5 2:0 3:5 4:0 5:0 7:1 73:1 4121:1 # 20140623104914AA6r2dE Intel NNP Computer_&_Internet ORGANIZATION
0.5 2:0 3:5 4:0 5:0 7:1 73:1 1419:1 # 20140605223141AA4aNVu Harry NNP Arts_&_Humanities PERSON
0.5 2:0 3:5 4:0 5:0 7:1 73:1 13487:1 # 20140607071218AAzGtJH Ricky NNP Family_&_Relationships PERSON
0.5 2:0 3:5 4:0 5:0 7:1 73:1 3466:1 # 20140616143448AAdU6Ze Round NNP Dining_Out ORGANIZATION
0.5 2:0 3:5 4:0 5:0 7:1 73:1 11320:1 # 20140616143448AAdU6Ze Queen NNP Dining_Out ORGANIZATION
-0.28593589981791467380389804020524 2:0 3:6 4:0 5:0 7:1 73:1 8394:1 # 20140606175359AAkwiJH Bikini NNP Beauty_&_Style TOKEN
-0.28570365242892403756513886037283 2:0 3:6 4:0 5:0 7:1 73:1 15770:1 # 20140611151627AAmAEbQ Cartel NNP Politics_&_Government TOKEN
-0.28660760491769110558379907160997 2:0 3:6 4:0 5:0 7:1 73:1 11196:1 # 20140616160015AAkjHsB Cowboy NNP Dining_Out TOKEN
-0.2856574256943397172037180098414 2:0 3:6 4:0 5:0 7:1 73:1 7837:1 # 20140605092633AAPkbBp Sketch NNP Science_&_Mathematics TOKEN
0.5 2:0 3:5 4:0 5:0 7:1 73:1 1886:1 # 20140605091638AATCTbo Maria NNP Arts_&_Humanities PERSON
0.5 2:0 3:5 4:0 5:0 7:1 73:1 15057:1 # 20140617015321AAEmy38 Perry NNP Politics_&_Government PERSON
0.5 2:0 3:5 4:0 5:0 7:1 73:1 686:1 # 20140605104442AAFzzy2 Bryan NNP Sports PERSON
0.5 2:0 3:5 4:0 5:0 7:1 73:1 2105:1 # 20140609160711AAprF2f Lloyd NNP Arts_&_Humanities PERSON
0.5 2:0 3:5 4:0 5:0 7:1 73:1 770:1 # 20140617074422AANUT7h Dante NNP Arts_&_Humanities PERSON
-0.28615418683917892561652251970372 2:0 3:6 4:0 5:0 7:1 73:1 18150:1 # 20140609031322AAZz3r8 Ceylon NNP Travel TOKEN
-0.286791912302049922800506465137 2:0 3:6 4:0 5:0 7:1 73:1 8587:1 # 20140620063230AAXLo9n Yellow NNP Food_&_Drink TOKEN
-0.28678222479090464958062511868775 2:0 3:6 4:0 5:0 7:1 73:1 2542:1 # 20140610194612AA31tgA Office NNP Local_Businesses TOKEN
-0.28568148278200095058210195020365 2:0 3:6 4:0 5:0 7:1 73:1 6103:1 # 20140605225313AAAhy4Z Autumn NNP Health TOKEN
0.5 2:0 3:5 4:0 5:0 7:1 73:1 1708:1 # 20140618212015AAM2O4i Delhi NNP Travel LOCATION
0.5 2:0 3:5 4:0 5:0 7:1 73:1 11060:1 # 20140601101734AAAYp2K Cheng NNP Dining_Out ORGANIZATION
0.5 2:0 3:5 4:0 5:0 7:1 73:1 8663:1 # 20140613083238AAZnREA Brian NNP Beauty_&_Style PERSON
0.5 2:0 3:5 4:0 5:0 7:1 73:1 9440:1 # 20140623022611AAddTaJ Brock NNP Sports PERSON
0.5 2:0 3:5 4:0 5:0 7:1 73:1 688:1 # 20140623100602AAeUxIh Blake NNP Arts_&_Humanities PERSON
0.5 2:0 3:5 4:0 5:0 7:1 73:1 7488:1 # 20140605111442AA4wyqx Yahoo NNP Science_&_Mathematics ORGANIZATION
0.5 2:0 3:4 4:0 5:0 7:1 73:1 11587:1 # 20140605102530AA17S7s Kyle NNP Dining_Out PERSON
0.5 2:0 3:4 4:0 5:0 7:1 73:1 9437:1 # 20140623022611AAddTaJ Kurt NNP Sports PERSON
0.5 2:0 3:4 4:0 5:0 7:1 73:1 15137:1 # 20140611151627AAmAEbQ Mitt NNP Politics_&_Government PERSON
0.5 2:0 3:4 4:0 5:0 7:1 73:1 11377:1 # 20140616143448AAdU6Ze Bell NNP Dining_Out ORGANIZATION
0.5 2:0 3:4 4:0 5:0 7:1 73:1 12793:1 # 20140609111240AAvCNqw Fort NNP Local_Businesses LOCATION
0.5 2:0 3:7 4:0 5:0 7:0 73:1 2570:1 # 20140611204210AAPJj1y BLS.gov NNP Business_&_Finance ORGANIZATION
0.5 2:0 3:8 4:0 5:0 7:0 73:1 9149:1 # 20140615215028AAGmoaM Hyun-Jin NNP Sports PERSON
-0.5 2:0 3:3 4:0 5:0 7:1 73:1 5166:1 # 20140605140138AAyDVJY May NNP Entertainment_&_Music TOKEN
0.5 2:0 3:6 4:0 5:0 7:0 73:1 3934:1 # 20140603005221AAThPnj HuaWei NNP Consumer_Electronics ORGANIZATION
0.5 2:0 3:6 4:0 5:0 7:0 73:1 12297:1 # 20140615100226AACLhyS C-list NNP Home_&_Garden ORGANIZATION
0.5 2:0 3:6 4:0 5:0 7:0 73:1 4145:1 # 20140607141649AANF6Tv NVidia NNP Consumer_Electronics ORGANIZATION
0.5 2:0 3:4 4:0 5:0 7:1 73:1 3932:1 # 20140603005221AAThPnj Acer NNP Consumer_Electronics ORGANIZATION
0.5 2:0 3:4 4:0 5:0 7:1 73:1 4955:1 # 20140611132742AAU8vAK Rica NNP Education_&_Reference LOCATION
0.5 2:0 3:4 4:0 5:0 7:1 73:1 2657:1 # 20140609103954AAB6LY5 York NNP News_&_Events LOCATION
0.5 2:0 3:4 4:0 5:0 7:1 73:1 11889:1 # 20140626133140AAROz72 Hati NNP Food_&_Drink LOCATION
-0.5 2:0 3:3 4:0 5:0 7:1 73:1 2656:1 # 20140609221937AAH7tge New NNP Travel TOKEN
-0.5 2:0 3:5 4:0 5:0 7:1 73:1 807:1 # 20140613125219AA2D0JF White NNP Beauty_&_Style TOKEN
0.5 2:0 3:3 4:0 5:0 7:1 73:1 2656:1 # 20140625120602AAXWOm0 New NNP Science_&_Mathematics LOCATION
-0.18556610180248855890283721237211 2:1 3:6 4:0 5:0 7:1 73:1 5152:1 # 20140619101954AAAy1Zi Crisps NNP Entertainment_&_Music TOKEN
0.5 2:1 3:8 4:0 5:0 7:1 73:1 11353:1 # 20140616143448AAdU6Ze Oberweis NNP Dining_Out ORGANIZATION
0.5 2:0 3:4 4:0 5:0 7:1 73:1 15168:1 # 20140610123048AAZOuhW Bowe NNP Politics_&_Government PERSON
-0.13503834384228152742934980778955 2:0 3:60 4:0 5:0 7:0 73:1 19387:1 # 20140608060520AAMzqLw https:##help.yahoo.com#kb#mail#SLN7188.html?impressions=true NNP Yahoo!_Products TOKEN
0.5 2:0 3:6 4:0 5:1 7:0 8:1 2071:1 # 20140625193136AAUePpR stoker NN Arts_&_Humanities PERSON
0.5 2:0 3:6 4:0 5:1 7:0 8:1 359:1 # 20140622080843AAfcL4m tumblr NN Pets ORGANIZATION
-0.5 2:0 3:5 4:0 5:0 7:1 73:1 1886:1 # 20140617195809AA0PD6g Maria NNP Sports TOKEN
-0.5 2:0 3:5 4:0 5:0 7:1 73:1 3466:1 # 20140625210906AATgayM Round NNP News_&_Events TOKEN
0.5 2:0 3:9 4:0 5:1 7:0 8:1 5352:1 # 20140621194648AAv7Pxb bertholdt NN Entertainment_&_Music PERSON
0.5 2:0 3:9 4:0 5:1 7:0 8:1 10238:1 # 20140609103954AAB6LY5 sociopath NN News_&_Events ORGANIZATION
-0.5 2:0 3:6 4:0 5:1 7:0 8:1 1441:1 # 20140607042122AAao04B google NN Yahoo!_Products TOKEN
-0.13521819362741371861602601711638 2:0 3:60 4:0 5:0 7:0 73:1 19389:1 # 20140608060520AAMzqLw https:##help.yahoo.com#kb#mail#SLN6480.html?impressions=true NNP Yahoo!_Products TOKEN
0.5 2:0 3:5 4:0 5:0 7:1 73:1 9067:1 # 20140605104442AAFzzy2 Rowen NNP Sports PERSON
0.5 2:1 3:6 4:0 5:0 7:1 73:1 12442:1 # 20140607191241AAICEVB United NNP Home_&_Garden LOCATION
0.5 2:1 3:6 4:0 5:0 7:1 73:1 11049:1 # 20140610083106AA7AAUT Steaks NNP Dining_Out ORGANIZATION
-0.5 2:0 3:6 4:0 5:1 7:0 26:1 5214:1 # 20140621092416AArsE0s virgin JJ Social_Science TOKEN
-0.41742520640477720483829671138665 2:0 3:5 4:0 5:1 7:0 40:1 5659:1 # 20140603020037AAlyzyA south RB Travel TOKEN
-0.5 2:0 3:5 4:0 5:0 7:1 73:1 11361:1 # 20140618202204AAODcVd Pizza NNP Food_&_Drink TOKEN
0.5 2:0 3:7 4:0 5:1 7:0 8:1 3646:1 # 20140615060824AA0aRHm youtube NN Computer_&_Internet ORGANIZATION
0.5 2:0 3:7 4:0 5:1 7:0 8:1 13566:1 # 20140617033632AAaS0SQ lindsay NN News_&_Events PERSON
-0.5 2:0 3:4 4:1 5:0 7:0 73:1 5654:1 # 20140607125905AA2JtXv U.S. NNP Politics_&_Government TOKEN
-0.5 2:0 3:4 4:1 5:0 7:0 73:1 13985:1 # 20140612211617AAE6Bis ISIS NNP News_&_Events TOKEN
-0.0030435289296946166359703056514263 2:0 3:8 4:0 5:1 7:0 26:1 7068:1 # 20140603215034AABtnxF american JJ Dining_Out TOKEN
-0.5 2:0 3:7 4:0 5:1 7:0 26:1 2720:1 # 20140621155455AA5YRJ2 scarlet JJ Business_&_Finance TOKEN
-0.5 2:0 3:6 4:0 5:1 7:0 8:1 1441:1 # 20140614114159AAxmnir google NN Travel TOKEN
-0.13498465535571330109476662073575 2:0 3:60 4:0 5:0 7:0 73:1 19511:1 # 20140609172302AAjgqUA https:##help.yahoo.com#kb#mail#SLN2717.html?impressions=true NNP Yahoo!_Products TOKEN
0.5 2:1 3:6 4:0 5:0 7:1 73:1 4508:1 # 20140618125641AAGkGpi Isaacs NNP Education_&_Reference PERSON
0.5 2:1 3:6 4:0 5:0 7:1 73:1 4481:1 # 20140618125641AAGkGpi Hughes NNP Education_&_Reference PERSON
-0.18517837417345361927800695411861 2:1 3:4 4:0 5:0 7:1 73:1 10318:1 # 20140611090216AAsNyRd Lets NNP Family_&_Relationships TOKEN
-0.18592141326896260977719066431746 2:1 3:4 4:0 5:0 7:1 73:1 3180:1 # 20140603005221AAThPnj Data NNP Consumer_Electronics TOKEN
0.5 2:0 3:5 4:0 5:0 7:1 73:1 11355:1 # 20140616143448AAdU6Ze Panda NNP Dining_Out ORGANIZATION
-0.18556234880062305592218763194978 2:1 3:4 4:0 5:0 7:1 73:1 5065:1 # 20140608162419AAwr1N9 Kids NNP Entertainment_&_Music TOKEN
-0.1858442818140413343996897310717 2:1 3:4 4:0 5:0 7:1 73:1 11772:1 # 20140620063230AAXLo9n Cola NNP Food_&_Drink TOKEN
0.5 2:0 3:8 4:0 5:1 7:0 26:1 7068:1 # 20140606032555AA8mCFY american JJ Politics_&_Government ORGANIZATION
-0.5 2:0 3:8 4:0 5:1 7:0 26:1 7068:1 # 20140603215034AABtnxF american JJ Dining_Out TOKEN
-0.28677965946032912825103267095983 2:0 3:5 4:0 5:0 7:1 73:1 6191:1 # 20140611055725AAKXJ4n Major NNP Health TOKEN
-0.18584428181403467306154198013246 2:1 3:4 4:0 5:0 7:1 73:1 1795:1 # 20140621012549AAOo4ve Arts NNP Arts_&_Humanities TOKEN
-0.18562263139137158418634498957545 2:1 3:4 4:0 5:0 7:1 73:1 12953:1 # 20140622225954AAAlKMt Hung NNP Local_Businesses TOKEN
-0.18513242954794151273745228536427 2:1 3:4 4:0 5:0 7:1 73:1 1871:1 # 20140605091638AATCTbo Xmas NNP Arts_&_Humanities TOKEN
-0.28661314131826465256835945183411 2:0 3:5 4:0 5:0 7:1 73:1 4393:1 # 20140610062626AA46ms6 State NNP Education_&_Reference TOKEN
-0.28631118523389531560496834572405 2:0 3:5 4:0 5:0 7:1 73:1 14382:1 # 20140614170630AA1o9BQ Saudi NNP Politics_&_Government TOKEN
-0.5 2:0 3:6 4:0 5:0 7:1 73:1 3931:1 # 20140603215034AABtnxF Google NNP Dining_Out TOKEN
-0.5 2:1 3:9 4:0 5:0 7:0 73:1 7069:1 # 20140610162943AA8McBJ McDonalds NNP Games_&_Recreation TOKEN
-0.11024900074598953381155297392979 2:0 3:2 4:1 5:0 7:0 73:1 4507:1 # 20140607181926AAii9kA C. NNP Pets TOKEN
0.5 2:0 3:4 4:0 5:0 7:1 73:1 262:1 # 20140603053113AAVRR5O John NNP Local_Businesses PERSON
0.5 2:0 3:4 4:0 5:0 7:1 73:1 1627:1 # 20140618141409AA9yzif King NNP Entertainment_&_Music PERSON
0.5 2:0 3:4 4:0 5:0 7:1 73:1 5211:1 # 20140626142532AAHm2Mx Club NNP Pets ORGANIZATION
-0.28691068391867524667304678587243 2:0 3:5 4:0 5:0 7:1 73:1 1886:1 # 20140617195809AA0PD6g Maria NNP Sports TOKEN
-0.14194322557760763459100417094305 2:0 3:1 4:0 5:0 7:0 73:1 7755:1 # 20140620035536AASKdrI _ NNP Computer_&_Internet TOKEN
-0.14078712044404539938113885000348 2:0 3:1 4:0 5:0 7:0 73:1 639:1 # 20140618095228AAKVjIw 2 NNP Science_&_Mathematics TOKEN
0.5 2:0 3:7 4:0 5:1 7:0 8:1 7797:1 # 20140605081144AAuazx4 michael NN Science_&_Mathematics PERSON
0.5 2:0 3:4 4:0 5:0 7:1 73:1 9040:1 # 20140605104442AAFzzy2 Bray NNP Sports PERSON
0.5 2:0 3:4 4:0 5:0 7:1 73:1 9488:1 # 20140616143448AAdU6Ze Jack NNP Dining_Out ORGANIZATION
0.5 2:0 3:4 4:0 5:0 7:1 73:1 11327:1 # 20140616143448AAdU6Ze Loco NNP Dining_Out ORGANIZATION
0.5 2:0 3:4 4:0 5:0 7:1 73:1 13993:1 # 20140617191218AAiEBHA News NNP News_&_Events ORGANIZATION
-0.5 2:0 3:6 4:0 5:1 7:0 8:1 1441:1 # 20140604115540AAQrGu2 google NN Travel TOKEN
-0.1852261315580981115846981310824 2:1 3:6 4:0 5:0 7:1 73:1 11700:1 # 20140618202204AAODcVd Drinks NNP Food_&_Drink TOKEN
-0.5 2:0 3:5 4:0 5:0 7:1 73:1 13946:1 # 20140610123048AAZOuhW Putin NNP Politics_&_Government TOKEN
-0.13530283799968856328632682561874 2:0 3:57 4:0 5:0 7:0 73:1 18744:1 # 20140623193424AAEouJN http:##www.superbiiz.com#detail.php?name=MB-970AS3P&c;=CJ NNP Computer_&_Internet TOKEN
-0.5 2:0 3:7 4:0 5:0 7:0 73:1 3594:1 # 20140622080843AAfcL4m YouTube NNP Pets TOKEN
-0.5 2:0 3:6 4:0 5:1 7:0 43:1 1441:1 # 20140616063937AAhSsrT google VBP Business_&_Finance TOKEN
0.5 2:1 3:9 4:0 5:0 7:0 73:1 7069:1 # 20140615191331AAdpnmg McDonalds NNP Dining_Out ORGANIZATION
0.5 2:0 3:6 4:0 5:0 7:1 73:1 11147:1 # 20140601100338AAUfBLz London NNP News_&_Events LOCATION
-0.18565238720186449938864825526252 2:1 3:4 4:0 5:0 7:1 73:1 3844:1 # 20140626112013AAPPVIB Apps NNP Consumer_Electronics TOKEN
-0.1858052825293767806869027481298 2:1 3:4 4:0 5:0 7:1 73:1 8234:1 # 20140622013948AAZujJH Amps NNP Science_&_Mathematics TOKEN
-0.18564977872995630514552090062352 2:1 3:4 4:0 5:0 7:1 73:1 11774:1 # 20140620063230AAXLo9n Iced NNP Food_&_Drink TOKEN
0.5 2:0 3:5 4:0 5:0 7:1 8:1 5440:1 # 20140616143448AAdU6Ze Juice NN Dining_Out ORGANIZATION
0.5 2:0 3:7 4:0 5:1 7:0 8:1 13781:1 # 20140616154757AA3uubn britain NN News_&_Events LOCATION
0.5 2:0 3:7 4:0 5:1 7:0 8:1 18308:1 # 20140622230045AAAI6WE zealand NN Travel LOCATION
-0.5 2:0 3:4 4:0 5:0 7:1 73:1 13979:1 # 20140610123048AAZOuhW Bush NNP Politics_&_Government TOKEN
-0.5 2:0 3:4 4:0 5:0 7:1 73:1 5211:1 # 20140614004826AAWj9IB Club NNP Entertainment_&_Music TOKEN
-0.18498568030386094984685030340188 2:1 3:6 4:0 5:0 7:1 73:1 7897:1 # 20140618024923AAR6gIm Ghosts NNP Science_&_Mathematics TOKEN
0.5 2:0 3:7 4:0 5:0 7:0 73:1 3594:1 # 20140610162943AA8McBJ YouTube NNP Games_&_Recreation ORGANIZATION
-0.5 2:1 3:9 4:0 5:0 7:0 73:1 7069:1 # 20140610162943AA8McBJ McDonalds NNP Games_&_Recreation TOKEN
-0.14148500316446599445185938748182 2:0 3:1 4:0 5:0 7:0 73:1 666:1 # 20140617015321AAEmy38 6 NNP Politics_&_Government TOKEN
-0.5 2:0 3:4 4:0 5:0 7:1 73:1 2657:1 # 20140610172137AA9hoaq York NNP Dining_Out TOKEN
0.5 2:0 3:3 4:0 5:0 7:1 73:1 2656:1 # 20140625072412AAUASEG New NNP Yahoo!_Products LOCATION
0.5 2:0 3:6 4:0 5:1 7:0 8:1 15567:1 # 20140603004555AAv1K5X balmer NN Politics_&_Government PERSON
-0.5 2:0 3:6 4:0 5:1 7:0 88:1 359:1 # 20140606165846AA1KBRp tumblr VB Social_Science TOKEN
-0.49700724954251573883823311916785 2:0 3:5 4:0 5:1 7:0 40:1 5659:1 # 20140603020037AAlyzyA south RB Travel TOKEN
-0.39709099857010698997328290715814 2:0 3:6 4:0 5:1 7:0 12:1 5214:1 # 20140601140351AAMxHZD virgin NNS Pregnancy_&_Parenting TOKEN
-0.5 2:0 3:4 4:0 5:0 7:1 73:1 2657:1 # 20140610172137AA9hoaq York NNP Dining_Out TOKEN
-0.28693789255266466398097691126168 2:0 3:5 4:0 5:0 7:1 73:1 1511:1 # 20140617223537AAdlxEL Peace NNP Sports TOKEN
-0.28718498364535127720387208682951 2:0 3:3 4:0 5:0 7:1 73:1 11153:1 # 20140611173552AAtQ5Xj Pie NNP Food_&_Drink TOKEN
0.5 2:0 3:3 4:0 5:0 7:1 73:1 2656:1 # 20140620214550AA74tKP New NNP News_&_Events LOCATION
